1352 100
， -0.22177446 -0.2844614 -0.056872472 0.115288906 -0.10752026 0.19542505 0.11712374 0.11892621 -0.023238335 0.012241048 -0.15417433 -0.09251197 0.000658554 -0.1150167 -0.10015602 -0.19046979 -0.7484443 -0.36335182 0.027836215 0.14830218 0.011642425 -0.25548244 0.05583775 -0.14432879 -0.022845967 0.08486999 -0.009328036 0.07685022 -0.015915817 0.09215909 -0.012694896 0.09113961 0.11557108 0.17890064 -0.11480011 0.27589843 0.044202186 0.13032927 -0.1285217 0.13592575 0.0402054 0.3966902 0.010313321 -0.044114243 0.09083448 0.042371124 0.33615124 0.06724957 -0.14632562 -0.0011899858 0.19617532 0.051620785 0.25766772 0.15853092 -0.11690581 0.026565887 0.06562451 0.10788557 -0.11935157 -0.6728195 0.14094076 0.048343107 -0.2043133 -0.014974641 0.049967386 -0.19687049 -0.03724725 0.22242928 -0.046247907 -0.021540679 -0.041163806 -0.04426485 -0.03952254 0.12859829 -0.022205738 -0.26662305 -0.0068271775 0.11195223 0.0043703318 0.1691434 0.014664682 -0.05969214 -0.21629989 0.1404493 -0.06993335 0.3152755 0.296628 0.099243246 0.049833305 -0.14584279 0.12363871 -0.037892543 -0.084813744 -0.00657081 0.18865034 -0.013341339 0.03338743 -0.17582352 0.11159006 0.1060367
子 -0.021896288 -0.2068988 -0.23745038 0.13862775 -0.109606124 0.14911026 0.12951668 0.053303547 0.14434502 -0.22760206 0.0020359675 -0.086491875 0.13838552 -0.14358434 -0.018271202 -0.0028190135 0.22659887 0.0061404095 -0.2592777 0.211312 -0.05686147 -0.10161807 -0.18218976 0.041051716 0.060352657 0.08949325 0.09523102 0.051088195 -0.00094056013 0.1077633 -0.23507418 -0.04030517 0.053617697 -0.06840901 0.04991694 0.007121856 0.01974282 0.003863953 0.07052786 -0.08948048 0.079534404 0.08267721 0.14118445 0.06831112 0.25832984 0.092134506 -0.17453487 0.039543554 -0.1253295 0.10050598 0.086342834 0.06069438 0.12754379 0.062298477 -0.12212843 0.07176203 0.06974882 -0.047513228 0.05015047 -0.3173857 -0.025938964 0.06966004 0.03571173 0.042078186 -0.009343113 0.062433925 -0.018898156 0.03249076 -0.022364054 0.01321176 -0.0601741 -0.1063885 0.031343017 0.06337988 0.8088169 -0.12141201 -0.055985015 -0.06827765 0.010885389 -0.2339731 0.0032399686 -0.05886377 -0.108262315 0.03397084 0.14781299 0.19582793 0.12592714 -0.21100855 -0.0061496766 -0.08348848 0.015818026 0.08212576 -0.009013002 -0.07844101 -0.010686021 -0.05011803 0.010114277 -0.19621742 0.07454739 -0.10425596
。 0.095763 0.14791586 -0.042703286 0.092404544 -0.16944233 -0.09515713 -0.2807779 0.07800356 0.02684762 0.09406269 -0.2538058 0.030415008 -0.047065575 -0.018763904 0.065504335 -0.113305576 0.23505923 -0.0051969257 -0.35608688 0.11433751 0.32207516 0.11448708 -0.03806942 -0.13492212 -0.015333634 -0.052531272 -0.17991243 0.16479513 0.09867353 0.03411458 0.19629996 -0.075893834 0.108178906 0.19820592 -0.090196565 0.26684955 0.12065483 -0.017883984 0.08061854 0.15598378 0.003833288 0.0808596 0.017428683 -0.0035220496 0.3491521 0.1430673 0.24971497 0.1678266 -0.060400557 -0.04671568 0.37883264 0.0519515 -0.15625907 0.03797496 -0.079464264 -0.08972305 0.06854388 0.13728955 0.13262646 -0.99180025 0.012558432 0.035543386 0.052694783 -0.03859058 -0.18249343 -0.12576613 -0.096521534 0.329838 -0.08343844 -0.1842721 0.016136523 -0.09362815 0.07427065 0.08777316 0.23528488 -0.16979937 0.14244007 0.09026377 0.04105752 -0.20121817 0.191626 0.014027578 0.23002249 0.122812554 0.02717557 0.1471764 0.15188469 0.22607249 0.0026860163 0.09002771 0.21921289 -0.15488699 0.0032932493 -0.13441835 -0.11847282 -0.026947906 0.109320484 -0.1679838 0.09181079 0.13354105
： -0.06757864 -0.12614089 -0.1612147 0.25665495 0.10952406 0.09791316 -0.08975579 -0.12714781 0.16712856 -0.115038335 0.029817298 0.033883303 -0.14738205 0.039441086 0.03821625 -0.28700426 0.11934909 -0.12497535 -0.011628333 0.0075787557 -0.1637793 0.02527795 -0.066594414 -0.10875136 0.028916294 0.17842261 0.28809807 -0.22579446 0.1374317 -0.1853167 0.1844721 -0.15592341 -0.05955375 0.21163745 0.075288855 -0.08710274 0.11423226 0.11420258 0.1461824 0.01392793 0.05728769 -0.10003533 0.079726376 -0.056245796 0.27025703 0.20716883 0.109013334 -0.058738105 0.05178819 0.11586399 0.08463601 0.04771984 -0.028136054 -0.016212543 0.15986064 -0.004211439 0.12875697 0.12091693 0.076814786 -0.53535026 -0.104972206 0.13821314 0.20373419 0.08614927 0.08425173 -0.13492616 -0.017116735 0.068080984 0.0687379 -0.01361204 -0.04653064 -0.07443589 0.07468565 0.06779547 0.72202474 0.1340237 -0.09563948 -0.056540478 0.0009308532 -0.32902318 0.12231849 0.10540626 0.11644351 -0.056229133 0.18945587 0.058660354 -0.120005615 -0.00066115084 0.17527327 -0.035316516 -0.00021318637 -0.24380682 -0.08088901 -0.03528564 0.19437028 -0.12552571 -0.08068485 -0.08768563 0.06412903 0.057209153
曰 -0.042194735 -0.02371305 -0.014485066 0.14375378 0.12822892 0.08955492 -0.004235576 -0.13974129 0.0041185627 -0.26282218 -0.036472157 -0.3607207 -0.03253139 0.059238464 -0.010392818 -0.15463202 0.21619353 -0.010147685 -0.104337595 0.04309691 -0.10909185 0.013528105 0.06570265 0.015495603 0.023335824 0.15542565 0.12979588 -0.11282807 0.1128305 -0.067410104 0.0069659892 -0.11346835 -0.13993898 0.085032284 0.06570707 -0.20992297 -0.048348222 -0.0057964325 -0.0016781297 -0.0894309 0.008826083 -0.098925 0.16307741 -0.0031181178 0.17517865 0.14109135 0.01980283 -0.119826026 0.3561422 0.013867436 0.2077588 0.097701244 0.013164898 -0.12671332 0.14311323 -0.074636966 0.08453953 0.10571436 -0.11175977 -0.5111774 -0.20830879 0.050325654 0.12345311 0.02736279 0.22080098 0.07038975 0.024121452 0.06930951 -0.020307157 -0.22944023 -0.02757836 -0.02519847 -0.16030732 0.03912808 0.86277705 0.10838714 -0.030663602 -0.03286188 0.1843272 -0.42101917 0.0004084792 0.17593935 0.08299516 -0.036019906 0.224576 0.016436404 -0.025557024 0.13721243 0.015799005 0.04849434 0.10818468 -0.17133412 -0.20704564 0.019339016 0.12992556 -0.120384574 -0.02120693 -0.090769395 0.14544122 0.07700717
之 -0.13195182 0.017522104 0.102526166 0.06785715 0.041717656 0.21621257 0.028790135 -0.14146613 0.09909339 -0.05674742 -0.26280397 0.025609022 0.098874584 -0.07357957 -0.15797776 -0.19095087 -0.37893116 -0.19239667 -0.114862435 0.04414491 -0.02509059 0.07740063 0.13770506 -0.17301773 -0.085117035 -0.10484035 -0.1933985 0.21963823 0.06252648 0.058188483 0.07734773 -0.018225191 -0.038152736 -0.1675024 0.01608968 0.05324949 0.008863624 0.12927257 -0.08783186 -0.015184588 -0.022892212 0.33514276 0.41952467 -0.006532887 -0.11655655 -0.12581575 0.2689804 -0.030220006 -0.13408071 -0.056171563 0.26565394 -0.11475609 0.14671588 -0.18563175 -0.021475574 -0.039602526 -0.08962001 -0.043588437 0.13579708 -0.25581568 0.0048592 0.10788321 -0.18141109 0.14919034 0.018913966 -0.2878096 0.17750199 -0.10908342 -0.15494984 -0.03278819 -0.07886135 0.013772708 0.03996452 0.17618506 0.38577363 0.1999445 -0.14319843 0.06431368 0.07654312 -0.10933922 0.25721887 -0.04982102 0.124519065 -0.039600372 -0.24966146 0.10027771 0.26855624 -0.047459606 0.014646768 0.05645112 -0.17145258 -0.017393172 0.40579963 0.011192823 -0.1849441 -0.032013264 0.19700319 0.0027985119 0.05265001 0.020125097
不 -0.113647036 -0.0144141335 -0.014953968 -0.13520873 0.09232066 0.013605099 -0.058638208 0.131949 -0.07978684 0.026599748 -0.12810414 -0.05182954 -0.0061382893 0.009508057 -0.08659845 0.18688339 -0.3847348 -0.25327396 -0.13601701 0.23602201 0.054196086 0.061534505 -0.07484915 -0.13200228 0.22648287 -0.027356472 0.09514898 -0.12863524 0.19810013 -0.044640105 -0.1505123 0.122543335 -0.173203 -0.1500982 -0.08977437 0.23534352 0.0332677 0.009986805 -0.012369085 -0.030601095 -0.011509515 -0.07262259 0.18530947 -0.21781038 0.1807152 -0.11819413 -0.084311776 0.10748552 -0.23172307 -0.14206411 0.101600714 -0.011756803 -0.12948994 0.07308 0.063348435 -0.17257538 -0.024581356 0.1345532 -0.013389789 -0.64312863 -0.040195484 0.09193997 -0.0052341367 0.3259255 -0.058669277 -0.22480139 0.07703841 0.19056949 -0.18324125 -0.050964434 -0.14559406 0.043059535 -0.065971226 -0.080369845 0.070611395 -0.13523912 -0.25651494 -0.04227504 0.03526673 -0.163012 -0.030056566 0.14966565 0.06057378 0.21081293 0.15197271 0.24487379 0.08899195 0.069515035 0.2745633 -0.14766894 -0.10086445 0.12442915 0.19717751 0.09950889 0.009374101 -0.06260074 0.007590817 -0.030601377 0.20871048 -0.03460456
也 -0.021946797 -0.04740575 0.057616714 0.015389511 -0.2737311 -0.183388 -0.10579389 0.029004788 -0.002471046 -0.31406295 -0.110789 0.02784552 -0.015466309 -0.008169928 0.102576956 -0.027286777 -0.4336024 -0.116524875 -0.21650581 -0.15655762 -0.1647741 -0.20332815 0.04724185 -0.082573675 0.1578362 0.009552054 -0.13419108 0.0045126122 0.24498668 -0.09079355 0.07608458 -0.012317296 0.18226865 -0.2960494 -0.034280613 -0.0015195168 -0.111570306 -0.05036001 0.11326875 -0.1244147 -0.02299536 0.29447317 0.25707433 0.20137455 -0.18704139 0.105828114 0.24915081 0.070891105 0.09725356 0.031432416 0.029425869 -0.1266789 -0.18909724 0.027397294 0.070930265 -0.12786521 -0.3033207 0.014108458 0.14527032 -0.14722869 -0.09044381 0.13246898 0.04157802 -0.077422045 0.023162402 -0.11746059 -0.0034606988 0.07684995 -0.1271014 -0.1036861 -0.25006628 0.07497334 0.011347624 -0.09274416 0.71073 -0.1134666 0.10629986 0.23129502 0.07122092 -0.058953375 0.015232283 0.07610683 0.11910964 0.05621666 0.02172621 -0.15145409 0.058124956 -0.049427673 0.05301647 0.19235732 0.16254914 -0.13033418 0.15199025 0.0012618126 0.050455846 -0.012828477 -0.04289914 -0.06420959 -0.057025082 0.12657945
而 -0.06309034 0.1681047 -0.0869135 -0.12509167 0.11452528 -0.0019668508 0.014101583 0.055641547 -0.24693829 0.09282873 -0.0012123454 0.048381876 -0.09333174 -0.04280558 -0.32293427 0.025528194 -0.44273868 -0.034650393 -0.10861059 0.11807637 -0.14371628 0.15854973 0.15858358 0.1558971 0.2904709 -0.26638788 0.15388009 0.014220802 0.062275637 0.046588268 0.09248068 -0.1397387 -0.003944938 -0.11789894 0.120958 0.08481572 0.09319041 -0.19332772 -0.13546906 -0.15179649 9.110989e-05 0.016787222 0.2573858 0.15267053 0.14916715 -0.045628417 0.017717501 -0.18566301 0.09518114 -0.1392437 0.18258987 -0.16912241 -0.0603085 0.26048702 0.1958041 -0.18985021 -0.10189983 0.095392846 -0.09400616 -0.6285302 -0.0053536776 0.11954261 0.20686819 0.22588968 -0.17220046 0.22875746 -0.10797364 -0.021389289 0.22783208 0.14521405 -0.03103133 -0.026853168 0.07352968 0.056583967 0.22032955 -0.02610361 -0.048739623 0.112678625 0.17777382 -0.35190877 -0.037143268 0.117776446 0.06194396 -0.102556676 0.15003759 -0.21206082 0.11661989 -0.06254329 0.06704358 -0.058871113 -0.021821091 -0.04365401 0.20959984 -0.15054072 0.13976899 -0.03599726 -0.04775659 -0.23467048 0.009947697 -0.117706135
？ 0.19152762 -0.15380915 0.061708357 0.007277373 -0.022189897 -0.23740727 -0.28506947 -0.01571608 -0.060627777 0.1981893 0.07403539 0.1371789 -0.008606588 -0.014299468 0.031220512 -0.14153923 -0.3660429 -0.07336575 -0.24601318 -0.012219437 0.03319501 0.11333784 -0.16766402 -0.09597462 0.04752283 -0.174575 0.23295136 0.15294442 -0.07554458 -0.099047 -0.15489767 0.0862816 0.1589956 0.64415187 -0.23210981 -0.10229064 0.105179474 0.24409693 0.006221671 0.16725497 -0.21103051 0.09984134 0.03980288 -0.027634215 -0.09204692 -0.01671378 -0.13915995 0.13010617 -0.009565154 0.23314609 0.00016721414 -0.060212802 0.119567595 -0.019059125 0.10301048 -0.18508397 -0.047869977 -0.037969682 -0.08202071 -0.35607883 -0.09354496 0.16775656 -0.05119169 0.125707 0.0450796 -0.03600264 0.00032860175 -0.06195778 -0.06372614 0.053825006 -0.06680988 0.03875804 -0.032690436 0.29849797 0.72615874 0.080585435 -0.039978575 0.11305853 0.10648834 -0.2095535 0.062202703 0.15797812 -0.063519955 0.16480474 0.14663933 -0.036369167 0.037986014 0.019528417 0.34359634 0.087587625 0.1490154 -0.12173004 0.09130557 0.03870996 -0.16821119 -0.078657255 -0.11975581 -0.28543413 0.11516701 0.05886555
其 -0.417437 -0.0187724 -0.08801551 -0.15012425 0.004577649 -0.065991946 -0.11922349 0.24293958 0.08004312 -0.06277244 -0.088003576 -0.23181795 0.089887984 -0.10259778 -0.05835922 0.042743247 -0.39674157 -0.019825583 -0.09165414 -0.119665034 -0.0011094804 -0.01734604 0.13649637 0.058592886 0.06409534 -0.16855112 0.016625931 0.035075173 0.0917666 -0.05674985 0.20874825 -0.038465515 0.11443839 -0.1489828 0.12204041 -0.10342266 -0.16542892 -0.079671286 0.1990365 -0.097282045 -0.19648474 0.04528766 0.05279647 0.19002905 0.027655998 -0.25242308 -0.0040710717 0.1632824 -0.21822482 -0.03864527 0.022274714 -0.065411896 0.006444574 -0.067053266 -0.0945089 0.016499253 -0.08926883 0.0659512 0.014348222 -0.44751135 0.1913274 0.079020716 0.014932343 0.09635082 -0.03177308 -0.18526594 -0.18848744 0.05680372 -0.16610992 0.16161062 0.14061455 -0.004909029 -0.12285985 -0.01980802 0.20558637 -0.21650158 0.033407222 -0.026491683 -0.11758255 -0.24903114 -0.08411466 0.07031701 0.23348883 -0.09377069 -0.00020132636 0.11972785 0.40932512 -0.076737896 0.07523763 0.042501077 0.055266365 -0.02771731 0.22409266 0.025609707 0.004789479 0.040532786 0.0675816 -0.2417269 -0.05390673 0.1580955
人 -0.0052553033 0.14252856 0.048543733 0.09792002 -0.14410871 -0.15791744 0.058795787 0.06401228 -0.05157145 -0.011429718 -0.16590972 -0.113540314 0.010405558 -0.21193789 -0.018688107 -0.10969465 -0.39994773 -0.2734615 0.023369143 0.23769759 0.066776976 -0.031025195 -0.17470959 -0.06972872 0.02345469 0.030499224 0.111732766 0.0025318696 -0.28990582 -0.10868258 0.35093775 0.059521325 0.06830707 0.013847436 0.17972003 -0.042782996 -0.20720872 -0.17940359 0.12093973 0.18906234 0.06733997 -0.015764218 0.13142715 -0.097737245 -0.22554275 0.17689636 -0.03539583 0.18255377 0.089639306 0.06032254 -0.042399433 -0.053686745 0.08390534 0.028111393 -0.17094442 -0.043174673 0.07506045 -0.09354589 -0.21761444 -0.3436076 -0.1229597 0.10996084 0.13378468 0.06316993 0.17561151 0.18991967 0.019714426 -0.01601563 0.09076878 0.28842205 -0.05677124 0.03436835 -0.18686561 0.13097437 0.34681043 -0.010120426 0.21404275 -0.051385313 -0.106850855 -0.16806951 0.12667644 0.18136723 0.25629926 0.06773889 -0.2170895 -0.1201541 -0.0332139 0.046180137 0.139057 0.10571635 0.0024348488 -0.086689025 -0.042560447 -0.048185926 0.025957128 -0.14740941 0.109838985 -0.07147806 0.11627547 0.0156105235
者 -0.24690011 -0.21774104 -0.19327553 0.094775334 -0.13641757 -0.07713267 0.086864516 -0.07632886 -0.06125773 0.1159084 -0.26412505 0.052105322 0.076506786 0.13962284 0.12150239 -0.25293672 -0.4018316 0.09964376 0.07356105 -0.041093044 0.18861987 -0.18021421 -0.053069156 0.21520922 -0.09879823 -0.1097184 0.15614119 -0.027292749 0.032114636 0.09186492 0.025141466 -0.114456624 0.059203424 -0.015444561 0.09559774 0.15241969 0.030025847 0.13249962 0.33342502 0.10231907 -0.20208469 0.08793354 0.043675262 -0.116569504 -0.040661402 0.0247555 -0.02675948 -0.011052077 0.17662966 -0.018278543 -0.17967157 -0.009208365 0.042314537 -0.22133723 0.0947592 -0.2133724 -0.0136717055 0.24812357 0.014078193 -0.45215964 -0.22705182 0.042324495 0.1228928 -0.031652335 -0.13242978 0.16196668 -0.015421811 0.052583326 -0.10788859 0.020453013 -0.2429202 -0.08434452 -0.0052416623 0.16488145 0.2574359 0.030368308 -0.06568082 -0.06131522 0.30704847 -0.030158773 -0.11516118 0.0990421 0.17579633 0.11053943 0.0662036 -0.059210543 -0.17389181 -0.18146452 -0.020850997 -0.08964533 -0.039196637 0.038405444 0.056836244 0.017782096 -0.00096443004 -0.14111954 -0.07763907 -0.0035654814 -0.23505966 -0.032021627
以 -0.08027139 -0.29778606 0.026328765 -0.12786224 0.030800698 -0.08361703 -0.10616666 0.090755686 -0.04215103 0.07502564 0.18268187 0.33796453 0.109949104 0.1872994 0.24915259 -0.10616911 -0.11900756 -0.076162286 -0.3981947 0.23934108 0.020413203 -0.044973794 -0.18680978 -0.18434735 -0.22254218 -0.23945326 0.0063868416 0.03570692 -0.16388692 0.07683347 0.087267265 0.01869162 0.011666674 -0.3833212 0.062793896 -0.1094037 -0.18910389 -0.055555854 0.08648951 -0.1906087 -0.09992571 -0.13862857 0.07127701 -0.10742775 0.010470943 0.29257375 0.05094489 -0.070737354 -0.1271314 0.2870502 -0.0356896 -0.25952572 0.19766875 0.3170553 -0.06239562 -0.028209694 -0.0023628888 0.03502512 0.10334432 -0.7238905 -0.15940587 0.13002543 -0.056267243 -0.21282491 -0.052234165 0.10089898 -0.17028852 0.18256474 -0.0886093 0.09324606 0.022903273 0.0698458 0.10971217 -0.1916824 0.23034693 -0.13636181 -0.22052976 0.12486248 0.040885426 -0.19702172 0.06943883 -0.015978009 -0.14444616 -0.054748386 0.22942315 -0.20742297 0.06403503 0.08716545 -0.14648601 -0.16306627 0.008908616 -0.01411023 0.065029226 0.044048235 0.22024554 0.089257985 -0.0072654695 -0.15758505 0.063861385 0.050899755
有 -0.016251514 0.061938263 0.036867537 0.24403551 -0.14309813 0.15021749 0.15351535 -0.058236208 -0.2669205 0.17475604 0.04964929 -0.19332378 -0.12293924 -0.028955908 -0.30422887 -0.06784857 -0.26524937 -6.0081482e-05 -0.08947459 -0.2069093 0.19520253 -0.22135907 -0.43318897 -0.18100598 -0.22666448 -0.22685066 -0.15849236 0.0907276 0.072507575 0.018302789 0.22192407 -0.080350675 0.25123525 0.033249985 -0.06770769 0.07853752 0.036399957 -0.1946115 0.0031679166 -0.073596686 -0.021498453 0.032417726 -0.025648251 -0.2910833 -0.09735049 0.33235413 -0.0060405387 -0.24841455 0.22481556 0.012672836 -0.0031567256 0.09301932 0.10309723 0.020783445 0.22192024 0.06769618 0.025922993 0.11736848 0.07149509 -0.42764542 0.02570538 -0.07483981 -0.00727508 -0.07234735 -0.040826034 0.23188946 -0.1375279 0.16759689 -0.032841858 0.15449977 -0.030626409 -0.10254635 -0.0159858 -0.007885363 0.35153988 -0.016717013 -0.2602521 0.13990779 0.025341703 -0.028111044 -0.13357472 0.06896082 0.14398724 -0.07065745 0.02650217 0.051040404 0.17885908 0.012162278 0.21123622 -0.22220653 -0.13028428 -0.18386333 0.032947652 -0.13417116 -0.19100541 0.09371951 0.0129842535 -0.14210422 0.04650836 0.082669094
于 0.31876382 0.13961981 -0.088298045 -0.03528882 -0.1311075 0.056328755 -0.0705897 -0.15195964 0.09823646 0.18691097 0.1490627 -0.054200467 -0.060866747 -0.017031547 0.23143832 -0.07479929 -0.13205642 -0.12751351 0.14752127 0.25240764 -0.00350893 -0.06734439 -0.05331196 0.11149111 0.07409072 -0.1396262 0.0997772 0.2518774 -0.09395692 -0.09647432 0.00655304 -0.01808853 0.14043696 -0.19263197 0.23591849 0.20663401 -0.121301934 -0.062534295 -0.25531667 -0.3245912 0.17952418 -0.08774305 0.045073856 0.26031578 0.13281398 0.2069256 -0.018513836 -0.22546312 0.19333711 -0.18773092 0.12468397 -0.08451668 0.20977485 0.105485305 -0.0128593035 -0.0381536 -0.32997617 0.055564284 0.15105243 -0.5800357 0.0759112 0.16039318 -0.15460615 0.0749255 0.060964886 0.04142282 0.39044315 0.054925088 -0.049367145 0.050907947 0.04665295 -0.17226313 0.22188082 0.4665101 0.2697569 0.13982381 0.051285245 -0.129657 -0.24329212 -0.19234005 -0.018225925 0.08030338 0.042986475 -0.2316992 0.16610256 0.048473977 0.10938573 0.22650048 -0.08363108 0.06681867 -0.09197012 0.03201241 -0.07853911 0.0754356 -0.08539901 -0.32187462 0.10690862 0.08479801 0.03988444 0.17920777
矣 0.005289877 0.00044278544 0.054517407 0.03392158 -0.15332814 0.028932245 0.040533435 -0.19263685 0.15411934 -0.16576861 0.016750809 -0.051821273 -0.04278204 0.17461652 0.083850324 0.19868445 -0.051605377 0.0022010761 0.191669 0.1543459 0.059461575 0.036465675 0.1333788 0.082662486 0.31974307 -0.17835304 -0.018014463 0.20019518 -0.06925392 0.04672605 0.12261562 -0.13634293 0.111554004 0.009259363 -0.023432408 -0.12917818 0.02161408 -0.046899665 0.26549324 -0.37612954 0.105937384 0.040281847 0.23858224 -0.21662013 0.1574227 -0.24295105 0.31121108 0.102270454 0.21453795 0.085211 -0.023294052 -0.11920056 -0.01843533 -0.08786527 -0.0779784 -0.09295069 0.054092143 -0.07484298 -0.006429343 -0.7203604 0.059737522 0.07186636 0.010585214 0.005110168 -0.088979565 0.18147023 0.059641153 0.06801934 -0.16625497 -0.0056562624 0.12427408 0.033005837 0.19541532 0.0028287536 0.31425565 -0.058498327 0.21560577 0.070547484 0.05509951 -0.07824095 -0.0560691 0.09041084 -0.2947242 0.003713347 -0.078654855 0.055826034 -0.19361734 -0.051980827 0.15932536 -0.008104525 0.08187359 0.041156266 0.26036477 0.16803059 -0.002323208 0.17204235 0.10120186 0.07274164 0.022848196 0.43325785
为 -0.028140584 -0.006175487 0.039264854 -0.05802235 -0.060392007 -0.17018238 0.05405806 0.06943877 -0.07862878 0.032207493 0.18021497 -0.12213711 0.17581601 0.13905954 0.11354524 0.22742453 -0.17637554 0.09932212 -0.19479188 0.09302367 -0.04734852 -0.0891911 -0.28737196 0.08415366 -0.14081244 0.3806465 -0.043043442 -0.24997137 0.11488096 -0.21578483 0.039352845 0.045649294 0.08113167 -0.21119988 -0.15788126 0.16056329 -0.24806425 -0.026668794 0.21561621 0.07999302 -0.13814276 0.060860258 -0.14837156 0.090281114 -0.0941636 0.18572849 0.07126097 -0.02629395 0.035086397 0.047466587 0.035377584 -0.21401824 0.33756068 -0.10984109 -0.017990679 -0.06654762 0.00025754917 0.20329994 0.009884215 -0.3710058 -0.07847712 0.051213898 0.2193012 0.14112833 -0.020027587 0.046164542 0.13473746 0.13253391 0.15451841 0.05573318 0.033462573 -0.07496454 -0.07473547 -0.08416375 0.44138616 0.14348133 0.13383421 -0.17941402 -0.11585502 0.010150145 -0.106975526 0.048091225 0.046649553 -0.0072430912 0.0387817 -0.2658649 -0.012835584 -0.037014376 0.15818387 0.094195865 0.24482225 0.05232673 0.26748422 0.021569252 -0.15002261 0.023606334 0.018190175 0.046514247 0.0059899166 0.08723205
君 0.10512613 0.040562045 0.25966388 -0.081106946 0.20297825 -0.076002546 0.28647098 0.09718174 0.004592792 -0.08916047 -0.37617698 0.39558005 -0.06873631 -0.024464348 -0.08470901 0.1831803 0.05632401 -0.08051732 -0.2191908 -0.18554065 0.26916045 0.01453451 -0.047603976 0.26128364 -0.14810632 -0.05306156 0.099651076 -0.12903832 0.00843415 -0.047605377 0.18846802 -0.030153688 -0.015405253 -0.043036416 0.3347476 0.050431814 -0.17064281 0.13459858 0.0150021715 0.07468688 0.09278627 0.13294147 0.09444051 -0.2560195 0.14784048 0.079174824 -0.0034362243 0.19169573 0.032367826 0.057396114 -0.21192506 0.0131365415 -0.16408198 0.056698896 0.051012017 0.014208729 -0.08365306 0.1082426 0.08781167 -0.43078634 -0.07973928 -0.16942559 0.20890187 0.088153265 -0.0596845 0.11039252 0.13293004 0.077723846 0.056311633 -0.049169198 0.06024728 -0.086833425 0.009286878 -0.13985226 0.68735635 -0.07089347 0.09934559 -0.05998079 -0.043997034 0.04510076 -0.00013370733 -0.016889023 -0.04353468 0.03016458 0.045952793 -0.13705267 0.054639466 0.11654115 0.1537239 -0.21816002 0.24847452 -0.03987131 -0.14854169 0.097812094 0.11938675 -0.0070413845 -0.010344946 -0.12961926 -0.016728537 -0.10678309
乎 -0.039712775 -0.08966998 0.0014913382 -0.12421834 -0.11281883 -0.1685533 -0.22263278 0.08675245 0.13057002 0.12177716 -0.12323193 -0.33721808 0.03463205 -0.086372234 0.13210042 -0.05635249 -0.36935645 0.0049158903 -0.13531226 -0.10579067 -0.012845127 0.026737856 -0.16381627 0.16171499 0.09009644 0.16120838 0.13210632 -0.05699705 -0.08898743 0.18964861 -0.033851564 0.12603109 -0.053738948 0.25602272 0.088492475 0.01467422 -0.035921358 0.048300024 0.42543906 -0.41765615 0.07714157 -0.17856961 0.22014903 -0.47834256 0.09073433 0.0463553 0.019012757 -0.22556952 -0.16818435 -0.12450394 -0.017143821 -0.16525397 -0.04111667 -0.020618798 -0.2556637 0.07661206 -0.09459449 -0.108087555 -0.18677606 -0.30901268 -0.067034714 0.15539923 0.056629587 0.015515155 0.008265144 -0.04899317 -0.09178035 0.042503532 -0.3568928 -0.08351345 -0.0991452 -0.08972131 0.17945248 0.11589944 0.4863646 0.10076762 -0.24092607 0.03414638 -0.059046865 -0.2809233 -0.083079755 0.23478583 0.059320915 -0.03241678 0.4264004 0.006298264 -0.010586848 -0.12182403 0.089497514 0.10221602 0.05912905 -0.0034303446 0.016952492 0.0010904849 -0.06287642 0.030357612 -0.0037309052 0.0055131037 -0.07562166 0.022152493
可 0.102812745 -0.12862939 -0.13167772 -0.10241266 -0.07745662 0.27255884 0.01942762 0.012794003 -0.14387007 0.11583518 -0.12766466 -0.082278304 -0.09831798 0.21054296 0.37418285 0.0068116207 -0.49838787 -0.077050686 -0.08931561 0.16220349 0.13195108 0.31222448 0.24762207 -0.15008213 0.04085818 -0.33588693 0.16522062 0.17079568 -0.10389719 0.03199275 -0.001894786 0.043842465 0.0050174687 -0.17988883 -0.30182013 0.0034849374 0.14087512 0.040281188 0.018512495 0.24440026 -0.16651557 -0.081361756 0.12281409 -0.15406932 -0.101867855 -0.024343595 0.10535376 0.18236513 -0.058087636 -0.10695163 0.09367252 0.01776946 -0.025177203 0.01792629 0.2817093 0.1680573 -0.22045092 0.001272329 -0.07555285 -0.37972105 -0.09131359 0.25759354 -0.06558209 0.031491145 -0.09191626 -0.2779488 -0.06250115 -0.03415881 0.15722612 0.07718027 -0.0529818 0.16451795 -0.17367202 -0.09866263 0.32757196 0.0008850931 0.14529933 -0.02799975 0.1490042 -0.107166134 0.053797174 0.38980356 0.09692792 -0.07850914 0.17926078 -0.21667509 -0.15198794 0.07838535 0.015051447 0.010426515 0.28858483 0.023356795 0.031911835 -0.093272544 -0.0051171365 -0.072142065 0.031113107 -0.1258998 -0.03544494 -0.080096275
如 0.19876775 -0.27236286 -0.039133694 0.023683932 0.07204636 -0.20270254 0.08766836 -0.12765233 -0.06519993 0.037748024 -0.101857305 -0.110370025 -0.26467368 0.011478603 -0.04641543 0.00011574681 -0.4352567 -0.12614347 0.13583855 -0.081556335 -0.13740973 0.0009573195 0.13372853 -0.21113658 -0.032127272 -0.054134153 0.056491047 -0.08889484 -0.16085616 -0.09809061 0.14937153 0.06761899 -0.20760202 -0.26501945 0.036069334 -0.09307265 0.001685943 0.08196659 -0.1689197 -0.0126523925 -0.22438706 -0.042264126 -0.3693675 -0.2060666 0.12857248 -0.11012895 0.050503716 0.07442429 -0.022031255 0.033136576 0.09033796 -0.14856438 -0.14604953 0.0007606815 -0.032993767 0.02418967 -0.12994643 0.23107797 -0.32378784 -0.21586765 -0.17132542 -0.036700465 -0.15403743 -0.04595903 -0.09779167 0.2507744 0.28809202 0.0065348297 0.11716563 0.07571014 -0.12671022 -0.118936874 0.019946247 0.0006772367 0.6672937 0.0019553169 -0.13632667 -0.04178351 -0.11630778 -0.07210141 0.0878662 0.029971842 -0.12774152 0.018081665 -0.098113246 -0.15810911 -0.06634731 -0.015511824 -0.0042804563 0.014314627 -0.15008608 -0.1078393 0.1618787 0.04526062 -0.082733385 0.016106438 0.025177686 0.045221623 -0.072281875 0.3119275
与 0.15142442 -0.087019436 0.04481359 0.056510463 0.039458502 0.06945453 0.032955356 0.124336965 -0.046367396 0.26863676 -0.0013181906 -0.043904264 0.14686498 0.021407312 -0.0817879 -0.051421527 -0.49668673 0.0030580414 0.24451546 0.3349513 -0.29906884 0.07961631 0.018087216 0.19413914 -0.088433735 -0.073456496 0.299733 -0.08065002 -0.14030978 -0.09885973 0.11967827 0.086694226 -0.02677652 -0.20906831 -0.22547366 -0.04834724 0.07018989 0.11826118 -0.13073438 -0.050505243 -0.13525382 0.0064800833 -0.027388796 0.13479763 -0.0075959414 0.002181042 -0.04271268 -0.06908374 0.048850466 -0.032840278 0.04186216 -0.059069183 -0.1460746 0.095683165 -0.15962961 -0.04254824 0.040610913 -0.030115258 0.22355793 -0.09660937 -0.059080124 0.10372085 0.21888727 -0.04362838 -0.040184814 -0.20877899 -0.010532522 0.4225358 0.012520239 0.23484063 0.12775692 -0.11060294 -0.0339193 0.07752079 0.83848995 0.06727757 0.010338025 -0.09560115 0.29919463 0.15103498 -0.27046764 -0.06723131 -0.060526002 0.0421277 -0.26756793 0.04218254 0.06965905 0.1995111 -0.14191148 0.14073831 -0.029718477 0.062115494 0.055812255 -0.025227841 -0.14009418 -0.051375277 0.0662322 -0.20606023 -0.13181126 0.17676093
； 0.16688687 -0.031062137 -0.15168388 -0.24437352 0.3576885 -0.10058507 -0.4020807 -0.13531308 -0.04351883 0.13178611 -0.20770608 -0.22041507 -0.15643409 -0.065325595 0.20128565 0.07317143 -0.4646696 0.24997552 -0.10067344 -0.42497858 -0.11907825 -0.10415182 0.04572989 -0.19094184 -0.09889633 0.17038463 -0.029419396 0.10576823 -0.398158 -0.07279136 0.27550852 0.079824574 0.14775535 -0.033972662 0.15536468 -0.08847312 0.009705953 0.04249805 0.023641333 0.03846886 0.07852414 0.37683532 -0.16744818 0.19104752 0.24740864 -0.21587254 0.06947834 0.084390745 0.09255601 0.22356957 -0.16031349 -0.06690345 -0.31056303 -0.18472995 0.01207528 -0.096398175 -0.09651843 -0.005709812 0.19773188 -0.76000386 0.080953196 0.04310938 0.018613597 0.27812338 0.017803535 -0.24350262 0.07999281 -0.11508794 0.024059523 0.17658047 -0.16270937 -0.18924816 -0.039486494 0.083515175 -0.15345472 0.066066414 -0.007992417 0.098157756 0.034185447 -0.14909458 -0.05887296 -0.077947825 0.11505497 0.038817476 -0.09513383 -0.04523771 -0.10801142 0.20831233 -0.033333357 0.18087094 0.06348859 0.18412888 -0.038399756 0.061380517 0.41724488 -0.3087436 -0.103601284 -0.16194575 -0.079219416 0.08207992
言 0.042056125 -0.08519948 0.23048232 -0.036974452 -0.018003019 -0.26934588 0.043207087 -0.21508597 0.15158622 -0.09697668 -0.068381004 -0.15620549 0.04005861 -0.012021446 0.04366372 -0.0044086715 -0.39584106 -0.14344598 0.00555247 0.08866499 -0.0058847265 -0.049649183 0.0015460239 -0.12797035 0.13877864 -0.012761113 0.015483463 -0.17598662 0.08761404 0.028623827 0.06952794 0.025416171 -0.0922429 -0.12799901 -0.15728226 0.034705546 -0.16946001 0.18517469 0.17294429 -0.0349887 -0.0007929625 0.05778413 0.100369334 -0.17689866 -0.14757226 0.21754189 -0.15727913 -0.3484688 0.23944643 0.13334696 0.08398802 0.119302884 -0.31340653 -0.12049687 -0.15492785 0.06410043 0.20783369 0.06413363 -0.069356285 -0.3768798 0.2956293 -0.05335034 -0.15767345 0.024558034 0.08987707 -0.42041808 -0.27599886 -0.06621492 -0.09688164 0.34159228 0.0131969545 -0.041458536 -0.16642013 0.0042291447 0.35804337 -0.1652061 0.0146805495 0.07469135 0.34022063 -0.11175235 -0.26405135 0.35061234 -0.05158525 0.061348632 -0.0027008867 -0.23137917 0.075683445 0.2607436 -0.20094274 0.17274582 0.013594874 0.05140683 0.023710022 -0.07522267 -0.044981387 -0.07191079 -0.0109541165 -0.042443357 -0.044576976 0.14935581
无 0.07869503 0.2053993 0.038479205 -0.06623848 -0.014681752 0.11340776 0.09288115 -0.089315966 0.15992604 -0.2039324 -0.16837427 -0.24026544 -0.18994874 0.15605964 -0.014418762 -0.02634296 -0.44421116 -0.039482012 -0.21846005 -0.02775409 0.03246875 -0.07066053 -0.18865952 0.1805002 -0.10653706 -0.28441277 -0.11097247 -0.22637515 0.031259507 -0.0753146 -0.124348946 -0.19173378 0.13470161 0.0017367722 -0.1150534 0.04147559 -0.01321717 0.08742827 0.12346158 0.0844234 -0.18843043 0.02816805 0.07555073 0.05846489 -0.14040332 0.08507632 -0.10194362 -0.17384727 0.17914806 0.24189176 0.032860983 0.053263072 0.16223152 0.1101451 0.124067485 0.10863501 -0.130705 0.05420691 -0.14477716 -0.6830879 0.02923187 0.14757277 0.029983532 0.23008034 -0.031258862 -0.099477395 0.0024575875 0.080505915 0.051574398 -0.07509948 -0.067367926 -0.09610865 0.00018133223 -0.38644615 -0.010765394 -0.096722215 -0.12952954 0.08038175 0.18762085 -0.15350991 -0.035038315 -0.1851018 -0.036712456 0.08752322 -0.07439989 0.03858585 -0.15323748 0.023407027 0.09058683 -0.06568068 0.15103307 0.04375725 -0.028903268 0.19839472 -0.09982207 0.095681734 0.39009646 -0.13258918 0.022209793 -0.0040482944
则 0.051588133 -0.32662678 0.25932917 0.23569062 -0.019017922 0.27390382 0.10593792 0.25790465 -0.0642795 0.056130815 0.1683461 0.03615062 0.123398885 0.03051286 -0.076272234 -0.0043195263 -0.40762004 -0.07177939 -0.20347586 -0.029817792 -0.3140361 -0.11623148 -0.016274696 0.017443843 0.0513777 0.039988168 0.09476796 -0.050761197 -0.10409902 -0.089554995 0.011464804 0.0389203 0.00050903996 -0.08703713 0.05733698 -0.13734373 -0.031249506 -0.17635834 0.25468805 -0.3409094 -0.269109 0.1460571 -0.12412993 0.074684344 0.058086064 0.18399945 -0.017412003 -0.2556986 -0.14515153 -0.103576265 -0.20894277 -0.048568424 -0.35795835 0.2671159 -0.09717214 0.13494422 -0.27470818 0.18166673 -0.07061547 -0.902067 0.18533613 0.032002125 -0.02847137 0.2602362 -0.12002363 -0.038283415 0.15620324 -0.04833055 0.027570937 -0.053983398 0.05299883 0.02331879 0.18785648 -0.06701364 -0.07525243 -0.0065727653 0.20581064 -0.16158187 -0.009042108 -0.10286351 0.015430202 0.03193387 0.038421005 0.03327463 -0.1584025 -0.174773 -0.062730476 -0.27376923 0.09266046 0.055990737 -0.08227792 0.11388085 -0.08197076 -0.092508286 -0.17689955 -0.14201675 -0.030780489 0.022664241 -0.11217077 0.09348667
！ 0.21236007 -0.111740366 -0.1379227 0.05849576 0.044127062 -0.27911332 -0.14426704 0.20468155 -0.0848884 0.33205187 -0.22016299 -0.15990725 -0.028516226 -0.28249517 0.15552929 -0.2526996 0.13388261 -0.008741565 -0.030129055 -0.09794514 0.0062963413 0.14976092 -0.073962666 0.07139066 -0.20053217 -0.054552887 0.046370253 0.1410115 0.02242881 -0.054783963 -0.15825608 0.036454663 0.12736516 0.09914575 0.1039691 0.021349901 -0.05632992 -0.023773368 -0.08632784 0.16523136 0.0015918724 0.14589638 0.22297522 -0.31305394 0.050426412 0.05782774 0.16911507 0.035591066 0.1227925 0.16087055 0.07637342 -0.16619976 -0.029868055 -0.034592077 -0.12351455 -0.06614843 -0.26056302 -0.29368198 0.16056538 -0.46590284 0.17963994 0.09833448 -0.13053654 -0.010477484 -0.13788144 -0.15530105 0.10658202 0.06172222 0.0250104 -0.13090669 0.26795346 -0.21667857 0.031757075 -0.054650273 0.83920336 -0.14976338 0.063159145 -0.10141867 -0.2213126 -0.0022150343 -0.23995528 0.37910253 -0.102182515 -0.054946996 0.04380476 0.099648625 -0.20959777 -0.20228556 0.19196254 0.449903 -0.08934263 -0.0012443393 -0.31301403 0.0010793218 0.16968471 0.07142901 0.24054399 0.16232444 -0.2061224 0.18653691
问 0.00049645384 0.0023885034 0.2823941 -0.11992124 0.21334027 0.12716317 0.13128047 0.006924764 0.20159362 0.0392025 0.46092266 0.13057451 -0.28260618 0.05996725 0.06527102 0.038372286 0.013013746 -0.13967182 0.11254052 0.094768964 0.30288526 -0.23092464 -0.19112316 0.46268183 0.2171781 0.28166428 -0.12741016 -0.047334883 0.013907677 0.16405351 0.0058435095 0.03397649 -0.120300904 -0.13526893 0.0454832 0.0019122263 -0.08756831 0.12323498 0.031119052 0.055533636 0.032720152 0.103007644 0.14752932 0.27190366 0.035488587 0.069383726 0.1944545 0.025075708 0.41306376 -0.054374836 -0.024805076 0.06128007 0.19081156 0.06406752 0.14088655 -0.001800114 0.22950877 0.082119405 0.23875493 -0.2694698 0.08217286 -0.058666177 0.1851789 -0.130894 -0.15714793 0.030723268 -0.07332309 -0.1894581 0.2111456 -0.13233347 0.12571204 0.29931912 0.0806767 0.065013364 0.7224628 -0.27329224 -0.10320813 0.011045698 -0.022591246 -0.13807173 -0.1929589 0.08232519 0.08333218 -0.214327 0.20289591 0.07895559 0.1004457 -0.08096731 -0.1586456 0.27126747 -0.19231586 -0.04038391 0.1064486 0.20395355 -0.178982 -0.015157449 0.0450038 -0.14002725 -0.09953422 0.06684156
知 -0.08257024 -0.01643484 0.016106112 0.120147005 -0.26136383 -0.046980888 0.14075978 -0.024226451 -0.026630018 0.22700022 -0.20115526 0.062302966 -0.06363055 0.1652566 -0.20704637 -0.035787445 -0.25259638 -0.00025142217 -0.05600273 0.35294634 -0.15136987 0.19413427 0.17890878 0.07404147 0.086914286 -0.07555533 -0.1296877 -0.13120095 -0.06281681 -0.28710547 -0.14028485 0.18971187 0.0468053 -0.19754113 -0.11967233 0.13680981 -0.26466548 -0.03192751 0.094409086 0.2839673 0.0406452 0.13995937 -0.07898846 -0.13083404 -0.1973784 -0.10236299 -0.27766603 0.33359313 0.006247492 0.23560461 0.03481695 0.07463346 -0.065508954 0.006599659 0.1602565 0.14346498 -0.060486443 -0.046003368 0.23202509 -0.41521442 -0.0027637691 -0.05788659 -0.033940956 0.059051532 -0.000542786 -0.060943194 -0.039870605 -0.016843582 0.11341243 -0.32610825 -0.17593533 -0.032513436 -0.053410828 -0.29229167 0.42142496 -0.012613999 -0.287288 0.045827813 0.07138315 0.043362685 -0.1982876 -0.09551313 -0.12544632 -0.17308694 -0.08763381 -0.20706794 0.050946686 -0.09157934 0.10848143 0.11660245 0.088370435 0.1283364 0.07511883 -0.33332717 0.04019882 -0.029518306 -0.1335305 -0.2706323 -0.1407585 0.36878914
何 0.08102816 -0.10863688 -0.18920025 -0.03034789 -0.071706265 0.009034132 -0.022863438 0.05511337 0.03795599 -0.044877578 0.0252224 0.06513077 0.09959101 0.13366984 -0.0499706 -0.036908068 -0.42159733 0.12167316 0.011048163 -0.283594 0.11115278 -0.17449732 0.105187744 -0.2308878 0.08590906 -0.13563181 0.18874751 -0.24354154 -0.07377393 0.09001928 -0.082974374 0.04209797 -0.044376526 0.13685924 -0.17434862 0.05715225 -0.11494536 0.19546205 0.1223181 0.17286085 0.0055795694 0.12570737 -0.1670052 -0.19644079 0.10314654 -0.1417055 0.18836516 0.08101761 0.029585823 0.030447563 -0.14786974 0.034018356 0.32157168 0.118463874 -0.0452614 -0.074106164 0.15719184 0.24875131 -0.019282782 0.053328715 0.07048343 -0.031649552 -0.021390628 0.194988 0.045291133 -0.16355391 -0.0025462552 0.0736829 0.10600026 -0.0019259013 0.07168081 0.17053938 0.26374975 0.13008957 0.7815846 -0.013792169 -0.33227316 0.05124599 -0.23171006 -0.13315539 0.22126968 0.095564336 -0.015488726 0.10328506 -0.19302303 -0.031669185 -0.11111485 0.17000997 -0.062100865 -0.35179558 -0.057065856 -0.000993244 -0.21747833 -0.26054883 -0.19114424 0.01857342 -0.19319865 0.09533249 0.104512095 -0.20444076
吾 0.27213037 -0.08684268 -0.08459554 0.20502989 -0.018610992 -0.0050809 0.13607189 -0.18176854 -0.09101962 -0.21298955 -0.020113192 0.063286655 0.16998737 0.25525343 -0.14842282 -0.08568422 -0.32149664 -0.019264994 0.017169427 0.23777696 0.036509033 -0.15480413 0.30750087 0.020293484 0.09846334 0.043463267 0.19822438 0.10914454 0.38109493 0.02272936 0.21193701 0.12297085 0.026333112 0.08933495 0.033880956 -0.20946276 0.002639806 -0.2781889 0.22253177 0.26453033 -0.1037305 -0.08137279 -0.38252544 0.20324093 0.08541647 -0.13649932 0.11017192 -0.3033914 0.036836382 0.11998824 -0.0051954985 -0.21360686 -0.061059594 -0.24260181 0.056000065 -0.060554203 -0.04247898 -0.2691138 -0.10817264 -0.4158404 -0.09972131 0.16381313 -0.15294455 0.07143535 0.045075305 -0.11602335 0.09992308 -0.03805365 -0.32184002 -0.13504283 -0.09166198 -0.09379807 -0.013704888 -0.005238159 0.52026176 0.045869756 0.19147025 -0.09184975 -0.05806259 0.0045581697 -0.13456178 0.076719716 0.03838154 0.29791036 0.27565315 -0.07453464 -0.28459588 -0.0016853986 -0.026686173 0.116905585 -0.036451735 0.10686537 -0.13668725 -0.15262498 0.24410704 -0.12317729 0.08939106 0.27307612 -0.042788707 -0.066136815
仁 -0.10049534 -0.046376284 -0.052170634 0.06028626 -0.19003521 -0.13398413 0.05387668 0.107514106 0.32363632 -0.16928385 0.1845067 0.16932589 -0.15209997 0.26525134 -0.16772673 0.33696213 -0.14328198 0.29038274 -0.11033434 0.18094815 -0.0149431685 0.06381485 -0.16125794 -0.14147657 0.12215572 -0.112558074 -0.059834283 -0.023506593 0.010428201 0.08301748 0.018420603 0.07823434 0.050429806 -0.042354368 0.013438144 -0.046145666 0.020185288 -0.092358485 0.32598266 -0.15086696 0.13549417 0.1288141 -0.043576993 -0.10329156 -0.16539222 -0.07486024 0.2052934 0.26376566 0.42836034 -0.12650236 0.10267027 0.11147457 0.25227457 0.20880143 -0.17885664 -0.06452259 0.106649175 -0.050392825 -0.02393938 -0.38154182 0.017968986 -0.19281752 -0.18223234 -0.055169266 0.10113108 -0.13822922 0.284061 -0.15034746 0.110404834 -0.21312156 0.060321305 0.04837541 -0.1944939 0.11422204 0.19092976 0.17984533 -0.050616853 -0.10486994 -0.09569676 -0.15635982 -0.23052974 0.03385059 -0.049969185 -0.13146792 0.030238207 0.070961595 -0.04723427 0.07124095 -0.2087294 0.086401954 -0.07521857 -0.03890702 -0.03160604 -0.065349385 -0.16022813 0.10642155 0.1022794 -0.17307098 -0.25799274 -0.12530532
夫 0.16440752 0.08110643 -0.02443996 0.13780068 0.27990335 3.382098e-05 0.07294088 -0.18904448 -0.09564833 0.12647273 -0.09930584 -0.12404666 0.11142516 -0.16020773 -0.17208335 -0.08258408 -0.10926173 0.0013721304 -0.004146373 -0.17020187 -0.019016344 -0.15662529 0.08014092 0.29656532 -0.07308125 -0.3147745 0.26500154 0.06539962 -0.024598515 0.16688892 0.13584866 -0.048476607 0.25518614 0.016653256 0.15285127 -0.17055072 -0.18614842 -0.038767602 0.320418 -0.19282797 0.015290152 0.037871316 -0.23470272 -0.051082306 0.021808848 -0.08553846 -0.2236601 0.055204365 -0.024630181 0.17566706 -0.11784994 0.08767791 0.4145582 -0.069266394 -0.15772556 -0.012493597 -0.044423718 0.09635521 -0.124896765 -0.21623927 -0.36720204 0.190722 0.11514143 0.20762022 -0.09371983 -0.15420172 0.08317876 -0.11582612 -0.14941093 0.18290205 -0.04399389 -0.06542628 0.08536314 -0.11194746 0.5974216 -0.22400382 0.21971078 0.14771652 0.13541867 0.2040562 0.26279232 -0.07685398 0.12720598 -0.08973494 -0.033539902 -0.058956057 -0.18091202 0.3069292 -0.12967144 -0.104426526 0.08138329 -0.20265424 0.0506551 -0.077913746 -0.09014484 -0.31029478 0.035537597 -0.14885585 0.31040356 -0.075433336
、 0.20862319 -0.09266726 0.13819993 -0.08544557 0.063526444 0.10520394 -0.42081404 -0.29480445 -0.15949324 0.21387261 0.21951158 -0.16216965 -0.37222132 -0.05766148 -0.087409236 0.14290577 0.09066738 -0.0018471198 -0.011121027 0.11100433 -0.14176074 0.06390877 -0.2023035 0.074347846 -0.1416698 0.3252143 0.07650854 -0.19610183 0.13873544 -0.02471928 0.103891775 -0.1719719 -0.31518757 -0.44350994 0.229174 -0.15134038 -0.05564762 -0.120566085 -0.06357684 -0.14457195 -0.21870923 -0.13499267 -0.14608164 -0.05119393 0.008560328 -0.028327405 0.15715626 -0.1990364 0.038240474 0.11544791 -0.022567952 -0.16052458 0.28354797 -0.15393932 -0.108179726 0.027391436 0.40461457 -0.06543393 0.10560292 -1.0107234 0.2472465 0.18454204 0.21627782 0.20931101 -0.22533982 -0.24331777 -0.044385083 0.26705137 -0.24773058 0.04737884 -0.5661507 -0.31534475 0.101058595 0.70384616 0.14196166 0.030050972 0.10551894 -0.056079444 -0.18571825 0.05358121 0.3773762 0.12860277 0.08493524 0.24314566 0.18821868 0.28668618 -0.053108774 -0.046053916 0.1632188 0.16694817 -0.107052244 -0.19242871 -0.36493784 0.3157753 -0.032960653 0.2068248 0.12065444 -0.26723114 -0.0498516 0.16378908
道 -0.2268028 -0.07121944 0.14501922 -0.0040110126 -0.072991215 0.010467246 0.054897677 -0.38010016 -0.26819265 0.1828457 -0.033108737 0.04219475 0.031452764 0.17740658 0.09659025 -0.14284717 -0.3920432 0.09593293 0.08776029 -0.04637534 -0.16050003 0.03578346 -0.30307478 -0.22754876 -0.13536768 -0.22924222 0.32436568 0.00094084255 -0.010504096 -0.04623348 0.125744 0.23710956 0.15977374 -0.18638897 -0.19680959 -0.15049808 0.061483633 -0.06684957 0.016005142 -0.09839825 0.25274652 0.121489234 0.22391675 0.20402937 -0.16053246 0.07766393 -0.33277616 0.11255379 -0.076554224 0.040831823 -0.014508214 0.07959474 -0.12521966 -0.0412913 -0.23776218 0.1307391 0.07074095 -0.0046348395 0.08977078 -0.42702016 0.14045572 -0.17158265 0.0242644 0.20271659 0.02722805 0.08150934 -0.03530764 0.31915793 0.40137425 -0.04116259 0.111599326 -0.21073356 -0.072613485 -0.18492304 0.4061803 0.13301049 0.05906238 -0.09804734 -0.031805526 0.02732128 0.037888397 -0.082558826 -0.1972506 -0.018046109 0.29307127 0.12229433 0.047660664 0.38654795 0.32319427 -0.0414407 -0.043020878 0.039400946 0.09235956 0.18444823 -0.096688546 -0.12776728 0.050312266 0.025827352 -0.17188193 -0.1589748
焉 0.07004964 0.012745213 -0.045890532 0.12043624 -0.09376126 0.2673574 -0.26343882 0.3345708 0.04284739 -0.038253985 0.2655054 -0.2864008 -0.050199207 0.123169266 -0.33442795 -0.05160324 -0.34948057 -0.03159867 0.03736068 0.086058214 -0.03951831 0.31810728 -0.35215184 0.129651 0.048717834 -0.051671326 -0.21665683 0.25004044 -0.03342907 0.2105158 0.13854463 0.116513535 -0.16004427 0.047414128 0.04977802 0.15055038 0.20702033 -0.0022031327 0.1736731 0.19818456 -0.029320102 0.04650819 0.14068733 0.18945615 0.14894572 -0.1787191 0.22381029 -0.009996335 0.027578603 0.2617162 -0.10678417 -0.08993608 0.12300518 0.12793027 -0.081300005 -0.13742001 -0.040169496 -0.10567137 -0.16509317 -0.3397921 0.03385749 0.1206414 -0.15835647 0.21708855 -0.0011015463 0.14489038 -0.04449556 0.06043616 -0.06284666 0.04359247 -0.37717983 0.009956921 -0.18812263 -0.29663876 0.4051314 0.31494504 -0.0030223958 -0.10556852 -0.08556404 -0.018864378 0.008720972 0.039019197 -0.22242695 -0.13696854 -0.20097446 -0.11054653 -0.01828404 0.23331024 -0.24857183 -0.02369577 0.27533597 -0.49182352 0.2796065 0.04256977 0.06409734 -0.03302645 -0.12008802 0.094939865 0.15519667 0.09297186
行 0.17081657 0.16151018 0.050610688 0.17053524 0.14435273 -0.072700344 -0.03852484 -0.14168964 0.30893725 -0.18896294 -0.049482338 0.059164733 -0.108194724 0.110359624 0.20285694 0.27326578 -0.45488283 -0.17459153 -0.10560152 -0.032940444 -0.121705726 -0.2049593 -0.31136736 0.21396202 0.009341999 0.08654091 -0.036481302 0.33571458 0.013425079 0.027072545 0.14409725 -0.19364534 0.06964617 -0.2723551 0.1532752 0.15319934 0.13019909 -0.008592131 -0.014884466 0.06789845 0.16535442 0.05948392 -0.037835997 0.2046942 -0.009613684 -0.051183604 0.005149719 -0.091271356 -0.18515052 0.1459257 -0.13697162 0.39861566 -0.18865164 0.07065779 -0.19545634 -0.056944624 -0.026302595 0.0650021 -0.019635588 -0.258414 0.043328427 0.01712806 0.07355461 -0.046392124 0.0107193235 -0.14385036 -0.2706883 0.22493593 0.10870227 0.11654704 -0.13396889 0.16573341 -0.07754529 -0.01777611 0.40545517 0.07289609 0.005956934 -0.24279602 -0.05067518 0.05151499 -0.040308412 0.30158097 -0.39109156 0.24324906 0.09353301 -0.07394223 0.039991982 -0.019740563 0.13552949 -0.08586615 0.19122231 0.16216284 -0.16575527 -0.008112709 -0.048000522 0.18798245 0.07174016 -0.20620534 -0.028305478 -0.050647825
谓 -0.0576381 -0.09905708 0.3192719 -0.19289981 0.41276926 0.22692783 -0.17236298 0.005051869 0.095245436 0.13916562 0.28716385 -0.1593037 0.17080072 0.33079436 0.26067784 -0.17108743 -0.11031305 -0.22287664 -0.064832896 -0.12780303 -0.22788909 0.123933084 0.29892516 -0.009468025 0.12820646 -0.09073532 0.069862224 0.0308954 0.1095364 -0.18246129 -0.02128952 -0.06149421 0.14289217 -0.31473616 0.05106818 0.18248868 0.29081714 0.05224607 0.18689972 0.1493354 0.28874788 0.23082991 -0.14622103 -0.16869272 0.03585055 -0.024436023 -0.064485915 0.27362496 -0.019667603 -0.05544153 0.22965197 -0.20047958 -0.0620396 0.08820085 0.06293798 0.2502674 0.32695812 0.24231666 -0.21925132 -0.2133678 0.0026867157 0.13534766 0.009552174 0.033972126 0.0018708619 -0.21350834 0.054082036 0.10317325 -0.14983113 0.025179647 0.13090694 -0.07582826 0.14598325 0.0105234105 0.7717647 0.2379343 -0.058188435 -0.019754572 0.14281872 -0.27640802 -0.07494927 0.07290121 0.1323002 -0.06798929 -0.3237661 0.0019158926 -0.0656236 0.0003369078 0.24778768 -0.0041261953 -0.17938074 -0.11255615 0.280216 0.035981134 -0.110040106 0.58982515 -0.1436224 -0.11443486 0.044278063 0.2566726
必 -0.16936307 -0.08790135 -0.035311393 -0.052653696 -0.280474 0.13269816 -0.23425528 -0.3196862 -0.2803925 0.05116895 -0.10365709 0.22739996 -0.03327947 -0.37950468 0.013330866 0.15339364 -0.22920655 -0.0713318 -0.15677115 -0.1284323 -0.32395148 -0.15095113 0.07725077 0.058380578 -0.03252496 0.022747999 -0.020925146 0.06835911 -0.35085994 -0.26756305 -0.30478907 -0.10377783 0.10196023 -0.28401706 0.15053454 0.028470019 0.11266884 -0.093939185 0.45332173 0.061018974 -0.1693127 0.13489799 -0.074578375 -0.25864047 0.24450988 -0.06488976 -0.016873458 0.14773367 0.23356648 -0.00050949305 0.10521314 -0.05474355 0.11889566 -0.00894781 -0.0383661 -0.090501755 0.060317952 -0.30391964 -0.10497004 -0.6263803 0.109441556 -0.120105594 0.012819488 0.074094124 -0.06810066 0.12578882 0.056327183 -0.044049747 -0.10769943 0.2731322 -0.16934212 -0.2372091 0.0149409 0.06754484 -0.06689006 -0.22511041 -0.22624174 -0.014259696 0.22622055 -0.12363445 0.17045903 0.115564235 -0.2664767 -0.15772387 -0.25589126 0.06501891 0.24416259 0.189283 -0.16030675 0.032838546 -0.055184953 -0.003014192 0.1905264 -0.1862286 0.030762013 -0.16859141 -0.12947659 0.09907923 -0.018437745 -0.18407442
礼 0.31402302 -0.23111787 0.21933383 -0.08921387 -0.098214716 0.10340517 0.034067035 0.2725866 0.001855846 -0.00081240153 0.11494171 0.039310098 -0.12311538 0.052467603 0.08936043 -0.026876487 -0.44959617 0.20577215 0.24385487 -0.30931535 -0.19547692 0.10982896 0.094585866 0.015044521 0.12150891 0.12464176 0.41528857 0.24120495 0.2029038 -0.19278316 -0.043023434 -0.015635068 -0.33141997 -0.25014383 0.30325124 -0.12718602 -0.011253463 0.029538348 0.18309394 0.019966569 0.0038398388 0.009557897 -0.20680422 -0.11478163 -0.20614313 0.28449267 -0.1336018 -0.14532807 -0.19160558 -0.008291702 0.029610865 0.2314798 0.12597437 -0.10519463 0.14254889 0.08597333 -0.3364973 0.14837746 0.19222432 -0.70997834 -0.21868305 -0.034950137 0.10388851 0.1298391 -0.061611168 0.11238666 -0.105952576 -0.06761541 -0.5054755 -0.046193045 -0.097989716 -0.030101977 -0.19655429 0.002478598 -0.13360918 0.12856652 0.029291684 0.31846133 -0.3480118 0.14625347 -0.02199078 -0.16047265 0.050781123 -0.26298693 0.16611408 -0.0637839 0.048623517 -0.08747092 -0.014650097 0.04886247 0.17464912 0.24164009 0.12629512 -0.008838128 -0.27772087 0.042752575 -0.041577827 0.12374217 0.09266089 -0.019349486
孔 0.25065336 -0.072143964 -0.08234372 0.15215468 0.38572103 0.28646943 0.33576187 -0.05906875 0.11196877 0.29045543 -0.013856887 0.1388585 0.15185362 -0.10008633 -0.24925192 0.3814619 -0.23821776 -0.04714658 0.033576157 0.09807477 0.0046451185 -0.1080077 -0.18189238 0.31252703 0.21520324 -0.006600505 0.003256721 0.10928762 0.12080026 0.12067187 -0.13782135 0.33092254 0.1124247 0.2950538 -0.11550952 -0.17412364 0.20250112 0.26695684 0.018107204 -0.06963049 -0.20533079 -0.41749713 0.14176123 0.24152307 -0.29579517 0.41535944 -0.18034537 0.15812644 0.11750789 -0.13479109 0.22291926 0.04704972 -0.061866213 -0.022563018 0.095914274 -0.300071 0.07033117 0.21700554 0.05410609 -0.28014424 0.043683626 0.19568242 0.14219218 0.23306713 0.07850539 0.05631898 -0.017441615 0.06685596 -0.08276908 0.39939108 0.0011033108 -0.029953852 0.17073652 -0.31095272 0.94396585 -0.14727198 0.002488941 -0.19039924 0.031328574 -0.33294007 0.28940618 0.045002088 0.13719787 -0.052987862 -0.08255293 -0.2810645 -0.05163203 0.036618598 -0.3300439 0.11906256 0.008898623 0.08876041 0.17862149 -0.027803162 -0.0011180851 0.09279945 -0.089162014 0.027323427 -0.166984 0.143342
斯 -0.079459354 0.20795885 -0.13285258 0.116875574 0.1446255 0.016039478 0.052660167 0.0049348567 0.008421129 -0.15600489 0.031048784 0.217135 0.007205308 0.17221987 -0.17141487 -0.042857625 -0.35661775 -0.113148205 0.19217536 -0.2935844 -0.3904049 -0.021228993 -0.026895251 -0.16794626 0.15764546 -0.32921028 0.12481091 0.049977932 0.085496284 0.28214476 -0.14989476 -0.013276979 0.11498615 -0.21157467 -0.08885547 -0.1670485 0.2565327 0.015329162 0.3699527 -0.03750693 0.00033456646 0.1741413 -0.01060853 0.0056077205 -0.062077582 -0.27746767 0.24245173 0.08305441 -0.041077144 -0.39309853 -0.1651299 -0.33275616 -0.009338047 -0.068795994 0.16117321 0.15554258 -0.21725088 -0.43962246 0.23348853 -0.5395693 -0.33325338 -0.33068243 0.04323322 -0.17617862 0.3422457 0.04360542 -0.13387771 -0.0957037 -0.048206918 -0.10098604 0.2666407 -0.03302739 -0.20086947 0.15725775 0.30210295 -0.17322059 0.025861073 -0.23078819 0.0010443311 0.04330906 0.2752998 0.20800662 0.015662678 0.014432843 -0.27026516 -0.026540456 0.32027486 -0.31631088 -0.34224713 0.14801271 0.107901394 0.2831653 -0.107770644 -0.11700575 -0.10027365 0.13762072 0.20007214 -0.262215 -0.03942299 -0.004560176
三 0.02226461 0.09919065 -0.031087771 0.16355854 -0.10505685 -0.12375777 -0.14511591 -0.5046168 -0.044864576 -0.14465412 -0.13369292 -0.12407985 -0.15117465 0.23286903 -0.14052552 0.09630964 -0.14749277 0.13396053 0.23533139 -0.0107215475 0.13765435 0.19502126 0.26906064 0.07274874 -0.3142025 -0.16517726 -0.13636816 -0.24489552 -0.0046799025 0.09079834 -0.23700728 0.18345188 -0.05871555 -0.28787455 0.24142367 -0.3428195 0.20035331 0.17116411 -0.04139438 0.013029385 -0.044898678 0.04044951 -0.10692385 -0.36164764 -0.25227717 0.18077753 0.21697102 0.12692386 0.12779464 -0.38668728 -0.14995755 -0.081531204 0.21038748 -0.050647367 -0.25389725 0.082830794 0.107527584 -0.08525673 0.09891875 -0.7998131 -0.15080231 0.007226811 0.13471752 0.13558285 0.041705463 0.18352944 -0.13296731 -0.21490529 0.14202414 -0.12651667 0.17350666 -0.09801044 -0.013389586 0.039240863 0.09773624 0.10962577 -0.31332377 0.037574206 0.13772768 0.01815073 -0.008069078 0.019207748 -0.012871642 -0.094627246 0.39080757 -0.20543616 -0.068693005 -0.16918041 -0.088653564 -0.063042484 0.0063382634 0.13635762 0.15906204 -0.0013829415 -0.16732481 -0.5758756 0.018665161 -0.011223383 0.16702794 0.23339581
能 0.27848193 -0.1651419 -0.08654146 0.19990605 0.0335203 -0.15070671 0.011338573 0.2600378 -0.103219844 -0.09120117 -0.06001251 -0.21181218 -0.023842353 0.12487606 -0.04736411 -0.11277433 -0.40124947 0.26325536 -0.19773525 0.17143688 -0.2763366 0.1634616 0.060205624 0.30371627 0.06748405 -0.34412977 0.32107908 0.014884581 -0.47129107 -0.34214306 -0.067227945 -0.1889524 -0.055446357 -0.23495471 0.108197466 0.0566837 -0.01313631 -0.13590083 0.2770634 0.11922218 0.10039787 0.11689502 0.28619042 0.059050933 -0.18911432 0.0863731 0.08708771 0.19264148 -0.1324534 0.20285922 -0.026154056 0.22710662 0.0016629423 0.12631597 -0.15852566 -0.14614566 -0.17884135 0.34731776 -0.45315012 -0.46902135 0.08924388 -0.003630085 0.33430615 -0.38806427 -0.056806903 0.1280251 0.2652954 -0.11070632 0.11054028 -0.09580018 -0.12858863 0.29866028 0.04779848 0.040745888 0.07720186 -0.049968105 0.042784054 -0.050810598 0.005176127 -0.15481173 0.17318317 0.09361701 -0.058708306 -0.09326264 0.049796734 -0.08742059 0.042472415 0.00905156 0.28930134 0.18189377 -0.19946462 -0.0154188685 0.27839142 0.026485788 -0.09162253 -0.06928012 -0.02958429 0.24738656 -0.061597414 -0.14167207
见 0.096573204 0.27163622 0.16706212 0.009941388 0.16433387 -0.019592175 -0.07514172 -0.31532302 0.08425643 0.13676606 -0.15723644 0.054642506 0.19686033 0.15144055 -0.21446085 -0.07548214 -0.30217314 -0.07735206 -0.11381422 -0.018723004 0.017190592 -0.053045616 0.17526466 0.2104443 0.009534787 -0.042244308 0.12948404 0.42199114 0.15837993 0.15211308 0.38613826 -0.09789087 -0.074593365 -0.12222048 -0.071001075 0.1375798 -0.28937003 -0.17890869 0.052759044 -0.052014835 -0.098060206 -0.32259816 0.006693503 0.17191496 -0.09776674 -0.039973635 -0.0407151 0.44823828 0.12155615 0.0118552605 0.15161687 -0.052582778 -0.03874508 -0.046188124 -0.15064311 -0.11338207 0.19970971 0.2534628 -0.07764114 -0.29594904 0.042722736 0.22953834 -0.14932777 0.0750553 0.15148027 -0.16203709 0.16406384 0.19479136 -0.07237776 0.22703119 -0.016528014 -0.15170923 -0.1978701 0.017187508 0.41446579 0.1691614 -0.15104029 0.12397061 -0.19027925 -0.24596025 0.0083693005 0.078400455 -0.026315035 -0.032750376 0.1460253 0.21194139 0.22510928 -0.2892583 -0.073955536 0.14047393 -0.44515902 0.15690017 -0.36921802 -0.20601553 0.26902744 0.2316269 0.042016447 0.32612634 0.11175013 -0.2130104
学 0.022556102 0.14274502 -0.12541 -0.28341767 -0.012939766 -0.056756176 0.17556673 -0.16436094 -0.07970647 -0.021352625 0.092832275 0.07869688 -0.03334178 -0.069836594 0.14561985 0.4806359 -0.27297673 0.24574567 0.11999301 0.10149639 -0.17793044 0.1103063 0.07612182 -0.043886606 0.21258232 0.010425992 0.16325328 0.010681939 -0.10780973 0.3815944 -0.09572918 0.0725804 -0.07405415 -0.24090104 -0.08996314 0.03384159 0.053984746 0.19801229 0.18118739 -0.037166625 -0.081988916 -0.050595667 -0.110184096 -0.07025696 0.06591709 0.34408355 -0.25042439 0.07020409 -0.29087338 0.21532047 0.008282571 -0.112019934 -0.21727507 0.039964903 0.47868985 0.2643069 -0.13232648 -0.14096813 0.08412687 -0.6068026 -0.29851893 0.052297287 0.13563074 -0.016307082 0.27019158 -0.15609214 0.08534959 0.41853964 0.10736764 -0.039767537 -0.054643303 0.49054378 -0.14840971 -0.26905137 0.17189789 0.1069261 0.0031554485 0.11273533 -0.35160795 -0.4208675 -0.4003961 0.08267246 0.009603478 0.04482782 0.0171017 0.27273983 -0.14333534 -0.0074358936 0.0759181 0.092043996 -0.008383227 -0.042814314 -0.09751709 -0.27932662 -0.09050336 -0.048829358 -0.18385756 -0.09290536 -0.01719682 0.13656685
事 0.3025046 -0.12470184 0.1327468 -0.11388626 0.09026792 -0.11213924 0.14081751 -0.14844503 -0.08913858 0.20947246 0.16023803 0.12708892 0.26200914 0.12029167 -0.06854568 0.4013468 -0.3411479 0.33619443 0.11824909 0.046747193 -0.17097338 0.002849944 -0.009556621 -0.12713142 0.113518946 -0.12387754 -0.041334126 0.0911371 0.19112304 0.15041009 0.108860955 0.043187376 -0.21555556 -0.26059002 -0.14287779 0.08320868 -0.13839255 -0.039917625 -0.19261244 0.019441519 0.17231172 -0.15204304 -0.12944336 0.324397 0.11587377 0.1561753 0.054964263 -0.17061861 0.03707174 -0.014575259 0.11313114 0.11491769 0.081407666 -0.13116255 -0.25294858 0.23162532 -0.0674258 0.47223765 -0.07997324 -0.4158968 -0.054936673 -0.29322806 0.22267863 0.103238516 0.27988976 -0.18747544 0.116095304 -0.17826906 0.07650378 -0.043952957 -0.030854898 -0.07782038 0.03268336 0.07841782 0.31746677 -0.038786974 0.29741806 -0.3772802 0.45644212 -0.027746202 0.23385623 -0.23288001 0.030359132 0.09144653 -0.107236914 0.48471415 0.24090019 -0.12684382 0.20003434 -0.02330963 0.21540944 0.048944313 -0.0016192163 -0.02675688 0.11038548 -0.083367966 0.04374854 -0.20699105 0.14050154 -0.2010368
是 0.00856044 0.11671357 0.31980377 0.030169096 0.12356137 0.107317984 0.11428293 0.2129136 0.104267634 -0.15958546 -0.0050873533 -0.31116608 0.15220419 0.18858735 0.13230824 -0.119732425 -0.17892988 -0.02087338 0.25641394 0.1011407 -0.07938266 -0.07010134 -0.095051825 -0.006971895 -0.08449984 0.22843672 -0.20350878 -0.36083612 -0.090045996 -0.07736114 -0.102854304 -0.11981838 0.041539658 -0.13644871 0.12574784 -0.009851396 0.07677293 -0.5098655 0.14590076 -0.15799022 -0.11352308 0.12321164 0.1581417 0.14215215 -0.2148802 -0.27526635 0.1822659 0.08123718 -0.016839257 -0.0549268 -0.0030258535 0.05532412 0.08432866 -0.13557708 0.07883694 -0.4206931 0.13371375 0.11595417 0.0044927425 -0.5243388 0.22436708 -0.08102211 -0.06518336 0.061504245 0.3652693 0.094427854 0.16771907 0.14597882 0.011739867 -0.11207812 -0.14473692 -0.2466997 0.041401066 -0.00279497 0.62359405 -0.2788779 0.19433074 -0.38242146 -0.059649926 -0.10713244 -0.5126545 -0.28129923 -0.36582115 0.028185017 0.12054059 -0.21261877 0.06911603 0.030027952 -0.14304246 -0.08227162 -0.14292185 0.17464684 0.12134041 -0.26927328 -0.009672419 0.06394846 0.06845256 -0.09283791 0.23164701 -0.008994048
哉 0.11569077 -0.21219917 0.15377992 0.11661293 0.16626294 0.27423286 0.15365982 0.14842263 0.16282323 0.38382387 -0.10567035 -0.14188525 -0.09682832 0.07250859 0.20626527 -0.041955333 0.019781442 -0.014818544 -0.010728151 -0.24049622 -0.20232475 -0.038276993 -0.1372501 0.072627276 0.053922646 0.17326684 -0.017416084 0.14790507 -0.2529283 -0.07348854 -0.13338816 -0.10305936 -0.10844971 0.2976467 -0.03844445 -0.044288136 -0.22841702 -0.31780168 0.41599238 -0.078458674 0.12041256 0.039821424 -0.045232624 -0.022282766 0.2288421 -0.07869034 0.17202833 -0.10159669 -0.08172812 -0.0517643 0.07798418 -0.4965794 0.0240346 -0.12914991 -0.14382595 -0.18647473 -0.026348956 -0.21019329 0.26529446 -0.30832446 0.25236526 -0.07923257 -0.014265839 0.08521355 -0.10625305 0.1583674 -0.24466555 -0.09118781 0.23008403 0.026402833 -0.092465594 0.029906651 0.15120293 0.27298963 0.8178738 -0.11807106 0.21262178 0.25469297 0.03772386 0.3565349 0.11688389 0.09975602 -0.27960533 0.19642782 0.22935738 0.23646876 -0.16413845 -0.08735054 -0.041901927 0.11130413 0.020714719 0.3813748 -0.068798505 -0.3640194 -0.36560068 -0.08406718 -0.19476134 -0.027578948 0.118689016 0.0642806
闻 0.07924566 0.08334111 0.19900087 0.048047796 -0.19407213 -0.14011282 0.041261476 -0.16880794 0.027902005 0.22125764 0.19736494 0.27218714 0.0077479817 0.14443874 -0.040950246 0.261679 -0.112099856 -0.24033406 0.12006167 -0.16773534 0.08993082 -0.10061569 0.082534686 -0.15177989 -0.110652104 -0.13348359 0.07297336 -0.13869731 -0.19157587 -0.043703422 -0.037065372 0.014491992 -0.047612663 -0.30066827 -0.03643023 -0.10080975 0.07447202 0.1789961 0.38984114 -0.30144435 -0.030382212 0.03637787 -0.12565255 -0.049817894 0.04589322 0.13987008 0.18599117 0.01432465 0.012110778 -0.1194219 0.355434 -0.0030538968 0.019010175 -0.08265666 -0.09338165 0.45231053 -0.34032717 -0.05856338 0.047211945 -0.3050148 -0.261995 -0.42255133 0.072143294 -0.15351966 0.0875133 -0.009416486 -0.42425126 0.02895358 0.18176603 0.12027103 0.33787006 0.35758334 -0.10026416 0.38469577 0.46483973 0.32941985 0.1252371 0.06076341 -0.09655932 -0.23213369 -0.24481088 -0.21235006 0.039332505 -0.035407092 0.066052884 0.016487293 -0.31168067 -0.11832871 0.095124714 0.06443478 0.023482585 -0.13545996 0.10200206 -0.13371173 0.12660411 -0.06946128 -0.12239165 0.06290831 -0.07943924 -0.09696603
未 0.0654276 0.012518193 0.057245713 0.3847588 0.2421133 -0.0072389673 0.15355216 0.31541547 0.15306808 -0.3258999 0.20620587 -0.057733305 0.32666117 0.028378438 0.066521 0.037701212 -0.23035182 -0.1602296 0.18657878 -0.29283687 0.24907288 -0.107051 0.31882963 0.1692906 0.11235923 -0.1434308 0.32118565 -0.04945736 0.074791424 -0.17099403 -0.1195189 0.12043956 0.18505335 7.750187e-05 -0.09032678 -0.19280231 0.3221666 -0.06377806 0.2720771 -0.030480213 0.16562325 0.2005551 -0.10119302 -0.016280979 -0.37464112 0.019024014 -0.30074283 0.3265291 0.064187005 -0.01557966 0.06534329 -0.032296922 -0.38572693 -0.06541774 -0.13901143 -0.29228362 -0.1095062 -0.36035773 -0.09719429 -0.35889336 0.23505037 -0.010313226 0.39925626 0.053013414 0.009020061 0.08653049 0.13505727 0.08670118 0.23667163 0.18349141 -0.025150469 0.28008547 -0.29718155 0.066605896 0.25449347 -0.2959244 0.02144283 -0.21528672 0.1651859 -0.31772944 0.11276725 -0.019055156 -0.20530127 -0.22259836 0.24265605 0.14036576 -0.18679109 -0.07292942 -0.14243445 0.02811596 -0.052206054 0.053428028 -0.08164748 -0.050057657 0.0024433366 -0.0300545 0.02429192 0.11858452 -0.014006247 -0.015800102
公 0.13244875 -0.18593425 -0.63219273 -0.46001816 0.12013469 0.15250365 0.28744712 0.025969997 -0.3378294 -0.13581306 0.1284425 -0.0644998 -0.16483814 0.16049391 0.1488576 -0.100849055 -0.061572764 -0.39447662 0.102243915 -0.18737064 0.23092006 0.34490675 -0.28520527 0.122239925 -0.030046495 -0.02728814 -0.2265771 0.008955952 0.06627848 -0.14338692 -0.10127603 0.13779576 0.54261774 -0.058686465 0.109726526 -0.13810429 0.01694382 -0.08847854 -0.23421018 0.106866375 0.094930366 -0.061826184 0.20187388 0.33826318 -0.06653336 0.11238125 0.19633208 0.054184496 0.069988936 -0.26693472 0.11062024 0.559933 0.2663222 0.19768488 -0.06834544 -0.04625795 0.04835866 0.33322358 -0.026555568 -0.45989144 0.44929948 0.13603589 0.016475651 -0.11948757 -0.23417184 0.18876593 0.21898241 0.104996175 -0.30763718 0.13500245 0.2937341 2.766028e-06 -0.03086642 0.30534887 0.62100416 0.0028987196 0.3653265 0.3107016 0.11118697 -0.098744564 0.49996856 0.18149467 -0.027354175 -0.16981684 0.005727828 -0.10698378 0.034246754 -0.08888548 -0.01517896 0.05759096 -0.053360343 -0.024572138 -0.31156513 0.091079764 -0.013443044 0.0868207 -0.30938804 -0.06467631 -0.17560393 -0.2579829
好 0.09461306 0.14846884 -0.002774288 -0.19948712 -0.478705 -0.066710904 0.21220727 0.3311658 0.25104153 0.24378863 -0.01747828 -0.17063 0.47373685 0.13204193 -0.20621836 0.057777196 -0.5695363 0.2995754 0.32559112 -0.36699277 -0.27194515 -0.17168012 0.26771995 0.13978481 0.02266118 0.0027751066 0.12416155 0.07408879 0.06227895 -0.11392905 0.1351032 0.18699376 0.24185014 -0.44529545 -0.16409205 -0.122517705 0.33481783 -0.2476235 -0.15451863 -0.092512645 -0.084277995 0.17160971 -0.09823714 -0.1633745 0.0058673937 -0.13777623 -0.15557635 0.05456284 -0.255731 0.33202967 0.024784923 -0.38738114 -0.22770205 -0.24842343 0.011287173 0.12812652 0.23996647 -0.40815195 0.09247782 -0.9703076 -0.16496903 -0.42771998 0.23301205 0.12988517 -0.11707115 -0.07203517 0.35138923 0.23779318 -0.25874305 0.01702124 -0.24688871 -0.010175477 0.05616207 -0.5219468 0.0938852 0.10973186 -0.12547079 0.024159351 0.023957238 -0.22403897 -0.11084359 0.051985364 -0.14073087 -0.19267638 0.076456755 -0.15750405 0.054350864 -0.17924464 0.20246163 -0.12505871 -0.15398562 0.15463749 0.1135244 -0.22619739 0.23919116 0.12846552 -0.35326523 0.22710715 -0.33250028 -0.2694177
我 0.12740165 -0.012898262 -0.003978338 0.06093943 -0.060474057 -0.26168233 0.22498254 0.22711374 -0.23429705 0.006439984 -0.49543327 -0.31618997 -0.15786695 0.0770582 -0.12949175 -0.017842408 -0.2174374 0.13543352 0.34192073 0.19055353 0.033103343 0.00059557473 0.2353445 -0.30281353 -0.40749258 -0.265031 0.18421979 0.18381485 0.19382778 0.16622439 -0.118651 -0.077230565 -0.07376655 0.06955953 0.13478868 0.10218969 0.1493985 -0.32572418 0.38675725 0.06998376 -0.13060287 -0.14038785 -0.20015073 0.23068562 0.31249508 0.08845909 -0.073683724 -0.07164377 0.062011432 -0.15201166 -0.12403593 0.07724645 0.21609658 0.050211545 -0.12952538 0.19148482 -0.0372778 -0.04877555 0.5340449 -0.32571647 -0.010741262 0.026369557 0.022252852 0.09232041 -0.19421251 0.07178676 0.6077037 0.10976281 0.038826503 0.044612106 -0.2568645 0.16658124 0.08415378 0.07681097 0.48859832 -0.24134207 0.21388435 -0.048319455 0.16841157 -0.12548319 -0.17019254 0.22542252 0.122431695 -0.23042022 0.0015833732 0.04048888 0.005515821 0.11510453 0.004332506 -0.059182663 0.14890592 -0.0665032 -0.095131636 -0.36594176 -0.18017188 0.27138913 -0.343769 0.11043816 0.14430828 0.16357857
路 0.33391315 0.122256614 -0.12564194 -0.0021827566 -0.22254062 -0.14578834 0.07223783 0.18782046 0.06047428 -0.19910945 -0.020988382 -0.15828475 0.19385341 0.25620693 -0.2669303 -0.31234095 0.089007564 0.26623604 -0.09842948 0.35222295 -0.14902827 -0.08938127 -0.4874339 0.38442045 -0.36447948 -0.24438304 0.08439997 0.38466403 0.14334054 0.026816782 -0.12226359 -0.0075931144 -0.0045157764 -0.16654547 -0.068503425 -0.18011212 -0.12886088 0.31320715 -0.19996238 -0.14171593 0.10796428 -0.07729823 0.07220011 0.056168344 0.056977592 -0.21467018 0.21429692 0.2019662 -0.35748306 -0.1447805 -0.19147375 0.22599092 -0.026307624 -0.024970056 -0.07301699 -0.041698862 -0.2878767 -0.06944493 -0.21142189 -0.4464488 0.47488472 0.18895587 -0.03495566 0.10037503 0.016942263 0.1354988 0.09541337 -0.3493779 -0.13895264 0.16868956 -0.04803836 0.155759 -0.11897236 -0.14292444 0.836205 -0.26847512 -0.052272007 0.016239591 0.15003596 -0.14411373 0.10394364 -0.06333232 0.0074877515 -0.2189412 0.12511247 -0.29318863 -0.009595834 -0.073717095 0.047867015 0.11757212 0.12056247 -0.08022079 0.26150775 0.19425043 0.04299289 -0.07614979 0.11537592 0.09432809 -0.051437154 -0.09953312
在 0.021269688 0.29453337 0.28959727 -0.15653186 -0.20103142 0.15663913 0.08600949 -0.6908999 0.12993562 0.09134301 0.04284154 -0.13711457 0.10728973 -0.34987947 -0.05110745 -0.12508516 -0.3715535 0.057382796 -0.040408015 -0.09467259 0.3011726 -0.0064585702 -0.13842998 -0.2586732 -0.13839567 -0.17826606 0.25788394 0.1584734 -0.22207984 0.09998832 0.09095796 0.36652637 0.51930183 -0.25939628 0.1267176 0.11480033 0.027334202 -0.18968713 0.45087788 0.104308605 0.0019178772 -0.29161462 0.028665591 0.23095402 0.03698871 0.06041923 -0.0953653 -0.17972705 -0.3518712 -0.048793603 -0.04360683 -0.07021728 0.058497474 0.3692901 0.11338334 0.10545858 0.09926933 0.17233406 -0.2505838 -0.62596875 0.32910532 -0.21198986 0.11433716 0.06426597 -0.13221057 -0.13592131 0.015211523 -0.08077874 0.05380548 -0.09446784 -0.16006514 0.1931075 0.46766093 0.4751832 0.35059702 -0.032504186 -0.11570964 0.010670191 0.21796514 0.1894521 -0.38533 -0.31635422 -0.28929737 0.15464984 -0.32520136 -0.09595401 0.113817304 0.06921021 -0.5709128 0.041918688 -0.0150791155 0.010528462 0.11437535 -0.17196408 0.12391676 0.52582675 0.11484384 -0.12537718 0.0006075053 -0.08192391
已 -0.028185457 -0.19377439 0.09162881 -0.041661102 -0.0054613715 -0.034299515 0.06388747 0.05947709 0.09313286 0.05801175 -0.23004478 0.060897272 0.18586987 0.011347137 -0.068123594 0.042222694 0.03219892 -0.0394792 -0.12627484 -0.116246305 -0.16490693 -0.043322008 0.13849887 -0.106594294 -0.033428553 -0.4411561 -0.086920224 0.19706264 -0.13142794 0.5884481 -0.3790357 0.29586 0.17846821 -0.41118947 0.01066598 0.15880045 0.11416204 0.43715057 0.7126864 -0.15420018 0.23900908 -0.07537117 -0.1933973 -0.09043008 0.030549591 -0.45714322 0.025861692 0.23645644 -0.15404533 0.09150872 0.14967982 -0.36647555 -0.086866625 -0.08958574 0.40511623 -0.0945574 -0.15764306 -0.2844591 -0.36895743 -0.3369481 -0.011760695 0.2696432 -0.05861042 0.017373405 0.055113353 -0.42404616 -0.09879661 0.1953925 0.22610106 -0.03627627 -0.120905414 -0.24642755 0.19196166 0.14805497 0.6063117 0.4252075 -0.05374113 0.006740735 0.020040985 0.052479226 -0.025173247 0.34031346 -0.3975818 -0.35783654 -0.10330987 -0.008035963 -0.19589254 -0.29930764 0.027251225 -0.029756056 0.09580062 -0.13653862 -0.18251881 0.028180491 0.1656133 0.13864422 0.10349028 -0.12521861 -0.022722837 0.25966245
得 0.43303403 0.13163681 -0.100105844 0.2448703 -0.07464361 0.24266678 0.029714884 -0.11270765 0.4083763 0.161262 0.0659295 -0.10173959 -0.18859082 0.119843505 0.078927666 0.20796034 -0.6941844 0.2617247 -0.16663545 0.3453514 0.072060004 0.25957316 0.4975611 0.09930559 -0.23507416 0.00049049116 0.041435923 0.39467376 0.048010886 -0.09276567 -0.06743143 0.30815718 0.13430054 0.012158981 0.24637865 -0.05790377 0.027261183 0.04371701 0.44492733 0.013932165 -0.042136293 0.2837392 0.1442076 0.041674912 0.09594078 -0.081192374 0.09097727 0.10629555 0.07604642 0.08842077 0.109225884 0.3549227 -0.042511493 0.10542285 -0.2053247 0.05375361 -0.060552306 0.056322195 -0.17950341 -0.3374978 0.10217203 -0.2047699 0.59640807 -0.066678375 0.17125067 0.0047493866 -0.05568407 0.008044574 0.10647294 0.06847258 0.056203075 -0.0022420855 0.13042712 -0.21939023 0.0733198 0.12091228 -0.24456327 -0.005137344 0.033476867 0.103275225 -0.13575697 -0.0804914 -0.12022326 0.26990205 -0.09547427 -0.18692185 -0.015476559 0.14382698 0.12099476 0.24458133 0.08902122 -0.39113107 -0.27346954 -0.16767517 0.15117036 0.26161295 0.24096186 -0.10626709 -0.04024264 0.03131904
所 0.24103329 -0.08447217 -0.28938687 0.35358638 -0.02603112 0.2094859 -0.23436372 0.064675994 -0.08583398 0.07890934 -0.39425257 0.013754427 0.026703369 0.21922122 -0.15228075 -0.055869658 -0.40629968 -0.0442719 -0.113258265 -0.05540283 0.026497955 -0.02169532 0.21671748 -0.051963814 -0.19615206 -0.27857968 -0.39229333 0.06181318 0.41113192 -0.2269291 -0.07421348 0.007815653 -0.056563642 -0.06911658 0.106426455 -0.10037923 0.2669214 0.013078468 0.31821492 -0.20468737 -0.016714707 -0.08810986 0.1973528 0.22394884 -0.048305407 -0.026082607 -0.14875019 -0.22066745 -0.045123503 0.31126013 0.06960752 0.14737497 0.27609274 0.19814028 0.050443895 -0.24866508 0.026282975 0.2654474 0.16015033 -0.69564414 -0.18133524 0.02759674 -0.2662621 -0.11177157 0.116185576 -0.11307042 0.18135953 -0.03619182 0.031661544 0.1943858 0.061708085 -0.1015672 -0.09049775 -0.116849445 0.15283155 0.17885387 0.01909946 0.003948963 -0.057593413 0.31172448 -0.23600872 -0.024332378 -0.3727876 -0.16931005 0.014106835 -0.19583003 0.047163606 -0.3334619 -0.20123887 0.16249995 0.12818916 0.38913977 -0.004784438 -0.018909475 -0.04998279 -0.09081995 -0.13430697 0.12924336 0.043856654 0.19217038
民 0.18393993 -0.27044502 0.15479162 0.17232126 0.010679724 -0.3148389 0.2370322 -0.24609557 0.11074262 0.112243526 -0.31990388 -0.21835886 -0.042178243 -0.38615364 -0.12562977 0.20869362 -0.13090691 0.12449452 -0.12427982 -0.010971436 -0.42956507 0.20150001 -0.27609023 -0.106164746 0.11467474 0.12801847 -0.17947374 -0.13523306 0.5740515 0.07189004 -0.09907188 0.29283318 0.4023119 -0.2485285 0.062931135 0.050935052 -0.025382051 0.12124774 0.1865165 0.26437122 0.13807203 -0.04691718 0.07832106 -0.15517297 0.08752164 0.11718685 -0.033799835 0.08092224 0.28752998 -0.12038247 0.07466054 -0.24506882 0.013414998 0.13484329 0.36789107 0.40011954 -0.07350143 0.22034147 -0.31824887 -0.89730346 -0.12628473 0.044185534 -0.4847324 -0.0009861297 0.15693003 -0.13377316 0.14107434 0.14086163 0.54561466 0.09341365 -0.14790297 0.011958066 0.3889935 -0.24158171 -0.21483196 0.052858584 0.0023744125 -0.39615306 -0.33277008 -0.055761456 0.22707447 0.041303065 0.1412133 0.060922083 0.27184546 0.25898057 -0.06800101 0.015712213 -0.048585977 -0.051126864 -0.46221855 0.28215528 0.026377277 -0.10360765 0.052505292 0.0036441907 0.11670642 0.038110636 0.2330483 -0.0934584
小 -0.41574243 0.07751914 0.003956436 0.3451553 -0.054864015 0.050118472 -0.1163693 1.13302085e-05 0.056796126 0.024126725 0.07522473 -0.23808664 0.21444908 -0.06386195 -0.17943038 -0.14035557 -0.55806834 -0.13906822 0.17033628 -0.015094967 -0.22405778 -0.06097976 -0.27448425 0.33584994 -0.08121895 -0.016620586 0.07597421 0.012092628 -0.21898822 -0.040282365 0.46087936 -0.1404947 0.088511735 0.045594115 0.0035205088 0.21836996 0.17059644 -0.19354466 -0.019420879 -0.23542535 0.34166795 -0.19886918 -0.14454341 -0.109451674 0.057164308 0.055571854 -0.1410911 0.37791613 -0.12673585 0.042506363 0.18898687 -0.37834623 -0.029805733 0.33261895 0.10717459 0.61156344 -0.26768163 0.03126774 -0.079582 -0.4194441 -0.0130732795 -0.12428727 -0.06331643 0.047370773 -0.29564577 -0.16996135 0.23178937 -0.07546147 0.017864326 -0.4799274 -0.2637199 -0.17931885 -0.28477618 -0.15979062 0.5742155 -0.001717797 -0.07122205 0.27057534 0.032890737 0.08159057 0.3939648 -0.12834609 -0.07758154 0.16456926 -0.3020803 -0.1818033 -0.07649458 -0.08345688 -0.0939087 0.029909309 0.029567346 0.16402811 -0.1654638 0.0024674665 0.18236388 -0.1900175 -0.09150892 0.023792693 0.14089172 0.02825792
天 0.242302 0.32987446 -0.042534154 0.22710799 0.1341544 0.09748008 0.0028708994 -0.1828257 0.072577104 -0.16582984 -0.17770608 -0.47554094 0.02245924 0.0018561826 -0.0094158165 -0.25311202 -0.5678229 -0.28346464 0.37087786 0.15252423 -0.0105360355 0.22776566 -0.20416199 -0.075677596 0.14504682 -0.23256704 -0.12056205 -0.16101393 -0.14729568 -0.00869518 -0.2274147 -0.08165388 -0.022921402 -0.22217055 -0.19399793 -0.09231773 -0.00424479 -0.108183436 0.13595517 -0.047962334 -0.24742423 -0.17679772 -0.26762173 -0.51089656 0.062237214 0.36055356 0.2594417 -0.061873402 0.19571787 -0.27354777 0.027718 0.03381572 0.34814388 -0.08614603 -0.03165874 -0.16663769 -0.22964501 0.14813268 -0.10363267 -0.30415705 0.27083853 -0.10737163 -0.005467793 -0.16911149 0.1457626 0.14253184 -0.14458965 0.035414897 0.016806887 -0.01892711 0.03912277 -0.32301405 0.14497714 -0.48877016 0.46943212 -0.0057368944 -0.19487329 0.17978387 -0.03863321 0.3903015 0.2296499 0.035457607 0.2882792 0.071941495 -0.018640332 -0.04215577 0.16569592 -0.023751164 0.13380295 0.32352585 -0.038233604 -0.31810522 0.080839865 -0.030719416 0.23208652 -0.09722187 0.10474065 -0.03334117 -0.30643344 0.22399434
乐 0.2971458 0.12604406 -0.096094705 -0.059046123 0.123623595 -0.11521397 -0.032361403 -0.07386723 0.20830788 0.15035175 0.077414855 -0.23065667 -0.4201221 0.35215348 -0.0888063 -0.20517969 -0.3259798 0.24332167 -0.13011433 0.034527145 -0.018422822 0.12236963 0.055087917 -0.16518739 0.019941477 -0.17546138 0.038837098 -0.30447504 -0.070376284 -0.21832292 0.02392068 -0.14623818 -0.04959591 -0.3122612 -0.11499275 -0.0074984357 -0.1384936 -0.34470525 0.28182787 -0.21239962 0.17236127 -0.31757918 -0.31914255 -0.5844703 -0.06480791 -0.16855401 -0.18861221 -0.26908562 -0.11969095 -0.24216343 -0.0254109 0.14160046 0.17604367 -0.042115115 0.27638972 -0.32743156 -0.31075314 -0.009540481 0.4334338 -0.8346234 -0.44738877 -0.1346915 0.19295071 -0.07305596 0.05223947 -0.11854256 -0.28130668 0.0044651576 -0.22338523 0.3993702 -0.008136528 -0.12575734 -0.018580915 0.0305627 -0.1752276 0.09193323 0.4442855 0.29710403 0.013920205 -0.22194335 0.003311837 -0.051464483 -0.04461967 0.42268908 0.08812149 -0.28708017 -0.035458505 0.020437356 -0.0024786708 -0.15807404 0.07463011 -0.2495851 0.053883124 0.3779082 0.028202042 0.1139225 -0.22989736 0.28914875 0.10130595 -0.25249833
邦 0.22495644 0.053413413 0.19983406 -0.03476323 0.2492065 0.047233056 -0.12959445 -0.009352039 -0.031241357 -0.11019422 0.04199452 -0.24043097 -0.10536244 0.18970165 -0.18632147 -0.17415568 -0.6249945 -0.4024194 -0.10289574 -0.4083308 0.038792048 -0.021099098 -0.015962387 0.10638866 -0.04452228 -0.5683895 0.025152905 -0.046448827 0.08917991 0.057369042 0.2691953 0.19672726 -0.26128766 0.036158025 0.16490494 -0.3221754 0.19294788 -0.12581308 0.4278373 -0.0292865 0.39002845 0.12965542 -0.1519392 0.43456748 -0.26142758 0.34662712 0.054579813 -0.076021805 -0.1337832 0.06904417 -0.24651447 -0.099666834 0.0012727568 -0.11404217 -0.063108884 0.2400956 -0.19219752 -0.056040373 -0.18361413 -0.17705739 0.0867888 0.13212968 0.12101936 -0.033549093 -0.21005458 0.12757841 -0.097885355 0.32320136 0.026039112 -0.12897898 0.4280063 -0.002446969 0.12462281 -0.4552849 0.2993109 0.14130308 0.22172897 -0.12707329 -0.099574625 -0.05784571 -0.14920749 0.03710738 -0.07536012 0.068735115 -0.205791 0.15096843 0.17983118 0.15598878 -0.17596854 0.18843982 0.03740655 0.094444305 -0.30225292 0.38059208 -0.02348276 -0.59871113 -0.24601665 -0.1927377 -0.05418016 -0.3112754
亦 -0.16985048 -0.27926874 -0.07418197 0.23460892 -0.009272514 0.15644349 -0.058772705 -0.3032973 -0.11824388 0.0030516572 -0.3971004 0.29011372 0.12918353 0.21288283 0.09280642 -0.21001676 -0.50110877 -0.2542013 -0.12955515 -0.41425732 0.17518932 0.30710647 0.11101121 0.11086654 0.14621353 -0.00036788313 0.25832912 0.19770034 -0.3769109 -0.44116324 0.038894486 -0.10345041 -0.30011353 -0.08517131 -0.08243517 0.09620569 0.12970659 -0.17642662 0.014002366 0.11602306 -0.046487078 0.20172699 0.26588896 -0.21928279 0.18408485 -0.015282768 0.21143946 0.17717002 -0.031710144 -0.42908028 0.047999892 -0.18607259 0.65737253 0.15596281 0.39188915 0.010165044 0.110447116 0.20089334 0.12078642 -0.5559536 0.18476729 0.05178755 0.08873084 0.15015449 0.3731796 0.14651808 -0.47368896 0.331705 -0.33111927 0.12612416 -0.09694027 0.1897131 0.10126181 -0.21361308 0.44478148 -0.08267286 -0.26244438 -0.55813295 0.0074715666 0.10990424 -0.03557805 -0.014675589 0.13035889 -0.014539702 0.016965192 -0.054816853 0.25764605 0.38214824 0.054794516 -0.2482496 0.16423559 0.22533758 -0.26712644 0.2372766 0.12214593 -0.09773689 0.21418646 0.060677983 -0.088303305 0.28225592
使 0.17401923 -0.26077804 0.31891158 0.24541168 0.124143116 -0.5379097 -0.40656546 -0.2873066 0.013523616 0.030549403 0.047719777 0.00062718114 -0.14173324 0.28681824 0.12016585 0.27950743 -0.227796 0.4730456 -0.4192085 -0.11853765 -0.017501669 -0.2137426 -0.18417442 -0.4042468 -0.00878822 -0.17885368 -0.41503087 0.073327295 0.4476327 -0.27658105 0.04761113 0.013894048 -0.21397434 -0.42669353 0.03982664 -0.055424143 -0.0892883 -0.20560013 0.10839603 -0.004704411 0.1709456 0.0030891479 0.13261682 0.32149306 -0.026029175 0.12689629 -0.09149273 0.45252195 0.33412996 -0.17931715 0.12971146 -0.42575917 0.13742533 0.24348697 0.10076791 0.18585403 0.0975986 -0.0034154756 -0.002584808 -0.28446835 0.06425293 0.12738943 0.31811967 0.3247479 -0.2933431 0.36148787 -0.18974003 0.27953252 -0.23146117 -0.03774342 0.060262658 -0.22805882 0.040853653 -0.0070943325 0.58133566 -0.21630931 0.008084871 0.11568684 0.034420356 -0.008534186 0.023435032 0.02479099 -0.10093413 0.07588199 0.01476913 0.050601885 -0.078246064 -0.33950347 -0.0021796222 -0.10176382 -0.087807104 0.07849694 0.08244786 0.045015864 0.18338774 0.07352998 -0.012044807 0.07339583 -0.032690227 -0.28726864
大 0.073508725 0.16586818 0.43149766 0.1092844 -0.28992566 0.02349808 -0.08896079 -0.23102663 0.23901877 -0.032814004 -0.04880935 -0.021840602 -0.058908757 0.03439841 -0.10788999 -0.06879142 -0.30542654 -0.1048677 0.36334652 0.38272703 0.14539023 0.11803003 -0.121167585 -0.042582806 -0.1818571 0.0972439 0.139044 -0.30533537 -0.04577884 -0.44475135 0.0323184 0.13456051 0.12515812 -0.22991881 -0.3887478 -0.18275249 -0.2671506 0.041425217 -0.25540876 -0.3291186 -0.13151886 0.31517854 -0.009864743 -0.011741811 -0.27511054 0.049996376 -0.04609475 0.118931465 0.025011312 0.07813879 0.13921534 0.09785749 0.369734 -0.19445358 -0.2678926 -0.23886806 0.0010030007 0.272644 0.18873943 -0.46483907 0.13053077 0.30535114 0.017760959 0.43926376 -0.13570303 0.1090335 -0.00039475388 0.10698694 -0.05643188 -0.17770602 0.03428632 0.10384044 -0.347617 0.10611092 0.43921474 -0.12322435 0.064085245 0.020483289 0.0005779084 0.3272881 0.18715626 0.21126778 0.15270923 -0.43258646 -0.067433104 -0.07163568 -0.041831348 0.17338225 -0.07259613 -0.15122102 -0.04781235 0.32132536 0.028644258 -0.0035795406 0.19578174 0.07795931 0.026772497 0.16746996 0.0053387596 -0.45185593
下 -0.031454258 0.080847956 0.06228972 0.2902297 0.09243628 -0.08681459 -0.09908131 0.10739371 0.2664985 0.071371995 -0.45581284 -0.5135458 -0.09935092 -0.4106161 0.26855344 0.0013223384 -0.48259315 -0.30800062 0.031824734 0.14004996 0.1502084 0.010172357 -0.1362476 -0.4087088 -0.16117938 -0.12896498 0.37241194 -0.034182433 0.1342738 0.12976758 -0.052581154 0.033729922 -0.21428554 -0.3963474 0.5136791 0.22665669 0.026777808 0.19386813 0.16004002 -0.12615134 -0.14415182 -0.08497937 -0.11658377 0.15339531 0.3907213 0.02739498 0.021190407 0.040181603 0.3778886 0.41032526 0.081351385 0.2733045 0.036262617 -0.1437124 0.10371751 -0.098460265 0.05100254 0.04588278 0.17428418 -0.3431354 0.021333363 0.021608647 -0.13469394 -0.08750918 0.04188847 0.14519697 0.11115702 0.06991497 -0.15200341 0.19519402 0.22089972 -0.22699662 0.1892541 -0.12547822 0.35066715 -0.15192448 -0.4275521 -0.5137051 -0.2852011 -0.23924205 -0.056370564 -0.025502581 0.055476103 0.10043238 -0.019519292 -0.14185762 -0.15504847 -0.44588315 -0.20580424 -0.39205566 0.08401579 -0.11526099 0.06851002 -0.16824265 -0.21119426 -0.56873417 -0.17798299 -0.4690881 -0.43424878 -0.087158844
贡 0.22569537 -0.033519432 -0.16382253 0.28677177 -0.20289335 0.3458043 0.36425892 0.019571502 -0.36660284 -0.5796115 0.043962944 -0.2966965 -0.5301393 0.57619196 -0.19813558 0.17895429 0.23451819 0.101430394 -0.04820081 0.15603395 -0.066168375 -0.07172093 -0.14730735 0.18495837 0.14391768 -0.1990898 0.43673357 0.1706956 -0.15535349 0.23287801 -0.34869632 -0.13983262 -0.034160092 -0.124024205 0.27274436 0.170898 0.02142274 0.26560405 0.2038424 0.08738602 -0.106960416 -0.03950677 -0.28789014 -0.17758179 0.25659382 -0.065847665 0.12844825 -0.099236794 -0.18681009 0.25534496 0.010897935 -0.069854125 -0.092605956 -0.17225097 -0.056573387 0.22494781 -0.0064764093 0.040082276 0.0063688178 -0.39119238 0.15064937 -0.10670291 0.14834948 0.109054886 0.30963963 -0.08626647 -0.10031552 -0.09224346 -0.06808784 -0.111153916 -0.03240975 0.0010119186 0.18611942 0.1349819 1.260078 -0.1086362 0.074973956 -0.32111937 0.27168524 0.3557138 0.12769327 0.114284985 0.04570797 -0.16584498 -0.07254466 0.1416448 -0.2766491 0.052697334 -0.35358393 0.13384143 -0.16415198 0.1960653 0.092042424 0.11351188 0.018352624 0.08874597 -0.23453267 0.061164048 0.19437414 -0.28752494
欲 0.17438628 0.1380156 -0.03848982 -0.0003548673 0.20412658 0.13572164 0.10388459 0.046034813 0.32214493 -0.38524657 -0.1244402 -0.19166018 -0.018960638 -0.06898188 0.15527403 -0.5128538 -0.3282461 -0.16137342 -0.11275529 0.32139385 0.019042846 0.25742775 -0.17853314 -0.13959469 0.03767814 0.00084973196 0.2279105 0.14502978 -0.095697016 0.24743393 0.23270726 0.11313529 0.034116324 -0.24212918 -0.11184247 0.0041674287 -0.13726777 -0.15936714 -0.058824323 -0.24424708 -0.33310872 0.03437494 -0.015871285 -0.101404466 -0.16230065 -0.1804513 0.00032401097 0.52520657 -0.2810778 0.67755944 -0.042815782 0.041515596 0.3832168 0.019926205 -0.28764692 0.026057871 0.043721575 0.12586823 0.22067016 -0.41819227 0.20589387 0.08571943 -0.15835042 0.19370443 -0.23026286 0.4399196 0.121611826 -0.19080873 0.33691898 0.4180402 -0.13622381 0.04926861 -0.064062186 0.1512166 0.53736156 -0.0013665366 -0.23947977 -0.019653937 0.19008286 -0.13277036 -0.28369918 -0.15474297 0.19751127 0.017880872 -0.011520304 -0.20879477 0.0016696784 0.16098492 0.11520265 0.05221855 -0.319554 -0.31723458 -0.21946295 -0.16362214 -0.3187204 0.22771926 0.105494685 -0.1045442 0.11526663 0.038160242
诸 -0.061629143 -0.23523585 0.059965897 0.017720426 0.25721347 0.2794358 -0.06382752 -0.4384934 -0.04736538 -0.0081198355 0.15383597 -0.015611483 0.64055157 0.10569896 0.14673707 -0.2176366 -0.29537794 0.10895846 -0.07104756 0.36363745 0.050747596 -0.22353438 -0.3443544 0.128563 0.2240016 0.27038696 -0.31734896 0.118525825 -0.03771159 -0.019412242 -0.50246644 0.029078105 -0.025212154 0.17894427 0.39714625 0.079123706 -0.10462307 -0.2758118 0.22418475 0.0081410855 -0.0837757 0.04317787 -0.11492216 0.46862578 -0.4176909 -0.32302564 0.37947538 0.13191329 0.14581326 0.3987984 -0.2151896 0.18147148 0.044763792 0.17287882 -0.12565859 0.24010736 -0.33378297 -0.0192433 0.26597038 -0.31383097 -0.41048434 0.056753237 0.2557884 -0.15044467 -0.16743329 0.49968392 0.3453092 0.06121295 -0.13486372 0.28702596 0.12794945 -0.110424995 0.10907875 0.23941986 0.76802856 0.47672552 -0.112588 -0.14480433 -0.26585996 -0.0056282654 0.5194412 0.23469803 -0.41012174 -0.24739361 -0.16114613 -0.09433245 -0.21626672 0.28444803 0.15909304 0.28930044 0.07663201 0.11071761 0.14328106 -0.3376511 0.05601613 -0.18513934 0.026411673 0.08319064 -0.2226871 -0.21283154
从 0.13965404 -0.10982365 0.24423318 0.21724339 0.17115252 -0.056748513 0.048900202 0.06312885 0.21372429 -0.16704147 -0.06438014 -0.17075634 -0.15106283 -0.19947304 -0.19926055 0.3179491 -0.3214417 0.20738119 0.30193746 0.21111499 -0.13677742 -0.025971262 0.12010581 -0.13301532 0.035757788 0.0025791056 0.37886143 -0.16158465 -0.40457305 0.08165182 0.07955181 -0.011444329 0.3239257 -0.37512356 -0.24121693 0.16718915 -0.091732904 0.23784329 0.38371366 0.32340825 0.024793642 -0.06771553 0.16594973 0.49621403 0.11820597 -0.12316563 -0.19482785 0.21323556 0.0027891588 -0.33275717 0.021921175 -0.10376445 0.40042365 -0.05574602 0.12593532 -0.40698466 -0.15195207 0.1992486 -0.119648 -0.30816576 -0.07139782 -0.06901477 -0.12104107 -0.3686826 -0.17807758 0.046378933 -0.18831687 -0.1390003 0.11891587 -0.25081262 0.10056795 -0.032261662 0.06397293 0.31491086 0.31644973 -0.15997837 -0.12518138 -0.45243287 0.012163099 0.0009514347 -0.22700928 0.039547484 0.0084695965 -0.026963446 0.24363297 0.18330474 -0.25237885 0.28522933 0.091622785 -0.022312984 0.12986998 -0.048905093 -0.31397575 -0.335656 0.14181186 -0.114756614 -0.11798971 0.30674794 0.06720681 0.13015342
文 0.10872739 -0.35145184 0.21390475 0.15668254 0.2660035 -0.3611242 0.23805316 -0.036020257 -0.18209088 0.12103274 0.5928348 0.09807666 -0.06706933 -0.081688575 -0.19138284 0.12572668 -0.19207746 -0.32025236 0.23327771 -0.38855454 0.024973061 0.23237447 0.025266994 -0.084715135 -0.28018004 -0.3642323 0.34142086 0.12010669 -0.043604095 -0.13706273 -0.16865739 -0.360424 -0.21102683 -0.101614736 0.24827276 0.16688871 0.18304461 0.47120446 -0.026644994 -0.02692596 -0.052568942 0.03527601 0.20441835 0.21698952 -0.21189412 0.06621507 0.21848388 0.075440414 0.21955167 0.27356455 -0.06054488 -0.08589882 0.16952606 0.0021402612 0.10233793 -0.1764117 -0.11981372 -0.041513015 0.16675548 -0.2436939 -0.3802081 0.13579574 -0.41450986 0.22744739 -0.09945014 -0.343867 0.1565537 0.11955576 -0.20982808 -0.3483101 -0.028188959 -0.07609986 0.17823344 -0.24556792 0.6751569 -0.28131622 0.05614565 -0.0078311935 0.08153782 -0.17935827 -0.005368108 -0.27240092 -0.10397249 -0.11124862 -0.04795771 0.14781828 0.025027057 -0.22165799 0.14797443 0.06628746 0.09031075 0.15458742 0.028781336 -0.10581079 0.03631042 0.17645496 0.2014933 -0.042965874 -0.45875117 -0.39603603
政 0.29673946 -0.033686373 0.25935286 0.2023485 0.28149545 -0.093817756 0.24005757 -0.25774586 0.19780447 -0.106096305 0.0148337 0.0052463296 0.0301733 0.12343045 -0.02776627 -0.053175032 -0.53238434 0.1802953 -0.064026795 -0.31827524 -0.22420354 0.14946872 -0.25730675 -0.1369144 -0.22468561 0.11950248 -0.41183499 -0.28645983 0.14702047 -0.055963613 -0.1420427 -0.1258827 0.02041059 0.021878975 -0.20068252 0.13481073 0.038504645 0.18473467 0.15796828 -0.11563134 -0.12878212 0.109903775 0.31881905 0.07942254 0.25727582 0.39696532 0.15930277 0.52701396 -0.011884641 -0.6629745 -0.011510656 0.17277013 0.22941703 0.31372657 0.16883887 -0.22959928 0.47843638 -0.02508888 -0.029585555 -0.19835965 0.015555749 0.16196136 -0.31826934 -0.3836163 -0.38856405 0.32722333 0.48535645 -0.34014368 -0.12054005 0.1323943 -0.088126086 0.05505631 0.060609147 0.0026933665 0.8074026 -0.14944912 0.1449971 -0.37203252 -0.0040654778 0.046288013 -0.01532203 -0.09849537 0.194891 0.027516998 0.11199951 -0.13298841 0.4596976 0.13626392 -0.18939853 0.04238426 0.08751865 0.25912642 -0.17871465 -0.134666 -0.13334069 0.11368398 -0.4666073 -0.021204924 -0.0074320384 -0.19955522
食 0.297039 -0.6421976 -0.11203528 0.015890284 -0.07896835 0.077806525 -0.075850785 -0.10988181 -0.008423323 -0.2833302 -0.036267724 0.052113295 -0.27873477 0.13544266 -0.30465257 -0.38836387 -0.25337547 -0.38686198 -0.10676047 -0.34039447 0.20261139 0.15651883 -0.41788426 -0.06284838 0.3543173 0.11251039 -0.24528107 -0.018625861 -0.279474 0.30906934 -0.28270167 -0.2544433 -0.1727787 -0.41019166 0.165622 -0.42697224 -0.31672654 -0.06236416 0.046859965 -0.17306428 0.314437 -0.33047304 -0.02144976 -0.3545628 -0.05841976 0.20295314 -0.168869 0.4340381 0.07467295 0.34032995 -0.13317876 0.027986528 -0.5675959 -0.14538866 -0.08711992 -0.14116521 0.110402256 -0.14751193 -0.36847627 -0.62522906 0.115864515 0.099931285 0.055550676 -0.12923644 0.31990978 -0.3084511 -0.28924906 0.25377557 -0.10393015 -0.01359694 0.2599439 0.025884463 0.05984202 -0.3188936 0.13059892 0.29192144 0.03479856 0.03264812 -0.073910125 0.05218567 0.1802512 -0.4109599 0.024206396 -0.2861477 0.27405626 0.047403794 0.13136232 -0.2861326 0.04338132 -0.17523354 0.1138866 -0.11957671 0.02720497 -0.26391238 0.024543198 0.25910732 0.22038971 -0.02060313 -0.278557 -0.42045462
善 0.54494745 -0.38119742 -0.31053987 0.14150053 0.110500425 0.06273931 0.47900927 -0.003976955 0.07867155 -0.20252523 -0.31051034 0.1952758 -0.39203072 0.061448928 0.09098866 -0.3149777 -0.18555795 -0.024369882 -0.22687846 -0.27172443 0.04373679 -0.024786677 0.43070182 0.3101276 -0.039977565 -0.008785994 0.23985668 -0.18094987 0.136289 0.05027381 0.34051245 -0.11157034 -0.100015044 -0.18873055 -0.15665258 0.025464768 -0.41063815 -0.09062866 0.019580513 -0.20426184 -0.31323338 0.054941747 -0.016618537 -0.15056945 -0.088732466 -0.24137324 0.16090363 -0.001191132 0.2421962 -0.14476232 -0.14204548 -0.094209544 -0.14501849 0.018601164 0.24552488 0.27457178 0.117429376 -0.014785318 0.33413905 -0.5833722 0.14320531 0.063150994 -0.36956614 -0.35055113 0.17843078 0.053899765 0.19771732 -0.05993498 -0.20123704 -0.21019472 -0.1578948 -0.023344781 0.1317441 0.11145905 0.29373863 0.40987518 -0.10754353 -0.20591104 0.1558 0.09657362 0.04834821 0.40732703 -0.45355546 0.25663358 -0.17897213 0.06153639 0.012764143 0.1260336 -0.05126229 0.13471311 -0.025810294 -0.04385617 0.041527275 -0.23609468 -0.14729393 -0.17087734 0.15317972 0.017431978 0.033055607 -0.36009347
后 0.2584476 -0.006328648 -0.22430332 0.12185036 -0.10221851 0.30131793 -0.27360022 -0.3104044 0.3641217 0.079126105 0.16879885 -0.098777734 -0.16973324 0.16058502 -0.26405263 0.33580476 -0.3551582 0.37970662 0.0825312 0.14791247 0.085176416 0.08748256 0.10492939 0.5522166 0.0074156555 0.1083636 -0.47319642 -0.06539678 -0.23386376 -0.049176857 -0.1374243 -0.055987865 0.30843556 -0.26109937 0.017925287 0.045116175 -0.4431939 0.10692954 0.1588926 0.035863563 -0.13554582 0.33176252 0.021740494 -0.051291484 0.041692194 -0.31814298 0.12876664 0.03200344 -0.07538411 0.017884571 0.2043123 -0.0743807 -0.08664373 0.010662361 0.21459325 0.08894285 0.09095222 -0.05172664 0.30769926 -0.33889005 0.20208551 0.075030185 0.3506356 0.49250302 0.13563532 0.024538256 0.17538407 0.22680838 -0.1253472 0.03618775 -0.08203405 0.4188795 0.039621957 -0.25279355 0.39875796 -0.037884463 0.09974778 0.044100333 0.25150207 -0.1821236 0.38467968 -0.44945437 -0.05814395 -0.2545549 0.2883491 0.043437585 0.12314077 0.28768125 0.48826674 0.07872394 0.08463532 -0.09776852 -0.16423896 -0.0033424217 -0.4944115 0.06020341 -0.20442735 0.214253 0.35036325 0.013093504
德 -0.30144218 -0.057332695 -0.045078088 0.068890326 -0.28933692 0.04535094 0.17255735 -0.1429777 0.20633858 0.27541262 0.28517205 -0.13173749 -0.2319433 0.3381214 -0.0695015 0.20744517 -0.6769061 0.087031916 0.25715587 -0.47385302 0.2549187 9.43194e-05 0.058747914 -0.4595283 0.14324985 0.13814119 0.2078475 -0.03323492 -0.038772363 -0.22389854 0.039623857 0.40913546 0.36451912 -0.1478487 -0.23623024 0.29637358 0.32063547 -0.25825122 0.14491908 0.021828955 0.14045493 -0.031218579 0.23367198 0.108351424 0.005729774 -0.34791318 -0.10480021 0.19521096 0.047080103 0.0043642744 0.05125796 0.10133753 0.10482849 0.009374254 -0.04712383 0.22235227 0.38741115 0.35626748 0.020619271 -0.21354243 -0.042577427 -0.19011602 0.23062496 -0.053449143 0.3504531 -0.2170595 0.06065374 0.103204265 0.40523028 -0.19072324 0.075223416 -0.19281925 0.07830952 -0.05309254 0.5896186 0.08444674 0.26226 0.20690449 -0.4119729 -0.0026925765 0.33146134 0.0043623075 0.14399087 0.282661 -0.3270715 0.09387652 0.0073066736 -0.097196005 -0.4269767 0.20960043 0.34216413 -0.14323463 -0.20381147 0.23379786 -0.115482956 -0.3139939 0.09727505 -0.26466647 -0.11607584 0.13433598
求 0.5600535 -0.045456175 0.21730386 -0.13927089 -0.15375984 0.0974212 0.23444773 -0.089958236 -0.395031 -0.3480627 0.24272953 -0.6573181 0.23254241 -0.10264693 0.11297049 0.09088118 -0.37422812 0.011331549 0.0035210731 0.4501886 -0.3073055 0.1575242 0.41820428 -0.37907508 -0.13831975 0.37623575 -0.12508817 -0.094413735 0.03375354 0.3983569 -0.14529103 0.116001286 0.16639331 -0.07265721 -0.01747141 -0.06369064 -0.20012091 0.11237682 0.16513711 0.21693236 0.2223329 -0.4125283 0.12862481 0.011533098 0.012874309 -0.0024238154 0.12316989 0.12816487 0.08365234 0.0028855128 -0.26159358 0.22769518 0.14845482 0.23936377 -0.16991667 0.11839206 -0.1313029 -0.19221878 0.33574697 -0.33908558 -0.10820503 0.2093561 0.027863182 0.033181228 -0.4819079 0.11706521 -0.59919447 0.08017094 -0.15502377 0.15984109 0.011198545 -0.094681725 -0.43833265 -0.117711395 0.48383582 -0.05705358 0.03218517 -0.13086098 -0.12366767 -0.04730863 -0.017875839 -0.28467694 -0.14763807 0.03404626 -0.2874027 0.18030787 0.09781078 0.09728739 0.2947658 -0.2375817 0.105159014 -0.06548353 -0.004186564 -0.16934158 0.33388364 0.14112343 -0.21389093 0.13612169 0.18016104 -0.39131704
对 0.14391269 -0.20328362 0.25005436 -0.079816125 0.25472453 0.19329871 -0.0960915 -0.20977895 0.114980854 -0.34018537 -0.120964825 -0.42322633 -0.23075104 0.5026746 -0.029159147 0.51843816 -0.18331528 0.028907418 0.07473369 -0.1588127 0.13259798 0.08058275 0.48862848 0.04391506 -0.1334461 0.09403234 0.083335996 0.1425175 0.22918683 0.06771949 -0.046508614 -0.12821706 -0.39204377 0.45789894 -0.15813053 0.37437242 -0.44130138 -0.28571174 0.07808606 0.09177492 -0.25371316 -0.25451702 -0.06996346 0.19711964 -0.16613996 0.19434866 -0.4886785 -0.051379226 -0.1298342 -0.24489082 0.31300485 0.34099 0.24712737 -0.14713289 0.16681705 -0.21611017 -0.29204232 -0.11177301 -0.08619724 -0.49539933 -0.26774567 -0.27507323 -0.033854604 -0.3731439 0.16323367 0.13796182 0.072075315 0.24646446 -0.29355177 -0.017658897 0.06284929 0.17867808 0.19686203 0.375186 1.0058528 0.15325324 -0.11984758 0.0015776688 0.24754746 -0.10112132 -0.3038529 -0.043964148 -0.38412946 -0.014901534 0.30587527 0.20627053 -0.022865944 -0.18820177 -0.046949293 0.15668501 -0.0009778324 0.031575195 0.16508384 -0.14812998 -0.21231467 -0.26951724 -0.12561217 0.19721438 0.47901976 -0.05012469
恶 0.128729 -0.041998625 0.15519392 -0.07968766 0.17391355 0.16883995 -0.16291586 0.1615125 0.17707592 0.08758015 -0.081044465 -0.34840226 -0.18654549 -0.23751438 0.1015956 -0.20745206 -0.4880909 -0.35808405 -0.16261272 -0.18810393 -0.07421691 -0.015021169 0.0023260235 -0.034577202 0.186376 0.45195922 0.3430498 -0.055022925 0.26818982 -0.013332897 -0.2158108 0.22224844 -0.308397 -0.018072251 0.0748713 0.17799614 0.3019829 -0.31147584 0.3503949 -0.34005406 0.23756807 0.124178834 -0.04707509 -0.28229553 -0.13798787 0.34045443 -0.027893253 0.39165625 0.09973545 0.54322505 0.32584867 -0.5162937 0.30833963 0.06808181 0.2359353 0.032709394 0.1403826 0.3786032 0.10394052 -0.5957798 -0.59961885 0.020946579 0.13672486 -0.45776302 -0.12582386 0.4133834 -0.13601704 -0.036551166 0.087667584 0.251782 -0.09882966 -0.23938975 -0.31500718 -0.048254386 -0.0351393 -0.0010899942 -0.1800346 -0.06448732 0.3984841 0.0071464567 0.06820409 -0.06735274 0.07521601 0.1633479 0.06431175 -0.3829382 0.08247401 0.23557714 -0.052901406 -0.25885674 -0.021805333 0.17881116 -0.29873523 0.4294985 -0.21479446 -0.085115194 0.071947455 0.028859671 -0.08068478 -0.1029476
信 0.017759342 0.008405395 -0.21859445 0.27093196 -0.077115014 -0.005029982 0.030035585 0.14633767 -0.12181987 -0.015246326 -0.03493356 0.13713053 0.31502926 0.38116598 -0.09460979 0.54311234 -0.49267307 0.02481183 0.27202308 0.03008366 -0.062215254 -0.08194821 -0.2554561 -0.19951406 -0.11890423 0.07533955 0.44341978 0.29767355 0.19646497 0.040753633 0.34329057 0.02742099 0.13512208 -0.62731856 0.0110247 0.28544867 -0.3846326 0.061102476 -0.12170096 0.35062945 0.023761285 0.074168876 0.05584905 -0.18112174 -0.25717542 -0.0025713819 -0.32812074 -0.07011076 -0.1400779 0.25173187 0.15094098 -0.020637149 -0.45996055 -0.0033822658 0.04997808 -0.21437973 -0.19316073 -0.12132708 -0.114356264 -0.7597947 0.31719398 -0.19419049 -0.00093029113 0.11937377 0.07030995 0.30640784 -0.14995383 -0.030532587 -0.03681651 -0.11967721 -0.08480576 -0.011240752 0.001980265 0.037566807 0.15348402 0.2290349 0.19601811 -0.2933657 -0.265736 0.39535284 0.0363648 0.34662154 0.050653175 -0.23745881 0.22972284 -0.11457343 -0.06860589 0.12365278 0.070720635 0.051683847 0.053981666 -0.18408062 -0.13261063 0.17592087 -0.22792152 -0.47275195 -0.27976552 0.28244606 0.20951156 -0.38109976
死 0.07803706 0.2813937 0.1936508 0.20526285 -0.12636687 0.39043185 0.16636775 0.015629003 0.21007289 0.021356462 0.23527333 0.32640117 -0.19293834 -0.45011562 -0.04936557 0.02216963 -0.5334845 0.14763176 0.10645992 0.07225488 -0.15434286 0.22494642 0.13706246 0.16520384 0.22936703 -0.06800143 -0.27273998 0.0795265 -0.03594388 -0.22642168 -0.0828946 -0.12416218 0.13088538 -0.034606323 -0.014397567 -0.088750765 -0.14898059 0.22724879 0.3241259 0.08412677 -0.05435457 0.35811955 -0.018642064 0.0890919 -0.1816233 -0.08298892 0.19330326 -0.121169254 0.19325657 -0.110503435 0.033251002 0.011179291 0.23389283 -0.18586941 -0.039012603 0.43984225 -0.014699659 0.19846107 -0.1813159 -0.32826123 -0.15722834 -0.1538735 -0.040403064 -0.04857155 0.21645893 0.15325052 0.03626087 0.2960269 -0.19082029 -0.072473586 -0.09355917 -0.009859611 -0.12843579 -0.2292388 0.26641232 -0.2981583 0.14513533 0.15110844 0.17499399 0.06975375 -0.37929037 0.47130743 0.25878555 0.13119256 0.6531547 -0.122515984 -0.044080075 -0.092927106 -0.11811492 0.333878 -0.4742827 -0.10349319 -0.4686704 0.35670453 0.3093993 -0.11976083 -0.046584602 -0.4220957 0.050311625 0.07299814
然 0.09331034 0.031557314 -0.07435221 0.48451793 -0.37454528 -0.15650542 0.3439826 -0.110033646 -0.05297829 0.15726534 0.27184063 0.28534117 -0.03139264 -0.2843702 -0.07936907 -0.35081106 -0.40859988 0.11091549 0.08182965 0.05391673 0.075436294 -0.15579493 0.08145621 0.19638734 0.06946174 0.1238168 0.123072036 0.43069077 -0.10200562 -0.09361996 -0.07848388 -0.16522652 -0.062377866 -0.056473386 -0.18609692 -0.2370537 -0.4287322 0.0050975773 0.27739057 -0.040564023 0.33890423 0.19494478 -0.016344702 -0.17983057 -0.05546431 -0.26297668 0.060645327 -0.19525822 0.29192886 0.2583042 0.2569375 -0.27310142 0.16980635 -0.06503656 -0.09241284 0.20776373 -0.14134073 0.17555764 0.12397741 -0.24581735 0.26793167 0.29395127 0.113765225 0.007367071 -0.092794515 -0.33259764 0.11036941 0.36004812 -0.00039207493 0.36138916 -0.19067803 0.07475621 -0.34814107 -0.35432467 0.70203424 0.15783425 0.15520176 0.0072217262 0.14030558 -0.17157254 -0.087135114 -0.13901205 0.2209075 -0.106342316 0.15277739 0.0123515995 0.04025209 -0.2549112 -0.018784571 -0.10797785 0.39475694 0.0037052762 -0.008216189 0.50818723 -0.29760674 -0.36233142 -0.252557 0.64092255 -0.05613936 -0.4339972
