1352 50
， 0.23510844 -0.19118498 -0.53721696 0.488931 0.3145888 0.57172924 -0.17425863 -0.4187043 -0.61464703 -0.020138253 0.08032932 -0.1669049 -0.26701933 -0.05118198 0.07305991 0.15064065 0.25598395 -0.9746216 -0.009570783 -0.47076407 0.75868034 0.077998705 0.12195076 0.0376345 -0.16360629 0.12744594 -0.2800279 0.021095173 -0.30422232 -0.44942614 0.35623842 -0.32164633 -0.14870718 0.5837123 0.62732047 0.30370194 0.09584051 0.13804328 0.005547702 -0.24232012 0.113667965 0.5044745 0.12783888 1.1293913 0.38278767 -0.20916423 -0.0626682 -0.0392447 0.34328547 -0.22521119
子 -0.24000537 0.23014586 0.43607354 0.03260568 -0.53341764 -0.0005147536 -0.6442203 -0.25064337 -0.30357108 0.25301874 -0.052351538 -0.22144757 0.04943551 -0.049634486 0.14882673 0.029744912 -0.11095675 -0.1064112 0.13145877 -0.077467605 0.23964198 -0.08535034 0.50563014 -0.09882001 0.07674633 -0.08406174 0.15054533 0.14624533 0.5444468 -0.36014515 -0.06615988 -0.07766361 -0.0151311625 0.28095254 0.246354 -0.08169252 0.041858524 0.08918306 -0.3237575 -0.15097162 0.08124966 -0.5282471 -0.7952344 -0.07016943 0.35205266 -0.12569223 -0.19388087 1.4243184 0.030808922 0.23205465
。 -0.015024532 0.08425058 0.081499785 -0.2758782 -0.584009 -0.08061538 0.19937399 -0.6093842 -0.5782758 0.203951 0.43918458 0.1770208 0.22169949 0.08462695 0.069244094 -0.22783226 0.34013897 0.16362682 0.86248904 -0.46292916 0.9174555 0.35104278 -0.26031056 -0.2639253 0.2313702 0.44498977 0.36449733 0.22334535 -0.21271515 0.18905847 0.08726366 0.16021122 -0.3214127 -0.4012436 0.062904954 -0.14554334 -0.42629996 -0.2039269 0.35202894 -0.4906716 0.1838566 0.07991603 -0.28634727 0.5767416 0.19725314 0.06205001 -0.22125573 -0.21165615 -0.024290133 -0.26779327
： -0.31872264 0.113385476 0.12953104 -0.195197 -0.008313186 -0.2942394 0.20298043 0.10339536 -0.17335944 -0.082538076 0.15987784 0.038014784 -0.094858915 -0.08241431 -0.51642114 -0.43666768 0.0813106 0.056601558 -0.5013815 0.14904638 1.1013368 -0.085505866 -0.16592121 -0.010854401 0.24024114 0.45458025 0.15669027 0.15029457 0.10390597 -0.06646311 0.30190045 -0.28213075 -0.6409286 0.015821077 0.082397625 0.04890119 -0.0514708 -0.45739692 0.32285643 0.33106163 0.2654208 0.14647144 -0.2971406 1.8500814 -0.07103985 -0.07820312 -0.022492364 0.7526221 -0.5345641 0.30958185
曰 0.4304747 -0.13010031 0.15729646 -0.23859523 -0.9897625 -0.098448195 -0.5340536 -0.68540484 0.3926869 0.12980753 0.3652299 -0.5804564 0.241653 -0.45473483 -0.19003645 0.15953147 -0.004149746 -0.46533817 -0.09656874 0.09182104 -0.4494915 -0.25618485 0.34376726 0.0061088186 0.393977 -0.48277494 0.014401152 0.14986219 1.4690236 0.13898799 -0.44628692 -0.07210554 0.16253105 0.33638424 0.17705292 -0.39400128 0.23691899 -0.04359876 -0.21494634 0.056788266 -0.11025461 -0.26866278 -1.2621834 0.82215834 -0.10195976 -0.1484505 -0.058704272 0.18530542 0.42635962 -0.16469884
之 0.6786642 0.04704463 -0.3633398 0.13809554 0.2539812 -0.23666002 0.57587415 -0.6426317 -0.06140948 -0.21931005 -0.05834323 0.46440196 -0.016854111 -0.17066929 -0.27398685 -0.050302174 -0.4337226 -0.2825921 -0.16438389 0.13248357 0.5477594 -0.70307547 0.37709546 0.097880274 0.43201983 0.1567806 0.338913 -0.054149237 0.27080974 -0.414076 0.37380856 0.06816658 0.04715035 -0.4612784 0.0053958604 -0.15776758 -0.053922117 0.17595772 -0.13993469 -0.16877937 0.008081112 -0.14663766 -0.0134064425 -0.2313858 0.058138452 0.31543452 -0.23514697 0.36939156 -0.059814297 -0.12092667
不 1.2461823 -0.13476358 0.68406916 0.25536412 -0.20743531 0.79084164 0.17418595 -0.055731602 0.105495386 0.15669835 0.35301572 -0.12865464 -0.23459099 0.42433026 -0.20192641 -0.37031874 -0.27006957 0.16087891 0.2500525 0.12873864 0.21751666 -0.08964251 -0.010194768 0.49190193 -0.03242609 -0.41142243 0.4116672 -0.50522363 -0.14549962 -0.16634825 -0.067999594 0.14862667 -0.5173855 0.43633837 -0.13591497 -0.31321368 -0.15711087 0.26713902 0.12933592 0.11781431 0.106790535 -0.03851726 -0.07628692 0.42072287 0.3393279 -0.14100108 -0.18618932 0.41304076 0.044961564 0.113151036
也 1.9456588 0.0021845107 -0.11351781 -0.17818871 0.40429568 -0.026654901 -0.28159636 0.04511603 -0.4665033 0.34748834 -0.1129114 -0.17720756 0.105588846 0.17620006 0.09937761 0.05011836 0.051930737 -0.504873 0.27383232 -0.12992725 -0.12543309 -0.13705014 0.49035257 -0.21129571 0.23584561 0.38559797 0.2125947 0.5265427 -0.105730176 0.039964 -0.08169993 0.14466888 -0.18261053 0.045883026 -0.21648717 0.32886338 -0.19776708 -0.01119441 0.44474456 -0.14546403 -0.7210551 -0.13387726 -0.14827062 -0.08000547 0.25302136 0.18757714 0.155234 0.63306534 -0.32083142 0.0007355865
而 1.4724901 0.046904184 -0.20692438 -0.34377456 -0.13400969 -0.5201889 -0.36071524 -0.10683099 0.1420707 -0.31318673 -0.05435963 0.34131652 -0.7203273 -0.13312268 0.08800101 -0.029506698 -0.24562551 -0.077649914 0.090401694 -0.23599708 0.63022405 0.24121317 0.09794207 0.2162645 0.6811725 0.0719053 -0.21548201 -0.2286344 -0.45677942 0.2091786 0.2127887 -0.49744716 0.13050833 0.01960303 -0.022721298 -0.34317473 0.0036741486 0.490073 0.63615686 0.0849142 -0.21735014 -0.81947994 -0.04042557 0.77528054 -0.21693134 -0.3559745 0.2612128 -0.23843963 0.23933841 0.22153272
？ -0.015918648 0.39611682 -0.0016233084 -0.11398683 0.7019074 -0.04474553 0.0709974 0.06360239 -0.41375974 0.73008776 -0.28523943 0.12282529 -0.24263653 -0.63531333 0.08842401 0.25268725 -0.3368057 0.1121199 0.1709011 -0.40549317 -0.47659597 0.045211557 -0.09279599 0.07519706 0.38135183 0.36299345 -0.17683871 0.16475263 -0.09293883 0.1962857 0.29997006 0.8350742 -0.123002835 -0.35423344 -0.17735627 -0.011603613 -0.12263592 0.20021793 -0.51559895 -0.13099316 0.3861022 0.011557949 -0.87608486 1.6829478 -0.053488106 -0.473845 -0.05222462 0.093120985 -0.0014064518 0.64986384
其 0.95686245 0.08288804 0.22063963 -0.19463281 0.36047408 0.09128408 0.051922213 0.01059732 0.32504028 -0.17047039 0.1844618 -0.082065225 0.13880378 -0.19704163 0.026474774 0.30960983 -0.020401215 0.19299895 -0.09164839 -0.23470256 0.38452435 0.20271792 -0.0036899713 0.17646691 -0.77634716 0.70092344 0.23701599 -0.4474868 0.35180557 0.16676101 0.47730175 -0.14277625 0.56835717 0.24499899 0.13501757 -0.46582362 -0.53843457 -0.39426917 -0.057972215 0.6767984 -0.2409744 0.39652702 -0.71842164 0.090295285 -0.22160132 -0.12039564 0.5064048 0.40475392 0.35580012 -0.2750402
人 0.6324471 0.011823648 -0.73866326 -0.060199816 -0.22808285 0.30823347 -0.39366117 0.18473923 -0.22440182 -0.4290159 -0.055684447 0.56093776 0.026255324 0.49113202 -0.531967 -0.22097601 0.21895944 0.18606281 -0.35220587 0.132938 0.002263797 0.38497698 -0.3474091 0.16141345 -0.3754382 0.19744873 -0.031235501 0.12078482 0.26723662 -0.025466418 -0.18477075 0.19029506 -0.86846924 -0.09029739 0.4024827 0.16594796 -0.09296067 0.3353367 -0.61581147 -0.54329324 -0.638021 0.18211532 -0.36665386 -0.08348708 -0.6728623 -0.15214206 -0.4760101 0.5351481 -0.041875325 -0.19813958
者 1.1034797 0.61378694 0.3694638 -0.071144596 0.16907604 0.39318553 -0.5730085 0.08532229 0.062516004 -0.09987339 -0.61765605 0.028026199 0.35737646 -0.17559387 -0.20472229 -0.1945937 0.124468 0.023982957 -0.08279589 0.36104724 0.2513218 -0.3393995 -0.05184088 -0.37176782 -0.32045364 -0.022051694 -0.13599399 0.18580914 -0.29373887 -0.11231098 0.6182226 0.72580135 -0.34326026 -0.78687954 -0.20966263 0.26634857 0.49975818 -0.03966622 -0.22855593 -0.11026191 0.19740927 -0.09913424 -0.2873639 0.02223018 0.03319458 -0.105719425 0.76492035 0.23029628 0.42483276 0.15201873
以 0.58956254 -0.28190592 0.11605214 -0.010540227 -0.18560536 0.6799463 -0.341705 0.40359116 0.1108287 -0.3611698 0.14340837 0.32487383 -0.21991864 -0.9119501 0.40635026 -0.5238586 0.50403243 0.530397 -0.19662699 0.24899393 0.35357168 -0.38661236 -0.019910216 -0.18143134 0.29225454 0.16065429 0.25515842 0.11349472 -0.6455678 0.3559074 -0.591096 -0.5124213 0.24698742 -0.033274114 -0.7949837 -0.32536086 -0.27288258 -0.35441294 -0.8148276 0.4136364 -0.41016874 -0.44077417 0.0856943 0.8408357 0.7499661 -0.004916402 0.123291716 0.5599826 -0.0071929744 -0.16777073
有 0.008602695 -0.07943482 -0.39638004 0.21024786 0.04286066 -0.22451422 0.48818842 -0.75069267 0.6099103 0.31670937 0.28239042 -0.16838837 0.1722025 0.35718572 -0.69541883 -0.78457123 -0.29637343 0.2882849 -0.16382807 -0.24767007 0.18222341 0.48010284 -0.15703738 -0.32940426 -0.03517974 -0.13060527 0.18537262 0.47178474 0.45450026 -0.40765712 -0.16268523 0.1717755 0.07210768 0.011281244 -0.2604122 -0.54452276 0.20379432 -0.32838282 -0.7954563 0.0193315 -0.5182682 0.15411723 0.061535 0.17255671 0.4644243 -0.32648215 0.30892703 0.24098715 0.2378885 0.14120266
于 0.102849804 0.5276081 -0.04420908 -0.31006068 -0.50283647 0.26072803 -0.09817896 -0.67797905 -0.104910076 0.3465478 -0.7652064 -0.4380945 0.5016372 0.3741406 0.2779529 -0.23032145 0.4358472 -0.488232 0.26335588 -0.03502466 -0.42485952 -0.002398831 0.6420228 -0.28639108 0.049192835 0.05043619 1.0101708 -0.39271635 0.043273125 -0.51612365 -0.005549418 -0.6746825 0.42587483 -0.020485248 0.023176936 0.1691219 -0.6107381 -0.096231215 0.27789217 -0.030241167 -0.37052464 0.121278405 0.38907775 1.2664373 -0.725906 -0.9408252 0.37669948 0.41084436 -0.5513808 0.61399704
矣 1.5324728 -0.16941196 0.43143678 -0.34942308 -0.3337554 0.2863432 0.057270415 -1.1933389 0.46517158 0.13683167 0.06606052 0.8171617 -1.0332427 -0.50855523 0.71038026 0.12654594 -0.37271616 0.24864548 -0.1448121 0.8175265 -0.6061667 0.63506466 -0.0932422 -0.86263907 0.46159753 0.9293275 -0.029905317 0.58610654 -0.14820418 -0.9723027 -0.11117931 -0.08830522 -0.2506017 -0.18240623 -0.19579452 0.37559283 -0.30901605 -0.009138092 0.24100693 -0.013344035 -0.4271704 0.16760164 0.11331565 0.34108695 -0.7400852 -0.21260199 0.090314 0.9259786 0.28040466 -0.6355911
为 0.3407128 0.66766155 -0.12957746 0.5371841 -0.125968 0.12636763 -0.19273572 0.58674693 0.53076565 0.3224443 0.9523254 0.068400025 -0.22436255 0.040907513 0.18249537 -0.047000512 -0.22511293 -0.3773702 -0.021422906 0.099135265 -0.22696297 0.3270075 0.10086134 -0.007845899 0.04124534 -0.1864768 0.3073793 -0.109720014 0.3360131 -0.10208203 -0.00832419 0.087742835 0.1390586 -0.3857955 -0.0677987 -0.14295757 -0.3128353 0.08924434 -1.0636593 -0.9782883 -0.29830673 -0.37356636 0.44754636 0.856353 -0.112748824 0.7500704 0.019430231 0.98099464 -0.25321403 -0.4383535
君 0.27861714 -0.06188517 0.34320635 0.22408955 -0.15257071 -0.03500288 -0.38228926 -1.1016409 0.0722727 -0.0029844735 -0.111226045 -0.7639229 -0.16368191 -0.050461903 -0.0012644001 -0.6399505 -0.23297021 0.50100404 0.35413536 -0.38300335 -0.7112333 -0.0444592 -0.38946208 0.56805545 -0.2325779 -0.02145333 -0.2482727 0.49132246 0.2529022 -0.52093524 -0.14081061 -0.8563107 -0.047235057 0.7080701 -0.31221724 -0.025144601 -0.34577337 -0.075161435 -0.26572493 -0.5134186 -0.36988375 -0.053414524 -1.7082543 0.42664096 -0.13337493 0.4678038 -0.42534173 0.69055957 -0.62339115 -0.3905702
乎 0.93192834 -0.5964854 0.0005836311 -0.1552505 0.049678996 -0.5661419 -0.19543633 -0.3948832 0.084791176 -0.029248385 -0.5496861 0.85455287 -0.44843188 0.5117466 -0.43436408 0.1616346 1.1457042 0.010801094 0.7876856 0.053917184 -0.6506511 0.25350788 -0.4783997 0.26256213 0.41306403 -0.10230888 -0.0138579225 0.07408012 0.85884595 -0.19595022 0.4359691 0.3678047 0.28189382 -0.32483125 0.08604988 0.44819748 -0.07950325 -0.401221 -0.5253344 0.22401914 -0.13086505 -0.3059439 0.59961355 0.74086696 -0.38272944 -0.28222904 -0.08507894 1.1996855 0.78435594 -0.42745218
可 1.264841 0.24243356 0.11294774 -0.62095433 0.4530347 0.018359829 0.14688043 0.39565742 -0.7587247 0.047707915 0.11790355 -0.4998027 -0.106119074 -0.10038093 0.030454395 -0.9454279 0.28721407 -0.041539375 -0.12329979 -0.19002368 0.18779153 0.31480595 -0.69608265 -0.30929178 0.16381362 -0.47373083 0.023836168 -0.3585454 0.10196951 -0.064233735 -0.21361491 -0.74461937 -0.2757824 0.772897 0.0107815275 -0.021906918 0.39364576 -0.25126782 -0.41400477 -0.44179523 0.5113027 0.0702952 -0.6674309 0.59086096 -1.5283151 0.6750782 -0.3230608 -0.3714827 0.09917664 -0.00039458182
如 0.8524293 0.9525671 -0.10832453 0.22449632 -0.119759746 -0.058011968 0.22677459 -0.3066915 1.181437 1.0972737 0.23137367 0.18665422 0.83868796 0.081368186 0.46128908 -0.0660868 -0.3159632 0.054524872 -0.23213175 0.21876551 0.68127877 -0.10355872 0.40551144 0.6286426 -0.05682326 0.27858707 0.25745648 0.37827995 -0.18783197 -0.002498144 0.06331087 0.04665205 -0.31764466 0.65306103 -0.13240035 0.007699606 0.19949162 -0.2362064 -0.83078843 -0.24331881 -0.16417994 0.084974825 0.0061139055 0.105477355 -0.39471006 -0.38910276 -0.06239427 0.05548771 -0.4045456 -0.36647263
与 0.68164504 -0.42261434 -0.045243755 -0.14900845 -0.6950991 -0.28644416 -0.23470452 0.20187366 -0.6653766 0.36636472 0.16086245 -0.5448091 -0.35219008 0.10469944 -0.78768766 0.39109746 -0.49461356 -0.06024948 0.17207061 -0.5291959 0.72125596 0.011557085 0.5451578 0.05381312 -0.74507034 0.09799924 0.39560813 0.18315999 -0.18298788 0.08619136 0.15279013 0.4696655 0.6528524 0.22403313 -0.60393906 0.6192553 0.29887933 0.16259809 -0.66424614 -0.28398758 -0.29104954 -0.3605368 0.4500444 0.26064396 -0.37375173 0.19872755 0.14850748 0.6686666 -0.39853066 -0.60677713
； 0.68051016 0.23237112 0.83075094 0.18803173 -0.134669 -0.3616951 -0.49622804 -0.73181933 -0.68344253 0.35256803 0.18296696 0.9911203 0.15107691 -0.8769868 -0.36207744 0.5131292 0.27771592 -0.1270902 0.64264697 0.0996255 1.0982556 -0.022101521 0.064140975 -0.2721406 -0.6116172 -0.77352816 -0.10220441 0.7890254 -0.016174914 0.09053936 0.035204206 -0.49635714 -0.124722235 -0.38169557 -0.0039719436 -0.51419294 -0.37234545 0.6172661 -0.33406118 0.25523353 0.39417416 0.8735094 0.113495246 0.83965856 -0.30373648 -0.09757853 -0.14783971 -0.37541142 0.03758813 -0.0065720864
言 0.24024685 -0.3382096 -0.42893538 -0.55486506 -0.5755595 0.33636355 0.38729084 0.04829942 0.24861424 0.0018646545 -0.06686684 -0.56797665 -0.09072659 -0.69835514 0.43077502 -0.041181464 -0.55977446 0.038827684 0.05084885 0.6194425 0.7451952 0.082122006 -0.49528632 -0.5114591 0.09757615 0.30484685 -0.5762122 -0.3851014 -0.77742785 -0.31381258 -0.372506 0.47283995 -0.17436774 -0.079876095 -0.36025333 -0.25536555 0.82725286 0.03545661 -0.34953126 0.011406907 -0.24858728 -0.012220435 -0.20472135 -0.07111001 -1.3270464 0.051963873 -0.8615419 0.760609 0.12385684 0.18559158
无 1.0318314 -0.43093914 -0.6109384 -0.071913175 -0.0916767 0.3625834 0.22832541 0.15601969 -0.26544458 -0.2653928 0.4138754 -0.16584456 0.0041192006 0.063784376 -0.10513179 -0.39584735 0.004596617 0.378586 -0.076545805 0.085277185 -0.21307933 -0.9012728 -1.0306352 -0.3614438 -0.16370831 -0.75721157 0.6048212 0.45355454 0.34348872 0.45408696 0.2751965 0.07874309 0.38635647 0.89715016 0.013583311 -0.20852181 -0.7856153 0.42854255 -0.39603686 0.12476606 0.3340436 -0.36881816 0.15346229 0.28518832 0.26714236 -0.2346735 -0.11262765 0.8685793 0.8827264 0.46212578
则 1.0583884 0.04967356 -0.1824555 -0.37157097 -0.3940715 -0.32213077 -0.18068857 0.9597535 0.6091998 0.38438785 -0.5823125 0.06037987 0.09502894 -0.53110754 0.8948343 0.17012146 -0.0117940055 -0.23565203 -0.1841426 -0.08431509 1.1489316 -0.058356196 -1.0551664 0.16141035 -0.16260187 -0.4160979 0.24364184 -0.4097704 -0.08842477 0.4320816 0.04370041 -0.14113405 -0.025841426 -0.54055226 0.31037354 0.6198321 -0.5881363 0.5190612 -0.74677444 0.5712716 -0.35497338 0.5005503 0.16116682 0.112944335 0.24324822 -0.5711308 0.67901367 0.5147668 -0.20430982 0.6354636
！ -0.17861062 0.038295653 0.26137027 0.28050578 0.36921546 -0.20850506 -0.23628017 -0.33356214 -1.1159414 -0.1504735 0.3393625 -0.4922635 0.4543228 -0.51429117 0.7404933 -0.12732346 -0.30491886 0.13147165 -0.15763438 0.25157312 0.054080836 0.98135126 -0.08858782 -0.10905829 0.22423902 -0.17449789 0.36811545 0.52257305 0.112272516 0.033701442 0.16868693 0.5370106 -0.15009776 -0.6500358 0.09082101 0.16667533 -0.61664736 -0.374221 -0.3311259 0.50258183 0.6379457 -0.64183575 -0.44967562 1.437873 -1.0486995 -0.1286301 -0.6842976 0.187783 0.16431534 -0.22922798
问 -0.33317876 0.39938584 -0.1101362 0.032885324 -0.45866662 0.26326776 0.1679678 0.24623057 -0.26620066 -0.069434464 0.08477008 -0.018682249 0.1926103 0.6556088 0.3190401 -0.46175733 -0.1709854 -0.23223917 -0.19416755 -0.31690052 -0.39568558 0.1976627 0.026471166 -0.04727232 0.17723176 -0.650214 -0.07995036 0.099319234 0.781138 0.0058634873 -0.30038714 0.2455232 0.37323788 -0.36060157 -0.09812883 0.29005274 0.2609681 0.036755253 0.80689937 -0.6709296 -1.0670182 0.17627284 -0.9900809 0.78727496 0.01368156 -0.82741696 -0.12068786 0.9304515 -0.36086556 -0.5285173
知 0.14565107 0.46310672 -0.0474175 -0.23203672 0.2840463 0.708217 -0.25252527 -0.035270486 -0.7716063 0.26635626 0.037107125 -0.52256185 0.13218208 -0.9004155 -0.32363403 -0.7585764 0.16744122 0.013851727 -0.14320876 0.698679 0.16329071 0.36994103 0.67697716 -0.21146889 -0.0075778323 -0.1350174 0.8782867 0.5218608 0.07632114 0.22351986 -0.33221656 0.09665666 -0.050521072 0.5725379 -0.613101 0.38593894 0.4793727 0.023333944 0.23765439 0.08253586 0.090356365 -0.27431118 0.25211185 0.0995735 -0.73986584 -0.10370687 0.32929924 -0.3363922 -0.14925815 -0.43683848
何 0.06654852 -0.5389706 -0.6790452 -0.094160914 -0.03868645 1.2573854 0.8186407 -0.18017755 -0.4748285 1.0509849 0.07228246 -0.005088911 0.16513324 -0.390083 0.1646027 -0.07842482 -0.24010813 0.1783506 0.31288907 -0.17342655 -0.5215117 -0.06679451 0.14725609 -0.022613715 -0.05247813 0.27551448 -0.3381505 0.28112143 0.38055626 -0.5266428 0.114340775 0.41331366 -0.029530972 0.7806594 -0.9915229 0.15211296 0.62964875 -0.03719572 -0.73124033 0.1447755 0.49413475 -0.068225354 0.11978866 0.44594252 -0.3184573 0.90205884 0.40167862 1.1634383 -0.47379 0.052609842
吾 0.86977696 0.29767758 -0.096338764 -1.0916553 -0.38815615 -0.26804206 -0.14016707 0.53779846 -0.091384895 0.06467673 -0.06031821 0.43188044 -0.040099937 -0.37388673 0.07041054 0.23239344 0.10211736 0.17827383 -1.0001118 -0.1445227 0.21090433 0.31896862 -1.0389769 -0.01511594 -0.018958054 -0.43788016 0.8650894 0.039153785 0.55643576 0.016332556 0.45933464 -0.7037652 -0.011746696 0.75881386 -0.39932927 -0.07045405 0.40898952 -0.897609 -0.3642207 0.33795395 0.07698953 -0.02094088 -0.12189539 0.18745473 0.27963132 0.049569808 0.008974882 -0.15525578 0.056868996 -1.0218687
仁 0.32476774 0.79604053 -0.10514296 -1.289225 -0.08443053 0.9116272 0.54346377 -0.6893554 0.004724385 -0.42166233 -0.32120663 -0.5975225 -0.3555231 0.15802765 -0.66216916 -0.24356651 0.52071375 0.033310864 0.11526416 -0.04340646 0.40613398 0.11069917 0.1898584 0.7946064 -0.025496138 -0.0575127 -0.012779934 0.074960954 0.50827384 0.40761513 0.4511521 0.43363786 0.17105629 0.3982344 0.2243014 -0.1038006 0.7278476 -0.13972521 0.21289475 0.26320237 0.1313498 -0.22514616 -0.08792879 -0.20103967 -1.3424729 0.0646998 -0.32791886 0.3325554 0.19072357 -0.30810136
夫 0.58753145 0.1792527 0.2496483 0.3017789 -0.15793426 0.07412131 -0.089811005 -0.5709121 0.22233059 -0.13067284 0.053713854 -0.18881866 -0.6714438 0.13692065 -0.19828887 -0.35739514 0.4172293 -0.41074648 0.11678375 -0.20125096 -0.32159746 -0.90579903 -0.031592887 -0.107196026 -0.03858527 0.75573117 0.06494217 -0.30638492 0.62765825 -0.12984294 -0.0076548588 0.36580908 -0.102857485 -0.45836973 -0.3127413 0.6113498 -0.35689902 -0.988263 -0.830825 0.44568843 0.35458016 0.31502852 -1.2043066 0.22626533 -0.03447453 -0.96389985 -0.7382408 -0.4530057 -0.6339424 -0.6057609
、 0.6064449 -0.30109355 -0.3841345 0.8629598 -1.1918275 -1.0177265 -0.29675496 -0.4484671 -0.059898093 -0.18874921 -0.4517752 -0.3404858 0.10143583 0.5454219 0.33699858 -0.07615475 -0.1629181 -0.041038364 -0.67361057 0.04625513 0.6902117 -0.43954158 0.04398825 -0.09054501 0.8256058 -0.088627666 -0.7492472 0.3637749 0.2920131 0.3314077 -0.2961508 0.7478027 0.9229262 -0.052848246 -0.15295179 -0.27176273 -0.95802397 -0.72381175 0.32804227 -0.2916826 0.8046585 0.40808004 0.19433577 1.9587233 -0.07873655 0.15779229 0.79805505 0.06049385 0.49276763 0.85045594
道 0.82509375 -0.039450884 -0.052134853 0.51367366 -0.43963754 0.8651323 -0.22811846 0.7527287 -0.0281474 0.2541919 -0.12885524 -0.56837577 0.54870564 -0.06451477 -0.21649174 0.50780994 -0.37340954 -0.14308223 -0.21228053 0.25435326 0.222039 -0.23767516 -0.2921744 0.4991415 0.036769543 -0.8519758 -0.2998353 -0.10340326 0.60066193 -0.4490772 0.8466675 -0.13685542 -0.74097496 -0.28170627 0.016416632 -0.45953354 1.3047726 0.04242469 -0.15206951 0.36731103 0.3035911 0.009469427 -0.28363192 0.42855263 -1.1063583 -0.12747055 0.11784053 -0.46873716 -0.8780294 -0.7838719
焉 1.2817897 -0.35717908 0.44772202 -0.23687713 0.11445621 0.20070805 0.39097974 -0.6128843 0.4228714 -0.8068301 1.0072209 0.056534488 -0.4659112 0.17353195 0.39607552 -0.22978474 0.43286344 -0.2966653 0.74168307 0.059642218 0.31790113 -0.31592885 0.31310788 -0.10345905 -0.7333587 -0.2815326 -0.28706318 -0.014478127 1.0689629 -0.019094048 0.33623677 0.10536399 -0.5656704 -0.24657112 -0.21832617 0.013217096 0.18855578 -1.1653229 0.17478448 0.3207101 -0.7910536 -0.8866375 0.015099329 -0.23821329 -0.2338361 -0.9805524 -0.07048264 0.5419772 -0.6967487 0.11603188
行 0.39182243 0.9408075 0.076293826 0.6827131 -0.036150284 1.0290399 -0.6680112 0.09586288 -0.14544263 -0.047110334 0.5242188 -0.6077741 -0.18612486 -0.09427373 -0.23990598 0.21569462 -0.14382489 -0.38337708 0.93311787 0.27125204 0.1306468 0.5459092 -0.7798437 0.0428298 0.6382894 0.03530688 0.12662439 0.22633922 0.25853917 0.19734108 -0.23518988 0.23099913 -0.04498687 0.7849023 0.45146823 -0.7731692 -0.3274982 -0.06544506 -0.4930119 -0.10577051 -0.3587819 0.45619062 -0.15971242 0.09823205 -0.32954118 0.08897639 -0.07954318 0.099236034 0.009289487 -0.69660705
谓 0.19545391 0.25831825 0.1479988 0.04099717 -0.24964423 0.4088538 -0.42297947 0.31830624 -0.21108367 0.6167929 0.59519076 -0.41278225 -1.6166197 -0.37388867 0.6197841 -0.46211272 -0.38367105 0.19008367 -0.3095324 -0.3843842 0.4674722 -0.6212738 0.097536474 -1.1037027 -0.38412544 0.94407356 0.68311715 0.70316017 -0.061407335 0.24059597 -0.17302981 -0.17736277 0.43382907 -0.35584655 0.24884696 -0.7439489 -0.66680706 -0.63021237 -0.8589194 -1.3269942 0.35159308 -0.6191913 -0.079364374 0.32595596 -0.5848285 -0.17948586 0.34811497 0.07138966 -0.64473695 -0.79047054
必 0.41660133 -0.89705116 -0.664493 0.765489 0.19277656 0.25290602 -0.120951 -0.04997044 0.6506322 1.2970134 0.21451482 0.8678107 -0.1790916 0.0025484452 0.67563266 -0.3846017 0.26607567 0.37066486 0.085451856 -0.43271858 1.0677 0.43525332 -0.1523079 -0.37646368 0.466168 -0.8354554 -0.21943374 0.12413882 0.22491357 -0.758298 -0.58575267 0.11050206 0.60754055 0.26799986 -0.055353988 0.41337383 -0.101063535 -0.13320975 0.38457325 0.38197115 0.119995296 0.25623485 -0.45491052 -0.07199248 -1.004406 -0.038261846 0.35518342 0.31059054 0.0014166725 -0.3678924
礼 0.7401681 1.4152678 -0.65629476 0.43625027 -0.43174294 0.54818237 -0.17751426 0.8008054 0.4962586 0.03818151 -0.302109 -0.3622868 -0.2188857 -0.048577115 0.38541487 1.0335588 0.6108113 -0.18984982 -0.44914407 0.6453501 0.23102087 -0.07056572 -0.0375653 1.2191877 0.118491285 -0.12396031 0.20040394 0.863107 0.4719657 -0.056552444 0.16787058 0.32340947 -0.07863124 0.003421762 -0.9359835 0.3522603 -0.54654276 -0.9851138 -0.18323067 -0.1378873 -0.098082304 0.29168844 0.065672986 0.36844683 -0.38515115 0.8302379 -0.49339655 1.1086549 0.27782947 -0.105852015
孔 0.607401 -0.41834936 -0.48355007 -0.07218825 -1.2694587 0.030731363 -1.2325113 -0.8185544 -0.32242227 0.265808 -0.3147345 -0.46766952 -0.49731606 -0.8608577 -0.1469204 -0.21045801 0.8341103 0.9453931 -0.4701452 -0.33443996 -0.03791476 0.11969664 0.07197465 -0.10497911 -0.03470031 0.9004153 -0.33450973 -0.37775162 0.83554494 0.13640536 0.050144352 -0.0875661 0.1126448 0.77848697 -0.0058629382 1.0103455 0.03899025 -0.34916645 -0.21827398 -0.56382626 -0.82687116 -0.87965614 -1.6169615 0.35318133 -0.4652812 0.3211501 -0.10764516 0.4915051 -0.45195702 0.7415288
斯 0.59489954 0.6149568 -0.22197779 -0.34093165 -0.23038107 -0.3034996 0.3596108 -0.39273956 -0.6506045 0.059774164 -0.6779397 -0.22080907 -0.85923165 -0.07472528 -0.34610754 0.15298674 0.51163435 1.3657235 -0.18592368 0.42396054 0.43209124 0.13193561 0.124859095 0.054471906 -0.13427019 -0.10470776 -0.08481885 0.35453603 0.09868429 -0.68067056 -0.13613464 0.36591586 0.050685264 0.6392108 -0.2021755 0.5106436 0.11805144 0.70271075 0.06380643 0.2674594 0.13824123 0.74699146 -0.21545498 -0.3050481 0.50933903 -1.3778434 -0.7210632 0.912682 -0.92975026 -0.8568322
三 1.1796579 0.6530898 1.1599401 0.10019013 -0.7516469 0.55292696 1.0889573 -0.6700486 -0.11175043 -0.17405523 -0.92433417 0.28481826 0.1411131 -0.55825174 0.33635965 -0.3216376 -0.08445128 -0.17515795 -0.560991 -0.43504134 -0.49723053 -0.30654308 -0.9390952 -0.48207802 -0.44088066 0.09041496 -0.17492239 -0.21645357 0.98574615 -0.9612258 -0.5766008 -0.27577677 0.09106926 0.25540397 0.16529243 0.7340404 -0.9893805 -0.4561397 0.5134825 0.57988995 0.3162005 -0.83715194 -0.2609384 0.5238836 -0.9268914 0.5111284 -0.02942234 -0.33433717 0.055961326 -0.19534889
能 0.47993353 0.67947865 -0.37786567 -0.56789994 0.8555206 0.5404476 -0.99138606 -0.70388496 0.19061556 0.9875253 0.50738883 0.33610588 -0.3336402 0.28712887 -0.44177914 0.12192078 0.649572 0.8392702 -0.28820747 -0.16546197 0.41008052 -0.11730527 -0.11858663 -0.19363329 -0.07170661 -0.18708222 0.10865929 -0.6153157 0.23757572 0.0613417 -0.35901743 -0.06801845 -0.45072794 0.24231991 -0.115217775 -0.39308286 0.30457628 0.47694165 0.8592142 0.42554545 0.20952462 -0.26719955 -0.44549036 0.40307546 -0.6043502 0.18050711 0.03361562 0.43542612 -0.113868095 -0.03480428
见 0.14032942 0.40735093 0.21196853 -0.5957392 0.74959505 0.909871 -0.2347587 -1.097685 -0.29370865 -0.09231016 -0.20978318 -0.09003554 0.35006174 0.53181034 -0.2581197 -0.5223618 -0.4970421 -0.39965692 -0.4935378 0.38770518 -0.08371033 0.23883608 0.16304831 0.8004431 -0.119121216 -0.59834397 0.8096561 -0.8141312 0.49735975 0.39913878 0.9213652 0.38089782 0.5646189 0.041883934 -0.015339921 -0.35579497 0.5781449 -0.3622865 -0.46094492 -0.36127344 -0.82816833 0.046079412 -0.2933275 0.17798835 0.00087313994 -0.042542007 -0.5427557 0.98319465 -1.1504921 0.8975874
学 0.50638175 0.5704536 -0.26245546 0.5401504 -0.090925455 0.37527567 -0.7334374 -1.2712195 0.27024528 0.65943825 0.40076405 0.5211041 -0.2528024 -0.18423331 -0.5990651 0.12387032 0.45643678 0.15438864 -1.0521607 0.021894868 0.13563947 0.2271937 -0.28579012 0.31775576 -0.25447395 -0.7620416 0.111360766 -0.40754914 -0.07897602 0.81777704 -0.9312037 1.5120566 0.2916078 1.1008005 0.22324131 0.47561172 -0.7195312 -0.5633394 -0.6348938 -0.56595623 0.35912135 0.007803694 -0.34886083 0.2479664 -0.09733952 -0.042205065 -1.0137302 -0.14297718 0.10661428 -0.31406865
事 -0.2685695 0.8409854 0.29695827 -0.43855223 -0.26954886 -0.0751295 -0.14038445 -1.0122615 0.04989881 -0.909385 -0.20677733 -0.11859854 -0.20495497 0.17729944 0.25422856 0.2121304 -0.41706675 -0.4235102 -0.10562785 -0.11356239 0.02775917 -0.5741523 0.07235905 0.902336 -0.82093096 -0.8728235 -0.098431125 -0.4276177 -0.1812357 -0.25516662 -0.36974382 0.3257728 0.019775286 -0.44231343 -0.879909 -0.061677355 -0.23578306 -0.6537212 -0.18295968 -0.39417484 -0.104074895 0.5379424 0.21053168 0.4172923 -0.8758069 0.472081 1.0840526 1.4315126 -0.0068540345 -0.7723572
是 0.49173343 -0.88092124 -0.95484966 0.045829944 0.27090204 1.0224468 -0.36824864 -0.017060013 0.1764419 0.7147805 1.0839282 -0.12787639 0.4760872 -0.59541494 -0.92208195 -0.22011247 0.46477503 1.0774335 0.26032937 -0.36518922 -0.69012064 0.6945245 0.13816606 0.60731584 -0.25753078 -0.37149006 0.3202085 -0.19128546 0.13927625 -0.53599185 0.060454603 -0.68758184 0.23879597 -0.698503 0.79854757 0.52159345 -0.39737174 -0.71252865 0.16324437 0.25299668 -0.022097027 0.23562704 -0.27972034 0.17990094 -1.0382025 -0.17633046 -0.34927294 1.3938129 -0.68607825 0.6479467
哉 0.5721596 0.10675001 -0.34605768 0.14571877 0.08828673 -0.120306686 0.79165673 0.9935332 -0.6065985 0.4944261 -0.19720115 0.5266465 -0.7864046 -0.082078554 -0.32484767 -0.44246694 -0.7132755 -0.039319564 1.6565921 1.0789704 -0.041628025 -0.33047396 0.22770412 -0.34673393 -0.6089625 0.47227037 0.7846813 0.62520915 1.127323 0.84090203 -0.0650937 0.37711945 0.27157843 0.13676324 -0.24388856 1.546007 -0.09008307 -0.9483291 -0.83021295 -0.32144633 0.38235343 -0.813603 -0.6019123 0.82057005 -0.8850906 0.16208093 0.7097608 0.29700777 -0.044884197 0.83565867
闻 -0.2575818 0.31727308 -1.1191595 -0.33544716 -0.43050304 0.758077 -0.56254196 -0.6993011 -0.13023916 0.42346296 0.1506388 -0.56307846 0.17259572 0.32731077 -0.20772046 1.2827121 -0.7646866 -0.8069614 -0.22022644 0.7279209 -0.329209 -0.75526994 -0.40436897 0.22944438 -0.13902596 0.20750694 1.1295396 0.07518439 -0.44054803 -0.18615118 0.2260362 -0.28112403 -0.05051493 -0.11200175 -0.33588198 -0.25510895 0.15580522 -0.9933858 0.61709756 -0.29720983 0.19559455 0.13940808 -0.11653944 0.7253832 -0.8393254 -0.47998294 -0.5727564 0.5829716 -0.09354156 -0.080816746
未 1.2379941 0.015088648 0.6828078 -0.8740349 -1.3516699 0.51095194 -0.67826384 0.27765694 0.4748014 0.8348107 0.75355524 -0.79150265 -0.8494329 0.05685137 0.2760073 -0.0052837674 -0.785895 0.25310716 0.29481936 0.2446784 0.5536294 -0.24472466 -0.2799777 -0.029410211 -0.36091766 -0.64574575 -0.10941108 -0.206641 -0.84174687 0.26814556 0.27143425 -0.33241352 -0.20018479 -0.2838873 0.48690173 0.85438025 0.22936472 0.0144901415 0.5917991 0.49132118 0.6346403 0.33499065 -0.477959 0.3254695 0.24118511 -0.7621397 0.30549914 0.30083713 -0.3186712 0.21728261
公 0.1887724 -0.27443188 -1.1026535 0.43724373 -1.1749619 -0.4821734 0.7218061 -0.12986803 -0.42217717 0.98065835 -1.1091169 -0.31262428 -0.8048173 -0.524934 0.16425541 0.4479537 -0.06418253 -0.6285844 -0.48231697 0.43557206 0.47987035 0.49638528 -0.27054864 0.55684215 0.225944 0.2762495 -0.35666236 0.21946442 1.2139504 0.48562908 0.51471806 -0.7681763 -0.20020542 0.013276402 -0.668533 -0.4282555 -0.014489458 0.5164339 0.26767367 -0.12722857 -0.43531165 0.5200367 -0.8284239 -0.10149012 0.26751697 0.37872773 -0.026742455 0.5304243 0.13387042 -0.026912898
好 2.2429838 -0.13339916 0.41404065 -0.0218595 -0.48613366 0.4081644 0.19238533 -0.2991181 0.21698816 -0.51376647 0.36661372 -0.82701033 0.6721929 0.22447929 0.098893456 0.09938012 -0.31733832 1.8253233 0.086639784 0.09133463 0.7151005 -0.37259614 0.413865 0.6504831 0.72992027 -0.71480334 0.9617516 0.34480658 0.1795652 0.467257 -0.30088967 -0.15881324 -0.6737395 -0.27540404 0.3609535 -0.4042831 1.2734464 0.20868522 -0.17012626 -0.5384425 -0.25178644 0.047784835 0.4379813 0.23635407 0.29770583 0.25255686 0.45373753 -0.087340645 -0.4986295 -0.46173266
我 0.9252021 0.26473945 -0.70739156 -0.88016355 -0.39502805 -0.6549559 0.121136256 -0.38028336 -0.029160153 -0.417692 -0.13358703 -0.015236308 -0.07966617 -0.5193542 0.4264843 0.76384467 -0.12710002 0.58232313 -0.8842523 0.4561539 0.16681954 0.6012894 -0.07136225 1.0244516 -1.0711694 -0.058242485 -0.40915835 -0.30442417 0.9826852 -0.05457222 -0.17341673 -0.57209677 -0.035473697 -0.77730286 -0.50856787 0.9890461 0.5284614 -0.60677946 -0.46974388 0.4639811 0.034466915 0.15845035 -0.6266856 0.28361598 -0.26406053 0.5783979 -0.5823294 1.1482397 0.1780105 0.6778516
路 -0.34924394 0.18931736 0.082327895 0.35937163 -0.13271613 -0.10086912 -0.4201443 -1.4740633 -0.88829637 0.50944096 -0.074277245 0.18383244 -0.81923836 1.3085485 -0.057419166 -0.45694485 -0.11819075 0.37330946 -0.99319255 0.34137705 0.3165693 0.15342295 -0.5935703 -0.37906572 0.13346659 -0.020566523 -0.29580998 -0.666661 0.59675926 -0.12471291 0.07214302 -0.21569848 -0.69960076 0.50673074 -0.2354896 -0.4992884 0.11214391 -0.5114522 -0.56009114 0.60951424 -0.6917981 -0.79497296 -1.3408936 0.94179326 -0.34446198 -0.28405598 0.65659964 -0.1857653 -0.3691819 0.54555285
在 0.6668749 -0.47503582 0.6521164 0.038780358 0.1647054 -0.35225213 0.1038729 -0.18691583 0.6902019 -0.06229771 -0.88033205 -0.6581101 0.72225827 -0.39223924 0.13553028 0.47825336 -1.061898 0.11879271 1.0909052 -0.21046954 0.2660787 -0.08359033 -0.4531001 -0.7163143 -0.13804977 -0.39306778 1.293723 0.60687023 0.64365244 -0.054204702 -0.21168299 -0.24957265 -1.4038336 0.47305718 -0.54309416 -1.0312885 0.78101563 -0.8818176 0.845209 -0.65320444 -0.47464353 -0.19626947 -0.14782864 0.49561116 -0.58937573 -0.72782934 0.48990443 -0.0766526 -0.8109246 -1.1569445
已 0.836935 -0.13156906 0.29976338 0.15944852 -0.46287265 1.016843 -0.06124547 -0.48017204 -0.8488764 -0.011124906 0.35509104 -0.618853 -1.1897725 -0.48031703 -0.05794028 0.13565654 0.03923497 0.6624807 0.39324144 1.231216 -0.31769958 -0.13380364 -0.50667936 0.44829935 0.18203297 -0.22917368 0.34427723 1.4613078 -0.24357744 0.94808376 -0.3395297 0.31569064 -0.16155617 -0.2365825 -0.10678971 -0.4278755 -0.89152557 -0.04415078 -0.32609832 -0.5533844 -0.09743634 0.008749763 0.14447461 0.08061602 -0.899603 -0.7757209 -0.21372427 -0.07194142 0.18427004 -0.48371196
得 0.37439752 -0.4679093 0.60817254 0.7345051 0.22150846 -0.13099638 -0.40664202 -0.21703404 0.5126579 -0.22328117 -0.49802062 -0.95016557 0.532856 -0.37631887 -0.06175985 0.49895686 -0.25444442 0.8191398 -0.60127413 -0.18237038 0.59845483 1.43033 -0.59951216 -0.0038960502 0.85119814 -1.1630571 0.54102653 -0.21208487 -0.52594274 -0.13437738 -0.06490493 0.72742444 -0.4068482 0.18919791 0.49900818 0.23166336 -0.030551888 -0.19037658 0.4147277 -0.40139082 0.38577798 0.2911258 -0.025142424 0.22100335 -0.87561727 -0.886635 -0.22280636 0.55626816 -1.4735018 -0.8083855
所 0.651458 -0.25859043 0.501452 -0.18836446 0.4543987 -0.09885709 -1.3604218 -0.6407645 0.2371781 0.049649496 -0.21763606 0.018076537 0.50730276 -0.10168809 0.18155141 -0.77460974 -0.2738426 -0.24386121 -0.63620013 0.1959965 0.5633565 0.63080555 0.5256215 -1.0628351 -0.1986785 0.3547721 -0.009315939 -0.18412235 1.0011979 0.20888126 1.4293342 -0.19014263 0.28739825 -0.18103015 0.17682382 -0.99335307 0.9027167 0.03525901 -0.45022362 -0.012762938 -0.045502473 -0.50798136 1.3999474 0.35964024 -0.46854708 0.021954153 -0.6178452 0.56705445 -1.2135905 0.027995653
民 1.5392102 0.28908935 -0.2666663 0.86947405 -1.3667753 0.5842771 -0.25348395 -0.27407125 -0.18047108 -0.021621652 -0.13416596 -1.0305966 0.47800177 0.26905876 -0.42719272 -0.29669634 0.35822245 0.947385 -0.6435105 0.340514 0.17793326 0.35518715 0.22294368 0.25904322 0.29706058 -1.0614774 -0.08227748 -0.7727278 -0.35081127 -0.22504196 -0.27654216 -0.7623729 0.48957792 -0.3712904 -0.7054903 0.17445473 0.526266 -0.7831296 -0.7039613 -0.20469062 1.685254 0.45975298 0.63976717 0.42618364 -0.06224468 -0.06886762 0.70151746 -0.08829231 -0.8294573 -0.9049892
小 0.90647715 0.16262652 -0.90812004 -0.4319456 -0.27976298 0.4071206 -0.111095086 -0.22123438 0.19624951 -0.52121025 0.996354 -0.7261869 -0.47127885 -1.1922877 0.059296798 -0.15112375 0.00062962435 0.32923838 0.6022881 -0.14498684 0.32303396 0.21156731 0.07379564 -0.7657499 0.15173003 -0.30783546 0.47632873 -0.33967862 0.3426469 -0.51959854 -0.6429656 0.5780381 0.2797748 0.38235787 0.337253 -0.025536675 0.48772877 -0.32699928 -0.3922706 0.8197952 -1.0647948 0.34712937 -0.5586744 -0.0062809074 0.5819772 -0.6184444 -1.2686133 0.39287594 -0.9147916 1.0778179
天 0.27095282 0.76758575 0.70837706 0.85002255 -1.0328895 0.56710714 -0.28016722 -0.24228211 0.90097225 -0.14080799 -0.41508818 1.1767322 -0.17936622 -0.20290919 -0.74285585 0.17891221 -0.76135045 0.7689939 0.18707569 -0.9099333 -0.19660185 -0.3729257 -0.5111691 -0.37665161 -0.36160728 -0.22125876 -0.33669007 0.2537355 0.5201188 -0.9262753 0.04442057 0.2296412 0.27327558 -0.13857776 -0.1194916 0.6291147 0.2694716 -0.11713039 0.085513 -0.32958096 0.40931463 -0.33265173 -0.103167064 0.03635986 -0.4180003 -0.23969573 0.56572574 1.7337813 0.8743584 0.33224836
乐 0.99021333 0.501975 -0.13283765 -0.121548235 0.67285603 -0.06371328 0.53253543 0.35618493 0.07757678 0.54437196 -0.84101 -1.4055259 -1.1480957 -0.088937975 1.0934176 -0.39186615 0.83275974 0.34898543 -0.20128085 -0.09673128 -0.6152117 0.71832407 -0.57663596 -0.32064882 -0.061426755 -0.3395521 0.1433518 0.11466313 0.15071397 0.24450096 1.178927 0.29759192 0.06510738 -0.037773915 -0.3409053 0.07184186 1.2360325 -0.047769245 -0.008202417 -0.26093975 1.0376115 -0.2868084 -0.29508272 -0.20672242 -0.25531796 0.17659995 -0.26619145 2.0472264 0.50223804 0.06275926
邦 0.5312108 0.6596655 -0.7410928 -0.40152547 -0.26523885 -0.1884273 -0.78878075 0.4561771 0.8274686 -0.3081243 -0.18835343 0.20595379 -0.005003633 1.2352968 -0.19455077 -0.07539864 -0.14354745 -0.009234216 0.26473847 -0.62335575 0.385456 -0.06371162 -0.52289766 0.13902782 0.55661887 -0.6343165 0.15768343 1.0073004 -0.841068 0.1702578 -0.11733207 -0.8727942 -0.22045028 -0.0325433 -0.67055285 0.35963714 -0.23501256 -0.56093085 -0.2533314 0.24083914 0.27884635 1.0667776 -1.8334737 0.4027261 -0.46139398 0.16175488 -0.1897998 0.6033341 -0.7838173 -0.9699692
亦 0.6485725 -0.27027568 -0.35888493 -0.25152913 -0.3901032 0.9517176 -1.2721493 0.30216545 0.54371494 -0.009598283 -0.72035813 -0.6000709 -0.55395555 1.6555835 0.83637315 -0.40964353 -0.8109416 -1.0103399 -0.07701464 0.48988843 1.472916 -0.09353439 0.14380336 0.8140982 -0.6567413 -0.17801757 -0.500932 0.4296671 0.07301503 3.842311e-05 0.22938299 0.97996885 0.45578158 0.9107101 -0.42717698 0.16240586 -1.061789 1.05941 -0.9063382 0.58431715 0.6845738 -1.0168512 -0.31073028 0.7687381 -0.3947238 -0.34548646 0.28973156 0.19458476 -0.60344386 -0.19079567
使 0.65587556 0.7570015 0.049413096 -0.57632285 -0.69077545 -0.42853492 -1.1153797 0.56210417 0.12272239 -0.3911805 0.57323974 -0.5429169 -0.20976858 0.15789993 -0.46704367 -0.433421 0.1452834 0.13264036 0.1420873 -0.51677537 0.1032991 -0.6696685 -0.39953408 -0.44162592 0.11826407 -0.6893779 -0.50222707 -0.106229305 -0.8402995 -0.13810326 -0.09658688 0.5578496 -0.28877667 -0.42252243 -0.7622764 0.55972046 -0.15659083 -0.22907835 -0.16491094 0.3075984 -0.56066024 -0.2480036 0.11387585 0.2680512 -0.47362474 0.46756467 -0.22891822 1.0779227 -0.29784182 0.24204016
大 0.4346949 -0.56106585 -0.56708837 -0.4708024 -1.1330953 0.105392024 -0.15539636 0.007162813 0.19795437 -0.2058208 -0.7945888 -0.41620532 0.6584464 0.07494797 -1.070864 0.3117236 -0.1521158 1.1778909 -0.95177174 -0.54530334 -0.73631924 -0.21718058 -0.09910262 0.1070312 0.030177554 -0.009234806 0.23155089 0.7754776 -0.18323262 -1.1132035 0.8484997 -0.18446822 -0.031219684 0.17247607 0.670095 0.55104965 -0.5095361 0.38100222 -0.32798916 -0.1988718 -0.21661596 -0.23186317 0.028679863 0.7152476 -0.5642591 0.8997978 0.63839364 1.3120748 -0.7043481 -0.18006496
下 0.8487206 0.44658235 -0.40680748 0.37526178 -0.30553964 0.93690115 -1.183606 -0.09300042 -0.101514824 0.42675546 -0.45814058 0.045544803 0.14817302 -0.66061074 -0.5473112 -0.38262117 -1.2940485 1.2984921 0.8020097 0.0635536 0.33282095 -1.131126 0.25888428 0.9841022 0.92191434 -0.082751825 0.120537296 0.17123504 1.0894231 0.6303583 0.814663 -0.04526682 -0.63057804 0.57043093 -0.35840526 0.107746445 -0.494535 -0.9189036 0.33601803 -0.82271034 0.25951663 -0.36188224 0.9928776 0.10635973 -0.7206318 -0.8889365 0.13920146 -0.13499597 -0.10840018 0.8727616
贡 -0.028534012 -0.9754984 -0.77411526 -0.33706763 -1.1211929 0.3505045 -0.050683916 -1.1693771 -0.24280106 0.20088294 -0.73115236 -0.36488155 -0.56031215 0.18032758 -0.9467356 -0.365376 0.12653625 -0.5580534 0.4744847 0.13987146 1.0594267 -0.06506644 -0.29862413 -0.28546235 0.06720467 -0.05566601 0.5731449 0.2416745 2.21507 0.32101864 0.27644864 0.7082971 0.07077585 0.062465318 0.091760516 0.70424205 0.06313421 0.36207366 0.14880103 -0.8710116 -0.536102 -1.0352681 -2.044056 1.0072627 -0.3022366 -0.18539162 1.0667522 0.73240656 -0.46128848 0.53196555
欲 0.0204546 0.36695558 0.23595992 0.38527766 -0.14294821 -0.06147162 -1.3120717 -0.5732278 0.46579075 0.3475549 -0.37600997 0.84601754 0.6861183 -0.32640573 -0.11846945 -0.3494492 -1.3181354 0.27666658 0.16290516 -0.5160425 0.13754226 0.05421737 -0.015605753 -0.7119791 -0.4876688 -0.6703373 -0.25332305 -0.40180284 -0.4886836 0.4685558 0.3033828 -0.25730047 0.36617813 -0.045990836 -0.39300835 0.77450323 0.43857622 -0.22466671 0.78793955 -0.6053098 -1.1763424 -0.8256954 -0.55066746 0.919213 0.24185547 -0.32625303 0.26001388 -0.0041306843 -0.16042534 -0.15226744
诸 0.8328254 0.6320616 0.76577604 0.124527305 -0.8454929 -0.7480251 1.1484512 -0.09860931 -0.93898374 0.6087694 -0.64938974 -0.36870876 0.4453189 -0.20817778 -0.17052417 -0.42819726 -0.16688052 -1.2594322 0.4143968 -0.17841639 -0.18361726 0.8084375 0.13602974 0.07584164 -0.15371208 -0.93355876 -0.47898155 1.6248128 0.78429526 -0.42883736 -0.17572755 -0.21208376 -0.078439936 0.098883316 -0.13635026 0.042768862 0.049462173 -0.041165363 -1.2354586 2.2551575 0.16006733 -0.3908715 0.06461354 1.2628437 0.31072462 -1.0721062 -0.08602891 1.0137657 0.81209385 -0.9667275
从 0.16579263 0.6131282 -0.44382882 -0.08969533 -0.6742744 1.2691333 0.29354566 0.08190028 0.16732468 -0.29281262 -0.21919452 -0.013484989 -0.9171642 -0.22920501 0.46871102 -0.05846684 0.30229452 0.27201882 -1.0434129 0.2926923 0.42023373 0.75372833 -0.7681446 -0.37075767 -0.17628232 -0.7616806 -0.46783125 -1.2562289 0.7154166 1.134741 -0.18924011 0.2577766 -0.28294465 -0.5511597 -0.054686975 0.6523418 0.4074005 -0.17566386 0.4515899 -0.5382641 0.031274136 0.25967515 0.6296798 0.023920337 0.08458967 -0.19341871 0.64811474 1.3074622 0.2960864 -0.67403734
文 0.2417225 0.92967963 -0.5144385 0.20886528 -0.32045704 1.3616176 -0.87351143 0.09444309 -0.00049120793 0.20308352 -0.35355502 -1.0121706 -0.369863 -0.57075393 -0.29825383 -0.67978215 0.41959742 0.2655419 -1.0761523 -0.23599133 -0.8313072 0.50243706 -0.34226167 -0.32543635 -0.31140566 -0.74481714 -0.02533099 0.16068703 0.53432137 0.11075601 -0.060047686 -0.5796922 -1.149296 -0.8407028 0.897546 -0.18733017 0.20081763 -1.6252174 -0.99278766 -1.1584097 0.91293174 -0.045603234 -0.1175472 0.7193733 -0.048199933 0.28959242 0.039440308 -0.2549792 -0.67826164 0.80909467
政 -0.11285795 0.91213876 -0.39783517 -0.77718914 0.1514833 0.35906348 -0.33403853 -0.41127336 -0.63931775 0.15008453 -0.37912595 0.30739394 -0.5613437 -0.32926515 0.5274817 0.06259271 -0.24161738 0.43029535 0.2999887 -0.18956402 0.23402749 0.21607603 -0.77373034 2.1719286 1.3771036 -0.72463036 -0.4345259 -0.028253328 0.33219078 -0.3973647 0.56831795 -0.104851596 -0.2666478 -0.25155208 -0.4729968 0.48574314 -0.23590326 -1.4780346 -0.7279162 0.20457031 -0.618251 -0.08823551 -0.2776382 -0.028091067 -1.0149049 0.65115744 0.9483809 0.9517892 -0.5631072 -0.15348959
食 0.592776 -0.22695927 0.011975304 0.26830918 -0.31224814 1.0246022 -1.0026854 -1.2153594 0.0446711 -0.08644624 -1.3190657 0.07595007 0.027642636 -0.40455544 -0.035807062 0.5539323 0.8451655 0.5415845 0.12443188 -0.009537219 -0.18127663 0.7477496 -0.38246256 -1.1319137 -0.54356086 0.20522533 0.059496947 -0.9256396 -0.71558976 -0.2830293 -0.116514005 0.384255 -0.7611952 0.71046656 -1.3112242 -0.70837206 -0.034017242 -0.34531194 -0.33538583 -0.21994083 0.46132812 -0.42338175 -1.4559253 0.23425382 -0.56020164 0.189333 -0.9505671 0.13313803 -0.53814024 -0.4184211
善 0.46186465 0.250126 -0.0553528 -1.2902236 0.06987332 0.019572299 1.0451174 -0.6710294 -0.1680652 -0.41983297 0.69966096 0.9508247 -0.16514239 -1.8780348 0.018506855 -0.16968302 -0.11327001 -0.35848525 -1.1307969 0.81644124 0.48045555 0.81966966 -0.3143013 0.9745972 -0.48011747 -0.4381702 -0.28191525 0.56783396 -0.14315103 -0.044624694 0.42478827 0.051707797 0.3526883 0.40663275 -1.0968333 0.27047187 -0.25034648 -0.58968467 -0.37794882 -0.7740856 0.5530196 0.067683056 0.52320635 -0.08361935 0.0031219232 -0.72465676 -0.1504976 0.41520146 -0.29389694 0.43595243
后 1.0006866 0.5781815 0.7196722 0.47068578 -0.26956543 0.3379656 -0.11976753 -0.5283232 -0.110518634 -0.53895926 0.7592927 -0.46487743 -0.37769818 -0.79829854 0.3161951 -0.8187035 0.3728686 0.16460592 0.07965413 -0.07087781 0.6285732 -0.47643393 0.0023669936 0.13631657 -0.032349706 -0.6552042 -0.9491247 0.5813209 -0.4352664 -0.012885358 -0.18300675 -0.89636415 0.6239962 -0.49245587 -0.117656335 -0.3477441 -0.47647974 1.0819454 0.82580984 -0.57388645 -1.7340654 2.0152907 0.1989821 -0.16718282 -1.9995841 -0.20397446 0.29039386 1.1001478 0.46687058 0.25451678
德 0.46566936 1.9644755 -0.38677996 0.8203762 -0.55381024 -0.6910632 0.4810917 0.23106754 0.01493502 0.9217312 -0.42758983 0.1594475 0.51829314 -1.2043929 1.0156056 0.0030600673 -0.048219346 0.5126682 -0.8277638 -0.13772085 -0.047785796 -0.06412047 -0.60864073 1.2102355 -0.8241698 -0.5459433 -1.1726279 -1.1261632 1.3421153 1.031366 0.6046051 -0.7397801 0.18170832 -0.27056634 0.1918706 -0.08564371 0.21809424 -0.44826886 -0.6100727 -0.8349808 -0.43217528 -0.10529457 -0.09458532 -0.26635584 -1.2019048 -0.0108914925 -0.6492041 1.4150409 0.2408959 0.351947
求 0.29519212 -0.37442043 -0.23708788 -0.6006519 0.37296468 0.7105196 -1.0569748 0.45363703 0.9127159 0.29075357 0.7244315 -0.25988722 0.046871964 -0.5731188 0.05256074 0.017355833 -1.3395678 0.5629467 -0.13175634 0.023590988 0.29408243 -0.048524115 -0.1854511 0.69843566 -0.55867827 0.18017851 -0.29861027 0.38388062 0.0074357563 -0.015219277 -0.13182597 0.8168837 -0.30354217 -0.4693169 -1.5709392 1.0835086 -0.013350416 -0.6654377 -0.72326195 0.23751329 0.06799705 0.20206651 -0.9998762 0.7868156 0.119038075 -0.20407677 0.7544503 0.34950855 -0.35753325 -0.7051476
对 0.4105016 0.40896457 -0.029061915 0.3167436 -0.09402342 -0.40164766 0.44964483 -0.5481091 1.431035 0.16119768 0.23915397 -0.1844561 0.08428326 -0.38173798 -0.4132232 -0.18385838 -0.18391371 -0.35087335 0.84842163 -0.8420391 0.3233079 -0.47742093 0.29311365 -1.2815799 0.39069685 0.15681756 -0.15647836 -0.016796818 0.493882 1.1882577 0.45867744 0.4824761 -0.4145406 -0.1189568 -1.1095572 0.4424318 0.50251937 -0.12596522 -0.47535777 -0.7727803 -1.2586895 -1.115048 -1.3479772 0.48323193 -0.2418353 -0.5696673 0.19440906 1.1402583 0.62956285 0.8773458
恶 0.35747373 0.4952338 0.4545938 -0.29252678 -0.4708119 1.781499 -0.47043213 -1.1993084 -0.18579842 -0.34449825 0.13409854 0.17761412 0.3252946 0.70312977 0.37090158 0.6939324 -1.0748394 -0.17769133 0.18232946 1.1182529 0.47234455 -0.45997417 0.353083 -0.6750785 0.95131516 0.41652867 -0.93662614 -1.1376666 -0.30008066 0.8016924 -0.28236935 0.34775355 -0.34900212 0.92403597 0.78091663 0.6513457 0.061424896 -0.683956 -1.2893851 0.8436411 -0.55730474 0.32135567 -0.613875 -0.15466064 -0.27313465 0.47888774 0.46838018 0.1598192 -0.24706051 -0.8878986
信 0.7596595 0.9141131 -0.12791486 -0.072638355 0.042957567 0.07072369 -1.0433434 -0.66416055 -0.34940147 -0.036122654 -0.14981706 -0.85164165 -0.68893194 0.009508903 0.29813024 -0.3454975 -0.04394904 0.30425718 -1.1603462 0.4063316 -0.36974698 -0.26032385 -1.1963452 0.5689474 0.67597735 -0.22111027 -0.25239953 -0.1316001 0.18554027 -0.52759886 0.675285 0.3728787 -0.8333608 0.4277347 -1.5794356 0.30931634 1.1553293 -0.101184376 -0.01592597 0.2539541 0.90247846 0.91118574 0.2627024 0.24321456 0.35172278 -0.3485386 -0.14322533 -0.02777488 -0.0048784455 -0.2062672
死 0.96352786 0.574493 -0.25391284 -0.33842066 0.022506118 0.5930333 -0.6419717 0.0019188761 0.44767204 -0.30269462 0.097210124 -0.23260248 -0.73501074 -0.33453807 -0.7634886 -0.4009957 0.34982833 -0.12655014 0.62149376 -0.103295535 0.3659853 0.4512486 -0.7899374 -0.17825818 0.08760004 -0.09783895 -0.42988598 0.56441426 0.76564425 0.32355452 0.8001122 0.4821009 1.0888083 -0.0976675 -0.49059767 0.54291224 1.2615589 0.54771876 0.50018233 -0.42408237 -1.428299 0.0155991 -0.0020116167 0.16092171 -0.8901041 0.09494951 -0.25276315 -0.030880712 -0.33557308 0.19782105
然 0.32752678 0.6427175 0.93642426 -0.56024796 -0.6060906 0.33962715 0.080798596 -0.043525755 0.3701168 -1.2149413 -0.12507959 0.00011325517 0.00023932743 0.11763245 -1.0875474 -0.40962794 0.06356638 -0.8522472 1.084566 1.0401082 -0.11622974 -0.019118547 0.038343735 0.039244108 0.32356456 -0.35597637 0.50241774 0.43368086 0.36652574 -0.7139727 -0.008663841 0.18004729 -0.09703007 0.95317215 -0.90094537 0.2463589 0.23070073 -0.16428807 -0.5894424 -1.353427 0.046834737 0.11998567 -0.2908977 0.6090588 -0.45720276 0.80420643 0.7410868 0.6633362 1.362823 -0.05431818
《 0.93225086 -0.23518261 -0.9454609 0.537219 -0.53775126 -0.7685496 0.73069316 -0.68398154 1.1372831 1.5545064 0.27125308 -0.8059872 0.26246378 -1.0281469 -0.11727186 0.21377699 1.6498656 -0.045209717 -0.3768602 -0.11583944 -0.25680768 -0.56875366 0.13356799 0.039032348 1.3532797 -0.43745512 0.33944008 -0.70288306 0.3286027 -0.031014087 -0.3928542 -1.3430284 -0.736784 0.5546497 -0.6463071 1.6556264 -0.2040432 -1.0904427 -0.6068269 -1.1171508 0.21957043 -0.063717015 -0.5817502 -0.056417834 -0.32192904 0.38081923 0.56327695 1.0767912 0.24703488 -0.447187
》 -0.05258649 0.4111979 0.7663737 0.48287284 0.24724945 0.16983004 0.59732795 -1.3589258 0.9983137 0.5243933 0.31302023 0.00998982 -1.1038046 0.1148286 0.283479 0.16711694 0.52158403 -0.25146267 -0.40688154 0.6115373 -0.15543798 -0.054761734 -0.79968375 0.46602532 0.69643 0.22661981 -0.032097243 1.708518 -0.021006964 0.59079427 0.1721261 -0.6083975 0.3825292 0.11534926 -0.56387454 0.91503155 -0.7624063 -0.102696136 0.0836083 -0.1958448 -0.21409313 0.5565291 -0.20898494 0.0056890454 -1.6942422 -0.9620301 0.37093017 0.7554311 -0.19569477 0.076326095
由 0.7466618 -0.16855657 1.1775767 -0.8705826 -0.2808161 0.3037265 0.6327486 -0.49956894 0.20877333 0.14722088 0.0029473573 0.12928417 -0.4436378 -0.66480577 0.15225206 -0.66009104 -0.5123188 0.65959996 -1.0118452 -0.38114625 -0.08099849 0.27217624 0.2186192 -0.08909898 -1.4287512 -0.5583815 0.6310097 0.39030856 -1.3137274 -0.04444343 -0.7064217 -0.18219438 0.52024174 -0.21351492 -0.043970414 0.35191512 0.14819293 -0.64640146 -0.079318665 -0.71599245 0.55838704 -0.35199124 -0.18661019 0.6473563 -1.1329509 0.3557437 -0.059435446 0.07740954 -0.50324684 -0.3776785
仲 1.0534785 0.3290992 -0.039580744 1.0349901 -1.2502248 0.5431626 0.6484595 0.31247896 0.48432735 0.99304134 -0.6840315 0.020844152 -0.48288268 -0.6633705 -0.13187589 -1.2944183 0.1508644 0.014734424 -0.86637557 -0.35579962 0.28593552 0.5943361 0.28321582 -0.35573077 -0.4502237 0.4872429 -0.5636275 0.749292 1.266992 1.2302706 0.10438432 -1.7851605 0.6473522 -0.67559147 -0.28117985 0.1672804 0.3440434 -0.19000202 0.15650679 0.11368504 -0.25957128 0.50978434 -0.3639269 -0.1442707 -0.29910338 -0.28363436 0.13551788 0.083366945 -1.1527727 -0.7253597
非 0.0007221843 -0.5388907 0.51341075 -0.228914 0.2724336 0.25018555 0.40208617 -0.20225464 0.65980124 0.6204949 0.8740614 -0.81469125 0.10016095 -0.3440082 0.045083538 -0.08127599 -0.23265164 -0.50642234 -1.0276895 0.10599567 0.08487783 0.47578242 0.2157575 -0.46587184 -0.33240557 -1.4518474 0.78486294 1.327821 -0.4119772 0.12829609 -0.09141685 0.38933676 -1.7045425 -0.092891805 -0.5512422 0.71964186 -0.56480265 -0.5532323 -0.43024075 -0.91120553 0.018898811 0.3285725 -0.23939273 0.12554803 -1.0136476 -0.7972303 1.0214776 1.1359209 0.98144186 0.6603252
出 0.5663497 1.0859863 0.16679317 -1.1197399 -0.2975478 0.7865966 1.2407607 -0.34434915 0.713338 0.19535291 -1.7658123 -1.9549139 -0.2542276 -0.13826817 -0.055683304 -0.47949767 0.3992269 -1.0076315 0.4051373 0.13427454 0.03984528 -0.5722006 -1.7154086 -0.16342577 0.04237358 0.37945512 -0.058789853 0.08976176 0.09670544 -0.53783596 -0.150641 0.42954805 -0.9077835 0.7631913 -0.35099554 0.039715733 0.88774353 -0.5176131 -0.25919166 -0.8517991 -0.13013919 -0.2905535 -0.3776338 -0.061894387 -0.16984856 0.2536036 -0.5665598 0.36312914 0.41530177 -0.65263987
过 0.81897956 -0.017579941 -0.114010006 -0.091870256 -1.1384788 -0.35913238 -0.5755807 0.7220996 -0.06216539 1.4539481 -0.26184422 -0.89685833 0.21415024 -0.09886906 0.5490039 0.11718934 -0.78420264 0.72672725 0.81389946 -0.6439999 0.6177181 -0.1949714 0.08389662 -0.530515 -0.21723446 -0.1890849 0.33984384 0.10732396 -0.20113227 -0.23748344 0.9094916 0.8156388 0.33030066 1.018909 1.0948852 0.053654477 0.7850675 -0.3724459 -0.86086935 -0.99663395 0.6654714 1.1196754 -0.1573001 -0.035971917 -1.3275508 -0.39799666 -0.0835532 -0.07602873 0.43698815 0.8846711
一 0.6046038 -0.88266534 -0.00055660633 -0.35222986 -0.6140326 0.59749484 -1.0947194 0.13323922 -1.251946 -0.117711455 0.20782083 -0.50298274 0.13814867 0.4839023 0.9712506 -1.0487334 0.0535995 -0.37309396 0.08329413 -0.3423943 0.25828782 -0.8386206 -0.55319864 0.3873048 -0.6521031 -0.53547984 0.67815614 0.47634014 0.93386704 -0.9475036 0.7264272 0.046884913 0.44972366 0.42666456 -0.4148658 0.5191201 -1.5464872 -0.45110458 0.009829006 1.2137195 -0.36725137 -0.919387 0.119059294 -0.33779845 -1.4728531 0.66088855 0.7366269 0.89940995 -0.3164384 -0.927113
虽 0.4372964 -0.38156235 -0.4544997 -0.21765152 -0.35611263 1.5788456 -1.60163 0.08593375 0.4876234 -1.7223787 -0.6674641 0.597956 0.9062261 -0.09873056 -0.41082406 -0.36214712 -0.7121481 0.21232782 0.3465404 -0.18967153 1.4389272 0.38748533 0.23945265 -0.082889505 -0.07170864 0.59908897 -0.06811401 -0.77165633 1.3928787 1.5109078 0.3191985 0.4627098 -0.16095498 0.7510172 -0.94934374 0.3432951 -0.0111315735 1.5813059 -0.05575444 0.6425576 0.42212486 1.345059 -1.9318825 -0.4445265 -0.39653352 -0.7908009 0.09609059 1.0933892 -0.29224616 0.020466728
足 0.55509335 -0.09494039 -0.007752103 0.124014564 0.102077045 -0.30618474 -0.87296337 -0.0044260467 0.3016924 -0.62784 0.074373566 -0.023680773 0.83435166 0.044257246 0.17066681 -1.0639944 0.044654097 0.3986944 -1.063705 -0.19378929 0.71373326 0.6669305 -0.5573102 0.72336346 0.43814704 -1.1167477 -0.72175145 -0.102753095 0.40623984 0.3903933 -0.30153003 0.22711235 0.18185554 0.33619457 -0.29920456 0.516937 0.25177062 -1.4223623 -1.1691452 0.12985793 0.4554093 -1.2859935 -0.07460945 0.24905258 -0.30054286 0.08956268 -0.42362392 0.43733075 1.6595908 -0.5670694
居 0.43082288 0.06360725 -0.15255807 -0.34758705 -0.40693215 0.5970888 -1.4339437 -0.09555153 0.46322557 0.1491797 -1.7834326 0.14957044 -0.25418314 -0.5376444 -0.8071544 -0.015247898 0.25693795 -1.7645326 -1.0273821 0.35316437 -0.2409798 0.5607855 -0.39587677 0.48848134 -0.5819471 0.49997875 -0.34436345 -0.69784486 0.44931063 0.24249987 -0.19672854 0.22962698 0.2990732 -0.52251184 -0.42638087 -0.980896 0.1918654 -0.6594878 -0.3334698 -0.95158064 -0.33032683 0.9438814 0.2693751 0.25298354 0.2703379 -0.124900125 -0.56525356 0.56936115 -0.06621344 -0.78344476
尔 1.037406 0.6086081 -0.469689 0.13016549 0.041017633 0.5107155 0.20482714 0.7574456 -0.5048909 -0.14540796 0.43007487 0.45252556 -0.79262644 -0.27104014 -0.4707289 1.1937187 0.41925544 0.54444045 0.08538974 -0.4721974 -0.16924468 0.3948251 0.62494266 -0.0924234 0.19871058 0.7227347 -0.06127153 -0.89764726 -0.06318509 -1.1427981 1.26686 -0.30097333 -0.1238459 0.8387094 -0.19573846 -0.50399876 -0.38881934 -0.19080874 0.50738484 0.29331547 1.0482873 -0.12869422 -1.5170729 -0.12895958 -1.3239845 -1.5521595 0.44878498 1.286904 0.7037131 -1.1381238
夏 -1.0422744 1.6746546 -1.0391654 0.7100123 -1.023995 0.13180402 0.5182181 -1.4137467 -0.23935573 1.7072433 -0.38026905 -1.3004079 -1.2544396 0.05574814 -0.114742026 -0.1847818 0.568707 0.14692724 -0.2691839 -0.51893306 -0.20873435 -1.5621502 -1.1376765 0.82443786 -0.23483121 0.23750636 0.4588741 0.8328105 1.4533613 0.7652155 -0.5143724 -1.3916365 -0.29583776 0.019125752 -1.3448038 -0.5942209 -0.53669405 1.0055904 -0.011625113 -0.9987051 -0.94204074 -1.0398629 -0.58901733 0.9166068 0.13379104 -0.5266419 0.021630736 0.24716339 0.979953 0.12701462
父 0.13572252 0.80817443 -0.17027485 0.94847363 0.44620633 0.62050354 -1.1680893 -0.019883202 0.7101781 0.5985517 -1.2632778 0.7369304 0.52318394 -0.44761252 0.4554279 -0.16720317 -0.14225021 0.23676401 0.18563256 -1.0873097 0.12183439 0.17539385 1.1690129 0.004567913 -0.39860803 0.78030354 0.4037685 -0.30900934 0.26109523 0.39321646 -0.0856021 -0.07471495 1.5301408 0.98476845 -1.1496444 -0.6429981 0.61388946 -0.82778144 -0.72938675 -1.034962 -0.7201987 1.241286 0.07885045 0.8768397 -1.7274059 0.24851733 0.2576355 1.0145476 0.11958404 -0.30704424
及 1.652593 0.085656926 -0.06597503 -0.14043473 0.02907888 -0.23190317 -1.0785916 -0.24480587 0.41392305 -0.086609244 -0.07929175 -1.7891302 0.22770198 -0.9001994 -0.51259154 -0.5110419 0.35956317 -0.06577517 0.7186157 0.83561957 1.3052768 0.365067 -1.2496815 -0.43214944 -0.88071364 0.43655956 1.0210766 0.21632677 -0.6314002 0.22080779 -0.057561684 -1.0473815 0.067377985 -0.48150945 -0.84082705 0.51539236 0.66482526 0.6980315 0.22684376 -0.3366694 0.6629919 0.22251073 -0.21197915 0.26336655 -0.10982968 -0.065397225 -0.41606227 0.22983788 0.5759496 -0.7879205
己 1.5171745 1.7147189 -0.8957143 0.7310035 -0.82068676 0.29905593 -0.357701 -0.05583017 -0.35339245 0.27010062 0.70584023 -0.09494586 -0.6782178 0.10535554 -0.7667762 0.24541187 -0.18028095 1.0527495 -0.39011872 -1.1322666 1.3602252 0.9077326 -0.20909953 0.23222479 0.20020592 -0.83995205 -0.47893885 0.21736117 0.7117496 0.63776124 0.7876624 -0.0449792 -0.29412532 0.3154251 -1.1875732 0.51090413 0.40543765 -0.17286462 0.13581218 0.5023175 1.2403965 0.47365338 -0.82786286 -0.71488696 0.61766034 -0.3488168 -0.3912288 0.11218873 0.18891257 0.5254796
予 0.5358347 0.2442273 0.38148737 0.25001052 -0.31415546 0.51310605 -0.52131355 0.22348489 -0.046060733 0.7255639 -0.90938675 0.7907184 0.5076851 0.023160037 -1.856491 -0.35746068 -1.1554807 1.2273517 0.24855024 -0.54193217 0.23651046 1.129218 0.03890848 0.48746082 -1.007296 -0.04739169 -0.4946602 -0.926902 -0.27472615 -0.6177071 -0.66299284 -0.5786441 1.0390741 0.91111547 -0.6123222 -0.47931007 0.8228021 -1.2769397 -0.2536151 0.22801585 1.2177509 0.07891958 -1.3844663 1.1811593 0.30747983 0.7259022 -0.44487962 1.0958078 0.974888 -0.3463907
色 1.5499461 0.973025 0.55698425 0.49545252 -0.980131 1.4202629 -0.25496283 -1.4426857 0.008659714 -0.6887043 0.32440823 0.104850486 -0.52214146 1.2290577 1.233072 0.06935094 0.10142734 0.025200874 -1.9455804 -0.27425352 0.2490043 0.3319555 0.26808372 -0.10465346 0.45901117 -0.035678003 -0.032636613 1.174129 -0.48068264 0.050626226 -0.3618823 0.7152467 0.5891538 0.3227497 -0.49561492 -1.5328869 -0.49814346 -1.7438457 0.47169498 -0.9894881 0.3244898 1.1257713 -1.3919332 -0.6162453 -0.7039134 -0.41527677 0.4073538 -0.7983555 0.34514526 -0.0816416
友 0.1301296 -0.18722543 -0.034515597 1.087571 0.55331117 0.34263048 -0.43519258 -1.1996491 0.30708665 0.83798206 -0.7051778 0.11880182 -0.48409253 0.14459364 0.27830648 -0.074377246 0.12106787 0.04249211 -0.78481716 1.118764 0.3009804 0.9548322 -1.2310739 0.62663525 0.66615 0.76308376 0.4329143 -0.6831303 0.486585 0.7959785 0.2892861 -0.51707214 0.21092856 -0.85422444 -1.6180942 0.017148605 -0.0060763545 0.18419437 0.66277987 -0.20227483 -1.7423196 -0.25796497 0.045153666 0.07864472 -0.06303136 -0.7769184 0.8410431 -0.040216513 0.053940877 -0.27492616
成 -0.4437179 1.0152566 0.044394974 -0.5558869 -0.93856 0.5164142 0.05054369 -0.06799419 0.17968999 -0.4153444 0.5790185 0.42231512 -0.25797045 -0.91237783 -0.27276802 -0.6021628 -0.5649533 0.057578165 -0.4153541 -0.045470916 -0.09165602 1.170657 -1.1643708 0.75266653 -0.07347005 -0.3608612 -0.0315781 -0.098564066 0.7424736 -0.71781015 -1.1305097 0.08861112 -0.15645199 0.098062314 -0.6806864 1.0291545 0.18150601 0.07194605 0.34163818 0.64369196 -0.066839516 -1.0354079 -0.791575 0.10010279 0.0051517296 -0.13323693 -0.4221489 0.48063618 -0.60702634 0.11961041
远 0.55969805 -0.6340859 -1.018512 0.25827715 0.34400535 -0.10053472 0.64709514 0.09786532 -0.5975822 -0.6599915 -0.9808009 0.21675743 0.13740572 0.63421714 0.018668149 -0.32073745 -0.71769434 0.6625261 -0.04052531 -0.356501 0.31422362 0.77280617 -0.30573982 -1.133703 1.1227893 -1.3061541 0.1952748 -0.3490233 -0.36771622 -0.14668767 0.24073456 0.3022425 -0.117236055 -0.21429443 -0.5588638 0.097157225 0.92706186 -1.3556839 -0.49297124 -1.1388316 0.07003642 0.18038441 -0.21931218 -0.41602182 -1.4082806 -0.23997019 0.92737114 0.71869165 0.7914582 -0.44881633
上 0.7255455 0.869399 0.24741381 0.27673313 -0.2152847 0.03922014 0.103608645 -0.08312064 0.44174835 -1.5817101 -0.082534954 0.272373 -0.6073706 -1.214275 -0.103670135 -0.49288172 -0.0715191 1.621389 -0.14232557 -0.5766366 0.19520733 -1.3698186 0.12241054 0.55298084 -0.75112665 -0.037482005 -0.55789274 0.21509399 0.6619726 0.28854856 0.044533823 1.3705035 -1.1921445 0.264739 0.32952014 1.3187975 0.5401281 -0.21413861 0.31234705 -0.9630805 0.26075017 0.1939256 0.08197183 0.31695005 -0.20534441 -0.27489176 -0.21031545 -0.14351557 0.74598205 0.5435253
立 1.5911235 -0.1272942 -0.3375945 -0.22266977 -0.8721092 0.16924453 0.3940664 0.07703065 0.2143658 -0.599318 0.5432619 -0.016755234 -0.19827439 -0.16643716 0.50085986 0.52023834 0.021080203 -0.09367988 0.768296 -0.5386814 0.4483515 1.4418596 -0.090475984 0.3034943 -1.0162348 -1.0326158 -0.04534704 -0.88319784 0.533691 -0.09631253 0.12219077 1.019899 -0.09596832 0.2019008 -0.6304092 -0.50123054 0.43773133 -0.31682345 -0.5290826 0.023908975 0.7319328 -1.0239601 -0.77913314 -0.28252304 -0.7598592 0.33965066 -1.060454 0.67112625 1.1404573 0.13266505
今 0.4593295 -0.51489544 -0.74291456 -0.046060085 0.14388008 0.35451612 -0.26913172 -1.3542501 0.3477044 0.77570266 0.52861905 -0.7229238 -1.2974455 -1.2047839 -1.0291619 1.3456751 0.5754331 0.786756 -1.0136459 0.47838068 0.21045645 -0.22133099 0.3399448 0.6211865 -1.424372 0.23046091 0.52710825 0.55644375 0.37357104 0.2169784 0.4506051 0.039188452 0.14328787 0.34928143 -0.60709465 0.43324596 -0.3412313 1.004563 0.040378846 -0.7177283 -0.4156137 0.9530481 -1.0694653 0.3270936 -1.7851726 0.25788274 -0.94079447 0.3940259 -0.7796334 -1.4599578
张 -0.025551353 0.43524113 0.0057583693 -0.17484893 -0.66661423 -0.13120349 -0.61650145 -0.9056409 -0.75140226 0.9483284 0.57429034 0.027230952 -0.84426475 0.77755964 -0.2377734 0.25267243 0.0711075 -0.49663845 0.791762 0.5795874 -0.7365506 -0.3969798 -0.02810538 -0.2129259 0.1004153 -0.64101607 -0.42247793 0.06760916 0.62896144 0.5260355 1.143225 -0.62834674 -0.23857343 0.039001845 -0.45467407 1.237452 -0.17293881 0.13037455 -0.2259805 -0.295383 -0.18418175 -0.7910269 -2.3867722 1.5189174 -0.24342541 -0.73079586 0.96507573 -0.03991071 0.093619436 0.38232416
中 0.5284805 -0.08963816 -0.36773708 -0.9657765 -0.08442365 0.27434105 -0.43102595 -0.32205573 -0.22985476 0.34377602 -0.2793474 1.5575079 -1.2086009 -1.1561755 -0.47140127 -0.35511187 -0.1949029 -0.040219188 0.82883793 -1.4430097 0.24296908 0.07270019 -0.3158353 0.9894824 0.46743247 0.3009931 -0.18263242 0.7677159 -0.006437254 -0.030634731 0.022425286 -0.6504902 -0.3418407 0.7498958 -1.0329127 -1.110131 0.108895786 -0.36354807 -0.45344293 0.19305013 -0.85581064 1.1298879 0.45928958 0.11906683 -1.2523332 -0.5322281 -0.3372785 0.8796965 -0.913518 -1.2457111
季 0.56379914 0.5286718 0.2089621 0.9516622 -1.982887 0.23834904 0.8335913 -0.44499615 1.062182 0.65268815 -0.70300066 0.012737386 -0.64963806 0.543724 -0.17122594 -1.2849696 0.6883922 0.21221335 -0.12728196 -1.0087665 -0.05165608 -0.693014 -0.1430048 -0.34147927 0.9915848 0.4969308 -0.7859951 -0.91432446 1.1742139 0.4933933 0.11833982 0.6356994 1.0727063 0.18769684 -0.40550855 0.3886947 0.2587975 -1.0239172 -0.94645154 -0.3795743 -1.206317 -0.24228913 -0.7366615 -0.05692708 -0.687856 0.32000154 -1.8539023 1.0599895 -0.85514635 -0.0240803
臣 -0.15970592 0.08797932 -0.37373698 -0.24952558 -0.25237477 0.19617787 -0.17966606 -0.7824186 -0.14046828 -0.46533492 -1.9296583 -0.22404027 0.44908684 0.05458056 0.5126928 -0.54665697 0.4040831 1.4466683 0.24869664 -1.3596516 1.1130835 -0.33529583 -1.0919281 0.46729213 0.36410195 -1.1855823 -0.19952984 0.84082973 -0.3699519 -0.34258518 0.015056897 -0.2378806 0.028489964 1.1703578 0.19792272 -0.1578649 -0.7243032 0.049278397 -0.9614922 -0.65238696 1.3917152 -0.8993252 0.39257818 -0.009121863 -1.0015401 -0.008066404 0.19603398 0.67626214 -0.49212006 -0.35390252
贤 0.009426857 0.57135004 -0.6826527 -0.69532853 -1.3571402 -0.31156766 0.3610763 0.10006721 -1.1550678 -0.7877116 -0.16654728 -0.18420221 -0.78688765 -0.92694455 0.7053266 -0.0034247614 -0.4597952 0.86301595 -0.57329357 -0.16751043 -0.17640702 0.5612536 0.8723682 0.009854174 -0.92069393 -0.3240502 1.2236099 -0.8827132 -0.850884 0.71589863 0.3109611 1.7430252 -0.35371032 -0.48522136 -0.9774865 -1.3165241 -0.1934268 -0.7001382 0.2713926 -0.44688314 0.66973954 -0.18691532 -0.97885776 -0.09112833 -0.26092425 -0.41846302 0.5069322 1.3017391 0.22096874 -0.8617011
思 1.5053158 -2.0966868 0.19956271 0.25609335 -0.80365115 -0.0021482585 -0.9097475 -0.8273497 0.012321068 0.5811096 -0.8094203 -0.93034273 0.040579237 0.6466523 -0.7734169 -0.50687766 0.20870739 -0.37254575 0.10161893 0.17948994 0.16173083 -0.0727639 -0.5659171 2.1927166 -1.1376072 -0.5227392 -0.32490474 -0.20134757 -0.4340937 0.95315737 -0.14693314 -0.29140592 -0.7952329 -0.22184138 -1.58151 -0.2898437 -0.42282316 -0.029895257 -0.74456674 0.6482194 -0.52258873 -0.13608444 0.8961127 0.5476555 0.10935093 -0.08046649 -0.58223045 -0.33074424 -0.63927203 0.49494374
齐 -0.11530196 0.5017767 -0.4843464 -0.19753079 -0.43858638 -0.6923536 -0.0008788387 -0.19199386 -0.85950994 0.2519551 -0.3829159 -0.34285975 0.58111566 0.19281724 -0.6919829 -0.3210494 -0.13394663 -0.90345395 -1.1172924 -1.0256032 0.24012004 -0.11756046 0.36189312 -0.8242473 0.19955909 -0.12161441 -0.64758646 0.9635634 -0.5627788 -0.1616381 -0.36175057 0.32966712 -0.09738945 -0.64689404 -0.4136593 -0.92656875 0.48058316 -1.134816 -0.30402187 -0.78185797 -0.09857024 0.18694462 -1.4742682 -0.50806963 -0.08387827 -0.9733417 0.456798 0.8809143 -0.6716179 -1.6167532
义 0.6524456 1.357126 -0.7702081 0.28555986 0.78040576 0.3179358 -0.20032321 -1.0095322 -0.9850558 0.8543872 0.58049226 -0.47493747 -1.723578 -0.85204554 0.29976702 -0.5531617 0.4976642 0.57771325 -0.3137735 0.25780076 0.018769598 0.109862834 0.7208467 0.03707182 -0.2807438 -0.3022007 -1.4087714 0.18344705 -0.37030178 0.30889082 0.74582386 -0.07469768 -0.64333534 0.7605849 0.029491358 1.3696414 -0.34804073 -0.93058234 -0.060197413 -0.022515122 -1.3453987 -0.6650417 -0.43927738 -0.10527194 -0.13962 0.058238015 -0.9659268 -0.1693963 -1.0166434 -0.19326533
正 0.49999833 1.567732 0.5840231 0.69812316 -0.8059323 0.061691813 -0.9014787 0.33429477 0.20426746 1.3117515 0.3613521 -0.43560034 -0.6920558 -0.42416662 0.4543588 -0.6321779 0.24273187 -0.57522494 0.49407002 -1.0477978 0.9643106 0.55071634 -0.24281554 -0.13535035 -0.21226792 0.035799503 -0.7527176 -0.5667404 0.0082000345 -0.9397578 -0.10691098 1.2937801 -0.054628413 0.9138967 -1.2288649 -0.9788116 0.02141033 -0.7534193 0.81006265 0.4534667 0.26349157 -0.13203363 0.6423158 0.731486 0.13197303 0.51206154 0.3758773 -0.5878937 -0.7435566 0.5993535
命 0.2894818 1.1311176 0.14844172 0.8179064 1.1255296 0.6316472 0.4207046 -0.09735607 0.29350123 0.65952104 1.0098113 0.55520356 -0.14570576 -1.1052622 -0.35442325 -0.19508016 -0.1462155 0.04025179 1.3078004 0.19329034 1.0174993 -0.12831916 -1.3087403 0.6455905 0.40698078 -0.16603513 -0.3264636 -0.1483917 0.28708726 -1.2992905 -0.24135742 0.09273587 0.97489965 0.0302571 -0.4323533 -0.09644069 -1.1863078 -0.4238935 0.3901621 -0.7467437 0.61666554 0.0323219 -0.15433614 -0.2612413 -0.57905835 -0.82092535 0.3735364 1.4556384 0.34038067 0.12930523
曾 0.048373997 -0.36268425 0.2721074 -0.91420686 -1.2600323 0.18160918 -0.31212458 -0.53904337 -1.1373063 0.29948387 -0.65229905 -0.42483377 -1.1716088 -1.1474543 -0.5055424 -0.6103886 0.80387884 -0.52345246 -0.0075755087 -1.8985931 0.68207896 -0.14425325 0.6053037 -1.4293531 0.20874576 1.6821717 -0.10969122 0.0634669 1.4608147 -0.6902684 0.7504918 0.74018013 0.28141814 0.5645701 -0.49538392 -0.6387043 1.464774 -0.48012674 -0.9630129 -1.0518692 -1.5144938 -0.7291387 -2.1965194 -0.43612045 -1.0079782 -0.36245432 -1.4575734 0.93956184 -0.1790702 0.23565575
伯 0.04981373 -0.7898248 -0.7824192 -0.16831768 -0.93210506 -0.76094747 -0.028162211 -0.7891971 0.11311061 0.5703399 0.4536627 -1.5529504 -1.0129955 -0.22817668 -0.8240186 -1.2287561 0.199601 -1.2675965 -0.7000796 -0.0831249 -0.27560022 0.44230938 -0.3445071 -1.0200475 0.41938618 0.6689753 -1.3309263 0.92882484 0.6134994 0.305209 0.8268994 -0.53405285 0.43018684 0.15783338 -0.060384206 0.6010468 0.40991157 -0.5236998 0.66734165 0.9939084 -0.4807141 0.31754658 -0.78356093 0.59094405 -1.3731406 0.6666262 -0.24651891 0.55018234 -0.20906408 -0.3029158
门 -0.29623386 0.58303547 -0.2661307 0.36023512 -1.2131373 -0.34492448 1.280573 -0.6429416 -0.38898304 0.16356426 -0.40792066 -0.10148607 0.38415065 -1.4169662 -0.74955666 -0.2779356 -0.27288926 0.65979093 1.751717 0.4137894 0.9209146 1.0780152 0.20878625 -0.75779104 0.09972094 -0.48752007 -0.21937966 -0.61417806 0.44809183 0.6977451 -0.07882547 0.074385524 -1.339394 0.19807209 -0.55356103 1.2943778 0.77492046 1.1177449 -0.6153171 0.634577 1.006257 -0.050501134 0.12914497 -0.07023359 -0.68737924 0.29852742 1.2235801 1.6922594 -2.794523 -0.79108316
敢 0.5893087 0.78074414 -1.4055078 -0.2400589 0.19959004 -0.5629212 0.4737938 -0.27032316 0.6270698 0.22856927 0.62716776 -1.1302385 -0.7661559 0.08886648 -0.82060003 -0.5847885 -0.086888924 0.4312855 0.7219147 1.678856 0.9502958 0.8229495 0.40187103 0.87576616 -0.19490173 0.155917 0.6427617 -0.45002586 -0.7350844 0.27119684 -0.44305435 -0.7602872 0.44251835 1.1740855 -1.4384872 0.018393677 0.10959615 -0.68245447 0.329989 0.3858943 0.909066 -0.35157964 -0.92763764 1.3315343 -1.6382872 0.10599424 1.5837526 0.006535981 0.92468846 -0.44303444
犹 0.32297665 0.47051018 0.04299484 0.2116329 -1.0371512 0.7340866 -0.38892016 -0.6473799 1.00028 0.0007028929 0.11128031 -0.48860872 -0.3969592 -0.4568357 0.5623188 0.31692848 0.7988639 0.3527686 0.0041770623 -0.14336002 0.42308265 -0.9596521 -0.03444907 -1.233401 -0.8607881 -0.4110189 -0.062232062 -1.0053178 1.2741911 -0.5347516 0.32216766 0.16350214 0.0022788146 -1.2091664 -1.1100838 0.5553658 0.08267584 0.49820107 -0.28648 0.62830114 -0.62765765 -0.8882117 1.1654028 0.96042264 -0.28695467 0.7819845 0.43932876 -0.30033708 -1.5542594 -0.14249933
生 0.05546516 -0.62549675 0.08336716 0.30413038 -0.6980088 0.24809611 -0.4761929 0.63351566 -0.46102 1.1779746 0.044422865 -0.4857635 -0.276386 -0.5214001 0.8285337 0.42007628 -0.22920763 0.5645047 0.29271543 -0.25023353 0.9517894 0.066577464 0.011962757 -0.5054336 -0.7853531 0.5793704 -0.5092416 1.7289007 -0.8256132 -0.8530874 1.6858575 -0.13909972 0.31752115 0.9201087 -0.6665622 -1.2329609 0.80633575 -0.7363318 1.0982099 -0.014152527 0.7508374 0.40874684 -0.5297104 0.083410844 -0.28549197 -0.029551841 -0.3207388 -0.79226846 -0.044241585 0.67516303
日 1.4867988 -0.7855712 0.29622278 0.2709811 -0.9297007 -0.7703732 -0.37476152 0.063868314 -0.5087277 0.50894344 -0.84119684 -0.5788909 0.3971744 0.24420775 -1.6796383 -0.12925403 0.8445023 -1.1254286 -0.16890535 0.47634366 0.82318896 -0.2068792 0.30946234 0.25016543 -1.2301166 -0.7336545 0.87561566 -0.6888978 0.579884 0.30531514 -0.007819866 -0.91608965 0.40553 -0.75565434 -1.0336004 -0.4358186 1.0637747 -0.8639185 -0.8965789 1.419908 0.64583784 1.1362253 -0.83711374 0.09555315 1.1133095 -0.50388134 -0.6198156 0.69038016 0.043104723 -0.8695588
敬 1.4095097 1.675225 0.1856446 0.0116787655 1.1259565 1.8165948 0.77363837 -1.5307211 -0.62985253 -0.8405739 -0.015375901 -0.98761594 -0.1473285 -1.1415807 1.3824447 -0.27375904 -0.43857488 -0.9607142 -0.982913 -0.25677243 1.7498189 -0.16011815 -0.62757003 0.4285285 -0.021564301 -0.057544783 0.02195847 -0.81716263 0.5611008 1.5971649 0.5237325 -0.39405462 0.066160634 1.8726735 -1.8022974 0.37180835 0.6039037 1.3175515 -0.874685 -0.28029236 -1.2322397 -1.0058388 -0.3043837 -0.33911353 -0.19739015 0.50706905 0.35723448 0.29333046 -0.79407775 1.3805425
难 0.84970295 -0.35646275 0.07213283 -0.525122 -0.4128861 1.0709792 0.679334 0.3141919 -0.4115214 0.21179847 -0.8353766 0.43489513 -0.19132784 0.8354889 0.7287453 -0.65769064 -0.7244292 -0.5891259 1.234143 0.12982385 0.10300897 -1.4280385 -0.5196387 0.039772365 0.65075386 -0.67551744 -0.6319339 1.2399337 -0.3808951 0.290933 1.1307272 1.047575 0.46546468 0.9006976 -0.008809528 -0.1922971 -0.14313479 -0.63212514 -0.32784176 -0.8786503 -0.12159504 1.1086229 -1.1588869 -0.23452052 0.023686029 -1.1946608 1.5433708 0.24153078 -0.87844175 0.04703165
直 0.801606 0.30903673 -1.7050533 0.22473 -0.75954986 0.53046066 0.5076728 -1.8448822 0.5167557 0.08692662 -0.11792193 0.595994 -1.5521655 -0.5574913 0.36165068 0.43809563 -0.45565554 0.97863525 -1.1638495 -1.0152367 0.10677787 1.205528 -0.6089657 0.40050825 -1.1399218 -0.7452628 -1.3585671 2.2342675 0.15231258 -0.44584402 0.8183234 0.31287846 0.29725787 1.0320989 -0.5606508 -0.71685016 -0.02164903 0.5944629 -0.2933675 -0.5373059 -0.014917369 0.58141315 0.2743835 -0.059582498 -0.42107803 0.5826277 -0.4753731 -0.3329271 -1.1468867 -0.43413237
丧 -0.029961644 0.59161323 -0.08238794 0.654326 -0.14009184 -0.26985118 0.39719677 -1.164546 0.84275204 -0.09172895 0.026110247 -0.5319922 0.16869128 -1.3006133 -0.42837253 0.8007296 0.5676767 0.28254378 -0.29269627 -0.19526608 -0.51469713 1.9033413 -0.22069347 -0.52042365 -0.99063385 -1.5664806 -0.19767374 -0.029972255 0.33853137 0.48384112 0.6823162 0.02052436 0.33600762 0.11322922 0.17473339 0.5242452 0.20052153 0.32370886 0.18860045 0.2486891 -1.291832 -0.43461293 -0.5003986 0.88087696 -1.6076452 0.07867649 0.8911454 0.48026964 0.115443565 -0.6959752
说 -0.10408649 0.58110404 -0.8908558 -0.6402846 0.0071235416 -0.014843844 -0.21932746 -1.4712188 -0.9979502 -0.31584018 0.7116075 -0.7537549 -1.4161329 -0.6275707 0.31541806 -0.7427532 -0.057746205 0.21940742 0.077080525 -0.7676106 0.47312355 1.3046919 -1.1891454 -0.07165892 0.14991492 -0.97817624 0.098970376 -0.40572497 -1.0682701 -0.70925856 0.35918537 0.30305177 -0.47185767 -0.07188843 0.0057735783 -0.505126 0.3923128 -0.7782023 -0.32056344 -0.45243266 -0.5308791 -0.48940772 -0.8397879 -0.120871745 0.32459295 -0.79835457 -0.1967108 0.43325678 -0.6516575 -0.7749178
自 0.7009755 -1.1399906 0.7252507 1.8106685 -0.35363695 0.8678986 0.5270215 -0.9619853 0.30241737 -0.104975045 0.28233486 0.54391146 -0.49099216 0.0015382654 0.82422215 -0.08816731 0.09104111 -0.396298 0.044589255 0.10810585 -0.7100932 0.09928862 0.22687373 -0.5800516 -0.9210348 -0.52893156 -0.8567189 0.4921461 1.4985887 0.90315247 0.5449086 -0.39560604 -0.4894426 -0.41547817 -0.17542894 -1.0403539 -0.5345213 -0.8530634 0.31062534 1.2323375 -0.27550188 -0.3213271 0.022963155 0.21218434 0.41057572 -1.0932595 0.9860088 1.3377659 -1.2272332 0.6412409
用 0.5300053 0.5004645 -0.79451 0.47802818 0.14600688 0.8469384 0.31017643 0.16365969 0.767124 1.711255 -0.05482119 -0.84383976 -1.2336746 0.6247024 -0.38996387 -0.49390644 -1.6011573 -0.5376714 -0.5470267 -0.05794227 0.546094 0.43238404 -0.52651083 -0.65965647 -0.22112383 -0.12350771 -0.25107098 -0.09726495 -0.30177778 -0.47110805 0.24243574 1.4241087 -0.6577989 1.1170193 -0.3015144 0.6227455 0.53896594 -0.23765323 1.0173663 0.8124102 0.28515437 0.21382907 0.30863544 1.2708112 0.0699865 -0.76520026 0.19251417 0.29352447 0.047484025 -1.3470224
周 0.5867566 1.9180862 0.7525113 -0.2694858 -0.9053914 1.2720296 -0.17367351 -0.71607846 -0.3595321 -0.5456251 -0.3512885 -0.13991222 -0.5964322 -0.46734253 1.2425268 1.8698936 -0.38142723 -0.16139106 -2.1669798 0.019976508 0.09587558 -0.25879627 -0.4110285 -0.8908704 0.06580147 -0.6309648 -0.1115489 -0.26278785 0.22257507 -0.31453833 0.832552 1.0169339 -0.46203408 -0.114461996 -0.42451316 -0.96881235 -0.1463885 0.33004603 -0.7561508 0.055742115 0.067083955 -0.05791744 -0.09908065 0.08363479 -0.9992178 0.13051255 -0.26163417 0.23622222 -1.5101103 0.9777706
颜 1.2460977 -1.036443 0.54582185 -0.0210149 -1.831547 -0.8949873 -1.3438824 -0.06006823 -0.25340867 -0.19518666 -0.32295734 -0.38509738 -0.91318035 -0.13950785 0.9005751 0.50897604 0.8149598 1.0112315 -0.23325327 -0.06673051 -0.17134845 0.5226909 1.5270034 -0.9856419 1.7611635 -1.042762 -0.50975966 0.37100047 1.9777149 -0.12501974 0.3260286 0.08731612 0.1176571 1.1604792 -0.29673576 0.2459088 0.45302847 0.64484555 -0.67259425 0.17966148 0.2507621 0.65065795 -0.41137227 0.45807183 -0.24380003 0.03188755 0.08830002 0.5749149 0.50714886 0.44300717
年 0.54195374 0.9282415 -0.0050644744 -0.21918254 -0.8530467 0.36396632 -0.48395663 -0.3453538 0.040715344 -0.56277895 -1.2420105 -1.0809305 0.30890533 -1.5359955 -0.7077689 -0.95791924 -0.45035943 1.4473841 -0.17543232 1.1716565 0.03786395 -0.48052883 0.36768958 0.8128349 0.98338073 -1.0860828 -0.48204824 0.8470401 0.430037 -0.09595663 -0.03130487 -1.1231793 -0.42722335 0.31407332 -0.15357552 0.5128231 0.51435024 -1.4190246 0.5899303 0.6505449 2.071998 0.34858653 -0.73323 0.6123789 -0.13930756 -0.96662366 -0.20467582 0.6358062 -1.2171912 -0.5747696
告 -0.64728254 0.49866992 -1.132312 1.3108367 -1.0674489 1.7270098 -0.7257397 -0.2392108 -0.44584438 0.7863601 -1.0960423 -0.03968092 -0.048593007 -1.1466206 -0.1841293 -0.10664844 -0.08232806 0.24109171 -0.47114208 0.20131463 0.82691777 -0.07800919 -2.5817304 -0.08462633 -0.30299023 -0.6970486 -0.4157488 0.05080998 0.021539865 0.23393124 -1.3252025 -0.44211864 -0.7085012 0.60958546 -0.17551771 -0.36948776 -0.7879788 0.704384 -0.6605571 -0.89540464 0.124117374 -1.0562963 -0.702183 0.46220806 -0.5169938 0.40944198 -0.89133286 -0.13783397 0.4698572 -0.04712566
十 1.5470394 0.36075747 -0.28865772 0.8242334 -0.12853654 2.11593 1.5344201 0.12373141 0.5815592 -0.17997253 0.28429765 -0.9132283 -0.47541267 0.75404775 -0.25583333 1.3329312 0.45183015 -0.45300528 -0.8024798 1.1009905 0.1841755 -0.6435511 0.31611884 -0.54746425 -0.043235347 -0.84917504 -1.328686 1.113751 0.17339598 -0.8008736 0.7265729 -0.2422356 -0.36251113 0.053563062 -1.9012895 -0.09497643 -0.6469853 0.09517122 1.2898682 -0.6837944 1.15759 -0.7986903 0.070628144 0.9879774 0.041950997 -0.5457072 -0.33162984 0.0015939587 -0.11250024 0.71372986
怨 0.42509532 -1.0258223 0.26874986 -0.8089205 0.4464559 -0.62001586 -0.21490903 0.9699663 0.0631512 0.124738105 -1.6450177 0.086482726 -0.5600788 -0.44278163 -0.0016423882 1.0643154 0.18205544 -0.74901855 -1.0598863 -0.12751313 -0.4424977 0.3143297 -0.5717082 0.25382876 0.9147137 0.23184437 -0.4329443 -0.41652435 0.32303402 -0.01367268 0.84573 -0.09735203 -0.3154279 0.8181461 -1.3244954 -1.0686463 -0.685438 -0.9256504 -1.4378017 -0.8139853 -0.37651324 -0.33077514 -0.68859637 0.09322297 -1.7954857 -0.4263449 0.19535913 -0.63441956 0.94616854 -0.4856771
达 0.63402057 -0.18702435 -1.596366 -1.1949333 -0.31824446 0.43533972 0.44153494 -0.57297474 -0.7457984 0.30704615 -0.35522637 -0.6320915 0.51130825 -0.57242763 0.104556 -0.0108347945 0.6408884 -0.7006994 0.043598533 -0.7592222 1.427561 0.7394925 -0.0692051 -0.80191356 0.35692832 -0.68983614 -0.35691443 1.1102202 0.6885088 -0.066141285 -0.82224965 0.15035796 -1.461364 1.3024502 -0.42180786 0.19342105 0.5788753 -0.15700386 -0.55271584 -0.40039343 0.8433792 0.16145255 0.46489882 -0.7930029 -0.00069473794 0.3560158 -0.63194937 0.030441193 -0.35488433 -1.0810218
孝 0.5727678 0.75964075 -0.13831496 -0.045099877 -0.06895724 0.1616027 0.40081248 -0.33521774 -0.4551778 -0.34000096 0.4021934 0.3605636 -0.96342516 -1.1534663 -1.4918786 0.27267706 0.96567935 0.70338434 1.5918702 1.2286036 -0.0739209 0.6245391 0.41024885 0.81885356 0.6816022 0.7278677 -0.31510544 0.38241515 -0.15765344 0.61870205 0.04059472 0.7965476 0.90167654 0.5019699 -0.124469966 0.79768 0.56066054 -0.73199254 -0.50079405 -0.5789888 -0.5390456 -0.36200666 -0.951071 -0.16411957 -0.5995323 1.0884382 0.6180669 0.1657746 0.24379228 -1.545336
弟 0.7913013 -1.4920259 -0.35842648 -0.16027102 -0.25501096 0.558482 -0.76329523 -0.37188697 -0.019069154 1.0241824 -0.39439476 -0.007646657 0.20499231 -0.89947957 0.04155539 0.07717168 -0.9425324 -0.15286179 -0.386537 -0.41887793 0.117904045 -0.5460932 -0.12424617 -0.3106345 0.31266743 0.40732208 -0.13950442 0.4307949 1.6047028 0.8624295 -0.20643212 1.7210999 0.3451682 0.6837621 0.7474751 -0.27237684 0.40801865 0.40064222 -0.22704607 -0.74972695 -0.9668254 0.09395942 -0.5219712 -0.4271778 -1.174414 -0.10728793 -0.3256681 -0.5235924 -0.33039305 -0.9828953
至 -0.4309721 -0.39104462 -0.017311463 0.14163387 -0.28216955 1.2528994 -0.43876114 -0.35343373 -0.30341938 -1.0743409 -0.56494576 -1.0409205 -0.557497 -0.16011617 -0.87019044 0.5645596 0.48544845 -0.15427189 0.82814753 -0.46215662 1.029242 0.6280307 -0.87964463 -0.052574184 0.76019895 -0.039128527 1.7101595 -1.0269455 1.1864699 0.31319958 -0.7742171 -0.43858665 -0.5304699 -0.15301517 -0.6518807 -0.054333065 0.23852487 -0.6999313 -0.5133799 -1.6369194 0.72751236 0.16150275 0.8011687 0.14706631 -0.118795894 0.787372 -0.008551888 0.75360453 0.08083281 -0.8207939
先 1.403147 0.799582 -0.80150783 -0.04964711 -0.6457047 0.14676403 0.31334224 -0.1109981 -0.6269699 -0.1734845 0.54504687 0.8277697 -0.7730576 -0.66916686 -0.9019826 -0.16433029 -0.8766997 1.0153793 -0.20500675 0.7196957 -0.36229548 0.72749126 0.5966379 1.5740422 0.86070824 1.0206164 -0.4916258 0.50935715 -0.65214044 0.21776047 -0.22691672 -0.06476338 0.54436284 0.53310865 -0.9459749 0.07067517 0.34893727 -1.7261083 0.10584331 0.46030712 -0.20161086 0.42648026 0.15337192 0.3813593 0.68519783 0.63657844 0.6216183 -0.050327968 -0.36677182 0.36705077
师 -0.016008798 -0.35444343 -0.5298438 -1.4750736 -0.4362327 0.9423803 0.1996406 -0.33169487 0.15098518 -0.31287646 -0.049320083 -0.7677728 -0.35635453 -1.5726398 0.765978 -0.26321813 -0.02653087 -0.476875 -0.19087197 -2.1919155 1.0898113 -0.19226292 0.24776797 -0.4340678 -0.6665303 0.63789666 -0.593858 -0.41511256 1.2964786 1.4652325 -1.2003378 1.8181044 0.17050067 0.13933927 -0.032533094 0.77549136 -0.27362564 0.0034617288 0.34147316 -1.271445 0.4819697 -0.18171623 -0.94744045 -0.3918934 -1.2474226 0.6530074 0.51320535 0.24590962 0.1719085 0.507622
女 0.6039393 -0.11491025 -0.14323503 0.032959595 -0.18113948 -0.22872138 0.03453025 -0.16968073 0.15788107 -0.5777981 -0.17585662 -0.27874318 0.14803767 -0.69042665 0.15393162 -0.7225621 1.2697647 -0.16387492 -0.09042625 -0.8269637 0.009845016 -0.5268705 -0.24797942 0.9628003 -0.7765694 0.96803135 -1.2922878 0.754894 0.0150327105 -0.22041066 0.40723118 -0.6527227 0.98146886 -0.2682365 -0.25408688 -0.40613806 -1.0099174 -1.1163359 0.6423782 -0.18344247 -0.5812769 0.41171795 -0.8291706 0.41714826 -0.28879383 -0.07461358 -0.850613 0.072393976 -0.5736046 -0.8247961
多 0.3343718 0.42840746 -0.32013756 -0.32065755 0.120001055 -0.13133134 -0.8221003 -1.5166273 0.47447678 0.18860991 0.85619515 0.55630696 0.42796716 -0.9088482 0.25166962 0.16385226 0.5008663 -0.4778814 0.47515458 -0.2695818 -0.85254043 -1.1181993 -0.18372941 0.59429103 1.5859785 -0.95343727 -0.1549734 0.39167228 -0.26059192 2.3193345 0.9603672 -0.015185146 -0.22309996 0.8254834 -0.5494819 0.51465154 0.41315237 0.63211375 -0.23087347 0.6682171 -0.19815831 -1.1468279 -0.0074799955 0.032707997 -0.22882748 -0.1421161 0.28932002 1.0040939 -0.62244964 -0.56415874
忠 0.68319327 0.15610193 1.2888476 -0.3268685 0.606634 0.64824015 -0.1902359 -1.0670522 0.07971178 -0.39668104 0.1595099 0.023529608 -0.72127986 -0.41824648 -0.16243182 -0.068807594 0.7241985 -1.4994643 -0.89344525 -0.86193025 0.31835315 -0.3427875 -0.38779244 0.9706736 2.0388942 -0.48958266 -0.93801737 -0.5832003 1.5040283 0.028554665 0.70665526 0.85586125 -0.7986353 1.119916 -0.34628218 0.26076972 0.48764533 0.11695966 -1.0519501 1.4973121 0.8315524 -0.25283065 -0.7738315 -0.46728775 -0.2310302 -0.33509338 0.86793435 0.10073515 -0.21698661 -0.71488947
四 1.0992634 -2.357049 -0.29136303 -0.8326781 -1.4471155 -0.24908979 0.062577076 -0.59047097 -0.5196969 -1.7227308 -0.26135474 -0.2025396 -0.7180358 -0.08542635 -0.8811631 1.0944923 1.7409565 0.030747898 -1.947957 -0.12831323 -0.11185212 1.2064949 -0.7455888 -1.003345 -0.047002126 -0.8220377 -0.38425574 -0.2085516 0.8380853 -0.2574344 0.11349759 0.18214567 -0.17990167 1.6585625 0.5353489 0.2117629 -0.80972314 -0.9044455 -0.22446199 0.67067325 0.7588901 -0.6144962 -0.7126696 0.038902927 0.4961453 1.1046209 -0.6966851 0.641931 -0.37363788 -0.4181523
疾 0.49305615 0.17459719 1.0202408 -0.07343028 0.03533938 0.3677098 -1.5863774 -0.39299864 -0.5676908 1.3434638 -0.23695539 -0.39542848 0.6515679 -0.44176173 -1.1028725 -0.40623954 -0.85734373 -0.20676175 0.24454719 0.8372429 -0.10796898 0.78469807 -0.41510954 -1.1251165 0.44422594 0.2849471 -0.23940031 -0.340938 1.2109779 -0.42872313 0.98440325 -0.10041402 -0.40123326 0.022590334 1.3364968 0.21423826 0.058678646 0.52581346 -0.51855665 -0.025778739 1.5103264 -0.62055653 0.123395994 -0.0069260057 -0.7855392 -0.3284169 0.40809646 -0.07772648 0.48222497 -0.5532801
服 0.49370798 0.2808015 1.4096202 0.2440512 -0.56188214 0.10171619 0.27282688 -0.6175411 -0.19040133 0.08616155 -1.2923615 -0.6664366 0.53356326 0.46388027 0.2169367 -0.006781491 0.8602623 0.33486083 -0.9029944 -0.45957175 0.89195144 0.45773458 -1.6217439 0.47348028 0.8276371 -0.64041173 -0.85893166 -0.6032865 0.68843204 -0.053677574 0.868373 0.04801546 -0.9738368 0.2619119 -1.2073836 0.376806 0.6993468 0.50964975 -0.82379454 -0.4021096 -2.3339648 -0.57540256 0.8128967 0.12516706 -0.12632509 0.32838812 -0.32778713 0.29945487 0.43687063 0.021406146
氏 0.1749207 0.051421545 0.005873738 0.8538981 -1.8151772 -0.37668613 -0.48355561 -1.3939509 0.12364292 0.3377332 0.71817154 -0.055673357 -0.6817613 -0.7511174 0.185299 -1.6919159 -0.2036802 -1.2368233 -0.4387292 0.50266206 -0.32760465 0.9816447 -1.2402599 -1.9072328 -0.48018083 -1.3264799 0.07426661 -0.93747306 1.5597519 -0.35112676 -0.9956062 -1.5050988 0.44808236 0.42758605 0.30046082 0.09876352 0.97185063 -0.68303907 0.06625664 -2.224141 1.2498254 0.5916218 0.32985824 0.78610355 -0.9185746 0.6244853 0.7822467 -0.46308362 -0.14022379 0.7000135
冉 0.8061832 -0.064479165 2.4779081 0.39948708 -1.2083341 0.04913247 -0.55441016 -0.08971527 0.504328 0.9445637 -0.028567297 0.12184054 -0.7311995 -1.1332694 -1.0078591 -0.1725305 0.3097556 -0.17386608 1.1907936 0.045010947 -0.14345314 -0.5252652 -0.5610472 -0.17137979 0.010392335 0.012042886 0.07712717 1.1380539 0.5650012 -0.1428617 0.60036635 -0.46151468 1.5472139 0.4364629 0.019178461 0.87184733 0.7590569 -0.6148235 -1.0148151 0.034540027 -0.044026185 -0.09939236 0.14852488 0.14678551 -0.64336854 1.0890936 0.38969648 1.1626682 -0.6937974 1.3583978
将 0.21839386 -0.34454107 0.8427589 -0.05428638 0.079879045 2.2160478 -0.759998 -2.0196574 -2.1138034 -0.07946444 0.14939426 -0.8724804 -0.30473888 0.89732057 -0.13216785 -0.48210198 -1.2967825 -0.12718828 9.306404e-05 -0.3034392 0.358243 0.6610769 -0.8644928 -0.5900264 1.0501742 0.7676517 -1.1849201 -1.9510165 0.6861848 0.40837634 0.3882502 0.37881207 0.0361083 -0.28265062 -1.0890945 0.7295255 -0.74994785 0.33921072 0.55515504 0.7927095 -0.32451174 -0.10422051 0.7942988 0.40155467 -0.37394646 0.87934816 0.91211885 0.4602452 1.0410883 -0.038795616
士 0.73081577 -1.0115459 0.4032431 -0.79692364 -0.33539587 -0.39901993 0.74699587 -0.052695137 0.10675241 2.2386384 -0.14721154 -0.54320794 -0.9889294 -0.7423402 -0.7309761 -1.374322 0.14689995 0.6778325 0.593437 0.40959182 0.030685233 0.5485114 0.63317555 0.09083715 -0.500362 0.3704035 2.1279247 -0.4970392 -0.42658544 0.67999643 -0.16347013 0.72224855 0.4145967 0.74149925 -0.50969666 0.6139932 0.59646404 -0.096878715 -1.7734869 -0.85338235 0.18521084 0.34359154 0.3567359 0.2119967 -1.604898 -0.73655385 0.62221175 -0.001876812 -0.5286717 -0.96890354
丘 0.5053002 -0.2565211 -0.10404986 0.020949526 -0.17005864 0.6178279 0.16851783 0.5444485 -0.73892486 1.677761 -0.66113335 -0.61461395 -0.25947514 -0.4940185 0.33248216 -0.1169308 -0.25006023 0.30532992 -0.8956882 -0.346563 1.0562639 0.7751892 0.6092972 1.070962 -0.9865203 -0.51654834 -0.17580038 0.33867228 -0.5322086 0.77904147 -1.5034432 -0.5914807 1.1485542 1.5792704 0.2623206 0.28836897 1.6188012 -1.1776257 -0.55449975 -0.64621985 0.5168126 0.5722689 -2.1108713 -0.39313763 0.15524061 -0.39788318 -0.111200765 0.5811778 0.5765393 -0.043932397
身 -0.12926328 -0.826698 -0.07627096 0.4162381 0.36160594 1.5922202 0.3663545 -0.087168895 0.29863146 1.4366201 -0.19059289 -0.07252707 0.118690684 -0.9047925 0.8889822 -0.36389613 -0.57309306 0.27850944 -0.14738812 0.37725616 -0.25548366 0.54191184 -0.04410798 0.32401925 0.67477155 0.70168364 0.17868878 0.61063254 1.1443595 0.3825175 -0.37663612 -0.79726 -0.27517706 1.3621058 -1.0896595 -0.73306316 0.055414535 0.25192425 -0.7867105 0.13971454 0.0131339235 1.0862516 0.3869129 0.3491915 -1.3203597 -0.81896037 -0.92568064 0.34511617 -0.21302822 -0.6706557
入 0.536695 -0.17634644 -0.5819099 0.91242033 -0.5531913 0.24716838 -0.23982328 -0.6759725 -0.035858303 0.60299665 -0.37465298 -1.0786045 -1.4264176 -0.8143842 0.20869774 -1.0412939 1.521122 -0.18974927 0.14267956 0.02218376 0.51050067 0.7499132 0.24853063 -0.15320629 -1.3148209 -1.0579065 -0.1906273 -0.86274856 -1.2075846 -0.39519015 -0.75325876 2.140837 0.8282419 -1.1334331 0.12290521 0.83796805 0.53182775 0.14326005 -0.88401484 0.3299922 -0.13443692 -1.7740151 -1.4282396 0.17914005 -0.36354876 0.55653435 -0.8520137 -0.56698203 0.88890237 -0.053519286
志 0.24450162 -0.7003572 0.07860245 -0.91344744 -0.9480424 -0.022078454 -0.27587044 -0.7983191 0.72761214 -1.757814 1.189533 -1.8802366 -1.2046093 -1.3121358 0.72899246 1.0370663 -0.13610443 0.2243597 -0.011976119 -1.2819006 0.09794726 1.247284 0.058442917 0.79986197 -0.9710333 -0.87790334 0.16446808 -0.74248177 -0.014804042 0.05639179 1.5762221 -0.6007703 -0.24095087 0.41913578 -0.42329475 1.2894064 0.20014247 0.13069344 -0.46036 -1.3866531 -1.42269 1.0913222 -0.7645659 0.8390816 -0.8655435 0.17449829 -1.2811795 1.3132466 -0.90739244 -0.81914026
耻 0.6397942 0.6965579 -0.17572086 0.90446186 0.5639394 0.12950963 -0.81396693 -0.7658277 -1.5057927 0.49938354 -0.48952752 -0.1193175 0.2563575 -0.28325108 -0.7266815 0.72745997 -1.9192538 -1.2251934 -0.41973153 -0.15843695 0.4534605 1.3082404 0.9817902 0.95105135 0.03642366 -0.5501941 -1.1275399 0.13152006 0.25909865 -1.0563791 -0.004898226 -0.3710989 -0.85561335 1.216496 0.14481133 -0.31369647 0.33488768 0.6784933 0.626632 -0.5364433 -0.35546932 -0.0129922815 0.19076462 0.38033193 -0.23093867 -0.98923135 -0.44905803 0.1050225 -1.6600505 -0.38132116
失 0.6939373 0.2257002 -1.2265345 -0.06467594 -0.46673763 0.3966616 -0.5176256 0.33294758 -0.1458294 -1.280634 -0.44003105 -0.05325522 -1.9422218 0.18651025 -1.2583021 -0.23724058 -0.530308 0.30162308 0.83351046 0.18828824 0.92576414 0.21852882 0.056668364 -0.12718567 0.25261164 -0.6115707 2.2644496 0.09724762 0.25071657 -0.6000946 -0.2459333 0.06492315 -0.17431153 0.3777238 -0.93670696 -0.8572893 1.2288722 0.3767668 -0.850993 0.15173334 -0.4995168 -0.8643071 0.41309184 1.275147 -1.390794 -0.6692545 -0.16540302 0.13719608 0.57791495 -1.8825022
安 -0.068116 -0.4056338 -0.14188385 -0.20766562 -0.30338627 0.12079951 0.020229133 0.03480785 -0.5429173 0.05938459 0.7117318 0.2352388 0.16744791 -0.83937454 -0.5897092 1.2055359 0.061672244 0.75843596 -1.0436653 -0.16465397 0.4423484 0.4896671 -0.17120533 -0.08769434 0.28909636 -0.43705273 -0.5949134 0.017667726 0.28368995 -0.20529354 0.052357055 0.9220506 0.79556835 0.16238524 -0.22210546 1.0101714 0.031486645 -1.1145431 -1.1840637 -1.1961379 1.7630652 -0.79049146 -0.5148324 -0.21136306 -0.54259694 0.20247777 -1.2362753 -0.6433094 -0.10186288 -1.2573081
富 0.11971317 -0.8069803 -1.0828741 0.012278903 -0.074119 1.1654724 -0.118394226 0.41037974 0.07193404 -0.25888333 -0.43031514 -0.16720332 0.07732628 -1.1469917 0.028979637 -0.1272536 -0.4381911 0.6522329 -0.65559036 -0.2566645 -0.70979697 0.5778813 -0.21910484 -0.52935296 0.20754741 -0.21667124 -0.9066575 0.07234173 1.1660649 0.28653964 0.92256504 -0.09528999 -1.1390406 -0.42172942 -0.63534164 -1.0506321 0.09169596 -1.0839808 0.03509138 0.013909759 -0.78808403 0.8221379 -0.032232493 -0.19012119 -1.4034637 -0.99945474 -0.97465456 0.53021485 0.05156005 -0.023486327
赐 -0.107597716 -0.32754275 0.8499544 -0.3126208 -0.7184818 -0.27611238 -1.3336334 -1.6099002 0.63524675 -0.32331812 0.9644795 0.5626113 0.55707884 -0.18626936 -0.0024125585 -0.57501936 0.1668084 0.49413645 0.61633635 -0.28272167 0.019472158 0.36732912 0.41887608 0.617853 -0.109649405 -0.56016237 0.082327425 -0.05558987 -0.38472146 1.0193508 -0.12541564 -0.22898585 -0.34384608 0.10614287 0.66912407 0.77946323 1.03711 -1.1838279 -1.1749505 -0.047811378 0.13671948 0.8000498 -1.8820378 0.40728828 -1.256438 -1.1415886 -0.09620198 1.2894832 0.06588996 -0.6753638
患 -0.22345208 0.1495689 0.24249266 -0.74873215 0.14629164 -0.13969243 -1.4045929 0.10715741 0.13078132 -0.28902584 0.9834689 0.59119844 -1.0905142 -0.9979412 -0.8173475 0.13517275 -0.71121055 0.18750855 -1.280395 0.39180887 0.9811096 0.23988046 -0.45115727 -0.45744783 -0.66130507 -0.47736737 0.41792923 -1.2013448 0.85577035 -0.5322334 0.94675124 1.0551344 1.1350123 1.4358202 -0.29207462 0.27044845 0.2181912 0.62934554 -0.45215935 -0.3204893 -0.9143444 -0.8246006 -0.184487 0.4898098 0.13785985 -0.6695042 -0.37989125 0.22914375 0.35118675 -1.1901767
百 0.8656956 -0.90343213 0.697741 0.6697304 0.2403294 0.46633196 -0.118298784 -0.72038203 0.12924723 0.89400595 -0.44137433 -0.07569997 0.87929755 -0.7388192 -1.6259016 1.0323372 0.9770548 -0.55759835 -1.2705035 0.09835048 0.32844588 -0.29883662 -0.4678334 0.2841064 0.1856915 -1.2900233 -1.4424982 0.66875625 -0.12757683 1.5011166 0.2169472 0.240604 0.003940395 1.1752529 0.08721161 -1.2835273 0.7478212 -1.2344662 0.96152955 0.3145172 -0.34103352 -0.5684217 -2.1209433 0.43320745 -0.06612964 -0.2615415 -0.6699453 0.38068825 0.7376554 -0.011199772
回 0.11719277 -0.76342577 -0.61698186 -0.6350633 -0.18833812 0.67050713 -0.8822441 0.09312477 -0.8891849 0.85850304 0.46980932 -0.19030643 0.6343786 -0.9957231 -1.2099496 -0.9256795 -0.2118617 0.03505017 0.107838474 1.5966835 -0.23633169 0.7673519 -0.025664784 0.3919453 0.074233346 -0.7055127 -1.3180164 -0.36507556 -0.3655143 -0.05960341 0.047699243 1.164943 0.51936054 1.2063456 1.0716048 0.16209431 0.5856653 -1.6375849 -1.8393524 -0.88580596 -0.38890043 -0.8922179 0.29335943 1.1214936 -1.9148867 0.664499 -0.46994597 -0.34577286 0.78079575 -0.0512868
宰 0.91262496 1.4344369 -0.029880513 2.069145 -2.2090764 -0.5037833 0.31812778 -0.15322334 -0.020316305 0.4260069 -0.60030013 -1.3990766 0.042693768 0.48249933 0.3034578 -1.2330805 0.6332054 -0.1179924 1.1465824 1.2006019 0.03340735 0.15737543 0.7816358 0.07586343 -1.4917579 -0.18750843 -0.6926841 0.32891944 0.4317441 1.9246247 -0.8628625 0.51081574 1.028871 -0.43467772 -0.25852296 0.6446751 1.0981491 -1.0552733 0.14312549 0.36467576 0.018057145 0.027094042 -1.0025029 0.05074557 -1.3710858 -0.16776289 0.46878338 0.49407294 0.8210161 -0.26818976
朝 0.41367283 0.4732038 -2.0455234 -0.08555139 -1.5350817 0.032258198 -0.41310358 -0.6490574 0.33589366 0.47804272 -0.5216338 -0.8667432 0.9268115 0.89720595 -0.033379685 -0.53012115 -0.9740036 0.04852087 -0.5985046 0.467105 1.2467985 -0.6548296 -0.051091094 0.3186266 -0.5349695 -0.4658249 -0.29354888 0.23081557 -0.13671666 -0.006624462 -0.41671932 -0.9210637 -0.16525799 -0.12822434 -1.0335885 -0.5958737 0.33361483 1.3467947 0.3068461 -0.41365913 -0.8166211 0.75086516 -1.921442 -0.3414603 -0.13926575 0.19205044 0.43599898 1.6980144 0.28192025 -0.73978925
莫 1.3166511 -0.038762394 -0.09756122 0.040080223 -0.25075412 -0.86880195 -0.96546745 0.6864566 0.38729164 0.96165925 0.6183456 -0.5103675 0.62695503 1.9726154 -0.7421564 -1.5616332 -1.4718783 0.67922103 -0.34739974 1.5027381 0.05544043 -0.12694848 -1.0540826 -0.94966376 0.5528031 -1.0770036 1.3198318 1.1382304 0.534619 0.40521806 0.70846844 0.38259175 -0.90197736 -0.7746184 0.26410842 0.44995022 1.7449248 -0.3002392 -0.8385337 1.1777512 -0.47241834 0.35993588 0.15656358 0.12819111 -0.59213245 -0.67073774 0.67564625 -0.24924658 -0.41272354 0.35237905
若 -0.07760114 0.5165604 -1.0756073 -1.0282197 -1.0377668 -0.0054477584 -1.1382589 0.6746448 -0.3650157 -0.554445 0.6305489 0.5270448 0.50701576 -0.95485187 -1.189325 -0.87646073 0.071836054 -0.60718036 -1.3194444 0.7724556 0.040292487 -1.0018704 -0.25831532 -1.2994044 0.77510095 0.9197991 -0.7134545 -0.7200255 2.0410004 -0.5658789 -0.01108446 -0.14882876 0.11663618 -0.86925715 -1.4630407 0.041614138 0.046472948 -0.45908672 0.72302395 0.21920493 0.24799539 -1.0347106 -0.47934252 0.728359 -0.3429111 0.46663707 -0.26516476 -0.6901916 -0.27273637 0.5533325
云 -0.5982094 -0.1666128 0.44398218 0.23330224 -0.13403144 0.41757736 0.4120497 0.00798519 1.1256775 1.8054808 -0.97695696 -0.42018926 0.3584868 -1.4491134 1.1369905 -0.010971293 -0.40706158 -0.28058195 0.27687585 0.74270725 -0.5414642 -0.21381667 -0.1981577 -0.43751314 0.29780498 0.23015225 0.21586084 -0.258024 0.9271948 0.18882011 -0.41254118 -0.31472555 -0.18252695 -0.74774086 -0.25431433 0.23806523 -0.14406838 0.613291 -1.2794136 0.07550417 0.79933053 -0.4556408 -0.1850236 0.26541868 -0.7717081 -0.028553344 0.46076992 1.5420623 0.42579433 -1.3855805
孙 0.24645177 -0.19170044 1.2943472 0.23189066 -1.0452094 -0.11043704 -0.6307555 -0.6889143 -1.1282469 0.6120952 -0.2526934 0.050368767 1.0534941 -0.79905635 0.50655395 -1.3927861 0.30017236 -1.2197629 -0.7476275 0.26206622 0.39973328 1.5990393 0.36857882 0.18167 -0.41558653 -0.45018086 -0.65483475 -0.009130967 0.3651337 -0.51627177 -0.5302672 -0.079795025 0.19609304 0.39250192 0.2799697 -0.08529955 1.0172602 -1.2740263 0.06510414 -0.028127082 -0.2534066 -0.6005431 -0.8009218 0.2956982 -0.87158245 0.6565583 1.6102573 -1.0993435 -0.24533097 -0.5986086
或 -0.18885727 1.4246831 -0.35554075 -0.18704341 -2.0663364 0.36294398 0.29752097 1.7563319 0.20487042 1.8496361 0.5995777 -0.5324746 -0.38674736 -0.2712193 -1.1494473 -0.3876937 -0.36512122 0.37451452 -0.3509191 1.3769397 0.3240253 0.8942743 0.5548601 1.954386 1.0334432 0.9019028 -0.43649745 0.31663775 0.2676423 -0.82324284 0.5416932 0.35721442 0.100431785 -1.1580335 0.04096471 0.555728 0.96448505 -0.18469405 -0.4833552 -0.13590765 -1.1466492 0.055358395 -0.8734657 -0.016956279 -0.4266726 -1.0946685 -0.8511186 1.4523113 0.90334123 1.2980138
勇 1.0173608 0.66823375 -0.2659945 0.28480136 1.0155841 0.18208182 -0.071047865 -0.7391412 -1.0031949 -0.9688942 -0.61779886 -0.06381092 -2.271255 0.27295303 0.44292817 0.12059233 -0.23083797 1.2908058 -0.79004174 -0.8271893 0.70638186 -0.9356379 0.984214 -0.15833318 0.14891477 -0.52617157 -0.57644445 -0.18154249 -0.72267604 -1.3536865 0.52290916 0.7619533 -0.22764702 0.28046218 -1.2150515 0.4967989 0.038525328 -0.90965337 -1.9498203 -0.28042853 0.7353381 -0.19062208 -0.08088818 -0.18065566 -1.3290619 0.41097283 -0.25058165 0.9438796 -0.08684395 0.68642735
孰 -0.09053971 0.09621762 0.5517963 -0.45654875 -0.043282293 -0.23178917 -0.62081325 -0.10703465 0.2356287 -0.0395144 0.30545607 -0.06582709 -1.5138665 -0.19468634 -1.5186076 0.46568364 -0.14887892 -1.6667528 1.085758 0.83121425 0.6351243 0.37571633 -0.4867932 1.219531 0.3964352 -0.46616971 1.1286476 1.7072939 1.1662563 0.19863877 0.10653718 1.1712046 0.40870646 1.3939263 -0.13638525 -0.44550726 1.0383798 0.35217813 -0.7336219 -0.27757993 -0.660086 -0.16763063 -0.5669898 0.25159442 -1.9816799 1.1819144 0.45509982 -0.46187383 -0.7002985 0.51460063
叔 -0.111311875 -0.7902824 0.6471368 -0.04965806 -1.9854703 -0.01924225 0.82274795 0.16731472 -0.3543529 0.7409227 -0.7050135 0.38120267 -1.4280978 0.23462598 0.7381794 0.03340598 0.2833079 -1.4785929 -0.08460578 0.3773666 0.7834542 1.0180321 1.3307588 -0.86574394 -0.6829251 -0.37985095 -0.19137123 0.736657 0.14214006 1.3911731 0.15437555 -0.19906738 0.0994123 -0.4074076 -0.06691498 -0.023401061 0.2325861 0.8737879 1.403117 -0.5176281 -0.05672675 0.65578806 -0.5201142 0.84224916 -1.1164699 -0.32526723 0.67149013 1.0317379 -0.47220278 0.6512104
渊 -0.29841647 0.98164904 0.65419966 0.10883216 -0.63458914 -0.05805427 -0.6703493 -0.6552677 -0.24683467 -0.11163331 0.039240755 -0.21018746 -0.09879442 -0.35755304 -0.8812991 -0.71268904 -1.2150635 -0.78285164 0.4376313 0.30733192 0.8557511 1.1230861 -1.056323 -1.2527579 0.35258427 0.09704381 -0.07489613 0.39708337 -0.44205552 -0.61878186 1.5585247 -0.652413 0.31850055 0.44817492 -0.2132548 0.24958403 0.19350778 -0.61075747 -0.0699236 -0.017217085 -0.9511676 -0.58820224 -0.7287829 1.2658825 -0.927072 -1.2823411 1.9247149 0.07330386 0.2060909 0.34577137
