1352 50
， 0.08581277 -0.14854273 -0.13590989 -0.35696673 -0.50754076 0.040519264 -0.1965352 -0.4551159 0.11134112 0.2312514 -0.22102153 0.11588993 -0.04093056 -0.24969174 0.33658653 -0.014913768 0.4936503 0.06756096 0.43997064 0.10453 -0.026516173 -0.30713338 0.0744147 0.8988433 0.8721393 0.06456118 -0.036534473 0.15146972 -0.39923924 -0.09518111 0.08809405 -0.04729069 0.05171201 0.4475069 -0.05881426 -0.084203735 -0.16161738 0.17444512 -0.39522028 -0.33557323 -0.017519196 -0.40812364 -0.05517795 0.12705012 -0.19750509 -0.46788526 -0.16011274 -0.028865367 0.20375207 0.61346847
子 -0.26347226 -0.37634066 -0.86253417 -0.019230755 0.7223629 -0.019847648 0.009582249 -0.1883089 0.008461079 -0.07468282 -0.1720104 0.050233707 0.46590927 0.06439737 -0.0218134 -0.441547 -0.35704824 0.2893405 -0.020413358 -0.37689567 0.09054102 -0.0184944 0.15287872 0.4736892 0.16288666 -0.0004034252 -0.30371198 0.04614394 0.040046673 -0.38621074 0.08291539 0.01313076 0.11247136 0.038241513 0.12642458 0.3365867 0.027807787 -0.08842437 -0.10963558 -0.11848546 -0.4334697 -0.19989237 -0.11370392 0.33205995 0.2691688 0.03037522 -0.14640704 0.35228068 0.05475754 0.0011944249
。 0.03243161 0.24702176 -1.4071133 0.010340796 -0.04985406 -0.16364679 0.24698333 -0.075981356 0.18309268 0.112817384 -0.122260325 0.055625726 -0.3053185 0.33272883 0.35015294 -0.26156238 0.14216661 0.3954364 0.39268005 -0.37363306 0.3048963 -0.091315076 -0.015456719 -0.36582893 1.1034278 0.0752732 -0.099427655 -0.24379498 0.003802893 0.09124079 0.22671318 -0.22062396 -0.09230949 0.15339151 -0.25195596 0.34176624 0.08251691 0.32067683 -0.049756493 -0.34312603 0.20621464 -0.010401053 0.0026363009 -0.18055055 -0.4587398 0.11034041 -0.13332546 0.16811205 -0.24212615 -0.09037192
： -0.19756925 0.09991337 -0.1532216 -0.07064677 0.40575343 0.002381889 0.29354414 0.14292057 0.44161296 0.015650617 0.055730686 0.068699345 0.17689018 0.25134647 -0.17281507 0.2333046 -0.33823606 0.02835949 -0.07570083 0.24262978 0.031427715 -0.15184979 -0.01839923 0.50259197 2.0304458 0.09392217 0.3657492 0.3918249 0.21970254 -0.3222458 0.13913797 -0.036197875 -0.11246202 0.33799133 0.03772641 0.081281394 0.30943894 -0.15496881 -0.22791407 0.3063938 -0.23207241 -0.07299329 0.24154972 0.06370613 0.010993903 0.03743913 0.24491821 0.69924957 -0.024166415 -0.13550355
曰 0.14448626 -0.19045933 -0.60651255 0.004128034 0.54401135 0.042885356 -0.11870023 0.007179993 -0.08145025 -0.13100344 -0.0844707 -0.15089995 1.0211269 0.008757208 -0.102265015 -0.73643035 -0.29735512 0.5155683 0.12354505 -0.027494118 -0.39185292 0.39059764 0.4943181 0.11947444 0.71899104 -0.1683595 -0.001986948 -0.10492911 -0.078510255 -0.7250574 0.07287367 -0.20949426 0.1729564 -0.25581855 0.018564759 0.22293362 -0.23039801 0.001503441 -0.17559403 -0.40869722 -1.3106393 0.20897585 -0.24797824 0.113320686 0.31002718 -0.024812236 0.09987653 -0.22173364 -0.0016174696 0.25407788
之 0.0870149 0.20117143 -0.8225424 0.009164625 -0.4155449 -0.30573508 0.003442716 0.13709976 0.20607397 -0.15182678 0.15439852 0.08075792 0.32925183 0.15201423 0.35433924 -0.4329054 0.14172821 0.03370216 0.311947 0.39628598 -0.08839859 -0.1762266 0.023260709 0.3108736 0.12278388 -0.038448706 -0.30355933 0.16855717 -0.5153991 0.4642298 0.05367842 -0.09106978 -0.050187036 0.30536616 0.1655235 0.41800874 0.14439052 -0.07143709 -0.18973863 -0.21218139 0.12993896 0.45758536 0.26367697 0.36171067 0.27891022 -0.5095898 0.45926982 0.2271921 0.088994935 0.1969136
不 -0.15261604 0.15952341 -0.13546391 -0.10969426 -0.7525943 -0.16254301 0.12123582 -0.110911995 0.043792434 -0.24641678 -0.3560009 0.2583716 0.27846405 -0.09287952 0.24137965 0.040893827 -0.06029273 0.39823428 -0.1877708 -0.4572892 -0.04212813 0.20075454 0.034542594 0.54061484 0.04442492 0.08465998 0.05978906 -0.10605949 -0.2877243 0.5863731 0.16787484 -0.11424845 -0.053252764 0.16714102 0.00033096562 0.030609652 0.31246606 -0.09967452 -0.06310797 -0.31314152 -0.7511153 -0.08611611 0.096781746 0.01562561 -0.21136737 0.22698143 -0.0064754086 0.62644756 -0.12919863 0.122264326
也 0.32002753 -0.1387918 -0.48442775 -0.32220507 -0.68084586 -0.28847227 0.3211121 0.4715123 -0.26197547 0.23209155 -0.15174884 -0.06417247 -0.18263192 0.16746147 -0.020178175 -0.74489397 -0.23969243 0.21168168 0.7140244 -0.22938514 -0.018436763 -0.26804382 0.13406011 0.58262235 -0.36716342 0.24412984 0.42159835 0.03864563 0.10333654 -0.31053686 0.0438309 0.004557436 0.26718232 0.349773 -0.033412106 0.036401432 0.12836124 0.16918579 0.13242412 0.007579275 0.07798071 0.45568255 -0.29908943 0.08310225 0.107980594 -0.2708814 -0.13189574 0.5375457 0.3791839 0.14176472
而 -0.53320926 -0.8898246 -0.17765346 -0.3629722 -0.8012544 0.12179877 -0.50713956 0.18814427 -0.39721557 0.21230353 -0.36769632 -0.09870613 -0.027577791 0.035909183 -0.100809686 -0.05444114 -0.18880524 -0.11893473 0.14001885 0.20450513 -0.2790452 -0.14056057 0.18713827 0.14622088 0.71258295 0.24997123 -0.16259713 0.028691955 0.11818678 0.10671972 0.15857458 -0.24506913 0.07548734 0.31907755 -0.3522998 -0.20716305 0.4313442 -0.43116 0.1646049 -0.14607485 -0.16859676 0.40632352 0.093476824 0.06490156 0.47421068 0.083076015 0.06412483 0.18343684 0.13333662 0.22092468
？ 0.13942692 -0.39570007 -1.079828 0.10511798 0.015377587 -0.19019458 -0.13959035 0.13285655 0.5212613 0.1126931 -0.3999892 -0.12690961 -0.4368723 -0.0479073 -0.08173346 -0.6982107 0.08479923 0.3255659 -0.40275016 0.6044051 -0.22387485 0.2614314 -0.114709385 -0.1036975 0.9970783 -0.5480904 0.18113579 -0.09100734 -0.20092925 -0.0060565206 0.103493385 0.32053474 -0.47456104 0.28202295 0.013751585 -0.22656123 0.30057025 0.040813264 0.22190337 -0.15044267 -0.41412377 -0.48567456 -0.007598982 -0.10190367 -0.23253816 -0.16736706 0.22734104 0.024762323 0.2069734 -0.22751243
其 0.26214635 0.22089826 0.2036605 -0.047650266 -0.53239965 0.23793335 -0.25286877 0.23295869 0.029943872 0.10344887 0.12101422 0.052822407 0.36458334 -0.061773747 -0.092994265 -0.6340219 -0.07198521 -0.052772697 -0.45988557 -0.46757847 0.0024043804 -0.29322866 0.25355083 -0.0120633915 0.30482563 0.32608062 -0.46350634 0.29242355 -0.16858491 -0.62776256 0.7852551 0.061003458 0.14628756 0.32521933 -0.06897836 0.19716118 0.49585047 0.09791328 -0.1018235 0.10693287 -0.39914438 -0.08668813 -0.15212084 -0.056333568 -0.34621733 -0.38238874 0.07832059 0.5016501 0.15187721 -0.40158793
人 -0.30704004 -0.03453707 -0.44710982 0.29570723 -0.27986282 0.25988 0.2549603 0.27256194 0.22130567 0.31096607 -0.33661604 0.15453765 0.013229586 -0.19443518 0.27601296 -0.17559992 0.20388322 -0.23631373 -0.21325311 0.1253567 0.27153096 -0.10503658 0.544134 0.5338097 0.16991642 -0.40867668 0.086208396 0.0676953 -0.17067274 -0.5838374 0.17639573 -0.20805582 0.27021506 0.17872702 -0.16101217 0.5988611 -0.324127 0.09402191 0.033264924 0.1770969 -0.13014486 0.26175043 0.32381412 -0.007382598 0.667141 0.22884388 -0.023086859 -0.01969689 -0.13871779 -0.4959985
者 -0.19382833 -0.11342471 -1.0485293 -0.19637728 -1.0037385 -0.17914748 0.097281076 0.0833935 -0.32183197 0.22584324 -0.21052045 -0.12138461 -0.4789894 -0.019156804 -0.15615602 0.01207666 -0.03369952 0.3969607 -0.7613569 0.3122837 -0.11608676 -0.010668692 0.4135399 0.19044358 -0.16173631 0.19011152 -0.1325414 0.20654954 -0.26714647 -0.4052051 -0.032786056 0.40119615 0.4516238 0.057912342 0.44750372 0.26547658 -0.21776491 0.07400735 -0.09865341 0.10478566 0.28505582 -0.22470725 0.23996285 0.40848562 0.007879821 -0.38032246 0.27459684 0.6318629 -0.064999685 -0.079901144
以 0.27997145 -0.23362483 -0.7528501 0.41775006 -0.72962654 -0.27373627 0.34151113 0.38639402 0.111608125 -0.04877177 0.17346987 -0.035498485 0.2694402 0.1785246 -0.0061836685 0.5600894 -0.25868535 0.18569678 -0.24420932 -0.8286323 -0.32862577 -0.11849554 -0.24443613 0.689624 0.27908298 -0.06448161 -0.38475978 0.38043082 0.18676086 -0.09959874 -0.2872486 0.34476852 0.16767734 -0.32410097 -0.13627163 -0.33359426 0.6082751 -0.11106671 -0.047094516 -0.038065575 -0.62820345 0.14166164 0.21360512 0.08350457 -0.102514036 0.044596136 -0.55363274 -0.0751858 -0.20216084 0.18085869
有 -0.15925871 0.24341683 -0.24250686 0.5647906 -0.47059792 0.15954147 -0.054025423 -0.3918678 -0.015788363 0.080904104 -0.2756116 -0.606726 0.64127386 -0.0014281613 0.16302924 -0.42881367 -0.19559339 -0.15413211 -0.4392276 -0.14608781 -0.12443326 -0.7082995 -0.15134661 -0.061144825 0.2579454 -0.22908553 0.45730433 0.2620562 -0.13716915 -0.4900349 -0.56902105 0.20350975 -0.010047987 -0.48988876 -0.21742128 0.21298581 -0.12902807 0.24883346 -0.19721593 0.10184173 -0.54963315 0.08327657 0.48686376 0.0009435243 0.06053143 0.18127 -0.03515859 0.63684154 -0.028295983 0.0070444113
于 0.027410794 0.1432445 -0.2156069 -0.04431967 -0.46079296 0.18686229 0.021563793 -0.46583828 -0.12994589 -0.22013052 0.075651 0.4438449 0.84652954 -0.2627296 0.07422944 -0.30880502 0.45770732 0.6490957 -0.07794993 0.11185424 0.26556087 0.06789335 -0.08702664 0.23975675 1.0259514 -0.19796205 0.21094473 -0.023265503 -0.0022523266 -0.71271634 -0.14434953 0.17402826 0.65061414 0.43175045 -0.035956416 -0.52985144 0.426938 0.25985268 0.28306976 0.27862602 0.3531063 0.47924855 -0.3833823 0.9519873 0.047157213 0.053259686 -0.25584173 -0.010020639 -0.16453801 0.11097172
矣 0.5660496 -0.02897219 -1.4845958 -0.74337745 -0.06255732 -0.22185537 -0.47905394 0.7272778 -0.2589975 0.54303384 0.113806926 -0.030471023 0.6542804 -0.59321827 0.6440923 0.011445969 -0.46158302 -0.042221393 -0.3097427 -0.25429943 0.23046754 0.123228334 0.8383935 0.92296636 -0.13803504 -0.2608666 0.25568935 -0.1985423 -0.01135043 -0.35964662 -0.09196112 -0.36489603 -0.24143648 -0.16725866 0.12926003 -0.3736199 0.52002615 -0.122158 -0.032982334 0.15471506 0.17049219 0.274755 0.16734475 -0.8020338 0.015790815 -0.41542375 -0.03215093 -0.007149992 0.182753 0.22556782
为 -0.44947383 -0.24778903 -0.4773528 -0.11915386 0.2975593 -0.22785564 0.07615294 0.38720533 -0.10368065 -0.056146134 0.00045390613 0.5613887 0.3315308 -0.5294686 -0.32869714 0.115578555 0.17785917 0.24085318 -0.14600778 -0.9466609 -0.85916734 -0.0995547 -0.06904758 0.39820635 0.70881116 0.37886447 0.40289897 -0.19192752 0.1437075 0.2655081 -0.47546956 0.38629785 -0.12925239 0.11334302 -0.06109892 -0.34039944 -0.066162705 -0.0030395335 0.36130795 0.2641986 -0.15827523 0.19300354 0.016967278 -0.13577284 0.3786525 -0.72962934 0.032674715 -0.021478536 0.03336004 -0.44768095
君 0.13006121 -0.18836989 -0.63799524 0.052476704 0.18277596 -0.19866177 0.0032072477 0.042065747 0.3928746 -0.12831257 -0.6686012 -0.45157024 0.79433644 -0.16817021 -0.15148406 -0.31054008 -0.3555723 -0.15673456 -0.03384166 -0.6793378 0.29276723 0.3977239 -0.4992793 0.34266773 0.23703574 -0.28608754 0.36447132 0.060143575 -0.05185396 -0.54809 0.63084596 -0.21504927 0.09652894 0.19364569 -0.20449544 0.21261548 -0.26014617 0.1585901 -0.20337255 -0.2142524 -0.5656944 0.4012775 0.103452995 0.105507046 0.4118734 -0.6828735 -0.23141615 -0.11822892 0.05376554 -0.3267115
乎 -0.07689606 -0.72777754 -1.2477559 -0.27933097 -0.58359843 0.42805722 0.2143924 -0.18474191 0.37896398 0.3311772 -0.051580664 -0.10253431 0.36927915 -0.074235246 0.5239291 -0.21508156 0.20591338 0.044704285 -0.26905867 0.59209543 -0.20385963 -0.1390326 0.5163375 0.44324118 0.006307195 -0.23581831 -0.05551596 0.010780207 0.7362083 -0.3247059 -0.3044224 0.17547038 -0.14084016 -0.39094424 0.2396335 -0.3029436 -0.1620595 -0.16891794 0.19497944 -0.045069125 -0.41739225 0.5545185 -0.07654026 0.08275044 -0.71905607 -0.28766644 0.41244617 -0.117607385 -0.22444654 -0.53631806
可 0.013585797 -0.28079236 0.6502918 -0.521603 -0.5285146 0.044367064 -0.10011283 0.31164965 0.34417498 0.10709 -0.10042359 -0.45964146 -0.26905382 0.29830453 -0.059804488 0.26349902 0.10953954 0.6165182 0.043992355 -0.42817268 0.25537765 0.08363828 0.16803598 0.85539156 0.399902 -0.69343317 0.12185081 -0.002967773 -0.017477859 -0.050956123 0.16223866 0.04002709 0.06589727 -0.012849141 -0.31753248 0.9856739 -0.45620313 -0.71450424 0.249868 0.04184399 -0.39869305 0.19059332 -0.13872285 -0.16992505 0.1444845 -0.36859968 0.12737775 0.16633208 -0.20020111 0.275706
如 0.5833156 -0.39928767 -0.4341626 0.45759663 0.22973622 -0.0982021 -0.13671051 0.19106025 0.23460361 0.32282737 0.43822616 -0.26260364 -0.11042268 -0.79636925 -0.122143656 -0.5136589 -0.028927168 0.24419256 -0.36624986 0.07958619 0.36948714 0.07152802 0.21739855 0.1180202 0.52687037 0.4126324 0.06038659 0.6703167 -0.11136677 0.17440441 -0.5685473 -0.14159113 0.4809695 0.34332642 0.21269915 0.05068159 -0.26592475 0.4153839 -0.045245945 0.08303594 -0.47428355 0.3279869 0.31096667 -0.47908336 0.5475435 -0.27534842 0.19315107 0.51691717 -0.21590148 0.3540499
与 0.11864892 -0.23823158 -0.37319747 0.39653438 -1.0171666 -0.95633984 -0.3629779 -0.014665881 0.440039 -0.5658334 -0.2951993 0.047405045 -0.113789916 -0.14010766 0.16591248 -0.233873 -0.667258 0.2131309 -0.52118206 -0.31985408 -0.16816694 -0.17883533 0.49365062 -0.04899167 0.13322596 0.10072607 0.1873391 -0.10975695 0.03622419 -0.22928646 0.093675755 -0.19802679 -0.29094857 0.30200014 -0.088660076 -0.027897384 -0.49391496 -0.3037115 0.3571705 -0.23400699 0.3740868 0.61927634 -0.093833484 -0.064392425 0.11135097 -0.741639 -0.30315813 0.40742424 0.021120198 -0.14083092
； 0.52705365 -0.122803636 -0.3134395 0.220104 -0.8023761 0.56291246 0.26383528 -0.39861098 -0.43882692 0.17171186 0.14893134 0.28039056 -0.21783344 0.10209212 -0.0145072555 -0.03948 -0.23928995 0.22425161 0.43949252 0.35811484 0.38214487 0.698816 0.24812762 0.009115514 1.257838 -0.1396144 -0.15733233 0.01960641 0.29670095 -0.11201523 0.0009916383 -0.37792233 -0.121483676 -0.49230322 0.2815223 0.64692897 0.057089396 -0.1853744 -0.22025694 -0.23401786 -0.17758937 0.14866218 0.9508072 0.30209655 -0.12970304 -1.0660917 -0.05413178 0.14416555 0.009203378 -0.28946865
言 0.06565481 -0.40320632 0.23144417 -0.21202077 0.29266492 0.41917476 0.33671263 0.7269792 0.50276476 -0.011881781 0.23794648 0.0038519194 -0.12985568 -0.052242078 0.12391974 -0.35023773 -0.16776915 -0.15696621 -0.13703439 -0.17139992 0.065429606 0.22868052 -0.10998372 0.9651601 0.4474115 0.24146175 0.07064587 -0.8998838 -0.6745468 -0.5398619 -0.08922413 0.13183893 -0.26350626 0.21676902 -0.084085 -0.22439367 -0.3908932 -0.5971264 -0.32582018 0.34221095 0.15291789 0.34245184 0.2630524 -0.17724504 -0.11971896 -0.23726894 -0.87817264 0.43764326 0.016869176 0.2779164
无 -0.19326504 0.1591244 0.3384547 -0.19654442 -1.0125347 -0.060216818 0.6297862 0.3727394 0.27744505 0.007580856 0.086976156 0.9828709 0.79284066 0.15546635 0.06524845 -0.9453155 -0.7635748 -0.21505453 -0.47218853 -0.2105309 -0.38254702 -0.31691408 -0.28268567 0.35215408 0.24170426 -0.114583194 -0.06724299 0.3085547 0.38195127 0.035867482 -0.20106702 -0.45686513 0.002031878 -0.23195495 0.46611097 -0.026258048 -0.02382595 0.27049375 -0.13878135 -0.048881244 -0.50451505 0.38412258 -0.054483358 0.31198183 -0.020258548 0.1161017 0.06334812 -0.011686468 -0.329584 0.081401035
则 -0.007601947 -0.28470472 -0.61228085 0.1846361 -0.8402013 0.13250045 -0.029446002 1.0950426 -0.25251436 -0.45542696 0.5178213 0.2589285 -0.20269309 -0.19684948 -0.56958354 -0.048748136 -0.31453234 -0.5122708 -0.0078690415 -0.18064313 0.7546025 0.39581668 0.03407029 0.64520854 0.7461426 -0.07011079 -0.23890819 0.24832433 0.40824065 0.046773646 -0.039770443 -0.3022246 0.4026523 0.3306468 0.28204733 -0.2667394 -0.003716087 -0.08827205 0.35036376 0.24228042 -0.14344971 -0.15535754 -0.21583112 0.5154736 -0.49823385 0.36602855 0.51155066 0.039421152 -0.11755317 0.33210257
！ -0.14131805 -0.88194096 -0.35146227 -0.20918359 -0.118639044 -0.99735785 0.22551727 -0.10980204 0.32713157 0.32182056 -0.35063842 0.14053497 0.31137165 0.24208452 0.11740817 -0.5683444 -0.48729327 0.54930466 -0.31498128 -0.31512082 0.63666356 0.257349 -0.12615411 -0.49711388 1.5665495 -0.66763383 -0.29365313 -0.00033983868 0.2932394 -0.12830184 -0.30964065 -0.3447635 -0.21639161 -0.23320252 -0.41690516 -0.005604721 0.04290837 0.161412 0.26198584 0.9374293 0.18685177 -0.38602206 0.18425076 0.06114615 0.12860426 -0.6406018 -0.00913066 -0.22271429 0.42437646 0.17046884
问 -0.5145087 0.15638235 -0.948433 0.26441935 0.2437143 0.18474346 -0.04502501 -0.23499253 -0.1563918 0.14769319 -0.5316333 -0.26253134 0.20079301 0.08079417 0.6558347 -0.3438067 -0.12983698 0.21831211 0.40690818 -0.47648156 0.0859229 0.8176389 0.29733235 0.57817817 0.20446013 0.35072207 0.032985415 0.111386366 -0.024449226 -1.0064834 0.09633231 -0.015142212 -0.023410313 -0.113022566 0.41583285 -0.65559113 -0.4667366 0.14170015 0.56359386 0.2760325 -0.60006136 -0.2790559 0.09452157 -0.0056686746 0.1448107 0.0512795 0.053160623 0.30231488 -0.46780226 0.1975401
知 -0.15819947 -0.6407785 0.16676551 -0.2602574 -0.61551493 0.039568033 -0.03723374 0.26655832 -0.035872918 -0.41365814 -0.1898158 0.062761225 -0.09927794 0.21098182 -0.119729176 -0.09595157 -0.4965173 1.1114061 -0.05060912 -0.34961036 0.03854996 0.031196099 0.4378501 -0.1674452 0.39742336 0.053201117 0.36648607 0.027624123 -0.13005601 0.030924238 -0.30679742 0.42715043 0.081181616 -0.281734 -0.24168444 0.40690356 -0.039292846 0.30590704 0.25501642 0.55447865 -0.19505733 0.35278273 0.55233854 -0.12398363 0.1931194 -0.05754521 -0.21642987 -0.13054076 -0.32405213 0.33938882
何 -0.045198027 -0.09184903 -0.24686539 -0.18101327 0.079595506 -0.1618197 0.30259678 0.09219986 0.5469338 -0.96832085 -0.11749421 -0.12541065 0.6764032 -0.0052969367 -0.16417682 -1.045993 0.006628602 -0.0064094053 -0.83011 -0.3283056 0.16495901 -0.27425534 0.2158252 0.118075445 0.5732945 0.036770083 0.50480264 -0.002109347 0.19049545 0.39302045 0.087183855 0.44381514 0.117136315 0.24060519 0.4447497 -0.49588296 -0.026523033 0.07923625 0.010517189 -0.3256288 -0.25906318 -0.19414209 0.24696158 -0.47876203 -0.12152928 -0.6591671 -0.12594886 -0.15152241 0.1283042 0.36839402
吾 -0.16535452 -0.55444556 0.43854094 0.17238466 -0.56437707 -0.1579986 0.18506657 0.38159382 -0.32440645 -0.014876288 0.2045125 -0.46730164 0.7205303 -0.26516908 0.26477173 -0.08594575 0.09321577 0.5407081 -0.37316036 -0.2762312 -0.029315704 0.14071493 0.022651136 0.31888828 0.39591753 0.14737178 -0.2641547 0.25453913 0.31522024 -0.72460335 -0.038237505 0.25875813 0.19817819 0.04956115 0.28842995 1.5443751 -0.060587473 0.025438411 0.24987109 0.21971722 -0.45987728 0.64072883 0.3453127 -0.66393805 -0.70582956 0.0973695 0.3200015 -0.24802957 0.38341653 0.20274155
仁 -0.11322951 -0.4171128 -0.03348413 -0.12055891 -0.44678658 0.04661618 -0.77760834 0.23592095 0.7633443 -0.21660402 -0.2658557 -0.013924038 0.17918475 -0.1886562 0.6256705 0.045310874 -0.2486655 0.2507161 0.1873213 -0.1084347 0.31237474 -0.082494855 0.5700603 -0.2386923 0.25341135 0.026109964 0.1058201 -0.13396694 -0.17082778 -0.11561797 0.5806965 0.8601889 -0.03138279 0.12648523 0.6014454 0.43948776 -0.1972404 0.15555899 -0.44934732 0.110457584 0.1199635 0.25938964 0.566981 -0.25337818 0.30229262 0.20331082 -0.00945458 0.14017056 -0.26306373 0.16369672
夫 0.4178214 0.13845402 -1.073034 -0.3001746 -0.039156377 -0.3251377 0.2910102 -0.49302173 0.45908234 0.23381424 -0.14202769 -0.13571854 0.3616445 -0.32714543 -0.2484657 0.50618106 -0.13435555 0.22676854 -0.004648099 -0.2985774 0.019665897 -0.0297311 0.20817049 0.1207883 0.33349526 0.12756938 0.27257368 0.017006535 -0.07903672 -0.7227194 -0.07638066 0.3867642 -0.5357882 0.2603707 -0.06493858 0.78470534 0.53946376 0.82507694 -0.07626638 -0.65857834 -0.3777928 0.6553118 -0.13880746 0.09437696 0.080611855 0.019428004 0.4460349 -0.14915468 0.37002054 0.000901434
、 0.4979981 0.33232933 -0.5851614 -0.15052244 -0.041352008 0.5460066 0.15976965 0.27875897 -0.32690725 -0.126563 -0.31778818 -0.5025313 -0.32677463 -0.277159 -0.051588245 -0.42297718 0.032918215 -0.48668098 0.3703088 -0.31283265 -1.0204582 0.076742604 0.061211508 0.28557038 1.4876742 -0.098778315 0.08452305 -0.72082925 0.27743423 -0.3200746 -1.084129 -0.33722526 0.6043508 -0.030715935 0.53346884 0.20512104 0.35787672 -0.29747796 0.008137971 -0.38865983 -0.37840283 -0.33583972 -0.8051507 0.17017499 -0.25892183 -0.33044907 0.14697799 0.93773854 0.12289773 -0.05991379
道 -0.40013033 -0.30224195 0.13708793 -0.051736444 -0.6204242 0.10175743 -0.18734625 0.23040101 0.6293955 -0.26162046 -0.34907335 0.13577032 0.13978563 -0.11734536 0.028844366 -0.60128075 0.015791358 0.18773948 -0.37828046 -0.059797097 -0.10269707 0.1444221 0.015687639 0.71029913 0.2530145 0.048743963 0.2645416 -0.20774001 -0.3409988 -0.44076362 0.18593283 -0.021321049 0.26755542 -0.044779293 -0.23911421 0.5511878 -0.089910656 0.023471925 0.20480856 -0.9116717 0.058976956 -0.6630603 0.31691182 -0.83930683 0.36435604 -0.1437593 0.102569625 -0.42131102 -0.34519428 0.0937462
焉 0.75355273 -0.42605639 -0.35993207 0.14318755 -0.29301035 -0.946457 0.0823378 0.51344997 0.37732562 0.47952583 0.10801679 -0.037124194 0.6409399 -0.5953026 0.48518237 -0.8161921 -0.11402671 0.1849535 0.12740707 0.19132784 0.27189833 0.32301328 0.6004857 0.5456571 0.0016185315 -0.056430783 -0.16710488 -0.87393785 0.23407483 0.33095455 0.5332706 -0.35952377 1.0728066 0.31351906 0.13633817 -0.045215048 0.1733572 0.20021342 -0.44629204 -0.031607103 -0.5614881 0.74317634 -0.15711133 -0.6318189 -0.18612552 0.5204299 0.1487319 0.4594232 -0.7994937 0.21224093
行 -0.23688228 0.25105572 0.029652162 -0.14436713 -0.5537126 0.8596505 -0.36601046 -0.39986265 0.81518734 -0.015145857 0.1678729 0.29060408 0.22803752 -0.59021175 0.1347906 -0.5568374 -0.44506675 0.5098268 0.56960666 -1.3870262 -0.12952814 0.06125257 0.13040309 0.2866152 0.08286488 -0.10351979 0.35063744 0.04186872 0.7381752 -0.30765882 -0.30085835 -0.33879822 -0.28492975 0.04414474 0.09212236 0.56847614 -0.36519444 0.43878895 -0.11884857 -0.008620355 -0.17983769 -0.26434162 -0.08235135 -0.36554164 1.0449303 -0.15309168 0.23913908 -0.23809655 0.18961437 -0.2291979
谓 -0.07942137 0.81887054 -0.9229094 -1.0537604 -0.49800664 0.041905064 -0.15135299 -0.17783117 0.6331111 -0.029406305 -0.4866814 1.2487998 -0.80317354 -0.3374304 -0.40028825 -0.57595444 -0.11043267 -0.11420542 -0.09384527 -0.63413143 -0.17157087 -0.31487697 0.030454744 -0.12587269 0.68604034 -0.022631187 -0.18380228 -0.35161543 -0.94088274 -1.6357446 -0.66501755 -0.13773197 -0.095927246 -0.14807236 0.52549803 0.19894479 0.13713183 -0.37469038 0.883723 0.3571769 -0.43449455 0.66833925 0.048573095 0.23244384 0.04937097 -0.0800302 -0.44663164 0.394662 0.036521744 -0.032312654
必 -0.5767387 0.69760174 -0.4741142 0.1574238 -0.37433183 0.35849985 -0.30114955 0.86524326 0.44829085 0.038461067 -0.23563229 -0.257477 -0.23312421 0.19554213 0.26034495 -0.5255061 -0.22798653 -0.14711244 -0.2769423 0.18894184 0.42595905 0.9272953 -0.28522894 0.4692248 0.3214857 0.5957962 -0.07299993 0.5575371 0.33176637 -0.5086939 -0.87715846 -0.2576135 0.2287125 -0.2938335 0.0011373628 0.2769448 -0.16662914 0.11986093 -0.21931072 0.07800412 0.11917443 0.63979465 -0.016927894 0.23352039 -0.53361404 -0.595309 -0.39749688 -0.043125205 -0.660744 0.15922025
礼 0.039640278 -0.44631958 -0.32036012 -0.478375 -0.29774874 0.3824452 -0.48332295 0.7800079 -0.12327686 -0.18898146 0.26567236 0.46717086 0.45495155 -0.25781372 -0.19529924 -0.18585077 0.40166283 -0.20937191 0.29413894 -0.21433915 -0.079208344 0.17055446 0.102670304 0.31343094 0.5540545 -0.24982668 0.10573608 0.3183605 -0.49452847 -0.3283333 -0.9745114 0.7359356 -0.009690408 -0.08257061 0.87074 1.1099713 0.22418691 0.64783657 0.12084474 0.0820707 -0.61354214 -0.18042521 -0.2557322 -0.6813279 -0.467349 -0.23616105 -0.35857433 -0.35110697 -0.108954564 0.051089156
孔 -0.28450748 -0.87950635 -0.98427963 -0.50978285 -0.07754586 -0.7301758 0.5714447 0.015073334 0.19718462 0.22581911 -0.2698789 -0.1320217 1.2845143 0.59492284 0.10625684 -0.78598833 -0.28477308 -0.38312322 -0.26541373 -1.0027691 0.2610319 -0.13870429 -0.09329723 0.11247269 0.4659931 -0.096044086 0.26961565 -0.2917097 -0.21816911 -1.4489269 0.35619676 0.58621275 0.6072026 0.98309857 -0.592428 0.27851483 -0.22535472 0.28925452 -0.06876351 -0.7390722 0.47920823 0.49450016 -0.22685803 0.057602167 -0.0487758 -0.12880547 -0.5657984 -0.2947361 0.68737924 0.11287081
斯 -0.33268455 -0.37641028 -0.2150298 0.0119940005 -0.9866127 0.20961803 -0.29589674 -0.62528557 0.44083205 -0.16245201 -0.3113788 -0.15915352 -0.21413566 0.24224661 0.35511655 0.00332054 -0.31351322 -0.7301103 -0.35642877 -0.50120115 0.40666777 0.33972558 0.05642827 0.47638848 0.045877673 -0.32325336 0.1790129 0.21972956 0.22360654 -0.16251758 0.5329118 0.22819076 -0.14230083 0.43675163 0.32518512 0.26106852 0.09103378 0.3879123 -0.12605591 -0.07614864 0.79075867 0.1932209 0.83956885 -0.14956835 -0.20365077 -0.026209654 0.01325308 0.7559457 0.40762594 0.14011374
三 0.057630077 0.3592433 -0.6153777 -1.8572618 -0.21831146 -0.48415694 -0.018362109 -0.009131694 -0.034973174 -0.20864537 0.0903763 -1.0432009 1.0356643 -0.81643903 -0.07946062 0.11006302 -0.59503204 0.32824683 -0.470025 0.102600425 0.20426062 0.5604148 0.10239974 0.43913597 0.4929388 0.1329589 0.06011038 -0.50157744 -0.023809338 -0.27312654 0.232881 -0.4371042 0.0057798047 -0.59744257 0.2117746 0.80676013 0.20384578 0.37278256 -0.6612073 -0.23754533 0.13210432 0.13905303 -0.0015794144 0.060942985 -0.37049767 0.39507213 -0.3101187 0.21992636 0.015288616 0.12911054
能 0.15007904 -0.103665434 -0.20261547 0.1389265 -0.07321426 0.45458376 -0.07541106 0.3019671 0.4744535 -0.09170292 -0.47590825 -0.38905722 -0.16254719 0.07916783 0.017863745 -0.1807194 0.37589493 0.6693878 -0.27245536 -0.30171543 0.16148078 0.82193655 0.11336778 1.3944241 0.28671524 0.8748047 0.26071495 0.578064 -0.043416787 0.20987177 0.014070224 0.06862293 -0.029308679 0.6049872 -0.34618556 0.61144197 0.20125292 -0.3846336 0.032502644 -0.23016673 0.1577824 -0.020018775 0.9956478 0.7758767 -0.29656506 0.09322558 -0.14892372 -0.1609106 0.29697105 -0.42286813
见 0.41081098 -0.15970643 0.0151151605 0.30678552 -0.7674223 0.17132403 -0.70027965 0.23472384 -0.111532755 -0.6023898 0.28270337 0.58926153 0.60380054 -0.30706248 -0.0074305316 -0.7211985 -0.27824157 0.690602 0.21160112 -0.495877 0.23413374 -0.22649324 0.066872574 -0.22953315 0.52209026 -0.19245513 0.827932 -0.37480038 -0.78833574 -0.78015924 0.414696 0.41184354 -0.42897996 0.07008109 0.45818794 0.7607911 -0.88722074 -0.36192057 -0.26589656 -0.2885749 -0.19847392 -0.8572397 0.36207506 0.28200257 0.49175206 0.25887373 0.36487326 0.5676191 -0.4704892 -0.46191147
学 -0.24865532 -0.05514308 -0.45760724 0.3793276 -0.4430148 0.046210125 -0.5756941 0.6570192 0.54828805 -0.06693878 -0.48467636 -0.16808239 0.49514577 -0.20423764 0.29684773 -0.5627497 -0.23622124 0.11135783 0.057702277 -1.2641115 -0.49084732 0.27268988 -0.07666742 0.19265875 0.34471473 0.028758107 0.2613913 -0.018767528 -0.022868678 0.35432515 -0.25522497 0.10106416 -1.170399 0.104545176 0.9005261 1.2184259 -0.5173656 0.0680262 -0.18391283 -0.07863885 -0.33919176 0.10200756 0.39229587 0.2630635 0.22997792 0.26351833 0.09522359 -0.011727821 0.5994239 0.26048785
事 0.14427003 0.045101456 0.22288828 0.27081206 -0.15439478 0.47108644 -0.27299988 0.5228899 -0.39080575 -0.32454762 0.42144153 0.111565225 0.65495855 -0.20883499 0.6261646 -0.42904818 0.67463714 0.2682585 0.19284327 0.008339348 -0.49349153 0.42655045 -0.83907527 0.31086946 0.33443052 -0.07787761 -0.34193802 -0.43467224 -0.02169545 -0.8798715 -0.4083063 0.06456573 -0.045426443 1.142529 -0.39189595 0.09221737 -0.71376985 0.11857935 0.024345566 0.31510141 -0.5777092 0.17236212 0.33807027 0.25548872 0.11283556 -0.78910583 0.5047084 0.6306179 -0.5778514 -0.060948923
是 -0.17540313 0.23239248 0.04543507 0.18075529 -0.61193717 0.07309084 0.16812481 0.4465672 0.43242878 -0.33541027 -0.5712181 -0.48746654 0.44633615 0.20488472 -0.4891582 -0.23031048 -0.5251065 -0.3946296 -0.094461925 -0.6648172 0.90086764 0.25131193 0.87636495 0.0049336287 0.68867755 -0.3596499 0.70224303 0.20481251 -1.1517104 -0.5114151 0.11089309 0.4269512 0.050024692 0.205751 -0.6276808 -0.49877208 -0.035536345 -0.06040349 0.38344705 0.0627118 0.6431914 0.49399266 0.33035728 0.17846785 -0.6927854 0.4482416 -0.13315816 -0.29540345 0.16171257 0.16058466
哉 -0.47507253 0.20516112 -0.93588865 -0.5231079 -0.7788023 -0.70442766 -0.16459756 0.89897496 1.0472212 -0.8933415 0.21119274 -0.38699552 0.28342173 -0.25595292 0.23621622 -0.21252152 0.3595589 0.3177557 -0.111580886 -0.11643477 0.95412517 -0.9267178 0.44899032 0.004801634 0.56823367 -1.0073612 -0.3468098 0.18232733 0.24205573 -0.42724064 -0.81519043 0.54284286 -0.11271369 -0.06649999 -0.39459166 -0.14236897 -0.50669307 0.27469307 0.35581538 -0.46546337 -0.032004785 0.26661295 -0.31401324 0.24866784 0.23107912 -0.11770966 0.75425774 0.33852553 0.17575985 -0.8647794
闻 -0.27891406 -0.10677261 -0.19593751 0.34222788 -0.25994614 -0.46990517 -0.14245811 -0.15848953 0.046910807 -0.15221192 0.300641 0.20112848 0.014082337 -0.7976376 0.37266403 -1.0168546 -0.06415832 0.66990805 0.27358034 -0.8327344 0.3007221 0.24286065 -0.6156375 0.4674691 0.43450674 -0.56388724 0.7142112 -0.17950968 -0.60384774 -0.58314586 -0.2810836 0.27094424 0.021798387 0.6348459 0.98977715 0.68033755 0.13780169 -0.16533433 0.02787196 0.020450989 -0.53265995 -0.59225637 0.5047154 0.19929235 0.5009379 0.06736896 -0.09049675 -0.7391581 -0.50155985 0.10506329
未 -0.1767695 0.23940206 -0.05098738 0.050606787 -0.6330424 -0.2348019 -0.20786996 0.41721892 -0.19057569 -0.26620957 -0.5076377 0.16443245 -0.57749146 0.27105922 -0.012368423 -0.36222067 -0.27936167 0.21912496 -0.27593446 -0.92567277 0.71738136 0.75182045 -0.056038976 0.4255792 0.69518703 0.6636727 -0.18358563 0.18606651 -0.6782677 -0.7839515 -0.4388025 -0.03088008 -0.035539858 -0.33208653 0.092982404 -0.40859017 -0.30954194 0.37827736 0.2062361 -0.76054865 -0.55665153 0.16982765 0.7260214 0.115327306 -0.6742242 0.47562188 0.5515969 -0.04573245 0.043270502 0.22450912
公 -0.5215977 -0.37526512 -0.82633334 0.2621352 -0.20475376 0.2556926 -0.8084568 0.5255092 0.15393154 0.39170042 0.009659408 0.122991905 1.3457764 1.1508923 -0.07496082 -0.1824009 0.36025813 -0.018234452 0.13612458 -0.19191247 0.1752088 0.21640147 -0.14948294 0.46891212 0.1799817 -0.54027885 0.17810573 0.5026809 -0.37773338 -0.9390908 -0.3078054 -0.3405765 0.5585534 -0.10156473 0.40615678 -0.5174424 -0.54597837 0.25875726 -0.3413615 -0.10371203 0.7302386 0.17310011 -0.06802975 -0.6458362 0.03270907 0.042787068 0.049421065 1.155187 0.29787186 -0.8459879
好 -0.17202878 -0.49081984 0.049527105 0.08810132 -0.8036977 0.5976818 0.100305766 0.071747884 0.36639544 0.57505274 0.17937104 0.14496322 0.38150835 1.0442957 -0.04064834 -0.05820615 -0.28208995 0.74866015 -0.42540476 -0.3982152 -0.21453457 0.42228958 -0.072841495 1.0264603 0.08001951 0.9569889 0.3159488 -0.2681103 -0.45813003 0.34320602 0.29803187 0.1683127 0.1494952 -0.0752317 0.029049005 -0.28569078 0.32427543 0.25758582 0.010238784 -0.86259174 -0.09186268 0.8547915 0.7240837 -0.6013613 0.3547841 -0.38790423 0.7323738 0.9199112 -0.15604594 -0.06906155
我 -0.06847613 -1.2328612 0.37909696 -0.29401338 0.03627496 -0.33980143 -0.10245567 0.87136275 -0.10732668 0.023994539 0.25881103 -0.9467994 0.33414155 0.55122095 0.4095679 -0.83367056 0.41305915 -0.8050124 -0.16263425 -0.104579546 0.710308 0.5765619 0.7389468 0.388434 0.65455604 0.0388944 0.6564969 0.38057512 -0.7116739 -0.4260893 0.45389596 0.46480146 -0.114872806 0.039481018 0.21043889 0.6603324 -0.15004264 -0.10376415 0.1615241 0.2793475 -0.19385365 -0.010823133 -0.35202655 0.009632124 0.32898757 -0.53451514 0.3666214 -0.08117458 0.05352026 -0.2309398
路 -0.75205487 -0.728689 -0.53223103 -0.3345967 -0.056378234 -0.28935933 -0.26637948 0.16269805 -0.00028333045 0.3905946 0.05090945 -1.3921212 0.95647645 0.2738157 -0.38713747 -0.528524 0.19617009 -0.7196121 -0.18101303 -1.0464278 -0.17874049 0.5229435 -0.627523 -0.4312799 0.8242912 0.25149825 -0.38733494 -0.47048655 0.35826558 -0.84891796 -0.036847148 -0.38354626 -0.82255745 0.35511822 -0.11809381 0.066624455 -0.3533149 0.7183362 -0.5661801 0.49585676 -0.22345984 0.16669585 0.64625174 0.5748145 -0.5315926 -0.110183805 -0.10641071 0.6494626 0.24953946 -0.72530615
在 0.08428187 0.122575805 -0.5510986 -0.27348608 -0.27250218 0.38652697 -0.5922445 -0.49709815 0.046258483 -0.71264327 -0.18358938 0.101464786 0.29642108 0.21547918 -0.40864286 0.28984934 -0.20429738 0.9002629 -0.47903103 0.6087794 -0.055227112 -0.5569795 -0.06319797 0.79647887 0.25965437 -0.48135543 0.60881305 -0.30001795 -0.68095493 -0.68531936 0.23908125 -0.74527186 0.43656212 0.2514807 -0.60949373 -0.39915043 -0.49043852 0.85401064 -0.7873094 0.55242467 -0.3967322 0.5280726 0.06676955 -0.5824002 -0.07912629 -0.5896402 0.37969157 -0.11375524 -0.3197347 0.25741047
已 0.17778493 -0.83315814 -0.5576202 -0.9682248 -0.64866346 -0.56497794 -0.26973447 -0.25476328 0.9428979 0.14998573 -0.49666387 0.2050272 -0.59294003 0.2891504 0.57776105 -0.17398079 -0.10823651 0.57010365 -0.48568135 -0.6067829 0.65371406 0.20329888 0.2038704 0.22592187 0.36973822 -0.53305244 0.15933633 -0.11256691 -0.39600462 -0.11923507 -1.0176562 -0.6572915 -0.041962814 -0.08072112 0.43643528 0.020533504 0.058348153 -0.14200795 -0.40873456 0.073533624 -0.71868527 0.8341326 0.43759575 -1.103522 0.2004511 0.15127628 -0.18068413 0.16655889 0.20441914 -0.082559355
得 -0.44396192 -0.7627329 0.20466901 0.52907497 -0.52734953 0.45375928 0.0012778868 -0.10910613 0.9501581 -0.0028546057 0.7678863 -0.11478467 -0.044425867 0.56872356 0.5021852 0.19722658 -0.72625196 0.77518207 -0.2069184 -0.17421553 0.08298468 0.41232222 0.036781453 0.8285414 0.335407 0.042553317 0.2725404 0.07960597 -0.38105682 -0.45392904 0.21103495 -0.5771648 -0.62898546 0.13977587 -0.84692836 -0.17390016 0.057017945 0.15037382 0.33104286 0.58776677 0.14714046 -0.02444981 0.2824651 -0.51018417 -0.20738582 -0.014590576 0.18617502 0.38175127 0.71533036 0.19586925
所 -0.582981 -0.5210684 -0.7972135 -0.21674083 -1.3682317 -0.089739196 -0.323119 -0.092446014 0.9554917 0.20388685 0.6117663 -0.02659609 0.644048 -0.33598635 -0.49202922 0.14597073 0.73574984 0.55811 0.093134664 -0.248713 0.22077222 0.04801136 0.6846208 -0.067489035 0.4654635 0.838284 0.16826339 -0.65828294 0.25981754 -0.31398287 0.7823942 0.22417964 0.64216304 0.085702926 -0.1959824 0.5237884 -0.08497955 -1.164162 -0.19583829 0.581814 0.059190758 -0.84210855 0.7074679 -0.9290644 -0.25796056 -0.41369542 -0.92575073 0.12200836 -0.081213 0.08827434
民 0.6568792 -0.78279895 0.291819 0.52640814 -0.7477049 -0.30047363 0.1278405 0.56810516 0.3723577 -0.8267281 -0.42028344 0.12410476 0.0051499424 -0.61664283 0.029499397 -0.4298545 0.6310438 0.20363308 -0.3238219 -0.82308704 0.12169365 0.6818244 0.12553509 0.044021316 0.64891607 0.41412333 -0.34401694 0.06568732 -0.30051196 -0.29472595 -0.070288286 -0.34326896 0.54043865 -0.8258059 -0.5791938 0.58148706 -0.06731219 0.78024364 -0.058542617 -0.6112291 -0.12699749 0.09419306 -0.110807404 -0.16947848 0.75415224 -0.24557771 0.0017115134 0.25199628 -0.48406622 -0.0017050966
小 0.1089336 -0.13821435 0.052696407 0.6181427 -0.2666123 -0.5278895 0.09877683 -0.1355462 0.22822121 0.008767712 0.14391746 -0.06700805 0.63434255 0.15454246 -0.29443395 -0.4638555 -0.42755696 -0.6795305 0.2987787 -0.17118268 0.6025693 0.33902794 0.26683244 0.33440706 0.18408434 0.5812079 0.526461 -1.0033416 -0.2505612 -0.48566985 -0.2523676 0.18205352 -0.28086874 0.661774 -0.59580404 0.1640607 0.9795702 0.48962358 -0.065046124 0.6127304 -0.9080772 -0.05944661 -0.5454865 0.31160912 0.048364125 -0.6728994 -0.037809066 0.6344782 0.05554827 0.42781758
天 -0.8516976 0.033158194 -0.6005699 0.45627925 -0.42545968 0.026587961 -0.2142198 0.0040797847 -0.24074917 -0.2460416 -0.40699244 -0.16665027 0.94651306 -0.68598676 -0.0068567554 -0.6258056 -0.065524824 -1.0488888 -0.65693134 0.021233521 0.058090076 -0.26329795 0.46805012 -0.20388119 -0.2614375 -1.0243163 0.07548986 0.12801042 -0.7146327 -0.6499176 0.48973253 -0.34949857 -0.06225227 0.50037146 0.1067228 0.5654147 -0.16822217 -0.43778765 -0.08431828 0.030874575 -0.89842755 0.27692863 -0.34410828 -0.296476 -0.13898396 -1.2734311 -0.7698544 0.7129624 -0.2703326 0.100048155
乐 -0.2660159 -1.2779294 -0.3895859 0.019930117 -0.5915024 0.13695545 0.574674 0.5151903 0.8427069 -0.10361468 0.41662666 -0.05040108 0.42462602 0.18844938 -0.42699245 -0.11479135 0.06311634 0.04512203 -0.20212083 -0.056509495 -0.8893392 0.39277428 0.34986445 0.11026535 -0.28969574 -0.5327748 0.40464994 0.374771 -0.29641718 -0.08894871 0.2275292 0.47679472 -0.08280199 0.34711578 0.36179632 -0.19541222 -0.18129408 0.88696486 -0.34404966 0.45466697 -0.2714674 0.0705053 -0.33501822 -0.2296026 -0.2578886 0.070867464 -1.2476974 0.33434093 -0.1551955 0.23043741
邦 -0.6219058 -0.4357341 -0.60334367 0.4229819 0.20694624 0.4034537 -0.4741196 0.26761076 -0.40898478 -0.8230434 0.018413074 -0.050100982 -0.20429188 -0.7959528 0.007564287 -0.15467659 -0.103002116 -0.5264236 -0.53517765 -0.05799462 0.5881853 0.26662418 -0.6167994 1.1091056 0.26958415 0.07362676 0.8771555 0.32856706 -0.29713678 -0.4527607 -0.2738812 0.18843852 -0.5468934 0.16087914 -0.09578434 0.88551474 0.25038344 0.60424095 0.6401982 -0.22897033 -0.22612543 0.8124631 0.09086058 -0.81784725 -0.2701605 0.016064089 0.14892094 0.3097182 -0.92092717 -0.606583
亦 -0.07913326 -0.11338447 -0.1260545 -0.3453924 -0.4182246 -0.9712306 -0.8430489 0.77796495 0.8653071 -0.088426284 -0.7751934 0.31236872 0.12513417 -0.6370267 -0.14110926 -0.0842163 -0.95236844 0.28830224 -0.7233151 0.0026809021 0.91307986 -0.20334929 -0.7135729 0.5941155 0.85625625 0.47859704 -0.10087005 -0.42336607 0.943926 -0.021530561 -0.7756631 0.3876316 0.3756028 -0.065058626 -0.5186262 0.23594528 -0.2927936 0.065405525 -0.8639558 -0.35288966 -0.7166954 -0.4491872 -0.14841259 0.20074274 0.18605891 0.0035394977 -0.27286234 0.2437888 -0.074197166 0.087636836
使 -0.641714 -0.83956766 0.39308542 -0.19136053 -0.26246008 -0.08172725 0.14795105 0.27395648 -0.14696571 -0.9106518 -0.09753895 -0.07503364 -0.75463104 0.1740132 0.4074393 -0.3226453 -0.73066425 -0.5021187 -0.33573163 -0.6054956 -0.107239455 0.44503713 -0.11795093 0.4254392 0.30770704 -0.45178995 -0.15094839 -0.78221655 -0.08025282 -0.95448625 -0.20651226 0.28492737 0.08981328 -0.27832922 -0.031785544 0.295291 0.57751024 0.6042831 -0.014088485 -0.247425 -0.46115342 0.12824845 0.25944573 0.26239356 0.23473527 -0.13332804 0.017073294 0.4081563 -0.50826746 -0.36341292
大 0.19657846 0.117109135 0.2703488 0.042528015 -0.062076844 -0.036658727 -0.2672811 0.3844998 -0.9187624 -0.5338497 0.28748518 0.14869577 0.51667404 0.005083276 0.5003462 -0.5281448 -0.82007694 -0.29893118 -1.0236802 -0.3745282 0.37315494 -0.47748628 0.74468017 0.64058346 0.9282148 -0.3498779 0.6147852 0.39454266 -0.01751183 -0.56344336 -0.30615738 0.11390199 -0.10652167 0.09777288 -0.8683781 0.3007991 0.3342362 -0.6161916 0.37578124 -0.6638754 0.009231736 0.38706255 0.30103627 0.04111942 0.038038827 -0.79615825 -0.8502269 0.10333854 -0.50751793 0.2684814
下 -0.5464211 -0.174821 -0.21344927 0.25308093 -1.0900369 0.47970137 0.43693134 0.55851865 0.50470567 1.2726545 -1.3353295 0.07048691 0.29746196 0.04821759 -0.36658865 -0.60086745 0.21475062 0.35047948 -0.019578585 -0.16262655 1.1483651 0.48156852 -0.073859245 0.10797853 0.4396997 0.21336247 -0.06626858 -0.6954767 -0.961145 -0.16762649 -0.826356 0.4639499 0.18655033 0.49899086 -0.60945815 -0.29389858 0.49055937 -0.3117868 -0.43308026 -0.2612164 -0.34718174 0.7643592 0.27429396 -0.64355284 0.0477309 -0.08432607 0.94602096 -0.09635789 0.46902537 -0.34621033
贡 -0.46324098 -0.27101785 -1.0812905 -0.47812766 0.084701784 -0.81357026 -0.5840933 -0.028614013 0.7443125 -0.7222545 -0.545348 -0.15482993 1.8459547 0.98405606 0.69324553 -1.4419807 -0.81103396 0.17311195 0.7147243 0.09066224 -0.016838333 0.27739385 -0.007902496 0.56324786 0.36937147 -0.12423819 -0.0309225 -0.33156702 -0.13167022 -1.5647306 -0.027063133 0.1079259 0.091429405 0.57470536 -0.25719213 0.2992111 -0.9561201 0.2792862 -0.9308446 0.08811583 -0.7070923 -0.25644058 0.40265763 1.3750508 0.13164496 0.35690674 -0.04854831 1.5635453 0.025628619 -0.7318581
欲 -0.2909338 -0.7443951 -0.8948568 0.33595118 -0.37344816 -0.05375599 0.5833189 -0.26679832 -0.23249291 -0.14969674 0.080173396 0.06018865 -0.014498385 -0.45212874 -1.1882398 -0.64423025 0.41798025 0.31597233 -0.29559013 0.13675362 0.1691378 0.38079542 0.5974544 0.026106946 0.25398237 0.53596294 -0.71280843 0.35581034 0.10444018 -0.114294805 -0.3916514 -0.1393966 -0.3856692 0.7469122 -0.9529975 -0.36286256 -0.927653 0.626647 0.14478771 0.07416379 -0.7387331 -0.23246436 0.7530142 -0.052877594 -0.20802459 0.20379081 -0.12120076 0.24460833 0.15507203 0.056482576
诸 0.15745446 -0.17558017 -0.84116536 0.05260917 -0.34377256 -0.7101347 -0.2502245 -0.81962234 0.37422806 0.48764244 -0.4401088 -0.31528604 0.46677923 -1.6280879 -0.47354984 -1.0128137 -0.4871315 0.40446544 0.4054189 -0.713101 -0.36290535 0.18784808 0.8045765 0.887901 0.96037894 -0.500181 -0.29121843 -0.26237795 1.3313566 -0.1044437 0.8701231 0.59606254 -0.13601875 -0.045042507 0.7364354 0.30892268 -0.07690432 0.5498196 1.2163534 -0.3969561 0.083317444 0.71772254 -0.13201061 -1.0747643 0.26023144 0.07406151 0.52986413 0.15705729 -0.537196 0.63291925
从 -0.8986715 0.15049042 -0.10234833 -0.04695632 -0.69993186 0.46706066 -0.38509417 1.0051286 0.07063281 0.11469611 -0.0810871 0.010676855 0.2666137 -0.39007947 0.83932346 -0.12990369 -0.4346324 0.3328626 -0.46081594 0.1328996 -0.34700462 0.4013316 -0.031568967 0.12895478 0.27628994 0.14730962 0.579064 0.27467477 -0.9638176 -0.9962345 -0.64655346 -0.35385934 0.09053727 0.05003878 -0.056801036 -0.008950886 -0.8089086 -0.16932032 -0.24265707 -0.28716075 -0.13403042 -0.41132367 0.12803043 0.8722044 0.096746236 -0.14627326 -0.30878228 0.1710215 -0.27236283 -0.43086404
文 0.2172035 0.5309839 -0.80543596 -0.2054895 0.11503296 -0.3720729 0.26618108 0.19826041 0.5807828 -0.29315066 -0.9247032 -0.64951515 -0.12383482 0.20208924 -0.5323169 -0.24873798 0.63664615 0.5232445 -0.8550948 -0.53409314 0.14513086 0.54563123 -0.39682788 0.4824906 0.5319551 -0.6693097 0.5516203 -0.0010388382 -0.48959425 -0.5961346 -1.04801 0.49981636 0.5251094 0.10639414 0.04086607 0.39186645 0.49250314 0.20307685 0.23256393 0.4390639 0.28579187 0.06156904 -0.06302179 -0.29889044 0.93249136 -0.618456 -0.15107857 0.18409576 0.15857108 0.2142525
政 -0.72360045 -0.8744384 0.040755823 -0.428628 -0.3289661 0.39859048 0.36782625 0.78280383 0.0018055874 0.32642576 -0.044213977 -0.6901536 0.64230394 -0.16312629 0.54629314 -0.6052396 0.04591474 0.34225017 -0.6345413 -0.340331 0.47975686 0.45099816 -0.02861775 0.11499446 0.07698334 -0.3591941 -0.27823102 -0.076585285 -0.23251745 0.1157384 -0.1507016 1.0270973 0.7724023 0.20785008 0.5123233 0.2620191 -0.22286516 0.7806441 0.47557113 -0.31713346 -0.16806841 0.21779549 1.0376418 -0.08553544 0.444647 -0.34317738 -0.029204361 0.35532224 -0.14974655 -0.7710781
食 0.5323407 -0.90256536 -1.0706943 0.120382465 -0.45227972 0.17661774 -0.1433647 0.25660157 -0.15353899 -0.22343454 -0.22973792 0.051712327 0.5620881 0.28478628 -0.63208157 0.04404347 -0.30502272 0.1193216 -1.332844 -0.31027973 -0.1798347 0.37825105 0.09179224 0.030089118 -0.15112641 0.5489734 0.4719519 0.013927281 0.051130738 -0.35713327 1.0054965 -0.7087458 -0.7767643 0.55491376 -0.16354893 0.27785206 -0.34061548 0.7944286 -0.7655938 0.111092426 -0.30519027 -0.55692434 0.3459007 0.035311714 0.69266677 -0.33803058 -0.3471618 0.3465675 -0.691384 0.115325004
善 0.5138243 0.44710904 0.5019295 0.64398974 -0.015329749 0.10823787 0.22905758 0.20961104 0.90762526 0.35924026 0.27444386 -0.9529909 -0.22506814 -0.15495285 1.1814383 -0.79416347 -0.17449598 0.28583974 -0.26153174 -0.12509358 0.28420398 0.6631951 0.86479104 0.14052095 0.45591393 -0.37451667 -0.036071315 0.09946097 -0.366211 0.2599547 0.13649932 0.5962656 0.074361905 0.52197134 -0.742206 0.3442382 -0.82018757 -0.119119145 -0.47730184 0.5350435 -0.7909042 -0.16354981 0.17769165 0.79543555 -0.21631208 -0.326996 0.33655357 0.52498007 0.5572501 0.44447795
后 0.1902508 -0.98950857 -0.50917876 -1.2433285 -0.32478297 1.1446075 -0.733641 0.313971 -0.5294594 -0.14688452 0.42265844 0.35914233 0.14741738 0.69912314 0.7168715 -0.12418066 -0.654865 -0.2460749 -0.0303165 -1.1498214 0.30284283 0.5336629 0.33032554 0.25005904 0.1999059 0.7031948 -0.275675 0.293455 -0.030358072 0.08885997 0.7325675 -0.48748267 0.346123 -0.0075845052 -0.17274922 -0.50419253 -0.38655907 0.25821748 -0.51844156 0.11956445 -1.1182142 0.7087725 0.08344245 -0.26097605 0.50312835 -0.77995515 -0.28294843 -0.2554064 -0.6825323 0.16484198
德 0.24278699 -0.53946334 -0.10441961 0.1145442 0.4227504 0.5914283 0.6090365 0.3001828 0.5589073 -0.31341732 -0.006211995 0.40067855 0.21941735 -0.8793672 -0.45181766 -0.16539314 0.094890684 -0.85293543 -0.40860295 -1.2620107 -0.25266635 0.6129288 0.82740164 0.36820194 0.3997429 0.00060009956 0.28669006 -0.5338901 -0.4784693 0.27514783 -0.14877354 -0.08115527 0.11755931 0.11045338 0.45725784 1.4042597 0.016493985 -0.35011965 0.46776372 0.507833 0.17560157 0.35809055 0.25156537 0.055121846 0.1108336 -0.41179484 0.18205053 0.8668614 0.45085838 -0.0819058
求 0.3034849 -0.38198403 0.0120000765 0.18955399 -0.35838586 -0.5493706 -0.60746515 0.3223699 0.03175539 0.09916693 -0.81716853 0.8036421 0.069048785 0.0504656 -0.19810106 -0.39028627 -0.3929441 -0.25210252 -0.8160113 -0.5345791 0.14014238 -0.34612414 0.054297328 0.56010354 0.22954856 0.052139994 0.031342737 -0.20766923 -0.26226383 -0.38089836 0.22773087 0.19037277 -0.31884503 0.5364585 -0.25455314 0.48869967 -0.10528238 0.55400544 0.55858463 -0.27300626 -0.77220607 -0.53989255 0.9337892 -0.62020653 0.6602126 -0.2813554 0.018037021 -0.13448453 0.73869646 -0.36576238
对 -0.07127886 -0.18669108 -0.8575299 0.18213637 0.34467754 -0.46329787 -0.501681 0.10618288 0.15004446 -0.036435522 -0.1499555 0.48832363 0.62938064 -0.0010552132 0.0853453 -1.4189439 -0.78156817 0.48540643 -0.28592256 0.820338 -0.27795368 0.9056482 0.0027114246 0.6334367 0.08820951 -0.4167319 0.049240667 0.6485809 0.12587506 -0.05892518 -0.3147455 -0.22490385 -0.2845861 -0.31760177 -0.29080325 -0.07635121 -0.8162256 0.4820512 -0.39610335 0.05043956 -0.9202865 -0.21367012 -0.22217955 -0.17274143 -0.335284 0.4091357 -0.26110613 1.1529746 0.43409812 -0.4958284
恶 0.07393457 -0.2866037 -0.17913924 0.26688656 -0.3003347 0.56425565 0.29429433 0.13977905 0.008641073 0.5608074 -0.17539118 0.31936768 0.40247625 -1.3779582 -0.46563697 -0.026743105 -1.3307402 1.3195604 -1.0542343 0.719836 0.7639375 0.058273397 0.048857797 0.73803514 0.36964554 0.5192062 0.38864028 -0.61031735 -1.2821481 -0.13302334 -0.2996546 0.5024614 -0.33544928 0.7571364 0.16764307 -0.27131617 0.044008236 0.15334357 -0.7250487 -1.0875008 0.16371705 0.41082442 0.75137955 0.31949303 -0.0076884613 -0.0049041566 0.41106644 0.19970429 -0.25429597 -0.52620476
信 -0.099403664 -1.0365144 -0.22234851 0.079872034 -0.81908435 0.30884197 -0.022911703 0.6970968 0.60000014 -0.46145454 -0.25901836 -0.42933345 0.19428432 -1.189611 -0.26904237 0.64823985 0.34483168 0.42964798 0.58397543 -0.49791718 0.06837995 0.26127642 -0.1692877 -0.052200057 0.22097568 -0.59843963 0.6154285 -0.1048488 -0.5281126 -0.48066488 -0.46748534 -0.3752169 -0.2759718 -0.62028956 0.33186215 0.18225375 -0.61539334 0.26108938 -0.42886987 0.3419672 -0.6679259 0.020469345 0.19883241 -0.1153497 -0.48988923 0.3643863 0.18921193 0.4266723 1.1758467 0.109886155
死 -0.81023055 0.13982238 -0.13565452 -0.24477805 -0.9094446 0.0005710446 0.03697513 0.6204344 0.03717168 -0.6486698 -0.13332807 -0.47388163 -0.18030266 -0.1330015 1.1864616 0.44117847 0.06281613 0.08574764 0.7836955 -0.2928811 0.21730274 0.15770079 1.0812931 0.34867957 -0.0389233 0.3922693 0.904581 -0.01830555 0.42654908 0.12241622 -0.17629617 0.5846107 0.5338166 0.39713272 0.5646295 -0.005374101 -0.63533604 0.57187545 -0.33830616 0.1264052 -0.8756712 0.25305843 0.27752805 -0.9354533 0.27944311 -0.53238565 -0.3322384 0.09954321 -0.096934736 -0.5746729
然 0.48209924 0.2600557 -0.16694087 -0.40672097 0.22696535 0.35807976 -0.14447391 -0.11054649 -0.35830992 -0.8948525 -0.34828147 -0.17521112 0.6762107 -0.17325297 0.56382716 0.049431376 0.2820451 1.0095196 0.10662574 -0.61234695 0.09013423 -0.24276492 0.7609509 0.8621906 0.4012519 -0.41503447 -0.8642552 0.78816265 -0.28865507 0.13470277 -0.53831303 0.76771873 -0.26542336 0.18145044 -0.08422954 -0.12272818 -0.5666401 0.4349874 -0.6117084 -0.44375154 -0.42436504 0.518367 0.47012955 -0.5231998 0.3063761 -0.17358612 -0.18042593 -0.019534497 0.2810035 -0.5776777
《 -0.050589986 0.30361837 -0.81141233 -1.7240499 -0.48768646 0.34251297 -0.06681192 0.881056 0.4852292 0.25506952 0.20543998 -0.5682631 2.3236995 0.9094733 0.11719474 0.09484757 0.16298835 -0.029622104 -0.3002148 -0.686533 -0.15631026 0.9303327 0.18988127 0.41328296 0.7150256 -0.47595778 0.29490182 0.8868532 0.12800321 0.0857896 -0.63668513 0.4917575 0.021146417 0.12353937 -0.09333266 0.09163187 0.27245876 0.035839956 -0.023982085 -0.8284182 -0.03667005 0.73945516 -0.4678841 -0.19429155 -0.3706208 0.72599673 -0.41710675 -0.084923185 -0.41347373 1.7351979
》 0.96106356 -0.5163452 -0.719682 -1.477302 0.06635096 0.2550628 0.33955687 0.6228356 0.39246055 -0.4651317 0.18350595 -0.5253316 0.5025413 0.38903967 0.025391664 0.33298022 -0.605492 0.10502009 -0.12931083 -0.24007924 -0.16475183 0.18304047 0.5295246 0.23716104 0.45295596 -0.12915157 -0.3589592 -0.016645124 -0.14396633 -0.6508604 -1.186305 0.14938235 -0.8648092 -0.26478583 1.01071 -0.073954724 -0.27844664 0.7172483 -0.040176153 -0.31553036 -0.28150067 0.209192 0.53494143 -0.3137656 -0.28719378 0.47738758 -0.18215139 0.510007 -0.48822218 0.46035567
由 0.62303513 -0.072093725 0.30213448 0.3373668 0.12077142 -0.17258626 1.0869317 -0.33265913 0.5006652 -1.0668758 -0.19105001 -0.27251577 -0.069193766 -1.2454873 0.6177836 -0.6970235 -0.1696451 0.81107754 -0.6472646 -0.07174525 0.28982008 0.39557463 -0.07508803 0.4521883 0.4042096 0.18724881 -0.24644867 -0.46302116 -0.45026296 -0.5356646 -0.66548276 -0.07855745 -0.64581484 -0.33506942 -0.010262872 0.34549296 -0.0026509536 -0.20816523 0.03880398 0.9898693 -0.6275507 1.080406 0.76506263 0.6247615 -0.16641818 -1.0285738 -1.2621355 0.55079377 0.82782817 -0.06586076
仲 0.21275942 0.14662105 -0.6652044 0.50903445 -0.24372384 0.060152743 0.24196522 1.611367 -0.1211024 -0.07172906 -0.012088735 0.08972778 0.82163846 0.645153 0.27354288 1.1742929 -0.06482998 -0.5803697 -0.3125898 -0.29601476 0.22995934 0.433771 1.1955708 0.11099619 0.46854392 -0.22030301 -0.23190886 0.13018578 0.052688144 -0.6849535 -1.1382762 0.36765486 0.52733904 0.9997022 -0.3677793 0.45184433 -0.9878854 0.041287128 0.74529743 -0.64650244 -0.16557935 0.33108684 -0.14209156 -0.8228988 0.29361796 -0.21867022 -0.16057552 1.2285581 -0.0018842386 0.17126496
非 0.5129559 0.64815056 0.060101278 -0.13030219 -0.1565219 -0.15806173 -0.4214485 0.23229393 0.06577578 0.4433433 -0.38334575 0.27895978 0.22105531 0.32815284 -1.1197935 -0.7671079 0.023619475 0.81864476 -0.41323543 -0.44704494 -0.1589422 -0.22635159 0.028352683 0.56901824 0.61103374 -1.1069434 0.6204173 0.48663893 0.24494374 -0.2779578 -0.79504573 -0.39842263 -0.03794208 0.28923404 0.28456783 -0.08255574 -0.68870884 0.4413827 0.49631354 0.9338762 -0.6313718 -0.011996727 0.74197066 -0.7513155 0.09482607 0.5248926 -0.18647923 0.25050744 0.2726876 0.21824539
出 0.33087596 0.22286424 -0.3734808 -0.22174725 0.33372498 -0.4436183 -0.70281076 0.49526337 1.0504771 -0.34540954 0.0845919 -0.28532588 0.05096997 -0.35636705 0.33614674 0.056678474 -0.40998974 0.45837283 -0.25048718 -0.63257843 -0.5304818 0.83344704 -0.21969165 0.79204774 0.3082214 -0.6534918 -0.024321448 -0.07970771 -0.763641 0.28582817 -0.23146221 1.0204312 0.24217592 -0.010070285 0.862231 0.3002875 -0.7491572 0.5768312 -0.5739903 -0.38489097 0.07659639 0.18623981 0.19157274 0.095774956 0.947504 0.37840703 0.29613158 0.85064125 -0.45095083 -0.027698038
过 0.0768457 0.65793353 0.02190888 -0.38380304 -0.3804214 0.23375712 -0.008113079 0.071375534 0.87342876 -0.38294896 -0.29318336 -0.042516667 -0.4636899 0.009621081 -0.19487588 -1.056389 0.20115934 1.2768791 -1.150706 0.03327392 0.9349863 -0.070465505 0.11554377 0.58635366 0.530267 -0.43578374 -0.38273287 -0.62308604 -0.47785717 -0.7483419 -0.9112369 0.11653712 0.25294772 -0.039268326 0.124098696 -0.115114465 -1.305183 -0.20052737 -0.22072425 -0.75854194 -0.19696288 0.41852266 0.4364016 0.24982662 0.016169867 -0.021256674 -0.31528297 0.739664 0.07475838 0.64735115
一 -1.4137385 0.43609875 -0.36920428 0.6189202 -0.61864364 -0.06949878 0.063942626 0.7000874 -0.0597592 -0.40178597 -0.04041378 -0.035675474 1.6330762 -0.058286645 0.37638298 -0.26554862 0.2881393 0.79358995 -0.15883183 -0.3129056 -0.359953 -0.10240424 1.4054118 -0.31994674 0.34478608 -0.68871737 0.1865271 -0.30859983 -0.61832476 0.10166749 0.3498105 -1.2032832 0.810809 -0.003917722 0.22385815 0.40594855 0.45761332 0.42065236 -0.11022093 -0.16696088 0.17496707 0.3247796 -0.06373207 0.1185741 -0.7992069 -0.3462813 -0.031780146 -0.43815947 -0.21079414 -0.08563228
虽 -0.078274116 -0.37724748 -0.39744005 -0.09421734 0.29125014 0.5997903 -0.016994983 0.69635326 0.30375788 -0.3322387 0.44397283 0.46649003 0.4138413 -0.6052374 -0.6205385 -0.4870593 -0.49602824 0.20043488 -0.39570123 0.05266089 -0.15361726 0.07426347 0.43533418 1.1836993 0.23212633 0.03185522 0.11322811 -0.8871402 0.25224885 -0.36952794 0.33678102 -0.8141897 -0.2691075 -0.4928471 0.07665943 1.247278 0.22976643 0.4614182 -0.64959025 -0.02565019 -0.20103155 -0.115394995 0.74604285 0.13507265 0.14174384 0.4147155 1.1346756 0.8585572 -1.4939029 0.18589498
足 -0.51121104 -0.41507643 0.12837726 0.7703747 -0.32296953 -0.7416585 0.58637786 1.0657789 0.4676988 -0.36278746 0.05325472 -0.9860413 -0.34906477 -0.31414214 -0.6684831 -0.1593314 0.5140592 0.9117433 -0.21292563 -0.303932 -0.791671 -0.17378047 0.34457275 0.73805296 0.3359494 -0.43413544 0.6737862 -0.0209603 0.3309421 0.44544807 -0.003223911 -0.5398216 0.52639806 -0.008402244 -0.07523148 1.242602 -0.28033155 0.2919427 -0.51240027 0.04993543 -0.8768323 1.2364782 -0.1303781 0.81014925 -0.26796335 -1.0238947 -0.16169834 0.5263989 0.35840562 0.49626452
居 0.09025094 -0.5559398 -0.89385206 -0.23882465 -0.30510542 1.0242292 0.16049798 0.4005569 -0.115739614 0.070524365 -0.42291 0.2933676 1.0511528 0.5384052 -0.9263846 0.40358612 0.6124784 0.47625723 0.043166444 -0.22109814 -0.4046923 -0.66300404 0.19596282 0.6853935 0.06363671 -0.023760263 0.23764676 -0.18930583 -0.119076714 -0.64686936 0.33963746 0.8056845 0.019562362 -0.25251272 0.8513463 0.03942429 -1.5243791 -0.73541194 0.0022708564 -0.20617692 -0.36977527 0.13721266 -0.109977685 -0.35399938 0.58749664 -0.006618877 -0.07707487 0.32521227 -0.825916 0.071638465
尔 -1.2330126 -1.0113591 -1.1041971 -0.6660297 -0.51130146 0.19283918 -0.44611984 -0.29733044 0.5692326 0.2053177 -0.7797257 -0.2710866 -0.56747925 -0.32096022 0.5711767 -0.98665786 -0.12259452 -0.01298517 -1.2203528 -0.12042025 0.16190763 -0.8312623 0.26980683 0.27442536 -0.004983971 0.02844381 -0.71519834 0.70017636 -0.059410855 -0.98919684 0.07626303 -0.56357867 -0.55742747 0.17813109 -0.16810724 1.0009856 0.70152444 -0.1574791 0.110036165 0.24399243 -0.17580992 -0.09740093 -0.5178667 -0.88933116 -0.21307288 0.4015797 0.01688711 0.78960913 0.5638102 1.5818591
夏 0.18717949 -0.4124821 -0.8271918 -0.31901282 0.2683647 0.46827662 0.22149812 -0.38660753 0.83763164 0.28337166 -0.32203948 0.22315668 0.7625993 0.81765044 -0.36267677 -0.4622693 -0.033156354 -0.30260468 0.16204788 -0.06594173 0.160111 0.62603176 -0.49321902 -0.08607444 0.8681352 -0.21324624 0.08741163 0.22671506 -0.2250115 -0.993568 -0.40179867 0.13027598 -0.3727497 0.61539155 0.5438366 -0.7608799 -0.033535358 0.95518565 0.09933291 -0.35812226 -0.7003822 0.13305005 0.56848663 -0.62683314 0.3633605 -0.047645535 -0.52733403 0.18931189 0.19380246 0.43716064
父 0.5069448 0.31454748 -0.4519772 0.5543262 0.10746019 0.72609204 -0.040885217 0.3890493 -0.12947445 -0.67596006 -0.35700542 0.25762486 0.8789421 0.20122282 0.06153735 0.051431753 0.103780925 -0.14795935 -0.6728064 0.41505942 0.73392236 0.221653 -0.42137536 0.029901614 0.34548637 0.13845865 -0.24032977 0.484599 -0.47675768 -1.0338664 0.67513657 0.28110144 0.69047403 -0.02558241 -0.27633062 0.70250875 0.10505555 0.526681 0.2022423 1.1237574 -0.13818648 0.1997101 -0.06353484 -0.863553 0.37927455 -1.387276 -0.7411005 1.0182704 -0.35662737 -0.3148619
及 0.3507651 -0.09937964 0.22238077 -0.26808235 -0.9514189 0.42117032 0.4324762 0.31172624 -0.026690854 -0.22932197 1.2868342 0.5158951 -0.9945901 0.12305213 0.42333978 0.26115736 -0.1808094 1.1203154 -0.15015711 -1.2925895 0.012312014 0.9678503 1.3670605 1.1891727 0.18395492 0.69548196 -0.6610344 0.23031026 -1.533977 -0.30441526 -0.39617845 0.19553696 -0.18847501 -0.4312975 0.38047555 1.5363668 -0.18013503 0.5480611 -0.31882507 1.046234 -0.76197433 -0.025975855 0.44001925 0.13026467 0.30059743 0.1346943 -0.8371469 1.1744444 0.7499442 -0.26334992
己 -0.84314793 -0.8489412 -0.12687042 0.29133153 -0.55176467 0.7232839 0.45378545 0.6078076 0.3259637 0.3863386 -1.264674 0.04171262 -0.10428439 -0.24306096 -0.8490601 -0.9211743 -0.28386292 0.1803897 0.47254947 -0.6674969 0.4363548 0.31416807 0.49248165 0.22262056 0.029474307 0.07328822 0.49259833 0.052980173 0.9807596 0.90538204 0.5629531 1.1606915 -0.27523845 0.16655196 0.3279538 2.0146742 0.8249622 0.29724225 -0.29148462 0.55223525 -0.5508876 -0.59049076 -0.3999844 -0.26495665 -0.42123657 -0.54794353 -0.40512285 1.4659485 -0.089350194 -0.7745042
予 -0.10350699 -0.31994092 0.10729162 0.94686294 -0.41824153 0.054792352 0.15208852 0.31349042 0.4508143 -0.2245985 -0.9345187 -0.18595289 0.18121889 -0.07875759 0.036841776 -0.25768018 -0.67679346 -0.33704922 -0.73503155 -0.6188257 0.16252893 0.20767649 0.077158 0.8220332 0.58089644 0.12927583 -0.14762376 -0.15916435 -0.6038218 -0.25599474 0.5609241 0.6538261 -0.300498 -0.65477276 0.49572015 0.48615474 0.6473066 -0.46271473 0.5999794 0.5108227 -0.67990744 -0.44424385 -0.9638235 -0.2677406 -0.3282292 -0.29864833 0.27115768 0.18203767 0.16855231 0.18685289
色 0.93046236 -0.006970167 -0.79733413 -0.8680196 -0.74008715 0.15211657 -0.6637319 1.332144 0.27957815 -0.43370655 -0.28006124 0.05668793 0.53936654 -0.586778 0.41327396 -0.37157935 0.25899613 -0.5084795 -0.21927316 -0.16234635 0.21370259 -0.27789292 0.50414133 0.036248446 0.07354527 0.4518649 0.25850308 0.52115273 -0.32022375 -0.115412086 1.4836111 -0.7838531 -0.30839825 -0.56163615 -1.4094958 -0.23750238 -2.009506 0.29304054 -1.1008025 0.4495859 -1.2313149 0.2509567 0.40918276 0.6881625 -0.51121956 -0.16767645 -0.42853412 0.111304276 -0.23287727 -0.46525937
友 0.9391984 -0.9785811 -0.31739488 -0.034642685 -0.26255623 1.162473 -0.08303043 0.03498854 0.25304458 -0.5692631 0.38137758 0.16576882 0.5178662 0.6036195 0.40085265 0.62344056 -0.14029601 0.7882588 -0.56072617 -0.7298375 0.28393212 0.1343692 0.7826898 0.5410219 0.1724056 1.0274996 0.42391995 0.06772207 0.34256425 -0.80966437 -1.2009703 -0.104772314 0.13515888 -0.12771332 0.24370863 0.5251223 -0.3904437 0.27122974 -0.26160678 0.20396356 -0.08449578 -0.93910044 0.15416893 0.13155878 -0.18170206 -0.15760034 0.8744594 0.313201 0.41211092 -0.83170295
成 -1.0240773 0.028366564 -0.39299026 -0.5011277 0.010465255 0.4681956 0.35209635 -0.11976981 0.9386552 0.009469604 -0.72054815 0.016594622 0.84391713 0.289607 0.17789203 -0.33348826 -0.51342773 0.7672457 0.2430296 -0.2547652 0.0049017877 0.98716897 -0.28436092 0.16000535 -0.062814556 0.43569702 0.6225647 -0.2846318 -0.16956735 -0.25162548 0.82021725 0.1513227 0.08726734 0.23572493 -0.9237105 0.080811046 -0.3933627 0.11763534 -0.5025496 0.87748027 -0.8439941 -0.79499495 0.665327 0.31157184 -0.023751259 -0.31858823 0.42748037 0.10445413 0.18527807 -0.23084478
远 -0.21830681 -0.119132355 -0.5091633 -0.15483905 -0.28668788 0.11120125 -0.179335 0.2651293 -0.29753566 0.601512 0.35824805 -0.78768325 0.35195532 -0.25757152 0.21296301 -1.1035619 0.37066445 0.42910898 -0.5275139 -0.7189667 0.09148478 -0.7536843 -0.10920749 0.39797848 0.5212518 0.7516315 0.46833158 -0.6337162 -0.021852607 0.9520113 -1.1306092 0.6841291 -0.3134297 0.65746355 -0.70625925 0.2629101 -1.4719862 0.10419921 -0.47691151 -0.11033382 -0.30830285 0.31637752 0.5006393 -0.15124193 -0.54609656 -0.5061501 0.5889715 -0.3786477 -0.2768546 0.71897405
上 -0.07352091 -0.107868716 -0.6521799 -0.89847463 0.43482643 0.034257546 -0.006102069 0.78603375 0.085022524 -0.049487732 -1.3360089 0.8994562 -0.25851876 -0.08173537 0.29528993 0.0015186175 0.025529401 -0.7672608 0.038526732 0.106455654 -0.31380916 0.40091544 -0.45201012 0.44580415 0.30882886 -0.6056731 -0.24068354 0.5419612 -1.2168698 -0.19793226 1.0482663 0.61148506 -0.4378629 -0.025341634 0.32805124 0.6367938 -0.66843957 -0.057668813 -0.22650628 0.40965125 -0.4673678 1.241511 0.6075215 -0.3333795 -0.13267592 -1.0111802 -0.16428547 0.35555616 0.8177892 -0.30769163
立 -0.07821956 -0.29877037 0.035014853 0.06529868 -0.327549 -0.24576561 -0.45062742 0.21571927 0.5239091 0.60749835 -0.4942354 0.6331256 0.779913 -0.026495723 0.58066726 -1.1876332 -0.20727508 0.612853 -0.6866563 -0.85529804 -0.58138794 0.821756 -0.05107687 0.6904129 -0.11401418 -0.30653277 0.2391549 -0.53494126 0.59981215 0.3503507 0.5625466 0.12127013 0.002903496 1.0634798 -0.2646229 1.2681866 -0.34260416 0.037224866 0.5068394 0.403513 0.5216632 0.050789952 0.5050294 -0.8852984 0.13959068 -1.0390825 -0.31096172 0.15339525 -0.08407885 0.91763175
今 0.30625278 0.85532695 0.11591512 -0.20700525 -0.79402035 -0.1457567 -0.45705017 1.008039 -0.093590915 -1.5260139 -0.0550055 0.513608 0.7423785 0.20592467 -0.95916677 -0.7162934 -0.25298443 -0.07659036 0.41865692 -0.5089157 0.6154436 0.23653558 0.17955086 0.7780806 0.32530686 0.5112273 0.11474156 -0.21980466 -0.6331382 -0.77875626 0.10788135 -0.659222 -0.6659507 0.51834834 1.2441542 0.86704504 -0.28576288 -0.19264732 -0.4381336 0.60403156 -0.27523577 -0.22513705 1.6971849 -1.7070441 1.0647215 -0.59299964 -1.314714 -0.09968159 0.91984713 0.417644
张 -0.29111233 -1.2258753 -0.7510692 -0.9842315 0.5102789 -0.25733387 -0.28386348 0.4433183 0.8603272 -0.1729168 -1.3221371 -0.8662208 0.44447997 0.060799908 0.31161916 -1.0861087 -0.6726057 0.32048297 0.7876248 0.5217472 0.4817889 0.86073405 -0.31101373 0.13853993 1.4641123 -0.5153231 -0.71222425 0.07818397 -0.28360954 -0.3851991 -0.36945233 0.027967151 0.5033425 0.3731875 0.16571109 -0.65579444 -0.6724812 1.183281 0.24756227 -0.5134006 -0.14533125 -0.92751306 0.36434397 0.36367437 0.3898438 0.25821802 -0.5215477 0.24649222 1.4195153 -0.19736543
中 0.6208042 0.4908863 0.10643069 0.8372501 -0.9094462 1.4066113 -0.277135 -0.044093065 0.93387496 -0.380523 0.462145 0.3570921 -0.010048204 -0.7963803 0.12267327 0.28642815 0.07162021 0.0980694 -0.9276468 -0.97341746 0.14811824 0.4332034 1.1033746 0.26209652 0.44937754 -0.71824497 -0.013017692 -0.029674321 0.83680886 0.07202737 -0.17471811 -0.8842972 -0.056239426 0.6485646 -0.16987145 0.48359305 0.05971836 0.31522465 -0.43641958 -0.29672834 -0.095091045 1.6655568 0.7029329 -0.49838784 0.5090578 -1.1932225 0.2547867 0.4221265 -0.47005594 0.20294742
季 -1.0760027 -0.0914918 -0.57526547 -0.019948395 -0.045989033 -0.33739987 1.1161704 -0.050524145 0.13798003 -0.08908416 -0.3626964 -0.9212448 1.7109227 0.52999264 1.1658442 0.32341263 -0.15171887 0.031054098 0.7058734 -1.6794834 0.23684138 0.46255577 0.22337995 0.55583817 0.111540794 0.1660015 0.4909451 0.13343269 0.6682663 -1.0791465 -0.870324 0.71066463 0.9930855 0.26259026 0.56106895 1.0009702 -0.2936572 0.4873665 -0.9687594 -0.83007616 0.13193156 0.51538885 -0.6772326 0.13733134 -0.44466624 0.25457293 -0.0038529073 0.9003136 2.170331 0.77616316
臣 -0.1154906 0.0045831683 -0.99084365 -0.54495674 -0.3148544 0.2981533 0.44563186 0.35551804 0.8552988 -1.0089955 -0.4807106 -0.45627567 -0.067344 -0.53085595 0.07022354 0.25908747 0.47576222 -0.91434836 -0.9762521 0.027171914 0.09999543 -0.28780147 -0.61814904 -0.15983328 0.2713556 0.39650705 -0.0200696 -0.24672657 0.49077284 -1.0608289 -0.675878 0.3941189 -0.18049087 0.27440602 -0.3594117 0.7532871 -0.6606878 -0.58937645 -0.50215393 0.5095109 0.2230859 0.54265976 1.057448 0.55113024 0.19230276 -0.7934973 0.24210007 0.69726133 -0.120130286 0.20428093
贤 -0.83834946 -0.6103945 -0.76851684 0.15602958 0.13489194 -1.1421125 0.17936584 1.1717232 0.39137658 0.2792269 0.2338498 0.13402739 -0.10060775 -0.6098962 1.8133872 0.0999393 0.59847885 0.6300784 -1.1312864 -0.085268974 0.14423782 0.4959796 0.37548554 -0.52123225 0.46740198 0.5465257 -0.38472512 -0.025232 0.041176874 -1.3934692 0.626088 -0.14601247 -0.6537086 -0.1766149 -0.4120135 0.89645994 -0.4284013 -0.006336551 0.6643553 -0.40017116 -0.3418959 -0.09335718 0.07895987 0.88874346 0.07697033 -0.706803 0.56775886 0.9343621 0.65697986 0.8632669
思 0.73094237 -1.6122898 -0.48176184 0.71048504 -0.8588597 0.9030408 -0.26360342 0.11600225 0.6235184 -0.80212283 -0.885712 -0.30520675 0.6211797 1.1445001 -0.22522143 0.09274749 0.5756465 0.10478456 -0.53285146 -0.6290492 -0.84183526 -0.5188848 0.117467105 0.120572664 0.8206858 0.40940875 0.8675703 0.16822776 -0.73797953 0.47623822 -0.25316957 -0.39856783 0.5059262 0.73096555 0.6751925 -0.6257551 -0.35923445 -0.74294597 0.35832092 -0.3122116 -0.46953383 -0.16089089 -0.09161318 0.31109822 0.5239461 0.27605763 -0.46550426 -0.65329015 -0.5719297 -0.44414514
齐 0.2588657 -0.23478696 -0.26074696 1.1344913 0.538674 0.13840239 0.76934826 0.7641206 -0.012912887 -1.0486982 -0.45956054 -1.1428734 -0.25079584 0.4700755 0.42630482 -1.1220661 -0.98566186 0.6654869 -0.76698506 0.21376309 -0.5228034 0.19036286 -0.30369082 0.99541926 -0.11902186 0.09764197 -0.6844369 -0.31658638 -0.042640306 -1.1501278 0.42760116 0.4487851 0.4990531 0.41831475 0.51670283 -0.1327203 -0.06853184 0.45326972 0.56300855 -0.21005596 0.6601826 0.10262344 0.56307423 -1.4345255 -0.46390644 0.01161385 1.2187467 1.0041167 0.37208042 0.33337256
义 -0.96009165 -0.16964485 -0.74402016 -0.40371922 -0.78376573 0.2733498 -0.06103377 0.35596293 0.16657893 -0.2859778 -0.30265534 0.07504507 -0.31459236 -0.41246387 -0.3984693 -0.098294586 -0.09472296 -0.55311406 0.15726778 -1.1890885 -0.14898191 1.7210734 -0.46918228 0.16213287 -0.1280806 -0.185789 0.18353602 0.24896327 -0.53860205 -0.7585953 1.7321494 0.4205152 -0.39878866 0.91036344 -0.08832546 0.85844153 0.09194105 0.55416596 0.18554991 -0.32929012 -0.87461007 -0.44483292 0.15622921 -0.26280376 0.5661849 -0.058801007 -0.34275332 0.19778575 0.13770488 0.5105084
正 -0.69155675 -0.051181134 -0.20923732 -0.08908959 -1.0592729 0.5828768 -0.07843664 -0.3332577 0.56396013 -1.5991994 0.037417904 -0.36818916 -0.046937924 -0.44152507 -0.21198253 -0.40248522 -0.38680664 0.57563776 0.11205357 0.1715851 -0.46967483 0.329585 1.0690997 -0.049187567 0.03689257 -0.44122636 0.09180537 -0.64231414 0.86596936 0.13776168 0.22104242 0.59684825 -0.15946043 0.80732805 0.8392093 0.35460716 -0.03954229 0.28094587 0.59946734 -0.19968529 -0.8610142 -0.05427277 -0.11056017 -0.61829203 0.10112643 0.5800498 -0.8884392 0.39015764 0.47045678 -0.19366448
命 -0.650395 -0.97858036 -0.2757853 -0.021568794 -0.25924787 0.7317332 0.054484352 -0.068315655 -0.008111996 -0.6464757 -1.6932119 0.12724128 0.1605212 0.49320576 0.114379294 -0.94179904 0.4696275 -0.78784037 -0.30007696 -0.014857026 0.611791 -0.40918872 -0.45586866 1.4508952 -0.1767043 -0.052592315 -1.1501268 0.46037346 0.053027414 0.12554684 -0.5993363 0.27503738 0.20929745 -0.5100645 0.3217451 0.150892 -0.35760412 -0.1807468 -0.6489754 0.36049607 -0.7445866 -0.32012025 -0.039056502 0.0015241746 -0.5791406 -1.3054339 1.0699353 0.20743893 -0.16356674 -1.0479853
曾 -0.47847944 -0.48034084 -1.0453861 -0.8626988 -0.19422394 -0.10122256 0.57083577 -0.043189175 0.118944064 -0.40569377 -0.52364206 -0.5548029 0.5310143 0.5727673 -0.4307716 -0.5579675 -0.6467616 0.21340014 0.06627486 -0.7053592 0.83943635 -0.63684714 0.09921766 0.014447233 0.23152545 1.1436143 0.13513467 -1.3067195 0.16369386 -1.7112507 0.22044066 -0.14385279 1.5943104 0.39275616 0.42313725 1.4814358 -0.31004554 0.38925117 -0.37375692 -0.6738588 0.35339725 0.5449552 -0.8170904 0.095782965 0.8801759 0.013283628 -0.19164734 1.0430139 0.008164903 -0.5928782
伯 0.5865333 0.2256785 0.023502734 -1.1687878 -0.48425347 -0.16959873 0.2366038 -0.29565227 0.47030765 0.029616116 -0.20613094 -1.5832206 1.9097016 0.39615828 0.43671012 -0.24284422 -0.12523949 -0.10951943 0.7480341 -1.2630824 0.21322581 0.6989931 -0.47168273 0.38222486 0.81721264 -1.4960709 -0.3416564 -0.093389645 -0.5628452 -0.79252774 -1.0552313 -1.1529219 0.020771898 0.2631137 -0.79749244 0.48498476 -0.16475996 0.31282744 0.9886348 0.10921257 0.4499888 0.46367607 -0.102550656 -0.98695683 0.016032036 0.26800418 -0.6498219 0.292019 0.1012429 0.10053919
门 0.14998698 0.23778301 -0.31679434 -0.96510154 0.18559857 0.32514635 -0.0066049923 0.21580662 -0.09020129 -1.8563437 0.17914522 1.0918039 0.5130138 0.13260914 0.257891 -1.0894494 -0.18771014 0.049898006 0.44998342 -0.4647266 0.72810644 1.781962 0.9666837 1.1807576 -0.10697676 -0.011595821 0.087023675 -0.61726797 0.7104268 0.4848016 -0.15292905 0.046929352 -0.5426485 0.25114024 -0.83571315 0.5690283 -0.6301475 1.3845869 0.7658018 -1.0943499 -0.17232609 0.11588636 0.07024765 0.13607554 -0.9126937 -0.5616372 0.18553971 0.47472978 0.53640693 -0.3730489
敢 0.14873073 -0.9370647 -0.16017441 -0.014505517 -0.38769403 -0.17239931 -1.2464226 1.2764766 0.9897653 -0.53667766 -0.7732452 -1.0767429 0.5996127 -0.7152474 0.39355105 -0.08389104 0.2979315 0.25470623 0.09483921 0.1924469 0.37364075 0.074620485 -0.076058045 0.18930665 0.73342 1.5789102 -0.4144843 1.2985996 -0.2991108 -0.25510374 -0.4238594 -0.40262964 0.12963434 0.7910141 0.36369002 0.40156952 0.040307786 -0.20956604 -0.03750503 0.67665076 -1.2355015 -0.06496008 -0.08996064 -0.7167068 0.32906228 0.4833748 -0.13837044 0.3751642 0.77209973 -0.73380023
犹 -0.33768508 0.17100601 -0.121127225 1.2461512 -0.6262287 -1.0331613 -0.8390693 0.14914243 -0.100034736 -1.3250551 0.06266857 -0.39741674 1.3880416 0.4976017 -0.42403692 0.29858685 -1.140453 0.2635825 0.32462585 0.16406134 -1.2009102 0.88710105 0.31657785 1.3678079 0.45141798 0.85620344 -0.7571204 -0.46739683 -0.21500179 -0.8193597 -0.8522951 1.2050463 -0.4916323 0.52422446 -0.20605542 -0.52348894 0.03616542 0.2779255 0.0060492586 -0.53469723 -0.4329871 -0.051245883 1.4937932 0.408266 -1.3019866 -1.1487966 -1.2733084 0.5657768 -0.03933152 -1.0087446
生 0.15896088 -0.1255517 -0.084129035 0.30174965 -0.80575466 0.45138714 -0.20106576 -0.2407567 2.129295 0.4139663 0.37409985 0.21176283 -0.44913518 -0.022021253 -0.14512797 -0.5474425 -0.9812096 0.56754607 0.09215619 -0.85585225 1.1999289 -0.29943174 0.6160071 -0.57372487 0.6419711 0.507432 0.4723166 0.68600327 -0.6370652 -0.3620399 -0.085534655 -0.5221369 0.014903568 0.5916317 0.083609566 -0.32770026 0.02040264 0.037995737 -0.15353216 0.46771455 -0.552591 0.18240452 -1.1020203 -0.4433379 -0.12456104 -0.71197295 0.104413204 -0.44272363 0.23471239 -0.07954592
日 -0.6815993 -1.0038569 -0.38114244 1.1987597 -1.2594345 -0.22753337 0.98273396 1.1516639 0.22849378 -0.6786038 -0.1985128 -0.44033673 1.0209907 0.80348027 -0.9734013 0.1624959 0.14095919 0.10802373 -0.43556932 -0.49995416 -0.3993292 0.47126573 0.17950782 0.76725656 0.4222771 0.53627867 -0.27903035 0.11017801 -1.261288 -0.7338388 -0.7205128 0.47419417 -1.9543494 -0.57054085 -0.513366 -0.014208171 0.35672644 0.34203923 0.5291886 0.3158962 0.17630933 -0.16065463 -0.38582715 -0.6725186 -0.0011606979 1.1818386 0.4928623 0.42514417 0.054731265 0.010601861
敬 -0.19445103 -0.5792013 0.045646783 -0.3290581 -0.49810585 0.42233357 0.27956757 0.5069108 -0.13802652 -0.43621755 0.89582 -0.14476673 0.20284179 -0.88504964 -0.36749363 -0.3442678 -1.0073404 0.007055265 0.6367092 0.37789887 -0.09126586 1.5754457 -0.31132936 0.73281187 0.21129279 -0.96232355 -0.4264409 0.4472886 -0.5519934 -0.11224462 0.67370737 -0.091631085 0.40997827 0.9490337 -0.27872983 -0.15723991 -0.5824632 0.7779702 -1.038126 -0.5763903 -1.315617 -0.8296547 -0.62109226 -0.47091267 1.2637805 -0.6594529 -1.0221701 0.41052136 1.063024 -0.032119058
难 -0.025978748 0.20566496 -0.43518743 0.04624042 -0.24709024 0.6634548 1.1129733 0.56784695 -0.06147426 -0.4921241 -1.1027455 0.715382 -0.17707007 -0.24768217 0.116829574 -0.6156971 -0.09264919 0.5702576 -0.28393057 -0.101410486 0.4911911 -0.41193393 -0.51509696 0.36278567 0.16748208 -0.5477475 -0.30048755 0.11547502 0.31128135 -0.689309 0.46447724 0.25174525 0.49226367 1.0498208 0.7920146 -0.29850045 -0.035590306 -0.13889356 -0.581044 0.8338088 0.05971186 0.26814076 0.8151536 -0.06618825 0.6673193 -0.34384558 0.94334495 0.11355923 0.42186943 0.5714763
直 -0.58947164 -0.20022392 -0.119236335 0.3543646 -0.11167319 0.5429338 0.39411733 0.5163719 0.28302363 0.48807338 -0.7648975 -0.47964734 0.4121562 -0.6892905 -0.05198968 -0.95483375 -0.93456674 -0.07124152 -0.20044465 -0.47100794 0.5633268 0.83411217 0.04603391 0.051393315 0.13078324 0.42438647 1.223391 0.4301847 0.023563549 0.63560367 -0.36249015 -0.29099765 -0.42481893 -0.2612407 0.27123535 1.3385326 -0.6693182 -0.1412563 0.097692765 1.0280479 -0.56830907 0.15815401 0.3458593 -0.176523 -0.9445881 -0.9606149 -0.032354854 0.44051433 0.6142982 -0.009023667
丧 0.04458496 -0.545201 0.40231067 0.055833567 -0.08020232 -0.33045617 -0.11218953 0.4125113 0.055114202 -0.8788908 -0.18802871 -0.32871845 0.8592009 0.34833467 0.81737894 -1.1178097 -0.6048462 0.9158917 -1.0478114 0.71476156 0.25886437 0.2259865 0.21414526 0.13450506 0.21600415 0.2780923 -0.053218216 1.3699511 -0.6768607 0.022611141 0.048528183 -0.025688944 0.53898376 0.81445146 -0.9674747 0.35800025 -0.72870773 0.6220145 -0.43388745 0.794781 -0.105645604 0.33440983 0.85149693 -0.4935179 0.04304407 -0.92675096 0.13520099 -0.27055413 -0.37348107 -0.59599113
说 -0.07150995 -1.7192792 -0.8940708 0.28959212 0.018022032 0.04425815 -0.5177411 0.13853629 -0.2566648 0.17272078 0.3334708 -0.42268777 0.2511853 -0.10682701 -0.55701536 -0.60313994 -0.5838192 -0.10509653 -0.7003609 -1.245234 -0.054007735 0.39480662 -0.38210553 0.7808313 -0.22759362 -0.553989 -0.4452851 -1.1440212 -0.5238539 0.8129527 -0.596185 -0.68084687 0.01183009 1.0718913 -0.54709595 1.3798876 -1.0623465 0.26679325 -0.35434934 1.1703389 -0.21691199 0.5985825 0.15926382 0.20972678 0.049508266 -0.8835224 0.42364565 -0.2682183 -0.4357029 -0.015026988
自 1.1925309 -0.024586547 -0.48835966 -0.105207935 -0.06606958 1.0080028 -1.1502976 0.24406436 -0.17341812 0.1028367 -1.5752574 0.69097954 1.5004362 -0.53168005 -0.5677048 -0.6242518 -0.908567 -0.030851033 -0.31232458 -0.18573338 -0.113135055 0.2081992 -0.025467824 0.10567889 0.14730567 -0.553538 0.44263893 -0.56314737 0.31019437 -0.6530479 -0.60106826 -1.1975107 0.43173677 0.7032569 -0.109278604 0.0693321 0.44539976 0.5840746 0.07607304 0.31437877 0.28912133 0.09879435 -0.07043274 0.6965051 -0.66573006 0.16198389 1.1859188 -0.03819787 0.2922998 -0.53733855
用 -1.0826991 -0.10584933 -0.54661626 0.2470336 -1.0848806 0.7788023 -0.14021106 -0.27119467 0.72961915 -1.0383505 -0.05054664 -0.29874778 -0.2406672 -1.0821176 -0.17927797 -0.5806344 0.32698438 1.1892768 -0.49238274 -0.1720639 0.022277802 0.013260344 -0.65940815 0.9407924 0.6824441 0.3849514 1.1690676 0.2168531 -0.50226444 -0.10832937 -0.21256372 -0.1980011 0.24894322 -0.23521118 0.10892803 -0.4234395 0.74667853 0.015360654 0.98291594 0.53518045 -1.1928072 0.24058032 0.8107771 -1.3380606 0.27183264 0.9862157 0.17187986 -0.16712074 -0.5448068 0.16294387
周 -0.65343904 -0.11991762 -0.27833214 -0.72494525 -0.5271564 0.018860208 -0.7549378 0.4598974 -0.9035473 0.3580627 0.05075628 0.031280134 0.8998556 0.63702005 -0.19983126 -0.7634935 0.7648908 1.4858618 -0.5930438 0.4246138 -0.21068163 1.0538074 -0.42169315 -0.44422916 0.2761838 0.08853413 0.06093061 -1.8035542 -0.50745696 -0.4739704 -0.18957129 0.414802 -0.20695332 0.033183884 0.04953947 0.24019568 0.054099906 1.0305247 -0.106053725 -0.15288043 -0.49864694 0.34645072 0.50564736 -0.15751913 -0.4363191 0.21950747 -0.6415184 0.54990053 -0.12717046 0.11523129
颜 -0.9603987 -0.4777757 -0.23187892 0.6024798 0.73475194 0.24729016 0.032832727 0.95330757 0.26782662 -0.2437056 -0.320943 -0.68197 0.33087593 0.90137 -0.22218311 -1.252608 -0.60421914 0.9511833 -0.7000698 -0.30822107 1.2030289 0.34312004 1.4716042 0.73764807 0.75515133 0.2812955 0.42269176 -0.51061374 0.8350963 -0.946776 0.11387181 -0.09272542 0.8867199 0.18238607 -0.14498846 0.45269084 0.3399111 -0.08140983 0.32500625 -2.0323198 0.32128647 0.19961277 -0.7020313 0.44830596 0.051143702 -0.57177323 -0.18627183 0.7876716 -0.8213154 0.186364
年 0.17810988 0.089065656 -0.77132547 0.46743396 -0.3494445 0.004671927 0.055371184 0.45092982 0.75574595 -0.6454741 -0.40767503 -0.6591406 0.9120503 0.9140087 -1.0556437 0.46665692 -0.5126614 0.3457063 -0.50122374 0.06803364 0.39758885 1.2409841 0.7718553 0.57914233 0.7736035 0.86985093 0.40470335 0.6509604 -1.0275317 -1.5818713 -1.3564777 -0.88629365 -0.042252354 -0.31567106 0.09139915 0.9378726 0.71401113 0.56357867 0.17093946 0.15233569 -0.08760952 -0.6034912 0.1898284 -0.016468026 0.46913898 0.03469988 0.46952298 0.13607357 -0.7473785 0.7231493
告 -0.521755 -1.0353835 -0.8761506 -0.4165713 0.012038908 -0.1070187 0.7050599 -0.005304921 0.16710182 0.51849335 -0.5566263 -0.3629205 0.66042906 0.8462246 0.076440156 0.104424044 -0.3758684 -0.2833115 -1.3183532 -0.9375093 0.04448054 1.2666683 0.030490395 0.5544874 0.44664636 -0.05991878 0.21259624 -0.25413793 -0.3752896 0.4152436 0.3237417 -1.0604043 -0.5891858 -0.43413 0.97777826 0.7780748 -1.1747295 0.3575128 -0.50012976 1.34548 -0.06663802 -0.3851941 -0.11704072 0.35640773 0.2290884 0.21137738 -0.6466361 -0.37918368 0.10900501 0.45870996
十 0.87686265 0.17928351 -0.28556937 0.49975044 -1.0232315 -0.62393403 1.0691223 0.36063534 0.4425064 0.79032594 -0.7663687 0.28994483 0.88934594 0.03455833 -0.37781334 -0.3462025 0.14290808 -0.54716355 -0.9842946 0.068841934 0.31645146 1.1691569 1.2499744 -0.33718342 0.88302547 0.052223966 1.6576122 -0.20360585 0.20232193 -0.30686224 -1.4529376 -0.45687905 0.10244683 -0.34834358 -0.58833194 -0.008691679 -0.0042346357 0.12664214 -1.3122187 0.027103303 -0.4104429 -0.08230282 -1.0750382 0.49301377 0.30172795 0.0069777463 0.39051652 1.0606762 -0.68752766 0.7274872
怨 0.22194645 -0.5896681 -0.4338465 0.21293311 -0.36690766 0.16006704 0.3849255 1.5121175 0.66802126 0.040245768 -1.3571202 -0.49990717 0.5249473 -0.5025947 -0.23398973 -0.041159302 0.489596 -0.30226812 -0.37044397 -1.1051918 -0.93726844 -0.8664776 0.88081735 0.17858471 0.095588766 0.55048996 -0.270168 0.14445435 -0.1813844 -0.48834273 -1.0844586 -0.16316123 -0.5964101 0.5374837 0.33463594 0.40579072 -0.43569124 -0.025074745 -0.6007455 -0.015313118 0.5720955 0.5194884 0.9349769 0.29214633 0.8584587 -0.4724284 0.31851855 -0.565103 -0.04477189 -0.6011329
达 0.44983104 -0.44285545 0.07112959 0.14885417 -0.50670344 -0.27920365 0.4777921 0.94682497 0.33925956 -0.12221815 0.591033 -0.4436545 0.6226505 0.8246752 0.5228514 -0.41206357 -0.40167773 0.051310334 -0.037001662 -0.07550816 0.6904444 -0.5241324 0.13484295 0.94816065 0.03811367 -0.8243033 0.5571095 -0.8147684 -0.51591814 0.27855137 0.4397507 0.5227173 -0.2637354 0.15021032 0.0014729326 0.22231352 -1.1679971 -0.3136327 -0.023256224 -0.041700333 0.73666734 -0.19676055 0.29539806 -1.6152167 0.45551467 -0.48056498 0.06378831 0.9103402 1.0876597 0.37805063
孝 0.040848255 -0.12614615 -0.5427706 -1.0089544 0.18238488 0.33638358 -0.5201688 0.5392997 -0.20879272 0.059317626 -0.44925216 -0.5260449 0.63380486 0.35572103 1.292678 -0.17693257 -0.015325099 0.94330996 0.18683793 0.07847355 1.0206308 -0.11448082 0.72932607 0.40665603 0.921962 0.631254 0.08184375 -0.056479126 -0.7085175 -0.14990479 -0.04486175 0.44045624 0.3169273 0.24802355 0.5500974 1.2212166 0.43634722 0.77744126 1.0411093 -0.013668983 0.393985 0.010369622 0.7496805 -1.2567031 0.22796097 -1.0004003 0.16439933 -1.1259567 -0.3532053 -0.7325722
弟 0.6161717 -0.31032267 -0.6573023 0.46543714 -0.178929 -0.048984583 -0.3188804 -0.25306076 0.6830255 -0.10842685 -0.32034463 1.0710411 0.1909246 0.2409173 0.0120721 -0.63089955 0.6094358 -0.10303432 -0.81173074 -0.7829175 0.54102975 0.040131357 0.557848 0.6974493 0.7428266 -1.3344556 -0.17145538 -1.0662638 -1.6506503 -0.5517602 0.799552 -0.06934931 0.1410808 0.028680496 1.1343166 0.28589484 -1.1060565 0.7179391 -0.26606798 0.45781335 -0.4243859 0.6096748 -0.4660732 -0.10516354 -0.3660838 0.24778052 -0.08657375 -0.6571243 0.6893381 -0.63550663
至 -0.6050498 0.8514637 -0.713505 0.16631743 -0.66312754 0.33930534 -0.4697248 -0.45219103 0.9357687 0.07036305 1.0537337 -0.6616604 0.5361007 1.6431038 0.66897887 -0.0045141643 0.6722851 1.3285917 -0.9852439 -0.9466851 -0.3847393 0.66176045 0.64206856 0.599157 0.16115339 0.40531144 -0.77074534 -0.11320509 -0.37566316 -0.63623583 -0.4725954 0.5118409 0.2478001 -0.010501101 -0.19220152 0.47690016 -0.11588591 0.956159 -0.92937315 0.04981414 0.20704651 -0.16773066 0.23203439 -0.04737335 0.05259133 0.07000129 0.2901934 0.10617495 0.2791133 0.85471034
先 -0.35914087 -0.73526895 -0.7304471 -1.1259947 -0.12386895 -1.1944914 0.16557099 0.7383545 0.32589749 -0.7630491 0.08411594 -1.3783368 0.40778917 -0.64996916 0.2736631 -0.6820853 0.64212286 -0.5810959 -0.86554486 -0.3551557 0.32637635 0.19616795 0.30057454 0.5589762 0.3377614 0.25527734 0.4078481 0.005666733 -7.5413845e-06 0.08184848 -0.38294083 -0.114232026 0.19278035 -0.32760736 -0.30890697 -0.28362548 0.308856 -0.652866 0.78232044 0.6718177 -0.8670602 0.5640521 0.58452266 -0.08904345 0.26866394 -0.37999806 0.25727627 -0.3450726 -0.36992797 -1.7003329
师 0.89244246 0.4337425 -0.82478917 -0.47970754 0.02687553 0.019622821 0.8516443 0.95086515 0.23597576 -0.58570236 -0.20727244 0.6447412 -0.69532335 0.851126 -0.022918109 -0.35066298 -0.1294944 0.76420915 -0.21445914 -0.3601029 -0.16773483 0.07345585 1.2786156 0.15974754 0.43110508 -0.47174135 -0.096689925 0.16610217 -0.3567533 -0.064003006 0.28022268 0.14017394 -0.050106637 1.0618186 0.8922489 0.9450647 -0.33084476 0.5852007 0.50067526 -0.44676515 -0.13197923 0.33821705 -0.34901574 -0.32864603 0.3838718 -0.28915435 0.96044123 -0.4835632 -0.03555003 0.60677826
女 0.34875908 -0.59676385 -0.4852698 0.25405943 -0.2254396 -0.23676167 0.30663294 0.73887116 -0.16581155 -0.2889939 -1.0893651 0.7308952 0.8688272 1.211399 0.047953147 0.41196752 -0.115621924 -0.32511944 -0.45437127 0.0068336492 0.5824944 0.59049857 -0.5069084 0.08872907 0.6450958 -0.20534495 -0.019054677 -0.2873582 0.29008368 -0.57119536 0.21484947 0.12587997 0.9613108 0.6370515 0.65118104 1.5470351 2.0362957 0.31046492 0.3880432 -0.10249642 -0.79123646 0.59053016 -0.4461441 -0.19492997 -0.02346474 -0.18782596 0.69016975 -0.6278506 0.013192055 0.4827525
多 -0.28252178 -0.1931911 -0.061831422 -0.14204137 -0.7220364 0.29073435 0.52980614 0.32183102 0.30971596 -0.061891917 0.4818375 -0.79886764 0.15342177 3.6099926e-05 -1.0807896 -0.18855296 -0.82205427 1.3398318 -0.13256525 0.5797262 -0.7473377 0.7257303 -0.023195192 0.06587843 0.16109508 -0.503029 -0.040752944 0.29284614 0.06726039 0.10702188 -0.2801582 0.085650705 1.0853224 2.079753 0.0031999194 -0.031529747 0.054386005 0.0658872 -0.07943736 -1.0304605 -1.3893784 1.1571798 0.51446474 -0.34117448 -0.4345619 -0.58377343 -0.16395776 -1.0451744 0.47644296 -0.45362082
忠 -0.681195 -0.4754746 -0.8483122 -1.2334862 -0.05463228 0.84729767 -0.42981127 1.3944887 1.1059293 -0.53959113 -1.2494411 -1.6220607 0.72797036 -0.5920471 1.0267744 0.4621783 -0.91102993 0.8798652 -0.3897384 -0.8691222 -1.5463722 0.61749125 0.4308908 0.5622116 -0.09293428 -0.96320903 -0.30681866 1.3829595 0.8105426 0.9441664 -0.036233768 0.26233378 0.56073916 -0.13529857 -0.7725195 0.15564083 0.6091649 1.0805471 -0.067319214 -0.85639405 -0.46955296 -0.53945905 0.06667613 -0.5634947 -0.67713124 -0.2843408 1.2385699 -0.6906007 0.28225255 0.8736654
四 0.6001907 -0.4613117 -0.2563692 -0.027744029 -0.49484405 0.7843523 -1.7197118 -0.63069546 0.9667028 0.23814443 -0.17149271 -0.40314984 1.0485337 1.0042251 0.5267096 -0.87765896 -0.084688924 -0.73176545 -1.6544176 -0.7304558 -0.1274339 0.0040672286 0.3408422 1.0074012 0.043154135 -0.9349525 1.1008185 0.18892263 0.4688719 -0.25702414 0.1630464 -0.6285616 -0.30053207 0.108765386 0.06529452 2.2635643 -0.30201614 0.15194413 -0.32919976 -0.595887 0.012155203 0.81123936 -0.7218498 1.1466402 -0.1967088 0.85434157 0.30885026 -0.36934668 -0.49890733 -0.2241025
疾 0.010470333 -0.046216242 -0.70341414 -0.5264587 0.13930309 0.27383128 -0.21726863 -0.92072064 0.20867258 0.15487012 -0.29357123 0.1758572 -0.43186456 -0.25770536 -1.9823935 -0.31697664 -0.23333926 0.30219066 -0.4691115 -1.329807 -0.05377357 -0.32336065 0.7060415 0.017428828 0.5767874 0.6977519 -0.016617866 0.26460004 -0.11530465 -0.6427237 -1.0272834 -0.14180951 -0.45861015 0.7122436 0.02395821 0.5493582 -0.23540847 -0.17331313 -0.47189003 0.14071846 -0.39632824 -0.13709866 0.37530738 -0.022851696 0.98653495 -0.8189148 0.24159762 0.31987545 -0.24777628 0.9683423
服 -0.25971666 -0.8807552 -0.07127677 -0.3616714 -0.55808794 0.37430644 0.1403774 -0.007451118 0.15703055 -0.65430516 1.1986957 -0.5539892 1.353134 -1.0319515 0.06082878 -0.40072078 -0.4867705 0.12409325 0.48325115 0.7164414 -0.7061222 0.8301823 -0.07501203 -0.20145333 -0.16211355 -0.40786317 0.1316676 -0.51908755 -0.6820667 -0.18076713 0.49876994 -0.7113729 0.7819195 1.2121158 0.38078395 0.655219 -0.9081665 0.3800755 -1.2840661 -0.1380939 -0.20294596 -0.22239137 -0.39133134 0.23127085 0.22347409 -0.31729347 0.3664823 1.187926 0.7178497 -0.5327667
氏 -0.7282235 0.28406832 -0.5013133 -0.62157476 0.46254042 0.6091716 0.84627223 1.0283893 0.43314952 -0.9728066 -0.7226874 0.47377172 1.3497893 -0.096337594 0.3929838 -0.38050133 0.07403155 0.6133856 0.2903649 -0.96646553 0.45051044 1.1901994 0.11359028 0.8857572 0.55562586 -1.2730585 -1.003388 0.5044969 -0.9012255 -0.5012697 -1.085885 -0.5581989 0.068454586 0.02318896 -1.7247851 -0.68914646 -0.5737192 -0.26805493 0.7642013 1.2349932 -0.35992655 -0.1391383 -0.7431763 -0.12841228 1.0570061 0.007984996 0.036240976 0.28772268 -0.20116267 -0.5354496
冉 0.097838834 0.36945477 -0.7703323 -1.0260898 -0.22289455 -0.17301069 0.3218463 0.38315302 1.7234432 -0.8503676 -0.54524386 -0.29546446 1.5367373 0.07468369 -1.4501863 -0.3061283 -0.63051605 0.3087219 -0.45437977 -0.23313676 -0.26684043 0.17327313 0.62394184 0.17276333 0.055939864 -0.52109736 -0.315926 -0.17339484 1.0900575 -1.1528693 -0.7106986 0.43965593 1.101591 -1.276168 -0.004329513 -0.35644257 0.3880982 0.0017778898 -0.19460738 0.012725075 0.3252781 -0.13216051 -0.3650208 -1.2149442 0.22508703 -1.7291826 -0.017332742 0.793057 0.3627499 -0.46085894
将 0.15205505 -0.3295087 -1.0733498 -0.2424598 -0.74344224 -0.24099311 0.094975576 0.46714252 -0.99863225 0.14297909 -1.0795072 0.19487695 0.33699554 -0.24711205 0.56054324 0.5897752 -0.46223405 -0.4073139 0.6949499 -1.0514606 -0.38957596 1.0942067 0.63449943 0.92430365 1.0719687 -0.9356546 1.1855564 -0.023822881 -1.0516545 -0.09471199 -0.28598052 -0.46048424 1.5203547 -0.43615133 -0.18978794 -0.5134117 0.78366846 0.35379 -0.6198339 -1.0339209 1.2782437 -0.7355807 0.61300933 0.7411442 0.78181857 -0.7363649 0.0884088 -0.40570188 0.1711069 -0.94000584
士 -0.3508936 -0.23158522 -0.5234738 -0.2839253 -0.17354317 -0.4945833 -0.53899366 -0.24041088 1.5216662 -0.40585575 0.67056847 -0.11166154 0.7923937 -0.77422273 0.09944182 -0.22542225 -0.51120996 1.1935742 -1.1111555 -0.98670703 1.3202559 0.36601567 -0.13625784 0.0197213 0.65878993 1.3024867 -0.16745731 0.33203277 0.46290106 -0.16094157 0.34951136 1.2095387 -1.3078476 0.06768159 0.4279285 -0.6854528 -1.16834 -0.14989018 0.68622226 -0.18329895 -0.7184064 1.7292925 1.2389529 -0.6366847 0.34764135 -0.3973597 0.043292053 0.4836093 0.45335555 1.1130681
丘 0.42633763 -0.18770294 -0.21748866 1.2643158 0.39164108 0.07009721 0.23731184 0.3919451 0.33908236 -0.9895841 -0.42639932 -0.3322114 0.08018914 0.5706346 -0.30666503 -0.39740363 0.75149643 1.0297506 -0.8516984 -0.33592606 -0.6062811 -0.2575055 0.47643936 0.8466485 0.4010615 -0.6488298 0.31947613 -0.14553148 -1.4954231 -0.23088671 -0.42703524 0.3984383 -0.35842106 0.15322943 0.8941468 0.61239856 -1.284854 0.15267172 0.6530162 1.1916529 -0.15760392 -0.288266 0.1485377 -0.9335528 0.18576813 -0.36139092 0.048089944 0.5197228 -0.21077871 0.7443399
身 1.5401101 0.108405784 0.16763496 -0.86595315 -0.90693635 0.3763924 0.17156352 0.4560623 0.7548006 0.009140511 -0.25651062 0.20640951 0.7377226 -0.12005112 -0.13836296 0.018033158 -0.3135277 -0.24062492 -0.8539141 -1.0484128 1.0018318 1.0133487 0.36315757 0.8316405 0.573102 0.12769158 -0.2959565 0.11847591 1.5781302 -0.29033566 -0.69340324 0.704908 -0.32723063 0.4778412 0.31290466 0.08636929 0.3066867 -0.18874009 -0.9458689 0.47784108 -1.1476743 -1.1343511 0.84624654 -2.368273 -0.00346476 -0.71196824 -0.5303581 0.3408442 -1.2224991 -0.87568665
入 -0.33332816 -0.37061214 -0.31773943 -0.17751439 -0.47848487 -1.0864072 -0.27205038 0.38525972 -1.026074 0.22952358 -1.2105968 -0.8972793 -0.3999236 0.54084194 0.9373078 -0.25491452 -0.35453 0.23204988 -0.1451716 0.11332034 -0.78371847 0.9547376 0.39733887 -0.5554597 -0.043279946 -0.27120653 -0.22830598 -0.46929157 -0.6947223 -0.53170615 -0.059146896 0.0043621357 0.06149951 0.6628336 0.35732245 1.2340956 -0.48283556 1.1498516 0.10041427 0.40986028 -0.12963495 0.09178922 -0.69687223 -0.13505258 0.6881543 0.27444574 -0.53510183 1.0655693 0.41277692 0.69357723
志 1.1990067 -1.0142293 0.12746525 0.6344161 -0.48245186 0.77206707 -0.118516356 -0.34554398 -0.094314724 -0.4182851 -0.4347037 -0.035022512 0.97606426 -0.5099263 -0.30874616 -0.41907528 0.3275618 0.47161946 -0.5000683 -1.352374 0.06093174 0.082581185 0.187585 -0.23361309 0.8052662 1.1437689 0.7173876 -0.33396888 -0.63821703 0.07906355 0.017046075 0.7460343 -0.6300889 0.6523176 -0.36390132 0.06495957 -0.5521135 0.762411 0.765345 -0.38608566 0.4059639 0.07739765 0.12491345 -0.96154284 1.0548463 -0.18685062 -0.35972783 0.21809398 1.0701404 -0.24584581
耻 -0.45056197 -0.61355984 -0.75766444 0.31051287 -0.7066539 0.026084866 -0.6113066 0.2019359 -0.4939383 0.25429896 -0.6719843 -0.6817751 0.075200304 -0.10182542 -0.36239237 -0.20127544 0.70152175 -0.39121473 -0.16246356 0.07365848 1.0080175 -0.70481604 0.67974925 0.25028533 0.4379847 -0.030702908 -0.11603569 -0.5130913 -0.8226398 -0.117924504 0.47644505 -0.26530284 0.37359348 -0.29505718 -0.13438448 -0.039456073 -0.72716 0.5514754 -0.5670218 0.37415525 -0.2675523 -0.35960227 0.28444743 -0.6241071 0.9678182 -0.6280775 -0.5503425 0.62018615 -0.1427958 -0.26132482
失 -0.84875256 0.08004799 -0.36196563 -0.08866178 -1.9291128 0.64473724 0.473784 -0.57863015 0.53893507 -0.6994936 1.0179356 -1.1652958 0.23310696 -0.06558131 -0.039449085 0.8131198 0.2904929 0.46467513 -0.77766895 -0.37293583 0.3780734 -0.53928673 0.7197546 1.3491561 0.25693938 -0.5307976 -0.0573881 -1.3652338 0.23334791 -0.08617496 0.14122821 -0.016542017 -0.23880357 0.38513827 -1.4745834 -0.201902 -0.2505669 0.29914585 -0.2192847 -0.9673569 -1.1619607 1.0316042 1.1314442 -0.68363255 0.35020587 0.08582161 1.0504569 -0.1353516 0.69135976 0.08306453
安 -1.1716075 -0.4194081 -0.25168455 0.20599003 -0.5437786 -0.56180835 0.67776513 0.53259355 0.9991862 -0.05527828 -0.12713046 0.14839791 0.64370006 -0.52650076 -0.3487897 0.11865117 0.020104513 1.4559389 -0.9133782 -0.32571217 -0.61753696 0.24094129 0.58644515 0.9490063 -0.09825337 0.55153555 0.07207067 0.27021578 0.1787179 -0.5492515 0.08076718 0.75058174 -0.8467422 -1.0370768 -0.45344028 0.7085199 0.5608203 0.4154204 -0.25888786 -0.6314833 0.13583492 -0.33533219 0.49540988 -0.3440338 -0.18896163 -0.7896511 0.30643305 -0.033127073 0.24420789 0.76468587
富 -0.6635793 -0.4955654 -0.03538572 -0.5243771 0.09515141 0.549278 0.742871 0.51786095 1.323837 -0.17544454 -0.724914 0.40184754 0.44016573 -0.1042633 0.9681732 -0.46401766 0.53974897 -0.4500145 -0.90324265 0.65278804 0.45939842 0.22132376 0.31659293 0.41475093 0.04770654 -0.12590401 -0.43345228 -0.0218783 -0.31196392 -1.5193084 -1.4328867 0.54391336 0.6340242 0.59718746 0.5934728 0.5397422 -0.14391826 -0.6285788 -0.40404287 1.6944283 -0.33786875 0.8231478 -0.11026611 -1.6371907 0.22229794 -0.99359894 0.94566154 -0.94204915 0.44932428 0.5295294
赐 0.7102076 -0.0064081145 0.11363706 0.5651187 0.40615785 -0.35459945 0.0347553 -0.39160037 -0.08133883 -2.138688 -0.8718833 0.33397785 -0.320447 -0.91055626 0.40142244 -0.49225256 -1.6295282 1.4816319 0.46123102 -0.8588917 0.62494445 0.89307034 -0.37363282 1.2309078 0.5253744 -0.014781575 1.047533 0.5454168 -0.2709337 -0.2558553 0.09493914 -0.39465585 0.060073487 0.67052925 -0.578703 1.9313552 -0.047342572 0.32373938 -0.60950315 0.04059987 -0.73782194 1.0637599 0.54984236 -0.43848386 0.6604366 -1.1332692 -0.1802879 -0.26840106 -0.6912167 0.08456978
患 -0.524115 -1.3855813 -0.21022774 0.34262833 -0.93371546 -0.3176742 -0.8652697 -0.2112238 0.8389265 -0.33697852 -0.17854288 -0.327271 0.82970786 -0.39187542 1.1863424 -0.5354598 -0.49151522 -0.25520605 -0.4953783 -0.7061653 -0.69845694 -0.8684074 -0.061455447 0.5838866 0.16800256 0.865437 -1.188302 -0.9532921 -0.090232454 -0.87500226 0.15960318 0.008181261 -0.9642525 0.6562719 -0.6887112 0.39975706 0.8303839 0.23119354 -0.325679 0.5143773 -1.5186228 -1.0449641 0.47166634 -0.33797017 0.1358925 0.6837879 -1.012296 0.06128542 0.19578971 0.409767
百 0.78762454 0.11163001 -0.40647715 0.089135505 -0.47876292 -0.09570266 0.06009939 -0.021563359 0.9771051 -0.067649454 -1.0426203 -0.29604223 0.86913043 1.2805283 -0.23965676 0.18928649 -0.43770114 0.028758664 -0.53249395 -0.42115182 0.7252613 -0.38788632 1.223026 1.1149668 0.4383618 0.657762 1.5077395 0.81216305 0.02982379 -0.26253986 -0.22802456 -0.46566352 1.3980266 -0.13526875 1.0399421 1.0362245 -1.6145527 0.6394854 -0.48272046 0.2591422 -0.65412825 0.41063702 -0.441722 0.47635776 -0.3532115 0.7686384 0.2685242 -0.550748 0.66794914 -0.110442705
回 0.29747367 -0.44735396 -0.20919704 0.56967384 -0.6036144 -0.23548648 -0.36385843 -0.56410015 0.20811942 -0.33959576 -1.3774874 -1.7500894 -0.43580812 0.40862414 -0.6221672 -0.9911329 0.37248433 -0.39475173 -0.8730034 -0.075152814 0.19441141 -0.19735092 0.81091607 0.47375733 0.7357101 0.17455289 0.022566138 -0.5264125 -0.5504556 0.3439129 0.33007836 0.048113596 -0.2008643 -0.23879884 0.49809837 0.5606454 -0.8350352 -0.32862768 0.83766365 0.6714791 -0.79246336 1.0636607 0.057546724 -0.41337582 -0.6492691 -0.17701054 -1.0477991 0.38199407 0.13499448 -0.8752354
宰 -0.47038332 -0.48456568 -0.09137922 0.7056161 -0.6338948 -0.9721342 0.5760505 0.7647955 0.04366416 -0.6726575 -0.8715788 -0.2680793 0.4216425 1.5454143 1.0329213 0.55001575 0.49568442 0.59775084 0.3466789 -0.06738557 0.06007898 -0.19727784 -0.27501938 0.41537336 0.6394215 0.2981732 0.044219386 -0.4665552 -1.2674086 -1.0933876 -1.832073 0.21453007 1.9490781 -0.56316173 1.037725 0.01823328 -0.35054028 1.2074885 0.7600645 -0.23220673 -0.30973625 0.38975084 -0.30241963 -1.0931242 -0.93549067 -0.7522214 1.0751079 0.50354266 -1.1749882 0.9055292
朝 0.41580328 -0.98802364 -0.41809112 0.33654416 -0.22951433 -0.27648193 0.43410262 0.502202 0.07819349 -0.27685252 0.65194905 -0.591013 0.8998003 0.4313576 0.03250664 -0.31478363 1.0181812 -0.2689793 0.29823852 -0.38033435 -0.13531616 0.8528118 -0.69879866 0.6597258 0.10698349 -0.011235699 -0.85552806 0.7973598 -1.5112405 -0.89674973 -0.5250939 -0.16303776 0.5627841 0.3066771 0.7534375 -0.04238678 -0.82389754 0.14337449 -0.50946534 -1.0793613 0.20755735 0.4920192 1.2148094 -1.0327172 0.92853004 0.8045764 -0.2965047 1.3038533 -1.0535457 0.42725024
莫 -1.9622751 -0.33703527 0.08148463 1.2188587 -1.6446836 -1.3644961 0.87979984 0.59556425 1.4780527 0.028564014 0.8648438 0.5261053 -0.4548626 -0.22678868 0.12457267 -0.6140113 -0.008655701 -0.417598 0.30336043 0.14740524 -0.29881293 0.8036927 0.27270833 0.276362 0.6494909 0.7571366 0.67743134 0.65507257 -0.4772021 -0.6878013 -1.0268987 -0.6607918 -0.5829673 0.33509737 0.62969375 -0.36685288 -0.72282463 0.08823155 0.52561957 -0.68170136 -0.92347383 0.74574566 0.3268636 -1.3707573 0.35916945 0.6374588 0.053956073 0.70259345 0.3888032 0.60713327
若 -1.2976848 0.26120043 -0.4365172 -0.5610406 0.36452067 0.101522826 0.7485214 1.9020164 0.7141359 0.65989506 -0.57146376 0.120177455 0.510012 0.522519 0.1376228 -0.12308088 0.10031286 -0.077811636 -0.030480407 -0.57710755 0.8036145 0.10594564 0.13846809 -0.06375291 1.5658678 -0.29312673 0.074430175 -0.45496187 0.7205499 -0.816977 0.0019691605 0.68051827 -0.17783558 -0.011448642 -1.4374356 0.69660294 1.0185577 -1.6774515 0.16555446 -0.9716683 -1.1386943 0.067971356 0.27343217 0.23738374 0.41876844 0.6203966 -0.042221054 0.08094633 1.2502451 0.54486156
云 1.0521146 -0.63537645 -0.46258602 -0.40309915 0.35808015 0.30965987 -0.927305 0.52301365 1.198006 -0.21735854 0.60049254 -0.3180313 1.0925136 0.10837032 0.011105133 -0.07724432 0.017337266 0.527606 -0.26974255 0.17530154 0.018969702 -0.4001731 -0.21357152 0.60625225 0.6837176 -1.1679071 -0.6424903 -0.8145902 -0.036699 -0.5866536 -1.2567129 -0.10089838 -0.4020111 0.8732459 0.92495245 0.17499594 0.6850902 -0.07707614 0.052125968 0.5903408 -0.7932437 0.26388422 0.15888388 -0.16669837 -0.46559122 -0.4473176 -1.1364205 -0.62900776 -0.6043864 1.3998263
孙 -1.0038874 -0.0495412 -0.6588621 -0.6016215 0.14180484 -0.42251354 -0.3639816 1.4627717 -0.29284513 -0.17661917 -0.40172264 -0.98283273 0.5862953 0.2794907 -0.5001849 -0.45263958 -0.5317226 1.0176492 0.1660524 0.039854407 0.57279384 0.9602701 -0.13890177 -0.05461664 0.6674577 0.2605704 -0.52766705 0.041440222 -0.43912372 0.21966287 -0.6173027 -0.7144191 1.2778385 0.33346224 -0.08496946 0.16485903 0.09651196 0.8383857 -0.032680795 0.12662718 -0.3039561 0.085501134 -0.48809102 0.033710852 1.207102 -1.0200595 0.56193596 -0.12441072 1.2044928 0.42098406
或 -0.9009247 -1.5096978 0.5720339 0.078256086 0.4040085 0.06706704 0.63555974 0.3672085 0.24568805 -0.49206918 0.58808774 0.7049471 0.66728455 0.15689076 0.563018 -1.049443 -0.09095248 0.5476726 0.32317322 -0.012613466 1.2808148 -0.4261205 0.75643885 -0.004199253 0.76604575 0.0297616 0.30678102 0.41636756 0.0016822801 -0.777631 -0.07618696 1.1963862 -0.0016469439 -0.070282824 -0.31777564 0.63078076 -0.7196685 0.9271315 -0.3395941 -1.1860377 0.29915565 0.17321971 0.14031568 -0.38059917 -0.13730091 -0.088497296 -0.14711618 1.0992035 0.22736944 -0.31713074
勇 -0.49336934 -0.97187907 -0.5725652 -1.426929 -0.9501131 0.7066471 -0.4125418 0.7508621 0.24322934 0.41093835 -0.3066716 -0.838577 -0.46245947 -0.57805157 0.2795067 -0.47833362 0.27007815 -0.54561216 -0.88725436 0.71225494 0.14172558 0.507718 0.20283242 0.33467686 0.16884917 0.8891773 1.2499304 -0.15174335 -0.3366631 0.14090195 0.37228993 0.6888169 -1.200258 -0.6201603 -0.13336442 0.35929096 -0.12850986 -0.020360697 -0.525998 -0.06699239 -0.68309337 0.57237065 0.5015997 -0.23828168 0.18883514 -0.49237496 -1.4631053 0.7426545 -0.0038363487 0.85327685
孰 0.6475566 -0.5846587 -0.7838126 0.5355238 -0.21979526 0.17453344 -0.56930596 0.44263667 0.73558134 -0.7559987 -0.46006623 0.9026991 0.4747457 0.17118758 0.13986814 -0.15154643 -0.6146207 0.6138736 -0.039460666 0.21917379 0.3349402 0.23766394 -0.42290965 0.09827682 0.27042148 0.537459 -0.47885972 -0.3422661 0.6897654 -0.3251538 0.64013046 0.27577817 -0.68896884 1.416639 1.6233741 -0.16498971 -0.91634 -0.037697736 0.12243343 0.12616524 -0.4254617 1.1483352 -0.185988 0.40047646 0.8920093 -0.7831924 0.31510824 -0.24779952 0.11041507 -0.13663822
叔 0.977756 -0.43532076 -1.3091705 0.96817404 -0.0816358 0.5411565 -0.3775227 0.7527397 0.17072348 -0.63128066 -1.4531734 0.2535148 1.1299489 0.74089724 1.6061206 -0.2512322 -0.010494461 -0.23786245 0.8872533 -0.32563084 0.4101992 0.7060257 0.60192794 0.61574423 0.59561384 -1.2769358 0.167728 0.60216993 1.0942186 0.109574385 -1.3125875 -0.076839514 1.248016 -1.0094699 0.54622734 0.1130173 -0.9084947 -0.37895304 0.008212967 -0.79356074 -0.17574657 0.48176274 -1.7657049 -0.13076943 -0.29825458 -1.0049757 -0.27945822 1.1958379 0.445436 -0.078348406
