1352 100
， 0.030160736 0.19545653 -0.16564107 -0.18982218 0.12609328 0.051856104 0.24484043 0.15803753 0.074476466 -0.19316523 -0.111145854 -0.45514587 -0.113181815 0.31504577 0.009130405 0.053783607 0.2514414 0.23674999 -0.22865348 0.08552549 0.22137597 0.17986083 -0.43886742 -0.07213908 0.099966414 -0.076251164 0.087395206 -0.2764735 -0.24652715 0.2008807 -0.0660474 0.31307185 0.2798573 0.06894609 0.03844965 0.046181925 -0.14286056 0.3693111 1.3860805 0.002091315 0.08325137 -0.3115369 -0.20036243 -0.014577662 0.12105052 -0.08140803 -0.021142058 0.20947477 -0.2999021 0.10946897 0.24871162 0.027454874 0.06145507 -0.011214997 -0.12807225 -0.16208576 -0.056508966 -0.3080716 0.024883691 -0.005990171 -0.080820814 0.47457752 0.45577702 0.15250613 -0.093176976 -0.17677984 0.03216399 -0.11457808 0.14255962 -0.090586305 -0.15599102 -0.4143704 0.04540445 0.08578351 -0.043512434 0.11956156 0.13072899 0.0070969015 0.16905951 -0.2508449 0.13968082 -0.08422246 0.1543383 0.17478281 0.17963447 0.6755768 0.27474105 -0.05901717 0.012396918 0.08231646 0.2544763 0.2981724 -0.028429441 0.37112164 -0.17132793 0.00848172 0.2936647 -0.025859311 0.1533875 0.05921602
子 -0.06808131 -0.29259995 -0.04951903 0.28931826 -0.10021147 -0.025410661 -0.06086223 -0.08419632 -0.12224996 -0.23006485 0.08102079 -0.05998674 -0.057679795 0.0031786219 0.23815547 0.31019673 -0.018986009 -0.033662185 0.07904378 0.07378058 0.0072223516 0.13429257 0.33981913 -0.052177254 -0.03206323 0.023747457 0.08950101 -0.18042427 0.26946864 0.7689652 0.08305143 -0.03352239 0.005843033 -0.2531017 0.16016729 0.15925921 -0.2733732 -0.18876682 -0.2898081 -0.19628501 0.23286945 0.043413095 -0.04256842 0.037441213 0.039791424 0.22202565 0.11004636 0.0054227235 -0.5782766 -0.09394646 0.09508924 0.039747685 -0.19363292 -0.1414362 -0.014960654 -0.41782016 0.21162051 -0.7711106 0.20155057 0.024079887 -0.1226926 0.071408644 -0.16605812 1.0615541 0.040187344 0.056559633 -0.1192974 -0.06649904 -0.096034266 -0.06353032 -0.02424157 0.06601367 0.025667075 0.11228512 -0.24395156 -0.079997346 0.08526474 -0.2908258 0.02418882 0.05501589 0.0085164625 -0.09119573 0.15978062 -0.10148711 0.15822642 0.055638652 -0.13780454 -0.18613511 -0.29333162 0.08516748 0.02441511 0.14787222 -0.055309955 0.13571 0.1601105 -0.48555717 -0.025965204 -0.033300452 -0.011808255 -0.027828494
。 0.10846172 -0.35389847 -0.10831379 -0.40909716 -0.2961467 -0.039563984 0.058508668 -0.26716352 0.07463743 0.5812934 -0.18807486 0.015521277 0.06557109 -0.05633691 -0.0875441 -0.13043268 0.15604663 0.12317467 -0.15246724 -0.22591624 0.017040143 0.09856081 0.031211352 -0.014399091 -0.124839276 -0.1789564 0.0348097 0.2032304 0.2652483 0.5592953 -0.064610496 0.020085623 0.067020044 -0.0122108385 0.1874864 -0.14135036 0.008700352 0.1767735 1.0647289 0.10652724 0.23062347 0.29535908 -0.14968765 -0.17425151 0.062274043 0.15060881 -0.10370988 -0.048018128 0.17196366 0.042729206 0.14029443 0.33239767 -0.1228498 -0.13688381 0.16822293 -0.12925187 -0.14814326 -1.1360168 0.12291275 -0.11368126 -0.19359262 0.21076645 0.13636346 0.26962775 0.39463916 -0.11750037 -0.04028642 -0.06072342 0.12915386 -0.24692014 0.1137465 -0.0016464016 0.25882506 -0.13848768 0.060476318 -0.03516693 0.15100849 -0.19793572 -0.16596472 0.26533854 -0.23701042 -0.14513269 -0.05305094 -0.31808743 -0.27490434 0.01706773 -0.25667083 -0.17220291 0.30079347 0.03927917 -0.23021667 -0.09762783 -0.11534876 0.03666664 0.04498538 0.21783635 0.29013637 0.04198548 -0.3031704 0.15009965
： 0.1364254 0.018321933 -0.14644599 -0.111475304 0.16817185 -0.1182482 -0.052140027 0.006999536 0.05033224 -0.53490883 0.19398849 -0.28405944 0.41518813 -0.019188924 -0.4334345 0.009103712 -0.2801592 0.15176103 0.2735242 -0.19940488 0.14383607 0.17051299 0.024720764 -0.04536272 0.019805465 -0.16786726 -0.14885688 0.1693876 0.22550997 1.2981074 0.063139245 0.17324065 0.16421586 0.30785552 -0.194913 0.08577531 -0.34276772 0.22637933 0.85832804 2.4806708e-05 -0.24311215 -0.15624526 -0.13400868 -0.08048086 -0.0055365274 -0.21543683 -0.012635149 -0.13454255 -0.27328804 -0.07021435 0.13873862 -0.30229786 0.0923829 -0.535598 -0.23532754 0.17864314 -0.0078424765 -0.7815367 -0.049782045 0.15083578 0.19816583 0.2155959 -0.18899007 0.10299211 -0.19411717 -0.16461621 -0.06642011 -0.14175875 -0.147462 -0.1518982 0.17012756 -0.006946479 -0.62735915 0.14863633 0.25395098 0.13286415 -0.021883832 -0.061543625 -0.30332312 0.19728556 0.13284117 -0.28216243 -0.004412205 0.031508483 -0.10484613 -0.18046486 -0.09891202 0.17306612 0.3871232 0.22859825 -0.09657896 -0.11563009 -0.048347324 0.071473695 0.05886002 0.25859076 0.063623 -0.10853819 -0.023900906 0.15930301
曰 -0.082359254 -0.14548412 -0.1651077 0.31868327 -0.06423947 -0.058223445 -0.048866488 0.02709119 -0.0854973 0.007644439 0.34825897 -0.1853257 -0.0104157245 0.008280044 0.114613056 0.16178879 0.038239226 0.10199312 0.10178267 0.048261415 -0.04022633 0.04201479 0.2857133 -0.23634471 0.010894888 -0.029983087 0.05652105 -0.1596128 -0.06700588 0.20927207 0.30496576 0.15328641 0.10644465 0.050696842 -0.049118746 0.00096696615 -0.23150122 0.032901514 -0.15101184 -0.34085515 0.05806841 0.06827004 0.019643813 0.14500335 -0.14111835 0.04756354 -0.06112436 0.16806905 -0.71470386 -0.035908733 -0.049194723 0.08443564 0.03464096 0.065805465 -0.34873334 0.2532796 0.1846099 -2.2310503 -0.08103051 -0.1147014 -0.07646508 0.17266496 -0.20034571 0.2717925 0.32614458 0.039827738 0.1508157 0.054475226 -0.10671151 -0.093720205 -0.08164425 -0.09185317 -0.006120526 -0.0015625277 0.028497342 0.40757588 0.11188569 0.0424041 0.10161328 0.017414091 0.08203754 0.27564657 0.2559854 -0.02742227 -0.19785939 0.09893801 0.1487118 -0.04570525 -0.021368327 -0.04991704 0.3364209 -0.0629437 0.21238607 -0.023010453 -0.08969853 -0.7575418 -0.0672429 -0.028208671 -0.010913215 0.00035027647
之 0.1354376 0.08923473 -0.36402813 -0.06550797 -0.06681518 0.22995843 -0.06974755 -0.2817201 -0.057176806 -0.15304212 0.2183552 0.15972076 0.1534107 -0.003024687 -0.09928008 -0.13901232 -0.071637414 0.28551224 -0.28463727 0.015315115 0.039328385 -0.10612193 -0.11345286 -0.24382594 -0.1843339 -0.2329322 -0.25705037 -0.16841893 -0.56791973 0.026138518 0.25163504 0.32083166 0.2104589 0.14337477 -0.23598881 0.24675524 0.019704282 0.27058578 0.6589469 -0.06968205 -0.064770624 0.006671007 -0.25465578 -0.03906079 0.09268065 0.21550262 0.56840634 -0.15610443 0.028698014 0.2762044 0.017523851 -0.5416067 -0.054360867 -0.5266904 -0.21004553 -0.02131586 -0.17007741 -0.118944675 0.023128891 -0.17937502 -0.1973921 0.26381662 0.032872178 0.6001628 0.12826477 -0.31063393 -0.026492696 -0.038345244 -0.29568154 0.09331511 -0.4108721 0.05523945 0.30869865 0.05223722 -0.2605474 -0.078811325 -0.122053504 0.20406567 -0.055006288 0.23562898 0.04944504 0.014143996 -0.16085681 -0.060133185 0.23264723 -0.0025950742 -0.17266913 0.15535916 -0.26574382 0.25531045 -0.09103646 0.15213372 -0.16635822 -0.009451445 -0.12943473 -0.39929765 -0.11415721 0.032793198 0.1741206 0.1659643
不 -0.0007768073 0.2744047 0.1923175 -0.1378844 -0.12673612 0.13861164 -0.3010299 0.01498422 0.20708098 -0.32062802 -0.0640323 -0.09164133 0.16642597 0.09890973 0.3324822 0.255196 0.13629852 0.1295639 -0.0390837 0.07967449 -0.112058796 0.06267005 -0.38423795 -0.22962205 -0.27768275 0.46553758 0.22092369 -0.0069796834 -0.9523873 0.14964715 0.022543358 0.030611835 -0.030808138 0.14940043 -0.11980055 0.1537086 -0.040488973 -0.19064899 0.45208013 -0.2888048 -0.01716814 0.2177319 0.12250287 -0.059874356 0.035300624 -0.017355433 -0.007993544 0.13693343 -0.12191883 -0.18926987 0.023345074 0.039970707 0.074628726 0.361365 -0.16489226 -0.08075386 0.0041305916 -0.4909512 0.34637168 -0.09008743 -0.32065234 0.299064 0.24945158 0.24 0.21417248 0.013448307 -0.20490974 -0.10991816 -0.18610837 0.032860827 -0.108500555 0.21821435 -0.14263792 0.1849689 0.18650866 -0.19036707 -0.2884342 0.02058659 -0.012188526 -0.059195027 0.29006445 -0.07813994 0.19040884 0.080741614 -0.10398274 0.074754715 -0.024945732 0.16526388 0.02509376 0.13007146 -0.167262 0.19624516 -0.03233634 0.17110117 0.035111457 -0.16731665 -0.09428075 0.18977973 -0.045442916 0.25911793
也 -0.028271005 -0.12649214 -0.20906356 -0.12992167 0.27511072 0.052567124 0.16063187 -0.23650102 -0.12191769 0.24173322 0.20764107 0.07140571 0.005280053 0.039188772 -0.06857676 -0.07088449 0.20580932 0.039488267 0.11715275 0.2386233 0.09565713 0.18022616 0.021494783 0.010369823 0.07739175 -0.17267154 0.009068738 0.17010742 -1.4837422 0.6615639 0.075928 0.15938044 0.04588267 0.05758042 -0.0853692 -0.040392283 0.031435598 0.2549463 -0.1040873 0.12912557 0.12692776 0.17780246 -0.4012841 -0.0077214926 -0.019978851 0.3845022 0.019632708 -0.16086839 0.1412764 -0.022640042 0.2473676 0.051030423 0.20693944 -0.21702635 0.20457529 -0.09037154 0.057283938 -0.17131527 -0.036697295 0.04768555 -0.10542471 0.05830414 0.041563086 0.58790296 0.37035474 -0.14854038 0.30339918 -0.1690539 0.084005296 -0.023431703 0.2825264 -0.26721036 -0.19687122 -0.3524269 -0.039009552 0.22502488 0.03271149 0.21066931 -0.24146843 0.33142745 -0.024509843 -0.10038716 -0.22250718 -0.26072338 0.21766342 0.16837585 0.18087763 0.1638961 -0.042439245 0.0066716988 -0.1291294 0.09875741 0.072207935 -0.027245047 -0.4270663 -0.061334927 0.020366605 0.23775314 0.16177234 0.28993133
而 0.015165909 -0.0015866094 -0.018339736 0.047917508 0.14092956 0.24858856 -0.0848666 0.25687364 0.048464876 0.13949162 -0.009568434 -0.1180155 -0.16203907 -0.05951018 -0.109855525 0.08110725 -0.0048138974 -0.10990728 0.06792626 0.24606776 -0.18967083 0.13421434 0.11660613 0.2319555 0.14302625 0.010552002 0.17959407 -0.12246469 -0.9388933 -0.3871643 -0.18210009 -0.10488167 0.05804 0.4442829 0.16621295 0.255098 -0.16337107 0.020918502 0.94533205 0.036700185 -0.3327058 0.010327989 0.0018168784 -0.24496906 -0.060169883 -0.12643376 0.055157486 0.22723284 -0.26566896 0.053906802 0.025111675 0.046961185 0.07506817 0.31564304 -0.276621 0.20430261 0.18272756 -0.7221688 0.10519052 0.10588674 0.19644618 -0.37403333 0.0045764395 1.0542302 0.079100974 -0.0680542 -0.16764143 0.12857032 -0.09525439 -0.12950349 0.49093738 0.1926435 -0.06274737 -0.017206881 0.047693536 0.31495526 0.026008094 0.06862158 0.02829418 -0.052238405 -0.28358218 -0.05767594 -0.06459835 -0.45605946 -0.14389464 -0.11462707 -0.23041412 0.2553771 -0.21621811 -0.0017446228 -0.03795253 -0.039555036 -0.2651616 -0.24271134 -0.0692862 0.11631724 0.3034083 0.1480979 0.069585584 0.16435409
？ -0.028521083 -0.059641447 0.053975172 0.030194312 -0.12684055 0.06802438 -0.117226794 0.16318196 0.1856205 0.37163648 0.20648964 0.06619978 0.07754718 0.066336714 0.4248275 -0.08888659 0.13415232 0.06594878 0.09463283 0.2495107 -0.18952794 -0.23936346 0.19808856 -0.21523368 -0.06265598 0.026835153 -0.078687474 0.032331314 0.45269936 1.0698406 0.029908748 -0.3024898 -0.056284904 -0.20762643 0.1335376 0.043221246 -0.033905607 0.029899148 1.3725607 -0.08512217 -0.24990554 0.044614717 -0.13110007 0.14890498 0.11829825 0.00946426 0.30298686 -0.039915144 0.106891915 0.018517017 0.001151588 0.22052506 0.19128563 -0.116812244 -0.11237587 0.22128038 0.26176956 0.2730179 -0.0072582006 0.055944145 -0.012774382 0.07502322 0.06916469 0.64197624 -0.17374766 -0.16296758 -0.00053572643 0.0075234408 -0.16500522 -0.06095285 -0.2617495 0.029130278 -0.03561418 -0.024114646 -0.0870363 0.7290646 0.054796647 0.09061084 0.030370653 0.24007384 0.2527414 -0.01224183 -0.16221984 0.0048527336 -0.3072865 -0.038748827 -0.03122338 0.08735479 0.046293695 0.07333795 0.17064255 0.09936542 -0.0015705299 -0.0766882 0.0098855775 0.043416243 -0.07837381 -0.08273876 -0.069515295 -0.034515038
其 0.019508537 -0.08499828 -0.178877 -0.08822907 -0.05803856 -0.041493725 -0.006654555 -0.0035841307 -0.008818206 0.07451142 -0.08949106 0.035598703 -0.07844488 -0.14607956 -0.090264186 -0.16223745 0.01927559 0.11957926 0.013360603 0.040091738 -0.2106037 -0.14531374 0.21054067 -0.355069 -0.051472045 0.14656219 0.14738703 -0.035183966 -1.1040789 0.08476347 -0.029768804 -0.15168878 -0.22762567 0.0053071845 0.08670881 -0.01554271 -0.06822051 -0.20445958 0.5680431 0.08180078 -0.123699695 0.15041769 -0.08974202 0.11321842 0.09897032 0.32909247 0.05434823 0.23248692 0.016245004 -0.021821145 -0.33148214 -0.1552103 0.10187845 -0.30999467 -0.40132412 -0.2215547 0.13168824 0.122680016 0.20823774 -0.30068454 0.26971048 0.19389161 -0.100107685 0.05496438 0.096920714 0.019460166 0.017905422 0.030438932 0.11228876 -0.0034769743 0.14869836 -0.08802737 -0.77211195 0.044038687 0.12077269 -0.20548174 0.057715785 -0.16099694 0.075056724 -0.042724762 -0.16647634 0.21559714 -0.11708559 0.113940306 0.12102696 -0.1774246 0.18686946 -0.12497622 0.11907757 0.037444785 0.12817122 0.015229851 0.052595187 -0.0009986154 0.34310114 -0.09925934 0.08821339 -0.07887678 0.114934295 -0.13067782
人 -0.17409539 -0.00598746 0.07612641 -0.3541389 0.3343234 -0.1495141 -0.015010104 -0.38632184 -0.0035648774 -0.4612738 0.1485162 0.18363507 0.30023107 -0.26677096 0.056265842 -0.6256977 0.18119599 -0.15988284 -0.04295539 0.21481793 0.43859923 -0.25943252 0.2804962 -0.09283322 -0.21510954 0.102383964 0.15101282 -0.026815044 -0.46995515 0.01411339 -0.11694345 0.37103602 -0.12084683 -0.26388222 0.17385009 -0.23685715 -0.1824279 -0.29823226 0.12869726 -0.28179315 -0.16236909 -0.20110627 0.08227875 -0.018461408 0.16110541 -0.06261136 -0.039603215 -0.09473933 0.051092915 -0.09915527 0.10188803 -0.0051862053 0.26583016 -0.49550205 0.35760137 -0.07016815 0.00093199254 -0.30440438 -0.27178624 0.13547617 -0.08338168 0.0302714 0.07564826 0.2831809 -0.08061171 0.17914847 0.05516988 -0.22908673 -0.008234731 -0.11105582 -0.070714734 0.2337185 -0.08899449 -0.034427304 0.0013727152 0.14918065 0.34270546 0.12726958 -0.19596441 0.0040677832 -0.1071955 -0.09218499 0.13820522 0.004443222 0.18625467 0.07301334 0.15370294 -0.23966706 0.082938164 0.093427785 0.0046383804 -0.11956047 -0.18645999 0.26831627 0.49073774 -0.18524918 -0.08969672 0.10923868 0.031416092 -0.17879246
者 0.018049892 0.023847682 0.1489529 0.30286923 0.039729595 0.017373621 0.017518137 -0.10623772 0.4531866 -0.1306307 0.10879414 -0.014057733 0.11154816 -0.14651051 0.24638847 -0.5862353 0.30107448 0.023267452 -0.11424315 0.08573875 -0.17256466 -0.09283925 -0.009100236 -0.07780084 0.09979497 0.12671615 0.1331941 -0.11056195 -1.0640123 0.7375363 0.3352477 0.054256164 -0.34815598 -0.10430023 -0.14219742 -0.00079948653 0.10818214 -0.09334113 0.28927478 -0.16705877 -0.2292709 0.2124442 0.0120551195 -0.37593696 -0.18223982 -0.16877502 0.36232603 0.05351936 0.12122334 -0.0007953198 0.06462034 0.029049883 0.1868056 -0.44400612 -0.013612659 -0.2568414 0.38918924 -0.06408004 -0.20857136 0.18753123 0.12577361 0.024620567 -0.17589052 0.33420387 0.121517025 -0.4638769 0.015180571 0.15286477 -0.06868769 0.007761767 -0.006650883 0.13505338 0.39487976 -0.12579812 -0.21969526 -0.20911719 0.21586005 -0.16617505 -0.31526774 0.12192068 0.04198078 -0.15450129 0.062387522 -0.096902296 0.07150923 0.0047094845 0.03054973 -0.04638878 -0.061853252 0.09578106 0.1625137 0.111693375 -0.10904058 -0.19777568 -0.05548809 0.21873361 -0.14807756 -0.007216611 -0.18068856 0.21978168
以 -0.17514607 0.06492348 -0.13014464 -0.013561096 0.13340898 -0.05360881 -0.28465635 0.37188694 -0.22266418 -0.48150474 -0.0035789644 -0.23520373 -0.098258264 0.003316147 -0.309352 0.5759691 -0.018854344 -0.17117172 0.01743054 -0.07561931 -0.26323885 0.38118818 -0.017763723 0.010888649 -0.14490028 -0.24242304 0.13878293 0.19540349 -0.485087 0.8932689 0.22823727 -0.13424566 -0.10254543 -0.3423076 0.09698365 -0.096150905 -0.13476662 -0.022483604 0.72043 -0.6632154 -0.41026148 0.4077005 -0.10823181 -0.15981133 -0.1536709 0.30839276 -0.27569556 0.095968805 0.055469465 -0.07369813 0.2280246 -0.04298692 -0.38582608 0.06538047 0.009393175 0.12854731 0.021530718 -0.059592493 -0.0689959 -0.023178998 -0.03896632 0.09070843 0.039710246 -0.17631859 -0.05504261 -0.09278091 0.2725676 0.4124429 0.01915106 -0.30251038 0.32198223 0.15518548 0.17342876 -0.06671627 -0.23006205 -0.3832516 -0.095589526 -0.0725708 -0.0526363 -0.28839993 -0.12148231 -0.07917902 -0.253047 -0.086020835 -0.10243631 0.057402946 0.0490486 0.2776193 -0.14927556 0.065140575 0.16110651 -0.0045513315 -0.026115695 -0.058651816 0.20429763 -0.13308385 0.20002787 0.23472495 -0.07788118 0.11785713
有 0.13699315 0.06331898 -0.23193951 0.2968919 0.20721029 -0.2746263 -0.09097208 0.0791828 -0.04476015 0.20790915 -0.25454938 -0.11713126 -0.13313998 -0.11897473 -0.20424767 -0.16258831 0.16235803 0.27948502 -0.116585754 0.07976028 0.14041755 -0.045726575 -0.21462995 -0.098235935 -0.14911719 0.101293415 -0.16508546 0.11288451 -0.36580953 0.41177973 0.07747032 0.14516842 -0.16577028 -0.08286864 -0.11897531 -0.094878554 0.18486969 0.069232695 0.3676455 -0.39751196 0.24910878 -0.082866415 0.21093492 -0.016022412 0.048469845 0.016063223 -0.15819776 -0.08677916 -0.24562207 -0.14607465 0.28314778 0.09254482 -0.1716603 -0.3696471 -0.06034145 0.18154642 -0.5272299 -0.23634025 -0.34858721 -0.21817797 -0.2218127 0.15074074 -0.22528923 0.07494625 0.046846654 -0.109888874 0.1329218 0.18470573 -0.22118674 0.13114925 -0.036424357 -0.08537493 -0.19936527 0.03896453 -0.009360607 0.025469014 -0.09747304 0.073655866 0.07876698 -0.032800518 -0.13094935 -0.17056572 0.5168047 0.38421798 0.57368237 0.011175406 -0.1601458 0.41876853 0.0006326847 0.016211364 0.30590138 0.12405822 -0.20845439 0.0005180626 -0.047401927 -0.239685 -0.09772103 -0.091947526 -0.24467681 -0.24849115
于 0.12983313 -0.028827995 -0.13846473 -0.30401427 0.1257621 0.004337941 0.09988807 0.51898944 0.029104976 -0.26904052 -0.08988155 0.021682866 0.22308795 0.45277572 0.19973385 -0.6404123 0.035365663 -0.057203617 -0.03330059 0.08807175 -0.025450272 0.008865384 0.18107823 0.107045375 -0.042735312 -0.36023542 -0.0942992 0.006175489 -0.28660414 0.64588386 -0.21766199 0.14572106 0.019137558 0.0038858878 0.05069022 0.062801205 -0.14732425 0.08610774 0.7168513 0.037267312 0.22767179 -0.0155637115 -0.18976715 -0.14735894 -0.109167844 0.12849194 -0.530358 0.1035465 0.3165727 0.23981272 -0.08639179 -0.05273641 0.2080211 -0.23372757 0.03492592 0.30898586 0.1360195 -0.7022744 0.104684226 -0.45372072 -0.019788293 0.053884372 -0.1840441 -0.23998597 0.11577076 0.05486463 0.043844964 -0.07483136 0.1956955 0.039339066 -0.016556378 -0.3782786 -0.22686845 0.30037794 -0.34774414 -0.02352039 -0.20746605 -0.23519154 0.01884857 -0.03657535 0.3330426 0.0036823733 -0.24311768 -0.121254355 0.24230742 -0.45179942 0.3834122 0.047577992 -0.32756928 0.070666656 -0.045622334 -0.16065228 0.17862527 0.2174198 -0.16911273 -0.67436314 0.2816868 -0.0905099 -0.22549102 -0.30242598
矣 0.19883685 -0.23032051 -0.014008534 -0.2452288 -0.04898774 -0.22643822 0.08431855 0.077833414 -0.11098128 0.059453927 0.132221 -0.06420742 -0.0017256116 0.09829726 0.062742725 -0.15139465 0.13539638 -0.08131403 0.23351614 -0.44610617 -0.1143127 -0.024263715 -0.39584184 -0.14678688 -0.0029466546 -0.009999676 -0.078549534 -0.092268124 -1.8002019 0.7135865 -0.32631576 0.13464516 -0.1034135 -0.36233428 0.08529872 0.024394294 -0.075176805 -0.08212453 0.010575012 -0.008533213 -0.39153028 -0.43105567 0.25117356 -0.07312162 0.13866815 -0.08419534 -0.11751831 0.15883482 -0.3225783 0.24698026 0.1791796 0.21898505 0.31670585 -0.43978718 -0.045319684 0.32214132 0.069685675 0.082826674 0.022406891 0.11246863 0.1410978 0.26407358 0.16517715 0.6799824 -0.008495203 0.056636885 0.4249583 0.06936777 -0.09087625 -0.22239755 0.3872064 -0.02113895 0.53235173 0.021755291 -0.2843982 0.07665718 -0.14257477 -0.27366403 -0.21507813 0.2395656 0.11123732 0.04628166 -0.10747531 -0.0717758 -0.42924485 -0.13242549 -0.115718514 -0.27889577 -0.09779107 -0.05188415 -0.05467278 -0.24027486 -0.13682668 0.23567054 0.8124388 -0.4432158 0.09206009 0.22696202 0.45889792 -0.22114754
为 0.041498188 0.054547623 0.13564187 0.22352053 0.45861804 -0.07127338 -0.064429305 0.1387609 0.08419181 -0.2770305 0.05379644 -0.14501856 -0.05414746 -0.038998973 -0.0624785 0.17371692 -0.56013364 0.11349327 0.083171345 0.01274925 0.080006845 0.15075132 -0.069759384 -0.0012087754 -0.21940258 0.671372 0.181256 0.32748806 -0.25555557 0.23857433 -0.20333512 -0.50328827 -0.052626416 -0.25237367 0.40935236 0.12262336 -0.03343788 -0.007288292 0.5684536 -0.2889712 -0.2984981 0.06261565 0.1265691 0.038903933 -0.27773803 0.36327323 0.35831255 -0.4010903 0.2943422 -0.01685445 0.018552369 -0.052471947 0.1583189 -0.20654723 -0.13697532 -0.20640236 0.33984303 -0.46241468 -0.46301797 0.11746618 0.14461692 0.27565023 0.12082697 -0.26876506 0.13053414 0.051571272 0.22316572 0.02728107 -0.025435066 0.42328003 0.09198644 -0.044016574 0.26035756 0.010353939 -0.19193207 0.34564248 -0.15082063 -0.1984834 0.14383474 0.02530512 -0.19706652 0.06567033 -0.053113848 -0.09771414 0.301784 0.02094714 -0.07501482 -0.44831088 0.015079832 0.22761282 -0.19629882 0.22228192 -0.16666842 -0.19655205 -0.08669658 -0.71546674 0.07007692 0.15952763 0.030946579 -0.093062185
君 -0.23751196 -0.019239578 0.09019768 -0.12296194 0.19633222 0.053857356 0.055522885 0.23725374 0.10665025 0.15076126 0.07571969 -0.11846553 0.22611228 -0.0090283435 -0.124820784 -0.05467725 0.032465294 -0.16061212 0.045620676 0.10796465 0.0009823639 -0.12973224 -0.054245 -0.043028872 -0.16164562 0.11866512 -0.17521983 0.054412752 -0.11038063 0.24354847 0.18140724 0.25939396 -0.17636672 -0.09447308 -0.08162924 -0.0709652 -0.23127659 -0.197457 0.1372416 -0.28199163 0.13493714 0.01696826 -0.10463948 -0.17334239 0.19191393 0.574683 0.7197553 0.040643215 -0.62078124 0.044736613 -0.36756018 -0.22011453 -0.17590348 -0.16334823 -0.16232285 -0.281361 -0.17572162 -0.62735903 -0.20772387 -0.09657013 -0.18795003 0.08433459 -0.030024758 0.13416861 -0.12505382 0.17293724 0.23889646 0.12470584 -0.30601057 -0.052371126 0.6610856 -0.05528308 -0.11637096 0.005924493 -0.029340811 0.43310598 0.22054948 0.039369218 -0.19525698 -0.023455534 0.3994171 0.2824341 -0.013387524 -0.025270186 -0.36000717 -0.22475071 0.00039911596 -0.34573454 0.3604078 0.21160041 -0.2287782 -0.13290557 0.29728115 -0.3282768 0.3777171 -0.87697077 0.37397635 -0.023194859 0.099760935 -0.011587949
乎 0.13496245 0.20377997 0.032189306 -0.10904333 0.24327512 0.023977997 0.059892904 -0.10517128 0.13709863 0.29977098 -0.12578355 -0.10662323 0.19621584 0.20560257 -0.23968567 -0.044009134 0.29776794 0.032338224 -0.23550417 -0.24612555 -0.38305882 0.091693856 0.4734484 -0.116133265 0.16447465 0.04203151 0.21927269 -0.116457745 -0.73846704 0.73308897 0.2519978 0.028809115 0.28762814 -0.27852544 -0.05787714 0.18134801 -0.38007653 -0.0013039341 0.5229201 -0.50078523 -0.1372723 -0.33951345 -0.10078042 -0.027601581 -0.17374489 -0.026667843 -0.4571294 0.45811826 0.18836972 0.38723174 -0.21755567 0.06669846 -0.082264766 0.26465908 0.17448506 0.14944497 -0.16087867 -0.054328516 -0.2130675 0.0021702154 -0.047443405 -0.007341232 -0.18175024 0.734692 -0.0678882 0.04386145 -0.10363296 -0.15150304 0.07357495 0.35358274 -0.29738745 0.013197543 0.32786572 0.09397467 0.02676783 0.102982834 0.3534423 -0.028355137 -0.26878726 -0.06498633 0.14152582 -0.15213445 -0.15129314 0.24376722 -0.5818537 -0.0691465 -0.10303326 -0.06692387 -0.06547984 0.16548575 -0.12645724 0.20201662 0.050444666 -0.13998277 -0.25150782 -0.5501963 -0.2885482 0.089364715 0.14117505 -0.79568285
可 -0.24602345 -0.32530662 0.32431987 0.022592725 0.3310576 0.11831432 -0.07425875 -0.44247136 0.07098233 -0.15984094 -0.022956511 0.062016614 0.3519604 -0.46596143 -0.31973898 0.15154055 -0.065470584 0.3218991 0.101135746 -0.00025496283 0.0384434 -0.42075038 -0.008332677 0.07368203 0.045293506 0.15028755 0.1789128 -0.0176363 -0.7832651 0.03564848 0.2020697 -0.17859967 -0.09632604 -0.4068322 0.15631717 -0.12559454 -0.2342429 0.0747102 0.47139868 -0.06500636 0.30884203 -0.017155658 0.030277561 0.015271163 -0.119195126 -0.3321145 -0.14706653 -0.23348348 -0.33997405 0.35986567 -0.30712527 0.14229362 0.015548414 0.45921633 0.34576035 -0.26660204 -0.16874693 -0.3845495 0.33528355 0.305275 0.19658314 0.21489315 -0.22210293 0.5386988 -0.18267775 0.011534289 -0.24165262 -0.061766565 0.027593404 -0.70441663 0.2705692 -0.13988665 -0.03591279 0.1757474 0.17285575 0.2863188 -0.1338405 0.21025215 0.10331596 -0.084780894 0.24900037 0.055229478 -0.38490373 -0.07611184 0.20214313 -0.028590769 -0.047138773 -0.36872998 0.19526345 0.2653669 0.45088455 0.1655309 -0.008834677 -0.050565057 0.16399564 -0.16937985 0.032084145 -0.17408413 -0.112362 0.24864705
如 0.15645927 -0.15877287 0.12050618 0.33980983 0.3580748 -0.07424027 -0.07127549 -0.09807298 0.06665096 0.032916714 -0.1724537 -0.022969896 0.028631398 -0.4714342 0.11908754 -0.033497367 0.1669748 0.030953126 -0.020481352 0.094599515 0.054590136 -0.25180736 0.038168974 0.0037787831 0.10009549 -0.15240604 -0.012581879 0.09808623 -0.7715654 0.7394884 -0.16810761 0.027979085 -0.21071376 0.06824286 0.056117382 -0.04113625 -0.1913245 -0.25046048 0.1131537 -0.17998353 -0.10851687 -0.016114568 0.110469885 0.109190896 -0.08180672 0.24266246 0.4286752 -0.07222802 -0.3402846 0.19131419 -0.1661151 -0.041999504 0.037233464 -0.30209997 0.0038484642 -0.15465668 0.3594656 -0.24488287 -0.0870852 0.21171957 -0.61982524 -0.016921097 -0.08744595 -0.16031492 0.39210537 0.008200828 -0.22493047 0.2866188 0.024879392 -0.01982126 0.05087591 -0.064911745 0.24683404 0.0827787 -0.11529745 0.4721182 -0.2648278 -0.051524002 0.21347632 0.073491275 -0.004599824 -0.10999792 0.33201563 -0.39226514 0.3400817 0.030780507 -0.111544535 0.18175317 0.120795965 0.028339805 -0.24559814 0.004087327 0.34537342 0.37538454 0.5667325 0.22917815 0.1516024 -0.006656744 0.09757177 -0.27479964
与 -0.02810062 -0.12365467 0.41208032 -0.2774387 0.04279974 0.11926762 -0.28278098 -0.08223766 -0.070167996 0.020174978 -0.092055075 -0.11191316 -0.14858358 -0.33845794 0.30803484 -0.017111825 -0.29401195 0.10924074 -0.003683412 0.032512877 -0.17050767 0.3418494 -0.18398906 0.25655323 -0.12476857 0.02976096 0.14731301 -0.21156569 -0.9106831 0.49501383 0.049391236 0.06373502 -0.12836777 -0.09219797 -0.22428901 0.0788367 -0.17504951 -0.022026585 0.14760149 -0.25461748 -0.061831985 -0.034947734 -0.042470194 0.19998324 -0.049903844 0.52097785 -0.24744685 -0.54675704 0.14078258 0.13228612 -0.010522179 -0.07273752 -0.55576736 -0.15949403 -0.022961564 -0.2966828 0.1382862 -0.094438076 0.19927114 0.16813838 -0.1130306 0.16462032 0.10630675 0.42712313 0.059770778 0.22714755 -0.22323741 0.2622154 -0.039108455 0.5368751 -0.10272092 -0.09621654 0.11328394 -0.018907307 -0.07997394 0.392426 -0.109360635 0.15441334 -0.04151176 -0.1871846 -0.03988033 -0.13689817 0.23036546 0.119133815 -0.3748408 -0.19564576 -0.12842917 -0.13005237 -0.04384938 -0.0043950677 0.17745392 -0.07565502 -0.12155734 -0.17614555 -0.13413313 0.26862243 0.25025436 -0.3413404 -0.027611997 0.24939331
； -0.20878588 -0.25516826 -0.17066073 0.4296498 -0.06643987 0.009721435 0.016781805 -0.30019045 0.07541054 0.087596364 0.17722282 -0.044425476 0.106868915 0.34406626 -0.26469526 -0.35004437 -0.08174663 -0.16599694 0.34866652 -0.1607992 0.06511077 -0.04286496 -0.030207686 -0.12972963 0.07224307 0.04760255 0.04800378 -0.24319343 -0.30470237 0.3742455 0.3762047 -0.10031928 -0.056496434 0.36805102 0.090437174 -0.081772484 -0.0148350885 -0.07331578 1.5365635 0.22271885 0.08885896 0.14925313 0.096991844 0.115988456 0.23209131 -0.12644689 -0.24347198 -0.14370912 0.65844196 -0.47481534 0.23239234 -0.088574044 -0.04906971 0.038853824 0.3962632 -0.18941402 0.088228375 -0.65703255 -0.05349652 -0.2709002 -0.81165636 0.2531313 -0.22079767 0.23749365 0.08679901 0.03159583 -0.0821561 -0.12881808 -0.32201442 -0.2243307 0.035592623 -0.12708865 0.55984586 -0.03997964 0.048675783 0.10802712 0.39351586 -0.30577147 -0.10855309 -0.38145834 -0.019519214 -0.12273253 0.10651635 0.22842756 -0.027248802 0.09528844 0.12382901 0.03359252 0.23359807 -0.023187581 -0.0345962 -0.06768785 0.046727687 -0.2093429 0.3125655 0.0898648 -0.11548782 0.08789936 0.3160185 0.05685951
言 -0.21402425 -0.18873082 0.20002414 -0.13103612 -0.038290147 -0.3140387 -0.111995235 0.24027596 -0.06955824 -0.7580563 0.2450429 -0.07037768 0.14140546 -0.3366175 0.21574917 0.53028536 -0.15480654 -0.111159675 0.2622781 0.08754309 -0.36298907 -0.24143489 -0.07299663 -0.003356222 -0.086808465 -0.00033803174 0.3075191 0.2729827 -0.1721357 0.18559459 -0.27796355 0.043472145 0.09544782 -0.19053297 -0.22446588 0.19575739 -0.012330692 -0.028859027 0.25487307 0.55038947 0.09519926 -0.040897373 0.16866595 0.01874495 0.0517511 0.14770165 -0.39350182 0.21275382 -0.13156185 0.046767678 -0.3724957 -0.23157176 0.31965986 -0.08451296 0.18466713 -0.112592846 -0.11805957 -0.04705817 -0.1725334 -0.007196077 -0.48832503 0.08960279 -0.016626446 0.37745482 0.36418083 -0.077379405 0.42440695 0.095204085 -0.056034334 -0.48868698 0.57904565 0.080235794 0.106544405 -0.022724055 -0.21399273 0.016030997 -0.14393942 0.46220663 -0.008272663 -0.03190612 -0.041402593 -0.011865374 -0.007765994 -0.104589395 0.18332925 -0.02829658 -0.13401942 -0.24874061 -0.11554819 0.093440935 0.32140964 0.17147197 -0.043716796 0.09892839 0.3817002 -0.031446453 -0.077616796 -0.33665827 0.19530965 -0.12586214
无 -0.40090033 0.09165238 -0.11191533 -0.0046298984 0.19604163 -0.01683883 -0.28757742 0.25476694 0.09935888 0.2903662 0.09592826 -0.12747921 -0.013853001 -0.19992465 0.3150467 0.60282403 -0.1543913 0.13060379 0.002863882 -0.10030357 -0.1967124 0.0404889 0.115668185 0.011309982 -0.16214846 0.104507856 0.10764071 0.0051078303 -1.0277026 0.33614495 0.4662374 0.35417026 0.050365105 0.29381096 -0.31260464 -0.07213034 -0.34724504 0.11795344 0.5267904 0.09660777 0.27194056 0.25954482 0.23772222 -0.46617222 -0.4320138 0.10026053 -0.08583279 -0.21808644 -0.2874382 -0.31919217 0.1645215 -0.09180057 0.13801001 -0.44408557 0.27443638 0.23824155 0.03319556 0.14104089 0.05646603 0.3131172 -0.08721755 0.16889426 0.15478814 -0.06363409 -0.15261233 0.37413973 -0.1219845 0.21811262 0.17840633 0.09557249 -0.38026294 0.6209889 -0.5684942 -0.0686429 0.055777982 -0.44880858 0.13429101 -0.02773909 -0.0060889246 -0.1414891 0.015074377 -0.073533855 0.18331112 -0.02367218 0.08556184 -0.11270532 0.05844445 -0.6049931 -0.10626326 0.19460677 0.03619902 0.053489525 0.12852937 -0.4370514 0.30615684 -0.6003782 0.18197057 0.10991573 0.16360939 -0.107465886
则 0.18185759 -0.14635481 -0.19181593 0.27291796 -0.20320891 -0.028707525 -0.1262371 0.30598366 -0.008459264 -0.59736574 -0.23996381 0.08653391 -0.2611242 -0.061892327 0.35865083 0.10439564 0.024259208 -0.21633449 -0.0031152042 0.2470114 0.31146955 0.07543443 0.12719288 0.00612837 0.11884001 -0.7953244 0.038547534 0.13363029 -0.9831795 0.47852167 0.23078434 -0.3702175 -0.00974849 0.041483548 -0.15051328 0.10654962 -0.012669585 0.0027018022 0.86092204 -0.031180998 -0.45247924 0.27001458 -0.023888536 0.28496426 0.1436231 -0.070400156 -0.25483105 0.28060153 -0.08125513 0.1973341 -0.3102708 0.030459821 0.45561454 -0.45971987 0.35128057 0.17060065 -0.1237764 -0.34689385 0.3394233 -0.09899899 0.1854704 0.14616518 -0.11854537 -0.2221438 -0.120749846 -0.117364116 -0.02068534 -0.073881 0.20053267 0.25552413 0.3540952 0.13309568 -0.16099767 -0.22219531 0.2970148 -0.13617477 0.3567995 -0.1267828 0.064808324 0.17895676 0.06885773 -0.079156026 -0.5516717 0.02549864 -0.056919314 0.13240077 -0.15351585 -0.47150558 -0.38328353 0.04110495 0.272391 0.091748744 0.23266801 -0.24643287 -0.06000871 0.5288035 -0.051694322 0.13758865 0.29579324 0.00862239
！ 0.16918662 0.20229709 0.078610756 -0.063510135 -0.23968165 0.046242915 0.2259887 0.22741403 0.070744544 0.46270436 -0.02911519 0.085641384 0.030077329 -0.5142619 -0.2335596 0.11490608 -0.09941119 0.020486867 0.34345508 -0.092473716 0.060304724 0.3356751 -0.11059855 0.11315325 0.13953373 0.24856442 -0.12944391 -0.30821174 0.3293202 0.5635735 0.03563355 -0.1136996 -0.17852002 -0.647811 -0.14550391 -0.4151417 0.123111494 -0.21898519 1.2653157 -0.38497478 0.20244122 0.019215204 -0.1526143 -0.104698606 0.039327852 -0.40863633 -0.37075993 -0.024533836 -0.3084561 0.08349562 0.18523858 -0.26643234 -0.047107246 -0.7524199 0.32662454 0.2662192 0.20152262 -0.11937384 0.18867071 -0.016105575 -0.2708782 -0.046561915 0.030484142 0.80860496 0.1633814 0.044322014 0.09813666 0.19521739 -0.06702 -0.33719286 0.2322859 0.15520029 -0.052025843 -0.033431537 0.007857492 0.69310075 -0.18090306 -0.48051268 0.21438543 -0.028961334 0.09242532 0.0023250082 -0.046210937 0.055493187 0.037462443 0.22159645 0.113717794 -0.1281507 -0.14659625 -0.094952926 -0.143508 -0.15666583 0.16573328 -0.115492485 -0.11733019 -0.09885218 0.13445054 0.05990964 0.1410196 0.15973914
问 0.1770371 0.060265306 -0.15906613 0.7620068 -0.29579544 -0.15452899 -0.102622144 0.065380655 0.23320606 -0.54148614 0.231829 -0.052445054 0.012614762 0.34530705 -0.031056281 -0.06315924 0.13540873 -0.010214882 0.058811933 0.111190304 -0.196961 -0.055806015 0.051595803 0.064596765 -0.2563497 0.23675373 0.19865914 -0.19608915 0.042231265 0.2079866 -0.554031 0.012062817 0.24731085 0.14773776 -0.36835554 -0.101023324 0.17430109 -0.08691068 -0.23464914 -0.5132683 0.46533766 0.055920552 0.063755356 -0.19572426 0.19636951 0.37874627 -0.39504683 0.18207717 0.17997412 0.050311726 0.2829114 0.31492618 -0.06759619 -0.5937372 -0.24528481 -0.22259757 0.044179954 -1.1615835 -0.24077395 0.033509415 -0.3358938 0.0036764494 0.08766029 0.6161786 -0.14450495 -0.15700674 0.4782652 0.009482677 0.15227051 -0.03799648 -0.13385122 0.20077826 -0.32926628 -0.23284465 -0.21427478 0.014582992 0.37547743 -0.1867279 -0.05767669 0.08703654 -0.027670147 0.016556645 -0.12516667 -0.10696249 -0.1580572 0.084769584 -0.08282438 -0.46684438 0.09530651 0.14132026 -0.006883566 -0.0066749724 -0.1435349 -0.026795018 0.10110548 -0.048221026 0.052375883 -0.10388186 0.061164826 -0.20391236
知 0.19097951 -0.25346527 0.10778521 -0.45218974 0.1180487 0.025535053 -0.20058255 0.118201256 0.20786731 0.13044722 -0.3292582 -0.1098295 0.29295567 -0.26969734 -0.0720796 -0.017587245 -0.030461261 0.0733343 0.03058934 -0.21613729 -0.14584962 0.20353295 -0.32151267 -0.029681215 0.04891917 -0.05129979 -0.22175184 0.15225458 -0.693623 -0.10729021 0.024645338 0.009880366 -0.18281402 0.051405873 0.021738883 -0.69537854 -0.27734378 0.20523079 0.20999959 -0.7558186 0.28530967 0.021775136 0.19487864 0.1385703 0.1029406 -0.043068744 -0.07779471 -0.14508782 0.10776365 -0.0047491873 -0.17980118 0.352014 -0.12149334 -0.12584424 0.11563876 -0.25898713 0.3493488 -0.46683374 -0.18123528 -0.058964707 -0.33771527 -0.17411447 -0.14153583 0.04851633 0.3184258 -0.44787738 0.25164104 0.21035369 -0.19011647 -0.43516403 0.15572625 0.099321 0.0019877288 0.14249988 -0.055407327 0.08742412 -0.30906585 0.00297928 0.022214381 0.10858601 0.33167738 -0.07154061 -0.10319641 -0.05743265 0.36390084 -0.2287273 0.06322083 -0.5516014 0.0030390024 0.16201241 -0.23740321 0.2669233 -0.2362523 0.035643637 -0.25395113 0.2906081 0.03230582 -0.114537686 0.07294304 -0.135053
何 0.112678654 0.3147789 0.16755421 -0.5019819 -0.04237303 -0.099107094 0.12294271 0.44349843 0.0179063 -0.34663028 -0.32574883 -0.11122295 0.09924921 -0.1779122 -0.079197384 0.21611767 -0.025503373 -0.15806754 -0.12037146 -0.0188118 -0.35812414 -0.15935197 0.1806692 -0.34427556 0.15929513 0.3989985 -0.14047888 0.10604103 -0.4105519 0.9167336 -0.18436788 -0.34811354 -0.3364641 -0.19674668 -0.14774849 -0.15076676 0.119691394 0.18542744 0.3186895 -0.07775844 0.38882008 0.053193297 0.1620021 0.19054908 0.47869486 0.17725168 0.5125839 -0.20408435 -0.46569613 0.030470837 -0.064801104 -0.037520476 0.11491582 -0.312908 -0.026989236 -0.014290162 -0.058248643 0.008335925 -0.13305227 0.13483444 0.120076135 0.060820274 0.06424869 -0.40112168 0.14865185 -0.013455802 -0.24296364 0.19553968 -0.08613994 -0.046877928 -0.08583347 0.1302992 0.3542435 -0.02499956 -0.022846987 0.38593563 -0.27298552 0.18460932 -0.026538832 -0.1957994 0.51122373 0.06692766 0.4861751 -0.15564284 0.07500881 -0.28874093 -0.05650939 0.050758492 0.023853725 -0.10951223 -0.033616032 0.19363666 -0.21449159 -0.15054081 -0.2815643 -0.69729936 0.14843269 -0.36222428 -0.110052235 -0.47369203
吾 -0.117686406 0.0356463 0.220231 0.3987939 0.23696332 0.008478606 -0.06896037 -0.59485644 0.31494808 -0.23893535 -0.3855488 -0.054463025 0.10443072 -0.06747169 0.09900969 0.33179665 0.072822586 0.22929405 -0.21033277 -0.007634863 0.088369936 -0.42923772 -0.020485219 -0.123153366 0.066319525 -0.34882152 0.07807772 -0.041099638 -0.9021287 0.12999615 -0.22251023 0.10877272 0.05444488 -0.18009695 0.026707646 -0.45295426 -0.072735995 -0.18499495 0.29395843 -0.026287075 -0.36943874 0.04720611 0.3369145 0.36303204 -0.42835188 0.1946821 -0.3880425 -0.38677138 -0.2845774 -0.22334608 -0.4131253 0.11214244 -0.48871583 0.027306074 0.03305737 -0.21869828 -0.054000698 -0.3902873 0.24077915 0.33955544 -0.11429852 0.31128567 -0.1448572 0.03154429 -0.21863046 -0.38749573 -0.17875728 0.10356112 -0.14910433 -0.46197358 -0.13931571 0.10832128 -0.64937 -0.16759475 -0.141852 0.25358152 0.30061135 -0.09821429 0.1968585 0.113607846 -0.28720593 0.06191891 -0.66799486 -0.15051118 -0.17029439 0.0668413 -0.24795258 -0.026857754 0.01346374 -0.035701357 0.019103706 0.2107583 -0.09390668 0.19666049 0.07793969 -0.79967993 0.19291244 -0.21129343 -0.029229548 -0.18652813
仁 -0.08658713 -0.044460837 -0.1779816 -0.3278137 -0.10754013 0.06368508 0.11572456 -0.18685524 -0.05740174 -0.47622424 -0.13930495 0.09308903 0.20982207 -0.16444005 -0.18540859 -0.115391985 0.16565217 0.057327203 0.1486669 -0.073756814 -0.039380267 0.10560439 -0.19828326 -0.503704 -0.3492412 0.22712126 -0.16563661 0.19989023 -0.41461286 -0.10280096 -0.36196226 0.11482007 -0.49569902 -0.37343675 -0.06790187 -0.439445 -0.1336447 0.07920547 0.12860675 -0.05640932 0.26902398 -0.042333074 0.26068076 -0.1318849 -0.18609162 0.1955696 0.13636342 -0.32354894 -0.14386146 -0.035960957 -0.22289382 0.13578944 0.06908816 0.3203884 0.20542176 0.070151046 0.043574672 -0.49619314 -0.03125673 0.030579468 -0.08344547 0.1384432 -0.057808585 0.970694 0.2665193 0.08026103 -0.3936978 0.22772175 0.07075586 -0.2390169 0.043838292 0.15080689 -0.083632484 0.47603506 0.07878856 0.27541026 0.35008264 -0.0020675599 -0.37813678 -0.124289215 0.28508383 0.35025185 -0.039204232 -0.05525183 -0.40083155 0.054630935 0.43349478 -0.25395486 -0.11718702 0.24260013 -0.11170162 0.11281589 -0.3024213 0.109270565 -0.4587835 0.23135921 -0.07842824 -0.16663972 -0.19838323 -0.25970647
夫 0.44359112 -0.021304164 -0.2903102 0.12669173 0.07478477 0.029749472 -0.04455856 -0.19265339 -0.03446933 -0.12508504 -0.029990068 -0.1992074 -0.08130468 -0.024924174 -0.22593963 -0.271516 0.27093294 0.13779975 0.098235756 -0.4282616 0.15887322 0.1960913 0.05761038 -0.1509429 -0.074617095 0.05168319 -0.16031595 -0.076864794 0.011610673 0.67160374 0.3989844 -0.0015510342 0.049087267 0.042791214 -0.06979192 0.20533006 -0.07392531 -0.21247147 0.20361337 0.23744163 -0.61236393 0.13311122 -0.096473716 -0.011948802 -0.049029287 1.2837653 -0.0785623 0.21125366 -0.30382663 -0.07693524 -0.37643522 0.10783109 -0.06377354 -0.20906143 0.018278673 -0.00623613 0.07443396 -0.106434606 -0.11914457 -0.06428604 0.0011429426 -0.23728658 -0.2565047 0.18643527 -0.13721856 -0.27184963 0.35497388 0.06264414 0.15724833 0.15238503 0.18143512 -0.08638104 0.0030865911 0.12486402 0.26153386 0.07734206 -0.18399113 0.17834216 0.23781604 0.0737773 0.10818409 0.1880897 0.23334111 0.01233335 -0.3170035 0.11429305 0.08017098 -0.36272195 0.341516 0.11864914 -0.091851376 -0.46917048 -0.2568977 0.00088858133 0.29975995 -0.7574681 0.08097589 -0.310485 0.27017084 0.25523016
、 -0.053998906 -0.40172586 0.46162105 1.2278222 0.16532378 -0.0271076 0.024399295 0.014248051 -0.47688738 -0.20408422 0.4597661 -0.0064159147 -0.071180746 0.14311633 0.105801724 0.14564233 0.18815376 0.41894773 -0.040292524 0.040449224 -0.15020956 0.27523747 0.5485919 -0.08770111 -0.1374622 -0.25384519 0.17395535 -0.06625784 -0.2937827 1.1819721 -0.11381943 0.27638614 -0.055841193 -0.026833931 0.39599422 -0.44257122 0.14623809 -0.1199412 1.1321286 0.41528225 0.060625315 -0.70693666 -0.10615464 -0.007105959 -0.35659856 0.20615017 0.053813312 -0.06069214 -0.5734009 -0.2059616 -0.057863466 0.018349048 0.19148803 -0.082419366 -0.69688857 0.38938704 -0.009229103 -0.95190746 -0.079341084 -0.409583 0.08245194 0.2517279 0.033739205 -0.024392493 0.00010899827 -0.22112176 0.24367784 -0.24664728 0.09969613 0.060086593 -0.21280234 0.055469017 0.6341435 -0.37571988 0.47813842 -0.007553256 -0.03715072 -0.09240895 0.34249565 0.2086619 -0.10045426 0.18711811 0.33659622 -0.10107392 -0.4615028 0.015762912 0.18101028 0.37881032 0.00032090629 0.028045453 0.20536703 0.16025543 -0.09268731 0.01946348 -0.11817606 -0.13349381 0.013709513 -0.10524092 0.40510902 -0.103315465
道 -0.17093696 -0.006591306 0.016029252 0.075627424 0.20005982 -0.16864923 -0.2509874 -0.3366917 0.07022581 -0.44265965 0.0011756571 -0.16375476 0.414843 -0.2918486 0.19778073 0.123267144 0.30080476 0.41301617 0.0042784824 0.09719398 0.35260877 0.122173026 0.15775181 -0.11925467 -0.13555622 -0.16288011 0.3220611 -0.15318748 -0.597221 0.084322095 -0.509531 0.037151147 -0.1178496 0.39570814 -0.36931473 -0.007696182 0.032341126 -0.11190105 0.42826283 0.03747139 -0.056129385 0.22955984 0.32591277 -0.20399413 0.55181116 -0.2870608 0.10010219 0.09167288 -0.27301136 -0.1537754 -0.17968543 0.021516003 -0.012406791 0.034694873 -0.17488192 -0.5273813 0.053519644 -0.2395326 0.039498884 0.15210974 0.12635335 -0.05590588 -0.19669554 0.17866987 -0.37454224 -0.054750167 0.0010131983 0.29169548 -0.04175874 -0.2685746 0.2665826 -0.3065572 0.16681677 0.29149437 -0.103582464 0.10484563 0.08474789 -0.014223387 0.16388454 0.2038321 0.54102635 -0.009670424 0.11990504 0.0972641 -0.084892176 -0.21587722 0.009834904 -0.25425127 -0.117862254 -0.08710094 0.09859646 0.03794082 0.08808609 -0.045786154 -0.27742833 -0.11487747 -0.13602516 -0.04389185 0.2971649 0.016028421
焉 0.22717167 0.63523054 -0.24592823 -0.30446783 -0.10565835 -0.005208064 0.43295988 -0.023404425 -0.0683186 -0.2673255 -0.24721408 -0.19313109 -0.016245434 -0.35038128 0.32510018 -0.22961396 -0.14131007 0.23255543 -0.028533917 0.15318483 0.035577033 0.13164471 -0.1709184 -0.13740215 -0.111410946 -0.21360244 -0.086359434 0.13503866 -1.2226557 0.40393403 -0.08729052 0.030427162 0.14788918 0.10244262 0.91017246 0.41312963 0.3598246 -0.28787014 -0.07811783 -0.09839714 0.22282077 0.096070714 -0.39681706 -0.094577104 0.09360403 0.022996077 -0.5316562 0.05687935 -0.99648005 0.0019039391 -0.07231984 0.052961838 0.20429048 -0.2770112 -0.1987014 0.3115649 0.030949064 -0.32592323 0.21426944 -0.13840687 -0.34525275 0.2771755 -0.044792645 0.12088924 -0.045861263 0.16951235 -0.1567692 -0.05920297 0.10547605 0.449721 0.27598023 0.055708937 0.22253004 0.1890999 0.12351167 0.15708032 0.34166345 -0.066950396 -0.3785978 -0.035177797 -0.10887816 0.31754386 0.050368004 -0.22241408 -0.32297108 -0.0030176584 -0.16762531 -0.07833856 -0.019688282 0.10038306 -0.056131013 -0.008494981 -0.0937837 0.3912474 0.12587747 -0.24705786 -0.6348791 -0.024679262 -0.17379223 0.23613392
行 0.007157171 0.043297473 -0.51007766 0.41556653 -0.025941832 -0.15643725 -0.32404944 -0.27760282 -0.18478532 0.2800957 -0.011832916 -0.090302825 0.1481528 0.11778163 0.33695188 -0.010722995 -0.04293685 0.2215919 -0.03401445 -0.10726842 -0.3165205 0.3367204 -0.51697236 -0.13635555 -0.21625127 0.16298969 0.21096273 -0.22116928 -0.34211388 0.034897547 -0.37753388 0.3765967 -0.06426564 -0.44186118 -0.095727146 -0.038261063 -0.08355665 -0.28604835 0.15354799 0.058591776 0.11469809 0.37943652 -0.048750795 0.015890025 -0.16477084 -0.120061316 0.09267548 -0.07640794 -0.17102733 -0.60464185 -0.16304131 0.15255079 0.21720517 -0.09158475 -0.05068429 -0.61935234 0.110132895 -0.27325672 -0.26441503 0.07559007 -0.23404375 0.19490959 -0.16102156 0.2988277 0.005721675 0.30198297 -0.13301876 0.19375917 0.2388929 -0.3810231 0.34632272 -0.067198604 0.095672034 0.23998474 -0.21128924 0.73050034 -0.09292403 -0.14997537 -0.03983445 -0.17722434 -0.044533316 0.33203712 -0.006650751 -0.17418683 0.35602424 -0.0076229363 0.22825375 -0.0063584056 0.12293546 0.12643914 -0.087687165 -0.30527282 -0.4248181 -0.17426088 0.25079915 -0.04626878 -0.19367284 -0.16626298 0.056895472 0.12773943
谓 -0.1791309 -0.051360313 0.010496848 -0.15681198 -0.31661567 0.3521364 -0.377392 0.4156149 -0.016128965 0.23203349 0.6335703 -0.029786129 0.057239402 -0.021691652 -0.06358671 -0.23058854 -0.21010053 0.28876886 -0.09130911 -0.12280719 -0.43233207 -0.1922176 -0.09849296 -0.08216473 -0.19926769 0.4760206 0.28914934 0.017825324 -0.17718442 0.534181 0.11194463 0.29061732 -0.15020326 -0.28134483 -0.0083135655 0.61044794 0.16258247 -0.15493059 0.49327514 0.3343999 -0.26651105 0.023360733 0.2186548 0.2646214 0.11477585 1.1836617 -0.33033994 -0.5222093 -0.11126531 -0.25476643 -0.1552882 0.3928217 0.08100659 -0.86948955 0.43130305 0.52372956 0.3418219 -0.6326252 0.3280402 -0.15185268 0.14314026 0.44116545 -0.13907537 0.0008848908 -0.17292526 -0.56922585 -0.00602967 0.012831118 0.0983215 -0.029637735 0.28612393 0.10858568 0.4787385 0.08769026 0.06803353 -0.14332281 -0.74505293 0.09536443 -0.035119522 -0.3129125 -0.065882735 0.1882957 -0.0899851 -0.2851551 0.32417735 0.09168262 -0.0010669148 -0.6877433 0.32341468 0.074798755 0.19604407 0.14213207 0.09218734 0.5402592 -0.3275926 0.13054878 0.0022802944 0.008628772 0.058248192 -0.05248868
必 -0.07515048 -0.027873866 -0.0038106206 0.39178336 -0.015578857 -0.29558766 -0.19801508 0.2810551 -0.06795807 -0.50714356 -0.1434731 0.021377586 -0.074827865 -0.436122 -0.56486887 0.25356877 -0.14150931 -0.06850782 -0.07487601 -0.1609853 0.04881425 0.14071172 -0.15664943 -0.013776761 -0.1700417 -0.29333326 0.27945852 -0.10557419 -0.8199109 0.10374979 -0.07403904 -0.41827312 -0.066783756 0.3425557 -0.054780137 0.27728927 0.06545477 0.115138255 0.35461807 -0.6006388 0.20529068 -0.20794696 0.18194202 -0.07016507 -0.03326443 0.55492276 0.2493835 -0.018676579 -0.31057608 -0.8714312 -0.22154564 -0.11819673 0.009915598 -0.53374094 0.5573421 0.23773547 0.36497983 -0.30558398 -0.50377196 0.073374614 -0.013231038 0.11712524 -0.033069517 0.13087071 0.07869418 -0.20354459 -0.22451887 -0.4376312 0.06967135 -0.35844165 -0.2157342 -0.13979593 0.41620204 -0.12368078 -0.4023634 -0.01985681 -0.10207314 0.25164455 0.011765812 -0.05859367 0.076205656 -0.03370312 -0.5891187 0.30306768 -0.5334778 -0.1782499 0.18693303 0.19057266 0.042367797 0.056450367 0.29055732 -0.11304503 -0.0239105 -0.16560656 0.35583806 0.35750905 0.39763272 0.19582619 -0.23076418 -0.3489271
礼 0.119287126 0.117084995 -0.018868405 0.24624519 0.1796907 -0.19185024 -0.24581632 -0.2634639 -0.0037329262 -1.029756 -0.0033116064 0.108717725 0.23585743 0.21477689 -0.0062004174 0.3845599 -0.11417689 0.29595363 0.13472033 0.13527192 -0.6912974 -0.18562472 0.15041631 -0.5788557 -0.02340654 -0.12329135 0.31717324 0.2558369 -0.60171884 0.15914859 -0.31704375 0.08654448 -0.5736588 -0.045945786 -0.03233259 -0.35979825 -0.107840694 -0.25031918 0.34042585 8.147489e-05 0.5750035 -0.02617644 0.08492315 -0.12187787 -0.20677719 -0.07836409 0.058681756 -0.15940289 -0.18438107 -0.1676304 -0.043007605 0.037497245 0.1344308 0.045004807 0.12933661 -0.02379508 0.04201742 0.0025227834 -0.054227274 -0.22579618 0.15777318 -0.09871179 -0.05689443 0.024277411 -0.22054575 -0.43417373 -0.18185432 0.1090977 0.18399203 0.46705106 0.1604682 -0.4443203 0.096801706 0.25010428 0.09385489 0.89464337 -0.5268986 -0.025057217 0.06225975 0.08981821 -0.19555803 -0.04313788 -0.22593093 0.009672579 -0.4146662 -0.067080185 -0.0050588013 -0.54058325 0.1947776 -0.14017229 -0.0612654 0.21177872 -0.18263659 -0.17840098 0.048546925 -0.530223 -0.11948014 0.22510254 0.44386268 -0.25222233
孔 0.31316224 -0.43360415 0.20933422 -0.085404225 0.019415064 -0.3854107 -0.10237384 0.33994964 -0.0134403305 0.22847486 -0.058665935 0.0759339 -0.10340862 -0.29323596 0.38080156 -0.8241429 0.009067326 -0.07346235 0.50147516 -0.022162065 -0.5510456 -0.31225657 -0.16665433 0.26534057 0.01258727 -0.52777344 -0.054518335 -0.18647106 -0.23308814 0.4102922 -0.018956881 0.09313231 0.06037972 -0.064090796 -0.118336916 0.14848137 0.19084056 -0.19731937 0.016292943 -0.3057834 0.46455234 0.358311 -0.22215629 -0.07465512 0.09424374 0.63347465 0.036527064 -0.46901092 -0.7299804 0.08112031 -0.24595411 -0.05000574 -0.09837155 -0.7310182 -0.12355304 -0.19740006 -0.033467874 -0.7967651 0.018913897 0.2764696 0.27911362 0.2847964 -0.054085605 0.90302294 0.2317108 -0.04380605 0.41036785 -0.12720527 0.25646088 0.22261976 0.27717078 -0.01296954 -0.15996738 -0.050807633 0.04507441 0.12351848 0.26529738 0.044442788 -0.21102269 0.019622836 -0.026288064 0.02168253 -0.40323216 -0.30464783 -0.5420179 0.22144704 0.35931697 0.20448063 0.18500663 -0.09250977 -0.06991535 -0.024617655 0.1770292 -0.22882895 -0.43580535 -1.4382383 0.09268526 -0.2793386 0.40679908 -0.45431244
斯 0.30816466 0.17944588 0.38342655 0.06882653 -0.24182351 -0.14196235 -0.14628719 -0.07182699 0.081902884 -0.3625288 -0.4266723 -0.10294552 -0.05934097 0.23049757 0.019825902 -0.46826184 0.201071 0.16094545 -0.10448847 -0.39479634 0.0057692924 0.30670685 -0.1717208 -0.22990409 -0.008057926 0.26120314 -0.27855867 -0.23670706 -0.7812356 0.3680141 -0.20726398 0.32024038 0.053998098 0.032455824 -0.5968724 -0.48028675 -0.07685386 -0.22590469 0.39599127 -0.029183174 0.13818426 0.12247194 0.28140467 0.40609947 -0.30968997 0.6859293 0.14826354 -0.036283668 -0.27653337 0.22084422 0.2512659 0.2602656 0.33053002 0.2051299 0.39370582 -0.26004368 -0.36260548 0.18642655 0.14795889 0.09161864 -0.30566114 0.08673114 0.15613729 0.60685796 -0.03086983 0.3738168 0.23595014 0.021848423 -0.09096767 -0.13116965 0.17238577 -0.31286228 0.19932118 0.4568076 -0.04875762 -0.2862631 0.40729642 -0.024537688 -0.022178354 -0.39952862 -0.15001982 0.029814754 -0.34210026 -0.18783753 0.31552804 -0.07857851 0.1065168 0.122112095 0.15520024 0.011269862 -0.10259504 0.07655147 -0.08707854 0.08797423 0.046806652 0.3269008 0.18830726 -0.0432992 -0.037486065 -0.46739572
三 0.15768789 -0.33953658 0.10373693 0.23992108 -0.715412 -0.30512637 -0.0070640724 0.22701855 0.13770245 0.04698727 0.17193225 0.03183266 -0.040013876 -0.31271932 0.23113804 0.12848945 0.40666652 -0.113486364 0.4407102 -0.24440882 0.5730072 0.068686984 -0.4265686 0.14031744 0.03274941 -0.21335857 -0.13316692 -0.22087441 -0.6625469 0.40659237 0.094809964 -0.3584763 -0.0798672 -0.3131614 0.38809183 -0.22083391 0.1421915 0.14338519 0.37952426 0.07743524 0.24063763 -0.279225 -0.05333 -0.003549716 -0.1548921 -0.08322151 0.44506842 0.55089974 -1.3154315 0.11486822 -0.29796702 -0.08705046 -0.190173 0.38939577 0.607102 0.12705529 0.24348624 -0.472162 0.07969972 -0.017030763 -0.14718941 -0.10502746 -0.03829327 -0.114632554 -0.08034521 0.32413003 0.3818511 -0.019379662 -0.17993046 0.045746192 -0.17101155 0.15259518 -0.5584711 0.04381473 0.042998042 0.025601009 -0.15016474 -0.21066213 -0.18400796 -0.064375214 -0.25563654 -0.48494545 -0.57743853 -0.09361106 -0.36112332 -0.44239387 0.5012119 -0.3509869 0.17960389 0.086891375 -0.40913182 0.6410004 -0.23901685 0.5183442 0.013805421 -0.5120416 -0.23089275 0.032113202 0.08580711 -0.30497277
能 -0.12056723 -0.19553687 0.15823875 -0.107608944 -0.49083796 0.09182004 -0.11483486 0.37502864 -0.036287308 -0.50583047 0.23582302 -0.17481486 0.08078664 -0.004665976 0.11336486 0.0606498 0.34236363 -0.08336964 -0.024187423 -0.4763087 -0.015728114 -0.3396867 -0.1478554 0.08768469 -0.14158428 -0.090830415 -0.10548232 0.2603525 -0.8572638 0.113380976 -0.0915012 -0.3838807 0.08826402 0.5037587 0.35896957 0.21839693 -0.26978883 0.11207025 0.2651112 -1.124413 -0.29712048 -0.3817611 -0.24363525 0.37215298 0.21697752 0.02497131 -0.24135749 -0.035946246 0.16463394 0.02709008 0.11251556 0.4558586 0.31655136 -0.26075187 -0.39400032 -0.32132164 -0.027058616 -0.42411506 0.00048276945 -0.124804504 0.07948324 -0.08742604 -0.0017244057 0.38211474 -0.05754803 0.05652563 -0.13148482 0.024210569 -0.040848084 -0.540057 0.2633956 -0.02070222 0.2402627 0.3262735 0.038736112 0.36543295 0.4464399 0.42846876 -0.005779492 -0.048338708 -0.012580313 -0.024721134 0.07606975 0.22398785 0.20374222 -0.17504968 0.20903943 0.12409402 0.23457082 0.019642375 -0.08482386 -0.23612802 -0.046509393 -0.20941818 0.033061363 0.3904417 0.40403152 -0.18301988 0.20780459 0.6610035
见 0.18577673 -0.6704068 0.07273975 -0.36467892 -0.20340496 -0.33413464 -0.07685595 -0.103561126 0.1642399 -0.23673625 -0.22543216 0.13909423 0.2513169 -0.11201874 0.41885236 0.079459816 -0.23147649 0.22198434 0.118725546 0.027799807 0.17069738 0.2004169 0.0738788 -1.0496191 -0.1317323 -0.052262507 -0.3467003 0.18414733 -0.1492265 0.06613081 -0.24283166 0.6959356 -0.1126918 -0.5265929 -0.3233058 0.20566526 -0.009795079 -0.3829975 0.2556688 -0.021090649 -0.2033872 0.17210642 0.1858491 -0.3610915 -0.08026212 -0.3119685 0.16302186 0.35158202 -0.2576085 -0.764231 -0.035230834 -0.0016736399 -0.011311611 -0.073486224 -0.5202158 -0.42648697 0.020088842 -0.55739737 -0.029614745 -0.103625536 -0.57866836 0.010960322 -0.15007158 0.4808408 -0.05101394 -0.0037115396 -0.5036683 -0.25958738 -0.28288993 0.1555283 -0.17861888 -0.18585216 -0.21365143 -0.3316184 -0.23567134 0.104650706 -0.04563674 0.05615518 -0.036531866 -0.17941542 0.13322832 0.2068488 0.094966404 0.38617942 0.52045 -0.21420076 -0.1438489 -0.60160387 0.12152159 0.12026256 -0.053777013 0.032752372 0.5517112 0.33210135 -0.022579476 -0.053210817 0.08636479 -0.09739209 -0.11614091 0.06451389
学 0.19133249 0.13496351 -0.116233975 0.25286075 0.117207155 -0.012319826 -0.3607581 -0.31136715 -0.26333117 -0.33229402 0.28123274 -0.065557286 0.08147 -0.18953866 0.30770296 0.20632152 0.036186296 -0.03481438 0.33515114 -0.509871 -0.080676444 0.057546742 -0.18871164 -0.20750435 -0.10562219 -0.107123494 -0.40794772 0.31829497 -0.42790785 -0.10243413 -0.4498912 -0.2829791 -0.19480503 -0.52620625 -0.12355731 -0.14738685 -0.2265627 0.018155782 0.072873056 -0.33901682 -0.29270035 0.22957118 0.09308122 -0.12164912 0.19302465 0.6738776 0.14686905 -0.16540027 -0.19374885 -0.08176824 -0.008263701 0.2305216 0.052720185 0.13017173 0.1515032 -0.17770897 0.056618053 -0.981201 -0.4811206 0.45448527 -0.3180962 0.23374179 0.08938146 0.5584715 -0.026075516 0.11557147 0.18544379 0.09098156 0.2545485 0.15699698 -0.17977056 0.33335143 -0.28093475 -0.045322195 0.28042135 0.78690314 0.21744321 0.63321775 -0.25878924 -0.2952069 0.27230638 -0.05299551 0.42144245 -0.4185226 0.51839745 -0.011754748 -0.3465908 -0.19565651 -0.1671651 0.20026979 -0.11914171 -0.051620554 -0.14335646 -0.54922986 0.13957018 0.13666975 0.16655056 0.15800123 0.20759287 0.17863527
事 0.49489704 0.034708712 -0.18513417 0.64996094 0.62093925 0.21179798 0.016027514 -0.1356047 0.13716574 -0.50142366 -0.12926994 0.11509008 0.016326243 0.021022286 0.5242742 0.13861947 0.10633818 0.29647976 0.035666622 0.15067445 0.30932426 -0.07551997 -0.16079724 -0.04495932 0.08466281 0.47247952 -0.009305049 0.049176306 -0.18360549 -0.42232165 -0.2789108 -0.16205373 -0.048621528 -0.5388283 -0.13288864 -0.041821755 -0.10899969 0.09276401 0.40290263 -0.055276707 0.00076155574 -0.18123528 -0.20514564 0.20434836 0.047885228 0.1668179 -0.065423995 0.11119053 0.37311912 -0.24494278 -0.083537646 -0.0473373 -0.15545754 -0.26911685 -0.20897351 -0.3361437 0.3525987 -1.0318465 -0.26668018 -0.14983353 -0.5569318 0.015482471 -0.16598628 0.36572224 -0.014873189 0.6236288 -0.19055344 0.17622197 0.20402905 -0.31116253 0.21268682 0.059890192 -0.54141515 0.04682875 -0.07991118 -0.49017334 -0.07877764 -0.09669508 -0.19401191 0.18651874 0.2428296 0.2648257 -0.29188302 -0.089639366 0.121006034 0.047604498 0.2948526 0.12692007 -0.2607275 0.15521078 0.18300538 0.3295169 -0.123249836 -0.13459806 0.3236351 -0.55676365 -0.00919134 0.03540064 0.13274622 0.19951789
是 0.10379009 -0.20083144 -0.10593762 0.1677415 -0.40364212 0.09289174 -0.19790167 0.6887328 0.21189 -0.79718703 -0.11839072 0.31249648 -0.12875439 -0.5659022 0.35033995 -0.32856885 -0.3166682 -0.09746544 -0.2932965 -0.11936998 -0.43384954 -0.058381084 0.12574776 -0.28231356 -0.16528858 0.2868491 0.020375788 -0.16362812 -0.6758206 0.3540618 -0.03929323 0.063504584 0.49997738 0.03583843 -0.3739638 -0.37293687 0.08781338 -0.23935115 0.01411477 0.26075324 0.06419472 -0.3207328 -0.22951029 -0.30013627 0.43031758 0.2825858 -0.10504978 0.06600491 0.24708466 0.17536795 -0.046704773 0.24330385 0.112128764 -0.67447007 0.52526313 -0.008395133 -0.25663447 -0.36478537 0.1134843 0.36965305 0.13170418 -0.22134146 0.026216356 -0.17043537 0.26842386 -0.37067956 -0.07603432 0.24223462 0.13150151 -0.48861957 -0.14114799 -0.42545778 -0.03616576 0.055941258 0.17294076 0.49992162 -0.14066285 0.65573615 0.20661692 0.22703893 -0.40984777 -0.15486595 0.3747849 0.46393648 0.23350029 -0.25781724 0.15283793 0.2673732 -0.10244745 0.18168221 -0.4930532 0.08265558 0.14842995 -0.68464667 0.17289089 -0.65716076 0.6855831 -0.12397249 0.0549549 -0.051537108
哉 0.00244549 0.21443419 -0.08278325 -0.64241964 0.0028875466 0.32312542 -0.43168202 -0.90780944 0.34985757 -0.27834105 0.21194714 -0.406193 0.06316349 0.003346205 0.032696612 -0.86130005 0.081287004 -0.3078101 0.15387939 0.29317778 -0.5812587 0.16889149 -0.17993888 0.39901888 -0.18359356 -0.23166429 0.4108146 -0.03658443 -0.3401221 0.7393233 0.13658312 0.00890057 -0.16147207 -0.5014402 -0.054346368 0.055942327 0.1868569 0.108316034 0.8478631 -0.09502608 -0.5390276 -0.1712327 -0.29271138 -0.21973847 -0.27210498 0.73047864 -0.29269907 -0.05074115 -0.35086107 0.18071547 0.24831422 0.044572182 0.14875098 -0.5169825 -0.1390492 -0.06137523 -0.24419336 0.5025996 -0.008459151 -0.44290113 -0.15147045 -0.22169706 -0.4399304 0.7136261 -0.28086174 0.050912395 -0.15643367 0.08331664 0.1768927 0.36470634 -0.25960135 0.86634254 0.08759038 -0.2797124 0.27468628 0.72162116 -0.31532255 0.08970574 0.15832683 -0.08206174 -0.06337993 0.2923298 0.35426104 0.34261635 0.011951278 -0.27747974 -0.373851 -0.76025003 0.14665441 -0.1939836 0.54338676 -0.24092494 -0.2773043 -0.16616912 -0.26483887 -1.1440918 0.29201096 -0.107590385 0.035149444 0.04245504
闻 -0.5990152 -0.19073977 -0.048665766 -0.11264022 0.12426656 -0.15058212 -0.21751891 -0.039007798 -0.08859633 -0.15013525 0.29312065 0.37711293 0.008972218 -0.094728865 0.73961776 0.13266665 0.22250909 0.28004536 0.14940459 -0.26564786 -0.29842347 0.39622152 0.042029712 0.12431376 -0.07659167 -0.15727288 -0.3604883 0.25032297 0.061227825 0.3752597 -0.42232808 0.40709442 -0.42248705 -0.043983914 -0.26642716 0.05482589 -0.2449343 -0.079693936 0.21393122 -0.54250807 0.81967133 -0.073485866 0.13268536 -0.38220528 0.080913216 0.25757927 -0.2780096 0.3620222 -0.23368698 -0.2575397 -0.21480128 -0.45289096 0.1540943 -0.32712066 0.29912683 -0.20789279 0.021059524 -0.35665444 -0.20238897 -0.013735686 -0.3621529 0.27152768 -0.19217438 -0.25054687 -0.115069814 0.15501295 0.07146135 0.0062969215 -0.23661344 0.18613355 0.8722634 0.08716753 0.18352114 0.20956479 -0.18708234 0.61883855 -0.07478399 -0.14514302 0.06647973 0.1931206 0.38067663 0.037566185 0.22749211 -0.060746886 0.5721478 0.00835961 -0.18603772 0.03368892 0.08435948 0.31202573 -0.31245053 0.47771487 -0.22379425 0.25554857 -0.20982867 -0.25192344 -0.24995467 -0.12915826 -0.10302079 0.09914746
未 -0.10424887 0.3372332 0.054590408 -0.02568328 -0.25925326 0.15456013 0.046644434 0.22117789 0.296335 -0.6846473 -0.08831831 -0.030173203 0.07641665 0.08322657 0.2726754 0.14022587 0.022709794 0.23241846 -0.4030975 0.3343956 0.3868997 -0.030066937 -0.15830356 -0.18635723 -0.13724545 0.264771 -0.18615286 0.08256616 -0.9130932 0.16644686 0.16306165 -0.25294584 -0.13166475 -0.054695822 -0.3970549 -0.23402403 0.3770018 -0.19350387 0.30611187 0.14513312 0.16023892 0.06976569 0.2996828 -0.32733053 0.112742364 0.4482391 -0.27998635 0.12654196 -0.687013 0.041267663 -0.010706237 -0.19725579 0.31154025 -0.19694065 0.37712252 -0.015541709 0.34304884 -0.9763986 -0.09777443 0.009094112 -0.25652185 -0.18228483 -0.19108504 -0.7141978 -0.10483666 -0.51382685 0.14665017 0.12359528 0.45680374 -0.2076533 0.76399165 0.2303198 -0.12690356 -0.2430316 -0.042616688 -0.15703268 0.22624935 -0.09801324 0.25007215 0.17385021 0.124993294 -0.052706826 0.09736496 -0.09590702 -0.008455267 -0.18392408 -0.06595399 0.094380945 0.23109737 -0.021298382 -0.40311757 0.08233664 0.8866391 -0.4470643 0.020397058 0.3990831 0.32715264 -0.11199537 0.42953813 -0.053337365
公 -0.0061255354 0.50031996 0.5202201 -0.0141008925 -0.2544271 -0.30730894 -0.27182698 -0.31628886 0.12726212 -0.025102377 -0.14912158 -0.02483572 0.024941849 0.40744752 0.10194093 -0.4516153 -0.18399541 -0.106138214 -0.024660641 0.27245578 -0.32051778 -0.54723454 -0.3161699 -0.14111781 0.023220578 -0.25899056 -0.22157803 0.12968801 -0.29322964 0.55450386 0.32801405 0.07670589 0.42453435 -0.285961 -0.05384242 -0.029684823 0.18623818 -0.023504809 -0.05173344 -0.09773369 0.5504174 -0.2477113 0.13294816 -0.18549868 -0.09599281 0.41388834 -0.036933504 -0.51316184 -0.5839136 -0.16038553 0.23049007 0.087645285 0.73430073 -0.4293495 -0.21831977 0.12364253 -0.19278449 -0.38823962 -0.3571956 -0.017759258 0.195693 -0.105069295 0.2785784 0.6206154 0.026026763 0.27681977 0.80505764 -0.51918465 -0.42476758 0.32561642 0.69683266 0.37563717 -0.27182898 0.2695745 -0.71200675 0.14576139 -0.43609583 0.04344649 -0.008316735 -0.4190501 -0.08387589 0.36754313 -0.09850631 -0.33101785 -0.10396228 0.024674213 0.46707925 0.06998904 0.10278804 -0.061979197 0.47540057 0.1701845 -0.07586154 -0.10224027 0.22240196 -0.11607134 0.23814185 0.051699243 0.2775223 -0.7113741
好 0.13535939 -0.009905845 0.5291495 0.45544234 -0.47857523 0.039264806 -0.016531268 0.057123847 0.060733262 -0.27978227 -0.27051175 -0.2280865 0.6672688 0.41390634 0.6194084 0.0040717064 -0.48829672 0.3151122 -0.0141789485 -0.17983188 0.4792208 0.06621427 0.16979061 -0.085468575 -0.41654894 -0.016214648 0.07931577 0.31895164 -1.431767 0.44686997 -0.21939604 -0.073886655 0.56011176 0.4926635 0.03616601 -0.18228394 0.024243671 -0.018961817 0.31337693 -0.1285753 0.35568774 0.6859019 -0.1406856 0.14604716 0.2674857 -0.1361033 0.23486023 0.14153084 -0.22843489 0.1736066 0.0012542165 -0.13593617 -0.45417812 -0.30264077 -0.09601822 -0.3826745 -0.217402 -0.35311398 0.08878721 0.13932991 -0.046958324 -0.123833574 -0.11132908 0.41097334 0.15429895 -0.23724015 0.33785707 0.3327375 0.23401088 -0.9055163 -0.034044955 0.3350965 0.28472108 0.49297833 0.21873799 -0.55246013 -0.045471754 -0.38111708 -0.061065104 -0.09782548 0.2986022 -0.44004312 0.17227572 -0.32497647 0.11810757 -0.1500881 -0.13220224 0.44611657 0.035320885 0.25242287 0.2658557 -0.22736464 -0.557354 0.04980765 0.11155431 0.27545902 0.33261204 -0.18297993 0.16471495 0.22567402
我 -0.10403321 0.27177748 0.7309126 0.013525089 -0.58131295 -0.010007508 0.5040818 0.0039314353 -0.112750225 -0.7875278 0.02905064 -0.07539059 -0.10682586 -0.40499362 0.047392394 0.024898442 -0.09941883 -0.045184646 0.23430508 -0.15995078 -0.3028621 -0.21002074 0.11248611 -0.4134548 0.13626246 -0.28837356 -0.18012871 0.47258177 -0.8066658 0.014233193 -0.5301821 0.042736944 0.18169408 0.35049516 0.073343374 -0.6631263 0.3725792 -0.15096083 0.34914172 -0.038201302 -0.37430227 -0.19409224 -0.12588368 0.283373 0.21046185 0.06607246 0.026588894 -0.5365818 -0.40516832 0.07375478 -0.09225783 0.1666651 0.39561766 -0.40942922 0.30408314 -0.08889648 0.0780797 -0.034813948 -0.14806499 -0.1645625 0.06950581 0.037300512 0.26297164 0.24476531 0.2241568 -0.03520328 0.036164574 0.07048126 -0.073887214 0.041118734 0.100333735 0.21525821 -0.2461771 -0.09629468 -0.55641 0.6933386 0.657977 0.3695697 0.09584167 0.09238537 -0.07219886 -0.084993206 -0.08852512 0.10516377 -0.70048296 0.26277462 -0.016532121 -0.34762353 -0.021398282 0.09028116 0.13396987 0.17553806 -0.42797336 0.10103841 -0.4196831 -0.38037422 -0.1126823 0.029332476 -0.17637025 -0.12157549
路 -0.1329488 0.25400305 -0.047033254 1.0927314 -0.27397683 -0.026997752 -0.062493395 0.14841974 0.43503353 0.21791044 -0.15296018 -0.40906814 0.1465903 -0.2718488 0.31146982 -0.9234373 -0.07255456 0.26078647 -0.29148066 -0.52334225 -0.17324652 0.1696298 -0.050480675 -0.14059299 -0.028530488 -0.6143707 -0.20648426 0.22233702 0.12216392 0.02865997 -0.049406275 0.12086074 0.08149668 0.17173186 0.096183136 -0.06924568 0.2227627 -0.14554554 0.5675889 -1.0509027 0.28002912 0.16743843 0.15938728 -0.20656146 -0.20481049 0.13538712 -0.41226864 0.11471155 -1.197329 -0.4381354 -0.2513122 0.31196016 0.8003406 -0.2756124 -0.04602022 0.2561223 0.15017915 -0.5830747 0.08632004 -0.0003437705 0.11074581 -0.44675326 0.26407072 0.92282283 0.09781602 0.2815817 0.86851835 -0.28923896 -0.20529014 -0.11745295 0.3180609 0.086082526 -0.7434198 -0.14710993 -0.0038394835 0.22600098 0.30756566 0.32501903 -0.11102985 -0.42753425 0.19069357 -0.017020494 0.05486075 -0.26432973 -0.029275127 -0.26972654 -0.0048578354 -0.19187726 -0.17284505 0.16034032 -0.39264178 0.4033229 0.8065156 0.25702193 0.032848384 -0.22321154 0.13882586 -0.0047859303 -0.13310707 0.4948738
在 0.19454914 -0.26996046 -0.1947893 0.20455176 0.35305876 -0.20328009 -0.052950155 0.237734 0.060230833 -0.089826174 -0.36245173 0.047027938 -0.059765566 0.19573049 0.16826044 -0.6074399 0.29382655 0.03694623 0.13493629 0.008280477 0.36513785 0.52413386 -0.38003585 0.055779204 -0.082826674 0.3757141 -0.45823342 -0.49017134 -0.55379605 0.43915445 0.040794637 0.5507607 -0.297885 -0.148064 -0.15563735 0.7050983 0.4100716 -0.101722896 0.43034706 -0.2565343 0.6479488 0.3150784 0.077730246 0.009117331 -0.12417377 -0.11412856 0.030383172 -0.026122585 -0.212562 -0.1209169 -0.20937 -0.49408454 -0.6585671 -0.16021109 -0.39503226 -0.22844876 -0.30206776 -0.2845862 -0.6646145 -0.17817989 0.045245808 0.20140801 -0.26288643 0.14046548 0.12183687 0.076459296 -0.40395755 0.011351809 -0.6563192 -0.59855855 -0.0006376095 -0.10485668 0.13356553 -0.12667795 0.5419295 0.010465408 -0.331765 -0.05924927 -0.09820038 0.12484454 0.26115328 0.31571078 -0.24164453 0.0029199508 0.17550512 -0.44686592 0.3939513 -0.5132531 0.09178211 0.16519457 0.18985443 0.1809323 -0.56399333 0.35436255 0.2774035 -0.04308735 0.22833052 -0.3342412 -0.16818042 -0.35826084
已 -0.5514027 -0.17879187 0.58215594 -0.08433154 0.07049215 0.16125159 -0.19685087 0.008027498 0.025006395 0.40124384 -0.35761735 -0.21678783 0.40171853 -0.28135195 0.34290037 -0.036720183 0.68278736 -0.013560019 -0.37144315 0.040130004 -0.16366425 0.2623366 -0.6657752 -0.22267821 -0.5502025 0.44733286 0.21989994 0.030886255 -0.7344422 0.18599612 -0.6747949 0.35086882 -0.08813686 -0.21180335 -0.32025817 0.08879395 -0.23870675 -0.03201305 0.29640153 0.06536529 0.14496301 0.50073665 -0.07676439 -0.837016 -0.20547834 -0.0642346 -0.6231005 -0.09846219 -0.613053 0.15262958 0.17130432 0.097983606 0.26146185 -0.017659148 0.86833054 0.085431464 -0.1353939 -0.54041636 0.17108282 -0.008245513 -0.15215787 -0.05338573 -0.5179821 0.84378046 0.33754012 -0.18247618 0.47044277 0.44942048 0.3970116 0.13557285 0.46523207 -0.054595463 0.71583587 0.06883186 0.50057065 0.19332832 -0.36701208 0.101748325 -0.4802959 0.038583245 -0.49379814 0.27382222 -0.6948384 0.23938943 -0.83464736 -0.26521584 -0.22463255 -0.7983237 0.17172092 0.01403569 -0.051975645 -0.20916255 0.08449268 -0.2702328 0.21160841 0.18219572 -0.38869634 -0.0015426585 -0.22849509 0.0663378
得 -0.22375484 0.4884988 0.12853907 -0.34345645 0.1673955 0.33948946 -0.28545943 0.40427512 0.1499823 -0.25914857 -0.14624089 -0.0075316243 0.29069743 -0.14476219 0.5769475 0.36860803 -0.115709074 0.36191878 -0.1672045 -0.28583682 0.9153027 0.1342475 -0.20028591 -0.017278831 -0.052671306 0.103197746 0.16869222 -0.27273762 -0.4262883 0.19157994 -0.32767603 0.43644345 -0.038515884 -0.068035334 -0.25638768 0.43393582 -0.09895166 0.019704094 0.6584366 -0.07321167 0.25264007 0.32375672 0.49225378 0.24846539 -0.059035756 0.09107721 -0.48866314 -0.0004965025 -0.05452956 0.28833693 -0.2849134 0.16037835 0.034529816 0.029276323 -0.38553733 -0.03756222 -0.33603078 0.034454435 -0.30736342 0.28003523 -0.33562717 -0.13451599 -0.21355873 0.47491822 0.23668122 0.33577782 -0.30244327 0.04100239 -0.6347328 -0.6774153 0.53240776 0.15140833 -0.067576334 -0.19161546 0.045303363 0.014589244 0.46912688 -0.50578046 -0.117589764 -0.1343567 0.020932801 -0.022991661 -0.81893915 0.51642317 0.04833408 0.020399883 -0.023478707 -0.0014253531 0.24165212 -0.0145863965 0.16159092 -0.15548491 -0.30171487 0.18911612 -0.011142982 0.10385159 0.2628792 -0.18123613 0.18922882 0.0425444
所 0.76443285 0.20451571 -0.18488926 -1.0221794 -0.12312864 0.21122934 -0.15488209 -0.14296852 -0.23528662 -0.5388385 0.12084925 0.11586226 -0.23022121 -0.92926157 -0.30248675 -0.13614221 -0.39347956 0.09899842 -0.30270484 -0.23822556 -0.16772835 -0.24214485 -0.121746145 -0.27924976 -0.40631244 0.41159558 -0.10284372 0.13237204 -0.51629883 0.9454234 -0.45115614 0.21782824 -0.09579859 0.15213344 0.29877698 -0.033896297 0.035293285 0.09532122 0.46255407 -0.0029563117 0.38138184 0.1805633 0.35937598 -0.44506475 -0.69609207 0.105984285 0.068290845 0.66061264 -0.18386883 -0.12920769 -0.13984905 -0.1678479 0.028674157 0.6132188 0.3325618 -0.18809092 0.53867257 -0.19233687 -0.07105658 0.5329398 -0.49393293 0.019809289 0.30836105 0.6013641 0.14277355 0.07180575 -0.2673274 -0.21011561 0.05022082 -0.058327213 0.64111507 0.118808106 0.6804005 -0.10018833 -0.31039467 0.03752177 -0.06769067 0.030591106 -0.14994745 -0.18282713 0.24485329 0.1362135 -0.15970479 0.20192361 0.16874324 0.30815646 0.4604865 0.031931754 -0.41770887 0.21368024 0.9800502 0.1616996 0.054062337 0.020694997 -0.23416911 -0.23852202 0.39356446 -0.20917726 0.26457012 -0.17986824
民 0.1445141 -0.13800044 0.39213455 0.33027586 0.2814247 0.013900238 -0.06893161 -0.20141491 0.023433253 -0.35122508 0.0516813 0.08227132 0.1545056 -0.23603427 0.7285062 0.6278254 0.46654275 0.25745496 -0.33275086 -0.69952893 -0.26572564 0.27705863 -0.1169793 -0.25461766 -0.06568861 0.15293847 0.31761912 0.24826737 -0.90668553 -0.1581671 -0.3644837 0.20093329 -0.27673727 -0.20498937 0.006968229 -0.47048172 0.14523123 -0.13932618 0.29451 -0.5439211 -0.25430477 -0.007966358 0.012475208 0.06331861 0.2971958 -0.09531582 0.72334176 -0.07944002 -0.08298513 -0.01940767 -0.18054324 0.018230602 0.47752413 -0.04907061 0.33122334 0.25429487 -0.2528792 -0.58617526 0.24667095 0.11077235 0.11023592 -0.16992155 0.08049388 -0.010577733 -0.30839103 0.28727508 0.3435857 -0.17594224 -0.067141876 -0.5934263 0.59649944 0.20762831 -0.17827286 0.38812056 -0.11894841 0.24869217 0.15874155 -0.345262 0.14268115 0.09723627 -0.17517453 -0.3965975 0.8371089 -0.0043567726 0.045538254 -0.20776157 0.7829806 0.12810686 -0.22982402 0.26769817 0.49735573 0.19694383 0.28504354 0.18915175 -0.23255855 -0.29119417 0.937593 0.23072037 0.053221405 0.1361895
小 0.5451225 -0.3165452 -0.06212189 -0.21332479 0.18222009 -0.20985039 -0.30287543 0.34477356 -0.3759148 -0.35092986 -0.6625808 0.08793127 0.3893727 -0.10231138 0.049386572 -0.022662558 -0.32592246 -0.044208646 0.2668124 0.14063753 0.31480762 0.036455274 -0.14026245 0.24591371 -0.22782493 -0.23045652 0.007199954 -0.49509123 -0.41137278 0.49240127 0.06246575 -0.36028478 0.29648003 -0.5309645 -0.30037498 0.60368043 -0.0041257055 -0.4444524 0.38017815 0.052794755 0.5876227 0.4089317 0.20326477 -0.030132376 0.2919162 0.13223891 0.2396856 0.29111442 -0.21683459 0.029320182 0.10769549 -0.17591274 -0.07970798 -0.13228856 -0.008820082 0.46519917 0.47409678 -0.27131978 0.09009411 -0.2499829 -0.03540575 0.050146557 -0.34244764 0.21927673 0.14662923 -0.2564015 -0.072898224 -0.027422385 0.10263527 -0.29379272 0.4632581 0.3390729 -0.4053513 -0.1893785 -0.21368358 0.36454433 0.95014125 0.8096739 -0.39624265 -0.1907061 -0.53629 0.08110641 0.31304222 0.051787075 -0.52357125 -0.027749663 -0.14510904 0.4108279 0.3422457 -0.18160617 0.084195726 -0.44001994 -0.14435482 0.3095154 0.0060625416 -0.608488 0.1093806 0.11191343 0.38662878 0.3364029
天 -0.22635049 -0.11981713 0.14399168 0.06726912 0.25095353 -0.09322121 -0.14236945 -0.19378412 -0.19806159 -0.13786805 0.04199645 0.14443856 0.013167937 -0.50772804 0.25851288 0.09837811 0.30762848 0.20210426 0.32530823 0.68529624 0.7026996 -0.03936035 -0.15541716 -0.24266139 0.08588203 0.30703118 0.16740975 -0.15455462 -0.6839168 0.41813686 -0.3523896 -0.55098546 0.4154051 -0.06138776 -0.09182669 -0.35123628 -0.09085066 -0.040113058 0.35322994 -0.053804964 0.20778137 0.24984425 0.40137136 0.29488087 -0.087115675 0.33548895 0.37986445 0.2100695 0.08111127 0.20240037 0.10058561 0.5188479 -0.29941174 -0.43154222 0.06563576 -0.16400805 0.19804811 0.20413506 0.151806 -0.46732718 -0.3780434 0.1343895 -0.09061488 0.19511801 0.24227908 -0.29659438 0.11877214 -0.3756443 -0.24844466 0.47091734 0.14747885 0.33350468 -0.53453743 0.4593676 -0.3460024 -0.12110386 -0.02460867 0.29092336 -0.11237817 0.26036227 0.5646007 0.114770524 -0.025304556 -0.07249346 -0.32046127 0.2385427 0.10349675 -0.3545481 -0.23033723 0.05062022 0.105377756 0.60141027 -0.06776002 0.22201458 0.7113761 -0.63604337 0.01634879 -0.16426109 0.3969656 -0.678718
乐 0.21845359 0.19577539 -0.02889787 0.14361683 0.031729624 -0.24200386 -0.2974205 0.5071576 0.21321364 -0.27596116 -0.2877896 0.062060986 0.041945763 -0.07743097 0.23171374 0.86924297 -0.12511724 0.11859861 -0.23511882 -0.15017618 0.029311512 -0.5519844 -0.5768777 -0.23888448 -0.32009462 -0.28522637 0.039032675 -0.139852 -0.6232635 0.52522 0.436309 0.1929716 0.19602357 0.11108734 0.31879652 -0.6660277 -0.07955895 0.050747342 0.2680713 -0.435579 0.596207 0.3835662 -0.10500155 0.1394475 -0.065489516 0.3354201 0.18789394 -0.019675083 -0.15051916 -0.089473896 -0.3573231 -0.08001357 -0.25169936 0.07930279 -0.04104306 -0.2681598 -0.48978302 0.42590714 -0.36049432 -0.19976182 0.13052635 -0.18777199 0.11687997 0.59917235 0.5276918 -0.044974882 0.31099552 0.43749776 -0.20990743 0.555276 -0.15573268 -0.39430726 0.2942141 0.43281195 -0.020900236 0.06049771 0.24867181 0.24673802 -0.074172154 0.10473033 0.29158106 0.108320974 -0.34219196 0.12604907 -0.25247332 0.043595552 0.13429601 -0.58179885 -0.087147206 -0.04248653 -0.060936905 -0.11496174 0.43431106 0.15856683 -0.07942107 -0.03204764 -0.031032609 0.13945407 -0.101256035 -0.3119302
邦 -0.020432517 0.0025418259 0.32730874 0.23425925 0.37514615 -0.11786461 -0.56061786 -0.073029295 -0.09405004 -0.82731426 0.009577946 0.37715808 0.26206836 0.4852995 -0.2604072 0.012419751 0.8304107 -0.00025786925 0.121768236 0.017939838 0.100570306 0.3854956 -0.20075382 0.23785493 0.09624381 -0.06654316 0.13393585 0.3085409 -0.41865528 0.14261013 -0.5911835 -0.23515761 -0.6187532 0.28753337 -0.3509645 -0.13271117 -0.001149156 -0.1178089 0.383671 -0.05710706 0.0732699 -0.018466888 -0.29801396 -0.22725432 -0.28811252 -0.5547258 0.10770869 -0.14928067 -0.560888 -0.32710946 0.31304735 -0.08597136 0.16631892 -0.4240977 0.055737857 0.1086533 -0.011746464 -0.30631366 -0.09636123 -0.19520307 -0.4415779 -0.31632328 -0.35670716 -0.1907802 -0.17054592 0.4593627 -0.63518107 -0.073524304 0.012339693 0.09517668 0.9455688 -0.38788933 -0.0661455 0.5509133 0.13265248 0.205468 0.47022587 0.36865866 0.21794173 0.020036781 -0.051050745 -0.4694531 -0.037757657 -0.37841308 -0.15065596 -0.3632721 0.10216857 -0.21228775 0.23542935 0.1272983 -0.25408053 0.306959 0.059864398 0.0647253 0.14285573 -1.0446289 0.50550514 0.027338417 -0.21995148 0.2643052
亦 -0.20966586 -0.4354372 0.13013782 0.47854143 -0.18621954 -0.46972433 0.00013843522 0.06950434 -0.40866864 -0.2516595 -0.00849042 -0.42800862 -0.76040137 -0.22795169 -0.071648166 -0.039090723 -0.30914325 0.063644014 0.51478034 0.35695118 -0.11388207 0.21389651 -0.018784845 0.42707348 0.4829063 0.2367334 0.03484785 -0.40686837 -0.33808413 0.758733 -0.488229 -0.10977109 -0.24245885 -0.18629517 -0.2803808 -0.016983477 0.004409682 -0.28813922 0.7712365 -0.7178176 -0.21894784 0.24359407 0.36628145 -0.4284378 0.15873913 0.34958896 0.53826475 -0.20087492 -0.44099146 0.26505256 -0.29902193 -0.11009349 0.028620169 0.068450935 0.16270615 -0.18937382 0.7361236 -0.46020135 0.28332537 0.112156495 0.036573425 0.6239232 -0.36132583 -0.09347371 0.48722827 0.36873055 -0.98622227 -0.011141927 0.16035384 -0.42880628 0.1204569 -0.13467053 -0.4203429 0.058146205 0.40962717 0.065150864 -0.5999587 -0.1771615 -0.48051 0.03290008 -0.57587564 0.25064716 0.2667699 0.51213735 -0.5234309 0.12202174 -0.15171196 -0.6010868 0.25100285 -0.13405031 -0.55368406 0.25835738 0.61799437 -0.09288718 -0.6448563 0.1542071 0.041794755 0.25409722 0.4483272 -0.21883808
使 0.097549915 0.3165862 -0.10217917 0.38292786 -0.20258178 -0.082574405 -0.19713944 -0.17919517 0.35679576 -0.3371234 -0.118924394 -0.0104349535 0.3054586 -0.1356498 0.1201643 -0.15142033 0.0069827316 0.2269128 0.044493277 -0.0017308362 0.065485746 0.21223769 -0.50827646 0.011633501 0.20660831 0.65161836 -0.05697536 -0.1452519 -0.34422728 -0.05085485 0.190857 0.10617527 -0.45901075 -0.29623526 -0.21905476 -0.58170474 -0.042119183 -0.5711042 0.41546005 0.1962682 -0.058597844 0.39426035 -0.11907655 0.21781623 -0.20729853 -0.21100108 -0.27724734 -0.39253268 0.2457117 -0.32264814 -0.48193637 0.09608027 0.07738032 -0.7363469 -0.23561427 0.1730885 0.17189881 -0.1194727 0.25273004 0.24393961 0.28779948 0.10127534 -0.124255426 0.5642057 0.04981975 -0.064656734 0.01139644 0.039559867 -0.18124655 0.155275 0.5161184 -0.04487658 -0.1324141 -0.067938305 -0.10259562 -0.042799532 0.20746726 0.40063074 -0.030456124 -0.26133648 0.27260736 0.39086798 0.43792853 -0.23118147 -0.40452904 -0.023667512 0.09921821 0.34051096 0.22519153 0.25521362 0.39281994 0.04984766 0.6277533 0.61145765 -0.34260198 -0.5692954 0.110867225 0.16673028 -0.2285781 0.1608952
大 0.33290386 -0.17502913 0.13780853 -0.3467232 -0.17548764 -0.30742285 -0.32589927 0.054573506 -0.09801481 -0.3716175 0.07641826 -0.10481092 -0.015102596 -0.5787406 -0.1252221 0.3604646 0.026142493 -0.24277309 0.1344322 0.2588837 -0.08987758 -0.43600163 -0.27965757 0.051872384 -0.4561088 -0.13011904 0.099848494 -0.13490468 -0.8797671 0.1562323 -0.09895632 0.3724253 0.100863814 -0.71614295 0.028145006 -0.15307201 -0.11025204 0.059962932 0.52394223 0.006894736 0.076579385 0.07581665 -0.11872058 0.16571368 -0.13632374 -0.72957 -0.20915718 -0.97255045 0.25350842 -0.11916534 0.22861154 -0.14195563 -0.21957597 -0.15455043 0.041777093 -0.38441002 -0.20690696 -0.60455453 0.3215093 -0.11705181 0.20743468 -0.16227455 0.032567386 0.30346006 0.3316739 0.69574946 -0.39602762 0.42300403 -0.100441314 0.13861991 0.045775518 -0.3772089 0.07996918 0.5582321 -0.009841617 -0.53756976 0.5613321 -0.038074866 0.115164384 -0.2261537 -0.057539128 -0.25417048 0.5366604 -0.34959075 -0.5613514 -0.39657372 0.08446473 0.5487404 0.1896267 -0.11490226 -0.5328738 0.2984449 0.52949667 -0.42004046 -0.17236704 -0.8649765 0.47640657 -0.04728125 0.38443083 -0.5228839
下 0.22878672 0.3463181 0.027024258 0.01609572 0.54714423 -0.22671285 0.03968196 0.43669024 0.18571895 -0.30338126 -0.20998918 -0.31298074 -0.094439246 -0.41161638 0.33124462 -0.5856331 -0.14406046 0.1429585 0.11355268 -0.56333345 0.5919753 -0.23023646 0.38653493 -0.11220451 -0.0021425905 -0.5388062 -0.02031335 0.15396567 -0.6974894 -0.09239981 -0.15789394 0.22722995 -0.08317975 -0.14134109 -0.09703273 -0.25619227 0.08933617 -0.07228578 0.80928063 0.062492527 0.09977094 -0.58076304 -0.028678037 -0.24851629 0.5884566 -0.15989588 0.7603653 -0.15019022 -0.09626234 -0.30397043 0.021010015 -0.1785362 0.5268946 -0.7890282 0.13809066 -0.24136655 0.37593454 -0.29368225 -0.019237703 0.22249971 0.1397211 -0.06431573 -0.516737 0.52558213 -0.30398127 -1.0329863 -0.194333 0.6427466 0.5741658 -0.6861862 0.14108497 0.8915451 -0.11241873 -0.003826717 0.11336417 0.38857752 -0.41169336 -0.28401765 -0.15265056 -0.42091045 0.28422514 0.18682607 0.55664325 0.35999516 -0.46440393 -0.13138632 -0.877155 0.12418741 -0.112491794 0.017940145 -0.07827632 0.21848215 -0.15540074 -0.65067935 0.06406067 -0.5452508 0.33027533 -0.043208577 0.17995298 0.23326157
贡 0.15397543 -0.16770138 -0.16847397 -0.27388144 -0.21002524 0.16053498 -0.14382008 0.09791647 0.19950375 -0.2283148 0.23215222 -0.20819886 0.2561637 -0.6298019 -0.08723193 -0.959092 -0.15583436 -0.041825123 0.46394095 0.18187155 -0.33811134 -0.45296937 0.043345362 -0.082125515 -0.3115443 -0.03539488 -1.0103909 -0.11384197 0.5349784 1.1670551 -0.02338455 0.8975694 0.22686823 -0.39986524 -0.41716257 -0.30998415 -0.3270705 -0.3241052 0.36287695 -0.7643808 -0.18527961 0.24478236 0.47018528 -0.12604196 0.17892134 0.20241435 0.31200895 0.39233965 -0.92655694 -0.3142892 0.54692656 -0.2993997 0.3108415 -0.7643238 -0.32737452 -0.90030915 -0.3251778 -1.5597266 0.16636395 0.48107398 -0.35568586 -0.077492066 -0.04523195 0.46006218 -0.09737992 0.12972814 0.3733316 0.4410018 -0.19392148 0.57446086 0.39797077 0.72858113 -1.2730523 -0.30047485 0.25610864 0.8845027 0.3138266 -0.2580526 -0.33460492 -0.11763268 0.3679274 0.7127653 -0.10818508 0.14400291 0.25220776 0.040224187 0.67465013 -0.6083875 -0.26086867 0.22687638 0.5606471 0.5006074 0.19148456 0.7187869 -0.4334494 -0.7650294 -0.6062784 0.45575258 -0.08375795 0.58363307
欲 0.2095673 -0.20937957 -0.2748952 0.1450543 0.23529677 -0.18161628 -0.35646275 -0.11283927 0.38577357 -0.28908178 -0.5061971 0.16224441 -0.031150332 0.27817208 0.79642797 0.0012723382 0.0881025 0.21373975 -0.088497415 0.23535481 0.026278507 0.15233293 -0.23540992 0.10399148 -0.16703403 -0.065668546 0.09447949 0.01853118 -0.060128745 0.45204207 0.1876642 0.041587748 -0.10868946 0.17910044 0.089264795 0.24770868 -0.07509259 -0.09048758 0.7389688 -0.63098943 -0.020322926 0.30886474 0.2959986 0.2976364 0.2466053 0.30361977 -0.5272282 -0.01784698 0.11235874 -0.34970912 0.21736471 -0.20366557 -0.3405347 0.091505475 -0.9141135 -0.1483063 0.37619892 -0.12946418 -0.27264073 0.25402758 -0.05592536 -0.263223 0.12881269 0.26838782 0.13520446 -0.5453159 -0.06750509 -0.04412103 0.2671134 -0.10911216 0.29762954 0.78952956 0.3298134 -0.12205657 0.09394566 0.6518223 -0.14860043 -0.35055128 -0.043921154 -0.2705373 -0.46967658 -0.06272325 -0.5596772 -0.27204147 0.056095116 -0.41130143 -0.10112935 -0.11886228 0.20603687 -0.03183285 0.2015631 0.033407502 0.47489646 0.51166546 -0.27802908 -0.3836532 0.15114342 0.03374319 0.032675136 0.043060187
诸 0.14101651 0.20283335 0.032431945 0.5660001 -0.045159183 -0.12125228 -0.36535016 -0.6422987 0.00017548131 -0.25930154 0.016644854 -0.19337097 0.08365122 -0.06919557 -0.7014096 -0.28136763 0.86604816 0.069588415 -0.110201865 -0.04402985 0.46952593 0.3492318 0.7975056 -0.37406358 -0.2130468 -0.46383256 0.23179908 0.1135853 -0.63522077 1.2003334 0.05587091 0.096752875 -0.09438877 0.5752672 0.025496898 -0.69479394 0.13433033 -0.27215385 0.533446 0.17795469 0.10411044 0.21616839 -0.15710469 0.7824172 -0.082662344 -0.06685952 -0.20118923 0.29146826 -0.29253778 0.31454974 0.45959908 -0.039684918 0.016261358 -0.02697496 0.8861635 -0.18680853 -0.05125431 -0.70465046 -0.41968903 0.19062193 0.072713204 0.061581615 -0.23082153 0.0017002259 -0.14301296 1.1451557 0.13542905 -0.7185287 -1.0146997 -0.009880166 -0.00702851 0.07142146 -0.1458018 0.03589882 -0.09476671 1.1234741 -0.043353733 -0.22203746 -0.34279335 -0.29578295 -0.033505492 0.47115678 -0.22453843 -0.27612185 0.100647174 -0.37695011 -0.2786539 -0.08265998 -0.27907556 0.13113268 -0.18913242 -0.22293544 -0.2223998 -0.03455269 -0.1827851 -0.62750727 -0.11153896 -0.26537904 -0.19126622 -0.7895957
从 0.050120473 0.30029112 0.0935012 0.04279766 -0.06414223 0.12643962 -0.38731053 0.2943261 0.017685978 -0.4880722 0.2673417 -0.17814912 0.3414898 0.1897376 0.12997092 -0.43560025 -0.33388993 0.4858328 -0.42464054 -0.069751255 0.34798 -0.28083196 -0.28665277 -0.63740295 -0.38320276 -0.1568544 -0.13008434 0.09800227 -0.51381284 -0.09538618 -0.4211319 0.30520585 -0.5849068 -0.25243178 -0.08405325 0.29945597 -0.5505221 0.26011193 0.45331052 -0.7041992 0.6738639 0.024746042 0.015100632 -0.48256233 0.022156734 -0.4003674 0.11009644 0.013044029 0.22413956 -0.39131847 0.11632823 0.22551283 -0.2289852 -0.5082152 -0.123711415 0.14879176 0.03403674 -0.04030245 0.0050220764 0.010499741 -0.41928253 -0.22298603 0.17728478 0.057380415 0.3446234 0.61273694 0.25966468 0.11159322 0.19771972 0.3270225 0.04127081 0.15824349 0.06881638 -0.26790133 -0.3105848 0.24835677 -0.07394986 0.081628025 0.18633273 0.12446418 0.060155153 0.24447063 0.4502539 0.065714136 -0.06373472 0.0473202 0.035283305 -0.66929656 0.14046213 0.13028608 0.5994149 0.2712453 0.23219529 -0.3841843 -0.09147846 0.024943495 0.6930455 0.21253267 0.3677539 -0.40859336
文 -0.29405463 -0.08830477 0.81957936 0.74492174 0.72819346 0.1037347 -0.47553664 0.3246635 -0.08989744 -0.12429293 0.16518949 0.15107675 0.35688323 -0.28606486 0.8524958 -0.4099417 0.30951482 0.07170036 -0.377587 -0.08654892 -0.1549165 -0.485363 -0.17389785 -0.054067627 -0.35385877 0.09925366 0.0943681 0.13122994 0.39820322 0.48526007 -0.1591198 0.06194854 0.14733861 -0.52370375 0.14766727 -0.1980424 -0.02234394 -0.14878029 0.44873098 -0.17506379 -0.8126774 -0.23563024 -0.12331898 0.015584641 -0.022799399 0.11804589 0.35791728 -0.03939192 -0.7329373 0.054142743 -0.6161984 0.23787849 0.3393416 -0.31825215 0.21358888 -0.027695764 -0.22790971 -0.40066075 0.28547093 -0.06751115 0.20234187 0.05309063 -0.36193764 -0.18085538 -0.008869611 -1.0371476 0.042505834 0.16588399 -0.1511635 -0.73389596 0.18697922 -0.20299265 0.23529059 0.0078628175 -0.13185237 -0.11400902 0.15181991 -0.039017964 -0.24895245 0.13447925 0.049293984 0.048012372 -0.20206708 -0.1639344 0.10208175 -0.5982477 0.3548519 -0.07099756 0.198384 0.112425774 0.064453475 -0.4340603 -0.18111853 -0.06303349 0.054385856 -0.20515785 -0.09788947 0.0024477784 -0.07830758 0.35406265
政 -0.0885845 0.17616035 0.41625556 0.59975684 0.17273937 -0.26880616 0.21943763 -0.14407645 0.112181954 -0.4979255 -0.28734884 -0.3518137 0.30022377 0.010652195 0.53469235 -0.11966593 0.11883049 0.039671913 0.24697183 -0.45624247 -0.21901214 -0.11004511 0.36963385 -0.18500814 -0.13625222 -0.2947657 -0.06046967 0.07967516 -0.67243403 -0.26248685 -0.33781484 -0.36440167 0.10163858 -0.43335462 0.07373677 -0.48031566 -0.08099841 0.035483353 0.5026023 -0.45481646 0.11513966 0.1826955 -0.095402315 0.1657541 0.15519878 0.1360748 0.3506339 -0.22424066 0.12623334 0.19533302 0.35413697 0.10962868 0.2203649 -0.3999857 0.26098746 -0.3798519 -0.08680041 -0.21803948 -0.10520941 -0.46223146 -0.23582725 -0.07860169 0.25623676 0.48721814 0.5504429 -0.012075611 -0.4042095 0.059585206 -0.085951 -0.1288468 0.6755725 0.019193757 -0.11117778 0.0720808 0.06792655 -0.031780545 0.0819994 -0.32890528 -0.1101644 -0.10703461 0.4711849 0.13595614 0.14093305 -0.39152583 -0.26379752 -0.06469092 0.33928022 -0.5166939 -0.11549719 0.09398894 0.13257404 0.30093375 -0.18114476 0.0024756473 -0.59923565 -0.67949134 0.04646571 0.18261518 -0.21435384 -0.6439977
食 0.2248968 -0.19048135 0.33211562 1.0308692 0.24166802 -0.22899772 -0.122269616 0.29332978 0.3276233 -0.036700148 0.32630935 -0.14899999 0.08949165 -0.40017578 0.19880892 -0.1808487 -0.16804215 0.14079893 -0.06465728 -0.052876677 0.6391988 -0.41313702 -0.33898076 -0.021870874 -0.18427324 0.27001238 -0.6379928 0.21207118 -0.28885677 0.4526523 0.35667914 0.00063145906 -0.8824056 -0.16699147 -0.32426122 0.039204568 -0.38020954 -0.005894779 0.09475872 -0.53691846 0.28025395 -0.23876186 0.3197747 0.049069583 -0.101812035 0.69140524 -0.042622577 0.9528064 -0.1206646 -0.4497279 -0.71925145 0.054099265 -0.17670532 -0.15531042 -1.1833361 -0.20818669 0.00252998 -0.15002708 -0.11748887 0.13225788 -0.11709472 0.08128791 0.4320553 0.31610706 -0.00038630702 0.5664211 0.16619451 0.10788528 -0.22577092 -0.019346304 0.79682446 0.421554 0.26749852 0.22046438 -0.21909688 0.30427888 1.0807418 -0.3619895 -0.15667665 -0.18555531 0.58284503 -0.15478112 -0.027955513 0.31966752 0.058273714 0.09048947 0.415623 -0.64596623 0.2668281 -0.3056352 -0.10752893 -0.17242399 -0.6870751 0.0936109 -0.7627532 0.021534614 0.10285096 -0.049374897 0.104245976 0.4964183
善 0.09264703 -0.09851318 0.15701187 -0.01600197 0.48340884 -0.20772283 0.2462222 0.23330282 0.14235367 -0.3640458 -0.082041994 -0.120031685 0.37250087 -0.32135218 0.010555047 0.5835118 0.6096131 0.05304144 -0.07897617 -0.35130817 0.46859938 0.0075558904 0.35163188 -0.004386667 -0.08657393 0.017547311 -0.2578449 0.023239288 -0.4110514 -0.3600107 0.12735833 -0.019665278 -0.10170075 -0.4761128 -0.24369738 -0.77952224 -0.30349252 -0.021977695 0.13102578 -0.14057112 0.21694142 -0.022442488 0.43825892 -0.1471227 0.5366915 0.391852 0.04248216 -0.1850842 0.4010375 0.2958654 -0.026126953 0.056718636 0.31910098 -0.49602675 -0.5029861 0.19910975 -0.08021245 -0.5017324 -0.10225447 -0.15459858 -0.22091599 0.15898712 0.057184048 0.5048067 0.53296006 -0.06521623 0.3931614 0.31119707 -0.05073887 -0.6055309 -0.6789032 0.21807176 0.06088738 -0.4422211 0.1868431 0.55109614 0.40187064 -0.068844475 0.31744888 -0.23042004 -0.25667715 0.18109913 -0.16397919 0.15029973 -0.25821826 -0.20201857 0.27281943 -0.3502449 -0.019578367 -0.028683703 0.035810642 -0.09110735 0.31052127 -0.16454707 0.15907024 0.6395048 -0.2581109 -0.057910647 -0.56746984 -0.16251063
后 -0.387107 -0.069677316 -0.32012582 0.5498482 -0.24625482 0.19900395 -0.23705748 0.28969163 0.21359722 -0.5401879 0.09195831 -0.2045944 0.033357833 0.014431917 0.3414837 -0.16969801 0.26443005 -0.20147364 -0.09564082 0.24665277 -0.18983157 0.29464152 0.05470907 -0.21647264 -0.2800715 0.7189964 0.10108536 -0.30630127 -1.0387267 -0.13465375 -0.098663814 -0.013493857 0.3332925 0.42399645 0.043734748 -0.45209125 -0.35020632 0.25111035 0.6285424 0.27331263 0.75640845 0.5687179 0.2857688 0.17193152 0.48250926 -0.07123061 0.96764374 -0.11378585 -0.2519284 -0.11573393 0.61110485 -0.45209265 -0.46233502 -0.42068517 -0.062062815 0.37755394 0.10628589 -0.36973485 0.09646879 -0.15307833 -0.12272167 -0.12372576 0.16112068 0.37580222 0.06796521 0.51384705 0.03876007 0.7551529 0.2805053 0.11220247 0.5865388 -0.59863836 0.21589746 0.008505162 0.1884104 -0.27011085 -0.23304087 -0.016958538 0.13630702 -0.19117112 0.14103313 -0.055748153 -0.6651255 0.027521687 -0.5215118 0.1404445 -0.31839988 -1.2333754 -0.3285869 0.14131846 -0.13983549 0.2906548 -0.23955631 0.44496852 0.49199396 -0.16476798 -0.07990339 -0.04518746 -0.32620665 -0.7922813
德 0.30596882 0.16511022 0.16802616 0.4933991 0.33827645 -0.42105135 0.23713996 -0.4140543 -0.07916358 -0.74180305 -0.043676466 0.10059676 -0.093008205 -0.9496886 0.44485238 0.58298975 -0.011181581 0.086367175 0.08515972 -0.738412 -0.21343637 0.07807392 0.34018445 -0.08666423 -0.0056273034 -0.18418849 -0.32979226 -0.079892755 -0.57352775 0.27741015 -0.25734332 -0.12136053 -0.71620506 -0.38934323 -0.050763696 0.017303407 0.58032006 -0.13863894 0.21352164 0.09392585 -0.11300101 0.24944496 -0.11067208 -0.26575884 0.04638439 -0.0715257 0.5257829 -0.078640275 -0.23009233 0.2021163 0.15742421 0.19260898 0.25716093 0.32013875 0.07700606 -0.12572022 0.19147336 -0.3807261 -0.08185685 -0.0543474 0.22779904 0.24110566 0.03882754 0.6797233 0.0064926753 -0.10570013 -0.21950613 0.012677411 -0.013657213 0.045272615 0.020525157 -0.07752835 0.71851486 -0.4932704 0.28993478 0.81196195 0.56466687 0.18731144 0.19683929 -0.4776943 0.21426773 -0.25122732 -0.048763126 0.48234534 0.43106118 -0.12879908 0.18350391 0.043565325 -0.2367657 0.15384373 -0.04682657 0.29785222 -0.46959624 -0.26131347 0.67441356 -0.08804654 0.39650276 -0.08720382 -0.1534786 -0.91961884
求 -0.019713903 0.21229427 -0.061518908 0.19001122 -0.35904473 -0.069107085 -0.4296154 -0.10662906 0.11366138 0.18138327 -0.9846517 0.24773793 0.31626704 -0.5034569 0.5736859 -0.023804365 0.1065266 0.28026512 0.20151865 0.098166 -0.26410544 -0.4066287 -0.13971153 -0.048640005 0.009375695 0.091124535 -0.14239982 0.058976125 -0.6578522 0.41601607 -0.3422781 0.20547095 0.34894952 -0.4895903 -0.36525145 0.15573534 0.41810754 -0.7462596 0.060681432 -0.58428663 -0.2920347 0.27687544 0.054438405 0.19485247 0.33436304 -0.068864964 0.12710983 0.077181876 -0.3700546 0.24091625 0.09116884 -0.1342042 0.034767594 -0.201193 0.19253676 0.27194878 1.0067427 -0.18305308 -0.1520943 0.09765831 -0.04059317 0.15121336 -0.31064716 -0.043097463 -0.5147836 -0.3809236 -0.57886666 0.45379123 0.021609478 0.04430535 0.3864461 0.1086942 -0.18987963 0.70736426 -0.13396628 0.8670108 0.39922488 0.008017067 0.18792835 -0.16280834 -0.025382334 -0.2669499 0.9550128 0.27683637 -0.29838595 0.13440956 -0.013532308 -1.3328143 0.12866747 0.19520001 0.2523409 -0.02735609 -0.19499715 0.22776817 0.12514776 -0.23226762 -0.026152197 0.24241482 0.24135484 0.84505254
对 -0.19128263 0.0863282 0.1954584 0.26799792 -0.25472608 -0.07203168 -0.2826065 0.6098766 0.2779663 -0.49786383 0.50928974 -0.0864191 0.0634779 -0.09909701 0.3777513 -0.47263342 0.28713712 0.1996184 -0.17579317 0.30205148 -0.2772551 -0.4720893 0.41693115 -0.03852764 0.09484072 -0.55973274 0.071117826 0.014100273 -0.18923835 1.3183564 0.2193948 0.12010415 0.18973799 0.193102 -0.14797908 0.07628883 0.556687 -0.23796786 -0.044389516 -0.46571714 0.22394574 0.27305138 -0.08757401 -0.37306145 0.40394357 -0.31253514 -0.31406766 0.2800234 -0.53034616 0.19588344 -0.2652628 0.23191893 -0.5447203 0.39223877 -0.48712987 0.25706333 0.4375164 -1.03156 -0.5218327 0.052281506 -0.31056985 -0.1859539 -0.01962352 1.4108348 0.11216705 0.09311569 0.4286885 0.0881054 0.49000877 0.5713629 -0.50285363 0.43961605 -0.08585541 -0.40742186 1.1540072 0.9074035 -0.21409607 0.24700369 0.44780743 0.07778699 0.077635795 0.63905483 0.010135769 0.05681706 0.54007095 0.007537589 -0.1998688 -1.0726773 0.049903307 -0.33795786 -0.12436554 -0.20126958 0.7149559 -0.2753421 -0.001009211 -0.20224974 -0.21451662 -0.278602 -0.2796806 0.29025567
恶 -0.101361275 0.070129596 -0.2547962 -0.26768938 -0.24156184 0.19805357 -0.25330636 0.6200219 0.6508405 -0.0535269 -0.41633064 -0.14351033 0.39004302 -0.3638075 0.18073185 -0.5444758 0.8149712 -0.29085752 0.21462937 -0.10864167 1.0840917 0.050530944 0.20463954 -0.261619 -0.26912302 -0.30921558 0.5566721 0.58290607 -0.53370106 -0.02046663 -0.55676556 0.5956092 0.02509857 -0.18743624 0.017680326 0.38473716 -0.6474027 -0.4578229 0.35534936 0.18634568 0.69194806 0.15999478 -0.070663065 -0.1515007 0.49789125 0.43271065 -0.2902695 0.053344697 -0.36961633 -0.43649217 -0.72869885 0.56559867 0.27773246 -0.07045475 -0.2924843 -0.2750819 0.1443746 0.18350741 0.0884751 0.26832584 -0.18360464 0.23321596 -0.4368944 0.33173648 0.164861 0.6567348 -0.038921986 0.06137709 0.064997144 0.1856989 -0.09525445 0.91770124 0.8177923 0.3506116 0.62852997 -0.06354997 -0.40215415 -0.017955774 -0.1901974 -0.32518017 0.05193247 0.26995754 0.69597995 -0.026722634 0.17869647 -0.44699773 0.04545974 0.17195153 0.2605859 0.35418594 -0.057566836 0.32069293 -0.0402392 -0.030615415 -0.2751355 -0.18641677 0.26689628 0.21699001 0.115853846 -0.11379639
信 0.55471873 -0.301402 -0.21988262 0.72862804 0.42070094 -0.046059914 -0.043909512 -0.2858282 0.11184087 -0.2124206 0.45463043 -0.0063155913 0.18976772 -0.3048701 0.15819022 0.0129919 0.2551877 -0.04088711 0.2881636 -0.11600113 0.23155242 0.569113 -0.26715237 -0.12886891 -0.12669916 -0.16428106 0.08728555 -0.014222309 -0.66918635 0.019220546 -0.3087576 0.6341747 0.067846425 -0.78567696 -0.20502383 -0.47826326 -0.025879586 0.2986306 0.16354966 0.13429412 -0.4765612 0.112264685 0.24665456 -0.14979567 0.1467754 -0.03539093 -0.0770588 -0.81882125 -0.34860367 0.04408477 -0.02340536 0.05290462 0.43234283 0.3768688 -0.36136612 0.20137207 -0.2809236 -0.16045159 -0.13528496 -0.61186147 -0.094123736 0.023267696 -0.34269124 0.41378415 0.27912238 -0.30721015 -0.26982117 -0.17372115 -0.40518907 -0.18147926 0.28638262 0.37515154 -0.068664126 -0.25458863 0.23625678 1.1153017 -0.071972825 0.21465611 -0.41506007 -0.1651154 0.6888845 -0.01883588 -0.1680509 0.08222477 0.26324844 0.09659982 -0.3654002 -0.1752704 0.009794373 0.18986365 0.5819007 0.18184094 0.17816046 0.011202371 0.2618039 0.050211724 0.13971364 0.075250484 -0.15092601 0.061415046
死 0.019561186 -0.10753344 0.35055944 0.6873498 0.17738986 0.19330199 0.07588763 0.056699768 -0.06773259 -0.75786483 -0.19940177 -0.02495449 0.31600574 -0.4469991 -0.016718961 -0.45545185 0.26186457 0.042593446 0.15587798 -0.07611015 0.28130215 -0.0738072 -0.04622749 -0.057637304 -0.043265067 0.76197857 0.33327353 0.23702268 -0.8554486 0.17470105 0.05179311 -0.12101656 0.7809147 0.095549785 -0.1163431 -0.20783234 0.027526338 -0.5671823 0.08769468 -0.4533187 0.42921868 0.025734087 0.042180646 0.13684069 -0.010264332 0.39593765 0.026922226 -0.46626666 0.17008126 0.35976043 0.31064898 -0.4020716 -0.18795836 0.71998817 0.3274471 0.12063355 0.247084 -0.61453205 0.24291082 -0.31795806 -0.4812032 0.057918716 0.025888965 0.4697702 0.0842469 -0.47762927 -0.18148637 0.09990801 0.1684914 0.59907806 0.13757025 0.43207794 0.017906405 -0.20064881 0.28480515 0.10688741 0.41966388 0.07533103 -0.12461446 -0.090644136 0.1075007 0.23314257 -0.00011024112 -0.2191306 -0.21422221 0.24563088 0.03868153 -0.25972417 0.25248754 0.09822731 -0.13575315 -0.2815476 -0.5829196 -0.21319076 -0.49920332 0.05992793 0.027477715 0.11660056 -0.023490276 -1.1730663
然 -0.16077955 -0.21822585 -0.14390884 0.0341589 0.5701213 0.016626801 0.24041794 -0.39669695 0.0988881 0.029875781 0.05675404 0.09008987 0.22643757 -0.27691537 0.33065847 -0.24500476 0.757631 -0.08627115 0.20704128 0.09360394 -0.57733303 -0.5165448 -0.22184846 -0.0011110456 -0.15575081 0.3517735 -0.052580025 0.0903444 -0.68636584 0.5146334 -0.24592055 0.32766643 0.25032467 -0.3478524 -0.2798101 0.10082262 -0.24093917 -0.30863732 0.21217659 0.34914404 0.19840038 -0.03371394 0.12751134 0.24051976 0.12006981 -0.702079 0.40244013 0.27505082 0.034181323 0.42552435 -0.13756396 -0.28762007 0.62035984 -0.19494449 -0.568522 -0.25656092 -0.18857813 -0.676376 -0.31869233 0.08346979 -0.538302 0.21598196 -0.09113458 -0.34822556 -0.055339497 0.14994355 -0.08996971 0.6391879 0.018757846 0.009490769 0.2927872 0.16654882 -0.052456222 0.46493134 -0.26066798 0.10419939 -0.033686053 -0.34835783 -0.08222668 -0.47922358 -0.2814251 0.037012085 0.27056092 0.38234928 -0.5752842 -0.014370549 0.03295511 -1.1883231 -0.18785094 -0.15675673 -0.035468377 -0.12513603 -0.54652756 0.057431683 0.0989627 -0.8768293 -0.08368134 0.69990486 -0.35221568 0.38839573
《 0.13342558 0.23772296 0.07280163 0.5074898 0.5044468 0.2030056 -0.2592314 0.30099392 -0.05841921 -0.34785756 0.36419538 -0.38966787 -0.20155983 0.30132833 0.09316109 0.5928186 0.3586525 0.030201543 -0.06376015 -0.19516483 -0.4170188 -0.57412744 0.39639112 -0.78780675 -0.33154637 -0.28593895 -0.19958165 0.36347523 -0.8774474 0.5266307 -0.063665956 -1.1608785 0.6972547 -0.33836675 -0.3254995 -1.0435498 -0.322076 0.4972321 0.36261827 0.2426302 -0.1253952 -0.7645817 -0.31292298 -0.42786482 -0.4332262 -0.06619909 0.48522186 -0.48249295 -1.3960837 0.035372436 -0.21335347 0.19121741 -0.57988584 -0.8547851 0.31994084 0.15431693 0.28386 -0.39921278 0.17974044 0.41671935 0.08904338 -0.38423175 0.25517383 0.34110987 0.52536416 0.19648777 -0.346398 0.42358708 -0.3216506 -0.2932816 -0.5724412 -0.7885797 0.5432378 -0.677979 0.74617517 0.19880435 0.5448922 -0.1491719 -0.48273778 -0.3888393 -0.048962284 0.19580245 -0.6087578 -0.67625874 0.62897074 0.004664192 0.1329109 0.21235387 0.48974016 0.059082456 0.7542198 -0.26518306 -0.25240454 -0.80546665 -1.2602789 -0.90013456 0.4322086 0.044919103 -0.1307306 -0.59651315
