1352 100
， -0.3327976 0.3819808 0.21519636 -0.12505227 0.17341436 -0.27483505 -0.31999263 0.019011095 0.19177939 -0.32749748 0.049385555 0.35958883 -0.03527903 0.14058106 -0.42354792 0.44483864 0.38974035 -0.14675234 -0.19966193 -0.22066048 0.03346652 0.34752625 0.15937755 0.48109323 0.22545065 -0.07226867 0.075655326 0.24881269 0.057327576 0.081265844 -0.4928742 0.028277127 -0.20558046 -0.12408647 0.0491598 -0.055914573 -0.09639192 0.27657852 -0.17519443 0.08156416 0.4430543 -0.35513213 0.08018283 -0.13900977 -0.11359686 -0.15398276 -0.0632343 0.57853556 0.2598746 -0.0119803455 -0.056482498 -0.017895713 -0.11358507 0.2734172 0.17714716 0.1591009 0.084561184 -0.17524928 -0.067244254 -0.0015520933 0.10785009 0.11153222 -0.12530695 0.3712265 -0.04416131 0.9715774 0.075580284 -0.6233053 -0.2902006 0.31897205 0.08396253 -0.5600493 -0.55640996 0.14164788 0.659668 -0.03138195 -0.40036723 -0.49629462 0.04532599 0.25394994 0.018677125 0.05817766 0.26700622 -0.09107978 -0.15244488 -0.37246123 -0.012616102 -0.031973545 0.39272767 0.13125962 -0.08780924 -0.35205224 -0.11298011 0.16671817 0.12467577 0.09811392 -0.24152222 0.09223285 -0.14711581 -0.30432972
子 0.07978668 -0.08164882 -0.11581551 0.26603225 0.501658 -0.21297736 -0.020722078 0.116798215 -0.078167565 0.05442192 0.036885664 -0.18223684 0.23086959 0.1815804 -0.031271815 -0.49403128 -0.23073545 0.048748873 -0.5284457 -0.35833612 -0.043336596 0.08603281 0.18233353 0.056551017 0.117838435 -0.28786865 -0.16137202 -0.48587418 -0.037454538 0.1354424 -0.16301432 -0.17121147 0.019182935 0.19949168 -0.016718103 -0.23160045 -0.1478753 -0.032914966 -0.07933237 -0.06701278 0.34948495 0.056537192 0.32136783 0.20258498 -0.33081174 -0.25448033 -0.13830289 0.14571889 0.1335735 0.035286766 -0.16495793 -0.18950038 0.14237401 0.23745248 0.03381907 0.1459149 0.16021942 0.014333797 -0.040533986 -0.6387228 -0.09514981 0.48663187 -0.10325382 -0.10557266 -0.19871815 -0.11965961 -0.16998938 -0.2745535 -0.27444595 0.030389491 -0.04090262 0.14238118 0.16885787 -0.33704594 -0.19655459 -0.109002344 0.18328637 0.27502123 0.25820982 0.21794842 0.057865508 0.13869776 0.21445097 0.17639907 0.073012 0.11306188 -0.12570308 -0.02057397 0.070968576 0.060349297 0.038677115 -0.16089875 1.7128416 -0.24008077 -0.020202883 0.282126 0.064825736 0.13661107 -0.034469754 -0.03323156
。 -0.36422503 -0.0075927526 0.06294328 -0.025615081 0.18523332 -0.15945786 -0.41065118 0.2559844 -0.04814482 -0.27316606 -0.15536623 0.09717448 0.24334145 -0.054407876 -0.08811838 0.23690507 -0.1332251 -0.14593084 0.36214098 0.21378681 -0.083061665 0.15231356 -0.743982 0.13027546 0.13258155 -0.16918516 -0.3548052 0.021991316 -0.43795502 -0.09191767 -0.010765955 -0.17174432 0.23492056 -0.45073575 -0.27029988 0.1342575 0.10774424 0.09977867 -0.05791051 -0.31772533 -0.3304718 0.056431785 -0.14964902 -0.114207566 0.34513667 -0.083275765 -0.025222866 0.24810104 -0.16636583 -0.3306994 -0.04640406 -0.7666591 -0.058840238 0.097094506 -0.15484597 -0.14709935 0.11182796 0.21297641 -0.23066069 -0.40447524 0.21975622 0.854786 -0.048761796 -0.12434565 0.4178023 0.4807994 -0.18102641 -0.61263216 0.29693627 0.23374493 -0.08926619 0.20766969 0.12395354 -0.20530815 0.09495532 0.02792445 -0.057754602 -0.17140429 0.4612596 0.12697962 0.100967705 -0.39695168 -0.4692314 0.0114221955 0.14112054 -0.1601278 0.06965315 -0.2867954 0.26714638 0.05849951 -0.17773856 -0.35760504 0.3276483 0.21210787 -0.01120783 -0.16680828 0.33044106 -0.22750105 0.15630163 0.3808164
： 0.14194053 0.03668594 0.24996912 -0.2593229 -0.054602437 -0.16773239 0.14654906 -0.121728785 -0.4606431 0.20547506 -0.074018985 -0.0034994222 0.24633117 -0.16432652 -0.2932675 0.5697517 0.0129456725 -0.15660064 0.14706963 0.03704567 0.19462322 0.28678647 -0.10676273 -0.006912859 -0.08266113 0.10588649 -0.0667202 -0.04630439 -0.09451944 0.30717236 -0.09698093 -0.12723671 -0.10961625 -0.11664207 -0.03312588 0.014966418 -0.26147935 -0.022750651 -0.12016832 0.11069372 0.09576877 -0.07061357 -0.099501684 0.56708694 0.040669262 -0.27520874 -0.25918493 -0.06317964 0.01833126 0.06215261 -0.30352718 0.6799682 0.09701444 -0.24412222 0.1202524 -0.13575011 0.019954806 0.035336673 0.031757597 -0.1440672 -0.017999142 1.5197923 0.29280207 -0.064546406 0.23065802 1.1426084 -0.056848153 -0.074972525 0.19011131 0.19638929 -0.14796738 0.35763466 -0.061231747 0.2459518 -0.14686231 -0.019971877 0.18502818 0.48375154 -0.20673642 -0.2048123 0.17671491 -0.33599174 -0.058357395 -0.3492861 -0.038069367 0.067153305 -0.050365932 0.17318313 0.21712746 -0.4913241 -0.13329606 0.48801666 0.7184469 0.3254395 0.22711487 0.30658332 -0.04491785 0.12132707 0.15010938 -0.09036922
曰 -0.22853082 0.03315605 -0.25421295 0.12989159 0.27607146 -0.1902044 -0.2547131 0.012976825 -0.38864666 -0.35740244 -0.1937325 0.4437941 0.26856437 0.08735767 0.14118393 0.65144825 0.2950591 0.13069804 -0.012880255 -0.19529548 0.0130463075 0.20816487 0.10524547 0.057781447 0.19217426 0.298976 0.016774286 -0.20402817 0.32672346 0.1641049 -0.036127217 -0.00422656 -0.011036335 0.33749104 -0.0904624 0.060307637 0.024588708 -0.24724631 -0.04903576 -0.119085826 0.23659874 -0.019409234 0.39843976 0.047284566 -0.39761513 0.12677662 -0.24536154 0.23148103 -0.011931784 -0.115765765 0.23117815 -0.29570162 0.14832653 0.17194623 0.15179692 -0.13639477 0.07426784 -0.03048758 -0.23029502 -1.3742839 -0.14598863 -0.08902874 -0.063637935 -0.15908712 -0.19194551 -0.26513115 0.026916612 0.47774243 -0.54743576 0.054466423 -0.15680036 -0.16601661 -0.10756063 -0.21012162 -0.1957822 -0.041809477 0.25399336 0.2798467 0.4886725 0.06251037 -0.27904066 -0.21976708 -0.057392392 -0.05101579 -0.11828721 0.012219941 -0.0890718 -0.16007401 0.30064446 -0.01797021 0.10161427 -0.10103022 2.061696 0.058307532 0.017234068 -0.029225785 -0.23350634 0.13123024 -0.01572809 -0.28307915
之 -0.11027559 -0.12261102 0.48256597 -0.2356292 0.1574864 0.2330087 -0.09197544 0.06552245 -0.0024887295 -0.07707562 -0.022551507 -0.030316645 0.38745913 -0.08206819 0.13808998 0.031670246 -0.021447066 -0.20970093 -0.23733099 0.0028055739 -0.5372394 0.1588916 -0.20089675 -0.2577874 -0.0042241476 0.08278291 0.22067659 0.035165768 0.22979009 0.35234404 0.11903263 0.19343203 -0.15962604 0.1645526 0.09005071 0.07766785 -0.079650305 -0.011318063 0.1233029 0.31902882 0.028755922 -0.39076698 0.047234315 0.32570663 -0.04065398 -0.24487354 -0.025426652 -0.0033491338 0.30649918 0.17208143 0.11632155 -0.22040226 -0.5191327 0.06494877 0.25181532 -0.35068887 -0.041826226 0.28265154 -0.029240305 -1.3142655 -0.32063028 0.18312642 0.31830522 -0.0050238697 -0.13002059 0.24660249 -0.035326764 -0.65539366 0.39475903 0.28535256 0.0869967 -0.064510174 -0.26124266 -0.095514864 0.27648702 0.0968183 -0.119007036 0.3042133 -0.04988546 0.0053282636 0.14342208 -0.1282223 -0.06523284 -0.2130458 0.20899636 -0.12442842 0.16775426 0.14165394 0.4351713 -0.072075196 0.27383026 -0.077404626 -0.32839972 0.5186474 0.0882534 -0.35110033 -0.06807818 -0.42032743 0.14211428 -0.06680711
不 0.04879305 -0.15223075 -0.3186967 0.029926704 0.320711 -0.010210048 -0.047609843 0.41282797 -0.079814084 0.090747215 -0.16540827 -0.41861865 0.2752018 0.57441866 -0.12523751 0.902207 0.26673347 -0.22592191 -0.10245459 0.014077865 -0.112867236 0.015804509 0.3122464 0.0030245313 0.14672355 -0.23095033 -0.2803099 -0.082085975 0.24092473 0.07583219 -0.25888354 0.1889539 -0.087836355 -0.12564446 -0.06414011 -0.36214802 0.12496471 0.388367 0.009421673 -0.0122151 0.10480206 -0.025296338 -0.39320812 0.27932325 0.1304008 0.20299242 0.18083327 0.24885917 0.17431942 -0.30782545 -0.12874122 0.2226633 -0.186426 0.4111399 0.26608044 -0.0682171 0.08618485 -0.15480058 -0.45969546 -0.52212065 -0.34597623 -0.43928674 0.08233129 0.08860875 0.14107767 0.24530007 -0.21906789 -0.17047232 0.49515215 0.16575916 0.11675644 0.38017058 -0.2586528 -0.074705884 0.07456787 -0.17272303 0.092054024 0.29958293 0.022751546 0.025509845 -0.07734852 0.03612221 0.2820842 0.25998998 0.23567393 -0.41338867 -0.20953861 0.19668736 0.2724673 -0.24209258 -0.14599468 0.2992678 -0.010676057 -0.5298864 -0.0629623 -0.14138731 -0.083907485 0.21332657 -0.24506238 -0.06628433
也 0.041710652 0.11893308 -0.0070782853 -0.31986815 0.015640406 -0.09076334 -0.12617493 0.15784407 0.34378883 -0.024926094 -0.0036481575 0.095481165 0.1362081 -0.047720186 0.091352515 -0.44592524 -0.04499656 0.050963372 0.6531731 -0.36146435 -0.27980384 0.12400812 -0.15198518 -0.11185906 -0.28320494 -0.23832764 0.22444315 -0.3019524 0.42617917 0.0013611745 0.7221952 0.11992157 -0.30669132 -0.29081205 0.37464806 0.098811984 0.4808316 0.0550899 -0.037881482 0.08950674 -0.029458748 -0.14778323 -0.69944024 -0.12231765 0.1737634 0.09816946 0.068969734 0.25831446 -0.13017765 -0.111494265 -0.17956817 0.019767104 -0.256766 0.15457304 0.5902688 -0.57203585 0.2237686 -0.13146232 0.39294127 -1.1638145 0.15626849 0.46780598 -0.12082262 -0.29534224 -0.19760087 -0.1424634 0.13735856 -0.35098016 -0.06638867 -0.07582107 -0.28029534 -0.13711853 -0.1467997 0.2648361 0.100598395 -0.12479389 -0.2676941 -0.15207131 -0.15897177 -0.026053518 0.10672218 -0.049855 -0.09968061 -0.16811647 -0.25081718 -0.22226867 -0.2968456 0.37035164 -0.06807031 -0.04283122 -0.013955545 -0.08406597 -0.0065781865 -0.49665254 0.14082436 -0.046410523 -0.26442578 0.001204774 0.05079715 -0.02290339
而 -0.25297883 0.45116356 -0.09565008 -0.5306832 0.40653378 -0.05168438 -0.04433261 -0.29826424 0.16075431 0.13470145 -0.030162375 0.08750802 0.11086765 0.010743485 0.7164892 0.9465066 0.15387742 0.065018125 -0.27412423 -0.08331369 0.04433287 -0.19060357 -0.43524563 0.20078062 -0.026018906 -0.008701496 -0.43140733 -0.08706665 0.5655315 -0.31977233 0.3006477 -0.15715815 -0.21774192 -0.07795605 -0.05373679 0.12939417 -0.17406838 0.2037434 -0.057263866 0.09999595 -0.22032394 -0.14527307 -0.43648943 -0.09789376 0.29467863 -0.084570624 0.1602398 -0.013789432 0.21767248 0.20316155 -0.14372936 -0.175282 -0.022933986 -0.06358522 0.4048631 0.020356245 0.37388036 -0.21320693 0.031911165 0.14718238 -0.5258439 0.44319814 0.051117714 -0.108322814 -0.063478604 0.36614072 0.08385006 -0.12914884 0.53966117 -0.32109436 -0.24254261 -0.16369313 -0.326833 -0.03901268 -0.203614 0.0005595144 0.055588342 -0.038716767 -0.08431464 0.117217265 0.30484244 0.0055951504 -0.016307984 0.030147158 -0.3357354 -0.0060149957 0.0014408994 -0.077571526 -0.23392108 0.19233695 0.10682257 -0.054264307 0.2777353 -0.09898706 0.23107567 -0.64482474 -0.20535527 0.051293124 -0.026417082 -0.12169541
？ 0.16407911 0.017302465 -0.6690779 0.09188545 0.15875354 -0.16092493 -0.034513485 -0.09572002 0.33192104 0.017345423 0.14218424 -0.055388346 0.11794803 0.2596736 0.14699166 0.53899276 -0.069641486 0.044654686 -0.25754315 0.062375322 0.24835177 0.28240046 0.3360142 -0.16690017 -0.11850047 -0.1348254 0.011109353 0.040277444 -0.21067612 -0.05571965 -0.0059971744 -0.060663886 0.061689127 -0.03046518 0.0016740386 -0.031057928 0.29529437 -0.11463225 -0.29696748 -0.24099521 -0.12000187 -0.05879341 0.46493033 0.18553373 -0.11164496 0.29058656 -0.06327537 -0.16978031 0.035939004 0.36863288 0.20846142 -0.930217 -0.4202751 0.3581086 0.13216615 -0.16083421 -0.58569795 -0.6570126 0.3425793 0.118798286 -0.30749774 1.4545094 -0.09033074 0.19724296 0.032024123 0.71338505 -0.27889618 0.5872912 -0.05716383 -0.15510693 0.123067 -0.030470973 0.005520785 -0.1802122 -0.120553136 0.05023046 0.43387797 -0.026090449 -0.19123603 0.13490494 0.37132466 -0.18839976 -0.031662423 0.14570348 -0.20924725 -0.1526627 0.35763362 0.123096906 -0.15117694 -0.074056454 0.15156865 0.059807632 -0.25339696 -0.2838078 -0.15319768 -0.14430542 -0.087371156 0.08333204 0.09259392 0.19042684
其 -0.14414437 -0.0813688 -0.25639042 -0.1999402 -0.12381567 0.2647399 -0.0200546 0.10133714 -0.16274387 -0.36251044 0.14395389 0.12856483 0.1549668 0.1941735 0.10924622 0.8754532 -0.07607251 0.046243276 -0.2894854 -0.040502407 -0.12905554 -0.28432366 0.6034752 0.066043146 -0.11045293 -0.13989665 0.14151253 -0.04471644 0.62514204 -0.0052582696 0.14529671 -0.060113322 0.29443797 0.13973784 0.083576515 0.020601414 -0.49830416 -0.068314575 -0.24550247 -0.042800635 0.1091482 -0.15912002 -0.55433947 0.22342323 -0.12926927 0.08435858 -0.42270252 0.13578786 0.012663105 0.13728854 -0.08022201 0.2375527 -0.23489372 0.07853721 0.048558585 0.088020965 0.39716557 -0.17382053 0.121666566 -0.67487204 0.29554445 0.110938475 -0.2350218 -0.4651262 0.08390526 -0.18029332 0.30262884 -0.07201357 -0.22119467 0.062520854 0.22004347 -0.07121357 -0.02884962 -0.084302865 0.056786504 -0.059747353 -0.19579259 0.18946011 0.17100836 0.3096221 -0.16049987 0.06252947 -0.21784982 -0.099609606 0.047716975 -0.09480161 0.045590915 -0.10815678 -0.21219377 -0.036113776 -0.24272731 -0.5908681 -0.23820563 -0.54079014 0.12669183 0.18821403 0.14540131 0.04506204 0.30098665 -0.42837405
人 0.17660616 -0.019130642 0.077986516 0.21616203 -0.34360024 -0.08197742 -0.24509376 -0.7260234 -0.14953877 0.08599007 0.049675196 -0.35486796 0.006282651 -0.176371 -0.0293812 0.38798264 -0.29925093 -0.29350105 -0.09101509 -0.24631356 -0.14798832 -0.010336172 0.36530867 -0.03803294 -0.36870855 0.39926702 0.2649825 0.16783407 0.2563995 -0.24864422 0.36086014 0.11725797 -0.0569354 0.053902976 0.02115433 0.0057511865 0.029378904 -0.135515 -0.16515192 -0.1496072 0.33623394 0.0003818744 0.35591918 0.0038878126 0.09977547 0.0076162573 -0.078816146 0.54458696 0.59401345 -0.60553694 0.17879623 -0.7569926 -0.21385092 0.007839758 0.7801619 0.07880099 -0.089192115 -0.124666855 -0.062945396 0.35169822 -0.035942383 -0.15292461 0.057341672 -0.07323142 -0.06563686 -0.12438382 0.18797822 -0.4276606 -0.28314632 -0.083754 0.24746597 0.56031275 0.092223115 0.05515458 -0.26736525 0.05986817 -0.2559476 0.10414158 -0.21281068 -0.20300855 -0.42493522 0.0974581 0.003244945 -0.1857213 -0.13807447 -0.08252936 -0.021781446 0.032317456 -0.27826932 -0.13309892 -0.07568511 -0.025815152 0.2526251 0.23330556 -0.22008735 0.05788683 0.30715555 -0.1890152 -0.006832924 -0.39984354
者 0.39201507 0.2065663 -0.6985202 0.033063844 0.22487739 -0.41379344 -0.15647392 0.48102945 -0.2498946 -0.06808987 0.19778757 -0.17551307 -0.015827818 -0.2779206 0.14586335 0.0055685416 0.098636344 0.0038409312 -0.14395098 0.11250597 -0.005870873 -0.38259864 -0.114498466 -0.11106335 0.12138505 -0.1635968 0.2638828 -0.14693159 0.34762362 -0.28943276 0.8060132 -0.30738926 0.20069316 0.16776523 0.16214496 0.30846155 0.089162305 -0.25897995 -0.18480444 0.13357079 0.33345413 0.06858652 -0.29410437 0.12818229 -0.019569138 0.27097565 -0.09852281 -0.16100305 0.13635176 0.097166866 -0.18436788 -0.19788976 0.1035905 -0.17441134 0.38336155 -0.25276154 -0.30265808 0.1612786 -0.16802336 -0.11082189 0.021628289 0.18577147 0.17519207 0.111845724 -0.1380999 0.6121923 -0.14408506 -0.46198085 -0.34450653 -0.0744118 0.2304516 -0.04067169 -0.03913509 0.32237995 -0.08961752 -0.036080595 0.1684293 0.39945605 0.028526843 -0.33133125 0.25442016 0.23775287 0.018403247 0.087769054 -0.12879722 0.13917664 -0.3864488 0.0035413578 -0.20543826 -0.33549058 0.38920075 -0.4294207 -0.23417765 -0.355522 -0.5458029 -0.19436938 -0.43034977 -0.30100977 -0.034190238 0.0102312695
以 -0.28761244 -0.3745207 -0.10122335 0.06479429 0.13738297 -0.30155537 0.07560384 -0.07981903 0.23239344 -0.17108186 0.02709207 -0.63472617 0.016638808 0.1704024 0.22690295 0.47516355 -0.1519473 -0.07232733 0.05736909 -0.10705889 -0.2696341 0.4554213 -0.18099223 -0.0054515135 -0.2170461 0.012774685 -0.5613301 -0.053086706 1.296915 0.10030093 -0.2080681 -0.12300533 0.43706343 -0.15025032 0.09449574 0.080814175 0.11122807 -0.028274179 -0.017539565 0.17632067 0.030036232 -0.08560535 -0.037219346 0.077334166 -0.22344463 -0.023050629 0.1474723 0.18239327 -0.03769487 -0.1626513 -0.17573673 0.18918724 0.41116792 0.119581595 -0.69750744 0.18685359 0.04661928 -0.11138819 -0.2069421 -0.2376899 0.19835182 0.7494102 0.19260228 0.10509727 -0.11466254 0.19441271 0.27261126 -0.35671222 -0.47931486 0.2358172 0.029928086 0.05860504 -0.15626407 0.076203 -0.121252716 -0.1558668 0.21563706 0.2890508 0.24611172 -0.051181164 -0.09855377 -0.00753055 -0.14073156 -0.14053582 -0.39287245 -0.0336175 -0.5318157 -0.032318555 -0.11840632 0.07013669 -0.2843993 0.2391417 -0.4716377 0.11060482 -0.04696846 0.17193465 0.08978492 0.2191931 -0.36754876 0.17805257
有 -0.085796855 0.19584915 -0.33096758 0.08752589 0.05213207 -0.20936608 0.22905596 -0.24096416 -0.2448102 -0.19736736 0.08212085 -0.24317443 0.023952736 0.13818498 -0.09239202 0.34937844 -0.004350957 -0.0604764 0.15830916 0.5112185 -0.42225927 0.20430008 -0.2349754 0.2790342 0.20851097 0.89607275 0.16383149 0.1617299 -0.28166795 0.17807741 0.21038696 0.2594818 0.0396731 0.21754469 -0.046779145 -0.25895157 0.020907173 -0.060617626 -0.25524074 0.048525404 -0.013449313 -0.009055641 -0.15606923 -0.11740171 0.19591326 -0.2702777 -0.063733004 -0.3129685 -0.19176932 -0.15012248 -0.11999262 0.364575 0.13291192 -0.015569029 -0.13422918 0.13623787 0.15349624 -0.090365045 -0.04305535 -1.0307353 0.028505601 0.05944447 0.23423608 0.1711113 0.3701371 -0.04115302 0.20742679 -0.32176393 -0.2404463 0.15217263 0.46960077 0.28137332 -0.25956443 -0.7623634 -0.27772248 0.07410718 0.47843653 -0.4501404 0.16189456 0.123032175 0.13701485 0.35968956 0.32322928 -0.3515896 0.27114815 -0.10865516 -0.006547693 0.1445282 -0.09680122 0.011504554 0.18422535 -0.21660708 0.02192033 0.0950767 0.048928607 0.27062947 0.2006823 -0.102515794 0.061337877 0.14980812
于 -0.24527374 -0.27649525 0.16205458 -0.2625819 -0.17147274 -0.2189333 0.076686844 0.20387763 -0.5688482 -0.08965781 0.20251006 0.041485664 0.03531771 0.29448617 0.1802636 0.13468215 -0.011369979 0.289675 -0.3764036 -0.004647273 -0.114436194 0.03832539 0.49171782 0.06706195 -0.292887 0.24480784 0.06141151 0.36655954 -0.314918 -0.1359114 0.16808641 0.09274164 -0.10133393 0.049887694 0.1482024 0.31284347 -0.080163114 0.19287197 -0.02942865 0.024952263 -0.41823468 -0.15101537 -0.24635287 0.060059026 0.46083724 0.0939726 0.5099408 -0.08930281 -0.042320162 -0.21040563 -0.1618347 -0.255107 -0.061138995 0.17841241 0.06189792 0.3653278 0.42135265 0.050029084 -0.11643855 -0.8645615 0.25014582 0.10435264 0.051464494 -0.47139832 -0.08679434 1.6430093 -0.08359797 0.54978263 -0.94501853 -0.004486635 0.22599246 -0.17327389 -0.154539 0.14118387 -0.013319733 0.28802624 -0.13922898 0.016096875 -0.15893929 -0.2382143 -0.31206882 0.05380888 -0.07502388 0.26670405 0.31575975 0.15147375 -0.3590605 -0.24249622 0.216512 0.040285468 -0.3931146 -0.13604186 0.088305876 -0.09627386 0.20405976 -0.012447496 0.044065908 -0.17514086 0.03929317 -0.11984995
矣 0.066275276 -0.059809208 -0.28935835 0.52248216 -0.3312588 -0.14403073 -0.1438781 -0.19501306 -0.47369403 0.026955174 -0.030958284 -0.34098804 -0.09118412 0.18836556 0.46923155 -0.13671036 -0.14478171 0.24910218 -0.008295275 -0.017522732 -0.3196752 0.06831077 0.0665321 0.15364338 0.1974299 0.36580965 0.20314504 0.12444214 0.99605364 0.20721121 0.46879283 0.015095505 -0.048536446 -0.30593923 0.23372674 0.27236173 -0.2342717 0.6489413 -0.41856638 -0.19898741 0.20628734 -0.11204872 -0.50830114 -0.33493298 0.40599254 -0.004419448 -0.7724659 -0.13059166 -0.029758446 0.18311507 -0.0019264219 -0.15293565 0.21891783 0.45076334 0.68562174 -0.10945716 -0.75612044 -0.012212943 -0.33044532 -0.7994627 -0.46963397 0.72078973 -0.15216373 -0.06247218 0.15742528 -0.2025344 0.1913472 -0.024826214 0.0916065 0.48061395 0.33581614 0.08855917 -0.38359115 0.6361506 -0.055128597 -0.36184856 -0.28733465 -0.46689197 0.15586625 0.07566025 -0.5400337 -0.45503315 -0.0043305345 0.6896013 -0.19093218 -0.030975793 0.17233658 0.012795303 0.14897129 -0.1382593 0.07863401 -0.33250347 0.20565973 0.4829376 0.034844242 0.020331139 0.1536069 -0.23409957 -0.108911805 -0.40812293
为 0.16194241 -0.44956046 0.20088668 0.8982992 -0.06571803 -0.0072213854 -0.09781441 -0.19210313 0.04144312 -0.3988408 -0.3281283 -0.26134613 0.15308456 -0.34668288 0.16568382 0.49422956 -0.34089103 0.051720273 -0.022948517 -0.2889656 0.24061513 0.38804674 0.19979718 -0.2474377 0.09773269 0.3284104 0.1408553 -0.14676389 0.13964711 0.043340072 0.023296708 0.22901651 -0.03649819 0.05369724 0.054839306 0.38843855 0.042236585 -0.24428256 0.06275391 -0.08410265 -0.17048183 0.28443068 -0.326238 0.101912715 -0.26420277 0.2517416 0.6772666 0.21926439 -0.05685322 0.11315319 -0.39490855 -0.53983516 0.08178302 -0.32116345 -0.3758542 -0.25818244 0.27257583 -0.13473389 0.050837316 -0.47166133 -0.6738708 0.18661444 -0.31380737 0.014991745 0.31475234 0.1662933 0.12171226 0.14649236 -0.29599684 0.15244593 -0.1668219 -0.100602806 -0.035033766 0.2905026 0.20039319 0.07557353 -0.13308053 0.03090215 -0.0040595867 -0.07318579 0.07706378 0.050289076 0.13993031 -0.19996032 0.114312276 -0.09126866 -0.34979033 0.22596948 0.2196851 -0.040554322 0.2580839 0.6606511 0.0061703282 -0.44621477 0.15061729 0.6617199 0.15896057 0.3561976 -0.06606146 0.19415602
君 0.44227916 0.13416833 0.29945737 0.41426224 -0.2737968 -0.5074179 0.39064175 -0.1242193 -0.16518489 0.2930998 0.017106034 0.41135025 0.03912142 -0.03399763 -0.2921364 -0.1364423 -0.49547052 -0.11980104 -0.047364395 -0.1918843 -0.18283038 -0.021630801 0.11510477 -0.07939696 0.2091385 0.2076756 -0.097854584 0.04288389 -0.020574072 -0.026065556 -0.2059675 -0.3287831 -0.23485054 -0.15737444 -0.2441201 -0.3101619 -0.07928207 0.05242114 -0.07075293 0.23490186 0.06818487 -0.0658602 -0.37407455 -0.009540225 -0.3848838 0.17681849 0.12035875 -0.3531206 0.16709831 0.17128892 -0.4039215 -0.2762192 0.12833697 0.2866624 0.39318115 0.053125113 -0.069721885 -0.84925115 -0.28271613 -1.01939 0.05296319 0.00017556967 0.120648004 -0.13428843 -0.03934925 0.0117996875 -0.09665103 0.34202158 -0.5276173 0.37410936 0.12254574 0.11484372 0.2315263 -0.5792909 0.34300017 -0.2020258 -0.051758252 0.0693063 -0.27593282 0.06851797 -0.2646261 -0.24745147 0.519436 0.13111663 -0.32028106 -0.14540201 -0.0013892576 -0.040574163 0.2864835 -0.3841508 0.39728415 -0.46193808 0.94304377 -0.46688464 0.23467425 0.141271 0.20346168 0.2561908 0.17544314 -0.23722254
乎 -0.1661554 0.17933467 -0.56710434 0.51778877 -0.18651555 -0.058864567 0.16044438 0.24700382 -0.114861295 -0.25450796 -0.09732506 -0.03761802 -0.057674997 0.6026025 -0.25636703 0.5710865 -0.34163812 0.48303324 -0.17747672 0.021379491 -0.067264214 0.5583646 0.2817912 0.06522129 0.43056008 -0.042887107 0.29220667 0.22064215 -0.24180584 -0.052860193 1.1694803 -0.39396378 -0.2072978 0.19372047 0.15657677 -0.08144698 0.20304081 0.34669462 -0.17211504 0.055692118 0.24824582 -0.14336058 0.080066554 -0.12057798 0.6647723 -0.10644021 0.012640635 -0.3966526 0.21073869 0.060886912 0.21397199 -0.1961879 0.0018797797 0.029697055 -0.20082168 -0.45149648 0.24486727 -0.10088006 0.047450658 0.0544008 -0.7212413 1.0116528 -0.44217864 0.032276727 -0.26300675 -0.26502433 -0.0006704065 -0.51796514 -0.48658815 0.005900134 0.2609529 -0.29017794 0.11673067 -0.0774306 0.040790386 -0.26245648 -0.58079654 0.09380949 -0.03351172 -0.46404383 -0.51734966 0.3457373 0.3517737 0.09443317 -0.35507023 0.045662254 -0.2844265 -0.015095062 -0.060239803 0.07272024 -0.24774514 -0.23049356 -0.12195232 0.13953912 0.059707686 -0.62791926 0.026090646 0.29109395 -0.041668463 -0.4551769
可 0.12289892 -0.17885831 -0.35621926 0.18974416 -0.16293468 0.13796188 -0.17666857 0.044532306 0.18725307 0.08255026 0.14505996 -0.56899965 -0.20047784 -0.13052668 -0.24827673 0.39017412 -0.19577926 -0.2868796 -0.23429094 -0.11217532 0.40535042 0.6839389 -0.12321273 0.2177036 0.45360738 0.24111591 -0.086058825 0.3556096 0.53648716 0.4315857 0.43410853 -0.2599487 0.25036427 -0.146324 -0.043655366 0.10567905 0.22462876 -0.077991545 0.1346414 -0.46155727 -0.08473659 -0.29549283 -0.19730745 0.04845592 -0.13815135 -0.45629892 0.0020997492 0.23688248 -0.30570462 0.4041606 -0.30594885 -0.28577554 -0.21760467 -0.16281362 0.5862591 -0.17942287 -0.046959557 -0.44827428 0.023134787 0.23796359 0.3111693 -0.38136587 0.38718557 -0.035419837 0.2438002 0.26285678 -0.06312982 -0.5965708 0.26279035 -0.19119924 0.11660515 -0.19111772 -0.0556259 0.32912436 -0.0936282 -0.43538296 -0.15619828 0.36824012 0.018904246 0.048064627 -0.42498523 -0.20262161 0.14432359 -0.63459796 -0.07820901 -0.36202106 0.36151427 0.058315862 -0.08916563 -0.15527873 -0.14569645 0.136571 1.2175273 -0.34400174 -0.023926947 0.118928105 0.022311328 0.29358202 0.19925374 0.089632586
如 0.19222029 -0.26015332 -0.55469096 0.772227 0.05599181 -0.107419826 -0.050858766 -0.31707898 0.40869367 0.2531554 -0.11004025 -0.20984717 0.22423416 0.29679406 -0.64316624 0.0054164743 0.3216854 0.10048211 0.36087593 -0.09090181 -0.012048155 -0.32285684 -0.42502654 -0.14745286 -0.20641059 0.57143384 0.23971075 0.068049185 0.0693013 0.1028695 -0.27931562 0.39789927 -0.0076482235 1.2165064 -0.23256499 0.06149977 -0.5746824 -0.1082671 -0.050867777 0.039892446 -0.2519694 0.14292331 -0.52084124 -0.2488985 0.3592794 -0.035837296 0.47421554 -0.06281727 -0.23694563 0.093710236 0.18466245 -0.4170207 0.0338245 -0.25500107 -0.013208056 -0.21376236 -0.07474117 0.13596585 -0.25053304 -0.49563414 -0.110942386 -0.023514327 0.4185322 -0.2432613 -0.18253265 0.38581485 0.08822107 -0.276295 -0.43703565 -0.109834746 -0.16602844 0.041554686 -0.2168957 -0.084697135 -0.07353123 0.34797972 -0.16434902 -0.004316705 0.24646401 0.009223082 -0.18156664 -0.060659204 0.109081306 0.34709287 -0.17162237 -0.36264253 0.0051877825 0.12513885 -0.07811277 -0.07136693 0.2511979 -0.0036875282 0.29827902 -0.2584033 0.07144414 -0.016648907 0.010907442 -0.030292684 0.043838155 0.32460973
与 0.041606624 0.048795927 -0.69179654 -0.0383699 -0.035195656 0.034377072 0.12725775 -0.5120568 0.13679734 0.20506199 -0.32626125 -0.031975187 0.2348925 0.29176074 0.09930222 0.6279584 0.004049676 0.07638955 0.23586734 -0.2449332 -0.06682333 -0.028103784 -0.22720177 0.00028244988 0.032549936 0.20485465 -0.119571164 0.23238912 -0.37169597 -0.006718773 0.32826805 0.036089607 -0.15662841 -0.10746993 0.23302507 0.34145677 0.65514755 -0.50118333 -0.27481642 0.16612436 0.08610423 0.007193516 -0.5619937 -0.112662725 -0.6002472 0.69023365 0.4073106 -0.012395559 0.01752366 0.29901996 0.14855093 0.2071553 0.13472316 0.25786945 -0.18696894 0.09601409 -0.22858196 0.3180414 -0.21568806 -0.077387735 -0.0045684213 0.056778576 0.2641837 -0.18021712 0.16386871 -0.2710493 -0.03609305 -1.025639 0.34992802 0.029380452 0.0075085345 -0.141325 0.103162706 -0.22603282 -0.1573683 -0.09656406 -0.120138034 -0.09932464 -0.0289506 -0.33946794 -0.10540909 -0.19351867 -0.066285454 -0.009410975 -0.1397069 -0.15673667 -0.16855681 0.59141093 0.2801068 -0.19304761 0.25025368 -0.6444524 0.5449152 0.006261038 0.15568474 0.23291056 -0.29695275 0.06985675 0.09160227 -0.101381466
； -0.41965917 0.2064286 0.12359531 -0.26779947 -0.16365388 -0.22412428 0.011078048 0.6586295 -0.5598342 0.09441682 -0.26408038 0.33378398 -0.11234009 0.19072226 -0.48935333 0.9527138 0.027187616 -0.27285212 0.21433952 -0.085235536 0.70419604 -0.13287915 -0.45224088 0.047741443 0.53133106 0.63211316 -0.060953148 -0.10910739 0.16155498 0.06654806 0.09147309 -0.4627693 0.011153986 0.34094083 0.017438246 0.009746274 -0.020285688 -0.010500956 -0.31127867 0.0068365643 -0.020539157 0.09953191 0.44005382 -0.16112927 -0.33746743 0.26567584 -0.19140907 0.33742237 -0.09127203 0.28304887 -0.035349995 -0.93520194 0.14230357 -0.27033818 0.46690983 0.06801833 -0.18838511 0.2860962 -0.18839742 -0.45612627 0.039833058 0.61817706 0.4693577 -0.36340204 -0.250861 0.9940957 -0.0071561113 -0.27502307 0.14826204 -0.022758145 -0.44364914 0.24743208 0.09102172 -0.25912187 -0.07614073 -0.25918958 -0.4376869 0.40079284 0.093675 -0.14390285 0.12707248 -0.1688551 -0.030576522 -0.021920184 0.01253381 -0.047863077 -0.5303552 0.16599771 -0.25549078 -0.02771677 -0.10667167 -0.26025197 -0.8800908 -0.30201256 -0.17872646 0.032864846 -0.19376941 0.36765748 -0.14242838 -0.13332014
言 0.3831882 0.05209363 -0.17613359 0.5162945 -0.182111 0.02793891 0.0841102 -0.4677631 -0.77006775 0.44384098 -0.10548731 -0.522128 0.14379305 -0.2274546 0.027067645 -0.34978595 -0.09143058 0.101838775 -0.042721074 -0.03434328 -0.2610976 0.07427677 -0.052865043 -0.065940425 0.14180055 -0.32135016 0.39442667 0.3103153 0.74855113 0.3122637 -0.060304437 0.06437217 -0.2236721 -0.007927151 0.16528997 0.07802531 0.42008492 -0.17190534 -0.0955273 -0.4256171 0.14706458 -0.059291184 0.019061 -0.040468387 -0.16568887 0.4814239 0.17182143 -0.11554484 -0.4453286 0.15134561 0.05117659 0.109961964 -0.07154196 -0.37682655 0.090856776 -0.042976093 -0.14936051 -0.09417758 -0.19663137 0.04569266 0.06734966 -0.31740087 0.1534326 -0.11194299 -0.23715 0.7466904 -0.085730694 -0.66896385 -0.35848227 0.0851348 -0.033398487 0.21930227 -0.06761983 -0.28090194 0.5399061 -0.009927048 0.12294099 -0.41580567 -0.111341335 0.5495295 0.055804044 0.14478613 -0.18427719 0.43555224 -0.6409952 0.12916799 0.04839271 -0.23586294 -0.16666427 0.06791293 -0.17041141 0.1233051 0.49710795 -0.17775793 -0.038283635 0.3546915 0.06551841 0.53276825 0.4423573 0.14277871
无 -0.159576 -0.17462318 -0.28268462 0.18196525 -0.03141143 -0.05899581 0.06812328 0.06319929 -0.5078693 -0.18824069 0.03314074 0.11116913 -0.41588143 -0.21312572 0.18679735 1.1889694 0.13776502 0.37595925 -0.16604972 -0.52319974 -0.14988121 0.2660059 0.43679827 -0.15863082 -0.25869447 0.076270655 0.08469924 0.10801089 0.16927022 0.34694082 -0.30351028 -0.13684417 0.16410206 -0.046362683 0.035225775 0.2700024 0.58627295 0.19040225 -0.058926873 -0.001373248 -0.10012512 0.480071 -0.17042719 0.119024046 0.30544022 0.5706948 0.22059374 0.10671739 0.028163563 0.2917921 0.063567124 0.90743965 0.08712325 -0.052298624 -0.31727478 0.1355373 0.15329668 0.35606185 -0.025767514 -0.79954755 -0.5460818 -0.04317136 -0.3334459 0.30071235 -0.1803211 -0.5152629 -0.13523252 -0.89746827 -0.31315103 0.107591 0.32539853 0.13950208 0.14279078 0.10908893 -0.25941026 -0.601537 0.03478038 0.25906074 -0.25735041 -0.26956505 0.05575945 -0.09321743 0.5277617 -0.1408613 0.06990093 -0.24654886 0.26996258 -0.34763137 -0.036348302 0.35885763 -0.28979236 0.17069389 -0.1462142 0.45231017 -0.20315248 0.08627502 -0.2732411 0.50166845 0.008662637 0.11547252
则 -0.117259614 -0.08247943 -0.65471876 -0.2848283 0.3368783 0.2972077 0.6210021 -0.101718664 0.5070291 0.417123 0.039098937 0.676748 -0.40569004 -0.28719312 0.32404727 0.924888 0.20691872 0.073199436 -0.3319238 -0.28311157 -0.68021727 -0.2892156 -0.35787174 -0.14317125 0.043633558 -0.17399773 -0.049688008 -0.023531368 0.032837216 -0.3340634 0.6391909 -0.031473324 0.3022611 -0.15447882 0.7173356 0.2639665 -0.2085707 -0.15551542 -0.01875267 0.14624614 -0.26755485 0.106601305 0.45478314 0.051208273 0.20062141 -0.10290432 0.07212167 0.09995438 -0.07166948 0.03902296 0.37265158 0.20418386 -0.24555042 0.11213049 -0.36623728 -0.027029809 0.0055360044 0.51006573 -0.5913245 -0.71111155 0.10562104 0.12483822 0.05399607 0.29463503 0.028303951 0.6947298 0.3662965 -0.43800056 -0.06395523 0.14854439 0.03654633 0.41650918 0.0040263818 0.47316515 0.04538169 -0.34080657 -0.23418589 0.089539655 -0.09568083 0.47832656 0.06272057 -0.46053874 0.22804646 0.21296173 -0.93397766 0.09787719 -0.75830305 0.21294424 -0.58075905 0.28566653 -0.8750764 0.12814946 0.13301466 -0.31625527 -0.21774977 0.16552201 0.01134494 0.089026384 0.11798649 0.11328493
！ -0.18663937 -0.46670154 0.11563145 0.25667435 0.2389592 -0.013457915 0.050935663 0.36878633 -0.036504008 0.2908699 -0.31063345 -0.3185125 -0.017095935 -0.11794533 -0.36602053 0.22434904 -0.050669342 0.16467011 0.31309137 0.116601795 0.018125862 0.59785163 0.40466884 -0.17703825 -0.049332794 0.22432736 -0.0882511 0.121202454 0.08744035 0.43184847 0.6206669 -0.2937589 0.042562507 -0.23165593 -0.0010454522 0.12522343 -0.33166203 0.08716083 0.0032740613 0.13920653 -0.047884244 0.04005953 -0.5833013 -0.06394801 0.07943135 0.33037752 -0.27326763 -0.2873579 -0.38491622 0.1746239 0.12883359 -0.91674304 -0.110225156 0.025052156 0.42315006 -0.048350193 -0.047692686 0.095576175 -0.052066118 0.22281113 -0.052068297 0.6749239 0.056030985 0.2881628 0.16570899 0.7697852 -0.16899969 0.6249041 0.2659044 0.10710993 0.057229936 -0.06096133 0.04738731 -0.2534941 -0.12585129 -0.4893924 -0.06984823 -0.044841856 0.32622468 -0.50549805 0.16859892 0.4124149 0.24196161 0.08441706 0.11024266 0.026894357 0.4778443 0.23183642 0.16771689 -0.12710503 -0.05527703 -0.5046863 0.39722338 -0.21400933 -0.08319933 0.16307138 -0.4511027 0.5470061 -0.38807392 0.5842206
问 0.23237285 -0.29333767 -0.17852288 0.7810212 0.17082845 0.1114547 -0.47670677 -0.33381143 -0.35966823 0.116200216 0.13355033 -0.019501979 -0.06037388 -0.3917523 -0.089222275 -0.011664006 0.35906476 0.6476771 0.17118618 -0.39115897 0.46095636 -0.36043048 0.02779409 -0.12885262 0.21078172 -0.09065649 -0.43941015 -0.40015465 -0.42997298 -0.13309646 0.09670828 0.6257334 0.05461484 0.20634477 -0.35023654 -0.038684126 -0.13633117 0.28349453 0.63547075 -0.13376349 0.34321806 0.14577192 0.5673797 0.07765992 -0.25653446 -0.15438904 0.01011415 0.25845632 0.2798813 -0.12017473 -0.124593355 0.17170279 -0.004867832 0.2233742 0.45961916 -0.19694443 0.1719897 0.028095106 -0.32514358 -0.7093054 -0.33414644 -0.03471 0.040207338 0.1801373 0.34463474 0.13301174 -0.09560816 0.5954234 -0.40983415 0.19295701 0.21662164 0.20246743 0.052380953 -0.32123154 0.10516114 -0.30823007 0.33443892 -0.06715144 0.09574063 -0.39436457 0.10521925 -0.093095325 -0.31606567 0.18004777 0.22546688 -0.077905566 0.23044857 -0.07360813 -0.24045597 -0.18319911 -0.61163545 -1.2964716 0.42670935 -0.362659 0.29377058 0.13088012 0.23262626 -0.104909524 -0.25139436 -0.1422385
知 -0.20617557 -0.046968255 -0.32801178 0.27149424 0.11047895 -0.09509008 -0.17633547 -0.05580784 0.3907459 0.564869 -0.43427613 -0.38080892 0.0792355 0.13602962 0.36782628 0.098790795 0.08379789 0.17593604 0.3555439 0.14772242 0.28877327 0.14780505 -0.075478956 -0.18567768 0.09348707 0.5264712 -0.017180061 0.20537724 0.17634182 0.27726027 0.74680537 -0.08093183 0.21467121 -0.44198206 -0.34082538 0.20984942 0.046633486 0.10390117 -0.6778294 0.0908858 0.27733496 -0.08432431 -0.3349324 0.086481616 -0.5026104 -0.08651802 -0.17021431 0.16236822 -0.53158545 -0.076861255 0.087167464 0.09539483 -0.1699578 -0.038138896 0.09445359 -0.07067539 -0.101127736 0.27399746 -0.071528815 0.11898652 -0.06786156 -0.550867 -0.084035136 -0.21258433 0.1593875 0.4081201 0.21286796 -0.36742288 -0.023124442 0.3372142 0.2402418 -0.25848907 0.37553287 0.06926506 0.23077266 0.1235274 0.2643403 0.24614733 0.2766869 -0.27158293 0.3731923 -0.5543742 0.18891647 -0.4602643 0.38756153 -0.029905379 -0.17312053 -0.35296422 0.2571048 0.09358054 -0.30213273 -0.018508926 0.4522788 -0.5629965 0.014874813 0.48086098 -0.22434607 -0.3657846 0.094709106 0.594504
何 -0.061744697 0.09021254 -0.6939103 0.40750545 -0.059784535 -0.14045635 0.49529558 -0.343627 0.36363542 -0.0043545514 0.15407357 0.05080736 0.01132863 -0.32300308 -0.066057436 0.0907379 -0.20507619 0.21419866 -0.13121744 0.02834584 -0.034329012 0.65731806 0.1096529 -0.10791005 0.064835116 0.2853344 0.47095045 -0.0770862 -0.10334758 0.5183343 0.16578832 -0.004168866 0.053010914 -0.35344538 0.079548314 -0.06678223 0.11023617 -0.32613033 0.22187933 -0.31173503 -0.19791833 -0.14376546 -0.5678025 -0.05313322 -0.4405479 -0.03392246 -0.19805604 -0.17150684 -0.067884415 -0.50344896 0.18928133 0.22985154 0.23597443 -0.08777106 -0.21569061 0.43106917 -0.48918712 -0.40990087 -0.41810942 -0.6762661 -0.032189272 -0.011624492 0.09000917 -0.23103848 0.0023678944 0.23801343 -0.26914063 -0.064471245 -0.03983237 0.32348663 0.2684955 -0.043776404 -0.061637774 0.11873586 0.12057966 -0.3244138 0.24388085 -0.02238977 0.18801612 0.38345778 -0.120445736 0.5429834 -0.031532176 0.37948942 0.17050298 0.12909159 -0.21861775 0.6692257 0.13188973 0.6025768 0.1257679 0.3195976 0.3660537 -0.29353958 -0.21580124 -0.11922358 -0.18086654 0.27774256 0.13535923 -0.1441849
吾 0.02283278 0.24203332 -0.7196022 0.13726056 0.43859503 0.27878395 -0.15581661 -0.41795236 0.27757996 -0.15436882 0.30473617 0.0048531257 0.04212016 -0.25491634 0.6600036 0.4881898 -0.07067277 0.07610517 -0.16758163 0.17017874 0.3058136 0.30037153 -0.19648059 -0.12697124 0.2229841 -0.117715515 -0.21100204 -0.07653079 0.91927123 0.46360675 -0.15547746 0.16453366 0.051303238 0.5006962 0.09506695 0.15511335 0.49518412 0.0015683561 0.30284616 0.31702584 -0.13776122 -0.36253485 -0.13573022 -0.06599801 -0.00085875904 -0.5544154 -0.48835745 -0.6404382 -0.088113934 0.16866784 0.13839002 0.082980335 -0.29291686 0.33336568 -0.158327 -0.24859008 0.5629303 -0.4935322 0.34521684 -0.3597562 0.541581 -0.42640164 0.92677367 -0.21447134 -0.17325976 0.20298581 0.27093878 -0.039303474 -0.04032278 0.40662596 0.34080592 0.088023245 0.5184316 -0.13533746 0.09753703 -0.16048653 -0.26682696 0.08156233 -0.014135218 -0.5559922 -0.21258637 -0.36410597 0.10683598 -0.13806152 0.080767535 0.018819403 -0.15617554 0.097461194 -0.19440433 -0.5486345 -0.38112852 0.3413336 0.54866815 0.09052037 -0.12161564 -0.31414938 0.1877455 0.28732648 0.0047611822 -0.07642234
仁 -0.0520987 0.1918131 -0.08873508 0.5328447 0.05968823 0.1640142 0.012446111 -0.42331526 -0.36930215 0.07398147 0.043042235 -0.20502883 -0.15850493 0.24724343 -0.37333217 0.08746362 0.18979679 0.06764459 -0.45057526 -0.044184137 0.12744702 -0.12689874 -0.8186582 -0.22838326 -0.1316648 -0.27492064 -0.24457571 0.022412725 0.7169352 0.25918764 -0.05732723 0.1325824 -0.30983856 -0.16222373 0.18570589 0.037349243 0.052162133 -0.5370541 -0.2796826 -0.07383892 -0.023279734 -0.04118651 -0.74244684 -0.14485726 0.03306207 -0.6229918 -0.064767204 -0.33369341 0.47737172 -0.12493804 0.21958023 -0.23454463 -0.09594293 0.34455007 0.58191 -0.09878279 -0.13120036 -0.31162372 -0.065705575 0.72752124 0.30947375 -0.14695343 -0.27997944 -0.14204437 0.1413295 -0.16150431 -0.2610798 -0.38203913 -0.23432755 -0.06705551 0.34685603 -0.058375563 0.058599062 -0.17414631 -0.09262188 0.12390226 -0.19151123 0.31569344 -0.14798811 -0.28450644 0.016936995 0.16891769 0.2417888 -0.21959718 0.41254446 0.18826671 0.028253458 -0.21206985 0.2441789 -0.18910588 -0.0442265 -0.21851741 0.66941935 -0.41853252 -0.049204636 0.20287655 -0.25267443 -0.45586124 0.08515547 -0.24451679
夫 0.019813506 0.3095108 -0.5158699 0.34287944 0.44691667 0.13642709 -0.32415247 -0.49362978 -0.33555064 -0.4022633 0.15406114 0.56689125 -0.048991147 0.16490763 -0.21560565 0.09319868 -0.012601704 -0.058838923 -0.2414597 0.17720889 0.17274071 0.16666241 0.40993637 -0.23392406 -0.08277866 -0.10551562 -0.38774177 -0.09877398 0.23066224 -0.102680594 -0.1531953 0.14793532 -0.49471897 -0.29110166 0.055127077 -0.20287225 -0.20647144 0.22628753 -0.06029155 0.25682253 0.03365309 -0.0981088 -0.023035256 0.15697314 -0.41082776 0.17126614 -0.17824021 -0.07439477 0.021681413 0.36223564 -0.10482517 -0.69647855 0.061111905 0.06942728 -0.017330498 0.20324494 -0.06504961 0.076669455 -0.23093246 -1.2093794 0.81828654 0.5901036 0.28438067 -0.037969053 0.27940312 -0.31844667 -0.012821668 0.29772267 -0.7444012 -0.2737924 -0.23672841 0.22057317 -0.06178632 0.37025324 0.115047514 0.090674914 -0.2825817 0.102785975 -0.42166212 0.1620941 0.34612837 -0.32967433 0.32464042 0.11652813 -0.21480756 0.22564906 -0.08314009 -0.18318868 0.20542203 -0.5697629 0.30595645 0.08729183 0.131852 0.3310078 -0.273075 0.09894578 0.47198153 -0.53291625 0.19533725 0.15650764
、 0.09024058 0.5508995 -0.07642403 0.064218655 -0.05219306 -0.18978816 0.1599679 1.6700708 0.37305525 -0.66870505 -1.1993778 0.042545393 -0.3127932 -0.65894115 0.04645722 0.75244516 -0.16520229 0.122807935 0.12233481 -0.17541757 -0.21583568 0.06653939 0.3092699 0.08146189 -0.054186285 0.07211732 0.20769314 -0.20420359 0.95168275 -0.06511942 -0.3149016 0.083090454 -0.25114632 0.010035993 0.6027896 -0.06511949 0.21149026 -0.9790232 0.21463281 -0.14765054 0.0739497 -0.025928868 0.102819294 -0.13846797 0.090044536 -0.1648768 0.0695483 -0.25007913 0.06728286 -0.37859765 -0.068555936 0.20244397 -0.088744305 -0.16668062 0.41759384 0.017547231 0.20677921 0.3755895 -0.16099791 -0.28349817 -0.42237028 1.2624837 0.12409175 -0.18768571 -0.20750661 0.67013526 -0.6445636 -0.07908474 -0.0042173914 -0.6348985 0.34104264 -0.0841709 -0.1620277 -0.7182611 -0.36390832 0.58598596 0.3604197 -0.15968215 0.011608619 0.043468833 -0.16425976 0.155454 -0.09755683 -0.40275472 -0.51147944 0.078301564 -0.36889118 -0.13132535 0.19085513 0.15332833 -0.36897624 -0.3337081 0.35933027 0.03404566 -0.49908388 0.62343985 -0.011110848 -0.23901269 -0.026819494 -0.25343692
道 0.33029976 0.2350198 -0.5191051 -0.10971318 -0.37794024 0.24766512 -0.13136865 0.09874864 -0.1684216 0.6270803 -0.23854385 -0.52978754 -0.01687565 -0.26041612 -0.29039165 -0.092134096 -0.027571507 0.07519871 -0.41786543 -0.06820606 0.5072481 0.3242165 -0.19380856 -0.06609277 0.15220128 0.12995537 -0.21241304 -0.023707232 0.6725772 -0.45626983 -0.108938605 0.18925275 0.32009003 -0.37534636 0.3683411 0.04880269 0.094498664 -0.20602532 -0.347127 0.41405764 0.012778856 0.29821476 -0.10917103 0.17773172 -0.2818424 -0.09192061 -0.094975635 0.1353302 0.09952109 0.34946623 0.34002197 -0.017955737 -0.14783607 0.35919568 0.2902033 0.12600423 0.25264555 -0.506809 -0.12751313 -0.20626424 -0.17167608 -0.6463242 -0.39469177 -0.671923 -0.32416242 0.74083173 -0.20650287 -0.67079264 0.055696227 -0.25574982 -0.2264567 0.19719805 0.12482904 -0.07786725 0.3734674 0.32554036 -0.07234554 -0.16060007 0.22813639 -0.11669121 -0.63237053 0.116834395 0.13229923 -0.14005914 0.2027104 0.1061409 0.1933908 0.07653049 -0.021510655 0.07799598 0.22751789 0.40802893 0.5840814 -0.6779036 -0.8164843 0.054847453 0.24081667 0.22868064 -0.09739207 -0.5514726
焉 -0.6051169 -0.270357 0.33685958 -0.06035558 -0.37234923 -0.29535636 0.09920839 -0.36244678 0.08767361 -0.015364999 -0.06335425 -0.12280475 0.35315236 1.0038937 -0.25708392 0.10415291 0.066215694 0.8895086 0.24610373 -0.3498551 -0.16251805 -0.12355689 -0.72426146 0.42807224 0.2172691 0.0049329 0.13771404 0.07479175 0.53899956 0.3604624 -0.11478941 -0.43434244 0.23784198 -0.005259278 0.17422946 0.05814114 0.020584125 0.073706485 -0.23144704 -0.12807576 -0.36555564 0.09108761 -1.088114 0.0681832 0.029996553 0.18917751 -0.34539494 -0.041073754 0.2206492 -0.45471597 -0.3591338 0.29219785 -0.3417478 -0.26435867 -0.30451438 -0.1543861 -0.22494172 0.29851133 0.043955542 -0.75287277 -0.30735955 0.18488838 0.49219066 0.47379076 0.14882189 -0.13587873 -0.078100786 -0.14325503 -0.40851507 -0.4848827 -0.22338289 0.07659642 -0.3682711 0.3170175 -0.16539459 0.12578878 -0.3391663 -0.18917622 0.08188169 0.07435003 0.39032626 -0.47574434 -0.09918443 0.24271545 0.15298043 -0.06742068 0.51460236 -0.14016637 -0.12900054 -0.3892082 -0.29573172 -0.03240111 0.94966704 -0.465678 -0.072150715 -0.3558594 -0.58827543 -0.16216376 0.15408851 -1.0211232
行 0.1829397 0.23006825 0.35573363 0.36533037 -0.40586737 0.39603332 -0.03869895 0.14519507 -0.07350426 0.0015250004 -0.015702961 0.30874053 0.17031159 -0.36541748 0.07643392 -0.18775558 0.6667616 -0.10381724 -0.10500167 0.012578854 0.22819237 0.34794414 -0.52250206 -0.08693684 0.42971805 0.359825 -0.06817725 -0.35238254 0.49169686 0.55083543 0.3288826 -0.27724093 0.27830943 0.117595166 -0.31965438 0.26932618 -0.06492939 0.17011456 -0.22039072 -0.032020364 -0.3342354 0.04943431 -0.27561498 0.14331159 -1.0421195 0.5606461 -0.3088252 0.039050605 0.33080718 -0.14785017 -0.046562918 -0.3483498 -0.046502683 -0.13453813 0.05136363 -0.05471883 0.022069022 0.083483875 -0.89840055 0.029989852 0.13889995 -0.08536711 -0.16413823 0.15233393 -0.2557383 0.37665942 -0.10413528 -0.2862148 -0.10279119 0.22538042 -0.18836586 0.081663854 0.059999358 0.02707058 -0.16610113 -0.13286649 -0.14397508 -0.31901196 -0.22692513 0.6095257 -0.41837862 -0.12905858 0.27026752 -0.05984176 0.42812595 -0.24811134 0.59126186 -0.46322474 0.23467904 0.11346035 0.130664 0.115019456 0.6089469 -0.626288 -0.21742997 -0.02627416 0.56367135 0.3189796 -0.6321183 -0.06562333
谓 -0.30662996 0.29672408 -0.908751 1.2759593 0.059132226 0.17740673 -0.3706581 -0.5627819 0.64152324 -0.38875932 0.589625 0.25815123 0.023522926 -0.022074915 0.17981155 0.21420339 -0.52389455 0.1346839 -0.05780869 -0.24627006 -0.44524434 0.39885795 0.15998647 -0.0388987 -0.17940259 0.16992073 0.26042992 0.16468419 0.43359995 0.22566143 0.26979783 -0.6201873 0.31442457 -0.15014666 0.036948815 -0.096223734 -0.57697695 -0.49104974 0.069208734 0.046302672 -0.27146414 0.21396782 0.20206632 0.07320311 -0.56308055 0.7811022 0.6993933 -0.30388355 -0.32167834 -0.12637971 -0.4848974 -0.13984945 0.07365402 0.28330722 0.5325705 0.32616925 -0.091001056 0.29748005 0.11988189 -0.5802157 0.075015396 0.3293904 0.14416331 -0.24754618 0.23519 0.6143795 -0.74310607 0.0377241 -0.009633973 0.2679631 -0.18890981 -0.11645351 -0.42680553 0.16573583 0.7492253 -0.30920628 0.5385933 -0.22137173 -0.9115785 -0.48462072 -0.072469406 0.21197101 -0.45869285 0.2477785 0.22368048 0.07858886 0.013154599 0.25283855 -0.34488052 -0.066148475 0.21227877 -0.23343152 0.50902903 0.23393142 0.012159675 0.023377866 0.18554765 -0.8882042 0.3180332 0.43606418
必 0.17794648 -0.27471015 -0.24865349 0.8434073 -0.2083388 -0.02634079 0.45644552 0.16091613 0.18034662 -0.006346846 -0.20513888 0.5342319 -0.060267612 0.13723665 -0.38069192 0.10542794 0.290447 0.39676708 -0.4956276 -0.34901083 0.06545513 -0.36661595 -0.19372442 -0.1463714 0.1693482 0.33358997 0.18584602 0.15046899 1.0494425 -0.5936938 0.6765149 -0.28484333 0.76447785 -0.062356308 -0.48214296 -0.30692357 -0.22820786 -0.015753772 0.054051932 -0.4708671 0.89323974 0.22478077 -0.18898405 0.3778307 -0.14852722 -0.62537503 0.5165482 0.38877878 -0.2322473 -0.19036314 0.41821164 0.1541264 0.20354865 0.08192719 -0.13298725 0.2894031 -0.2547823 0.121693045 -0.25893214 -0.61768126 0.05970601 0.07748798 -0.35687622 -0.30527413 0.3424271 0.41944 -0.112158485 0.0040811775 0.010788798 -0.24843219 -0.4674347 0.4609898 -0.45901427 -0.32295978 -0.4643264 0.22462007 -0.18474971 -0.016220532 -0.34749547 0.11786729 0.009906156 0.038964286 0.22336318 0.0050968714 -0.12749293 -0.30368 -0.4614784 -0.04630378 -0.43005332 0.39584988 0.31614903 -0.6230329 -0.50162256 0.74314153 -0.15349194 0.28506196 0.3799128 0.3509635 0.38080728 0.15893333
礼 0.50140524 -0.11240515 -0.40429005 0.77660775 0.5194969 0.0486056 -0.32561412 0.2574486 -0.094484515 -0.41055337 -0.31980637 -0.42649195 -0.6117316 -0.35727763 -0.13463262 0.30316406 -0.09722383 0.059789635 0.17081045 0.21338971 0.8587868 -0.1656298 0.29673746 0.09299373 0.19910035 -0.42697316 0.023345111 -0.10296235 0.60524184 0.054583445 -0.44666594 0.24497123 0.34534293 0.09996031 0.042723797 0.24708441 -0.22346255 0.049239866 -0.19423062 -0.41831186 0.17471226 0.036786836 -0.37420812 -0.02616679 0.12107141 -0.30629453 -0.11508584 -0.24445553 -0.043598123 0.27098557 0.56140536 -0.12695561 -0.29948246 0.08121853 -0.3656879 -0.17796136 -0.33885133 -0.59019196 -0.53178823 -0.41025534 -0.1623181 0.2742236 0.35899404 -0.17086947 -0.33429042 0.04371728 0.05960627 -0.39198834 -0.3282065 -0.10477793 0.14938767 -0.06262427 -0.1706735 0.21787357 1.032649 0.3759441 -0.28836873 -0.10757324 -0.17986172 -0.27154702 -0.52194566 -0.027109135 0.5347275 -0.39959067 0.06794521 0.2952054 0.19536006 0.5632553 -0.24298713 0.17283331 -0.15192984 0.49229753 0.27181658 -0.0037606952 0.55870557 -0.052665588 -0.13164304 0.18951671 0.14890705 -0.27892742
孔 -0.60888964 0.17866486 -0.266689 0.65823585 0.34693366 -0.05848856 -0.42050016 -1.0109133 -0.28805768 -0.2544198 -0.04312998 0.08364577 0.36965546 0.07281861 0.32742697 -0.4196747 0.037335653 0.5447522 -0.5076892 0.14695092 -0.28368813 0.37702432 -0.1239709 -0.2794463 -0.06339181 -0.07695435 0.15023851 0.46042812 -0.06266903 -0.10304367 -0.041698985 -0.3414232 -0.097541824 0.044181418 0.58996534 -0.08467179 0.6156649 0.09590569 -0.20372681 -0.03302462 -0.06505799 0.2050792 -0.40982595 0.18758681 -0.5835454 0.54480207 0.67982626 -0.007598996 0.06700975 -0.43784124 0.06637526 0.19364662 0.37312317 0.40992787 0.34057197 -0.18968505 0.3772914 -1.4053236 0.07061239 -1.2561312 0.13895395 1.0234873 0.1408184 0.1909559 0.008701064 -0.033526003 -0.50319576 0.100498036 0.094935715 -0.030106684 0.0604803 -0.17298098 -0.24507426 -0.1352351 -0.29069835 0.025573075 -0.3746426 -0.23050675 -0.16096221 0.076045305 0.06315959 -0.6981316 -0.032725066 0.096453756 -1.038084 0.06402393 0.35193104 -0.05691119 -0.009451668 -0.060830314 0.07074309 -0.94652975 1.8535542 -0.18354928 -0.24286205 -0.20562148 -0.32829064 -0.16691901 0.30063227 0.22416517
斯 -0.18943593 -0.03957955 -0.24484515 -0.1139811 0.048878625 0.34943345 -0.33283976 -0.42540887 -0.016732488 -0.16641083 0.06300823 0.4252942 0.46287218 -0.16551527 -0.5890058 -0.006249592 0.24328604 -0.109185345 0.17594838 -0.46062845 0.14729267 -0.3372094 -0.28221536 -0.065888606 0.08390886 0.23864412 -0.32595295 0.519992 0.23567973 0.01913254 0.79545367 -0.47358778 -0.06552224 -0.24925376 0.48400733 0.14532828 -0.124405555 0.801151 -0.1855593 -0.3415919 -0.16675174 -0.3204432 -0.26993558 -0.38947093 0.0037887192 -0.5429129 -0.028333608 -0.075354174 -0.0015716612 0.13641931 0.07700454 0.43270096 0.12558448 0.15078226 -0.27691963 -0.08872879 -0.2433096 -0.42681855 -0.48555404 0.44625792 0.54616165 0.53027284 -0.15856224 0.19405241 0.19638743 0.32450938 -0.13880819 -0.38844895 -0.17431174 -0.42962417 0.35180002 0.2968128 -0.25443983 -0.021124903 -0.09383728 -0.20961705 -0.13866404 0.36413804 -0.22865386 0.35022599 0.063712426 0.09837378 0.6921235 -0.1035348 -0.19428237 0.45086655 0.0014272624 -0.23001225 0.2393002 0.45309237 0.13412514 -0.7194736 -0.055315573 -0.15758161 -0.088717744 0.4340148 0.523696 -0.59572667 -0.17043234 -0.13636582
三 -0.38139093 0.07060214 -0.06947485 0.51735246 -0.958161 0.1828257 -0.15764266 0.76692295 -0.29543886 0.13866897 -0.6908997 0.019268282 0.048396103 0.18022014 -0.19050367 1.0289965 0.29018807 -0.39679602 -0.26421285 0.045456663 -0.33144253 0.08514822 0.3385733 0.04302513 0.03411225 0.061528556 -0.6243622 0.36126846 0.21162757 0.048619993 0.19729674 -0.2966191 0.10111465 -0.1830179 -0.22939578 -0.46210936 -0.18020648 0.5698862 -0.38960698 0.23062125 0.091969915 -0.095096126 0.14272033 -0.25638777 0.01814576 -0.7210679 0.12909855 -0.18883638 -0.44807065 -0.08605174 -0.46583974 -0.0063912165 -0.37772188 0.027732426 -0.054067317 0.22628196 -0.30484968 -1.0068694 -0.44141626 -1.0942338 0.31576118 -0.46651784 -0.33659706 -0.00744347 0.19413865 -0.088490926 0.25673607 0.12619677 -0.03237606 -0.09358579 0.46724018 -0.053148124 0.25525853 0.6532441 0.09016425 0.020738661 0.051764503 -0.84013337 0.06759506 -0.08273031 -0.7635029 -0.030251298 0.03590548 0.6471106 0.09095768 0.42657152 -0.34264815 0.3144225 0.16481416 -0.26964074 0.13511501 -0.3226585 0.7317568 1.1035678 -0.431973 -0.43695456 0.121011026 -0.3398055 0.19927785 -0.09727592
能 0.25426468 0.013145814 -0.14244705 -0.09219021 0.0639166 -0.45138267 0.11017551 -0.23448303 0.489778 0.2524486 -0.23699087 -0.26872474 0.3037227 0.2840535 0.71875954 0.107548386 0.115877196 0.6021252 -0.01977968 -0.017228428 0.28325135 -0.035472415 -0.15093982 -0.2196056 0.2718109 0.63366175 -0.6784896 0.16249001 0.40821028 -0.61276144 0.21677415 0.23239829 0.51479185 0.053065225 -0.23592165 0.18166105 0.09696232 -0.25730217 -0.46873116 -0.02830878 0.9168606 0.0006548206 0.43067324 0.29644305 0.63473266 0.07542722 -0.6921289 0.29554233 -0.77935994 0.104132816 -0.1726363 -0.67536247 -0.22960567 0.12482866 -0.13977715 0.4716509 0.08736152 -0.90157133 -0.29332295 0.3338168 0.054079186 -0.3076886 -0.009026143 0.49189025 0.20738788 0.61216176 0.43138897 -0.32199118 -0.07200766 0.32873228 -0.25572205 0.15872894 -0.62217486 -0.6106568 -0.10202152 -0.34213397 -0.42807326 -0.09516434 -0.08540614 -0.016323125 0.18413904 -0.02739257 -0.5637353 -0.28383204 -0.06844785 -0.68465215 -0.118554376 -0.32448584 -0.4342452 0.24019189 -0.27439395 0.24647054 0.02359933 0.057119668 0.1529636 0.084585704 0.13248785 -0.26833418 0.19402052 -0.58094853
见 0.110240266 0.03493963 0.08148442 0.10203719 0.2497511 -0.18904315 -0.14218158 0.29483253 -0.4019947 -0.07172724 0.021352973 -0.26492482 -0.12972325 0.67588043 0.092221536 0.17446159 -0.12968637 -0.03222882 -0.47363555 -0.16619238 -0.24949098 0.07642114 -0.14619558 0.16402511 -0.22607063 0.31614637 -0.011388656 0.22525042 0.38395125 0.3658627 -0.13397013 0.041883595 0.2100049 0.2679056 0.038922183 -0.21539515 -0.16844438 -0.4001281 0.2686462 -0.20595166 0.36533877 -0.010221725 0.40982226 0.05379409 -0.68002915 -0.04244286 -0.15707104 -0.4934561 0.08625788 0.12218961 0.021091692 0.1976019 -0.3336295 0.40064067 0.3435996 0.26756454 0.1728996 -0.6308719 -0.77670974 -0.1905885 0.29947257 0.2516697 -0.84302664 -0.5646411 0.08673709 0.14689456 -0.14755175 -0.78672445 -0.64288753 -0.013679641 0.12611769 0.5508554 0.86821955 0.23893873 -0.13612631 0.7900883 -0.38682967 -0.101275556 0.042146295 -0.50646764 0.31707585 0.13688123 0.4238284 0.3665448 0.6492431 -0.11282264 0.26041558 -0.46284136 0.049805693 0.16929592 -0.07470868 0.7100536 -0.116194114 -0.16317956 0.016946862 -0.0008491328 -0.2967945 -0.7221873 0.16379969 -0.35363665
学 0.5847935 -0.598 0.040315088 0.6090864 0.014172211 -0.37768397 0.02143998 0.06488952 0.018719405 -0.3150061 -0.16208564 -0.045636047 -0.13395949 -0.9912253 -0.39061344 0.6777887 0.11111099 -0.14101073 -0.09735362 -0.11207576 -0.15552315 0.36013103 -1.1733817 -0.28420562 -0.21739002 0.20509206 0.040455427 0.15762925 0.037154965 -0.24924411 -0.19951476 0.078130595 0.07655927 0.20464036 0.50533855 0.042059556 0.25690517 0.4860326 -0.33157253 0.24940936 0.34692225 0.35999525 0.43604448 0.27347708 0.00420557 -0.04812109 0.0031094125 0.005269687 0.37997213 0.46317387 0.78433204 -0.019673089 0.32525837 0.028691793 0.36460406 -0.2658721 -0.1925283 -0.68376344 -0.4331776 -0.6426037 0.36874706 -0.42829287 -0.26262933 0.26104987 0.16332355 -0.078134626 -0.29241785 -0.84411883 -0.40156472 0.08084454 -0.19193688 -0.29365525 0.3440631 -0.5613553 -0.4410246 -0.08666045 -0.22256702 -0.2380549 -0.26121485 -0.1470861 0.28693673 0.45642406 0.09151201 -0.43580657 0.3063236 -0.08784802 0.4647664 0.45673868 -0.40472755 -0.13060257 0.5910404 -0.11932322 0.8100908 -0.5732913 -0.36380258 0.32450268 -0.27759847 -0.4214382 -0.5288349 -0.054317787
事 0.39993444 0.4039336 0.25941235 0.001949596 0.5162812 0.10183397 0.4944041 0.12569562 -0.9210122 -0.4967897 0.40133244 -0.19858104 0.122164994 0.33460632 0.26992455 0.34654877 0.017784625 0.040741798 -0.40978533 0.1829799 -0.16959037 0.72547376 -0.29605675 -0.11672785 0.10992979 -0.12242365 -0.012341867 -0.21211475 0.7491878 0.22161938 0.15065709 0.33618385 -0.3492093 0.38181648 0.056014944 -0.30322635 -0.21730526 0.32506484 0.72622436 0.4773218 -0.21293993 -0.26104897 0.08254068 0.07620331 -0.26548082 -0.42433834 0.6081914 0.19502863 0.8829719 0.0445403 0.07886716 -0.42438862 0.31293392 -0.40272844 0.0045897914 -0.042995878 -0.28874323 0.28621635 0.19350818 -0.32349882 -0.28119722 -0.3825513 -0.086595014 0.013854186 0.10907727 0.30982918 0.23653531 0.050300103 -0.83837336 0.07470482 0.025832709 0.30557382 -0.1356583 -0.23265941 -0.31144398 0.6852829 -0.5179282 0.16020069 -0.13485336 -0.48063397 0.68313605 0.04029308 0.03193623 -0.07385175 0.23883179 0.016362222 -0.18789484 0.046014104 0.005126411 -0.4600455 -0.039136052 -0.32650736 0.0597077 -1.0814549 -0.30243224 1.4522717 0.13420442 0.17520587 0.062959515 0.0950796
是 0.09103348 -0.31222793 -0.774379 -0.037213825 0.30240282 0.003420332 -0.18683219 -0.4948421 0.2636616 -0.24410555 -0.5753743 -0.35342184 -0.43748417 -0.46681508 0.25952774 0.3200103 -0.24372147 -0.000762868 -0.09147467 0.18659332 0.65601295 -0.4498155 -0.015390898 0.005212508 -0.049647152 0.99598414 -0.21401232 0.2743972 -0.08463501 0.22412153 -0.015437709 -0.21199088 -0.055746723 -0.64928585 0.09807522 0.0468681 -0.19063853 -0.20662488 0.07622333 -0.15315853 0.13301721 -0.03090027 -0.32795867 -0.17815755 0.2591032 0.22580142 0.7091671 0.34481117 0.41704726 -0.06373676 0.6401536 0.17571318 0.2560489 0.26025045 -0.09631038 0.0053714737 -0.23130384 -0.58714986 -0.27460527 -0.9376515 1.2705442 -0.086145975 0.101664715 0.5040428 0.015339436 0.072185405 -0.3993971 0.6469213 0.026094386 0.21855456 -0.022341538 0.5969044 0.04953828 0.34139907 -0.07728987 -0.30655283 -0.3175452 0.021813916 -0.106312595 0.36802396 0.04941107 -0.15787058 -0.2509585 0.44138175 -0.15608071 0.15046093 -0.24570756 -0.089096494 -0.17830925 0.30844298 0.119912036 -0.5355597 0.051017456 0.61143285 0.663728 0.44821873 0.15923417 0.40703264 0.12901054 -0.7158018
哉 0.009765288 -0.5152643 0.122473486 -0.10254964 0.74045485 0.08306463 0.193087 0.067063645 0.18936439 -0.6115661 0.3763315 0.020078713 -0.15721534 -0.75127053 0.1367935 0.29068136 -0.048946936 -0.18405548 0.13398732 -0.0038015186 -0.24392436 0.2867747 0.85229063 -0.041948024 0.23176773 0.7418656 -0.20879778 0.4799849 -0.49872172 -0.27902186 0.7827893 -0.22741635 -0.58673185 -0.10303904 -0.2689456 -0.28941905 0.34809098 -0.26642343 -0.060890518 -0.019412588 -0.16808239 0.20566212 -0.5243091 0.6136339 0.60245746 0.6774522 -0.372616 0.17463195 0.3055157 0.32210365 0.35860997 -0.36430788 0.09405064 0.024275726 -0.6230255 -0.11810048 -0.14146827 0.42694762 0.011966982 -0.29393193 0.1854987 0.615894 0.27437547 -0.07158954 -0.085302114 -0.25163218 0.053781927 -0.9030831 -0.44970006 0.5933213 0.361737 0.37753284 0.008634675 0.4174905 0.10252083 -0.021829845 -0.027897099 -0.1815936 -0.3609394 -0.23292428 0.11087476 -0.4331571 0.42736423 -0.5752063 0.18030949 0.0793033 -0.2837726 0.44098085 0.18563369 -0.12945303 -0.46193093 -0.7629959 1.2948773 -0.65834105 -0.7370764 -0.543358 -0.13135965 0.09989252 0.41079584 0.3189301
闻 0.3989519 -0.058293503 -0.15094635 0.11799879 0.86409473 0.24880025 -0.0571787 -0.10619139 -0.59246904 -0.27440304 0.0015648603 -0.58621037 0.10421097 -0.005795853 -0.46224305 0.23677558 0.1265357 0.22498915 -0.003969746 0.31739068 -0.16260482 0.7581329 0.09606747 -0.31676203 -0.10226291 0.34580916 0.22168647 -0.22997753 0.27106237 0.07370296 -0.5328317 0.11925536 0.3950949 -0.19151078 0.6223877 0.022335952 0.03782216 -0.052853547 -0.29118598 -0.03216084 -0.05075387 0.3297116 -0.043550592 0.14162351 -0.5046479 0.02513057 -0.2916421 0.1621643 -0.1924131 0.24898823 0.06627236 -0.20172276 -0.040422373 -0.11180676 -0.33082405 0.43040124 -0.018170401 0.075420655 -0.16894728 -0.3965664 0.18870233 -0.39969492 -0.2775712 -0.16290459 -0.7632237 0.5028886 0.14058478 0.26895264 -1.0707518 0.41479132 0.06817032 -0.09169969 -0.351739 0.10300659 0.31655803 0.006872626 -0.119649686 -0.55203295 -0.22526945 -0.3114654 0.037052218 0.24673389 0.28135735 0.018884288 0.3807057 0.031309295 0.27918628 -0.10945808 0.21839368 0.40751296 -0.19674751 -0.31078044 0.29107502 -0.61981386 -0.1862851 -0.33361763 0.11656694 -0.57285565 0.41970387 0.19213784
未 -0.44367585 -0.16284518 -0.41224548 0.30865732 -0.21008056 0.0072897533 0.2665414 -0.46631658 -1.1043029 0.44251522 -0.16933347 -0.27589926 -0.15321375 0.3090058 -0.31902277 0.87157106 0.017264383 0.8832044 -0.07792953 -0.42570382 0.20743425 0.33582747 0.062187977 -0.29334217 -0.27363655 0.040250503 0.51440865 -0.00014443649 0.31677783 -0.42040002 0.12728578 0.14397109 0.5204717 -0.07592888 -0.3396951 0.34775588 -0.05481713 -0.1973648 0.24017982 0.33109346 0.16220011 0.089077994 -0.31588805 0.24210812 0.32267094 0.11307656 0.22487448 -0.048114583 -0.19926669 0.16357687 -0.4790241 0.33917615 -0.20268363 0.55748624 -0.22709498 0.43127465 0.14041515 0.6211188 -0.640397 -0.70406383 1.0409162 -0.20694564 -0.6180045 0.5151372 0.38084087 0.4186278 -0.45184308 0.019873118 -0.02993073 -0.10425753 0.008802259 0.57280135 -0.19151376 -0.06552228 -0.4765797 0.3019846 -0.37168512 -0.5108549 -0.22798157 0.26567328 -0.1773684 -0.16629803 -0.24261603 0.5996474 -0.17334649 -0.035840295 0.24514619 -0.35537848 0.043440796 -0.18219747 -0.38794315 -0.40510565 0.32197815 -0.53748965 -0.74920404 -0.78032976 0.0068359063 -0.4298639 0.07313793 0.25275898
公 0.004865136 0.7234156 0.5525088 0.6150802 0.13364188 0.12038912 0.37600756 -0.05853767 -0.18823309 -0.32880098 0.2305617 -0.25633344 -0.1990304 0.13358656 1.0557202 -0.25585702 0.030102478 0.21708743 0.45745432 0.5201158 -0.503487 0.010121515 -0.16572629 -0.09689893 -0.08504004 -0.20972751 0.82257634 0.09822492 0.034569487 -0.1605209 -0.34839478 0.42720127 0.2524741 0.3469199 -0.04029336 -0.08318554 0.20232922 0.2128147 0.28816754 -0.04544565 0.08340945 -0.16341828 -0.27530792 0.2615596 0.59886616 0.28253093 0.7035321 -0.09396787 -0.04088201 0.107900836 0.30224845 -0.3825437 -0.26502544 -0.1800201 0.17466776 0.3759563 -0.20736632 -1.0069149 -0.19058256 -0.41503116 0.11180014 0.5698629 -0.21621132 0.15748 -0.0813828 0.2563375 -0.0965575 0.34806585 0.4041198 -0.22881609 -0.17669363 0.6747283 -0.38035536 0.38195968 0.12003446 -0.074274324 0.09914851 -0.673215 -0.41601774 0.3145416 -0.7086967 -0.052645188 -0.058555763 0.18759428 -0.76189744 0.11134709 -0.5964207 0.058867447 -0.014970777 0.13480069 -0.27093765 -0.59981376 1.2204162 0.14361206 -0.5256368 0.0973976 0.37195376 -0.61801475 -0.21627384 -0.70271945
好 -0.19168408 0.14273359 -0.5433567 0.52385557 -0.1577584 -0.80775225 0.15204014 -0.35984895 0.26087978 0.22187251 -0.7987802 0.6005323 0.17363526 0.8595453 0.44695807 0.6906089 0.0733227 0.8019947 0.304403 0.13491115 0.06753197 -0.3891557 -0.63198787 0.083792016 -0.12833129 -0.2999457 -0.49134752 -0.4765085 0.41701773 -0.13668214 -0.06310663 -0.03989724 -0.0064221425 0.21036929 0.32745495 0.33417785 -0.36415127 0.40260386 0.33293766 0.15047468 -0.0053140684 -0.8034483 -1.9492913 0.16312976 -0.077299304 -0.6133662 0.27266878 0.06907555 0.032102995 -0.23368277 -0.39232612 -0.39693943 0.20040004 -0.03564523 0.43406934 -0.57761544 -0.24449581 0.38612673 -0.24787292 -0.5782109 0.27279457 -0.4774191 0.39530692 0.114352874 -0.44308385 0.48098668 -0.37911317 -1.1091105 0.48155797 -0.14106512 0.17404604 0.8139637 -0.24828753 -1.2927136 -0.2574739 -0.10884659 0.21056812 0.19135462 0.324646 -0.37590578 -0.31215706 -0.20191671 -0.24524795 0.66445744 0.26390857 0.05395149 0.32934117 -0.46189895 0.2616678 0.18956499 -0.10389127 0.48945588 -0.48291194 -0.81539375 0.029720834 0.66577697 -0.381407 -0.18229306 -0.22499311 -0.1346477
我 -0.43218985 0.18435495 0.39576888 0.20176022 -0.49152452 0.22703166 -0.18070492 -0.70226896 0.29932567 -0.052325144 -0.21166378 -0.3423447 -0.114632875 -0.41852006 -0.03250387 0.3465462 -0.014132069 -0.048911065 -0.19876687 0.036759287 0.58065504 -0.39722 0.43968934 -0.5055624 0.030742586 -0.44669533 0.5253222 0.31703272 0.84810275 -0.07869154 -0.038824625 0.4408415 -0.17333917 0.4014722 0.20759699 0.39319277 0.075199656 0.46013227 -0.8093032 -0.35957548 0.5169965 -0.18433905 -0.69627345 0.39277148 0.36722484 -0.129431 0.29083064 -0.01681608 -0.35546875 0.3578201 0.6194821 -0.54272765 0.12383941 -0.42704615 -0.0974137 -0.020862667 -0.54769266 -0.39722747 -0.375312 -0.12897325 0.11444214 0.13869756 0.05862572 0.24268284 -0.045850445 0.12343713 -0.021741075 0.12947774 -0.16290256 0.045210112 0.13386625 0.066180915 0.31920445 0.046958603 -0.12080186 0.3128668 -0.012308624 0.25651798 -0.008747561 0.3383815 0.023663335 0.025097886 0.050750583 0.14112166 0.040480178 -0.101656824 -0.78939915 0.24789084 -0.17985538 0.09748014 0.29075834 -0.12831569 0.69723594 0.23522392 0.5164604 -0.5783123 0.03133092 0.35336658 -0.3792484 -0.2270344
路 -0.43599644 0.778157 0.36549473 0.06320655 -0.1638947 -0.22409868 0.8524801 -0.7125921 -0.73719275 0.673764 -0.32702345 0.38011232 -0.015771316 -0.35229903 0.48991296 0.08698709 0.115238056 -0.024597649 -0.8253035 0.4545194 -0.73541117 0.007549451 -0.56849635 -0.061141185 -0.5471573 -0.40619028 -0.021762103 0.10838564 -0.06530351 0.16502143 -0.17188568 -0.42912993 1.0034964 0.23538308 -0.027707787 -0.3275831 0.3324588 0.83601373 0.27298662 0.1898963 0.58709306 0.39208016 -0.098267935 0.70552015 0.13192187 -0.14403707 0.13982293 -0.6654861 -0.16889516 0.49333033 0.22052197 0.14542916 -0.2899047 -0.284608 0.03437244 -0.11566876 -0.18501483 -1.5190312 -0.15196677 -0.6965265 -0.6064654 0.5307938 0.0041672513 0.5504197 0.71142226 1.1534877 0.8269363 0.6117635 -0.21397516 0.47809526 -0.029950146 0.1272994 0.22721766 0.38901988 -0.4511406 -0.49536225 -0.3340467 -0.22362357 -0.20226188 0.37910914 0.28476486 -0.19314368 0.2116132 -0.097460866 0.33303782 -0.2773224 0.45607728 -0.6154736 -0.8666399 -0.3433733 -0.279095 -0.83036935 0.6659525 0.37450144 0.2290457 -0.039888754 -0.75902027 -0.18652773 0.5255865 0.059155475
在 0.34676924 0.42951888 -0.21194255 0.11921755 -0.13794698 -0.35073757 0.9734912 -0.0341763 0.09866865 0.28603345 -0.020209953 0.33743188 0.77997935 0.122154295 0.17870793 -0.13082847 -0.06749673 0.8638226 -0.51545095 0.22394602 0.055498496 -0.053701106 -0.3256785 -0.28910112 0.07510228 0.6823447 0.005383192 0.16634397 0.28106764 -0.045635123 0.5327893 -0.011677982 -0.13734406 -0.020557303 -0.0877464 -0.6233885 -0.18686351 1.348844 0.12392932 -0.27217296 -1.0251517 0.3021478 -0.54910713 0.14978753 -0.7468793 0.377925 0.4534094 -0.0029382082 -0.26225933 -0.75256425 -0.29531592 0.6013446 0.18058409 -0.45288673 -0.2601723 -0.5365028 0.5805361 0.08772535 0.35231078 -0.66101 0.058309965 -0.3019083 -0.27137756 -0.5248912 -0.29197425 0.58598644 -0.078558706 -0.6358051 -0.6791484 -0.16840017 -0.34565333 0.09671264 -0.29480568 -0.85471296 -0.1818482 0.07350215 -0.29893908 0.5325106 -0.05354521 0.018123068 -0.46176368 0.108255476 0.108869374 -0.5065011 0.27094322 -0.3709382 0.9494243 -0.5039234 0.23018807 -0.07180585 0.084526785 -0.26816943 0.395994 0.33604056 -0.2247728 0.09189162 0.37479132 -0.37901285 0.11149829 -0.51926047
已 0.50310946 0.41275546 -0.7827957 0.93165946 -0.4004224 0.10706887 -0.22213317 0.00517917 -0.8324329 0.66282415 0.12177126 0.32681644 -0.1696082 0.26284117 0.43035975 0.08158664 0.31148252 -0.348221 0.5428134 0.08860682 0.11027924 0.045168247 -0.52723354 0.77185565 -0.23549058 0.04525181 -0.7022518 0.23956198 0.833459 -0.10687678 -0.44688827 -0.51838595 -0.16480485 -0.3203636 -0.030760199 -0.01527085 0.30293 0.8583734 -0.114122726 -0.24761367 -0.14454798 0.16773415 -0.8694681 -0.28834125 0.27794316 -0.05933009 0.7136107 0.08200629 -0.4276022 0.42309755 -0.32788566 -0.6968036 0.19658843 0.18788919 0.307242 0.033829074 -0.7692346 0.5622719 -0.053722143 0.012100362 0.33253816 0.48027682 -0.0522921 -0.108370416 0.16056632 0.060654245 -0.44743976 -0.3569204 0.17557587 -0.070117846 -0.095935464 0.8336538 -0.16337465 -0.29175362 0.159284 -0.31868985 0.35555246 -0.76300335 0.029050509 -1.1562275 -0.055726346 -0.5126331 0.44391218 -0.8382293 -0.19911693 -0.7651675 0.23394673 0.168545 -0.083659016 0.6695993 -0.10547064 -0.5623368 0.1820841 -0.42164943 -0.33559626 -0.066766754 0.013452735 -0.19842389 0.33223087 0.041290935
得 -0.20142846 0.13348043 -0.6615387 0.047187783 0.09533979 0.4947735 -0.2695445 -0.53308994 -0.8937614 0.38855213 -0.18009295 0.17972296 0.6403655 0.5412849 0.57227224 0.6289373 0.11914076 0.34047386 -0.0049151164 -0.0056010345 0.03707198 -0.02292436 -0.4309461 -1.0140843 -0.44117093 0.12291817 0.027562073 -0.40380245 0.6618225 0.32126206 -0.034516197 -0.2313355 -0.52891195 -0.46614507 0.025193198 0.42539498 -0.23712958 0.6812246 -0.13578841 -0.17391637 0.11457019 0.29286012 -0.12740721 0.056629993 0.45798314 -0.25426525 -0.11832324 -0.14008032 -0.63699555 -0.6675811 -0.3907681 -0.24241763 0.731619 -0.82802665 0.7498418 0.3961622 -0.008603398 -0.23860271 0.04083495 0.5801605 -0.11301547 -0.15544331 -0.104778394 0.031847402 0.2817632 0.6516683 -0.52519023 -0.9586169 0.007637959 0.47353977 0.29742983 0.13529189 0.22467333 0.20479831 -0.02319708 0.27728143 0.15076089 1.0100538 -0.33323982 0.17872831 -0.02063642 -0.12531507 0.25530976 0.19982587 -0.22606413 -0.07800216 0.33356133 0.066712186 0.26257998 0.014281086 -0.27544782 0.4727385 -0.69643754 -0.7076836 0.2324184 0.66202784 0.8265605 0.58139926 -0.03570461 0.074988075
所 -0.33226204 0.023404488 -1.2091659 0.4657443 0.22588502 0.3583494 -0.39724255 -0.41270226 -0.036634773 -0.041541032 0.22424914 -0.9735182 0.13288309 0.036133662 -0.5751905 -0.37666723 0.42152178 -0.15113463 -0.5301265 -0.26759762 0.22563487 -0.25356254 0.48491958 -0.33032435 -0.28106353 0.05041145 -0.6684325 0.9766676 0.9570025 0.5297723 0.014167201 -0.5681015 0.5821574 0.09746921 -0.34963894 -0.06474562 -0.124222405 -0.54427195 0.15401648 0.43686128 -0.049462102 0.27802688 0.08685793 0.37906194 0.09524411 0.060476348 0.24421456 0.13664646 -0.62385464 -0.6097834 -0.04301613 0.36035073 0.016727086 -0.30745623 0.14488687 0.03233191 0.36955082 -0.5828325 0.08034827 -0.2278098 -0.2915224 0.41552556 0.09424947 0.19249661 -0.3480574 1.1030896 0.43386126 -1.1302018 0.3969821 -0.18803811 0.27367198 -0.40417692 0.357 -0.42079046 0.5046446 0.352393 0.3369822 0.1426468 -0.52720153 -0.5303908 0.46211532 -0.03528124 -0.055919398 0.29218885 -0.5687357 0.03647133 0.43190283 -1.0422236 0.53872937 -0.13860406 -0.38387552 0.35177648 0.23830289 0.6690832 -0.14057517 -0.33432835 -0.31013316 0.96790767 0.77483374 -0.24165726
民 0.2357113 0.39682055 -0.98502904 -0.07918938 -0.050616864 0.6859425 0.18952265 -0.013369907 0.180263 0.5167983 0.06828827 -0.11092505 -1.0408013 -0.17421517 0.03497403 0.39131773 0.015908552 0.006182215 -0.2786577 -0.033400834 0.15492389 0.114753604 -0.28758425 -0.6502528 -0.09743595 -0.036390286 -0.22507647 0.3836587 0.0013068379 -0.1100761 0.8999076 0.47647312 0.28408253 -0.06127245 0.15851402 0.4894847 -0.35957092 0.28450072 -0.08276536 0.50438035 0.3995175 -0.028273156 -0.6725909 0.20348279 -0.0912648 -0.38487068 0.69727445 0.16900232 -0.11372058 0.06625161 1.053956 0.17231306 -0.086646065 0.29321945 0.63848066 -0.0012192645 0.1336311 -0.008101614 -0.31995574 0.2563518 -0.2509882 -0.17487672 0.014635395 0.6664036 -0.18087107 0.37148932 -0.24366812 0.49828956 -0.15989372 -0.047797617 0.08892786 0.018259943 0.21846887 -0.6222262 -0.1988565 -0.41054708 -0.20643374 -0.05697631 -0.16580287 -0.07148706 -0.5291278 0.47337055 -0.008134899 0.074528724 -0.49292848 -0.47323993 -0.3915671 0.43082976 -0.11093571 0.3635289 0.50711566 -0.38290307 0.622226 -0.4795415 -0.5504818 0.9204301 0.17985429 -0.4226023 -0.56546485 -0.5120335
小 0.0002752426 -0.31392583 -0.113853514 -0.5499047 1.453157 0.19851242 0.4281299 -1.1784061 -0.0013605421 0.027182067 -0.51499254 -0.28716063 0.15025073 0.42661393 -0.2573166 0.40567324 -0.5682013 -0.12042735 -0.30578446 -0.03742129 -0.26625815 -0.18665303 0.046051353 0.156223 -0.6594048 -0.3405545 0.5206474 0.3987286 0.48933592 0.42433363 0.70529383 -0.6381663 -0.40046465 -0.47532344 0.028541677 -0.18271439 0.042248033 -0.09936873 0.1361186 -0.37901208 0.32877854 0.014161892 -0.033872068 -0.021674976 -0.14225549 0.25189614 0.21200174 0.40441886 -0.17833139 0.27922353 -0.09172683 0.39432254 -0.15795228 -0.39397553 -0.38718927 0.4328401 -0.28359172 0.13377841 -0.5122619 -1.3183837 0.467412 -0.11797814 0.20130467 0.5011608 -0.092049554 0.7835752 0.2980577 0.619238 -0.34772715 0.15201983 0.07845406 -0.18020543 0.16971771 -0.00915865 -0.5210009 0.0011102571 0.087824926 -0.23722298 -0.54577655 -0.06318199 0.031479634 0.028130746 0.58860344 0.17849109 -0.1743153 -0.481228 -0.46834487 0.088786595 -0.2340127 -0.04829377 -0.08142261 -0.40290925 0.25267953 -0.47950956 0.10148224 0.06797287 0.04475419 0.31136093 -0.25834993 -0.46021333
天 -0.015454888 -0.3352839 -0.88378656 0.261115 0.39465365 -0.039151795 1.0731047 -0.8673638 -0.029405242 -0.8692598 0.45854625 -0.35822973 -0.08940827 0.23783691 -0.12123145 -0.42282772 0.47636232 -0.012697863 -0.26847896 -0.33863723 -0.23094358 0.08894407 -0.03589304 0.08394738 0.11838295 0.26193804 0.008265892 0.55125636 0.40021268 0.27753916 -0.24727762 -0.053553175 0.29729304 0.46505743 0.17906381 -0.74737746 0.27589962 0.7968059 -0.40470418 -0.35827518 0.116670735 0.28156373 -0.3039975 0.05446211 0.2695825 -0.39486444 0.2799412 0.35123986 0.17620149 0.32297304 0.2677718 0.25293925 0.021492792 -0.08604955 0.10412647 -0.32780522 -0.48166463 -0.5713407 0.08148536 -0.36178824 0.38478974 0.30449823 -0.43233788 -0.36115247 -0.09741025 -0.23839581 -0.72627926 -0.5798271 0.08255555 0.29549095 1.0640075 -0.14690505 0.030752134 -0.89796376 0.06359376 0.30473426 0.49592036 -0.15077412 0.14961004 0.15549684 -0.2701704 -0.061189853 0.13310118 0.073174715 -0.25653103 0.50531054 0.36600322 0.4192801 -0.037138354 -0.6749932 0.17949224 -1.2628149 0.122022375 0.40162963 -0.04353176 -0.07387716 0.1193412 -0.16032782 0.21684828 -1.3933716
乐 -0.12531705 0.394627 0.22788674 0.7849253 -0.050828073 -0.10843276 0.29373327 0.5170608 -0.2058184 0.26087728 0.17805278 0.33090895 -0.15669605 -0.35446465 -0.25405103 -0.31070012 -0.54314226 0.5774648 -0.07236003 -0.4113568 -0.21228229 0.3842937 0.016287647 0.1050665 0.2178576 -0.10012218 0.08881054 -0.57821244 0.46301594 0.34876835 0.5099826 0.087232694 0.8986846 0.39332035 -0.23876725 -0.26031265 -0.068100095 0.26369566 -0.26067606 0.2558082 0.05887477 0.14844118 -0.9898981 0.18677211 -0.26606333 -0.06793225 0.13864647 0.23666604 -0.22356987 -0.16843724 0.89671665 -0.2505272 0.6086208 0.0019657211 0.20309703 -0.29162753 -0.09609638 -0.734807 -0.28394976 -0.012627211 0.27818874 0.4579302 0.18962705 -0.23609978 -0.22186875 -0.6871276 -0.31891042 -0.21826845 -0.82145435 -0.1576978 0.09517858 -0.10897225 -0.020486606 0.11445128 0.047410443 -0.27853814 -0.1704571 0.15688622 0.16815445 -0.100311056 0.024420042 0.07233949 0.4297233 -0.27807713 -0.18461545 -0.09900655 -0.41093087 -0.047283873 0.07066028 0.14750487 -0.11630324 -0.13872138 -0.0129543515 0.20085171 0.47982755 0.73563826 -0.33789644 0.09320218 -0.2354666 -0.71568936
邦 0.085235864 0.293984 -0.3695888 -0.0645149 -0.6479582 -0.36830926 -0.064052686 -0.80799526 -0.18280424 -0.1890709 -0.54501444 -0.9146462 0.57489276 -0.17759812 -0.43662927 0.3758555 -0.007457299 -0.18037379 -0.4140404 -0.4703311 0.2534234 -0.36939383 0.39102563 0.13836925 -0.3285881 0.40766105 -0.3113103 -1.0581468 0.38794598 0.6293884 -0.0277431 0.2606061 0.6531749 0.21884456 -0.12798353 0.18693961 0.029153185 0.2712171 0.2985966 -0.0046597254 -0.016253464 -0.009006349 -0.5479591 0.49291795 0.77040774 -0.6960513 -0.6068366 -0.2498367 -0.41690758 0.41227514 -0.0015116154 -0.15006706 0.13115779 0.04607163 -0.64818686 -0.078918576 0.0107369125 -0.40662885 -1.0679101 -0.2824369 0.02248037 0.15192902 0.13370445 -0.07283594 -0.13373776 -0.22646777 -0.100466184 -0.98740494 -0.15099934 0.5020222 -0.9097162 0.6120744 0.13028969 -0.5188116 -0.09445704 0.38656637 0.5346898 -0.6413609 -0.35042083 0.23449855 0.26499185 -0.15608534 -0.004490645 -0.6589363 -0.55191565 0.38608012 -0.3551624 0.11376068 0.2915846 0.2330771 -0.5980013 0.18333359 0.31823462 -0.076147705 -0.54914755 0.2648966 -0.15856737 0.06278046 0.390993 -0.12960972
亦 0.37505326 0.31352532 -0.49312106 0.24216259 0.0059845923 0.1311275 -0.085974775 0.09215986 -0.2705068 0.40827867 0.28144285 -0.18443355 0.7631298 0.17183581 -0.9784241 0.81190956 -0.03239309 -0.16274783 -0.4077495 -0.41642085 0.107796036 -0.36681834 0.19506267 0.27102804 -0.4096912 0.100466006 0.3719063 -0.31221882 1.0686265 -0.43498072 0.53143364 0.25094092 0.124722935 -0.64663213 0.19755998 -0.007928758 0.41520846 0.13965654 0.0967501 0.33748347 -0.35621643 -0.05837349 -0.28793192 0.3481388 0.33719367 -0.23324385 0.6892379 -0.30047166 -0.0909857 -0.14542833 -0.12459283 0.24180228 0.37133655 -0.06679907 -0.99986637 -0.7229706 -0.20563734 -0.37842646 -0.65928 0.23402159 -0.39928776 0.07499098 -1.0472925 0.74013245 -0.13873312 0.66355056 0.01960115 -0.10333842 0.64926785 -0.63635194 -0.24750932 -0.08500822 -0.2919197 -0.38166896 0.27873462 0.2966334 -0.055421703 -0.32971638 0.023955207 -0.10064784 0.35185573 -0.22597757 0.10507934 0.38510504 0.24992864 -0.1147336 -0.3030512 -0.065173514 -0.42655164 0.09070556 0.784778 0.07183572 1.1217448 -0.54868054 0.20628378 0.69511145 -0.44020304 -0.3775361 0.96728444 1.0050136
使 -0.32992253 0.6090273 -0.55079484 0.34825918 0.56965977 -0.034051705 -0.020522896 0.27768812 -0.60680455 -0.2457827 0.12197592 -0.6235642 -0.2417381 -0.28009355 0.12415014 0.046137784 -0.4095578 -0.11065419 -0.15872946 -0.6428706 0.67305416 -0.2740883 0.2979574 0.3098129 0.02517537 -0.3566754 0.32267246 -0.26293495 -0.0772578 0.5864493 0.39480734 0.0076036486 -0.356534 -0.104504615 0.12470039 -0.7387041 0.22610416 -0.4834599 0.19395244 0.44333014 -0.012684125 -0.24185957 -0.5911974 -0.023196165 -0.25606874 -0.32481307 -0.1290311 -0.59505445 0.5411384 0.5340156 0.13714789 0.018751334 -0.36730623 0.016796513 -0.24810001 -0.056104004 0.18251446 0.17223541 -0.59558964 0.34517282 0.1314617 0.062216528 0.22198083 -0.25821283 0.36418182 0.109432556 0.086623095 -0.2905792 0.05769146 -0.14795846 0.16140513 -0.109534316 0.11124338 -0.31861898 -0.37410438 -0.23631808 0.24115549 -0.19926396 -0.28364387 0.40339437 -0.58345526 -0.08187292 0.13376325 -0.28219658 0.05723003 0.29620773 -0.714263 -1.0497007 -0.14199677 -0.25246814 0.0747008 -0.604707 0.18346304 -0.068995126 -0.305132 0.21029063 -0.31641826 0.27292982 -0.22957264 -0.6255793
大 -0.29043663 0.024131568 -0.20825405 -0.7473818 0.45306617 0.124912485 -0.22117521 -0.7832756 -0.5028599 -0.01371508 -0.25171182 0.1458536 -0.3332965 0.5827015 0.38408953 0.36835125 0.021274434 -0.40397948 0.6521126 0.014938455 -0.2158139 0.39559534 0.096503355 0.39224565 0.017107718 0.04893565 -0.5728644 0.6267358 -0.03570538 1.0906473 -0.5666828 -0.42831898 0.14027297 0.73507243 0.6912576 0.7661103 0.1807797 -0.24838573 0.28269762 -0.012095089 -0.30278903 0.29295155 -0.96678895 0.16745542 0.031316243 0.052757643 -0.036244914 0.01585929 -0.21369551 -0.19094269 -0.08249731 -0.4722933 0.31219405 0.34094515 0.030158639 0.024110379 0.5936547 -0.78296024 -0.53306866 0.4100754 0.082472615 0.35664046 -0.99381393 -0.6515195 -0.5074932 0.5383006 0.50842506 0.27125525 -0.5508803 0.088469006 0.21814029 0.6869085 -0.118320554 0.3535909 -0.21911308 0.27394712 0.029952979 0.07863682 0.9724647 0.8528242 0.031052722 0.054110374 -0.017553786 -0.017639332 -0.35926828 0.2382688 -0.45289534 -0.16048159 0.07309629 0.2511897 0.7779802 -0.3296246 0.05462101 -0.04300924 0.07415413 -0.24423711 -0.26043797 0.39237535 -0.7382341 -0.72774124
下 0.12775886 0.52290606 -0.6523156 0.24586931 -0.04152762 -0.06207304 -0.023894936 -0.75893307 -0.20408984 0.30671224 -0.0058582528 -0.35387686 -0.5002732 -0.108061045 0.9246168 0.16793056 -0.5773237 0.2913372 0.12866944 0.4334737 0.74873745 -0.41591 0.30118608 0.12673348 -0.7159492 0.20863204 0.64073974 0.31276757 0.11235623 -0.4053103 0.2512835 -0.26030806 -0.2463663 0.48999882 0.18810296 0.06791287 0.26525643 0.4725296 0.16225113 0.3129383 -0.1744015 0.40480292 -0.767941 -0.051621396 -0.6328537 -0.29801196 0.11856407 0.21523401 0.3074284 -0.275435 0.56650245 -0.6174566 -0.82286865 0.019377686 -0.15100916 -0.0172242 -0.39601392 -0.15411997 -0.047155105 -0.7978339 0.4842209 0.59979457 -0.8619323 -0.055768564 -0.0003155456 1.1049554 -0.038237702 -0.020661203 0.30662712 -0.13449341 -0.5518145 -0.1988786 0.0992623 -0.9692796 0.39673936 0.14364913 -0.14347002 1.1433862 -0.24119653 -0.38785037 0.24986397 0.3107657 0.2183088 -0.2512543 -0.42946342 0.43181098 0.97256756 -0.036638834 -0.09470445 0.5722898 -0.3396699 0.01708706 0.35430261 -0.115576826 -1.0376635 -0.09649003 0.2095334 -0.22266692 0.16908139 -0.11528747
贡 0.27131042 0.053109463 0.23357566 0.38929886 -0.111410335 0.18820709 0.006580499 -0.23618641 -0.89590394 -0.010113443 0.113306016 0.69030255 0.028347714 0.6021334 0.028702974 0.39298892 -0.2525868 -0.17279305 -0.020983737 -0.008182151 -0.40253407 -0.15918948 -0.6025548 -0.8829034 -0.086021386 -0.02426511 0.08018208 -0.21196356 -0.11888798 -0.029105345 -0.040693425 0.11307445 -0.47384566 -0.04452367 -0.5965057 -0.19293696 0.62232405 0.07296661 -1.1686853 0.016191054 1.4166399 0.16149643 -0.15688935 0.32092848 -0.17961685 0.34207767 0.14898697 -0.7084844 -0.42182156 0.45185342 0.2679079 0.19392268 -0.25939888 -0.082479954 0.18477733 -0.2843861 0.69105315 -0.9719114 -0.4660415 -1.5931902 -0.46694446 0.9270649 -0.7755032 -0.32616127 0.42220372 0.74380213 0.14016338 -0.059635147 0.16661243 0.45176134 0.14638948 0.24350129 0.3368377 0.2806802 -0.19892168 -0.70610386 -0.29151306 0.14324299 -1.0188978 -0.19424467 0.3062174 -0.21082044 -0.0066317613 -0.32519335 0.2633151 -0.10652212 0.19504358 -0.7399036 -0.06358332 -0.66313314 -0.19249828 -0.85740507 2.13477 0.67403394 0.7059912 -0.14819606 0.26633918 0.06594064 0.26177895 -1.0350105
欲 0.041539237 0.15923566 -1.1175177 -0.3478769 0.043278903 -0.38214403 -0.059423614 -0.4117825 -0.3521477 0.686075 -0.29550996 0.042758428 0.2493274 0.23779231 0.86064833 0.2547063 -0.00016785982 0.1844939 -0.815657 -0.10143635 0.103934534 0.5397936 0.55828834 0.40238714 -0.024070764 0.26409408 -0.30605882 0.093631946 -0.18990271 -0.6224431 0.4925636 0.34462035 0.027998414 0.23685104 -0.15182905 0.12009922 0.71825445 0.090193376 0.13520753 -0.20366487 0.11607016 0.31730485 -0.5191426 0.050184898 -0.33877513 0.34433228 -0.6979573 0.014312996 -0.49547404 0.32494134 0.36634102 -0.40011457 0.60932344 0.22904906 -0.94696724 -0.44266954 0.3116439 -0.27732754 -0.22907785 0.37958217 -0.34025222 0.21391557 0.10987185 0.34970468 -0.22887574 -0.040181257 0.16368313 -0.42962402 -0.42873487 -0.18321651 -0.34758556 -0.06908666 -0.008554393 0.58888507 0.2904946 -0.22468232 0.08474242 -0.23801067 -0.039849564 -0.4014959 0.5587352 0.3883235 0.27806455 0.1052988 -0.5079824 -0.5495218 0.7914654 0.040299296 0.026479837 -0.23665994 -0.103639826 -0.07960011 -0.1266818 0.09244477 0.20885038 -0.39709452 -0.30454904 0.3651064 0.49243918 0.323094
诸 -0.44358256 0.84786475 -0.39646846 0.19246505 -0.18207622 0.3332134 -0.08032882 0.27755418 0.2304657 0.03417391 -0.44817588 -0.22834899 0.5065656 -1.3963486 -0.6902498 0.35342994 -0.60489774 0.23197857 0.15399323 0.55773145 0.46430165 0.0261685 -0.19832325 0.025710877 0.039403513 -0.6747072 0.011393543 -0.28004792 -0.38843998 0.22329067 0.26119727 -0.8305798 0.07087015 0.2921821 0.1401379 0.94671065 0.13158663 -0.15446368 -0.2125745 -0.44056562 -0.32669482 0.2657132 -0.7621277 0.49607214 -0.18238801 -0.35465324 -0.44064122 0.52287257 0.57161003 -0.59308875 1.3305141 0.7294287 -0.5548502 0.39746037 0.18556324 0.4156256 -0.26492482 -0.65274566 -0.19145316 -0.6344104 -0.5188528 0.99570155 0.19232093 -0.8280836 -0.17815146 0.38120517 0.501333 -0.050458804 -0.7607494 0.13888158 0.52092355 0.43889916 -0.23515338 -0.22491433 -0.43928877 0.031474035 -0.004351697 0.11795898 -0.3495745 -0.8062534 0.29640323 -0.83129555 0.24218829 1.5912509 -0.27418014 -0.7512829 -0.9170759 -0.21845801 0.12508108 -0.11611633 0.15762785 -0.1838449 0.29107505 -0.059334315 -0.16658087 -0.58873993 -0.012137791 -0.42792627 -0.7087075 -0.18435957
从 0.049209673 0.16408344 -0.123602085 0.38025847 -0.3840322 -0.27115402 0.271267 0.044814564 -0.57674974 0.4428696 -0.54371154 0.4129796 0.86240226 -0.75519407 -0.3721463 0.2853237 0.21355662 0.085668124 0.096262805 0.36912742 0.23835622 -0.021618424 0.1181487 -0.13553089 0.47415105 0.17948234 -0.61698604 0.2479641 0.706733 0.31806073 0.10223763 0.21810308 0.11797189 -0.09524314 -0.42881945 0.5318147 1.21107 0.5534145 0.028402729 -0.51265925 1.025336 -0.26345375 0.016056933 0.36717433 0.29114294 -0.26476705 1.0595558 0.10346788 0.88566774 -0.05847925 0.5808463 0.5041095 0.16202259 0.4283875 -0.23672508 -0.103851266 -0.639438 0.060636416 -0.36590064 -0.19823466 0.122987404 -0.14297318 -0.3080721 0.08898684 -0.65595806 0.24059266 -0.04099923 -0.2575282 -0.14929686 -0.03923936 0.6661261 0.2716697 0.6511179 -0.31049243 -0.021423116 -0.034307715 0.23280038 0.2404967 -0.087872274 -0.16503665 -0.11087124 0.29502702 -0.28583333 0.34858143 -0.015228348 -0.08827342 0.23929977 0.44087642 0.024559962 -0.1276092 -0.94974345 -0.23494431 0.11252994 -0.55156696 -0.32798544 0.48347458 0.591731 -0.06295211 0.02177455 -0.09548823
文 0.16142572 0.18280935 -0.42092234 0.2812743 -0.28999695 0.6933901 0.12218437 -0.006469854 0.59679055 -0.3630439 0.36983973 -0.6266505 -0.29182458 -1.3090025 0.19406821 -0.033204988 -0.6170902 -0.012716181 -0.1368515 0.28976735 0.049743384 0.3489137 -0.69258976 0.18168014 0.07567994 -0.011038174 -0.7829192 -0.6314159 0.30842826 -0.1621872 0.2635111 0.005327357 0.13714087 0.72813594 0.18049268 0.28408453 0.1365795 -0.0803314 -0.425886 0.38173476 0.38649032 0.34664497 0.10011104 0.7195874 -0.11807362 -0.2666322 -0.071683936 -0.43541545 0.22048742 -0.32211173 -0.50467175 -1.1813626 0.77086174 0.7298865 0.5057655 -0.42710152 -0.44598693 -0.05481686 0.540229 -0.41983005 0.6035115 0.4777791 0.48371795 -0.09010131 0.114323914 0.8969984 -0.7089599 0.46745208 -0.05727962 -0.22490293 0.5959003 -0.16975552 -0.018943822 -0.2277489 -0.5193453 0.28769028 0.08707441 0.20954302 0.09225469 0.47459635 -0.716159 0.18420453 0.13987316 0.09163451 -0.09429867 -0.17899306 0.05837973 -0.37541565 0.2426268 0.49527663 0.29705662 0.5338832 0.73896116 -0.46353123 -0.38321576 0.14635716 -0.2920788 0.06406914 -0.019055037 0.61911905
政 -1.0404418 0.8646079 0.5121634 0.96337295 0.33034164 0.96528715 0.17461896 -0.57893765 -0.18877219 -0.23528025 -0.39622086 -0.67988634 -0.7593311 -0.032799687 -0.64036983 -0.46648222 0.014927187 0.37357637 -0.8493404 0.005177984 0.6526023 -0.25998652 -0.73443204 0.23864472 0.30584702 0.2118541 0.46952048 0.44576705 0.7846402 0.7330367 0.30905 -0.85129416 -1.3125923 0.4313225 -0.03567601 -0.04272422 0.19142541 0.90876913 0.13410383 0.5817457 0.19054146 0.27112418 -1.0993944 -0.36832508 -0.11094927 -1.3197656 -0.26185066 -0.14659776 0.24360527 -0.11154372 0.60703206 -1.1265329 0.3739303 -0.015195453 0.052853055 -0.47655585 -0.22367245 -1.2891616 -0.16552064 -0.23538086 -0.76374197 -0.18652976 -0.6158884 -1.0758897 -0.19391225 -0.29057226 -0.32329234 0.034849603 0.29381976 0.9189046 1.0021213 -0.0051921248 -0.0359103 -0.026392968 -0.2724393 -0.075447716 0.072790526 0.04301767 -0.5096742 0.4971342 0.29989094 -0.39068243 0.9731124 -0.46919027 0.28905466 0.023231616 -0.8396147 0.5756811 -0.2896777 -1.2379258 0.16693935 -0.50209343 1.010722 -0.85576266 -0.88796055 -0.3459724 0.09008121 -0.20195848 0.2161115 -0.0028361643
食 0.0698215 -0.32950738 -0.2893443 -0.013404893 0.25944063 -0.29119745 0.039267305 -0.132685 -1.2496797 -0.01611379 -0.56304526 -0.38295808 -0.3265279 0.5569122 0.33050302 -0.5045038 -0.2814162 0.954544 -0.10454307 -0.2618534 -0.3336471 0.27745873 -0.30155003 -0.50379354 0.22572948 0.5959073 -0.8111897 -0.015670506 0.114858255 -0.36411384 0.22645396 0.07758007 -0.36775458 0.7853791 0.50574136 0.010956582 0.43947154 0.6284757 -0.20464651 0.28149587 0.084132634 0.096974105 0.035197746 0.5069304 -0.5693599 -0.03490722 -0.3126684 -0.3985017 -0.103217855 0.27651635 -0.6705965 0.0006795523 0.031016866 -0.4575983 0.28247106 -0.43978098 0.443144 -1.2508705 -0.7140598 0.22056003 0.22770333 -0.15236537 0.17386062 0.424948 -0.11761125 -0.05236482 0.26678464 -0.91041636 -0.24750228 -0.19600624 0.04480135 -0.1977753 0.41726872 -0.0070044934 -0.051541626 -0.047111716 0.01905953 -0.022426382 -0.3215076 0.14158045 -0.24334244 0.16379477 0.1702874 0.28191355 -0.55696136 -0.4694514 0.3670319 0.15126002 -0.11045431 -0.82409626 0.22489919 -0.6913979 0.585451 0.516802 -0.4729605 0.54114974 0.054476805 -0.93931067 -0.56411904 -0.25118536
善 0.18580166 -0.93274826 0.29091647 0.26702413 0.22278574 -0.15583633 -0.14315523 -0.034917265 -0.6023773 0.71987903 0.051530413 0.7084591 -0.07695505 0.21805808 0.12445168 0.45312265 -0.22921531 0.21637805 -0.438841 -0.01484807 -0.26359048 0.40366215 -0.56882715 0.3484252 0.02796044 0.09432139 0.7590832 -0.072690435 0.23345554 0.16202752 0.33703616 0.37056258 -0.96365935 -0.06769724 -0.09793838 -0.32943493 -0.013561682 -0.37492785 0.0044641187 -0.7477685 0.90893465 -0.19006181 -0.62571007 0.22029613 -0.7891896 0.0641882 -0.6167171 -0.29976878 0.16934498 0.4604381 0.30032775 -1.1783732 0.18411778 0.92383677 0.5182346 0.29335007 -0.06361087 -0.14235495 -0.23607032 0.31265542 0.63425803 -0.57131326 0.10381974 -0.08579298 0.217805 0.24153337 -0.2451581 -0.2780468 -0.23589072 0.29183015 0.4445889 0.29642373 0.10465902 -0.5253793 -0.7590411 -0.5275529 -0.39673498 0.34026715 0.23078297 -0.013382085 0.15358151 0.13401438 0.29233733 0.35359156 -0.23680204 -0.13256162 0.5597994 -0.012043501 -0.19433413 -0.24136019 -0.17379807 -0.3882687 -0.24262722 -0.27428287 0.6933994 -0.27987957 0.2740351 0.10957653 0.36975417 -0.23758885
后 -0.17800458 -0.06106947 0.13482635 1.010746 0.2632786 -0.52404535 0.06852345 -0.1458628 -0.22355776 0.37015948 -0.2854818 0.2702597 -0.13238028 -0.13851973 0.14810094 0.49657214 0.037055112 0.697657 0.0067277243 -0.56897974 0.17874582 0.02207019 0.23510392 0.83842534 0.22586429 0.46365407 -0.4039855 -0.56415963 1.0442642 0.9443722 0.21412612 -1.0474073 -0.30249566 -0.6943199 0.13608524 -0.35094598 -0.9901256 0.4862881 -0.0011927537 -0.061864875 -0.5588611 0.063005805 -0.21861057 0.059263058 0.42076957 -0.077119306 0.596788 -0.3017886 0.16511256 0.21954587 0.62722415 -0.32757893 0.22555757 -0.32970855 0.97619975 -0.38565516 0.55170006 0.2635395 -0.090377465 0.16040064 0.056622744 -0.41034442 -0.07151012 -0.13766864 -0.018294642 -0.025682494 -0.22740562 0.0073255734 -0.30141145 0.8373228 0.1625961 0.35514104 -0.016659634 0.07622975 0.74003816 0.36950493 -0.10278599 -0.14729749 0.43049416 0.2347825 -0.22601855 -0.08178567 -0.12461718 -0.3821194 -0.21265364 0.38353565 0.18237814 -0.2037457 -0.46344054 -0.017810054 0.018606227 -0.36711586 0.009292065 -0.22515054 0.667637 -0.43651336 -0.40610194 0.67714673 -0.026795818 -0.90739596
德 -0.39471588 -0.3974381 -0.0696001 0.6365601 -0.121985674 0.5114696 -0.53297544 -0.12943755 0.24660148 0.16485052 -0.81996423 -0.52020085 -0.0800165 -1.0050067 -0.36888555 0.20622404 0.3635857 0.082135595 -0.6354465 -0.64523834 -0.4432668 -0.25018832 -0.4222253 -0.10226106 -0.040112734 0.35661206 0.360962 -0.32852286 0.38326496 0.1034112 -0.15567738 0.45760706 -0.13384596 0.7234251 -0.37759575 -0.18976095 0.36530548 -0.2813087 -0.12596272 0.23815688 0.20861827 0.17822169 0.31403542 -0.462492 -0.6829784 -0.37228954 0.118722335 0.045249503 0.045531426 -0.1058195 0.09514122 0.13418697 0.021113867 -0.6938258 0.65626293 -0.8906104 -0.41333807 -0.45368087 0.08406848 -0.60727537 0.12084231 0.00017444417 0.111835815 0.49006006 0.2853696 -0.040269796 0.1544216 -0.3688917 0.030532192 -0.28317875 0.42243648 0.1607209 -0.42146394 -0.07531904 -0.51201123 0.052222256 -0.51219946 0.25830114 0.28715864 0.21397266 -0.48025784 0.61896425 0.5618704 0.5709323 -0.24112326 -0.6790557 -0.15473421 0.7085832 0.32083136 -0.4060853 -0.064188495 0.14938286 0.39350405 -0.43809327 -0.19927144 -0.7063984 0.38737324 0.31659842 -0.0055758175 -0.1528913
求 0.36268798 0.5887291 -0.010073569 1.1270198 0.3045602 -0.15197432 0.44511417 -0.9403817 0.17630516 0.8544447 -0.3206428 -0.60200256 -0.1519173 0.17665936 -0.09002204 0.55530196 0.00044031808 0.32016808 0.36560526 -0.36149156 0.09899141 0.099876806 0.12110521 -0.46831128 0.07178545 -0.07809167 0.29184854 0.20969287 0.590859 -0.01233078 0.41577858 -0.4270168 -0.384782 0.17084429 0.34680888 -0.21032803 0.43426004 0.2693787 -0.305098 -0.46626928 0.6908621 0.3372397 -0.56423366 0.4614036 0.23818353 -0.14217228 -0.64333 -0.35648984 -0.09040269 1.5358595 0.33909813 -0.6771775 -0.2731212 -0.13022105 -0.121786386 0.22573343 -0.18063568 -0.119099066 0.33257058 0.16915624 0.41950372 -0.08688495 0.20100154 0.10371573 -0.057302166 0.36800474 -0.15984678 -0.03971742 -0.1305847 0.017589051 -0.0040674517 -0.2441236 0.25531626 0.37780625 0.08649337 0.16964155 0.5316878 0.2756918 -0.2175853 -0.74563974 -0.6640155 0.15157025 -0.14009511 0.30265903 -0.022594653 0.33514702 0.07761488 0.38704965 0.11566533 -0.24161135 0.5426021 -0.21290837 0.26146597 0.023568816 -0.4336442 -0.0077917185 -0.25833163 0.11177881 -0.8767351 -0.2254868
对 0.30160084 0.028570201 0.21859199 1.0894054 0.45462403 -0.49440488 -0.20708473 0.64042693 -1.2782991 0.61848795 -0.47545353 0.24692494 -0.025395002 0.46938372 0.061968528 0.4244587 0.7687506 0.6578196 0.67543125 0.5014002 -0.23678316 -0.8231211 1.0012634 0.11257607 -0.16211508 0.029135047 -0.51596266 -0.19850062 -0.53689694 0.44073823 0.7175855 -0.3184408 -0.2206128 -0.6163856 -0.13957432 0.11377378 0.38897443 0.115528546 0.49611315 -0.12616478 0.5178959 -0.21783632 -0.00824701 0.8385068 0.77326554 -0.024200113 0.30508384 -0.19033507 -0.3763846 -0.66882765 0.54409724 0.18297076 -0.08063453 -0.25303888 0.0020973736 -0.07716897 -0.21251832 -0.5833301 -1.0615488 -1.4396827 -0.5722727 0.5196756 0.5836941 0.84463483 -0.5362319 0.034126125 0.758398 0.2093283 -0.28147438 0.081550345 -0.3583931 0.14539817 0.3059553 1.1918942 -0.30454296 0.41436452 0.080475934 0.4624295 -0.13242133 -0.25796586 0.23312137 -0.7664941 0.20094828 -0.85566795 0.37274095 0.044012528 1.030416 -0.36674768 -0.116441004 -0.4980862 0.64795905 -0.6956598 1.9166917 -0.52906305 0.48878297 -0.06729581 -0.7219462 0.23479417 0.28954196 -0.083819084
恶 -0.011788328 0.15185302 -0.23630255 0.29303223 0.09756794 -0.39317703 0.39959738 -0.43877262 -0.9957613 0.03498474 -0.47446355 0.28805408 -0.059131004 -0.14911918 -0.66273576 0.7525878 -0.22158945 0.54172516 -0.2358349 -0.3640689 0.04893781 -0.47634 0.15331551 -0.111023575 -0.111773446 0.24888913 -0.25517073 -0.14280793 0.2678331 0.78864306 0.12794587 -0.38354313 -0.54131895 -0.45936668 -0.03600475 -0.6693555 -0.09442909 0.5874185 0.79648846 -0.11815038 0.2376047 0.04772943 -0.26197335 0.15072843 0.003257113 0.010599383 -0.4204833 -0.596721 -0.123008974 -0.23579025 0.16606483 -0.67572993 -0.72015285 -0.029881347 -0.737844 0.50334555 -0.5961168 -0.043072015 -0.34468862 -0.25091282 -0.40667313 -0.552125 0.38819492 -0.361682 -0.025749817 0.08669164 0.4159785 -0.85434574 -0.028624933 -0.403035 -0.056087617 -0.64559364 -0.37113136 0.5374249 0.3187399 -0.31530118 -0.09610387 -0.13070625 0.1518613 -0.34543037 -0.21062653 -0.058142077 0.59059817 1.1355848 -0.06706255 -0.053084284 0.63058275 -0.39669925 0.013696112 0.3506739 0.44148436 -0.24719791 0.20349964 0.24357648 -0.4919332 0.7629097 -0.03331908 -0.33985963 0.5501382 -0.20848039
信 0.60546196 -0.21771224 -0.60192066 -0.21185337 -0.0880651 -0.25041193 0.13424724 -0.2976383 -0.51651114 0.6290691 0.117002584 -0.38529035 -0.40627676 -0.21814223 -0.5951314 -0.09866993 0.51189375 -0.35086024 -0.8459819 -0.11961035 -0.030907327 0.44036984 -0.4954475 0.20090169 -0.20688306 0.18249601 -0.10809057 0.1822268 0.5992445 0.043938197 0.010840176 0.21097669 0.19824448 0.14107582 -0.50428575 -0.5603093 0.23135936 0.54461354 -0.039334755 0.096413806 -0.12425845 0.10982906 -0.14334147 -0.087256365 -0.2926517 0.25166473 -0.427605 -0.48959824 -0.42394736 -0.13409917 -0.3009119 0.28101307 0.108325236 -0.018534012 0.53375155 -0.020474637 -0.50835466 -0.84788054 -0.6231167 -0.4118131 0.30554137 -0.3678016 0.40751314 0.13878542 0.25284892 0.5380313 0.016313098 -0.63878155 -0.4836979 0.4091448 0.3730123 -0.1849993 0.3143987 -0.00811309 -0.1333145 0.14714767 -0.1800893 -0.17388843 -0.36676246 -0.03443712 0.19656569 0.17453232 0.30241317 0.05615745 -0.15315174 -0.14973871 0.009469035 -0.09745726 0.28921336 -0.21183403 -0.20052357 0.032410037 0.025504947 -0.5632903 0.20237994 -0.040203545 0.48255968 0.5328967 -0.03121508 -0.656943
死 -0.34568503 0.011037536 0.005085082 1.11821 0.53199756 0.046013933 0.28292012 -0.4071746 -0.13020137 -0.37788236 0.015307087 -0.17035732 -0.09184335 -0.18788701 -0.07186505 0.45610523 0.09398696 1.185345 0.33829543 -0.37101397 0.3210873 -0.3306882 -0.43194702 0.017586622 0.05057215 0.3816306 0.26012254 -0.1040436 0.36832687 0.30237886 -0.11140728 -0.6040156 -0.74284244 -0.25530922 0.122986674 0.037124462 0.3415276 0.8197877 0.81355584 -0.5478009 0.15587799 0.13835298 -0.4686904 -0.20663203 0.3243156 -0.13832515 -0.090588614 -0.15033393 -0.16928738 0.074959636 0.48846358 -0.120510474 -0.06758091 -0.48249802 0.41991234 -0.49918887 -0.34609938 0.18608019 -0.6993702 0.45396936 0.11706199 -0.463658 0.21988183 -0.59218293 0.114245035 0.04238269 0.0486461 -0.54697526 0.33189547 -0.19786264 0.7330451 0.32788134 -0.15783803 -0.30489916 0.0719721 0.08434913 0.19766927 0.064530045 -0.032813165 -0.96439004 0.38661718 -0.2504051 0.64366657 -0.451552 -0.08226969 -0.51735127 -0.10240069 0.3139238 -0.4661846 -0.07580432 -0.025523558 -0.3432131 -0.13243909 -0.4720483 -0.39130977 0.0029686047 0.7727126 0.2641384 -0.11527031 -0.382896
然 0.18315162 0.38526642 0.20849714 1.0079528 -0.30650738 0.63206416 0.3795314 0.5079639 -0.17665663 0.631707 0.11085405 -0.4510599 -0.26560575 0.17080733 0.41391397 0.2579095 -0.14431295 -0.6815597 -0.726035 -0.34432834 0.40307805 -0.45526987 -0.031222187 -0.04897755 0.48142838 0.80847466 0.10942282 -0.096453995 0.18044189 0.7250862 0.23744638 0.02313172 -0.21778889 0.15688875 0.013951208 -0.024588458 0.2566217 -0.2368506 -0.11509876 -0.30552906 0.58379835 0.10106987 -0.34039563 0.18177815 0.845137 0.2339259 -0.40945694 0.5586708 -0.022371288 -0.14452167 -0.18733336 0.020005213 -0.43446916 0.23438844 -0.37390625 -0.10626963 -0.037423633 0.299247 -0.60631895 -0.37578487 0.3293451 -0.12099109 -0.43686795 -0.76235974 0.018052708 0.015654704 0.66724724 0.5134236 -0.13377428 0.17608163 0.14317124 0.022851743 -0.05721291 1.0823195 0.22822124 0.035854716 -0.4163815 -0.069645666 -0.9739139 -0.52819824 -0.11004958 -0.026976429 0.39771634 -0.7764997 0.27656472 0.4580097 0.5446999 0.14282699 0.59325325 -0.043215573 -0.08443213 -0.26117343 1.2554089 -0.043968085 0.040799238 0.4725361 -0.20955454 0.31648305 0.03423066 -0.51654357
《 -0.45117798 0.18089454 -0.8472929 1.72226 -0.32835147 0.23681097 0.14568374 0.25218958 -0.3476233 0.032854054 0.0021573687 0.37145436 -0.9667002 0.43056992 0.42659897 0.1932172 0.77887887 0.23047292 -0.28546363 0.33582515 0.77338207 0.10421034 -0.082166746 0.7966975 -0.05375304 -0.5392579 -0.17930643 0.5966906 0.57220477 0.65675795 0.015338475 0.86291295 0.39028662 0.31243786 -0.11683439 0.30657685 -0.5230093 0.12277669 -0.47560385 0.5819542 -0.07323955 -0.026930364 -0.17022336 0.042327188 0.7701842 0.010554503 1.3388145 0.5174005 -0.529803 0.26464564 0.78156763 0.15777655 -0.018689156 -0.10057295 -0.3403812 0.483825 -0.31712347 -0.8549013 -0.34050623 -0.6162895 1.4724355 0.7582066 -0.21859191 -0.69402146 0.06719157 0.4380123 -0.31673187 0.94011486 -1.0338356 -0.19818653 0.07536789 0.08131702 -0.22654651 0.114525996 -0.20335868 0.069065966 -0.91737425 0.48655593 0.4107548 -1.0108321 0.2571433 -0.37245342 0.14679286 0.105054736 -0.41039523 -0.77278656 0.09139815 0.13251053 -0.0362695 1.6005174 0.58746696 0.42846987 1.1854714 0.1878348 -0.46474084 0.34461278 -0.43279094 0.46633878 -0.21395174 -0.045254886
》 0.12484088 0.96111774 -0.12503585 1.026168 0.55005586 0.30341896 0.22712311 0.525876 -0.6883748 0.960483 0.28795207 1.3614522 -0.4247446 0.2272636 -0.10338648 -0.05718689 0.009603425 -0.10376857 0.5882132 -0.16027549 -0.6720385 0.51307476 0.35098994 -0.15909404 0.28935218 -0.5631226 -0.064694144 -0.3008697 0.4481419 -0.11487178 0.5714901 0.28257453 -0.09031406 0.062174324 0.3078015 -0.028201686 -0.075768985 -0.3207341 -0.26056457 0.2963199 0.41947153 -0.17246258 0.22991362 0.17557491 -0.04294349 0.11519033 -0.15086673 -0.8086219 -0.15615834 -0.113674834 0.206124 -0.065607525 0.15697446 -0.09958608 0.18560241 -0.37815633 -0.62274516 -0.13875726 -0.6382805 -0.38102198 0.33598113 0.6742682 -0.70463836 -0.5594013 -0.52095723 -0.08192694 -0.33290055 -0.14044835 -0.38526425 0.31662413 0.4411965 0.39565676 0.029555151 0.27276072 -0.04531637 0.20732296 -0.25088423 0.026119685 -0.36928773 0.13184467 -0.041002333 -0.19991781 0.67699486 -0.24343835 -0.71044 -0.710492 0.03491146 0.16280444 -0.2678542 0.35177597 0.21186057 0.3892558 0.45617914 0.17029716 0.046213444 0.9491998 0.36078072 0.39962503 -0.30702585 -0.37012506
