1352 100
， 0.058327146 -0.34285218 0.027807713 0.081691965 0.08664075 -0.1496749 -0.18443765 0.32985038 0.10312525 0.27552292 -0.2121304 0.2864083 0.035755266 -0.25220874 -0.04128858 0.18738824 0.05417583 -0.1628025 0.16846083 0.036109556 0.9216509 0.2667195 0.086353935 0.25058168 0.08043925 0.38192654 0.15439697 -0.27990726 0.10926374 0.17280178 -0.38378838 0.0035115816 -0.072714865 -0.07527046 0.2854162 0.061749775 -0.11039717 -0.1463578 0.20856172 0.22737752 0.025156857 0.051476326 -0.0595134 -0.35879445 0.116600454 -0.09612019 -0.026730059 0.18250866 0.27131718 0.16130313 -0.20624323 0.075043246 -0.020272575 -0.2838509 0.23824544 0.115313925 0.04170393 -0.08398158 0.28076226 -0.07289254 0.3766724 0.11979808 -0.18485305 0.04175872 -0.053110927 -0.068012886 -0.10451938 -0.18159643 -0.008136513 0.07298162 -0.1683955 -0.13808623 0.13633522 -0.059102543 -0.28554836 -0.015246963 0.21289198 0.113337666 0.113349 0.045486562 -0.34875 -0.22116272 -0.00026679196 -0.14749418 0.13208212 0.024378192 0.3144859 0.37649062 0.14167473 -0.099848546 0.24251129 0.019601591 0.03831314 -0.023019454 -0.111410975 -0.05624093 0.20434368 -0.1943506 -0.07390876 0.18613335
子 0.20199361 -0.10864976 -0.18856266 0.15603343 -0.052170437 -0.15328601 -1.1740818 -0.10752239 -0.011982718 0.099416584 -0.256687 0.17863712 0.030742817 -0.22082348 0.22601634 0.28679678 0.2568406 -0.040120956 -0.2823587 -0.005361857 -0.27148136 -0.20355603 0.14134648 -0.041342735 -0.08904572 0.007272426 -0.1251235 0.058388304 0.11201142 0.32079193 0.11745216 0.04825172 0.24207771 0.002387771 0.2116846 0.091761574 0.25302103 0.2245381 -0.24855414 -0.043805905 -0.2281746 0.0019887143 -0.085085176 -0.2533172 0.113573566 -0.006278564 0.15000789 -0.13567892 0.18141681 0.03679689 -0.072379135 -0.13946193 -0.09906086 0.011518497 0.15660146 0.16973323 0.039048005 -0.18429418 0.021138487 0.034326863 -0.26663277 0.11922114 0.16636993 0.042663753 -0.0963668 0.08922362 0.018794354 0.15143688 -0.09620222 0.011397337 0.08856259 -0.004185345 -0.09044561 0.062859036 0.40723106 0.13106865 -0.03262297 -0.1709398 0.22023255 0.059203632 -0.011101635 0.19640142 -0.13479437 -0.006201414 -0.034410253 -0.039476264 0.19672292 0.27888674 0.098673016 0.03778711 0.07988021 0.09492176 -0.23459332 -0.011275475 -0.15005963 0.0038810386 0.061057523 -0.19593847 -0.052341286 -0.12209725
。 0.18306841 -0.1564699 -0.010605425 0.4924944 -0.12696709 -0.11728321 -0.6200104 0.1426543 0.24647713 0.1936731 -0.35188803 -0.09444896 -0.2172653 -0.15415372 0.17393266 0.14165506 0.1947472 0.1293213 -0.14264461 0.16725443 0.2745166 0.48814464 0.09093704 -0.14601876 0.21886712 -0.020466723 0.083020434 -0.20149323 -0.12456785 -0.023198728 -0.042641222 0.018794123 -0.0043816725 0.077224776 0.27016854 0.13353573 0.12904802 -0.11694239 -0.14363673 -0.14195232 0.26779506 0.023833578 -0.022337958 -0.0437615 -0.009435768 0.030559737 0.12220523 0.02970036 0.00960391 0.08677865 -0.36873096 -0.029635705 0.13043499 -0.36565506 -0.09994813 0.2846429 -0.49994436 -0.12879741 0.099931315 0.22804576 -0.048972566 0.29812884 -0.2930468 0.31361735 0.13464734 0.07961409 0.035420887 -0.14410436 0.013456618 0.059045978 -0.3624996 -0.101345226 -0.00486111 0.12045846 0.1058829 0.16649273 0.032050587 -0.052751936 -0.037848596 -0.21724162 -0.21954171 0.2560558 0.013358025 0.15338953 -0.34871012 0.053125165 0.163387 -0.1766785 0.189043 -0.05021274 0.22293529 0.23495325 0.04349399 0.13186562 0.18742186 0.015534995 -0.2250008 0.11009818 0.12972473 -0.064924926
： -0.0975471 -0.043045253 -0.17491461 -0.08320892 -0.29366183 -0.097828805 -1.0393239 0.2860152 -0.19726065 0.102221325 0.13743488 0.051591218 0.04676482 -0.033764128 0.237012 0.3254274 -0.013448694 -0.065101326 0.06585481 -0.04264163 -0.20210575 0.13109294 0.15618412 -0.0749475 -0.19043751 -0.029209582 0.010555352 -0.2701681 0.25058925 0.011022645 -0.008307761 0.045295715 0.26666716 -0.059968267 0.1355952 0.1210742 -0.20496856 0.09816256 -0.06707543 0.2068973 -0.0035747576 -0.117314115 -0.13179608 -0.08006452 -0.22174163 -0.07171664 -0.009770192 -0.059187602 0.26035464 0.030217413 -0.15961154 0.23444556 0.15353219 0.14355244 0.08585354 -0.061543655 -0.048912954 -0.019364407 -0.04416116 -0.043987095 -0.15602429 -0.04861459 -0.08517994 0.20028298 0.03332204 -0.24390003 0.31122544 -0.008222437 0.2507384 0.116772816 -0.009479126 -0.18870856 -0.26899144 0.077941954 -0.08437887 -0.03450342 0.060257863 -0.023390949 0.105416246 0.0023643847 0.035620447 0.2931385 0.19718388 -0.15678072 -0.32113054 -0.0037370129 0.34612873 0.08256267 0.10012845 0.36794952 0.13650124 -0.19529334 -0.11901329 -0.16495241 0.006590648 -0.08982377 0.07432934 0.22311492 -0.047235865 0.032039113
曰 -0.094022684 -0.19877167 -0.2303697 0.048323102 -0.17263223 0.006526819 -1.238817 0.10538777 -0.14090788 -0.017958429 -0.13955699 0.14407809 0.117440484 0.04498261 0.020831972 0.042947605 0.18669482 -0.11308398 -0.027161727 0.06886518 -0.34512854 -0.023935784 -0.123281725 -0.14145698 -0.06410109 -0.048861425 -0.14680688 -0.08984441 0.080867015 -0.07469118 0.118826754 0.033534724 0.056749426 -0.24012129 0.35652286 0.17924206 -0.2431451 -0.1414272 -0.10769115 0.30815658 -0.025508841 0.16928922 -0.1486621 -0.101604044 0.064727426 0.1588478 -0.04677172 -0.07520109 0.29727894 0.17072688 -0.022346215 0.09774735 0.17859228 0.06277734 0.22246681 0.017190164 -0.11332057 -0.004879295 -0.24071085 0.036179185 -0.14605565 -0.022039859 -0.052677527 -0.04904989 -0.13775626 -0.08805999 0.05168154 0.05013325 -0.15582417 0.077076465 0.21061917 0.1435435 -0.16463684 0.2500774 0.12454568 0.08005728 -0.09772771 0.15047517 0.04694213 0.035434734 0.033646107 0.2665239 -0.09928721 -0.06230604 -0.10624904 -0.0058489665 0.041937977 0.006558325 0.028094813 -0.10861703 0.30469057 0.0762827 -0.12154676 0.0671828 0.1505668 -0.13246131 -0.025214465 0.13428198 0.054914348 0.13750586
之 -0.028010307 -0.036527768 -0.00028660975 0.08960417 -0.21543676 -0.06503664 -0.43399963 -0.107366875 -0.056026034 0.34304148 0.011840042 0.2397544 0.06258408 -0.23799552 0.14368843 -0.06600496 0.09297047 0.15401329 -0.023071488 0.007224373 0.5339536 -0.007571865 0.08870126 0.0062663904 0.060643863 0.15805149 -0.11575314 -0.07660179 0.3880312 -0.17191829 -0.055811774 -0.37868726 -0.037980232 -0.06722115 -0.19628616 0.031183446 -0.16176112 -0.041234788 -0.13697751 -0.0869598 -0.19195963 -0.13310494 -0.1911027 -0.22826791 0.20201375 -0.13793334 -0.09844276 0.09410435 0.06544958 0.2367094 -0.33130848 -0.1355306 0.085000895 -0.08441956 0.276668 0.19512437 0.22609347 0.09079192 -0.30372408 -0.021581281 -0.08270629 -0.059013095 -0.10536992 -0.09020444 -0.14706652 -0.10894254 0.07367049 0.21723904 -0.0993195 0.028869774 -0.24543418 0.21801575 -0.078212805 -0.74662805 0.017976357 0.18194726 -0.16395727 0.1241971 0.01532353 -0.0852916 0.019426953 0.025189634 0.12121787 -0.32138532 -0.3158553 -0.19528893 0.07342013 -0.18036498 0.09099057 0.12777159 0.28111893 0.059326492 -0.09695096 0.29634276 -0.03310665 0.19898815 -0.14595455 0.002862879 -0.025817221 -0.017932544
不 0.17219868 -0.14948227 -0.12754533 -0.1433675 -0.16272973 -0.5472627 -0.47529995 -0.2015531 0.07008104 0.14637204 0.09958128 0.32664618 -0.13130802 0.1650038 0.066197485 -0.3518797 0.19531801 -0.017162453 0.32075897 -0.23447223 0.52578163 0.24896124 0.06867378 -0.037281524 0.07802182 -0.15149784 0.12733263 -0.012742386 0.35359874 0.028563049 -0.15506999 -0.3305105 -0.07501572 -0.20485559 0.19275953 -0.26264495 -0.09638456 0.0032104142 -0.1747956 0.24920051 -0.072822 0.070646256 -0.0105378 -0.056569804 0.03361895 -0.0008606928 0.12949759 0.031233475 -0.077233575 0.0069097085 0.069668 -0.08369532 0.10900881 -0.2645116 -0.06697322 0.0035898571 0.18001343 0.090762235 0.14333555 0.05385454 0.1557415 0.08663132 0.013020167 -0.07551829 0.014823548 0.03602155 0.28417754 -0.09496037 -0.0465039 0.30853012 0.12363035 -0.06521408 -0.004029187 -0.07474971 -0.07316895 0.23020577 -0.17646578 0.20834354 0.113057144 -0.021928895 0.12987632 0.004556886 -0.17348936 0.14285278 -0.2851662 -0.20025423 0.05626613 -0.10303465 -0.04489197 -0.28711927 -0.019381043 -0.2225857 -0.04322707 -0.1471949 0.021615185 0.12421207 0.18837984 0.0017333212 -0.06485229 0.18930893
也 -0.1658231 -0.22367023 0.07094495 0.022191444 -0.171739 -0.032851882 -0.47080532 0.10940673 -0.19440527 -0.019357359 0.21645589 0.28452095 0.11358907 0.040726762 0.10243267 -0.07854559 0.050536737 -0.1624078 0.05609795 -0.15722221 0.36578766 0.019081518 -0.037777036 0.00093811844 0.16207983 -0.089556 0.048454296 0.11637687 0.008507669 0.05736807 0.08717862 -0.30178002 0.10477111 0.17252089 0.23284836 -0.009681259 -0.26223946 0.14593045 -0.334348 0.19083299 0.045266204 -0.04782383 0.42163533 -0.22269054 -0.19433396 -0.24776988 -0.04463743 0.086914815 -0.09942324 0.17644602 -0.26336282 0.22971186 0.27371088 -0.118709095 -0.0036086277 0.19720016 -0.20652275 -0.0971576 0.120708965 -0.04752337 -0.2558017 0.3031293 -0.037260246 0.035334527 -0.059291318 -0.0532234 0.017937833 -0.10527837 -0.2329354 -0.22407702 0.05288611 -0.120027736 0.14656092 -0.325716 0.26036882 0.2287223 -0.08188004 0.09316966 -0.11998315 0.100011885 -0.18240093 -0.12062975 -0.11993472 -0.27306038 -0.26354313 -0.037898872 0.14636761 -0.403909 0.14926831 -0.07050757 -0.23153038 0.1107002 -0.17860483 0.082446344 0.13385838 -0.17313585 -0.119853 -0.2038933 -0.14559014 -0.16566302
而 0.15632434 -0.1844129 -0.056162156 0.119949564 -0.19160244 0.1727681 -0.4365899 -0.017536689 -0.045662653 -0.03118255 -0.04765241 -0.09838079 -0.35520652 0.047535002 0.24506506 0.07563274 0.14877786 0.060996227 -0.10720434 -0.054414786 0.60400486 0.0006561764 0.34043488 0.29256216 0.09448368 -0.110795856 -0.111506574 0.04833548 -0.07636651 -0.14920215 0.12459969 -0.08679132 0.019662067 -0.1609591 0.23097432 -0.18598683 -0.26960883 0.101902336 -0.36112544 0.3921884 -0.07315276 0.17058676 -0.0043114917 -0.084167495 -0.060326688 -0.14206225 -0.019409928 0.25766444 -0.2623182 0.06539145 -0.24280897 -0.17591666 0.27499697 0.38823095 -0.08552619 0.16411607 0.12386388 0.18230054 -0.0056403372 0.051919464 -0.18224913 -0.0021330419 0.052183613 -0.00041550596 0.21802749 -0.043526366 -0.053669162 -0.27066508 -0.0017075196 0.024635252 0.019436086 -0.02762035 0.2545163 -0.14393084 -0.06625498 0.2060564 -0.2297665 0.13439819 -0.08739054 -0.38075426 0.04018043 -0.07611183 0.077605516 0.20188606 0.0717414 -0.4642983 -0.23708957 0.12692514 0.058842476 -0.0710438 -0.10802376 -0.16596727 -0.20803703 -0.24964277 -0.06689906 -0.1854981 0.19168344 -0.1508435 -0.001294429 0.056616504
？ -0.021594828 0.07188924 -0.093380176 0.023267295 -0.21589763 0.06596539 -0.6527689 0.084997974 -0.14291172 0.047434416 -0.26809198 0.12361092 -0.34574515 -0.1391166 -0.040926848 -0.16160433 -0.14145522 0.31570205 -0.49064332 0.13312943 -0.021291299 -0.26624072 0.035015974 0.054435056 0.15428106 -0.29912814 -0.060329758 -0.00012966276 0.17956083 -0.14601043 -0.22381285 0.18710531 0.034496527 -0.027307242 0.31639498 -0.23596103 -0.122739874 0.051216282 0.08386017 -0.022794131 0.033967346 -0.17194717 -0.16038549 -0.53371817 0.10933549 0.0009014229 0.2139648 0.09953921 0.009542948 -0.39499474 0.022877552 -0.12585203 0.25064513 -0.27704534 -0.11192071 -0.11741885 -0.01725227 -0.026604522 0.21519938 -0.12816994 0.15597351 -0.04635497 -0.30441228 -0.1680438 0.13863406 0.035978593 0.1882043 -0.14601724 -0.048447985 0.109973684 0.044716734 -0.26776654 0.2185705 -0.11389139 0.18969502 -0.25061563 -0.11408551 0.3212951 -0.0514884 0.019148389 0.02313212 0.07980453 -0.31132078 0.005823997 0.07964926 -0.080791265 -0.29519 -0.22269487 0.08523931 0.1376533 0.16583373 -0.17192584 -0.37127915 0.052965503 -0.09837425 -0.16327842 0.37246707 -0.008655842 -0.3692101 0.17533435
其 -0.32711425 -0.13913904 -0.017878465 -0.12255514 -0.3167613 -0.20031455 -0.34330818 0.041802853 -0.02658907 0.060599416 0.13648787 0.208676 0.14045049 0.008524238 -0.095517464 0.28658262 0.08487764 -0.05765753 -0.23318334 -0.12898655 0.54781526 0.040298186 -0.0775836 0.29509586 0.19140446 -0.012913778 0.011596799 0.21023907 -0.08986872 0.12828355 0.08479809 -0.32875073 -0.255442 -0.08109135 0.07627268 -0.3376694 -0.13566783 -0.17107044 0.12101412 0.27990016 -0.025248503 -0.06634312 0.3109838 0.053071816 0.15367545 -0.009006206 0.24440727 0.20318988 0.3094794 -0.25036353 0.09876656 -0.13010943 -0.06988466 0.034063306 0.2888424 0.243929 0.051031034 -0.007600177 -0.092191204 -0.21995082 0.09501041 0.20654157 -0.26207507 0.19812769 0.2731252 0.23621164 -0.1107213 -0.094063655 -0.10351493 0.25141013 0.04376431 0.23079212 0.17040074 -0.03513844 0.21645002 -0.024951246 0.10695815 0.02044255 -0.2163245 0.24425308 -0.12415835 -0.13054405 -0.113038436 -0.13477463 -0.03773693 -0.16875724 -0.12830417 0.06153572 0.101084314 -0.0632572 -0.17291331 -0.16409603 0.064359635 -0.020045312 -0.020273384 -0.15971865 -0.12953618 0.12374516 0.13337222 -0.10221946
人 -0.13184018 -0.013481358 -0.16109641 0.13271463 0.015942454 0.17609942 -0.43348336 0.219747 -0.07385561 -0.09555181 0.017484838 0.30711755 -0.04651528 0.16081935 0.1063809 -0.2299562 -0.0014650004 0.14201401 0.007180022 -0.007899465 0.38280934 -0.14919227 0.23371638 0.13765648 0.07923826 0.29122344 -0.050107427 0.1677587 -0.13037921 0.020848777 0.05632941 -0.11847653 -0.10000209 -0.060708188 0.045867592 0.02894742 -0.062558204 -0.53427553 -0.038952142 0.020211354 -0.102752246 -0.093971714 -0.24327767 -0.1293487 -0.064047724 -0.02076197 0.08966394 -0.18598051 -0.102043755 0.10435077 0.12590429 -0.13536324 0.15903647 -0.035904568 0.28096434 0.14060655 0.05773942 -0.017928727 0.24977002 0.15401407 -0.057707537 0.08788578 -0.35185072 0.093391545 -0.13829489 0.09162939 0.20845842 -0.045186207 -0.067361504 -0.046849504 0.06883424 0.14568047 -0.19950289 0.1224726 -0.077440195 -0.31277487 -0.10560821 -0.09678881 0.26036853 0.080076344 -0.13169041 -0.29341948 0.12944643 -0.29729477 0.117048874 -0.07648241 -0.052463826 0.2278599 0.03068726 0.18687095 0.21807332 0.070862845 -0.37432763 0.21652587 0.31643608 -0.113280855 -0.298208 -0.23473434 -0.26743615 -0.06082565
者 0.08490685 -0.0066315583 -0.007144984 0.0749287 0.10932368 -0.10337922 -0.26747888 -0.068294965 -0.0472916 0.22195831 -0.22263445 0.038919874 0.053067025 0.15606871 0.30287293 0.024877502 -0.19469891 -0.039479345 -0.059041124 0.13323425 0.38631764 -0.26756507 0.062171258 -0.16185765 0.07463216 -0.3435099 -0.37032017 0.020789418 -0.14480822 0.056878395 -0.04137224 0.039302222 0.18867458 0.020516098 0.09148151 -0.12537253 0.12907802 0.05586859 -0.13862127 -0.19539821 0.0011894312 0.03737791 0.40051803 0.005768135 -0.17065986 -0.12751213 -0.092615634 0.318539 0.17587717 -0.017431304 -0.20763841 -0.03767949 0.30486384 0.064899325 -0.12740791 0.2522787 0.15464137 0.07115931 0.25911218 0.14503947 -0.41081053 0.16186665 -0.36239812 -0.07565041 -0.21531375 0.09940983 0.20308961 0.03793641 -0.24984446 0.06220495 0.16029184 -0.18168417 0.1642023 0.19124006 -0.047583926 0.005677445 -0.18230198 0.25884542 -0.060412914 0.08768274 -0.19105564 -0.10637705 0.18182941 -0.20944907 -0.0047499193 0.27880183 -0.23937616 0.17163157 -0.3473126 0.0030700173 0.26679227 -0.12002596 -0.3352741 0.27317125 -0.11115562 0.052862626 0.31805235 0.095829755 0.14843243 -0.013878137
以 0.26992977 -0.08578615 -0.21464872 0.112888135 -0.059957046 -0.07106415 -0.43820176 0.21999845 0.3685825 -0.18924183 -0.20305094 -0.044149473 -0.30370533 0.066336416 0.023655975 0.21085101 -0.14715579 0.06047092 -0.14060809 0.17487776 0.38904953 0.33321053 -0.01163381 -0.07800568 0.18798321 -0.22627005 -0.31112754 -0.085699506 -0.27680486 0.12694845 0.074714035 -0.09966426 0.03833194 0.20074148 0.3410301 0.19838291 -0.14191394 -0.050949864 0.112803966 0.21757773 -0.42423147 0.027270125 0.15135992 -0.36881256 -0.011014983 -0.19374178 -0.42776498 -0.20498882 0.17000073 0.027518265 0.094622664 -0.17347778 -0.3158534 -0.046964467 -0.20855185 0.10277672 -0.12998156 0.4535404 0.06334452 -0.32405606 0.14852087 0.11373833 0.015767569 0.17926374 0.066987514 0.026199274 0.02963431 0.327018 0.08170949 -0.067287914 -0.025889073 -0.11558348 -0.20510031 0.07590082 0.19091496 0.11417991 -0.30184236 0.01655606 0.069365345 -0.083875425 0.19006716 -0.19994465 0.19946785 -0.057703175 -0.20197223 0.103418805 0.046620563 0.15205133 -0.1454297 0.3423847 -0.09378755 -0.13826752 0.019578062 -0.07257011 -0.017907253 -0.21481007 -0.1850742 -0.01892646 0.095219456 0.12376476
有 -0.16623424 0.1064922 -0.30426297 -0.03443227 -0.046962515 -0.19932735 -0.34360477 -0.061858036 -0.005757878 0.15163308 0.15410095 -0.008338962 0.13177912 -0.17750913 0.001018645 0.09890098 0.17822255 -0.17330498 0.011689876 0.03741433 0.15190476 -0.07326996 0.04013267 0.098837234 0.059481975 -0.15080367 -0.07968215 -0.4115706 -0.04646671 0.2150477 -0.097230695 -0.56860304 -0.19231577 0.20762832 0.0946709 0.21490185 0.10739573 -0.2599866 0.10021559 -0.1981226 0.13938752 0.09643989 -0.30742744 -0.20265447 -0.14994587 -0.1737385 -0.41346893 0.07080073 0.0013931054 0.037697505 0.23373917 0.020064797 -0.13619673 -0.16114771 0.21874718 0.18927318 -0.23983926 -0.18451667 0.07466019 0.10383779 -0.014097998 0.09029842 -0.17171247 -0.3767098 0.23225293 -0.29864132 0.023699049 0.022984311 -0.13748764 -0.20871477 0.009391733 -0.14754382 0.04348862 0.19137636 -0.13126476 -0.16543953 -0.35874912 0.32847965 -0.15538652 -0.11812822 0.31994572 0.1263422 0.33659923 -0.15486728 -0.059217937 -0.13661622 -0.0027245274 0.20056117 -0.011439097 0.17322382 -0.17953368 0.14627138 -0.27667663 -0.0019346904 -0.13412102 0.0132263545 0.093216546 0.23120719 -0.009033259 -0.13660726
于 -0.06159177 -0.09917858 -0.41535583 0.07152172 0.03788071 0.2439 -0.34051752 -0.11797036 0.23566104 0.08311909 -0.07479128 -0.099144414 -0.03887394 -0.08395346 -0.107903734 -0.038312428 0.029967597 0.14714801 0.033770602 0.03640066 0.19446217 0.02085981 -0.02493857 0.086225234 -0.14825077 0.051104657 -0.051529534 -0.21340781 0.055543497 0.19602215 0.0521036 0.005753397 -0.2856612 -0.27411586 0.09517446 0.16329838 -0.06255496 -0.4245745 -0.08104262 -0.02630017 -0.027961586 0.16960233 -0.08122879 -0.14942612 -0.11619123 0.007864019 -0.26292866 0.02628256 -0.20669965 0.24427156 -0.15288281 -0.09134397 0.1890114 0.1412224 0.19798677 0.17143741 -0.123178005 0.108184814 -0.12674463 0.24383545 -0.20745349 -0.1389201 -0.26598796 -0.20400584 -0.10547676 0.068477124 0.14041997 -0.049816296 0.537613 0.013971078 -0.13589603 -0.10435086 0.092612386 -0.051337652 0.05351183 0.32575992 0.34915495 0.3178791 0.093221255 0.23932837 -0.3162312 -0.28058058 0.011516938 -0.15022445 0.10994847 0.21487857 0.25057602 0.08923587 0.2071587 -0.14647597 -0.22219354 -0.12314849 0.08049643 -0.4432353 -0.20099473 -0.2118237 0.013293231 0.38298056 -0.10229421 0.03763989
矣 0.037409883 0.06465154 0.0047950367 0.2758469 0.02085809 -0.063733935 -0.8315462 0.27164164 -0.22323978 -0.021134343 -0.21694131 0.0608329 -0.09102821 0.10027595 -0.15023163 0.14174466 0.06300796 0.28064406 0.015670696 -0.16998935 0.1810924 -0.22272994 -0.4866295 0.15816574 -0.10409712 -0.35085413 0.057796247 0.027248662 -0.044057388 0.19646911 0.42045113 0.13251677 -0.033591796 -0.46370077 0.0889948 0.11533002 -0.22741649 -0.14677894 -0.06863975 0.11992635 -0.018412268 -0.18119614 -0.021091064 0.13916822 -0.03854689 -0.03205092 -0.46259466 -0.23152651 0.05473788 -0.17864026 -0.018857637 -0.06958354 -0.38024637 0.26968393 -0.13081211 -0.09527801 0.049748562 -0.084579214 0.07987347 0.07998958 0.0023938604 0.18765907 -0.011537207 0.03441386 0.041698128 -0.122858845 -0.36921477 -0.16964118 -0.09433832 0.15877736 -0.24004973 -0.05271392 -0.03211474 0.18306483 -0.043368578 0.09905964 -0.16300936 0.00952093 -0.27009284 0.26667216 -0.19909969 -0.3212146 -0.035599735 -0.011783057 -0.1118695 -0.0781098 0.10358984 -0.18953295 -0.004053889 -0.15827756 0.09983472 0.1923939 -0.015185682 0.15943998 -0.28753978 0.2247274 -0.14833318 -0.0900789 0.0021844693 -0.15700074
为 0.12911175 0.107080266 0.04404031 -0.1011102 -0.007624198 0.10392015 -0.51750183 -0.030433534 -0.118109636 -0.16451624 0.38100654 0.017944459 -0.17483297 0.05634082 -0.069114074 -0.11196805 -0.16206157 -0.06966114 0.21834037 0.09683035 0.04153605 0.26879323 0.23414746 -0.29055795 0.11271909 -0.0853217 0.1106288 0.028208027 0.12343291 0.44108573 0.07015821 -0.058005482 -0.18752712 0.17651561 0.20119537 -0.08448464 -0.14637099 -0.017600596 0.13950576 -0.16297756 -0.20642564 -0.2657801 -0.30043256 -0.2278344 0.05074052 -0.20549816 0.14359778 -0.24822712 0.14352067 0.037418485 0.34076038 -0.23432595 0.14273325 -0.09782473 -0.27483928 -0.041026335 -0.06337298 0.26558268 -0.2790579 -0.013626612 -0.07731445 -0.10048748 0.019784033 -0.27682102 0.089032345 -0.069471724 0.07289402 -0.028923405 -0.40226173 0.08002245 0.2725344 -0.14878024 0.07378991 -0.09398805 0.106586196 0.16653864 0.10037442 0.20356199 -0.14022128 0.42791173 -0.2557747 0.094005845 0.41311193 -0.050851807 0.10050855 0.10284908 -0.037089527 0.22591074 0.12631696 0.08070289 -0.049131904 0.21818097 0.10973349 0.08399222 0.34030688 0.09115969 0.19971356 -0.022050157 0.30275413 -0.2552115
君 0.27967966 -0.0020158254 -0.027273316 -0.010068755 -0.26673633 0.022742953 -0.88787687 -0.1006179 0.24016479 0.085988335 0.20696083 0.25457785 0.022814676 0.048840377 -0.033818774 0.15714121 -0.05462634 -0.052704982 0.060939416 0.010347835 0.06368773 0.077984884 0.06234011 -0.035790335 0.24949703 -0.17578678 0.08066424 0.07780947 -0.38797385 -0.05703619 -0.09440703 -0.27343714 -0.09635455 -0.21461752 0.49297172 -0.08791558 0.24420446 0.35114387 0.058789168 0.034239795 -0.044173356 0.05119755 -0.0009961193 0.32125404 -0.11953536 -0.352974 0.0008831108 -0.18520522 -0.33708596 0.034041997 -0.06912803 -0.083188 0.3569778 -0.13122837 0.21545348 -0.06970095 0.012665253 0.017959466 0.08708049 -0.071368895 0.17927025 0.018700404 -0.044791754 0.0750319 0.066933915 -0.13007675 -0.030307062 0.20216861 -0.18204498 0.074448735 -0.14921474 0.02113509 -0.039908208 0.16656849 -0.0015532023 -0.16062748 -0.48887914 0.005415286 0.018440755 -0.006376596 0.008176317 0.22985047 -0.04394212 -0.43500724 0.4548642 0.31784108 0.15369862 -0.07574777 -0.1667497 0.09512996 -0.038922217 0.25679293 0.16665101 0.23214684 -0.08876376 0.02052815 -0.20526858 0.21477886 -0.21076016 -0.10289315
乎 0.17358251 -0.19778755 0.14387475 0.029949952 -0.16752005 -0.010559508 -0.79604113 0.13014698 -0.45803916 0.087094605 -0.01492163 0.13224997 -0.17855588 0.0556773 -0.19906932 0.31899709 0.22338358 0.26014876 -0.07429259 -0.034750175 0.030323753 0.14243999 0.39249814 -0.06440953 -0.06561199 0.2853838 -0.033189863 0.013600913 0.0937007 0.13265161 0.47727823 -0.08776213 -0.049070094 0.40069205 0.31832895 -0.17951754 -0.23863542 -0.103938006 -0.2786224 -0.26747632 0.11359261 -0.0052349865 0.014288195 -0.11558735 0.16579853 0.016898764 -0.18047857 -0.06903943 -0.10016634 0.4845161 0.3576818 0.20878732 -0.16797622 0.087171026 -0.14289528 -0.23636724 0.20104124 0.0039570713 0.3561961 -0.1689683 -0.078623615 0.09412589 -0.52693045 0.08849541 0.20318818 0.015842043 0.10191308 0.22692147 0.0645084 -0.05518706 0.17559598 0.32573804 0.21788807 0.119602084 -0.051668573 -0.10865076 -0.07489781 -0.022078326 0.042338356 0.06586323 -0.039572906 -0.16496165 -0.44516468 -0.076479994 -0.09019584 0.09980815 -0.0810857 -0.17512716 0.19477047 0.070316285 0.3451452 0.17106839 0.1454321 0.123180844 -0.01298473 -0.15993617 0.27620825 -0.14723387 -0.11640744 0.11353267
可 0.33372536 -0.102818385 -0.1336284 -0.07457026 -0.1624105 -0.3140083 -0.37421075 -0.21996516 -0.12311904 -0.0016800156 -0.06249775 0.16938476 0.31690234 0.22247946 -0.055568475 -0.039056916 -0.1516822 0.1859805 0.15275022 -0.17707247 0.59756863 0.21314268 0.056500427 0.006662878 -0.012830511 -0.014179366 -0.2586076 0.045466892 -0.05244331 -0.4468556 0.008884759 0.0052216602 0.107227124 0.019461721 0.025322204 0.05438126 -0.03981692 -0.06486829 0.1916629 0.3253246 0.019681297 -0.31230447 -0.3686075 0.25584668 0.029673368 -0.08218167 -0.41070664 -0.124797404 -0.032418996 -0.06793223 -0.160815 -0.09975861 0.10733207 -0.26247948 -0.39392006 -0.17237896 -0.055801447 -0.25179118 -0.10861958 -0.14520603 -0.16808566 0.11171353 0.008428184 0.15399511 0.023593906 0.068742126 0.23297332 0.14682819 -0.050197802 0.29199216 -0.17898679 -0.27659068 0.051757347 -0.15545186 0.023853838 0.07163431 0.07296281 0.1510267 -0.22961281 -0.24644412 -0.09608859 -0.24039865 0.08403839 0.3341483 0.11511344 -0.34297648 -0.2819505 -0.022085747 0.07146796 -0.35274073 0.3256299 -0.2683285 -0.16943084 -0.0018756483 -0.13981771 -0.2514469 0.05222144 -0.14410336 -0.0018657872 -0.054012246
如 -0.25572625 -0.076545924 0.007251362 -0.2542514 -0.094130576 0.092360936 -0.7169281 -0.046234995 0.17525609 1.3162586e-05 -0.06668179 -0.07519845 -0.15345904 -0.057990815 -0.0992912 -0.020076605 -0.0911998 -0.016717097 0.31225717 -0.2377828 0.36825338 -0.2941875 -0.10133838 0.16241558 0.3891905 0.36103812 0.12634082 -0.093416564 0.08175926 -0.070235856 -0.14774786 0.26315984 0.15395065 -0.17498776 -0.009801703 0.11227187 -0.10750689 -0.049045254 0.0343481 0.09308192 0.2740414 -0.2305878 0.38493583 -0.19570321 -0.015535267 0.08335915 -0.058270764 0.15365791 0.026390238 -0.24290447 0.33945945 -0.061683472 -0.24242364 -0.00589497 -0.17225063 0.049731597 0.3411854 -0.13773745 -0.30140674 -0.10062639 -0.3059559 0.3166321 -0.038116083 -0.049132537 -0.028050719 0.2508782 0.261582 0.011910101 0.08562535 -0.100554325 -0.19682598 0.21435559 0.33584228 -0.19686827 -0.21131696 -0.08586547 0.25672957 0.025093898 -0.18037987 0.040023047 0.37867525 -0.11450438 0.3412297 -0.062503345 -0.17352542 0.15746927 -0.035523016 0.13376805 0.016021887 0.25512645 0.14095153 -0.1377464 -0.17467275 -0.009696913 -0.043521166 0.013748406 -0.1172552 0.05674928 -0.26754734 -0.062387325
与 -0.0030100134 0.29440433 0.11169326 0.022683274 0.27374494 0.17710607 -0.5284478 -0.02405786 0.10825793 0.3037539 -0.0912114 -0.01379066 0.14918935 -0.13792995 0.08930546 -0.3000765 -0.046329066 0.23629133 0.23604465 0.2706591 0.19356948 -0.11506979 -0.09052668 -0.16317758 -0.014006338 -0.15788883 -0.14552747 0.13317229 0.26298955 -0.43201378 -0.1094572 -0.13806249 -0.14282373 0.030635655 -0.24300523 0.12849647 -0.18899919 -0.028069142 -0.48673052 -0.080807544 0.11739023 -0.095308475 -0.025269188 -0.32523003 0.07114049 0.06068651 -0.047789805 0.33803424 0.17719801 -0.05648105 0.40649962 0.21138404 0.2936166 0.25945 -0.110454775 0.1407405 -0.007987252 -0.13276002 0.056723796 0.16787812 -0.08526622 -0.078615 0.13438155 0.13284637 -0.11557485 0.31987157 -0.06552235 0.07741367 0.19794425 -0.021117592 0.036137126 0.047755405 0.06613666 -0.19734615 0.2963644 -0.13584039 -0.2023476 -0.031814747 -0.109927006 -0.13482392 -0.015005094 0.04048827 0.61316526 -0.1802507 -0.07350668 0.020549823 0.002028578 0.16689868 -0.012837363 -0.39948377 0.3851761 0.15184213 0.0050433194 -0.022362577 -0.01520378 -0.0817559 -0.1777657 -0.04630114 -0.22013418 0.0020351817
； 0.20524277 0.4063231 -0.30033895 0.2186364 -0.122920595 -0.04524152 0.07563814 -0.07569357 0.105705075 0.40475154 -0.30162787 -0.13491406 0.44956914 -0.13210158 -0.3275648 0.41103807 -0.34979874 -0.26214266 -0.06850333 -0.013017014 0.9169589 0.008320499 0.4040694 -0.40136904 -0.29871666 -0.13921896 -0.08950968 -0.013512723 -0.0057806587 0.20623146 -0.24498922 0.2168862 0.06926463 -0.42678022 0.27060434 -0.34102327 -0.042447913 -0.11269675 -0.28343943 0.020948835 0.13423993 0.12955052 0.28162852 -0.13595493 -0.35438544 -0.08860105 0.19503331 0.2580547 -0.09275326 -0.048001766 0.04542954 0.15539262 0.15665068 0.031472906 0.16212513 -0.0143261105 -0.27158886 0.008727075 -0.23852961 -0.11823981 -0.15977308 0.08865572 -0.28508937 -0.22206487 0.08444819 0.0059815054 0.26992956 -0.08053167 0.0427729 0.17852278 0.033484455 0.21431938 0.11265761 -0.19038053 -0.2791408 -0.10992231 0.14878574 -0.15980347 -0.05979642 -0.021724734 0.0148876505 0.13578644 0.15445426 0.16993454 -0.12069203 -0.0059542544 0.24322161 -0.19582523 -0.2068011 0.47036013 -0.27841195 0.13510701 -0.09692098 0.13506895 0.5516165 -0.13876875 -0.028141188 -0.2402684 0.0071966434 0.025847858
言 0.2961784 0.08124747 -0.21321899 0.20813847 0.2671929 0.15900892 -0.2059125 0.18479861 0.01512511 0.20234516 -0.0038569444 -0.1586538 0.31503692 -0.24261118 0.22651641 0.082651444 0.012697328 0.18159105 0.021588108 0.011164492 0.32860428 0.15156259 0.28952292 0.19478936 0.07825357 0.06355547 0.10591802 0.022630796 0.20687002 -0.018535633 0.36392424 -0.09079118 -0.039233364 0.073076226 0.031562604 -0.18438305 0.08761193 -0.038649727 -0.27449512 0.28653517 -0.21111023 -0.4114566 -0.17774399 0.067165345 -0.14800164 0.106762 -0.01914937 -0.38040793 0.4039313 -0.09838464 0.27592078 0.440619 0.54715896 -0.14158319 0.1489153 -0.16775404 -0.078843415 0.108788595 0.03553438 -0.09478379 -0.06342091 0.20762774 0.27161238 0.02258569 0.025349483 0.2333892 0.08691123 0.1840963 -0.11229169 0.029219525 -0.5195554 -0.21638745 -0.010223718 -0.20320526 -0.16503291 -0.034202527 -0.1774174 -0.1000822 -0.13227303 0.034622066 0.06332088 0.08899101 -0.22979863 -0.013111329 -0.14301379 0.15674761 -0.2786412 -0.07972473 -0.2864933 0.2380628 0.29242897 0.11277552 0.22120109 -0.35960993 -0.33543032 -0.3096131 0.10904166 0.12712122 0.08798455 -0.2404018
无 0.13945882 0.24780092 -0.38835263 -0.3087221 0.028791215 -0.035631273 -0.23770691 0.37895584 0.032305777 -0.04820187 0.18325889 0.07479126 0.08939325 0.36103097 -0.10562088 0.0633541 0.2088758 -0.09005162 0.14119457 0.15084386 0.35772142 -0.048448283 0.21334103 -0.20248173 0.067257464 0.023170145 0.34439614 0.20225912 0.2848283 -0.23834807 0.30166203 -0.19394237 0.48851976 -0.05360728 -0.032446116 0.04285933 0.12120443 0.04660592 0.20684645 0.017618699 -0.036446728 -0.013962481 -0.50391704 0.13031162 0.21030426 -0.22459559 -0.44345677 0.09302056 -0.03710405 -0.24319546 0.18257749 -0.00056750735 -0.10541036 -0.007125408 0.20084366 0.16163874 -0.2146078 0.25289375 -0.13309908 0.10206297 0.36963323 0.097325325 -0.09888983 -0.0124455355 -0.15872473 -0.039403506 -0.11800294 -0.11474766 -0.24806778 0.2706772 -0.13259806 0.16855043 0.21209241 -0.019312277 0.108057685 0.19767994 -0.19902079 0.32394087 0.2027673 0.038902197 0.19807108 0.06074776 0.3558647 0.097048365 0.04333703 0.015730746 0.007661387 -0.22047716 -0.3755281 0.12241304 0.12586865 -0.14979975 -0.06387682 0.02913605 0.23742925 0.03273419 0.27695134 -0.34521648 0.18962264 -0.036670025
则 0.30540356 -0.048422664 -0.17139082 0.020536497 0.21701196 -0.32806343 -0.3752417 0.008231871 0.07872763 -0.22795407 0.14882264 0.72274625 0.03794406 0.01876709 -0.32792357 0.064776085 -0.23212118 0.11052442 -0.260567 -0.033102848 0.5121052 0.1640208 0.09876739 0.21920907 -0.12639847 0.0041780383 0.32261452 0.08188795 0.058892284 0.05127654 0.17177856 -0.14715487 -0.06681312 0.00952686 -0.009475192 0.11213725 -0.2078884 -0.08689987 -0.20128684 0.04872566 -0.1843283 -0.12517214 0.06355029 -0.043223668 0.18962267 -0.059455726 -0.2750353 0.14137673 0.2516551 -0.2743681 -0.2457737 -0.01806157 0.21092413 0.25319108 -0.203392 0.27655396 0.380774 0.14213355 -0.05086476 0.19908543 -0.3237527 -0.06323181 0.5643799 0.120209016 0.07235953 0.33451653 0.044915847 -0.003745357 -0.068585664 -0.17225635 -0.014577875 -0.061236314 0.1341888 0.03228941 -0.22102927 -0.0114019755 -0.16770932 0.15942904 -0.019456817 0.10810521 0.1728199 0.21224697 -0.010269652 -0.025746055 0.099957705 0.26617923 0.28143528 -0.30424216 0.11629231 0.36941347 -0.33372435 -0.20770334 0.037963796 -0.046053685 0.42326108 -0.03292138 -0.07147962 0.038167264 0.0012481785 0.15909596
！ 0.16414087 0.27771172 0.046199758 -0.08124025 -0.21982107 -0.14022478 -0.93791556 -0.1826978 0.06381108 0.29685313 -0.105314106 0.0633371 -0.16247548 0.033840053 -0.4319619 0.29913488 -0.16630091 0.1466537 0.3034766 -0.0049614334 -0.04666 -0.1331837 0.016852658 -0.09414918 0.10121941 0.11099566 -0.17670307 -0.3604195 -0.042957563 0.20167947 0.04300064 -0.02330696 0.19701223 0.11754456 0.22213253 -0.4536207 -0.18462268 0.13822797 0.067089655 -0.056382634 0.065115236 -0.3793364 -0.23724538 0.12679374 -0.1534366 0.50000864 -0.035017733 -0.07947618 0.076161824 0.24752575 0.16987884 -0.06679838 -0.08151548 0.045809958 0.33010072 0.07451933 -0.46608144 -0.31854576 0.13852742 -0.051783532 -0.14387996 -0.034647282 -0.25096297 -0.0020091538 0.014976095 0.0897582 -0.3859443 -0.08492363 0.014574294 -0.12287918 -0.13177408 0.07416693 0.09646019 -0.08116777 -0.17051896 -0.09194396 -0.007920129 0.103580475 -0.008161804 0.18194997 -0.10373048 0.0067171245 -0.12867272 0.088151425 0.27403125 0.5480907 -0.04876749 -0.18258926 -0.1923723 -0.23187771 0.13865107 -0.025121417 -0.18196204 -0.3777852 -0.11673745 -0.12935458 0.07907293 -0.04535291 -0.4202619 0.12381416
问 -0.2920391 0.045810938 0.24833152 -0.054199494 0.34177393 0.22655624 -0.9995381 -0.10755971 -0.40031412 -0.055819746 -0.19485325 0.2226162 -0.072190285 -0.069416784 -0.08397448 0.016658116 -0.13602321 -0.103108935 -0.13184242 -0.22170822 -0.26903227 0.2609062 -0.35997015 0.06538254 -0.24556503 -0.16079651 0.0094678765 0.14758131 -0.1256334 0.33670846 0.17876098 -0.13276218 0.31958473 0.1827353 -0.053596366 -0.02004005 0.16792277 0.27919948 0.04656451 -0.21021701 -0.30147272 0.12484985 -0.02973409 -0.25297436 -0.025766816 -0.15373406 -0.38967374 -0.09642023 -0.2341623 0.66115683 0.0024835775 0.08438554 0.07668857 0.29784405 0.22546661 0.3905412 -0.051736563 0.11692262 0.16356774 0.20522098 0.17734505 -0.1272444 -0.13845024 0.28028926 -0.03055522 0.114316165 0.05191513 -0.13507597 0.504723 -0.11604263 -0.011127122 -0.02117698 0.0019783038 -0.1742466 0.17747103 0.1695376 0.23715606 0.05378792 -0.481108 -0.071392626 -0.3703974 0.04193122 0.1585353 0.040030807 -0.018936371 -0.047713 -0.27779996 0.12557368 -0.111145474 -0.024408948 -0.17144813 0.3037637 -0.0019318629 -0.11933058 -0.022839619 -0.00020103855 -0.19517826 0.09066794 0.08994113 -0.0053406223
知 -0.40781933 0.17643926 0.060949262 -0.06263167 -0.01220596 -0.054181505 -0.50024307 0.064978525 -0.30728555 -0.10481908 -0.0016076614 -0.18654905 0.2445928 -0.0003584593 -0.06327239 0.025876883 -0.053263284 -0.12324298 0.4250838 -0.06839282 0.44727767 -0.21765997 0.26999855 -0.06902685 0.12743801 -0.14154685 -0.15311038 -0.103003636 0.13824666 -0.18414055 0.12998028 0.091226995 0.19003448 -0.05687708 0.10008976 0.054652687 0.13328832 -0.095632695 -0.225692 -0.09056612 0.096377894 -0.21730936 -0.30919036 0.074300975 -0.2231785 -0.06334044 -0.2322329 0.024484945 0.17500803 0.15836705 0.37204066 -0.11341222 0.09499853 -0.27106914 -0.30058593 0.08267567 -0.21875608 0.27033803 0.08815161 0.01477006 -0.06154142 0.13531852 0.2659051 0.1635408 0.2564495 0.5520684 0.023814999 -0.078326106 -0.3978678 0.049326636 0.0049567325 -0.16040951 -0.31527844 -0.114335924 0.24169385 0.11986595 0.1145009 -0.21094991 0.035769403 0.18085758 0.067208365 0.23470214 0.10035387 -0.26534483 -0.116665 -0.07502418 -0.11886115 -0.44943917 -0.16664949 -0.0030793594 0.073316604 -0.05531573 0.009819794 -0.27366132 -0.12328195 -0.17616501 -0.018236356 -0.024501683 -0.24095047 -0.15670368
何 -0.35466966 0.027863165 0.22867818 0.07511601 0.037455074 0.022960305 -0.6530488 0.13321212 -0.083730236 -0.30853662 0.046087127 -0.13033552 0.024477324 -0.1625537 -0.08785319 -0.038815945 -0.4093258 -0.10810928 0.005313346 0.033158638 0.1277064 -0.13893473 0.20202306 -0.024297927 0.46503034 0.008697934 0.19643524 -0.084656 0.23933144 -0.29916596 -0.15172249 -0.088187255 0.053054836 0.031000044 0.25653428 0.09154629 0.13603339 -0.10826071 0.20212056 -0.14770631 0.049097236 0.16008127 0.30796832 -0.04356713 0.17983298 0.21993382 -0.5916869 0.612162 -0.207689 0.08614882 0.21570727 -0.13406436 0.17700732 -0.17292586 0.023170935 -0.03037201 0.02076847 -0.037290778 -0.16058423 -0.2284268 -0.06932878 0.13170381 0.020216335 -0.044913232 0.24686414 -0.094738826 -0.15934843 0.1971719 -0.20978327 0.04490003 0.029151877 -0.41631544 -0.09548285 -0.25519595 -0.0049344148 -0.19320142 -0.12170584 0.16770913 -0.16090292 -0.16599254 -0.10208085 0.00525704 0.008200221 -0.17707986 -0.21448469 -0.10352949 0.19834095 0.11370355 0.17702487 -0.043766126 0.52455586 -0.057531476 -0.19156666 0.1650617 -0.2760608 0.02305524 -0.0928928 0.15907224 0.21037507 -0.050470915
吾 0.568697 0.014860764 -0.100382134 -0.04754184 -0.25379258 0.048042223 -0.50687593 0.24780048 -0.2315166 -0.085397825 -0.2206356 -0.12667337 0.15816513 -0.04327527 -0.14853255 -0.39594555 -0.39859468 -0.2184756 0.20046803 -0.3209055 0.12826675 0.20808671 -0.11494095 -0.20707949 -0.22065063 0.21285136 0.095451385 -0.36865407 -0.17473727 0.20814623 0.2137799 0.3837428 0.10478648 0.074130565 -0.10222561 0.18145773 -0.35533935 -0.04348285 -0.20506246 0.32291275 -0.037427753 0.19080634 -0.021496948 0.014505852 -0.14211787 0.27268064 -0.10000426 -0.038254682 0.28511554 -0.59279776 -0.0043539167 0.33444032 0.15305714 0.14515102 0.022292493 0.21217513 -0.11118036 0.21325812 -0.4057163 0.10081602 -0.061542545 -0.23393364 -0.11331164 0.00088815973 0.17505302 0.05617236 -0.23927294 0.004590318 0.029293573 0.16874324 -0.01605796 0.076377235 -0.0028330456 0.09368036 0.20075674 -0.071937054 -0.20338312 -0.54414916 -0.011678447 -0.15880257 0.05572665 -0.36582077 -0.13538873 -0.0641443 -0.24600388 0.103523135 -0.005814929 0.05291307 -0.048243582 -0.036988676 -0.07096828 0.43042222 -0.32865435 0.021910468 0.07161779 0.370467 0.23096512 0.083283596 0.10400432 0.20321639
仁 -0.34440747 0.1115111 0.20942613 0.015889566 -0.049391888 0.12131388 -0.42341635 0.06500915 -0.26832208 -0.19676064 -0.10196186 0.0071889767 -0.22492525 0.049722254 -0.03128828 -0.27806193 -0.19603215 0.10131656 -0.114771284 -0.20135222 0.2978618 -0.048596002 0.21028697 -0.14658046 -0.06285814 0.10994646 0.052580763 -0.1651473 0.19174032 0.53769803 0.1556826 -0.105528116 0.22760446 0.29481906 -0.04899754 0.29959142 0.40946856 -0.19822945 0.11302816 0.1672472 -0.2158946 0.19290479 0.09663292 -0.020215578 0.121858895 0.008075144 0.3423413 -0.2150505 0.15145455 -0.07261307 0.26972014 -0.3216217 0.2717926 -0.07166848 -0.2561394 0.09479319 -0.06621984 0.18386771 0.105862066 -0.1807671 0.2517117 -0.02066586 -0.27486515 -0.003737168 -0.093763 0.023858465 -0.0043947506 -0.03782555 0.16446738 0.19098774 0.030683346 -0.07283645 -0.33647612 0.054448396 -0.419039 0.0820226 -0.11889665 -0.032299887 -0.22177498 0.09308547 -0.38517845 0.037136678 0.13418029 0.0047495775 0.30738643 -0.2536374 0.054484114 -0.39142102 -0.18384501 -0.060818173 -0.13715477 -0.21688543 -0.13403022 0.19647503 -0.2856756 0.36596003 -0.24645966 -0.2683352 -0.08201707 -0.16833991
夫 0.13540386 -0.055481333 -0.1788937 -0.272702 0.15748782 -0.31894156 -0.7487062 0.05025406 -0.11766192 0.26179582 0.1955994 -0.16139309 -0.1795217 -0.07267709 0.22572258 0.16155154 0.0013628323 0.0034626187 -0.064712256 -0.49255744 -0.08212245 -0.30755985 0.1822864 -0.0017015389 0.06974402 -0.07013483 -0.0451568 0.04825026 -0.26296687 -0.042765927 -0.4905335 -0.25877753 -0.21090584 -0.24718776 0.048920233 0.10329449 0.08855353 -0.06017664 -0.05231695 0.2828575 0.3904449 -0.018524008 0.01488884 -0.1426279 0.49010834 -0.13940537 -0.2736225 -0.23838834 -0.12241202 -0.33352196 -0.013877439 -0.1665647 0.30712885 0.1120376 0.1533665 0.0844512 -0.0935009 0.01062848 -0.09349482 -0.16264309 0.031992666 0.03260137 0.2541724 -0.41625518 -0.025175985 0.16799948 -0.15043676 -0.09969229 -0.02295408 -0.03671621 -0.11454839 0.41249037 -0.27164578 0.1623078 -0.17780913 -0.11465203 -0.009189065 -0.14276013 0.22592774 -0.10792934 0.12812574 0.0093626175 0.0027346858 -0.43640855 0.007997151 0.20278451 0.25922906 0.08446731 -0.07204838 -0.17420857 0.13848941 0.14419024 -0.61984116 0.108492546 0.11010577 -0.017611036 0.03300761 -0.07293615 0.30939096 -0.17198966
、 0.12949339 0.2772976 -0.6869595 0.07097189 -0.058001306 0.2776987 -0.28874063 0.15583153 -0.012924314 -0.13167672 -0.10740453 -0.29097572 0.13651776 0.154546 0.14742327 0.14867571 -0.3392755 0.065562084 -0.1303173 -0.010084801 0.2704522 0.4686552 -0.20732002 0.13339838 -0.32014516 -0.15626237 -0.22449252 0.04835416 0.29640245 0.2171724 -0.34795135 -0.10673168 0.62572414 -0.22400917 0.090803504 -0.0599951 -0.49403942 0.07557277 0.040274605 -0.7358908 -0.33313236 -0.19911131 0.12611708 -0.28143623 0.27601472 -0.09005223 0.08038496 -0.24080035 -0.2122956 0.05017679 0.10345024 0.25188956 0.17391525 0.24937731 0.34931678 0.003630376 -0.6873408 0.19511138 -0.072530344 -0.042978287 -0.07300168 0.07289219 -0.16647023 0.0040247254 -0.41511053 0.032118957 0.31696472 -0.14014709 -0.027405728 -0.07838854 0.047622375 0.429251 -0.053015914 0.07402469 -0.9584611 0.100475565 0.33491606 -0.08662016 -0.31903946 0.007857431 -0.063364096 0.30362087 -0.22138396 -0.1856106 -0.13700543 0.045792524 0.44558135 0.27760676 0.113895126 -0.011236902 0.008054375 0.13848865 0.30374065 -0.14954191 -0.33102736 0.12616265 -0.013868372 0.09473548 0.026951011 0.1213646
道 0.3903001 0.33184513 0.039574888 -0.19913742 0.045600493 -0.005376125 -0.22006713 -0.11213989 -0.09362671 0.21993881 0.073032916 -0.2977345 -0.04662266 0.04687059 -0.40458024 0.113828376 0.03461537 0.067745246 -0.060195483 -0.04730836 0.6010655 0.10021375 0.021621656 0.16757025 0.13088074 -0.094357006 -0.22957568 0.42386717 0.076983735 -0.12594126 -0.06714692 -0.4861648 0.007526154 0.0930327 0.6541964 0.22825488 0.48378375 0.06986201 -0.12777773 0.043176983 0.07957435 0.1549389 -0.20135227 -0.12280268 -0.04503627 -0.08228306 0.019994393 -0.28947434 -0.061262045 0.0066929655 0.08147493 0.21888588 0.20294918 0.0009037019 0.024753038 0.26051834 0.46886536 -0.19660224 -0.31744543 -0.26560783 -0.2473324 -0.37542093 0.21195379 -0.12594935 -0.11925979 0.1585007 0.059704084 -0.39092514 -0.12740688 -0.37097776 -0.09743653 0.03806291 -0.0786088 0.36897582 0.14786394 0.11875448 -0.2925215 0.41074893 -0.27285868 0.21800663 -0.117529936 0.06107285 0.18350476 -0.12193773 -0.11698556 -0.08254554 0.11978298 0.18821739 0.25459698 0.13669406 -0.14977704 0.1364376 -0.25945637 0.16140366 -0.09064675 -0.0023214421 -0.017536711 0.114724785 -0.06271939 -0.23508571
焉 -0.3127791 -0.27273297 -0.3848659 0.051480062 0.013150395 -0.08181493 -0.51978564 0.23425522 -0.14105472 0.38357797 0.1558551 0.28079996 0.0077011287 0.16999318 -0.05429802 -0.22403958 -0.07172703 -0.16060598 0.00818255 -0.07140824 0.31644067 -0.2889448 0.32228273 -0.03863365 -0.20361829 -0.31311277 -0.6420993 -0.101305656 0.15505528 -0.34981567 0.13138206 -0.010759795 -0.07209384 -0.071767345 -0.43853483 -0.26125875 0.30449387 -0.13884749 -0.18592432 0.13395026 -0.26412588 0.005701173 0.13640217 -0.13472523 0.256499 -0.12086962 0.08363789 -0.090024196 -0.006325946 -0.1916465 0.3177691 0.21696992 0.0074690096 -0.29953086 0.12075441 0.24171767 0.065758765 0.41369626 -0.27489218 0.16528313 0.3662113 0.12452404 -0.054662306 0.011172418 -0.13823412 -0.24222438 -0.12063535 0.11234813 0.15173545 -0.13855676 -0.079648115 -0.12341239 -0.020347118 0.33908683 0.27373385 -0.17329854 0.07524868 0.28147447 0.26940957 0.30590782 0.29169065 -0.39163798 -0.12651604 0.41344532 -0.3667573 -0.12045721 -0.008259073 -0.44390684 -0.0046446766 -0.04459663 -0.3152582 -0.08201515 -0.10343744 0.16348293 -0.5531207 0.13817556 -0.032446627 0.2684206 -0.42968976 -0.06288134
行 -0.16564794 0.026389394 -0.32224447 0.4250187 -0.09065295 0.33017477 -0.43435904 -0.20953679 -0.1310587 -0.066876896 0.34318063 -0.07287924 0.34701425 -0.08185389 0.044526003 -0.01376906 -0.1510938 0.36462578 0.016399875 -0.25041276 0.2973111 0.15422642 0.36705294 -0.037819937 -0.041433826 -0.1983293 0.18621641 0.30539083 0.035297763 -0.10269499 -0.046922624 -0.31062517 0.14191149 -0.08907165 -0.06777978 0.21944906 0.3922702 -0.30995488 0.083813 0.059304185 0.037767455 0.5193597 -0.11100313 0.06002927 -0.14894219 0.010556876 0.0049248096 0.06786647 0.033250637 -0.16617888 0.056585044 -0.027744096 -0.11788852 0.088403665 -0.0003805058 -0.135033 -0.19060406 -0.34619433 0.27371088 0.19319923 0.05418946 0.048747186 0.18184169 0.24809182 -0.28061828 -0.094659455 -0.0007846635 -0.15160112 0.24013817 0.21098043 -0.25233802 0.025845176 0.07323983 -0.14409731 0.22800954 0.019915361 -0.19022372 0.17522773 0.19096574 -0.08810828 0.024499401 0.11309427 -0.35337737 0.24350813 0.46230328 0.0639376 0.19580057 0.04169312 -0.08471719 0.23142757 -0.29642883 0.2536494 -0.14346185 -0.32265002 -0.13335085 0.29762438 0.2009954 0.47049677 0.426127 -0.14034973
谓 -0.10292191 -0.26100725 -0.19010879 -0.7461235 0.3988509 0.4635672 -0.85279626 -0.03028283 -0.46202835 0.18905911 0.04692721 0.113108106 -0.14660163 0.14624962 0.044678114 0.11519715 -0.13160442 0.1609359 -0.0015695295 -0.5464595 -0.17852634 0.13298498 0.012846607 -0.009764563 0.17267688 -0.33124512 0.026881522 0.11986384 0.22652662 -0.24551922 -0.17832598 -0.1952872 -0.067431286 -0.5586515 -0.107065685 0.055551864 -0.23282301 -0.25896165 -0.111925654 -0.19439352 -0.018109577 -0.13087152 0.3054309 0.007675584 -0.1517835 0.23700757 -0.13206872 -0.0857293 0.08073874 -0.0062467605 0.21156393 -0.37225664 -0.6883911 -0.37473315 0.06344539 -0.09782336 -0.19282648 -0.25450933 0.034165107 0.26821104 0.060161065 -0.21508837 0.06311729 0.15399364 -0.1305159 0.072560646 -0.010877894 -0.2150219 -0.40804622 -0.14599352 0.19727942 0.41197017 0.25476238 -0.55752206 0.19872051 0.20489034 0.03193156 0.1060079 -0.2520562 -0.24183597 0.3481355 0.021453511 0.26475886 -0.19763646 -0.11476564 0.030335395 0.083290085 -0.068340644 0.047702543 0.22540042 0.27133447 -0.32274002 -0.08130538 0.2610186 -0.052167963 -0.124202155 0.19540626 0.16038689 0.20147987 -0.12829044
必 0.060379226 -0.2418099 -0.38847694 0.3342079 0.25748312 -0.063439116 -0.36879835 0.3083619 -0.2961329 -0.19324884 -0.019320676 -0.10279745 0.10165209 -0.1293863 -0.022272877 -0.03453869 -0.20930256 -0.018195964 -0.06448847 0.13169338 0.58898556 -0.4083351 -0.5257309 0.079221025 -0.06368034 0.08527965 -0.09102187 -0.37932816 -0.015557399 -0.43818492 0.07713356 -0.21411057 0.10057326 -0.05306379 0.23866156 0.27792323 0.123115174 -0.13456762 -0.09855572 -0.23347802 -0.016669538 0.0038419259 0.22107336 -0.13107406 -0.25118804 -0.20324372 -0.120544724 -0.3032205 -0.13510413 -0.174483 0.09043227 -0.11277725 0.013420678 0.29863852 0.006155925 0.4022552 0.25391963 -0.14728305 -0.12779602 -0.07371901 0.12145944 -0.2396004 0.023402452 -0.09078516 -0.23896796 -0.13726394 0.088920325 0.12604177 -0.007417688 -0.074841194 0.106569335 0.0043338556 0.3861313 0.15222272 0.13013043 -0.23354714 0.5255797 -0.17937207 0.14771092 0.27201793 0.04986404 0.43807364 0.038784105 0.34241942 0.017509049 0.3851232 -0.25350946 -0.21354339 -0.38926554 0.22216475 0.58155954 -0.16955708 0.16285115 0.111315124 0.32771662 -0.23865241 -0.18152018 -0.2075003 0.13739759 -0.10272795
礼 0.47347614 -0.3188575 -0.2658907 -0.051223412 0.05505352 -0.38644484 0.053884905 0.1631452 -0.11128785 0.112960294 0.3204498 0.12796439 -0.04421652 0.22439815 0.12822439 0.19517954 0.047733348 -0.2014787 -0.03567421 -0.16443333 0.27144843 0.044689093 0.28487068 -0.02573352 -0.1772035 0.07571948 -0.18620731 -0.12696388 -0.10095255 0.32180852 0.028759003 -0.10322399 -0.07557985 0.07464822 -0.006435295 0.043414466 0.06648955 -0.052052997 -0.15364057 0.018779332 0.12665926 -0.4670647 0.10923433 -0.084994785 0.23715132 -0.18236563 -0.19780776 0.09591601 0.056354553 0.11085223 0.43480635 -0.3290171 -0.12051838 -0.10117802 -0.6185725 -0.38878715 -0.029523173 -0.13643365 0.28007343 0.16645211 -0.5686385 -0.15198272 -0.18605965 -0.4127974 -0.2013695 -0.14798221 -0.1682625 -0.43629262 0.38915867 0.38492852 0.11801631 0.24933413 -0.12956561 0.1079626 0.15728155 0.23435114 0.037253987 -0.25861466 -0.5238904 -0.045692574 -0.056561384 0.032555923 0.059487984 -0.41996974 0.36822438 -0.0026289662 0.028219784 -0.1638551 0.05538058 0.25675914 -0.15745091 -0.14063112 0.10011495 0.05027429 0.35067993 0.12127068 0.004664682 0.606964 -0.1653442 -0.15377629
孔 -0.2915033 -0.43079153 -0.044369716 -0.013205334 0.34624892 0.27984565 -1.2813175 0.101193435 -0.07651072 0.20563027 -0.12865077 -0.14127456 -0.09093591 0.07252101 0.14899668 -0.27469844 0.61006105 0.21184793 0.12740418 -0.099986434 -0.30342826 -0.015128944 -0.2407238 0.04219897 -0.32758677 -0.28848234 0.009346723 0.05379315 0.1492613 0.4867119 0.06274122 0.04525519 0.38929445 -0.37495002 0.7303876 -0.17357527 -0.1468376 -0.2181072 -0.11184268 0.1446804 -0.16131839 -0.20429209 0.32748196 -0.23366138 0.4328375 -0.01670257 -0.1931346 -0.030737622 -0.24200396 -0.42228895 0.03507581 0.045230173 0.39556196 -0.14977808 -0.5726236 -0.15019944 0.1585486 -0.62912256 0.27614272 0.02651873 0.20530833 -0.13212979 0.24337313 0.094502375 0.081992954 0.042688016 0.17125548 -0.16905703 -0.28397965 -0.177438 0.06380317 0.17310631 -0.4135459 -0.03209402 0.28325313 -0.0351493 0.26694205 -0.16256003 -0.20639952 -0.3789367 0.24574997 0.24906628 0.31053022 0.2281683 -0.025319982 0.12393201 -0.25549686 0.63320035 -0.13323833 0.33671498 0.009080932 0.22870691 0.027209563 0.024976632 -0.28335905 -0.075454004 0.4553762 -0.35098302 -0.16246147 0.20861696
斯 0.018440243 -0.37912786 -0.41027337 -0.051396642 -0.1325851 0.09205466 -0.6444851 -0.37426707 0.02707566 -0.34179598 -0.037937224 0.35466957 -0.11795485 -0.52841353 0.030698827 0.27997997 -0.40662423 0.35493118 -0.10713615 0.06004795 0.6194195 -0.251683 0.1225949 0.15223125 0.28310093 0.097815946 0.2107 0.13528736 -0.16832846 -0.11402607 0.28324333 0.14039075 -0.010043881 0.28278193 -0.18271187 -0.30431765 -0.030736731 0.23172474 -0.4704647 0.01810619 -0.42208493 -0.088228785 0.098523885 0.042363945 0.27048331 0.3812128 -0.1515811 0.06365311 0.17592713 -0.47115335 -0.12234112 0.1863094 -0.08712285 -0.3402368 0.32973716 -0.2102793 0.38357309 -0.2964413 -0.082286134 -0.12125362 -0.0076973457 -0.22343259 -0.05421662 -0.06036701 -0.12115137 -0.38447464 0.07245624 0.23607397 -0.23158033 0.18402362 0.114066854 -0.2017188 -0.06266804 -0.04340525 -0.1315269 -0.024598336 0.27808377 0.082730584 -0.24617368 0.11914218 -0.044846777 -0.14982507 0.108585805 -0.08164287 0.04271798 -0.1529549 0.2161941 -0.34771204 -0.1484766 -0.52563304 -0.46190247 -0.13102627 -0.40538806 0.27549556 0.13790244 0.046008326 -0.1641659 -0.15241648 0.6091134 -0.30617923
三 -0.06728658 -0.100541085 -0.15167399 -0.09748522 0.1340598 0.005547474 -0.5669537 -0.26041022 -0.29684296 0.013002134 -0.5578794 -0.10056973 0.054831427 -0.34574586 -0.14019504 0.26693434 0.064345255 -0.3735742 0.34546125 0.32618457 0.3650605 -0.20240173 -0.39837447 0.06450711 -0.061889045 -0.19669664 -0.365275 -0.25851792 0.14500928 0.2761418 0.059170023 -0.01725324 0.053309742 0.11195722 0.074567445 0.2450652 0.014360213 0.07315474 -0.18459727 0.15097903 0.17224027 0.19912855 -0.016018962 -0.1864286 -0.120593905 0.0071703577 -0.53545535 -0.053850245 0.17268981 -0.35220367 0.07920672 -0.3706552 0.1945421 0.23257783 -0.09924411 -0.45255464 -0.30524033 0.2600356 -0.0056372415 -0.4968789 -0.025830043 -0.040415484 0.2398348 0.20118497 -0.2644538 -0.5584158 0.39054072 0.0630712 0.281234 -0.1285998 -0.091304444 0.4692285 -0.33678913 0.16391279 -0.11525077 0.2667412 0.018418295 -0.24747111 0.22613855 0.12550923 -0.4341438 0.072550565 0.06459883 -0.16796891 0.04289847 -0.4998523 0.18921936 0.07621528 -0.023314215 -0.08316588 0.24131422 0.1297573 0.36516777 0.22754197 -0.065687135 -0.19838609 0.18419977 -0.346926 0.098230794 -0.26545823
能 0.46798873 0.040963598 -0.3028759 -0.13697198 -0.021193221 -0.1073425 -0.6331909 0.4030234 -0.13292755 -0.05291939 0.10484469 0.32403705 -0.7748826 -0.011889903 0.2519908 -0.29166314 0.40044662 -0.04372326 0.30950463 -0.112154014 0.56644297 -0.12108496 0.14413899 0.4822786 0.060642987 -0.22573252 -0.32387567 0.26408356 -0.22235636 0.0044491054 0.012826156 -0.21610908 -0.13946053 -0.42892152 -0.10584728 0.33899185 -0.014934726 -0.051883135 -0.020560866 0.04315486 0.14774208 0.027107732 0.16860037 0.12565194 0.27207872 0.13645168 0.121912174 0.2465367 -0.19136362 -0.10987462 0.33275613 -0.14168775 0.098932296 -0.09151832 0.043392703 0.10775688 0.011918614 0.18975244 0.027042966 0.25524777 -0.06216962 -0.068220735 0.067463115 -0.10416909 0.16540994 0.22657402 0.2306536 0.43861535 -0.19336034 -0.0875773 -0.27299193 -0.28143287 0.36888102 -0.16486305 0.13810718 -0.37594697 -0.2288498 0.16007626 -0.14845124 0.14057913 -0.28372106 0.12817638 -0.09438069 0.09970723 0.23743148 -0.06618072 0.066452995 0.17150374 0.32982504 -0.0015645223 0.013412955 0.0050693764 -0.17341353 0.13391171 0.015764879 -0.009655046 -0.15557511 -0.18045957 -0.029402845 0.23455624
见 -0.32313848 0.37983733 -0.6667514 -0.07993856 -0.04214073 -0.2978623 -0.15535057 -0.14723161 -0.08456638 0.057229105 -0.21870078 0.02820121 0.19677442 0.17706864 0.042160206 -0.37095025 0.32622674 -0.041573375 -0.045233343 0.33940804 0.30392432 0.42923412 -0.07003341 -0.24814963 -0.10374298 -0.17074269 0.40368715 -0.22281338 -0.2392144 0.44749862 -0.20461713 -0.1813542 0.1907338 -0.46602234 0.31269893 0.037215065 0.12062481 0.11631272 -0.24557793 -0.10186097 -0.17737782 -0.1859028 0.5003588 -0.12802058 -0.31601295 0.20936581 0.33233082 -0.03000684 -0.2217225 0.13491018 0.08669349 0.20676462 -0.04313349 0.4255736 0.024187727 -0.003154575 0.549096 -0.30047157 -0.09897689 0.12050262 0.18082108 0.019741444 -0.355001 0.46486637 -0.058172368 0.1240876 -0.075806685 0.03139461 0.297752 -0.13418981 -0.31508455 -0.15227897 -0.41605535 -0.028560484 -0.09760393 -0.29131052 -0.28964612 -0.2763307 0.14770402 -0.1573584 0.36673266 -0.064063385 -0.025644211 -0.15150928 0.061500907 -0.42900082 0.1312992 -0.2928834 0.03604009 0.035064194 -0.089570895 -0.34773487 -0.07783806 0.099629685 -0.05192014 -0.54516846 0.23523408 0.10220303 0.38099414 -0.21795909
学 -0.6915429 0.24627914 0.22196575 -0.083249375 -0.34586 -0.6824364 -0.34790874 0.3559963 -0.20695688 0.1686282 0.003415698 -0.01901585 0.14719109 0.36614743 0.1160953 0.3495297 0.0113432985 0.024776295 -0.016467147 0.08958749 0.41435722 0.24497727 0.09656096 0.0053180577 -0.06252666 -0.080191866 0.27779022 -0.19210848 0.06517621 -0.2872833 -0.115812846 -0.06947138 -0.12756884 -0.15096922 0.30597258 0.15437104 0.30038762 0.06983253 -0.5674715 0.117492534 -0.14043555 0.25667018 -0.001013136 -0.49323514 0.12900232 -0.0466079 -0.028271265 -0.38212368 -0.28245384 -0.107406974 0.39606422 -0.047491997 0.0714747 -0.36343697 -0.60630834 -0.087046646 -0.40623823 -0.18271737 -0.1633214 0.4562377 -0.20886993 0.37247217 0.0798453 -0.05096078 -0.30331558 -0.50418156 0.083856955 0.090856776 0.04269557 -0.23217005 -0.08699065 0.24420296 -0.32167685 -0.20234661 0.07349861 0.12647656 -0.45692402 0.010332504 -0.10397764 0.032964546 0.108479485 0.14579348 -0.42838833 0.26235417 0.060118385 -0.45391974 -0.09497157 -0.077503845 0.3864313 -0.008104762 -0.39489102 -0.09720908 0.046107963 -0.22421269 0.059304085 -0.21064678 0.107218646 0.12341436 0.33609903 -0.25976616
事 -0.04563556 -0.04305355 -0.34797552 -0.2727432 0.20468585 0.26264536 -0.64509153 -0.22129723 0.30785403 -0.368268 -0.27886418 -0.04364451 -0.03415714 -0.14707375 0.09575348 -0.24480906 -0.26866677 -0.06840707 -0.02650783 -0.28854853 0.4015214 0.13635488 0.19270846 -0.08190947 -0.350578 -0.36494327 0.8479989 -0.033530094 -0.2605253 -0.227721 -0.21668097 -0.42818773 0.1408041 0.0523467 -0.5754274 0.48425218 0.09245269 0.1425179 -0.03252369 -0.33033004 0.00886629 0.035890654 0.007465852 -0.40404588 -0.02329787 0.043606706 0.31425148 -0.11471654 0.05557181 0.100449696 0.07192622 -0.075188234 0.4341905 -0.023101697 0.19674084 -0.31375366 0.45820522 -0.50410885 -0.54646266 -0.0018742224 -0.31954798 -0.4450649 0.34585723 -0.39415506 0.08554044 0.23073688 -0.42151892 -0.34423113 -0.2556898 0.15473771 -0.15622051 0.03822786 -0.11741055 -0.109028235 0.12250306 0.30689016 -0.23414162 0.06478515 -0.1652924 0.32150266 0.053903554 -0.06378098 -0.058887262 0.03540059 -0.20117433 -0.23396255 0.33227727 0.08366251 -0.17138124 -0.15123154 -0.4338109 0.401525 0.37962008 0.15845716 -0.2895799 -0.31750187 0.3338296 0.082505524 0.0884374 -0.064569615
是 -0.20702209 -0.30144855 0.57688814 0.25937706 -0.0057366956 0.24351479 -0.93536687 -0.107458845 -0.07525734 -0.27504277 -0.48243865 -0.045474596 0.24643834 0.18370497 -0.13940033 -0.3282929 0.027414655 0.089069225 0.087530516 0.5816982 0.3742888 -0.2074832 0.17752981 0.14705677 -0.29308566 -0.4252293 0.36775434 -0.113160595 -0.012497272 0.22324587 0.3279504 -0.297506 -0.08036137 -0.29637676 -0.15727223 -0.30310148 0.14930764 -0.19925056 -0.2234618 0.10334467 0.19241154 -0.28537872 -0.1562811 0.20726275 0.19509865 0.07727885 -0.24029851 0.014670935 0.13643804 -0.05592153 -0.17092934 0.26594746 0.051795747 -0.0052404334 -0.042238373 -0.17175786 0.30411366 0.056156833 -0.0016024975 -0.18801361 -0.1894606 -0.12178116 -0.16102351 -0.31311888 0.17216234 -0.46844068 -0.366015 0.18273342 -0.1894729 -0.33510065 -0.3096156 -0.08710557 -0.30433398 0.10254144 0.13205837 0.3048544 -0.2994969 0.43789154 -0.42901826 -0.27345896 -0.31892952 -0.50352615 0.19108208 -0.20933473 -0.2281827 0.4405619 0.06744348 0.07903679 -0.071117304 0.009707834 -0.18659303 -0.108053185 -0.4383899 -0.28898743 0.25396946 0.11616812 -0.04804858 0.16116886 0.31649074 0.18463603
哉 0.16342112 -0.12885432 -0.085621566 -0.38999578 0.22952275 -0.42015654 -1.1445608 0.4341723 -0.035517097 -0.15427995 -0.087872885 -0.20117599 -0.2338107 0.07573996 0.050709087 -0.31276008 -0.372455 0.2724993 0.018230297 -0.0740482 -0.2070935 0.2163039 0.230275 -0.19246587 -0.36980382 0.010427186 0.23548079 0.4239179 -0.20518918 -0.2961637 -0.035460714 -0.28325048 0.4423165 0.2514824 0.23381904 -0.44980082 0.5159693 -0.100516185 -0.2443963 -0.23608738 0.40909955 -0.37615272 0.2284667 -0.06699702 -0.07514277 -0.08949221 -0.3076522 0.29785484 0.17451575 0.2234355 0.11437426 0.10016893 -0.14266756 0.4277326 0.26330206 -0.24750915 -0.7115164 -0.17388703 0.007243579 -0.2768676 -0.072707236 -0.12175446 -0.040684596 -0.32010606 0.31878138 0.04582064 -0.08694825 -0.2099427 -0.15938997 -0.019787213 -0.20179786 -0.2008478 0.2939191 0.041575998 -0.59437335 0.24961118 -0.24397732 0.19797292 0.41863346 -0.2954343 0.15159523 -0.5444593 0.31244302 -0.007083711 0.23870055 0.055442706 -0.4641624 0.0044900007 0.18117258 -0.17857176 -0.014477663 0.35690054 -0.27513742 -0.31596687 0.11590536 -0.12318476 -0.18998672 0.23261082 -0.12639435 -0.050571006
闻 -0.0016163975 -0.31094214 0.0133990925 -0.008924834 -0.14999238 -0.24516827 -0.45900494 0.013313813 -0.32082358 0.06931178 0.14223215 -0.03745821 0.1280132 -0.074962035 0.0151099805 0.10893756 0.4394462 0.066009484 -0.08800386 -0.3874659 0.25337625 -0.1582182 0.20660613 0.4217238 0.37595096 -0.066313386 -0.12825282 0.019761551 0.028784942 0.060512844 -0.03203238 0.4792132 0.12906408 0.14417276 0.31422457 0.24083138 -0.15178357 -0.4111607 0.04335633 -0.23494142 0.19346789 0.108385414 -0.26180682 -0.2602365 -0.3393417 -0.08944991 -0.1301193 0.250627 0.052637283 -0.009551211 0.4014234 -0.48251748 0.4166489 -0.46063563 -0.40326133 -0.02955639 -0.19214557 -0.121900976 -0.083609104 0.026356919 0.13954914 -0.16867799 -0.13988681 0.09663067 -0.47975674 0.16025306 -0.027950153 -0.19488585 0.10260317 -0.07776984 -0.30551767 -0.5738029 0.45054686 0.07188721 -0.30622086 -0.10631802 -0.037829965 0.13348866 0.5719638 -0.08557505 -0.20477527 0.15673263 0.29817033 0.120282464 -0.1722229 -0.11462297 0.06507356 -0.2091649 -0.0863104 -0.2510912 -0.55588764 0.16256453 0.34822398 -0.106838346 0.08936693 0.062663734 -0.35802975 0.40736282 0.44923142 0.12463796
未 0.05722414 0.0591558 0.19040923 -0.3495954 -0.021744013 0.2889585 -0.5806014 0.16547368 -0.22255564 0.11431298 0.15757939 0.05790939 0.0673135 0.07365736 -0.21609803 -0.044262514 0.4611207 0.30542177 -0.08089702 0.05910616 0.3043231 0.33647296 0.28155553 -0.11109796 -0.14889924 -0.046493568 -0.14430282 -0.08664545 0.116704434 0.3797871 0.40984836 0.0029509382 0.05251947 -0.027588489 0.17780901 0.11005263 0.13217758 0.58765334 -0.08839778 0.42321765 0.36361378 -0.14755824 0.31462154 -0.24878734 -0.23502684 0.21743271 0.2963036 0.058526214 -0.017068882 0.19839172 0.11017806 -0.64502484 0.25481352 0.030638037 0.33884925 0.20909978 0.031983074 0.008402872 0.44913957 0.44775563 0.16160539 0.2274996 0.6862493 -0.06846449 -0.37525672 -0.20974642 -0.30676416 -0.13026854 -0.16347511 -0.03585763 0.15314376 0.13474378 -0.29178938 -0.25685325 -0.10694246 -0.15541528 0.32225558 0.4519197 -0.28584328 0.23420371 0.28705603 0.052700657 -0.61892223 0.09125219 -0.120186634 -0.3102948 0.025340242 0.14950347 -0.0047535724 0.15873241 0.12675257 0.05998238 -0.33279765 -0.11397763 0.2559756 0.43527767 -0.28712642 -0.39725015 0.12674622 -0.32274294
公 0.42991567 -0.22105032 -0.112657696 -0.086215526 -0.30814558 0.27837333 -0.98944926 -0.32529816 0.11008241 -0.107002884 0.40008444 0.25938833 -0.11235812 0.1290376 0.42076808 0.031479944 0.16229717 -0.2202296 -0.21286622 0.04837518 -0.07246546 0.10844486 -0.20178111 0.05536719 -0.21620339 0.0041458798 0.13606976 0.00066202367 -0.02043815 0.009299479 0.25826666 0.17181784 -0.29951143 0.3038365 0.050609346 -0.027667986 0.21220809 -0.14043139 -0.15988185 -0.29286295 -0.11767109 0.7253784 -0.13077079 -0.10128961 0.17790897 0.1694353 0.08448167 -0.3923241 -0.08805674 -0.22128303 0.040597916 0.27789137 0.21521124 0.03880836 0.3089001 0.4140368 0.043922864 -0.62549216 0.10480993 -0.32918742 -0.0063859676 0.12702882 -0.048461586 0.026454728 -0.28202057 0.3411296 -0.58974075 -0.35082576 0.26480672 -0.30826697 -0.010211606 -0.18366645 -0.01957191 -0.15344545 0.20868528 -0.14741382 0.7707283 0.23001492 -0.25348118 -0.6715964 0.04296711 -0.05131829 0.123535015 -0.042907532 0.5899878 -0.2849538 -0.32327542 0.072310224 0.0060252333 0.273197 0.39555594 -0.26465344 -0.19392534 -0.10364236 -0.5717137 0.16260087 -0.103073016 0.23000684 -0.098348774 -0.05564495
好 0.10411187 0.07369382 0.2968114 0.3053177 -0.32171485 0.0813128 -0.63824874 0.40452933 0.2108133 0.17625812 0.4638878 0.3450459 0.13406011 -0.033367686 0.43405232 -0.2394654 0.12038548 0.24720734 -0.04555182 0.042804416 0.8329591 0.24257135 0.17303331 -0.029435597 0.1601531 0.20967399 -0.14930137 -0.6867811 -0.17658982 -0.14433555 -0.33130944 -0.16175295 0.15149023 0.14850697 -0.15620825 -0.20870619 -0.27557895 0.11862727 0.09153634 -0.049887717 -0.08201733 0.2581168 0.350842 0.044525597 -0.13476954 0.31254822 -0.11661918 0.533236 -0.00845903 -0.2086651 0.6493696 -0.05356342 -0.26334003 0.6207433 -0.28251308 0.23550601 0.084944345 -0.41487536 -0.18049428 0.38189432 0.2030743 -0.1623086 0.07136488 -0.34084278 -0.42417347 0.35709167 0.051955022 -0.41199237 -0.31532893 -0.19630313 -0.07502167 -0.15999308 0.14989522 -0.16185996 0.44405594 0.29354697 -0.21897282 0.053583074 -0.32657975 0.31175196 0.36406115 -0.007885168 -0.124814376 -0.17050509 0.21237499 -0.23916584 -0.055541202 -0.09313734 -0.3810185 -0.1873629 -0.071623676 -0.024028353 -0.51636344 -0.13947265 0.072479494 -0.108413585 -0.11919611 -0.24236003 -0.15172255 -0.33155656
我 -0.06443254 -0.053598166 0.29449898 -0.018979488 0.106338456 -0.29933384 -0.8404756 0.20726897 0.28538528 -0.19343093 0.37282726 -0.039941568 -0.023070587 -0.12776968 -0.077517115 -0.3806255 -0.042740032 -0.22222419 -0.34869504 0.34461045 -0.0044626426 0.0340259 0.29131523 0.20430215 -0.12686858 0.25198603 -0.0898956 -0.4160527 -0.4132423 0.84649825 -0.12479822 0.33581263 -0.014099893 0.021329176 -0.23163193 0.22956127 -0.21379526 0.17678072 0.11926799 0.16407132 0.27782097 -0.47373575 0.06431509 0.38398793 -0.015388349 0.08831472 -0.56150734 0.13378048 -0.061220095 -0.075893834 0.372562 -0.23364222 0.2271978 -0.009571645 -0.02306049 0.025179297 0.40431756 -0.43210137 0.073540986 -0.04291932 -0.34059578 -0.12736326 -0.045273565 -0.604679 0.33773404 0.22103868 0.040527392 0.20793322 -0.25310177 -0.115885004 -0.29700872 -0.013394177 0.0017938912 0.10467687 0.08372744 -0.25173566 0.1284576 0.036755625 0.29545152 -0.17030393 -0.2593527 -0.061579242 -0.094025314 0.1272842 -0.44580662 -0.23724982 0.09965154 -0.17566855 -0.14938547 -0.32494295 0.37648916 -0.04452872 0.17807375 -0.04239031 0.12180868 -0.13666527 -0.34628636 0.104035206 0.5031361 -0.20871776
路 0.5268712 0.0052804044 0.007276561 -0.2527214 0.3229858 -0.19197847 -0.95678747 0.0923864 -0.17524521 0.11879303 -0.39147586 0.10644707 0.27139455 -0.2548015 0.09559245 -0.16134383 -0.3385891 0.24828203 0.23105882 -0.10995913 -0.026373388 -0.1365274 0.40710378 -0.057700336 -0.04842362 -0.6036263 -0.10736276 0.2332305 0.032972336 0.39137945 0.27948308 -0.055151716 -0.020811398 0.49003455 -0.10226446 0.12046499 -0.17749102 -0.08253868 0.22601776 -0.17903565 -0.4074724 0.59529674 -0.0014300502 0.15685977 0.40973902 0.07609426 -0.22016646 0.27926502 -0.23875242 0.069016725 -0.21598563 -0.34007257 0.10823317 0.2655222 -0.10571014 0.19394906 0.015688652 0.10695012 -0.123708904 -0.033936225 0.08081958 -0.11010479 -0.13589992 0.20091686 -0.63873506 0.007155637 -0.24187566 -0.027675528 0.099357314 0.0074192435 0.00041987025 -0.096664906 -0.11913659 -0.07946499 0.4234366 -0.18290593 0.21049781 -0.2898689 -0.010564259 0.061309606 -0.009904974 -0.114326455 0.1604914 0.28326383 -0.11709319 0.04166938 0.3093321 0.56221694 -0.0009870869 -0.3646549 -0.107320815 -0.2569226 -0.59028023 -0.18855268 -0.26950297 -0.2756139 0.21953799 0.0382225 -0.045144442 0.087548815
在 -0.0863852 0.22068541 -0.32431656 -0.32845467 0.05958663 0.76878786 -0.50888556 0.2941507 -0.18599105 -0.27995703 -0.09271808 0.21503827 0.29876134 -0.348067 -0.019706579 0.32657441 0.34070832 0.28461865 -0.22827516 -0.27201614 0.36908832 -0.6162437 -0.3322896 0.27015686 -0.28274336 -0.2100577 0.22060654 -0.18016195 0.070519984 -0.06724375 -0.75516343 -0.504703 -0.3430781 0.15163665 -0.28279668 0.111905515 0.16362421 0.03298853 -0.20262823 0.08585304 0.11645111 0.03778556 0.05352765 -0.14610009 0.11619764 0.27250916 -0.1267829 -0.0066682934 0.04157882 0.18708946 -0.10560407 -0.16306555 0.41740775 -0.22266206 -0.07612641 0.0082673235 -0.54338306 0.30988342 0.06624398 -0.5707551 0.049526904 -0.061928842 -0.08025338 -0.15803578 -0.06746374 0.19747855 0.09399294 0.0942932 -0.2171685 -0.2923304 -0.06819534 0.35658932 0.2567224 -0.4707626 0.14293087 0.19205077 -0.09421199 -0.109047554 -0.0069056847 -0.005319288 -0.28997755 0.059709486 -0.12568364 0.42782196 -0.18269488 -0.04036723 -0.2614587 0.18729731 0.08361441 -0.038879033 0.0085709505 -0.1519053 -0.012962149 -0.21721981 -0.14380947 0.20685622 -0.11456297 0.6748777 0.19843067 0.06809043
已 -0.3808287 -0.17450045 -0.3745798 -0.39944047 -0.2152321 0.13582054 -0.8103152 -0.27171922 -0.6164016 0.27202845 0.16865562 0.20512891 -0.16312107 0.4041407 -0.12936935 0.38173726 -0.39759317 -0.11547624 -0.41094032 -0.30290845 0.27708647 -0.06081405 -0.0059151123 -0.17466834 0.0862716 -0.08485619 0.26413298 0.01124285 -0.11037268 -0.13261439 -0.13170746 -0.26591763 -0.17825417 -0.53785163 -0.019121146 0.27813748 0.32420614 0.21502677 -0.17089805 0.06615421 -0.54843134 -0.32797325 0.056313492 0.05740208 -0.16174455 0.2985116 0.012998828 0.21461986 -0.04114481 0.3247627 -0.102014765 -0.042851187 -0.19948913 -0.1529308 -0.5451812 -0.4804398 -0.45996502 -0.21263057 -0.20131433 -0.2578471 0.093971014 0.2231407 0.093128555 0.36030024 -0.22066188 -0.13584328 0.01836159 -0.27967086 -0.16905239 0.3612369 0.36685777 0.2200882 -0.059358407 0.0077017825 -0.12938717 -0.20732059 -0.37568626 -0.12876208 -0.0070504355 -0.028181808 -0.24662584 -0.21132995 -0.11616926 0.2032456 -0.17722192 -0.6524946 0.033546153 -0.25368124 -0.40382275 0.25794235 0.05694586 -0.0046814587 -0.09746251 -0.34826437 -0.3035082 0.054935098 -0.90131176 -0.43031055 0.37693793 0.16881587
得 0.028683327 0.10731218 -0.3721709 0.33873007 -0.35453594 -0.138477 -0.16854002 0.47162443 -0.02080884 0.2146567 -0.32550997 0.16399744 0.34970832 -0.12681356 -0.0696135 0.18029276 0.23848134 0.38475662 -0.18300952 -0.24797271 0.32826135 0.025874441 0.06146862 0.039204877 0.23234415 -0.12893414 0.107901946 0.19281834 0.1682911 0.13740054 0.11612758 0.078429386 0.056088753 0.16026057 -0.4005953 0.04681489 -0.081709005 0.18029098 0.24786146 0.11845418 -0.23479092 -0.21743867 0.2890854 0.13528001 -0.38526174 0.48951933 -0.20805454 -0.12651193 -0.25314006 -0.07092658 0.20778753 0.008402575 -0.04096419 0.14000626 -0.26531437 0.119303085 0.3755816 -0.107545204 0.042981077 -0.21429089 0.409244 0.4157506 0.20213275 -0.31803846 0.14190994 -0.37155154 -0.07789362 -0.07648153 0.39025766 0.25753084 0.25462216 -0.023000006 0.2110442 -0.5217995 -0.09969321 -0.08677457 -0.18416011 -0.23781659 0.05638092 0.48742485 -0.22150657 0.047692508 0.29740947 -0.4525704 0.20937064 -0.3269377 -0.08834021 0.14118575 0.2217358 -0.16883862 -0.174531 0.3342095 -0.7457577 0.051852897 0.011631317 0.22394672 0.15092956 0.14720172 0.30399036 0.41750154
所 0.16857529 -0.22071727 -0.39956447 -0.012291501 0.0025793118 -0.13098797 -0.3034898 -0.33292392 0.40250808 0.060166072 0.1381778 -0.13082515 0.2177675 -0.5488305 -0.028108926 -0.08995975 0.4178442 0.4922875 0.053878125 0.16824111 0.6551688 0.046701454 -0.0055610654 0.33977264 0.051015288 -0.09410365 0.14073157 -0.30806547 0.19674726 0.29516384 -0.049192227 -0.32920447 0.14465141 0.11739789 -0.41300407 -0.13213274 0.43059114 0.20437098 -0.14061044 0.060087666 -0.2776268 -0.57653064 -0.04008018 -0.001413367 0.04317005 -0.15742679 -0.72465265 0.5637745 0.38842225 -0.253518 0.032370746 -0.4906718 -0.042742494 0.30738857 -0.16141868 -0.5973451 -0.33525717 -0.106110126 0.056762077 0.09986834 -0.23768796 0.20984706 -0.22535354 0.018592827 0.441894 -0.022729142 -0.33666366 -0.28750983 -0.17914142 -0.22599974 0.7080296 0.0049190503 -0.0555318 -0.019908065 0.12519409 -0.041770436 -0.19476326 0.19819401 -0.12678534 -0.012101565 0.0399276 0.14269254 -0.055688027 -0.29956132 -0.26372093 0.47181395 -0.36088794 -0.27735743 0.087766066 0.05287337 -0.17399718 -0.07602143 -0.004697761 0.16494003 -0.12815005 -0.011460589 -0.18990532 -0.321273 -0.12060239 -0.09426201
民 0.18115482 0.02294982 -0.29225287 0.4744059 -0.4157929 -0.42743292 -0.42480764 -0.16208896 0.006025423 0.06706522 0.26599592 -0.50900024 -0.31447554 -0.22918388 -0.30363387 -0.19664298 -0.33776465 -0.32484955 -0.116421655 -0.2945817 0.68464744 -0.0032567382 0.54233825 0.10462644 -0.14449327 0.31819567 0.34473962 -0.2345794 -0.03498529 -0.011371618 -0.35721338 -0.2699683 -0.0450398 -0.34945098 0.031355362 0.13066632 0.33044875 0.3190596 0.02410492 0.24634066 0.058440715 0.13498287 -0.18475755 0.28387442 -0.19582134 -0.26687798 -0.46358162 0.0129952915 0.07672673 -0.069368675 0.110583045 0.5867713 -0.120412074 0.09439307 0.0014972081 0.15927392 -0.02233214 -0.18087825 0.24018076 0.20083669 -0.07584191 -0.22174057 0.19460203 0.7473088 0.08892392 -0.20267375 0.3719328 -0.2470635 -0.26938188 -0.057630662 -0.0017749378 0.072226495 -0.11402867 0.080121145 -0.04011709 0.305625 0.16152677 0.2214249 0.106707126 0.34411943 0.07978991 -0.40803364 0.1245958 0.25927448 -0.083258376 -0.2527407 0.03284319 -0.018139314 -0.08060485 -0.095231384 -0.11367928 -0.2656542 0.1999109 0.20488642 0.33330613 0.3443083 0.19510165 0.21164714 -0.57231706 -0.3577814
小 -0.23204084 -0.047486648 -0.51438874 -0.014685023 -0.17776434 -0.15266053 -0.4636821 0.22780189 -0.17115237 -0.44010812 -0.057067983 0.063668095 -0.51504725 -0.22406898 0.14932233 -0.055629946 -0.3570629 0.36694318 0.13122024 0.037509974 0.33801395 0.13029642 0.37484026 0.14877053 -0.25452307 -0.15197393 -0.24630556 -0.1609169 0.2575547 -0.697771 -0.29759273 0.046241403 -0.016360609 -0.06704925 -0.31544298 0.06796722 0.06294517 -0.19879696 0.24144816 -0.20373839 0.16824996 0.27501026 0.5048381 -0.10825499 0.20288575 0.08187873 0.013382328 -0.45294744 0.0066522323 0.30108905 0.19591619 0.122570924 0.22349429 -0.041252997 -0.16938968 0.49550655 0.006151754 -0.16383421 -0.009268449 0.15465221 -0.061114486 0.38231343 -0.28289828 -0.31459466 -0.31409025 -0.18139382 -0.17116003 -0.062102012 0.29419723 -0.5989537 0.09018626 0.55542606 0.15822883 0.1742494 0.33385378 -0.011784788 0.24142942 -0.2473484 0.41499647 0.19369586 -0.15780383 -0.006266882 -0.011475918 -0.94170696 0.049612626 0.19752324 0.012924687 0.019993491 -0.14360209 0.12572633 -0.06333239 0.1718393 -0.28615877 -0.10453126 0.54590297 -0.35659078 -0.14636898 -0.42563203 -0.24200307 -0.10841608
天 -0.4086857 0.5902865 -0.29304773 -0.036448658 0.35593718 -0.3413291 -0.42332643 -0.15742715 -0.07562721 -0.20637709 0.18606164 0.4333713 -0.24215223 0.6396696 -0.42251673 0.059948917 0.07185259 -0.028103422 0.5454979 0.20656064 0.31225944 -0.2916966 0.14298727 0.29735607 -0.35927057 0.50173694 -0.45383024 -0.034750253 0.047925882 0.2875803 0.23687425 0.32145104 -0.3845153 -0.049552508 -0.0011908973 0.294125 -0.26917982 -0.42328978 0.5192245 -0.3760699 0.08171441 -0.24815801 -0.040367544 -0.2862338 -0.2444322 0.029436484 -0.53407055 -0.15272914 0.20587121 -0.3474272 0.048234195 0.55767614 0.34919587 0.16744846 -0.084728 -0.08481632 -0.19649181 -0.22844322 -0.14597523 -0.10272479 -0.0027035547 0.29103506 0.006309872 0.20641468 -0.16424686 -0.45026335 -0.21912286 0.0044476693 -0.13004197 -0.13502596 -0.03284805 0.04157618 -0.13064533 -0.3768189 0.1703845 0.33693993 -0.655044 0.23442349 0.011017462 0.32015702 -0.047391538 0.1659219 -0.13021572 0.009143566 -0.10895579 -0.12952514 0.107236385 0.23723173 -0.1401241 0.32167783 0.18331684 -0.20294563 0.14443648 0.18504623 -0.14911738 0.08216843 0.37005532 -0.22611813 0.0636608 -0.12592304
乐 0.85577524 0.19091593 -0.6847806 -0.29077104 -0.092436336 -0.08236424 -0.01042472 -0.00235071 0.17442293 -0.50977457 0.09788143 0.053547 -0.23715429 -0.058991797 -0.2290926 -0.107891105 0.58133906 -0.3581184 -0.46652 -0.12050607 0.39014333 -0.093806446 0.22114226 -0.14966914 0.26597753 -0.23878819 0.105886936 -0.35395122 0.398253 -0.37704787 0.056909107 -0.16862112 -0.28032863 -0.11096975 0.0658376 -0.17384025 -0.24968 -0.10738132 -0.04502394 -0.053739235 0.2099241 0.11975577 0.31698322 -0.17217039 0.2698695 -0.6230961 -0.25902322 0.22319542 -0.21142825 -0.186148 0.25502163 -0.31236553 0.43252105 0.1355011 -0.41698238 -0.15391481 -0.033677418 0.25202078 -0.2572723 0.074843794 -0.1382911 0.13124801 -0.539518 0.046883993 -0.1302006 -0.3908609 -0.014685801 0.017673753 0.42670906 -0.03020285 0.12681462 -0.0541024 0.14562854 0.06908257 -0.027240155 0.47880298 0.3227888 -0.2559663 -0.46613824 0.24666975 -0.10257766 0.3517522 -0.63415146 0.35253897 0.20826858 0.28155962 -0.05200044 -0.18516992 0.04704843 0.2063193 -0.16039929 0.04898678 -0.45609623 -0.67607725 -0.08541345 -0.008906856 -0.29775727 -0.1516777 0.18432878 -0.301145
邦 0.24912564 -0.67137235 -0.3483334 0.07809363 -0.18489538 -0.077473246 -0.085632615 -0.1107767 -0.18224974 -0.13870965 0.090693034 -0.3186378 -0.0022397183 0.16812588 0.12814851 -0.30765286 0.16791621 -0.02119009 -0.022049211 0.2453629 0.37420684 0.29778183 0.1787007 0.20150024 0.0655586 0.12983091 -0.0063573318 0.1148253 -0.41460887 -0.4059257 0.35626605 0.09677769 0.06895965 0.24769074 -0.07916382 0.22194378 0.119947605 0.5116952 0.18328443 0.6403914 0.32440558 -0.11430165 -0.67085177 0.2713478 0.21983442 -0.069144644 -0.21088585 0.3947767 -0.25304142 -0.12629274 0.6100454 -0.018123455 0.18357572 0.37702742 0.3981916 0.13482039 0.03820741 -0.39611638 0.19012263 -0.29763862 0.21715836 0.20440477 -0.10000796 -0.28410184 -0.55718005 0.026157942 0.10449942 -0.3769457 -0.033429 -0.046414126 -0.08707161 0.099750906 -0.32955024 -0.4958505 -0.45705494 0.23151551 -0.3532841 -0.5121966 0.041686725 -0.14492603 -0.043572713 0.22742943 -0.11385956 0.5573684 -0.13665247 0.47190687 0.4954078 -0.55525255 0.44777158 0.37672096 -0.35011196 0.051721487 -0.18326929 0.006016105 -0.16485868 -0.17188516 -0.17435682 0.11582034 0.14354125 0.108171165
亦 -0.14854443 -0.3482847 -0.053186756 -0.30464447 -0.056054108 -0.16077182 -1.0041625 -0.09979996 0.18630357 -0.110092185 -0.20999722 0.06580765 0.15968458 -0.17923109 -0.11445916 0.42414814 -0.6250867 -0.23846883 0.60956055 0.27514827 0.29293776 0.111966096 -0.31441912 0.45306778 -0.15715449 -0.018539641 -0.036320806 0.19597399 0.50644094 -0.66107917 0.025633303 0.16932854 -0.2840871 -0.14498308 0.13705616 0.14715914 0.27721632 0.1115071 0.0075678322 0.024211906 -0.1788506 -0.029892948 0.038977887 0.24555595 -0.22915919 0.18354274 -0.36051652 0.13185816 0.05728394 0.10751268 -0.15865669 -0.21841867 0.309643 0.12813963 -0.41112888 -0.124846 0.4284319 0.12070125 0.3726767 -0.5716312 0.018828614 -0.07216911 -0.35392687 -0.664852 0.069582984 -0.19526665 0.023725417 -0.24908526 -0.41471606 0.056099594 0.117656656 -0.11807403 -0.08960265 0.10342188 0.08272446 -0.07591729 -0.3647065 0.07831077 -0.19318266 0.13474742 0.004974621 0.061037622 -0.06961554 -0.009759864 -0.2922671 -0.29405987 0.30431834 0.39519653 0.11720407 0.07602882 -0.0045410027 0.10662154 0.0552225 0.09801456 0.22412384 0.066648215 -0.40770447 0.7889553 -0.26213878 -0.012165684
使 -0.02468735 -0.19638117 -0.56796044 -0.13235354 -0.47792712 -0.5534777 -0.52839136 0.45337632 -0.084670246 -0.15007417 -0.5832047 -0.09215801 -0.17388141 0.125241 0.35613585 -0.31097102 0.33116737 0.115391724 -0.06166158 0.21800756 0.3271584 0.5260627 -0.11372971 -0.00475824 0.08198452 -0.35213074 -0.06503706 -0.053482603 0.33226043 -0.2664779 -0.025534868 0.046779107 0.22172157 -0.05163335 0.20374338 -0.05463576 -0.4145597 0.0090561425 0.014702093 0.20092441 0.07226442 -0.086618744 0.3860422 0.31892374 0.016795216 -0.039019287 -0.23699255 -0.20412093 0.20345174 0.7726523 0.034779176 0.051389627 0.10132944 -0.12831375 0.07780944 -0.20821843 -0.01906705 0.53988975 0.2784394 -0.19150436 0.022666909 -0.4773592 -0.009349953 -0.5388834 -0.23090382 0.41281375 -0.0058756634 0.3354112 -0.38951007 -0.009019335 0.30399024 0.22837879 0.04608585 0.14950618 0.20570092 0.16602217 -0.29337594 -0.079859704 -0.2547207 -0.34937072 0.0058310363 -0.3156352 -0.18904354 0.12789288 0.34178773 -0.026494998 0.49249095 0.34735638 0.3943609 -0.3911992 -0.4473978 -0.029145446 0.3670119 -0.20329587 0.1548376 0.34388408 0.0710939 -0.014001634 0.32711205 -0.46240607
大 0.4013049 0.0023790868 4.5224297e-06 -0.107023746 0.09673097 0.5504979 -0.18859261 -0.22579864 0.48647544 0.26433212 -0.27949446 0.24412216 0.04019486 0.05222879 0.051151898 -0.35105976 -0.22709858 0.1994984 0.3367647 -0.25408527 0.12955311 -0.24343863 0.22758044 0.011836352 0.06079513 0.050535697 -0.20380533 0.029626215 0.14135867 -0.02021072 -0.5846843 0.039711244 -0.021381492 -0.2773358 0.07386439 -0.3943825 -0.03323576 -0.5569641 -0.066159524 -0.20125411 0.25993064 -0.41411802 -0.55999196 0.14892371 -0.070519745 -0.12047499 -0.43434104 -0.21378893 0.6490169 0.39979887 0.5856108 -0.6179016 0.07327018 0.26212835 -0.36346528 0.16117826 0.4562692 -0.20394638 -0.09016831 -0.050618306 0.0049935253 0.113619424 0.053112037 0.11518093 -0.06838442 0.17991167 -0.15099384 -0.35846865 -0.08042664 -0.16888878 -0.016728887 -0.25084338 -0.4766647 0.13174495 -0.26488143 0.27949795 0.1592428 -0.08146672 0.10420023 0.28942612 -0.5967698 0.18215905 0.17825888 0.18131864 0.28130633 -0.43721536 0.048334297 -0.30048442 0.18546465 -0.09237329 0.23605445 0.11245356 0.09810876 -0.29770014 -0.16980782 0.43268785 0.22487621 -0.069697924 0.15152764 -0.17239179
下 -0.4719641 -0.50604653 -0.29612207 -0.34061766 0.10299679 -0.29294193 -0.17124824 0.0462235 0.08879532 0.08783981 -0.27816996 0.101904914 -0.18783699 -0.13305983 -0.026721096 -0.028960975 0.18479924 0.18666421 -0.0014151388 0.46885437 0.4329159 -0.4791138 -0.0068043303 -0.32699823 -0.23508555 0.40683135 -0.09806177 -0.1496127 -0.004062447 -0.039132535 -0.36388284 -0.10091152 -0.25173244 0.13466078 0.3502372 0.044283472 0.35470963 -0.5161771 0.094146185 0.3177591 -0.03261509 0.042986926 -0.009535185 -0.33613783 -0.37619138 -0.12614803 -0.22885098 0.042577244 0.2529099 -0.15993904 0.25504646 0.19743854 0.3181778 0.06951574 0.3915755 0.2806825 0.17914768 0.19174083 -0.0672879 0.49663076 -0.36984742 0.1238907 -0.039092116 0.29140317 0.32230672 -0.26332605 -0.10194572 0.23596328 -0.3614622 -0.00878407 0.43599737 -0.19731498 -0.51016545 -0.55075777 -0.54308075 -0.13559042 -0.11465697 -0.37887812 -0.31057706 -0.064767584 -0.37368402 0.21213101 0.18423894 0.31765443 0.34711945 0.09918376 0.25837094 0.0014887617 -0.09732538 0.22202383 0.14654297 -0.08570263 0.21053664 -0.051359173 -0.21465541 0.20854631 -0.013761772 -0.015108534 0.12734096 -0.05992255
贡 0.16479897 0.21513534 0.056765646 0.16598682 0.20909804 -0.14297016 -1.7970788 -0.08393171 -0.20770042 -0.23327132 0.22121133 0.27768013 -0.26477087 -0.4286146 0.046050157 -0.30069056 -0.20372535 -0.4157279 0.29282585 -0.1999701 -0.4425711 0.66426396 0.3735838 -0.17212632 -0.052287567 -0.32158455 -0.66501194 -0.1979004 -0.1065377 -0.14167403 -0.13349761 -0.23802532 -0.03836904 0.40929538 -0.16868393 0.19794881 0.17270023 0.18673594 0.34297934 -0.2058325 -0.19970468 -0.24422313 -0.053925283 0.4543338 0.7575046 0.13323458 -0.38440326 -0.17158273 -0.0028251375 0.044588417 0.19605802 -0.2103512 0.5573745 0.11805156 -0.06768095 -0.11965804 -0.6150283 0.06728667 -0.70731974 -0.07654711 -0.0443 0.47099334 -0.3012338 -0.26056415 -0.28144467 -0.47656626 0.034573585 -0.17366682 -0.17779677 0.20081453 -0.10116689 0.5179915 0.04938697 0.23748304 0.3588428 -0.22502588 -0.013960707 -0.07226938 -0.09412491 -0.23659524 -0.04544832 -0.0056053516 0.6926121 0.6046725 -0.05612727 -0.0874873 -0.28705344 -0.33477452 -0.43124804 -0.340646 -0.25513738 -0.48830193 0.048843082 0.25729644 -0.3603081 0.19689444 -0.06943158 0.18104699 0.06540555 0.29950815
欲 -0.3746896 -0.15432279 -0.12063203 0.21293595 -0.13911837 0.17117044 -0.5259939 0.072265424 0.042328596 0.52991 -0.10182015 0.42926487 0.24831396 0.43038186 0.04440286 0.06403841 0.33932132 0.18184751 0.2760304 0.26823577 1.0044606 -0.36190677 0.28188536 0.13262309 -0.050433923 -0.19961205 0.23599114 0.07884956 -0.13186431 0.36854032 0.021565983 -0.4202226 0.20631088 0.16211052 -0.56457496 0.17941913 0.031930745 -0.20985092 0.20537509 -0.19222133 -0.06442381 0.034246393 0.3816318 0.32226026 0.17700502 -0.25949603 0.28475633 0.2931003 -0.13137883 0.47533366 0.061435696 -0.7217925 0.10572941 -0.054042302 0.18632217 0.08763776 -0.17483924 -0.06481684 0.11287878 -0.3487973 -0.3688295 0.15229617 0.22444066 0.22704113 0.26663268 -0.048976503 -0.06445783 0.49962977 0.43715304 0.0075839004 -0.31464535 0.28935516 -0.42013007 0.09856178 0.11664917 -0.12932722 0.2762559 -0.3094871 0.49031484 -0.056556225 0.43489802 -0.23892702 0.21740356 0.21048398 -0.4103642 -0.093682684 -0.20567438 -0.073459364 -0.23640159 0.0028239794 0.43555167 0.03533334 -0.38002357 -0.14376833 -0.13819832 0.15728249 0.070730165 0.29539266 -0.34960186 -0.018072871
诸 -0.22962289 0.26027837 -0.43401003 -0.050216652 -0.11673905 0.4186606 -1.0188515 0.17440647 -0.44158134 0.16018298 0.07265016 0.09283558 -0.3417897 0.39966807 -0.5425586 0.061333302 -0.21682689 0.21260713 -0.26223874 -0.09360797 0.2106888 -0.28735933 0.11619209 0.5265463 -0.228521 -0.25416872 -0.24671736 0.17554995 -0.64306813 -0.14855638 0.20280294 0.24954869 0.42945594 -0.21486953 -0.048626248 0.118463896 -0.1751451 -0.48549268 0.057501376 0.11683526 0.07058154 0.045024745 0.19475253 -0.3351567 0.55792755 0.37927732 0.047728706 0.7307264 0.32170403 0.31810874 0.15177746 0.3748634 0.028525699 0.057526566 0.017080666 -0.2164709 0.06754474 0.07743157 -0.43133864 -0.38555732 -0.40499103 0.056225657 -0.23775579 -0.041098 0.0140384035 0.2558288 -0.18098716 -0.22887158 0.41699132 0.14615098 0.30278462 -0.5411213 -0.12200438 -0.10231345 0.26519835 0.10530292 0.14279217 -0.18154009 0.5042375 0.038068213 0.037614837 -0.37812865 0.12022679 -0.14115858 -0.04509625 -0.18551555 0.110799685 0.3956261 -0.15390272 0.7531283 0.002561832 0.40899497 -0.45744383 -0.010225357 0.3112161 0.039918117 -0.20010759 -0.2579745 -0.10543786 -0.14436921
从 -0.014612946 0.33557555 0.033007946 -0.10653466 0.10716104 -0.06785137 -0.44234598 0.5039476 0.026218142 -0.1986366 -0.15681742 0.06295348 -0.094362155 -0.084750324 0.04269311 -0.6868425 -0.23523267 -0.37155703 0.098141775 -0.7215634 0.37229595 -0.18927884 0.064390406 -0.15931395 -0.0031328637 0.34873357 0.012527133 0.4220106 -0.032877512 0.20945293 -0.22256275 0.29157972 0.003160152 0.044370223 -0.07988428 -0.26986688 -0.19732897 0.65743536 -0.3839113 -0.109064184 0.28502658 0.10104204 -0.1283661 0.02541738 0.31895712 -0.16906394 0.032558538 -0.08398391 0.10166734 0.40774614 -0.1461672 -0.5475334 0.38245237 -0.22505648 -0.1324098 0.0503215 0.09906026 -0.1762027 0.1703774 0.26145542 -0.19855224 0.12104519 -0.07121742 -0.093250066 0.11771919 -0.0196932 -0.09020579 0.02151585 0.09391021 -0.043987818 0.21310458 -0.20233886 -0.1277459 -0.19317214 0.027107764 -0.48126572 0.24228632 -0.04274717 -0.23985857 0.41053715 -0.3311724 -0.2982637 0.061733082 -0.17282301 -0.31911427 -0.11012724 -0.3665754 0.2143007 -0.10432185 0.15913178 0.4261295 -0.2714879 0.032922607 -0.5008693 -0.14788152 -0.25221416 -0.15717798 0.29606128 0.8398104 -0.27670485
文 0.06911036 0.37640718 -0.019531462 -0.17371018 -0.17686626 -0.28001148 -0.43670052 -0.27729243 -0.13428356 0.04198952 0.20041025 0.27445835 -0.19852477 -0.03980206 -0.13850753 0.0028993748 -0.6991321 0.12297137 -0.44223 -0.119685724 -0.06039674 -0.29000887 0.08720354 0.20863867 -0.38961065 -0.11938151 0.13177149 -0.097382635 -0.3121209 0.006063125 -0.17478848 0.19394319 0.31050995 -0.3419304 0.16143131 -0.20374383 0.04517263 -0.11536472 0.10849767 0.1669556 -0.27991024 0.5307772 0.21827576 -0.43184125 -0.4323311 -0.3704763 -0.2679388 -0.02621321 0.4058056 0.26262438 -0.086316176 -0.30346513 0.13552189 0.10634323 0.09856787 -0.37600124 0.114371605 -0.30580732 -0.020988755 -0.057319995 -0.14623173 -0.37833294 0.38298517 -0.11270556 -0.38546097 -0.24176292 -0.08349585 -0.065900944 -0.08824441 -0.1914452 -0.3592684 -0.29851034 0.05240935 -0.6755506 -0.00014653744 -0.06074196 0.057662025 -0.16258428 -0.52506053 -0.1476544 0.22350562 0.16370949 0.21865948 0.36214113 -0.118215375 0.53136295 0.115995206 -0.24299632 0.050838288 -0.32350102 0.67849284 0.58758557 0.042979594 -0.74653524 -0.36066955 0.22623122 0.019265372 0.15263164 -0.46825847 -0.19843028
政 0.12948665 0.009479937 -0.14289196 -0.19351451 0.21610066 0.118245326 -0.67370874 0.13897929 -0.14208587 0.21882997 -0.4711683 -0.15332726 -0.14467043 -0.28636944 0.33796647 -0.26253378 -0.04605011 0.15617259 -0.33909836 -0.18329343 0.014896525 -0.11366257 0.04989428 -0.32005328 0.22158141 0.09155125 0.21981087 0.07393511 -0.016668716 0.590235 0.38171735 0.14913796 -0.24922186 -0.37405944 0.048215773 0.3701175 0.28542486 -0.2723262 0.065556936 -0.01757858 0.1586256 0.17706238 0.8606495 0.40729138 0.5385045 -0.443488 -0.11146786 -0.16402031 0.20913854 -0.055132624 0.53893894 -0.48588112 0.36242443 -0.3114768 -0.14928515 0.16804796 -0.007480406 -0.21069342 0.34460598 -0.33297092 -0.07562366 -0.60510993 0.29903024 -0.14455399 -0.44306096 0.06296594 0.3165819 0.067677915 -0.041354854 -0.4671084 0.2645847 -0.4024215 0.28923878 -0.272278 0.4235059 0.089977875 -0.23205103 0.41031316 -0.47674832 -0.10407206 -0.31066117 -0.09411172 -0.16956203 0.0519307 0.38846362 0.2585957 0.27975875 -0.21546894 0.3138886 -0.027657364 0.16080125 -0.18607849 -0.29701635 -0.3618906 -0.0747689 -0.22236347 0.28909504 -0.03915541 -0.17597313 -0.13685872
食 -0.16075721 -0.53076905 -0.60870427 0.51860046 -0.15013711 -0.21043207 -0.4679468 0.3738839 -0.36244953 -0.22726482 -0.43020305 0.14509211 -0.35030794 0.26491186 -0.35701516 0.26996303 0.39016718 -0.1881309 0.08058887 -0.24732257 0.502799 -0.038100615 -0.10277815 -0.5058251 0.23961623 0.24940215 -0.022302443 0.2541589 -0.024666443 -0.006228213 0.06700011 0.15713966 -0.18989182 0.32237032 -0.12789755 -0.011158485 -0.18626462 -0.0056610988 0.7058459 -0.28769764 -0.3254645 0.41339946 -0.5411048 0.08925347 -0.45433623 0.46498007 0.5291841 -0.4076839 0.11492997 0.32967675 0.13620475 -0.13296552 0.60029405 0.10700341 0.16732258 0.09700754 1.0171486 0.06359668 0.22528192 -0.24042876 0.1697539 0.10131017 -0.1423235 0.6578104 -0.029865447 -0.150224 -0.06890799 -0.10202984 -0.18128204 -0.20920745 0.12168448 0.34520048 0.020208875 0.38727227 -0.15544271 -0.3916011 -0.37979567 0.2567019 -0.090937495 -0.5639505 -0.6968949 0.1405971 -0.0762094 0.25178465 0.06837947 -0.14384638 -0.19557828 0.35815167 -0.091349825 0.061456565 -0.3121681 0.24977858 0.1265091 -0.42949063 -0.3990434 0.19045028 -0.30579108 0.021753857 0.0011054754 0.0784824
善 -0.27301133 0.32652807 0.21217653 0.1896491 -0.10326889 0.14262876 -0.594769 -0.06642538 0.42579335 0.051502444 0.28910744 -0.2786783 -0.3766364 0.5906687 0.29095578 -0.40782815 0.10934313 -0.08930451 0.33146155 0.38400316 0.46005893 -0.63620347 0.13800201 -0.28549382 0.17445745 -0.17170647 0.23349783 0.011512901 -0.020235179 0.290009 0.35308415 0.007001013 0.5497093 -0.1650062 0.21627274 0.3884397 -0.6782852 0.1699581 0.08973474 0.3095839 0.016003966 0.16546616 0.2857685 0.38827837 0.57256824 -0.12894894 -0.117694035 0.6250789 0.082934804 -0.15312082 0.1065398 0.2386084 0.26686135 0.4296771 -0.036290642 -0.29244113 0.05788654 -0.094667405 -0.011543218 0.28174102 0.1383065 0.37996885 -0.19013032 -0.38767377 0.22227758 0.12923579 0.26369286 0.31836063 0.053653732 -0.16678448 -0.20311645 0.27050838 0.09492711 0.12736145 -0.40374443 -0.14461358 0.035676822 -0.29478607 -0.182312 0.29850107 0.4736608 -0.11559392 -0.022921838 -0.11124621 0.30021158 -0.042155504 -0.44963503 -0.09861493 0.4185029 -0.20665237 -0.039067138 0.11069318 -0.36374745 -0.107166186 0.036120433 0.54300576 -0.15441322 0.4160062 0.030883191 0.29677236
后 0.19644302 0.11998612 -0.54909575 -0.028865917 0.6883281 -0.50592965 -0.6508505 0.45135826 0.11957068 -0.026421245 -0.26879883 -0.37812808 0.43637022 -0.20392236 0.11469159 0.014287924 0.18880072 -0.26145437 0.24540092 -0.2760915 0.33111784 -0.12744592 0.24276403 -0.3810864 -0.014483088 0.10061633 -0.012377002 0.057475183 -0.14594777 -0.45315984 0.35371238 -0.69012284 -0.20255905 -0.3824025 0.31103185 -0.38642162 -0.23217314 -0.29958013 0.40132177 -0.11432755 -0.20185687 0.43471527 0.16167937 0.2961449 -0.14362553 -0.3544116 -0.03760188 0.44167247 -0.16568817 -0.10312601 0.39663234 0.08285807 -0.077261284 0.30307811 -0.074680254 -0.04959075 0.40589544 -0.36713788 0.03378151 -0.65805554 0.17719823 0.5331886 0.04646346 0.015280781 0.2563973 -0.08193099 0.5052085 -0.03201873 0.5026805 -0.22951394 -0.018602673 -0.14867267 -0.47968978 0.56929255 0.26344073 0.5516703 0.26744923 -0.58539367 -0.15354382 -0.2236241 -0.08230974 -0.10805611 0.2616039 -0.07446481 0.37861523 0.12755589 -0.15695466 0.31154785 0.028514666 -0.4212436 -0.32969454 0.18983111 0.025694367 0.36673942 -0.30865908 0.37846673 0.36765325 -0.16080217 0.27038404 -0.49267682
德 -0.31712514 0.19682467 -0.06725941 -0.043547913 -0.114193216 -0.10454093 -0.6570537 -0.029906616 -0.03545754 -0.49550447 -0.06824999 0.14577886 -0.21428101 0.43083102 0.1618525 -0.4218288 0.32662207 0.19217096 -0.09889657 0.5051435 0.30151004 0.24365836 0.45222658 0.14001738 -0.2749445 0.16051394 0.2802868 0.4743289 0.67457443 -0.042576917 -0.6733615 -0.032685045 0.3896772 0.26631925 -0.25369227 0.44586548 0.33356592 0.2541587 -0.14860931 0.10089894 -0.017740251 -0.13338692 0.016965741 0.08256168 0.1631208 0.08286078 -0.37741205 -0.242246 0.0064029046 0.05328131 -0.0131492065 0.21538696 -0.27149412 -0.18072753 0.39954138 -0.082104616 0.29418534 -0.45516652 -0.09771728 0.21373954 0.28748125 0.5083904 -0.20707448 0.06491251 -0.54396516 0.71109146 0.091855496 0.17210566 -0.44787416 -0.029246965 0.2235663 0.06387242 0.482353 0.45260927 0.044858817 0.064269274 0.48113102 0.06298327 -0.5059179 0.36287996 -0.13766678 -0.3789601 -0.07074844 -0.3680133 -0.31628886 -0.08142122 -0.016749635 0.019854328 0.27765697 -0.55567914 -0.30843058 0.15493673 -0.39487413 0.42982304 -0.0006404653 -0.25206777 -0.14305134 -0.17483288 0.5395897 0.0954354
求 -0.1472963 0.3026239 -0.08983059 -0.018174568 -0.2719596 0.039565474 -0.16104844 0.05833798 0.064809605 -0.26528862 -0.49724227 0.039489776 0.35305297 -0.107977465 0.088248715 -0.09381874 0.22328888 -0.24246563 0.0016876212 -0.17146021 0.22776037 0.036003824 0.18978648 -0.305953 0.25255924 0.38959727 -0.40867147 -0.26021305 0.093207866 -0.061191116 0.33795372 -0.47660774 0.07188022 -0.35743266 0.1735884 0.5075936 -0.035317708 -0.14870825 0.08353851 0.15988807 -0.03588945 -0.27859002 -0.25657523 0.10113585 0.6896448 0.12851259 0.11187631 -0.6204889 0.074511625 -0.069813825 0.41114292 -0.054083806 0.38836882 -0.0959082 -0.6054921 0.4655087 0.06484965 -0.7285828 0.2304004 0.04721766 0.015350265 -0.062177178 0.3450488 -0.019746495 0.07493614 -0.17007656 -0.2802276 -0.0005877733 0.24454647 -0.13183211 0.828638 -0.22376336 0.32003018 -0.5443663 -0.14785926 -0.31668335 -0.09070925 0.26744443 0.46531016 0.062772155 0.32947198 0.11461503 0.30904183 0.089377634 0.35078645 -0.0355878 -0.2690271 -0.4682302 -0.006530447 -0.3579151 0.09404134 0.2558393 0.24961087 0.2142651 0.047938332 -0.31408918 -0.32846364 0.18000369 1.0483294 -0.18624233
对 -0.34673333 -0.43006203 -0.25346962 -0.4446072 0.27522457 -0.57587725 -1.5917691 0.44278476 -0.6870002 -0.0064821 -0.27249253 -0.2754729 0.595909 -0.7803838 -0.10614077 -0.2709353 -0.11052696 -0.0963574 -0.09580173 0.29875413 -0.5018698 -0.2722494 0.06320711 0.019968389 0.12494174 0.31566116 -0.39993265 0.18477894 -0.32436633 0.07810526 -0.44402853 0.0024779998 0.13073254 -0.1632821 0.039375443 0.36666876 -0.5305358 0.058723167 -0.22335848 -0.24688116 0.039660484 0.15020132 0.036977418 0.039246127 -0.018141292 -0.34212542 -0.25484008 -0.20702142 -0.20269608 -0.060151566 0.3016214 -0.08857154 -0.06803335 0.4521953 -0.1117109 -0.67459726 0.16660011 0.13128304 -0.06587418 0.59719497 -0.39448678 -0.34637758 -0.18562512 -0.48010373 0.12241237 -0.08847143 0.18171638 -0.2539651 0.3980441 -0.09171783 0.026961483 -0.24815269 0.037818983 -0.059185494 0.67501426 0.18653846 -0.2837483 0.73139566 -0.274937 -0.18911612 0.46406174 -0.20036262 -0.1561447 0.03743122 0.19182654 -0.19994484 0.022347612 -0.3854737 -0.6677796 0.100801185 0.25505736 0.25583887 0.3237188 -0.21863005 0.08993813 -0.2784678 0.18970245 0.2884887 -0.4410111 -0.0073346593
恶 -0.058059648 -0.14056408 -0.358604 0.5415857 0.015694207 0.051937845 -0.1380823 0.015514157 0.11565467 -0.29072145 0.19453768 0.16180944 -0.18224901 0.46411332 -0.05609614 -0.10886243 0.39558908 0.23264563 -0.0576636 -0.066046715 0.8899385 -0.54141366 -0.082516715 -0.19055921 0.051980756 0.34954458 -0.26064867 -0.34426793 0.18806505 0.13801472 0.24313487 0.20454471 -0.14777993 0.044003915 -0.20707116 0.17518893 0.68588567 0.41456363 -0.30925038 0.503651 -0.4748762 0.050736718 -0.7252767 -0.4577209 0.102157414 -0.48950902 -0.09401252 0.17951947 0.15874687 0.13488941 0.4538851 0.1849346 0.10888273 0.0840056 -0.22851728 0.032064617 0.04663129 -0.28201586 -0.44842315 0.18783249 0.5528723 0.13778913 0.13530658 0.1835215 0.41742823 -0.16688246 0.31742337 -0.18289025 -0.044299874 -0.27129257 0.6193299 0.34315893 0.34880152 0.6102016 -0.91229427 0.25272232 -0.1467808 -0.36325186 0.15317847 -0.18649086 0.4431603 0.24586308 -0.36142263 -0.43238232 0.26326203 -0.22855859 -0.060109854 0.075233534 -0.103417285 0.3715519 0.6987144 0.2623538 -0.9381443 -0.07636092 0.2594293 -0.27657756 0.093101814 0.5765723 0.1820546 -0.06365799
信 0.39881873 -0.17224702 -0.66185313 -0.30239666 -0.40986374 0.31619433 -0.21693552 -0.17176692 -0.063479975 -0.15483138 0.17483172 0.38498774 0.023467585 -0.01770772 0.1735249 -0.527836 0.1078977 -0.38283893 0.49845234 0.29547328 0.78713906 -0.3695603 0.36946213 0.14484935 -0.3463456 0.15690024 -0.43362966 0.08863354 0.24619949 -0.24969643 -0.37320173 -0.4297352 0.13123547 0.21177398 0.27990824 -0.19611552 0.0023422549 -0.18220446 0.30566952 -0.07875653 -0.16207713 0.30483574 -0.076644436 0.5728899 0.4297759 0.3584982 -0.19017671 -0.16550039 0.3860836 -0.31414166 0.11342002 -0.03352552 -0.061881248 -0.051618397 -0.6036682 -0.096878886 0.15755458 -0.23253451 -0.37768924 0.62353027 -0.4237293 0.20540443 0.12964968 0.39223078 -0.157916 0.3453058 -0.16281155 -0.087251745 0.08531288 0.18766874 -0.40767995 0.13586722 -0.15447652 0.27501258 -0.26608783 -0.39414194 -0.13763112 -0.38340515 -0.13132076 0.25116712 -0.23770563 0.16420582 0.36412105 0.21127085 -0.29197356 -0.34211275 -0.06902544 0.012951254 0.31405234 0.34235817 -0.19276729 0.5101573 0.24234381 -0.0064695245 0.5417192 -0.17168608 0.06620107 -0.012703891 -0.035552632 0.05062856
死 0.033424504 0.5348236 -0.34592947 -0.037859395 -0.115973845 -0.07461291 -0.20886134 0.5837278 0.17976516 -0.08957099 -0.03497833 0.35713437 -0.23098691 0.08701166 -0.11326011 -0.6187836 -0.1797563 -0.06303588 0.43348548 0.07485096 0.10776036 -0.26833013 -0.061430424 0.101809025 0.020206973 -0.13959517 0.20136249 -0.2080626 0.1416474 0.39833128 0.043416094 0.29553458 -0.21795343 -0.4732815 -0.5940614 0.09995007 0.32593083 0.1414478 -0.36075106 0.34772876 -0.58667403 0.21247022 0.24623594 0.080984004 -0.35884959 -0.5302867 -0.1933669 -0.08217944 0.02688439 0.15529019 -0.13898788 -0.010147416 0.092013225 0.46764383 -0.078782834 -0.34605837 -0.68915224 -0.042548962 0.19344959 0.23062362 -0.010408218 -0.08162392 -0.016644118 0.5140318 0.19549772 -0.027559284 0.28551203 -0.60672736 -0.3412494 -0.455596 0.06458532 0.22528312 0.02494356 0.056852058 -0.13913323 0.12771165 -0.12832169 0.1363042 -0.01214344 -0.1151457 0.05299883 -0.123219706 0.2528714 -0.8126665 -0.42677867 -0.18020767 0.02981553 0.021516625 0.29022998 -0.21339573 -0.30521312 -0.09509607 0.43573266 0.014076063 -0.4114903 0.31664613 0.26631796 0.21254133 0.114237405 -0.027107615
然 0.47547874 -0.34847447 -0.26476586 0.08840998 -0.29276177 0.2202357 -0.3846078 0.4165069 0.02238197 -0.8121602 0.20094839 0.4835272 0.00032912893 -0.09657049 0.10697624 -0.24199696 0.0015451101 -0.077654645 0.3932611 0.29641634 -0.06789317 0.04328543 -0.12969875 -0.6251071 -0.050702356 0.24674895 -0.18620653 0.24162918 0.38590667 0.0744612 -0.22262973 -0.05617542 -0.09526315 0.061378445 -0.06385193 0.11817056 0.28032342 -0.2460404 -0.067987956 -0.07879464 -0.084520906 -0.18476057 -0.161857 -0.26692736 -0.2523709 0.32207274 -0.13430768 -0.03296337 -0.022144709 0.3034572 0.6297363 0.008471042 0.22531058 0.20730542 -0.22029378 -0.049184438 -0.23743564 -0.17407961 0.15625326 -0.23324198 -0.247002 -0.36264282 0.061216142 -0.2822005 -0.1812516 0.31873974 -0.24459347 -0.08520598 0.5387325 -0.5062013 -0.44987276 0.075829715 0.14845096 0.1924001 0.017573182 0.114516154 0.49437568 -0.47780275 0.14205682 0.32626104 0.27979496 0.123182125 -0.016755903 0.058005646 0.08074652 -0.011260479 0.049078826 0.22564656 -0.19263709 -0.10898133 -0.16459039 -0.05691825 -0.41908956 0.3473848 -0.51860124 -0.09887824 0.18869382 0.13534401 0.038141623 0.29194063
《 0.28985408 0.08037482 -0.33190438 -0.6166148 -0.22431697 -0.8198332 -0.2370339 1.1177284 0.09099964 -0.29816312 -0.50369275 0.11585822 0.5088188 -0.071398795 0.21966033 0.43228516 0.06485591 0.39361006 -0.15480687 -0.43467614 0.311211 0.16867565 -0.062414974 0.17724751 0.6169583 -0.25362968 0.14958096 -0.08070908 -0.05488071 -0.3659912 0.21503153 0.17720091 -0.28115577 0.24381588 0.20634536 0.08288678 -0.13590065 -0.030035006 -0.118605725 -0.4964532 0.15714219 0.3811513 -0.21128859 -0.0028895107 -0.058038305 -0.18497197 -0.34909388 -0.22243123 0.12587246 0.5311774 0.539473 -0.20744361 0.36669743 -0.3435117 -0.03889034 -0.26602468 0.20326868 -0.18614092 -0.045090184 0.19602984 -0.23521116 -0.05263129 -0.26035756 -0.12913443 -0.18492688 -0.38336742 -0.26835975 -0.41397363 -0.3274297 -0.057589095 0.058752887 0.12080303 -0.16499545 0.079402395 -0.9226168 -0.11869502 -0.19616294 0.01810857 -0.40490916 0.47105736 0.47844073 0.5516314 -0.092152774 0.25761005 -0.4032249 0.10960126 -0.3684771 -0.2873122 0.18276308 -0.33415478 0.099615514 0.16254659 0.4362778 -0.2275416 -0.57406324 0.22026573 0.2653046 -0.43702164 -0.23952773 0.5108193
