1352 50
， -0.010306528 0.7084607 0.025980756 0.4598248 0.27865615 0.050997097 -0.1832474 0.26513436 -0.0018175254 0.09357086 0.19378485 0.3541248 0.20884411 -0.09671632 0.32302585 0.041163042 -0.26487696 0.049362317 0.08332771 0.1400862 0.02412876 -0.057270046 0.13176006 -0.27839816 -0.15444802 -0.24911408 0.31075445 0.09655324 -0.41866603 0.0115458965 0.041229505 0.19463663 -0.10462505 -0.12548873 0.09368279 -0.09207388 -0.00037001263 -0.261652 -0.0770966 -0.111279525 0.09855362 0.05206917 -0.1819247 -0.045048855 0.12502576 0.0885954 0.51096874 -0.24173388 -0.047990162 0.0415239
子 0.0928696 -0.12101886 -0.0062713963 0.69365203 -0.16756392 0.059568353 0.009227481 0.17466837 0.06275656 0.10771963 -0.18179837 -0.054828916 0.14875123 0.057980537 -0.6697894 0.13085127 -0.07152968 0.22133283 0.05725444 0.1548085 -0.096454 0.23033139 0.06508716 -0.22890577 0.085171595 0.049308896 -0.018563334 0.026597729 -0.04339814 -0.14377262 -0.13369234 -0.015896467 0.07265081 -0.13296703 0.03549256 0.09939726 0.11587269 0.00016559153 -0.13258 0.006268744 0.053574447 -0.091482736 -0.23888133 0.03290012 -0.14588562 0.051072173 0.1736112 -0.029289749 -0.15426672 -0.062086634
。 0.16827434 -0.025747744 -0.111009836 0.9438408 0.106662005 0.14891791 -0.053219926 0.2860413 -0.13142538 0.05879797 0.1664038 0.21325672 0.14044407 -0.01583762 0.25736845 0.30491906 0.07476625 0.25101268 0.29475546 -0.040002503 -0.0035931254 0.078381434 -0.010998778 -0.13168022 0.08686611 -0.08221584 0.098560646 -0.23962623 -0.04945947 -0.013067343 -0.20632984 0.0005927468 -0.064524084 -0.012782097 -0.065438636 0.14439332 0.18952039 -0.25569245 -0.2118858 -0.1590948 -0.05940537 -0.16937254 -0.28574255 0.11431925 0.007278128 -0.37451214 0.17987703 0.029343402 -0.13686039 -0.20434888
： -0.09503054 -0.15498668 -0.19249246 0.8646573 0.11831022 -0.072207324 0.1315277 0.24327308 0.33990985 0.041928887 0.038240205 -0.028375892 0.010569653 0.16347314 -0.45446965 -0.06838717 -0.12629968 -0.00467723 0.3523177 0.053891703 -0.18644676 0.12151462 -0.18306917 0.013446571 0.06263128 -0.06221086 -0.051995512 -0.19065706 0.098134466 0.13260984 -0.0148108 0.047282223 0.011170167 -0.0041624233 0.11852698 -0.008798858 0.008789077 -0.19886194 -0.54376256 -0.010037784 0.09616798 -0.00042988552 -0.24781713 0.052562974 -0.15950438 -0.0146816345 -0.08209567 -0.031337347 -0.15681349 -0.07480428
曰 0.013525722 -0.23264727 0.052098397 0.8895214 0.018329155 -0.0381913 0.09194772 0.14654496 0.06160268 0.037281767 0.1208643 -0.014802598 0.05347254 0.12873343 -0.652413 0.2565223 -0.001053756 0.07086876 0.23126836 0.22898977 -0.15264794 -0.014463837 -0.17337294 0.06512665 0.07307243 0.036234315 -0.030779561 -0.12216281 0.19984265 -0.034714676 -0.11223223 0.008583618 0.045879647 0.33539155 0.09041383 0.08220185 0.036680628 -0.09186916 -0.40104735 -0.14069746 0.13295017 0.011499733 -0.25224623 -0.0038501073 -0.1134104 0.17986688 -0.22526008 0.06574022 -0.16573785 -0.0134123415
之 0.32126454 0.18992907 0.15163782 0.48306775 0.21180229 -0.14172843 0.072095044 0.045213796 0.17418465 0.01607408 0.2869889 0.1928607 0.114152715 -0.03496162 0.057668265 0.025617506 -0.10346971 0.16866755 0.25049022 -0.03357809 0.13041094 0.09139339 0.11622975 -0.14507893 -0.23863277 -0.20004226 -0.07227564 0.4290351 0.00014285604 0.24477234 -0.19082092 -0.13859233 0.10192044 -0.33258525 0.0033216993 -0.027199063 -0.07146449 -0.26189372 -0.11643282 0.012369532 0.29320103 -0.22060055 -0.20811433 -0.09219616 0.42174813 0.00080051896 -0.06376534 -0.2330056 -0.07246979 -0.110946976
不 0.09108009 0.7744679 -0.027193066 0.3204148 -0.08765215 0.08453589 -0.14346193 0.3373638 0.10908289 0.12972225 0.26588932 0.00381314 0.06579732 -0.16976228 -0.13705344 0.09475078 0.28685278 -0.009802579 0.1913306 0.05054486 0.1568835 0.0019287574 -0.29091018 -0.09319459 -0.19937018 -0.12985048 -0.06932477 0.048975084 -0.10031686 -0.22881053 -0.0074160374 0.026523205 0.12546141 -0.36675146 0.02849082 0.06689357 -0.03042856 -0.20387746 -0.17976125 0.06427846 0.1872748 -0.10547136 0.0048888763 0.10019753 0.03997406 0.07459125 0.13753645 0.13121708 0.20161441 -0.031586133
也 0.32061383 0.2677025 0.0802242 0.4873571 -0.1263142 -0.26536462 0.09580951 -0.046184376 0.23788886 0.026497971 0.023857106 -0.0034046187 -0.07655401 -0.28838134 -0.33909145 0.26754844 0.04082203 0.02527106 0.4733694 0.04153817 0.12978218 0.17559776 -0.02257179 -0.24203877 -0.06429219 0.13557467 0.018220726 -0.0030036445 -0.08607947 0.14839135 0.13547967 -0.24294601 0.046487823 0.27833351 0.1704028 -0.044636786 0.06009515 -0.33954078 -0.008750932 0.015057078 0.15127173 -0.26765305 -0.038368497 -0.21119092 -0.008662524 -0.30910102 0.12010144 -0.0032436415 -0.12502207 -0.023701364
而 0.34520024 0.35500646 0.10482564 0.64667785 -0.42824757 -0.22497511 0.005304975 0.32900488 0.33557394 0.00042246748 0.051627144 -0.03964441 0.16960113 -0.0927789 0.08299604 0.056661375 0.10860095 0.12367205 -0.18362412 0.16448213 -0.025252834 0.004975105 -0.14793138 0.051355053 -0.080960386 0.26479384 -0.20013283 0.4945491 -0.041194793 -0.22336864 0.07506685 0.1094163 0.00420966 0.11507933 -0.10993106 -0.20475358 0.013005839 -0.12732644 -0.085783005 0.19019182 0.12992471 -0.19314928 -0.23258132 -0.023407422 0.09812204 0.1533452 0.10246964 0.29328692 0.031911217 -0.05844225
？ -0.044373497 -0.27693424 0.23698863 0.9868231 -0.19480655 -0.013665246 -0.07516953 0.12648089 0.13750222 0.05334992 -0.015149386 0.14216655 -0.025517154 -0.40624818 -0.07681146 -0.061688803 0.13067512 0.03770569 0.25970358 0.016537776 -0.34095374 -0.09114402 -0.006053429 -0.11148523 -0.13387302 -0.3077741 -0.094934426 0.23358396 -0.017382832 -0.0820796 -0.13002527 0.20178714 0.027400173 0.016054833 0.07417617 -0.31195393 0.078734376 0.111158796 0.012679059 0.23703037 0.15351571 -0.0708035 -0.035136133 0.41787666 -0.20943056 -0.2579156 0.25509512 0.050724104 -0.009315463 0.18088731
其 0.17365485 0.44196656 -0.046517506 0.42865205 -0.22296171 -0.2702047 0.046456233 0.052820686 0.09406854 0.112730235 0.3512195 0.20782675 0.23864464 -0.15888672 0.100163825 0.22399747 0.07135147 -0.36056983 0.028477041 -0.03925618 0.28838724 0.1598963 -0.06439876 -0.06110463 0.10381993 0.15977916 0.029185548 0.32339275 -0.0129869245 0.061680607 -0.14658508 0.04173052 0.10509014 -0.024756724 0.156023 -0.09092596 -0.2602647 -0.0031187206 -0.07163341 -0.13922313 -0.091427684 0.1201843 -0.15929247 -0.13556054 0.12549025 -0.01982405 0.21762161 -0.03358248 0.17831264 -0.17470036
人 0.10419289 0.15539975 -0.21156919 0.51671475 -0.01022584 0.18581939 -0.11727247 -0.19367751 0.15166725 -0.072074465 0.15331773 0.2510123 0.13787997 -0.12319907 -0.11093574 0.12955797 -0.05342205 0.04088665 0.19829172 0.11319456 0.07813303 -0.045634225 -0.17175168 -0.027721414 -0.18718107 -0.024275508 -0.26032442 0.31443757 0.110859275 0.18858823 -0.14368139 -0.45700303 -0.1057598 -0.0049043796 0.068838805 0.11247241 0.034744546 0.12171638 -0.18889686 0.12893328 -0.0953312 0.38406956 0.08829702 -0.03192544 -0.14041439 -0.29310828 0.18514654 -0.109628834 -0.05995937 0.005716877
者 0.24195373 0.34867314 -0.34385794 0.40685794 0.059975944 0.10637693 -0.13829944 -0.109210454 0.031757876 0.34333712 -0.15918104 -0.22983178 -0.071229726 -0.1606155 -0.02965432 0.044208992 0.055959452 0.029077942 0.2929473 -0.14681908 -0.31138736 0.4643907 -0.018231394 0.123467036 -0.11300901 -0.1685064 -0.11603878 0.32812503 0.06950745 0.112568736 -0.014799926 0.15534528 -0.11786769 0.32726446 -0.04719991 0.024270903 -0.10419275 0.31432065 -0.13418323 0.114854716 0.0067785075 -0.021514136 -0.011570387 -0.15331681 0.037919767 0.08467775 -0.03428786 -0.062800296 -0.039476186 -0.09610593
以 0.08094803 0.44631547 -0.18703403 0.7558582 -0.011015242 -0.31886446 0.15135711 -0.060734864 0.0390831 0.023769276 -0.30257547 0.087749965 -0.02632061 0.16151406 0.06501768 0.09651315 0.033254538 -0.28041342 0.087322526 0.41956913 -0.27665153 -0.035699148 0.19901544 -0.015557444 0.044224948 -0.28324974 -0.16788161 0.15190768 0.10369943 0.15029125 -0.059678923 -0.25387242 0.15480575 0.17062797 -0.063586354 0.22127815 0.22645457 -0.1930294 -0.005109496 -0.08017729 -0.20868061 -0.24788906 0.17064705 0.28556854 0.15899579 0.0464498 -0.06612689 0.2398171 -0.109922275 -0.06390367
有 -0.08126202 0.16440172 -0.35096252 0.57647157 0.11415245 0.19846186 0.27754235 -0.0022669965 -0.08756271 0.09312681 0.31656897 0.06779502 -0.03819585 -0.020515187 -0.17707454 0.1412005 -0.08951133 0.2113649 0.09449059 -0.14153141 0.00058725197 0.03549172 -0.03223101 -0.21549918 0.017258517 -0.27886832 0.062876314 0.35205132 -0.05642775 -0.09007857 -0.04290811 0.29713467 -0.3170882 0.070704944 0.16967522 0.17405106 0.21468095 -0.17922612 -0.1747378 0.19470087 0.03475771 -0.13716955 0.51884156 -0.0033778907 0.02368794 0.3009361 -0.30126885 -0.08198631 -0.27221423 0.25831488
于 0.27648014 0.09521094 0.14513195 0.72788364 -0.22782992 -0.13808382 -0.08210803 0.069232605 0.04296774 -0.05174704 -0.1824536 0.15269719 0.11870529 0.30374467 -0.0896198 0.17309956 -0.016082635 0.09067215 0.27151975 0.1339281 0.16071475 -0.14024954 -0.009767119 0.153752 0.2516322 0.1027978 -0.010333241 0.3045592 -0.047856208 0.38490185 -0.1598759 0.017645424 -0.40349802 -0.41680336 0.0444443 -0.02445452 -0.034427837 -0.3220337 -0.118192814 0.046493664 -0.17447177 -0.14690918 0.14614211 -0.045978565 -0.08501221 0.2295531 0.0037734401 0.09374889 -0.057520576 0.20645574
矣 0.0012836759 0.15791881 0.041924413 0.5281752 0.056308184 -0.20197493 0.33480898 -0.06635981 -0.06677817 0.60756606 -0.06269317 0.2281419 0.10874168 0.11673462 -0.13227549 0.19525899 0.017826358 0.12897222 0.14894275 0.15323581 -0.12371457 0.34470916 0.15955362 0.12863185 0.1077859 0.13302734 0.009704832 0.005400244 -0.1621007 0.03462931 0.058716882 0.0044828774 0.014943736 -0.26404035 0.057078 -0.20127243 -0.16688411 0.10342846 0.119154036 -0.12811674 -0.10163898 0.27119955 0.12748736 0.08205555 0.17380023 -0.5308214 -0.09728887 0.09650738 -0.015745256 -0.278645
为 0.11271001 0.27864853 0.20269306 0.49125966 -0.06533368 0.23768434 0.29451212 0.091970526 -0.10810347 0.25942945 -0.20420584 -0.04711912 -0.32810584 -0.22707869 -0.32012886 -0.032711823 0.076701045 -0.078077324 0.28039318 0.15352003 0.08188819 -0.008070984 -0.0016383451 0.06256106 -0.23186184 -0.48615077 0.0139258485 0.18825457 -0.025117276 7.8686775e-05 -0.07673881 -0.44197437 -0.06134454 0.26223344 -0.2633654 -0.10325429 0.1377517 -0.021045066 -0.02230124 0.085010484 -0.15968385 0.10318279 0.2544515 -0.17234553 -0.12558569 0.16259946 -0.29767546 0.03591366 0.054236613 0.0058659622
君 -0.16701324 0.04301447 -0.26264414 0.58074576 0.12994927 0.018969202 0.021331144 -0.12799366 0.043359637 -0.09368704 0.050387952 -0.2860843 -0.15814081 0.048862956 -0.5251648 0.117666155 -0.17298308 -0.11548095 -0.03440147 -0.02050414 0.10326404 0.18915895 0.089203045 0.128991 0.12044023 -0.25241295 -0.20936617 0.04599568 0.3568354 -0.19492282 0.037563518 0.11941421 0.08550505 -0.067074366 -0.28090575 0.27925065 0.082479805 -0.28437838 0.12800428 0.24196239 -0.1588474 0.14409745 -0.24027729 -0.16768877 -0.14033036 -0.2938388 0.30471417 0.076188274 -0.009941885 -0.14018874
乎 -0.4646461 -0.059606384 0.03716434 0.4526236 -0.026827011 -0.17580979 0.026540881 0.36764312 0.004088015 0.10470616 0.14823341 -0.054432023 -0.061725236 -0.2448454 -0.40156862 0.012642122 -0.056040082 -0.0033233073 0.16526946 0.15631726 0.163787 0.25048953 -0.1036247 -0.13396938 0.30601647 0.052142616 0.16488767 0.5045432 -0.081894636 -0.16568618 -0.26816708 0.06033007 -0.15518257 0.14696096 -0.11703326 -0.181038 -0.21677905 -0.21366033 -0.49817172 -0.06248679 0.09254346 0.111016236 0.18354987 0.41290545 0.12152372 -0.22136137 -0.10675163 0.1001164 -0.07700168 0.021290455
可 0.29191872 0.4468076 0.2480242 0.56020486 0.002138663 -0.124654934 -0.26164818 -0.035506625 0.2217697 0.029530738 0.21495464 -0.24153014 0.36781284 0.064648695 0.09527247 -0.00045182742 0.03202708 -0.03260901 0.108111404 0.15117483 -0.060156684 0.08438173 -0.12279423 0.041416354 -0.09927436 -0.46764123 0.27670887 0.05795259 -0.09599207 -0.17516814 0.27869695 -0.1847425 0.03949389 0.07988795 0.14446916 -0.24098139 -0.20304874 -0.076854676 0.10854585 -0.044456273 -0.044145092 -0.19258857 0.0836383 0.045429062 0.043988004 -0.30816707 -0.09896535 0.03680764 -0.21284403 -0.20758815
如 -0.058223344 0.4760606 -0.20973383 0.37570155 0.029160647 0.11490612 -0.1169978 0.006827463 0.33434317 -0.25628915 0.2540104 0.3449568 -0.1643678 -0.2878858 -0.48458347 -0.08093983 0.091971196 -0.29819304 0.20164888 0.10474169 0.024490932 0.21040083 -0.057361558 0.14963797 -0.1911483 -0.032617174 -0.12592477 0.005221065 0.023165986 0.05532212 -0.06575018 0.12379575 -0.031120159 -0.26699862 -0.008059909 -0.2911855 -0.39347053 0.18436395 0.3647258 0.29286206 -0.0024122964 -0.06885426 -0.20555638 0.019399945 0.19261807 -0.28825772 -0.17592923 -0.20187345 -0.1929647 0.04774449
与 0.24826768 0.21497503 -0.22501183 0.48423776 0.051692896 -0.13131164 0.09511852 0.22101869 0.1634782 -0.33441234 0.081275284 0.2848715 0.22045149 -0.13568276 -0.3743777 -0.03438228 -0.18935971 -0.11844907 0.2563421 -0.06550002 0.20477097 0.042186394 0.1042752 0.37610674 -0.29733336 0.07008365 -0.035163973 0.109677434 -0.18367542 0.24484766 0.029669996 -0.13732505 0.045416333 0.1739939 -0.07375339 -0.3600419 0.43922752 0.19820252 0.08237772 -0.0825885 0.17695402 -0.17417668 0.18009168 -0.19571826 -0.10379944 -0.12149715 0.18555626 0.26652285 -0.04196119 0.004672409
； -0.1814106 0.31772184 -0.08689658 0.967208 -0.44322532 -0.2858775 -0.08486958 -0.11624151 0.057219937 -0.11860353 0.10542313 0.24057266 -0.24267662 -0.027240468 0.6307749 0.16873112 -0.25626254 -0.17170769 0.2669288 -0.113709 0.3091981 -0.067750216 -0.38742545 -0.081667505 -0.0023485925 -0.088385195 -0.33695874 0.05966046 0.0063831937 0.047697067 -0.12713245 0.09921105 0.008641021 0.30219227 0.10985708 0.07593287 -0.11451843 0.13465719 0.02874727 0.047393862 -0.14155343 -0.15156779 -0.19419822 -0.3343468 0.06626987 -0.34468803 0.18543458 -0.16075708 0.26772797 -0.11374993
言 -0.070666976 0.2477017 -0.08274321 0.35842696 -0.29610044 -0.09268273 0.21632141 -0.039752793 0.0683416 -0.03646153 0.35045537 0.1394405 -0.001023978 0.119997315 -0.08728045 -0.2733805 -0.28214234 0.020027895 0.23618796 0.16498646 0.07258912 -0.15493329 -0.23198442 0.32363698 -0.18361309 0.089777365 0.05264991 0.13248445 -0.079646885 -0.0046361266 0.344141 0.07780503 0.33569264 0.15892845 -0.4311375 0.13953617 0.022330252 -0.12617235 -0.28294507 -0.088304564 0.045425277 0.17675878 0.08866446 0.09376183 -0.11026217 -0.4916121 -0.22286366 0.15551831 -0.21905467 -0.16506487
无 0.23151253 0.3766271 -0.28498077 0.7073376 0.20699053 -0.21150288 0.0049589467 0.092944734 0.16246517 0.12051145 -0.12065012 -0.22772838 0.0931067 -0.22875921 0.13718022 0.1471249 -0.076471925 0.029367637 -0.008827675 0.34817302 -0.03363674 -0.23002373 -0.08853655 0.18525435 0.011802837 -0.10577498 -0.01102388 0.22355384 -0.046587594 -0.5789485 -0.21021305 0.058516495 -0.05611645 -0.065592475 -0.034397513 0.29013863 -0.32486287 -0.07294789 0.20338702 -0.015328599 -0.18966003 0.07322316 0.06984179 -0.35634232 -0.16693252 0.052151784 -0.1827199 0.0062689707 -0.35212073 -0.054631453
则 0.18349233 0.54911745 0.13095213 0.6170638 -0.07685528 -0.15770583 0.21001291 -0.070415094 -0.046886295 0.048896935 -0.016534004 0.1876774 -0.16416588 -0.06694197 0.029400932 0.078115016 0.053701345 -0.07748497 -0.035511065 0.16097128 -0.1475952 -0.30427265 -0.11930986 -0.301012 -0.18129922 0.37008134 0.20975508 0.1280607 -0.013490879 -0.023155384 0.14060535 -0.14937064 -0.31918508 0.24296202 -0.16378932 0.20808895 -0.20362633 0.051325634 0.21327393 0.1500335 -0.2639739 -0.23714247 -0.05399915 -0.0854156 -0.19646661 -0.028813768 -0.32359794 -0.11207278 0.3371072 -0.03114058
！ -0.36147225 -0.5145258 0.09368457 1.0446974 -0.030758645 0.12811023 -0.068258986 0.17612138 0.17032169 0.030642085 0.14708921 0.21710494 -0.0912192 -0.18818414 -0.15245566 0.05316558 -0.09134093 0.0830745 0.1461471 0.06599461 0.021899505 0.31839374 -0.036899373 0.30558997 0.23631448 -0.15585685 0.16565202 0.28021467 0.24527106 0.14985614 0.2142473 0.034674875 -0.21539427 -0.026671017 0.002872576 -0.021298993 -0.067124955 -0.025876127 -0.066716366 -0.23553996 -0.3808933 -0.043875366 0.1467906 -0.19430895 0.23677404 -0.3874945 0.25757003 0.23862752 -0.035770223 0.5264531
问 0.33853382 0.15682378 0.030323355 0.67038095 -0.13269629 -0.12603404 -0.013217494 0.22066912 -0.011566776 0.3172492 -0.33486778 0.31602508 -0.18241166 0.47322926 -0.74377507 -0.12374311 -0.1784441 0.21944083 -0.09002632 -0.05692531 0.16932535 0.23329486 0.27384293 0.2136089 0.05209688 0.15929163 0.32789806 0.09650557 0.07328234 0.20897757 -0.17225477 -0.019624772 -0.09925507 -0.17333853 -0.2597933 0.3529326 0.28733164 0.17788042 0.21177697 0.00018866663 -0.0010208366 0.06620384 0.05221857 0.02858066 -0.29003558 0.19052267 -0.019421821 0.12014976 -0.1678884 -0.32968774
知 0.14006734 0.3982354 -0.17360866 0.35038665 -0.17417239 -0.035294347 -0.13390425 0.12956643 0.15026337 0.29617667 0.10874746 0.07213575 0.1322193 -0.12556788 -0.20529991 -0.3697146 0.06334473 -0.27995142 0.25219074 -0.024685282 0.055643793 0.06752918 -0.19447938 -0.030419363 -0.29019496 -0.0127092 0.086175 0.12279492 0.33415762 -0.1776305 0.35342824 -0.048272766 0.020454496 0.08849269 0.20331848 -0.043196872 0.35035944 0.009532493 0.093383156 -0.04920139 -0.026668424 0.056170076 -0.060462955 -0.12497212 -0.012925357 -0.47848216 -0.056646984 0.27549663 -0.2519167 0.12972677
何 -0.21972547 0.1509566 0.0323668 0.5487389 0.50925744 0.1468993 -0.51496774 -0.17623806 -0.041874997 0.14277522 0.25139531 -0.011443097 -0.15408266 -0.022564212 -0.3163185 -0.015520556 0.1064823 -0.3199719 0.06615528 0.1353502 -0.08719395 -0.11568178 0.115851246 0.015470631 -0.22326243 -0.2647889 0.13129944 0.25761 -0.03346513 -0.024196547 -0.2634468 0.24604803 0.07573562 -0.08128241 0.079341665 -0.119092934 0.14631587 0.2540378 0.23607919 0.33986807 0.28761888 -0.26126778 -0.028850628 0.23408407 -0.19521716 -0.051538803 0.019287854 0.12039214 -0.07410131 -0.33297834
吾 -0.21268837 0.2922041 -0.011889991 0.41643888 0.10721002 0.11418269 -0.14843793 -0.112924494 -0.07725217 0.30150566 -0.053443834 -0.02036847 0.082195155 -0.10525146 -0.25496277 0.32748422 -0.039511174 0.03252561 0.15281844 0.1886812 -0.13185689 -0.30909097 -0.009704059 0.34879038 -0.08479641 0.040592443 0.13040584 -0.038909458 0.10201644 0.2734837 -0.037033252 0.15775554 0.08748124 0.38147295 0.03144377 -0.0965648 -0.28438297 0.3049032 -0.5169419 -0.16033725 -0.22932269 -0.14708206 -0.18053557 0.0009882136 0.017451795 -0.17664318 -0.07925753 -0.11020196 0.12701632 -0.030896753
仁 0.05325483 0.2406062 0.1761425 0.3797321 -0.15123239 -0.30530182 0.25334 -0.1061072 -0.19463143 0.2508735 -0.22290301 -0.15604356 -0.049631957 -0.11711953 -0.15387654 -0.064021945 0.09697999 -0.043912336 0.17560253 -0.16880344 0.08126478 -0.11184231 0.010113548 0.091402166 0.25912845 -0.06740077 -0.11298097 0.12437496 0.14105548 -0.10322585 -0.015318878 0.043496713 -0.23599853 -0.16053377 0.3625574 -0.2593524 0.2278428 0.16413659 0.16064796 -0.19473496 -0.23412852 0.09105972 0.0012039344 0.042870827 -0.23800333 -0.31364152 -0.4928555 -0.0007258844 0.07793123 -0.3777929
夫 -0.047850393 -0.003008562 -0.20890401 0.61367637 -0.009896304 -0.025107855 -0.21198893 -0.1886699 0.20622058 -0.010206653 -0.22153167 -0.0025820816 0.20185223 -0.36127076 -0.45781344 0.35315174 -0.3060371 0.03767202 -0.041522305 0.27353966 0.045324665 -0.14993212 0.20933163 -0.2717949 -0.20789385 -0.08772569 -0.3790234 -0.019420305 0.019826885 0.19983743 0.07296555 0.31227073 -0.17719616 0.047013152 0.32315907 -0.12215726 -0.13668694 -0.1681427 -0.04529952 -0.2318908 -0.26133573 0.044452988 -0.3498182 -0.096730344 -0.16843608 0.16052094 0.0033252323 0.28025204 0.042348683 -0.061487965
、 -0.73398185 0.31208685 0.010612592 1.0247759 -0.11653373 0.10652059 0.16698124 0.5202575 0.3111753 0.27547666 -0.14628276 0.3815596 -0.2227854 0.65964246 0.14125934 0.11633123 0.03126155 -0.011805525 0.15773371 -0.5690014 0.07672752 0.04570261 0.15041442 0.09421119 -0.40492684 -0.00207887 -0.35561404 -0.12810841 -0.0640122 0.34563088 -0.40577576 -0.17678386 -0.15111123 0.34317607 -0.2977636 0.2803908 -0.19318631 -0.21320139 0.15317097 -0.32847336 -0.01891626 0.079421505 -0.20258132 0.24554881 -0.15933004 0.06943665 -0.31050634 -0.020530054 0.06607424 0.19027628
道 0.08811021 0.15679546 -0.18726751 0.5728277 0.14015627 0.077205814 0.24380514 0.17717104 0.045284145 -0.29312456 -0.018561555 -0.06192873 -0.06539824 -0.10810409 -0.035351798 -0.085625805 -0.21158597 -0.026379546 -0.07081568 0.08950652 -0.18186706 -0.3592769 0.06704564 -0.008865563 0.009000107 -0.21960852 -0.111986004 0.18759915 -0.086678736 -0.047281016 0.1638967 -0.14856818 -0.18791863 0.017995723 -0.23094487 0.44228828 0.16457285 -0.18147628 0.14074743 0.32906836 -0.096472844 -0.11577575 0.10149691 -0.37583837 -0.39824295 -0.114065476 0.05185885 0.019625103 0.07210815 -0.16057934
焉 0.15325846 0.25026342 0.03923103 0.61962295 0.23583232 -0.3224665 0.4085502 -0.47389606 0.29781306 0.2157645 -0.105253875 0.34836587 0.29964048 -0.1915994 -0.16250736 0.17750435 0.18174064 0.18672214 -0.37014326 -0.23444955 -0.05206523 -0.31676447 -0.1359298 -0.48065156 0.10442071 -0.26307875 0.061948303 0.47016948 0.08954135 -0.0880462 -0.04309683 -0.11015563 -0.24148627 -0.019418215 0.42145097 -0.27782965 0.2266058 0.07631585 0.15592168 0.2610944 0.081820175 0.2110084 0.0024010295 0.05412181 0.02524034 -0.0010283772 0.18302545 0.017024228 -0.13051215 -0.05611281
行 0.02606558 0.26453748 -0.25482342 0.510966 -0.32518625 -0.2940159 0.16449906 -0.030479375 -0.3505411 0.04338038 0.13760051 0.11737962 0.17480859 0.18351108 -0.14321277 -0.12475566 -0.3856064 0.011647895 -0.08503117 0.02145371 -0.06579266 0.05900796 0.45663106 0.15302211 0.25042182 -0.18473847 0.16754001 0.20625867 0.26333588 0.13523214 0.27985632 0.009254043 0.19773716 0.05103977 -0.04256184 0.12537459 0.036789384 0.005262359 0.0647382 0.16909222 0.11855105 -0.11120782 0.14937711 -0.15552151 -0.16213192 -0.0037139542 -0.009688644 -0.47481403 -0.07467883 -0.44434708
谓 0.24306346 -0.108605616 0.018907612 0.6646351 0.14646462 -0.15312316 0.1972433 0.26407525 0.16813987 0.37412018 0.22741385 0.315101 -0.3762175 0.4839437 -0.14895725 -0.056912914 0.039338786 -0.48412797 -0.2433083 0.50472516 0.19171564 0.2637788 0.15909518 0.08742238 -0.368103 -0.13922298 0.0006769549 0.05607511 0.15729153 -0.27223712 -0.1903476 0.15943024 0.27599272 -0.12651141 0.19273584 -0.47308686 -0.042032238 -0.058711722 -0.2574498 0.2561829 0.3304912 0.088450484 0.09909872 -0.42131913 0.05355756 -0.24806368 0.08228793 -0.102156505 -0.22343612 -0.09825666
必 0.20390426 0.34645027 0.24046937 0.48645714 -0.2564111 -0.19284126 -0.082584985 -0.15707731 0.0704814 -0.25431967 0.26983553 0.19133237 -0.53202415 0.06754814 0.06352064 0.28090036 -0.43229005 -0.062376082 -0.23969351 -0.04641911 0.11828746 0.15673049 0.295948 -0.45429197 -0.26961783 -0.06975384 -0.20006564 0.2428219 -0.13096862 0.1285646 -0.16208228 0.23116156 0.11913838 0.073323496 0.03058897 0.3839856 0.07655382 0.5080347 -0.038712326 0.244222 0.013766268 0.28065443 -0.25239152 0.077162035 -0.0060407417 -0.17605177 -0.2548891 0.11927715 -0.14361775 0.11011006
礼 -0.07663158 0.34122103 -0.21790582 0.3476468 -0.09485396 -0.08992761 -0.057822704 0.19197074 0.027927388 -0.0712903 -0.14480282 -0.5797144 0.09514407 0.00078719715 0.048985437 -0.055396326 0.022996444 -0.33322707 0.1331514 0.025677115 -0.40659723 -0.118896104 -0.10018962 -0.72692007 -0.006259578 -0.007775635 0.3692066 0.32284224 0.031587932 0.14991505 -0.1256014 -0.26746 -0.13576202 -0.020075908 -0.09717766 -0.1674644 -0.21165544 -0.2265231 -0.019792855 -0.13584204 0.19766049 0.023722056 0.12505046 -0.14199603 -0.34475592 -0.28575453 -0.16365491 -0.17607932 0.046417363 0.45507526
孔 0.30913436 0.09635401 -0.37917337 0.7322019 -0.5235996 0.14530006 -0.2315963 0.031491153 -0.24427381 0.22542736 -0.35054263 0.4311588 0.48528156 0.14139369 -0.58662593 -0.5182234 -0.1547573 0.20787744 -0.0015831436 0.43142858 -0.1882446 0.15940319 -0.26909605 0.16740507 -0.17544208 0.3288313 0.20314702 0.08648717 -0.20254757 -0.1300278 -0.32365996 0.3309931 0.27156508 0.0746725 0.22639996 -0.021890903 0.29934523 -0.4623055 -0.14345065 0.44318336 0.39574474 0.23282145 -0.28829435 0.3163128 -0.09186424 -0.16297147 -0.10674908 -0.27650726 -0.00964354 -0.084582984
斯 0.063788265 0.25491273 -0.120229274 0.46813026 -0.09645735 0.12516007 -0.14395335 -0.26300693 0.3842024 0.36347026 0.22853754 -0.16100048 0.14554133 0.056904815 0.16668226 0.20333014 -0.23849086 -0.4228087 -0.14008242 0.020134326 0.064239345 0.15509984 0.6123394 -0.0023947824 0.22966772 0.077090174 0.25822768 0.3358544 -0.0645526 0.037654344 0.103886314 0.20251597 0.1307286 -0.022651497 0.20389366 -0.19426778 0.12747109 0.09212706 0.05284747 0.15250278 -0.27740723 -0.0114506455 -0.18938558 0.3327798 0.110583775 -0.18656251 -0.3366107 -0.29687974 -0.06595137 -0.43798384
三 -0.46494612 0.29242727 0.26584846 0.6799191 0.08799959 0.06691276 -0.08483275 -0.5053938 0.09959866 0.16166101 0.11814898 -0.4580778 0.14511898 0.009098315 -0.13012241 -0.11476697 -0.47305942 0.29292256 0.43650988 0.025555186 -0.38655752 0.3597454 -0.17272802 -0.0027604965 -0.031074222 -0.004124043 -0.0254698 0.117444016 -0.008642585 0.07597191 0.13169412 0.40661904 0.053827178 0.07336649 0.16468163 0.2451997 -0.043865867 -0.4318311 0.05032506 -0.22617467 -0.055398125 -0.038926993 -0.11228437 -0.17558314 0.25333872 0.27023926 -0.3318083 0.23484004 -0.00018398813 0.059053585
能 0.064342074 0.525743 0.20391493 0.39353287 0.25495467 -0.2692362 0.21157587 0.06985268 0.08420905 -0.03926009 -0.05233191 -0.13360137 0.20141451 -0.22218011 -0.39033344 0.38826597 0.3784349 0.12100545 0.13068472 0.22582065 -0.47587916 0.16048178 -0.16586562 -0.11514609 -0.14677332 0.4560797 -0.059319578 0.2601239 -0.0009169332 -0.026866896 -0.23982707 0.07960403 -0.21582818 -0.20825021 -0.32188794 -0.2182728 0.29332295 0.18651655 0.19513735 0.2129156 -0.17414875 -0.02216145 0.2219215 -0.26255357 -0.30919856 -0.40310666 0.2729349 -0.082286455 0.12810133 0.24774066
见 -0.2057819 0.33222336 -0.3551263 0.4862756 0.026627926 0.09310302 -0.06938704 0.27798522 0.0061650462 -0.029547077 -0.11024363 -0.08332255 0.13972634 0.061109256 -0.22114222 0.27190235 0.219721 0.3166345 0.36908144 0.11624332 0.21842432 -0.26607364 -0.16501461 0.41487053 0.07459713 0.32506642 0.1258722 0.45753688 0.028543051 0.3524995 -0.29291067 0.13487753 0.3042909 -0.3522375 0.28500947 -0.20960928 -0.14651145 0.2939292 -0.18545307 0.07708544 0.024372034 -0.15071887 0.11854549 -0.32965675 0.051784348 -0.066901594 0.106370606 -0.15179537 -0.005553967 -0.2930636
学 0.19372733 0.32187822 -0.3669842 0.71026546 -0.44330093 0.07977157 0.27255523 0.2056184 -0.01188861 -0.028913109 0.26397339 -0.46113038 0.028089594 0.2975956 -0.043662988 0.10907142 -0.26136756 -0.15560317 -0.07215605 0.2955554 0.066635214 -0.2808383 -0.089333475 -0.31948507 0.008688201 0.03734979 -0.1219064 -0.19724487 -0.06937579 -0.15097888 0.46357068 0.08731031 0.09958281 -0.08651309 0.28686175 -0.021667251 0.29985866 -0.045572497 0.07373241 0.013919364 0.41501707 -0.5950056 0.3067308 0.0043378286 -0.17181748 -0.37923914 0.09270817 0.17610379 0.25889736 -0.108553365
事 0.0431228 0.41777822 -0.071660705 0.44082254 -0.17467888 0.29992574 -0.07638221 -0.006580188 0.115081884 -0.25112396 -0.36454022 0.054627378 -0.024373557 -0.09586614 -0.25192434 0.14169411 0.057414215 0.09978711 -0.44936493 -0.20339786 0.36677027 -0.10939833 0.30369368 -0.032440353 0.08762738 0.029071668 -0.1561375 0.16301063 -0.058490857 0.28824472 0.03573678 0.29973456 -0.16422717 0.2859812 -0.4230588 -0.3494434 0.16965348 -0.30014256 -0.014405617 -0.0021912083 -0.17930666 -0.14962603 0.27301815 -0.08626423 -0.13571477 0.054091945 -0.09330346 -0.30340993 0.5270107 -0.47241226
是 0.40000975 0.361529 -0.16709861 0.71259505 0.082444094 -0.079084516 0.15071225 -0.49209902 -0.46519002 0.4579059 0.28418633 0.4954428 0.07614159 -0.391132 -0.33613718 -0.016692061 -0.13761 0.066694975 0.016056338 0.19981256 0.050613914 0.2801104 -0.052355826 0.19029309 -0.059485354 0.027107928 -0.04161432 -0.24814577 -0.17925048 -0.1915785 -0.20886411 0.099606685 0.029513659 -0.41443428 -0.32454458 -0.13615546 -0.12632161 0.16297913 0.020727945 -0.0019199455 0.40052605 -0.2621754 0.22299457 -0.38906354 0.094544165 -0.03232357 0.0029769728 0.099071704 -0.09483611 0.03752022
哉 -0.5023142 -0.25828514 -0.2419648 0.6991417 -0.03975758 0.16171256 0.11567831 0.2688745 -0.07571656 0.33115143 -0.29501522 0.14367498 -0.1759461 -0.015632527 -0.47791296 0.27937347 -0.47540063 -0.03686037 -0.10643207 0.1999729 -0.016446369 0.29593372 0.011154728 0.035491522 -0.38470268 0.09866808 0.14374427 0.34628567 0.13962433 -0.023701167 -0.014057494 -0.05964983 -0.57825434 0.3053439 -0.08689122 -0.36909127 -0.15853354 0.40542623 0.07306876 -0.043243207 0.09687152 -0.07642504 0.46118122 0.18321982 0.012152148 -0.15618935 0.1683346 0.05723634 -0.33100227 0.378805
闻 0.18959135 0.17609416 0.0032504776 0.5400528 -0.22117257 0.023285002 -0.09248621 -0.17079177 -0.16133593 -0.24283257 0.3398176 -0.14733931 0.010935462 0.039760087 -0.22800635 0.22639982 -0.44728974 -0.18483046 0.48759866 -0.11174649 -0.46312007 -0.012335784 0.40399605 -0.16800207 0.12577812 0.10043389 0.18091568 -0.22732128 0.36037078 0.3846232 -0.14779057 0.21559642 0.17436846 -0.2802939 0.02169381 0.180569 -0.0008647449 -0.07524188 0.17606959 -0.21438485 0.10183328 0.015612524 0.3765217 0.06838949 -0.112609714 -0.34512374 -0.2280032 0.2036743 0.112501584 -0.32164702
未 0.3309969 0.124840595 0.003308497 0.33928803 0.12602048 -0.12804373 0.10274664 0.10277727 0.38890246 -0.15408026 -0.43529043 -0.12415847 -0.30308908 -0.088908784 -0.39891875 0.10307421 -0.07490729 0.13862024 -0.25445253 0.26635844 -0.13714868 -0.27710247 -0.06713474 0.16717115 -0.1947106 -0.12238413 0.47382978 0.16715828 0.16524966 0.16328746 0.035859022 0.4008555 0.033890124 0.25638866 0.3678914 -0.072221145 -0.06966933 -0.0007895207 -0.3007386 -0.065982625 -0.11333178 0.31673208 0.04269955 -0.23666535 0.063773036 -0.48632196 -0.071661964 -0.2090688 0.3999961 -0.2895973
公 0.21441929 -0.015188035 0.05977465 0.5293908 0.38760215 -0.20934947 -0.14342242 0.35506523 -0.4537522 0.2211926 0.17272422 0.42288914 0.015363097 0.45057407 -0.43090543 -0.19156116 0.42607793 -0.029828273 -0.08579406 -0.21358255 0.08470332 -0.25345358 0.2416779 0.07647969 0.7880608 0.18440716 -0.057028007 0.38136026 0.025978684 0.49331015 -0.1478792 0.2594238 0.21849471 0.2180461 0.038464095 -0.12567359 0.1132191 -0.5714398 0.30801466 0.36045086 -0.05364929 0.17054565 -0.30264172 0.05427043 0.04125367 0.0906642 -0.06285156 0.08832982 -0.29591927 0.10799758
好 -0.06183327 0.7860131 -0.42858356 0.5111429 -0.38020587 0.14761305 0.0045571127 0.37144324 -0.30425954 -0.031975098 0.10821249 -0.016171105 -0.40813765 0.1725889 -0.26495796 0.69684875 0.046086337 -0.13640043 -0.23367636 -0.11733602 -0.33376703 -0.21562466 -0.35685644 0.07267461 -0.09555538 0.06036966 -0.047456566 0.31523305 0.30738246 -0.23378377 0.50143194 -0.063272886 0.098530285 0.006915669 0.44330433 -0.4245101 0.28237265 0.20289998 0.26345456 -0.018974233 0.13316217 -0.25087416 -0.24777736 -0.26212677 0.41651645 -0.40575406 0.14289078 -0.22594145 0.0691962 -0.0016852263
我 -0.0031216224 0.2744103 0.010645209 0.44348896 0.16755652 -0.0077079893 -0.045704246 -0.37806848 -0.032440968 0.14374058 -0.15050672 0.30869254 -0.10380384 -0.33337477 -0.52747506 0.0061686337 0.08901817 0.3773522 0.4394108 -0.11575533 0.07376784 -0.24959855 0.05492439 0.1104574 -0.17558871 0.06982815 0.5532589 0.38378423 0.2253045 0.16451202 0.0763508 0.1426159 -0.2208024 -0.34994292 -0.24437001 -0.146625 0.009128594 -0.0061816606 0.12526491 -0.1585443 -0.009200575 -0.09059314 0.029895274 0.18644199 0.36611357 -0.07073628 -0.42901933 0.030210841 0.05613056 0.021946544
路 0.08662759 -0.15208933 0.020962061 0.7094035 -0.09994955 -0.16774063 0.02531867 0.061294287 -0.097288966 -0.06592356 -0.3159118 -0.4296722 0.56062347 0.13051093 -0.65455747 -0.06279836 -0.16042255 0.35184428 -0.075355075 -0.30099502 -0.033056557 0.22648996 0.037596643 0.048377793 0.10808468 0.1947408 0.24927582 0.5233351 0.25787893 -0.0027706171 -0.23770842 0.142101 0.090612 -0.08607846 -0.29429704 -0.031452425 -0.29335433 0.024283225 0.42609623 0.06105552 -0.70343137 0.08706522 -0.15667103 -0.04212893 0.0019284417 -0.071392916 -0.22104472 0.13236508 0.029943248 -0.3196595
在 0.25863743 0.4553541 -0.19103469 0.5229409 -0.16160344 0.0071198377 -0.2252223 -0.14432308 -0.1992919 -0.18492883 0.13195175 0.45538238 -0.19669795 -0.3071443 -0.155202 0.22893918 -0.17239052 0.13930032 -0.4108403 -0.33987626 0.40315905 -0.21344742 0.28893742 -0.10661208 0.28760678 -0.0832934 -0.5958186 -0.0009748258 -0.35811463 0.32599908 0.412121 0.5528478 -0.078065135 0.06797512 -0.057424575 0.04980008 -0.28783983 -0.060210645 -0.21206196 -0.12175517 0.3335229 -0.14123909 0.15094292 0.024820292 0.3122931 -0.081919245 -0.24741307 0.07252494 -0.48276517 -0.3851216
已 -0.13073297 -0.00087088207 0.38618279 0.61502004 -0.29949933 -0.047796287 0.2791996 0.1041947 -0.019062672 0.4155223 0.15448193 -0.30918396 0.12453905 -0.10992446 -0.11020619 0.16485646 -0.1556409 -0.15599492 -0.14700288 0.27261037 0.27983138 0.07175944 0.49252805 -0.13226487 0.009324878 -0.17124206 0.10197881 0.20578721 -0.024900494 -0.25788134 0.20969163 -0.075317174 0.15645231 -0.2437921 0.37214595 -0.23559356 -0.24994671 -0.1744252 0.3434495 -0.13215677 0.4699448 -0.063056074 -0.14864579 -0.14524698 0.65959525 -0.6480826 -0.34843996 0.16243273 -0.21740249 -0.28455517
得 -0.252585 0.39866456 0.29145047 0.32307926 -0.29973307 -0.50598335 -0.124154635 0.34040236 0.09064421 -0.31728104 0.24287514 -0.14131208 0.26588446 0.040597986 -0.1674788 0.07753055 0.053483754 0.17320146 0.39658007 -0.1841407 0.09711258 -0.3157483 0.3737496 -0.1308137 0.116008066 -0.17894788 0.07749173 0.1735382 0.1984452 0.20731401 -0.24385636 0.39898017 0.14698721 -0.19608344 0.16255143 -0.15281418 -0.10276473 0.37830982 -0.036308713 -0.117709704 -0.04110807 0.13898726 -0.037301295 -0.21106623 -0.3859162 -0.4060012 0.03105547 -0.039593786 -0.13782364 -0.26439872
所 -0.22917205 0.38529918 0.025001299 0.53241926 0.35058588 -0.19245991 0.10966566 -0.6528628 0.17336209 0.022181166 -0.09743401 -0.03419314 0.37363884 -0.19918631 0.019656654 -0.013479826 0.15342434 0.011859356 0.06580244 -0.039714355 -0.2982652 0.09855484 0.05620266 -0.32720932 0.10639992 0.28968582 0.07921044 0.37775618 0.074353375 -0.2424107 0.13816845 0.27044943 -0.09508642 -0.20659369 -0.102204904 0.16613321 -0.27481893 -0.04399723 0.2268504 -0.50473964 0.3663252 -0.43788934 0.33356622 0.14596698 0.0121346945 -0.21820584 -0.03623129 0.0012774407 -0.31282207 0.17659497
民 -0.15552355 0.552286 -0.14784643 0.30587125 0.15073007 0.042639177 -0.250973 0.39251488 -0.45219004 0.3064511 -0.39670902 0.035881706 0.07035694 0.17006752 0.12504579 0.08252355 -0.14953314 0.047131255 0.09005508 0.35494727 -0.118109465 0.015527434 -0.0110100955 -0.01286006 -0.15556014 -0.08859919 -0.11618788 0.24130031 -0.37157518 -0.26498014 0.49219704 -0.052870244 -0.5105193 -0.34674254 0.16769807 0.3522851 0.1484364 -0.21977466 0.22686747 0.3267917 -0.15316485 -0.2943794 0.10502263 0.19892608 0.25935844 -0.47178805 -0.26513517 -0.4302265 0.28684086 0.47464147
小 -0.09942304 0.4991122 -0.31927237 0.73279965 -0.19363622 -0.11212559 0.117140025 -0.1602823 0.017780432 0.44294512 0.4029424 0.2310771 -0.27707297 0.16603722 -0.39441484 -0.39142895 -0.49168932 -0.02218495 -0.108371586 0.092046544 0.06368235 -0.4663943 -0.0007514576 -0.17675152 0.1464568 0.22384545 -0.08598787 0.110895164 -0.101062536 -0.32926908 -0.026757702 -0.74127805 -0.14249793 -0.14199999 0.28862235 -0.19394182 0.31294784 -0.1913509 -0.21759541 -0.02018892 -0.25438473 -0.1081468 -0.23306471 -0.41825634 -0.15792337 0.06967616 0.27080116 -0.2527975 -0.43027142 -0.012432972
天 -0.044607263 0.13965712 -0.012368434 0.48817256 0.656406 0.2509379 0.01729297 0.4183889 -0.15054019 0.16535328 0.5608124 0.43840992 0.6548074 -0.55457556 -0.33951005 -0.37444136 -0.33720258 -0.32105193 0.048695255 -0.0038261162 0.0374302 -0.051090956 -0.20974435 -0.09551235 -0.2040821 -0.02080546 -0.35848045 0.46104866 -0.26565114 0.23124309 0.1341225 -0.035272248 -0.31744808 0.025538672 -0.10465104 0.27516952 0.0700422 0.030906305 -0.21877761 -0.02651058 -0.39425433 0.10583229 -0.07398067 -0.054986317 0.2880149 -0.15852417 -0.20689395 -0.024330275 -0.24568613 0.060959697
乐 -0.59657085 0.89012694 -0.05026214 0.5936278 -0.17672223 0.08060037 0.1486417 -0.32369557 -0.024622932 0.03175782 -0.16209577 -0.3995483 0.16946098 0.13668141 -0.07021416 0.16786183 0.0056892405 -0.31625524 -0.08353845 -0.27471435 -0.18415692 0.015142045 -0.27522758 -0.38902637 -0.26019353 -0.2957526 -0.112488255 0.14582603 0.5793171 0.03698714 -0.48614553 -0.14374115 -0.20088077 -0.18186384 0.008664411 -0.12316886 -0.64325804 -0.079925194 -0.20040342 -0.09877539 -0.15084015 -0.13112718 -0.02372263 -0.03518034 -0.06601953 -0.4526683 -0.33282858 0.73092157 -0.67655325 0.022192808
邦 0.026011534 0.08492798 -0.58447605 0.4975444 -0.17015634 -0.20906074 0.22482757 -0.5855794 -0.051538333 -0.35280073 0.4078336 -0.09775405 -0.034078334 0.42938104 -0.16668162 0.039424647 -0.19119461 -0.062886134 0.15196867 -0.09485747 0.20389341 -0.57746243 -0.03701886 -0.19239645 0.3574003 0.101725675 0.25623083 0.4841777 0.22550027 0.24675629 -0.29047906 -0.08137056 -0.4037115 0.31276968 -0.42765197 0.18000905 -0.41883358 -0.34590763 -0.06768055 0.31957957 -0.13716364 -0.3511995 -0.18750283 -0.36594975 0.21901774 -0.35609365 -0.10255595 -0.071502194 -0.13714956 -0.32665664
亦 -0.43741736 0.503143 -0.20163515 0.53178865 -0.18480977 0.04771037 -0.3158773 -0.3742159 -0.11637703 0.18678252 0.53210986 -0.040278748 0.19376817 0.07961011 0.0187898 0.22986941 0.016827855 -0.4692548 -0.016024578 0.36712575 -0.21040058 0.45897925 -0.4060548 0.35322252 -0.09482138 -0.5738721 -0.027147392 0.29523906 0.22723019 0.25707197 0.15968041 -0.022534441 -0.3803689 -0.4613966 -0.47531447 0.3610492 0.18116839 -0.12268666 -0.24329327 0.38895664 0.29227263 0.09967166 -0.18637608 0.29891264 -0.21508858 0.031103693 0.26167032 0.48694786 0.07276671 -0.30128634
使 -0.16691639 0.19906306 -0.17901587 0.56167257 0.25753218 0.14822836 -0.42834282 -0.31067863 -0.41050872 -0.13882466 -0.47429 -0.40745178 -0.24351962 0.75263387 0.10593132 0.3212637 0.18885261 -0.21180779 0.52453065 0.21575847 0.25472805 0.2778071 0.1388012 -0.1526241 -0.15214892 0.08586165 -0.054909155 0.29432997 -0.23321463 -0.21202764 3.0724332e-06 0.010176649 -0.56510264 0.19888753 -0.22083892 -0.30695626 0.023694597 -0.3097252 -0.08089987 0.044562798 0.090022095 -0.19430852 0.052156817 -0.6602994 -0.056143906 -0.08313522 -0.09405248 0.4018129 0.45260498 -0.17620634
大 -0.06714014 0.20951197 0.07407017 0.432548 0.12107853 0.33562687 -0.6085543 -0.009174837 0.19645663 0.06323726 -0.19755347 0.48461324 -0.16372144 -0.4049171 -0.24023256 0.14300358 0.11936512 -0.011292175 0.32431254 -0.14004244 -0.34341767 -0.13388711 0.054378152 -0.08981236 0.22836408 -0.070752874 -0.50613165 0.54383224 -0.20189805 0.201796 0.23866831 -0.61604655 0.2313304 -0.20643665 -0.09592217 0.027457684 0.102437995 -0.29617786 0.015821425 -0.07835426 -0.14201617 0.14558296 0.07555006 -0.38908315 -0.057924233 0.019560432 -0.3330444 -0.10749146 0.18166006 -0.26026657
下 0.4610304 0.33396026 -0.26951864 0.44694948 0.32482493 0.42199865 -0.48893604 0.021782074 0.53126305 0.42236662 0.20722294 -0.053279407 0.17264849 -0.07608903 -0.06275654 -0.21041876 -0.28781107 -0.24498516 -0.13265346 -0.007909839 -0.27643463 0.4506608 -0.18469425 0.14155485 0.12633494 0.16527247 -0.30608004 0.3189684 -0.12586087 0.6493261 -0.23764147 -0.054213304 -0.8151215 0.04718797 0.12541316 0.5438225 -0.2992022 -0.082237355 -0.34913078 0.09400562 -0.047401022 -0.3530184 -0.17215851 -0.20038202 0.31570202 -0.33388227 -0.1546109 0.107365906 -0.59221095 0.11110203
贡 0.24467832 -0.13051014 0.24353841 1.0918941 -0.039608676 -0.18761006 0.087665334 -0.26485357 0.069640934 0.33966875 -0.09574319 -0.06849983 -0.038098592 0.65669626 -0.9525828 0.5507502 -0.25121593 -0.14004064 -0.30806062 0.010899092 -0.05073356 -0.30783895 0.06300768 0.028557073 -0.3658734 -0.23170623 0.5449051 -0.1485977 -0.27972463 -0.23329253 -0.060718838 0.27815887 -0.08359939 -0.18703301 0.3266901 0.07562971 0.15941343 -0.09158927 0.36268285 -0.09413386 -0.13147633 0.12651095 -0.083097406 0.2594889 0.010882701 0.07176107 0.035926424 0.18405347 -0.19162595 -0.12492659
欲 0.041304443 0.3550171 -0.24254404 0.467221 -0.5201988 -0.39286995 -0.38849688 0.02404363 0.13956802 0.03594036 0.07848314 0.1344387 0.39105716 -0.54607064 -0.3897372 -0.30809572 0.04957085 0.73407996 -0.012025645 -0.35314044 -0.19890846 -0.1805666 0.11740605 0.14387514 -0.2905149 -0.1723575 -0.11559648 0.45322335 0.21878877 0.1720431 -0.09794453 -0.22349286 -0.07035142 -0.39393568 -0.009696365 0.12046592 0.10703591 -0.16260609 0.1299806 -0.25932333 0.20774594 0.48576924 -0.16488317 -0.12785833 -0.18974666 -0.34214845 -0.05871898 0.024532631 0.067964986 -0.17244013
诸 -0.039745208 0.1297213 0.3332993 0.48604864 -0.27630615 -0.08971886 -0.3612331 0.20816566 0.23323087 0.41945103 -0.043251805 -0.3098664 -0.07052307 -0.6596101 -0.7199345 0.09362252 0.11502032 -0.2710019 -0.19595295 0.21901481 -0.61647606 -0.2509499 0.7435951 -0.15291467 0.44554982 0.27668926 -0.28717884 -0.13285853 -0.045044973 0.33681765 -0.42974317 -0.1330231 -0.9079151 0.59777963 0.08312676 0.28618282 0.23988898 0.009467912 0.2512508 0.054713596 0.70589983 0.36674127 -0.1520691 -0.80195427 0.01823599 0.07768702 0.409438 -0.0023951815 -0.14037746 -0.25244597
从 0.16917978 -0.118834384 0.0015259722 0.38898 0.033892706 0.15093827 -0.090417504 -0.27801907 0.05353458 -0.22724564 -0.2590946 0.03655658 0.29932758 -0.26172468 0.043019176 0.24648689 -0.114938274 0.11349178 0.3147196 0.13353053 -0.20555784 0.16564663 0.32618803 0.36127174 -0.55783844 0.12389341 0.37795115 0.40428153 -0.10319909 0.21003594 0.49810132 0.15546988 -0.31071556 -0.22052968 -0.43056312 -0.24180189 0.07580563 0.3081752 -0.21848467 -0.32402366 -0.09014284 0.43569198 -0.06188752 -0.0202379 -0.51075286 -0.46582633 -0.6813643 -0.15819189 1.0170789 -0.023261677
文 0.019997211 -0.038304336 0.3722574 0.46663246 0.52986383 -0.06410104 -0.4043349 0.007623742 -0.16085412 0.11881166 0.17645705 0.13066906 -0.17643201 0.04203418 -0.44931448 -0.15881416 -0.075761445 -0.19168924 -0.19685563 0.30506378 -0.45183113 0.21420516 0.41013935 -0.096673995 -0.02937568 0.022880122 0.25091258 0.07246184 0.21550958 0.38621157 0.17428795 0.041280393 0.14412694 0.07477733 -0.243465 0.020808943 0.13463756 -0.3288893 0.14289434 0.2506845 -0.35270455 -0.3990162 0.14158025 -0.43623105 0.25167525 -0.3437096 -0.13382164 0.11514923 0.39995834 0.4483209
政 0.31995466 -0.044927742 0.03178664 0.5764445 0.2350654 -0.19607303 -0.10688777 -0.27548254 -0.6093642 -0.4798185 -0.24148655 0.0084168175 -0.43229315 0.08417225 -0.47407392 -0.12693794 0.07732123 0.16932938 0.04167319 0.6039423 -0.0710268 0.34195107 -0.12512325 0.11974444 0.120097324 -0.19293523 0.3906558 0.49234375 -0.20481662 0.26725286 0.26255795 0.1954632 -0.07462278 -0.3099709 -0.009397414 0.09138675 0.06607911 0.10707478 0.37886605 0.0647087 -0.08576545 -0.006344128 -0.47983238 0.28461725 -0.41707897 -0.27432674 -0.3817741 0.118332684 0.45202062 -0.15294011
食 -0.63457257 0.36990213 0.16061004 0.399766 -0.17807578 0.3366954 0.22143652 -0.037380546 -0.22242965 -0.33944696 0.17607605 -0.033657957 0.33725816 -0.14809592 -0.21463676 0.46214223 -0.09578342 -0.17452864 -0.2199129 -0.09560353 -0.15586105 0.23832293 -0.2010009 0.20111752 0.22555421 -0.030181278 0.09387004 0.45302278 0.23541853 -0.061936196 0.18438728 0.20857373 0.63194275 -0.0050519556 0.64106137 0.9560863 -0.07049068 -0.080844164 -0.29006192 0.377868 0.06841187 0.052944254 -0.40528983 0.15471211 -0.42657214 -0.4229772 -0.3867719 -0.15946904 -0.18860969 0.11330872
善 -0.3952846 0.45530528 -0.38881138 0.39509436 -0.32902813 -0.044835504 0.10384575 0.0844823 -0.19262286 0.418328 -0.09084353 -0.46273085 0.48283598 -0.0036511875 -0.24013612 0.05983353 0.070184216 -0.22863004 0.044580758 0.14983362 0.100882456 -0.316644 -0.13877785 0.5569218 -0.09255751 0.07327738 -0.12080403 0.3679186 0.016854323 0.17184399 -0.37307915 -0.07467782 -0.02235806 -0.40113375 -0.009564461 -0.29648793 -0.04374516 -0.010465007 0.42326984 0.1927302 0.18081014 -0.13229255 -0.41617745 0.20574266 0.08927881 -0.23918563 0.004021167 -0.26490912 0.28541788 0.43504915
后 -0.27187058 0.21081558 0.24990389 0.39342207 0.038829684 -0.07067272 -0.025617836 0.31459555 -0.07240255 0.045732945 0.0032845072 -0.49644867 0.15161785 -0.015796615 -0.10633567 0.27706367 -0.27587336 0.09007513 -0.59343594 -0.11841382 -0.14712697 -0.04352881 -0.33740753 -0.45131418 -0.1974546 -0.07309238 0.12965927 0.33143768 -0.30048993 0.3116934 0.36754617 -0.39520356 0.2660663 -0.101841465 -0.07069804 -0.55744684 0.61366254 0.041908223 -0.14947158 0.06325748 -0.118167676 0.12429591 -0.3448956 -0.46119082 -0.56969815 -0.20356986 -0.19809552 -0.026504526 -0.18847887 -0.11154594
德 -0.32438815 0.4801392 -0.2147022 0.33771834 0.22336836 0.1975275 0.30037233 -0.24448168 0.14783853 0.1218625 0.20196521 0.804774 0.29646152 0.47180352 -0.35428968 -0.1287658 0.22432818 -0.14659084 -0.065516174 0.28080326 -0.13667947 -0.3488686 0.046810262 -0.0031481104 -0.10436528 0.09746214 -0.24003933 0.011679761 -0.16967788 -0.162684 -0.4669106 -0.12947428 -0.025730588 0.33300856 0.284184 -0.3271529 0.040962636 0.05782247 0.7034304 -0.00426942 0.007429311 -0.14109813 0.19644967 -0.0030841294 0.14962527 -0.6169253 0.33691466 -0.23535106 -0.15034384 -0.5306302
求 0.65253377 0.16691428 0.07589564 0.48983788 -0.058297116 0.36126304 -0.062168486 0.008726411 0.27830312 -0.13330503 0.50171167 0.07157557 0.036643796 -0.26318118 -0.41051462 0.1335876 -0.21535897 -0.27759278 -0.037705872 -0.058642216 0.2633464 -0.26994017 -0.0021389027 -0.037625883 0.27652317 -0.117787994 0.24490075 0.093129955 -0.22977495 0.08203816 0.1565771 -0.54150134 -0.23212412 0.28963256 -0.07986704 -0.008637901 0.23601802 0.27580088 -0.022367395 -0.12480471 -0.10458115 0.13347001 0.06118547 0.14430705 -0.46073133 -0.13080151 -0.22234 -0.12372331 0.063709885 0.12278485
对 -0.084646635 -0.0006388072 -0.20250376 1.0381012 -0.0122179445 -0.379808 -0.095090374 -0.063361734 -0.14481348 -0.22425734 0.48483253 -0.4251893 -0.055399187 -0.069186285 -0.80466694 -0.19801585 -0.08758696 0.108086154 0.0678437 0.19448183 -0.19770065 0.13903505 -0.012233846 -0.11506004 0.06837338 0.147327 0.20331499 -0.1994428 -0.08113831 -0.043110386 -0.632956 0.22419652 -0.196834 0.031275935 -0.0733548 -0.38765523 0.029560115 0.2712107 -0.015835278 0.26639688 0.44985357 0.0660669 0.51866263 0.24134538 0.096945785 -0.22654301 -0.361552 -0.17898247 0.45652512 0.36143753
恶 -0.027645597 0.35897896 -0.35932022 0.30670834 -0.13754001 0.044373326 0.07124404 -0.111946635 0.49562833 -0.6494593 -0.22976741 0.0063945632 0.16465956 -0.11218231 -0.035794828 0.06861597 0.17858647 -0.12082046 0.14361875 0.35279194 -0.020818684 0.054312866 0.026051084 -0.06885783 -0.06230802 -0.46766868 -0.6507217 0.62060577 0.048935667 -0.5891954 -0.28659886 0.07254272 -0.5100838 0.37932023 0.3781278 0.20084809 0.27881026 0.008688498 -0.4106792 -0.099788405 0.0028601445 0.030939993 -0.17525178 0.15223715 0.07411838 -0.24331878 -0.15678224 -0.4616694 -0.4473499 0.20547643
信 -0.4069923 0.8056536 -0.6715765 0.30555633 -0.27671692 0.2787084 0.17611893 0.08175281 -0.3109767 -0.16228491 -0.104311034 -0.26765487 0.27334478 0.21586104 -0.21419649 0.08144665 -0.041735336 0.40861672 -0.16634409 -0.027442187 -0.653009 -0.2492291 0.018087663 -0.102927126 -0.13245694 0.017003575 0.17934157 0.5401425 -0.17168087 0.38660848 0.39065614 -0.36468998 -0.21278259 -0.22291167 0.31796274 0.239362 0.18313184 0.026801446 0.38708043 0.16855566 0.39815223 0.33907273 0.26749474 0.16274564 -0.15860234 -0.23463263 0.2502325 -0.49036515 0.41229194 -0.4167465
死 0.048363578 0.23770049 0.0821832 0.4254297 -0.10077302 -0.6793388 0.22028944 0.24366072 -0.6291055 0.48983797 -0.44892842 0.21890558 0.35212532 0.279752 -0.042853847 -0.16623005 -0.16733788 0.028542623 0.3512017 -0.34188733 -0.13639937 0.094447464 -0.21841569 -0.23755124 -0.13254264 0.19537541 0.008137118 0.37297297 0.17643878 -0.0012314986 0.37818873 0.17027557 -0.04663651 0.10733283 -0.11492425 -0.2819275 0.26309383 0.07375342 -0.09533953 -0.29575124 0.09172716 -0.15394212 0.02844853 -0.44613943 0.12150876 -0.070350915 0.17583467 0.11866925 -0.16394591 -0.28220895
然 0.012204075 0.14372014 -0.2550688 0.5118312 -0.20987658 -0.32219997 -0.07078162 0.12215502 -0.28203186 0.23727602 -0.30084312 -0.3535389 0.13393237 -0.16957006 -0.46690384 0.10153646 -0.32685515 -0.1424197 0.16858342 -0.31479675 -0.09212079 -0.28832424 -0.23250258 -0.24531125 -0.10084399 -0.15482304 -0.3359106 0.3646983 -0.3307219 0.7239557 0.11207435 0.25992188 0.71664023 -0.4225099 0.04932159 -0.14552203 0.42723647 -0.19530079 -0.59944046 0.1500146 -0.30026025 0.103129596 0.436938 -0.16634639 -0.012382384 -0.13165283 -0.2509721 -0.07933289 -0.31624505 0.13340873
《 0.046715774 0.40115654 0.2092326 0.6434756 -0.14319174 -0.31421587 -0.619512 0.11630114 -0.06549704 0.056939706 0.361538 -0.27906662 -0.15280055 0.54935545 -0.39568427 0.24037656 -0.48749265 0.017933572 -0.20391995 -0.11656706 -0.4795017 0.15576942 -0.2999427 -0.31511012 0.22900757 0.059865635 0.19106613 -0.14679712 0.15411904 -0.5229457 -0.12407715 0.21480903 0.26073423 -0.002009499 -0.15348808 -0.020675795 -0.14426242 -0.046923302 -0.049202584 -0.13497986 0.38065526 -0.22167261 0.48743075 0.10254217 -0.008159338 -0.41787452 -0.454063 0.85602695 0.085306 0.11667092
》 0.29402712 0.396507 0.26845396 0.77022606 -0.03531567 -0.21375965 -0.3842628 0.4189915 0.59182864 0.33162385 -0.057243437 0.1096765 -0.18636541 0.29450545 -0.013670476 0.43079942 -0.46549565 0.19600967 -0.53124475 -0.10956666 -0.5184442 -0.21158819 -0.11002193 0.050765675 0.04263808 -0.01834706 -0.022544362 0.22137173 0.33449075 -0.23404057 -0.20895217 0.1344978 0.07259048 0.29288638 -0.10626206 -0.23761888 -0.5661011 -0.31954074 0.09885728 -0.10418582 0.47138134 0.012571067 0.53302187 0.22843024 0.03840793 -0.32550234 -0.7372597 0.49672592 0.22516099 -0.34953636
由 0.16719888 0.08430818 -0.12722778 0.3474716 0.011303602 -0.31239536 -0.047431566 -0.26340187 0.3441447 -0.14837119 0.097982384 -0.39144158 0.17442136 -0.3260944 -0.67262244 -0.07218066 -0.2340579 -0.48720455 0.39406115 -0.2325012 -0.09270268 0.636626 -0.013205092 0.40925485 0.2289191 0.018924488 -0.17628853 0.07145036 -0.44239205 0.19859417 -0.35844317 -0.12427646 -0.031924367 0.27497923 0.52503407 -0.43271428 0.3003135 0.24544153 0.18125343 0.056331355 -0.44236317 0.024149224 -0.055972315 -0.13154843 -0.07910267 -0.589909 -0.43022394 -0.19224268 -0.20101054 0.54140264
仲 -0.01062328 0.1739046 0.2718085 0.6192401 0.044512667 -0.38461637 -0.4805468 -0.10919541 0.13033897 0.6612671 -0.40978685 0.38687837 0.30324772 0.4254469 -0.55858636 -0.16071169 0.0035138414 -0.3930352 -0.360086 -0.70811874 0.1254577 -0.13001181 0.15829206 -0.13683926 0.21831363 -0.10885405 0.3223257 0.0029903245 -0.3441466 0.23564236 0.213676 0.037354868 -0.06137731 0.21631351 0.11512741 -0.18543726 -0.02775503 -0.3772571 0.045827325 -0.5359043 -0.024069296 -0.27981627 0.18833424 0.11642828 -0.18312609 -0.16239151 0.21880773 0.07265289 -0.38876972 0.4519269
非 0.3605335 0.39670628 -0.09510339 0.4658429 -0.50159156 0.19386466 -0.51593584 0.1329727 0.20163037 -0.484909 0.1762947 -0.27605748 -0.054972902 -0.32460314 -0.47175652 -0.33804184 -0.1336746 -0.6409098 0.005760016 -0.04625182 -0.24956596 -0.6177835 0.0141958175 -0.26966724 0.15920253 -0.12808248 0.08006166 -0.044387676 0.033690356 0.2298009 -0.2293007 0.3936655 0.02740198 0.13291796 -0.08328385 -0.07694507 0.21643302 0.12709741 0.013197479 -0.098298125 -0.19800417 0.39410543 0.31634238 -0.46118453 0.23614916 0.2705376 0.024851937 -0.5533782 -0.5655895 0.14416957
出 -0.22107938 0.7155748 0.012928401 0.22229338 0.087768465 0.88851357 0.032940906 0.40472096 0.5604177 0.1083391 -0.32800505 0.61173135 -0.0034962986 0.41363028 -0.48512033 -0.5335864 0.27994657 0.5442646 0.31555378 0.33429107 0.27273816 -0.07756643 0.28322774 -0.3864608 0.034300163 0.14122237 0.71542436 0.5045878 0.32547936 0.55061835 0.011469036 0.25639784 0.5670998 0.22973813 0.09432893 0.3337086 0.4442988 -0.07713339 -0.34250998 -0.30539933 0.03802646 -0.07076523 -0.058026426 0.05094255 -0.115633465 0.27539763 -0.11102274 0.041414972 -0.4600108 -0.2810128
过 0.16973178 0.24573088 0.20428617 0.6444323 -0.70239407 0.36409763 0.35642314 -0.5123341 0.19062501 -0.14392795 0.17896801 0.23087557 0.16744764 -0.026732791 -0.36766452 -0.23130858 -0.06767321 0.6237549 0.16240278 0.51961094 0.012872316 -0.20731826 0.39336565 0.31221673 -0.35783148 -0.05023194 0.09683238 0.30460286 -0.12821668 -0.113430634 0.041095078 0.21693027 -0.28199667 0.2773579 -0.26097107 -0.4113658 -0.089367434 0.06503921 -0.17457883 0.14100373 0.37523463 -0.36809173 0.31356868 -0.24619867 0.40296066 -0.15671793 0.03973574 0.08120594 -0.17217378 0.3351697
一 -0.031812012 0.31753495 -0.10870701 0.5506633 0.5271346 -0.12317958 0.020625837 -0.20604949 -0.13135956 -0.3517457 0.43754688 0.27593532 -0.04326448 -0.0915883 -0.1765175 0.14172722 -0.09986362 0.064038835 0.2138289 0.12342686 -0.48960274 -0.031889156 0.07553905 -0.0039267107 0.85523635 -0.21943629 0.41929 0.24788836 -0.58147955 -0.21815489 -0.25925875 -0.1334092 0.3080947 0.3928386 0.51628983 0.33427343 -0.11165906 -0.073620014 -0.07127461 -0.08647113 -0.06534866 0.38326743 0.45025465 -0.33089593 -0.5118642 -0.16176882 -0.25769913 0.52486175 -0.28773567 0.30575603
虽 -0.6010007 0.6997172 -0.012140212 0.7053403 0.3208895 -0.41706222 -0.16878396 -0.38321096 -0.70305043 -1.3259361 0.010316242 0.23840728 0.17127182 0.49751854 -0.35696915 0.19742325 -0.024578601 0.25271326 -0.5288947 -0.038013395 -0.7356016 0.064364545 0.081939586 0.06565675 -0.85249376 0.48052382 -0.35411525 0.3825554 0.20734712 -0.1258666 0.5488745 0.10570278 -0.12997913 0.53128666 0.2317406 -0.03798371 -0.42500517 0.35716802 0.055010747 -0.2662544 0.101925656 0.70813113 -0.15007105 0.021996297 -0.6478801 -0.12607244 0.3037012 0.2679321 -0.09718487 0.12508014
足 -0.6398455 0.8599537 -0.17410332 0.5878759 -0.39940763 0.2826939 0.022857767 -0.27426612 0.28498575 0.33698884 0.25214216 -0.051348932 0.41257742 0.61399347 -0.192736 0.10642383 0.37862375 -0.77431494 0.28183988 0.57837313 -0.3678163 0.2575295 0.12921005 0.87337506 0.0140074985 -0.23825523 0.3619814 -0.13435413 -0.31792614 -0.79890525 -0.2363191 -0.21972011 0.44900012 0.16155492 0.52712834 -0.17623608 -0.19560736 -0.30185878 -0.05705409 -0.59309113 0.4261323 -0.6000003 0.020890307 -0.18329054 0.37720427 0.095748775 -0.13917184 -0.60540867 0.263052 0.5664391
居 -0.12238459 0.5343939 0.31627738 0.5021175 -0.13171338 -0.28221238 0.32162258 0.37752447 -0.06091203 -0.19835742 -0.20726146 -0.2634906 -0.038211323 0.20382783 -0.1672169 0.07290295 -0.043915957 0.20981559 -0.15476744 0.101174556 -0.2918919 -0.25915793 0.36099482 0.5361008 -0.027626518 -0.45049018 0.43786156 -0.11005248 -0.37563816 -0.15444274 -0.17697035 -0.035752386 0.12844393 -0.11451244 0.09889736 0.37273967 -0.726471 -0.5196886 -0.27059054 -0.22869293 0.2719243 -0.36962658 -0.29626182 0.009429341 -0.18798982 -0.5038444 0.10237044 -0.33818176 -0.6420034 0.34827152
尔 0.031154953 0.018925019 -0.07088707 0.5910726 0.10091819 -0.27208996 0.003357987 -0.18178472 0.12711135 0.12851065 0.09726929 0.6389063 -0.09130263 -0.7998293 -0.4548989 -0.17504837 0.1061882 0.11410019 0.027236693 0.36279604 0.08559377 -0.48318887 0.07053411 0.15266535 0.12718648 0.38371745 -0.012497085 0.30831248 -0.2359606 -0.34257248 0.16571489 0.13407525 -0.09466944 0.058664903 -0.024112348 -0.10040765 -0.4188459 0.37476215 -0.07498702 -0.25549936 0.85958695 0.36387518 -0.17454547 -0.12138567 0.3403268 -0.119580105 -0.34074548 0.3048738 -0.17508566 -0.40971386
夏 0.027663166 -0.15504196 -0.03775752 0.73310643 -0.035473518 -0.23205377 0.27235538 -0.18918741 -0.09179095 0.14599557 0.12872697 0.5098364 0.25118196 -0.12147253 -0.9896591 0.13316113 0.22224383 0.28106764 -0.12645055 0.13279982 0.25656196 -0.31865174 -0.12806278 -0.26780033 -0.12069207 -0.15164243 0.2909482 -0.11441582 0.5904798 -0.0440819 -0.32638115 -0.12617996 0.50386614 0.43138862 -0.3043807 -0.2119867 -0.0002482178 -0.15523912 -0.28801584 -0.4499601 0.02296237 -0.38824627 -0.089401156 0.019760948 -0.025910024 -0.27692163 -0.37053606 -0.066254064 0.28765765 0.3344028
父 0.09503029 0.53320855 -0.105606206 0.3048174 0.11436658 -0.06541112 -0.3259991 0.07587325 -0.23745795 0.1488008 0.30251235 -0.25717807 -0.63443995 0.14229718 -0.7453183 -0.02970023 -0.30763113 0.17413759 -0.41430977 -0.44065136 -0.08843765 0.00036875834 -0.12309076 0.021456515 0.20852642 0.14408772 -0.22477189 0.3374865 -0.2003182 0.051874604 -0.09701491 0.7050488 0.3125161 -0.49459502 -0.7042446 0.25692552 -0.4138256 -0.5344527 0.39777437 -0.5238279 -0.17362407 -0.9452048 -0.020791898 -0.17551525 0.18612343 -0.23122033 0.40705952 -0.18633498 0.29639187 0.2484823
及 0.25329947 1.0245582 0.05822572 0.21219027 -0.07123742 -0.09295572 0.37528116 0.15278004 0.56965274 -0.2714017 0.16593492 -0.07966528 0.08733273 0.25873995 -0.5065482 -0.14542651 0.1880299 0.25512895 0.19758342 -0.1486126 0.5244295 0.4813508 -0.46214575 -0.09439943 -0.44620484 -0.22756307 -0.0061588325 -0.044400126 0.14125018 0.25687376 0.40111074 -0.070929565 -0.027819142 0.29592636 -0.5721 0.1225549 -0.26644278 0.5549688 -0.37148657 -0.069596 0.28462356 -0.3843317 -0.11785735 -0.42684555 0.2545278 -0.40994307 0.2344291 -0.41960302 -0.1510244 -0.12419225
己 -0.016224753 0.5240655 -0.007438693 0.67286026 -0.3668433 -0.03163742 0.10031705 -0.5462142 0.29074946 -0.18961209 -0.29567567 0.07424449 -0.1339825 -0.14736262 -0.312305 -0.15472814 0.13732183 -0.06520008 -0.09319252 -0.19231087 -0.5198972 -0.19317426 0.018217515 0.27152282 -0.4843763 -0.09197684 0.514307 0.4601827 -0.02198343 -0.35491058 -0.14456011 -0.3150736 -0.4121747 0.63382226 -0.07054066 0.18201803 -0.096965976 0.21539672 -0.06978585 -0.44763678 -0.011763123 -0.046293043 -0.56574726 -0.027632967 -0.21674836 0.21865536 -0.107881 0.49958253 -0.04634806 0.1338705
予 -0.060285095 0.018345868 -0.018254822 0.301321 0.41971552 -0.06396366 0.041493274 0.3498045 -0.53901255 -0.33052814 -0.02003149 0.40585512 0.22782135 -0.5443942 -0.5252339 -0.18657652 -0.410208 -0.1579731 -5.0017843e-05 -0.12768252 -0.28574684 0.163722 -0.21595576 -0.12763996 -0.19883049 0.10014439 0.016180243 0.36086214 -0.2810627 -0.36676744 -0.18133771 0.09159797 0.36935008 0.53187156 -0.63315165 -0.25788164 -0.32701945 0.0025941783 -0.12509356 -0.3278574 0.106261894 -0.19080774 -0.062082853 -0.25256827 0.16141252 -0.29301745 -0.037407644 0.4102369 0.017515518 0.5906195
色 0.060639597 0.8986578 0.2893198 0.1798324 -0.40835527 0.13762814 0.4608965 -0.22893308 0.7795465 0.39371687 0.6625106 0.19508116 -0.9193709 0.63637334 -0.42175752 0.19072154 0.13583891 0.26444516 0.41909987 -0.23111804 0.21910478 0.057323813 0.065297425 0.8230458 0.22764975 -0.015863841 0.3830977 0.34950045 -0.23633946 0.035616014 -0.029944152 0.30642962 0.43745682 -0.024932249 0.2554832 0.23108119 0.19341081 -0.14045857 0.14230128 0.5817575 -0.21430299 -0.095838726 0.11359967 0.16355512 0.37947738 -0.59841883 -0.24278276 0.13582222 0.15679273 0.10277284
友 0.03658197 0.8052592 0.019053334 0.30442932 -0.014642628 0.40451038 0.35774717 -0.08329823 -0.07571665 0.14552668 -0.42495853 -0.020585325 -0.31984615 0.05239025 -0.27814925 -0.2334931 -0.130077 0.263338 0.06583916 -0.014144521 -0.42057988 0.36001268 0.00016543921 0.47768202 -0.15728909 0.16982375 -0.08596523 0.5839455 0.3629928 0.90517217 -0.33342654 -0.01945167 0.06434889 -0.5167164 -0.4319563 0.5531478 -0.21250716 0.17615557 0.39781338 -0.6038312 0.1444127 0.14568518 0.23373619 0.38776255 0.6024067 -0.40289807 -0.19956073 0.6340244 0.54699695 -0.474444
成 0.061008684 0.40056917 0.21311158 0.21621212 -0.121246174 -0.36937335 -0.5013459 -0.20847271 -0.09179632 0.0013657275 -0.2819038 -0.15851025 -0.22418387 0.5169331 -0.260334 0.41104054 0.5318696 -0.22927418 -0.3190296 -0.046902336 0.12730123 -0.15116824 0.3129266 -0.15288435 -0.20092665 -0.52245814 0.10566952 0.41697752 -0.18016955 0.06073948 -0.08369881 0.45114183 -0.08768291 -0.1087864 -0.0035720384 0.16378698 0.24123026 -0.3901005 -0.3345579 0.21462335 -0.40700877 0.07740804 -0.37531224 -0.19931355 -0.21555623 -0.34478918 0.037408803 -0.20876344 0.1860313 -0.29130334
远 0.14301145 0.5887934 0.6405249 0.4117887 0.24604346 0.24788839 0.11198906 -0.42698142 0.12002147 0.045140248 -0.18464078 0.28668958 0.24062014 -0.026916193 -0.3956798 0.2795615 0.13508545 -0.010108458 0.124619074 -6.587256e-05 0.7253388 0.09099766 0.14495607 -0.65836173 -0.3479468 -0.085079685 -0.49730098 0.22205965 -0.23825286 -0.17627203 0.08346257 0.42403352 -0.51874894 0.073108 0.02320761 0.8465308 0.2942686 -0.11687315 -0.4167754 0.018552935 -0.28156626 0.03522611 -0.090306945 0.19047129 0.52836925 -0.12370346 -0.030890787 -0.31587416 0.29307005 -0.6689411
上 0.12370982 0.32475597 0.1468556 0.39898315 -0.20201007 0.13255407 0.09060927 -0.10750472 -0.13107307 -0.3588022 0.26532698 -0.10079228 0.079886794 0.06849033 -0.21360973 -0.017753415 0.09068787 -0.14434877 -0.86775476 0.24661791 -0.17961414 0.009689604 -0.17568375 0.08025685 -0.43298593 0.14667688 -0.23339126 0.17815407 0.2557854 0.21041 0.06507705 -0.4435518 -0.2716286 0.02125113 0.084574126 -0.10334481 -0.5128303 0.09819999 -0.34105173 -0.18577036 -0.18390983 -0.19058351 0.11394086 -0.1241323 -0.02593028 -1.0204036 -0.16139194 -0.5103593 -0.009173595 -0.15168522
立 0.043594208 0.4992157 0.57774323 0.35364038 -0.42917874 -0.21674787 -0.19415921 -0.19009808 0.39936954 -0.60559887 -0.3709724 0.1374965 0.23700525 0.24890172 0.338504 -0.20417035 -0.23511723 -0.27237582 0.2075499 0.12671234 -0.35610998 0.1368117 -0.26139253 0.30544007 0.1093447 0.2324106 0.29911453 0.613403 0.4198088 -0.4190942 -0.2721802 0.12432975 -0.061972503 0.050365016 -0.06845176 0.6082489 -0.22145945 0.53982157 -0.064951375 -0.15880366 0.70317626 -0.09282495 0.041271016 -0.31209856 -0.009378104 -0.4411702 -0.20694144 0.18707909 -0.033045266 -0.63080525
今 0.82048696 0.07623191 0.051750507 0.392895 -0.23745826 0.21845327 -0.4454606 -0.2257139 -0.35697937 0.1821963 -0.1358071 -0.15034463 0.2444769 -0.23364003 0.06994133 0.70221764 0.20419641 -0.34295276 0.052805807 0.09246482 0.1337217 -0.012995441 -0.0799047 -0.27501076 0.3279452 0.15454154 0.120699786 0.52238464 0.32972115 0.48875335 0.45514694 0.009669471 -0.30717093 0.33174074 0.11133904 -0.23514739 0.04496286 -0.042794567 0.5534998 -0.37768403 -0.2007268 0.09354513 -0.13014998 -0.24248256 -0.6909921 -0.09173357 -0.19488087 0.2883442 0.03275985 0.53047013
张 0.3834918 -0.17298545 -0.77810055 0.6814894 0.21383038 0.47119236 0.030084731 0.7783547 -0.35571802 0.38461813 -0.045005307 0.0306417 -0.07705948 0.3995765 -0.8901019 0.24008822 -0.14674874 -0.6419182 0.47010478 0.34713718 0.04976197 0.342767 0.2873702 -0.18889403 0.4214489 0.37404862 0.19836581 0.30991703 -0.6442208 0.18392657 -0.04925517 -0.030111456 0.39168817 0.33044824 -0.07285176 0.50479925 -0.2440712 0.3077319 0.10118402 -0.23915076 0.007314815 0.5521461 0.065370075 0.4714964 -0.21488538 -0.24207099 0.5304171 0.3865794 -0.11972175 -0.31933844
中 0.27496395 0.50582546 -0.07955358 0.46122724 -0.37448564 -0.07890526 -0.20390548 0.23622209 -0.34350732 -0.2044511 -0.22297183 0.49100357 0.4684873 -0.26057413 -0.05273721 0.33576173 -0.4794325 -0.2114292 0.041032515 0.40194657 -0.76779336 0.22472344 -0.13417472 -0.42366812 0.2520378 0.3258862 -0.06887088 -0.043695547 0.050604045 0.32166153 0.2674254 -0.16634488 -0.017526964 -0.12971076 -0.17404352 0.24903388 0.040296003 -0.1841299 0.7416694 -0.37159005 -0.207566 0.115840666 0.15928495 0.1629539 0.47272393 -0.7353668 0.22128612 -0.48322004 -0.40542972 -0.2970075
季 -0.16819495 -0.18925281 0.2685822 0.9063569 0.22617617 -0.21993631 -0.0060574026 -0.06508989 -0.28060353 0.27128503 0.07708147 0.22883621 0.42852548 0.7205518 -0.4669881 -0.070808135 0.256786 0.19647577 0.20092164 -0.27930665 0.2711607 0.30014732 0.094471455 -0.14314403 0.09390559 -0.100866295 0.091964096 0.19599405 0.39075655 -0.21106221 0.012229744 0.18614505 0.1783083 0.15149121 -0.22591141 -0.24526179 0.05430682 0.22798224 0.1864965 -0.030123005 -0.19996363 -0.3983712 -0.32321513 -0.2603578 -0.49303842 0.12994464 -0.44643041 0.19908385 0.67613643 0.4258188
臣 -0.24421522 0.512931 -0.124931976 0.07162717 0.17804556 0.38205147 -0.39155793 0.07076072 0.24898992 0.11208165 0.36777076 0.097578965 0.0049199318 -0.07440965 -0.2773582 0.11328945 -0.18870604 -0.23763455 0.41370526 -0.18503991 0.37629768 0.19736765 -0.11634086 -0.2859731 0.020285007 -0.2656322 -0.21431145 0.36669624 -0.42227685 -0.38940895 -0.2086674 -0.12201812 -0.11446502 -0.18477394 -0.46659833 -0.1981415 0.1614616 -0.26928484 0.39770898 -0.72822547 -0.47761518 -0.36172438 -0.1911553 -0.28299233 -0.27260718 -0.32884637 -0.11709852 -0.053470206 0.36469305 -0.121193655
贤 -0.2365453 0.22040221 -0.102013454 0.49605045 -0.3809645 -0.037954453 -0.111203216 -0.5026397 -0.278372 0.55365336 -0.04448627 -0.017519671 0.3238993 -0.14845587 -0.4684754 0.18556485 -0.3694553 -0.2603521 0.345317 -0.409235 -0.004905708 -0.0041087405 -0.5006885 0.112127356 -0.21349241 1.1240969 -0.8222631 0.13340907 -0.0012175296 0.31319433 -0.25338194 0.3612489 0.11360765 0.018431257 0.25204062 -0.070107594 0.5372182 -0.0007425812 -0.31864017 0.014492232 0.2715636 -0.08023409 -0.03662504 0.23109037 -0.3825204 -0.36262402 -0.2386824 0.05569708 -0.07530678 0.6033059
思 0.20981812 0.68270135 -0.20582384 0.24840395 -0.28909254 -0.3804096 0.16137588 0.51148844 0.31346542 -0.3175461 -0.44899213 -0.22689609 0.21275286 -0.14663416 -0.8254692 0.17579417 -0.4338135 0.47113404 0.2725312 -0.088935055 -0.15738079 0.07969856 -0.003966085 -0.26444533 -0.025979085 0.4408404 -0.30987138 0.31243902 0.043229643 0.27997345 -0.43062407 0.5429694 0.37976134 0.106808715 -0.21845567 -0.27380645 -0.35055587 -0.30282474 0.4351146 0.17386936 0.021812158 0.28495485 0.784105 0.32523438 0.19334605 -0.12124163 0.2621781 -0.32442042 0.113898106 0.425297
齐 -0.20615987 0.38985884 0.58483714 0.32263505 0.11990213 0.15745121 -0.04180007 -0.22451049 0.19738518 -0.16246301 -0.1406399 0.6979201 -0.37072697 0.33304098 -0.6432434 0.2566694 0.072877355 0.0006369354 0.21178244 -0.18937969 -0.3155693 0.023612011 0.5718609 0.22341488 0.42372477 0.11152805 0.29464495 0.18723942 -0.2428037 0.10641098 -0.92102444 0.11372935 -0.06687995 0.16372955 0.3483613 0.6492835 0.07609359 -0.19766699 0.24666901 -0.2506971 0.039076798 -0.22002721 -0.40486446 -0.26576018 0.07953516 -0.2745189 -0.3345568 0.13881575 0.26089025 0.14897664
义 -0.028630832 0.43271592 -0.30565718 0.33801362 -0.33139473 -0.10909061 0.592977 -0.062504485 0.22698443 -0.12314746 -0.14020835 -0.28466958 -0.10207087 0.38069957 -0.12868991 -0.10666094 -0.065366425 0.20196648 -0.1579746 0.25726843 -0.38761193 -0.21273729 0.26533422 0.025741376 0.4839763 0.20773818 -0.21305203 0.28385755 -0.38767302 -0.1777545 -0.17139994 -0.52158993 0.49550018 0.04403192 -0.02397967 -0.38419023 -0.15559863 -0.16223896 0.31060702 -0.052686147 -0.11071011 -0.25889635 -0.16043593 -0.46950582 -0.4187397 -0.6579938 0.4770141 -0.4026797 -0.082960196 0.20601375
正 -0.52937883 0.32836553 0.6811747 0.37098372 -0.37471247 -0.6781878 0.5227428 0.33038712 -0.11091731 -0.31892624 -0.49079442 0.20493813 0.08412623 -0.17478284 -0.4129947 0.25803086 0.13106196 -0.15025376 0.17903534 -0.032334805 -0.10302607 0.09291553 -0.052424185 0.07052842 0.11015783 -0.32975623 0.24351276 0.33958095 -0.1605908 -0.37746242 -0.092056245 0.33271715 0.4510023 0.6408811 -0.08214001 0.16958442 0.1133611 0.5211957 0.7005442 0.13151777 0.4263877 -0.47738835 0.24523182 -0.424847 0.2965609 -0.2845052 -0.6310694 0.51327896 0.26641178 0.36450946
命 0.0015169967 0.3686435 0.022789143 0.3385057 0.6495249 0.33849868 0.5281638 0.27268207 -0.094550036 0.05298671 0.016982142 0.10377043 0.4258498 -0.48298347 -0.27009323 -0.13086575 0.142941 0.12144417 0.462473 0.08879016 0.33820412 0.23840421 -0.2931723 0.4625552 0.4940744 -0.23901096 -0.048266124 0.2994416 -0.045544684 -0.09787805 0.2238439 0.23295255 0.67577744 0.27951327 0.16882521 -0.33589935 -0.32542837 -0.39035338 0.23792537 -0.3020497 -0.23042107 0.24911942 -0.1899284 -0.27783063 -0.1079555 0.08681038 -0.4632991 0.14185938 0.35078987 -0.69953996
曾 0.21449189 0.016421959 -0.009942703 0.7781571 -0.07211378 0.37535876 0.22398354 0.027893608 0.29345065 0.14236343 0.10163444 -0.58230793 0.37811148 0.32642764 -0.7184812 -0.15923882 0.0756613 -0.39584562 -0.25945 -0.32508224 -0.08189471 0.07523347 -0.089640506 0.33207548 -0.07699049 -0.14399181 1.0842725 -0.041375805 -0.52239954 0.31025684 0.40289703 0.60579145 -0.07652842 0.18405399 -0.1392714 0.0205161 0.23446614 -0.16633382 0.41339192 -0.019322384 -0.42376378 0.11139219 -0.40923735 -0.026412962 0.11915701 -0.16739577 0.14379786 0.14560358 -0.14462976 0.13251247
伯 0.218675 -0.09697097 0.27017424 0.62715936 -0.39989096 -0.13014467 -0.08280664 0.19763564 0.6177623 0.3564939 -0.26318914 0.43528542 -0.1426976 0.8211732 -0.38700727 0.28053105 -0.3139899 -0.39312088 -0.6127029 -0.09298661 0.23799652 -0.11125836 -0.06458952 0.33795953 0.2110427 -0.51372576 0.23837312 0.16582535 0.11070425 0.51791465 0.14162847 0.11321014 -0.6579734 -0.67807645 0.13469289 0.033434384 -0.011268875 -0.5740509 0.3221268 0.45568702 -0.2515102 -0.46068177 -0.5089517 -0.22354086 -0.18949135 -0.3710779 -0.23388061 0.16168308 0.37126625 0.19967076
门 0.0033202171 0.32105666 -1.0451168 0.34707 -0.28496203 0.034082815 -0.24517928 0.4343901 -0.70414877 -0.37860098 -0.057263967 0.39377886 0.29797295 0.31746486 -0.49622798 -0.6482624 0.050071154 0.031455964 0.42441368 0.011624373 -0.01565838 -0.18762112 0.039975308 -0.5600561 0.41150698 -0.18854757 -0.29104596 0.47994402 0.2936773 0.22302678 -0.14581813 -0.09336972 -0.066526674 0.16549979 -0.36269414 -0.5092333 0.257326 -0.11576701 -0.14188047 -0.60107696 0.15240864 -0.24123949 -0.50556344 -0.15580411 0.10309063 0.07594674 0.24245028 0.24172959 -0.25962308 -0.28177422
敢 -0.14504926 0.3683549 0.12680385 0.3075815 -0.39254865 -0.09871646 -0.77078605 -0.40890405 0.07752999 -0.039830405 -0.9047701 0.9638901 0.5913947 -0.40275568 -0.8979501 -0.29790404 0.010960875 -0.3398689 0.01337363 -0.19958675 -0.332899 -0.3701587 0.055052802 -0.43478855 0.19734697 -0.4997733 0.4826286 0.29681003 -0.3770989 -0.08698299 0.17427191 0.17637902 0.42489845 -0.025327476 0.45307013 0.08666633 0.31793585 -0.19078073 0.20802987 0.5638303 -0.63250655 -0.14527205 0.21908854 -0.6321666 0.13332945 -0.25629872 0.090132 0.025669938 0.0360422 0.5657065
犹 -0.30621403 0.4576592 0.4323206 0.3430185 0.23842075 -0.38723963 -0.25787455 -0.1880175 0.17720115 0.5275661 0.6583355 0.06491397 0.46158245 -0.33663088 -0.67120343 0.62360466 -0.0074554877 -0.63009083 0.04441758 0.30712387 -0.06547254 -0.7135168 0.3411913 -0.43098548 -0.429989 0.45877734 -0.03539202 0.0019634706 -0.049187407 -0.0029135772 0.02048157 0.25820193 0.69155204 0.28285405 -0.3598063 -0.44364366 -0.0958179 -0.16156615 -0.13299173 -0.9488638 -0.50511503 -0.39048135 -0.44556817 -0.029390661 0.25101462 -0.7503992 0.33973148 0.6084432 0.37201914 -0.11329673
生 -0.052185416 0.1819406 0.631382 0.4643017 0.10448249 0.043256395 0.24829502 0.15162891 0.14054726 0.04759515 0.37601727 -0.08286201 0.4509336 0.22763444 0.0053214496 -0.20284177 -0.027792841 -0.04971025 0.107961 -0.12798128 -0.058783617 -0.092643015 -0.13329247 0.010573233 -0.17034286 -0.27460784 0.5195659 0.6190708 0.22875872 -0.23562115 0.44424322 0.51473194 -0.16633795 0.23113185 -0.150517 -0.26494965 0.06512945 -0.08996921 0.49328014 0.029978098 0.27166706 -0.112362996 -0.067830026 -0.17211296 -0.07951893 0.16921344 0.41951755 0.29087815 -0.45165253 -0.2306967
日 0.047308266 0.46855682 0.14065836 0.50375897 0.60064757 -0.56985986 -0.30453646 0.2804532 -0.111424565 0.6143541 -0.1122833 0.2722792 0.054638937 -0.08518269 -0.20426269 0.21523263 -0.03557043 0.031300046 -0.18981414 0.024518503 -0.456668 -0.10736959 0.14744513 -0.29512212 0.18152587 0.0027948641 0.5201454 0.03614238 -0.045218527 -0.0031612162 0.25105643 0.15835224 -0.057874773 0.26925355 0.43524387 0.25885737 -0.3668629 0.42519584 -0.35144043 -0.13143443 0.48626864 -0.17619991 0.0057726973 -0.3157158 -0.19523865 -0.010421754 -0.00957632 0.31772566 -0.2644613 0.15779258
敬 0.052570596 0.7590459 -0.14774282 0.37396875 -0.42786252 0.24588354 0.12471109 0.467013 -0.048154816 -0.041026838 -0.027722957 -0.0489087 0.5315599 0.03830513 -0.3599749 -0.11969333 -0.82599235 0.25565287 -0.3683547 0.016947692 0.42202422 -0.40014154 0.7156015 -0.2387302 0.24848537 0.2209201 -0.07937606 -0.22259413 0.05542266 0.01718187 0.13330418 -0.77417684 0.06508525 -0.13026632 -0.01129246 -0.07008125 -0.27549505 -0.155453 0.25509605 0.20823298 0.035894796 -0.6662439 -0.10232748 0.19010574 -0.5560763 -0.47159788 0.041855995 -0.46783742 0.23752461 -0.08369273
难 0.40850756 0.4621502 -0.4560204 0.21808046 -0.69788295 0.45373884 -0.18103488 0.052645847 0.06531776 0.43767855 0.14610568 0.09478078 -0.21184266 -0.17690018 -0.37617782 0.39654842 -0.04268062 0.26427922 -0.23003174 0.39562201 -0.13843007 0.5311195 -0.25440076 0.13098392 -0.003984545 0.12932903 0.06753943 0.42233 -0.65680367 -0.3260259 -0.09241611 0.281251 0.17674778 0.23990743 -0.66605437 -0.64273846 0.058279663 -0.541968 0.5664934 0.18315065 -0.58613646 0.45867473 0.25525928 -0.09329694 -0.27971077 -0.27938703 -0.03885014 -0.06871213 -0.08070381 -0.025379663
直 -0.24619144 0.13847674 -0.45113957 0.30682623 0.035307057 0.112600885 0.19430849 -0.15416622 0.14019822 0.5637327 0.76977366 -0.09540776 0.12724972 0.06633316 -0.22393256 -0.2110669 -0.37190855 -0.26731437 0.30596876 0.12521732 -0.3668598 -0.18112081 -0.057537913 -0.2696825 -0.028902156 0.33469218 0.45157868 0.37560073 0.5866667 0.07050565 -0.47699565 -0.09491314 0.10055353 0.6598409 -0.32133114 0.3557522 0.30049577 0.26076436 0.2562838 0.36618125 -0.030935656 -0.11747428 0.030925568 0.02155977 0.3830204 -0.76558995 -0.06898087 -0.3355843 0.8853927 -0.16417132
丧 -0.3229623 0.15668017 0.30500337 0.42152187 -0.043972954 -0.06857231 0.2864897 0.741257 0.31007698 -0.048852626 0.29449984 0.0132241305 -0.063694395 -0.41170177 -0.21037492 -0.282705 -0.30080974 -0.3251825 0.36561146 -0.12839748 0.50078607 -0.17199416 0.47284138 0.41427252 0.19976893 -0.27735877 0.6190809 0.7162632 0.18821548 0.06961504 0.067775175 0.7385782 -0.12296976 -0.30705938 0.3579871 0.837045 -0.22551307 0.10844546 -0.35728607 -0.077403486 0.2770019 -0.5478041 -0.059688218 -0.41113824 -0.35380825 0.28112593 -0.405079 -0.37539664 -0.009825876 0.6928641
说 0.3010683 0.29250172 -0.2634913 0.382313 0.19823344 -0.09772367 -0.09836337 0.25174293 -0.36218518 -0.58682644 0.0027223178 -0.58435124 0.2858306 -0.11271695 -0.65784025 0.07587373 -0.07442602 0.53972846 0.49736026 0.38446167 0.71888095 0.2285218 0.3901664 -0.2624977 0.3111936 0.014375506 -0.093583494 0.12997757 0.011588888 -0.26195502 0.1883257 -0.14530066 -0.25368676 0.16822325 -0.54196334 0.0152123645 0.29407626 -0.13731427 -0.19679025 0.15463826 -0.1410397 0.016259244 0.18114614 0.0022106217 -0.09522091 -0.4366218 -0.023824014 -0.7596761 0.33565217 -0.40832216
自 -0.48725918 0.07905428 -0.036083046 0.77859956 0.4060685 -0.07738402 0.2347979 -0.0661495 0.07045564 0.2510455 -0.012601323 -0.7847071 0.43069115 -0.25727913 -0.10422556 -0.2913833 -0.077709876 0.20683032 -0.38193357 -0.1334235 0.061889775 -0.07066239 0.038593907 -0.40957025 -0.21533324 0.35581562 -0.39214125 -0.1141514 -0.09166012 0.56236184 -0.92214936 0.2889676 -0.16080558 0.7965842 0.060182124 0.24312945 0.700489 0.24146463 -0.3292349 0.5868924 -0.010110808 0.2453204 -0.106669046 -0.61089116 -0.0050150603 -0.5115402 -0.45150384 0.09449592 -0.3248224 -0.16919689
用 0.13615702 0.7075407 -0.3736067 0.6209871 0.034470245 -0.46464208 -0.22659077 0.27667874 -0.5037528 0.4679953 -0.36399943 0.68088824 -0.21371412 -0.51575625 -0.62424785 0.26913306 0.2614839 0.31668374 -0.42989618 0.0059551294 -0.34397084 -0.4897538 0.24906674 -0.27912876 -0.25280663 -0.49842775 0.5607756 0.036004297 0.18823153 -0.012033906 0.090775 0.17148598 -0.3084335 -0.17670059 -0.094897375 -0.70206755 0.31042287 0.19941781 0.4898619 0.020957427 -0.10449971 -0.024295194 -0.38042715 -0.08644293 0.52852774 0.57128704 -0.29605004 -0.029678226 -0.28439692 -0.3244057
周 -0.4940185 0.14195709 -0.33123228 0.45878953 0.015841844 0.30224013 -0.052242428 0.70769924 -0.40516514 0.2921169 0.25718492 -0.26345828 -0.067998126 0.84777313 0.055022616 0.14166516 0.33049905 -0.23449928 -0.042760637 0.19093806 -0.24266864 -0.05446071 -0.08239652 0.114136405 0.46004322 -0.2827737 0.35796994 0.15183552 -0.30608276 0.22310898 0.15229006 0.03220164 -0.55310243 0.07538811 -0.12823239 -0.4858468 0.60377645 -0.47663483 -0.11246136 -0.78596777 0.09342152 0.0005810454 -0.19313277 -0.32694808 -0.718626 0.33829314 -0.62070054 0.0457309 0.28312826 0.2282339
颜 0.3691496 -0.20555146 -0.36706302 0.45398447 -0.16325127 -0.24685602 0.35830152 -0.3503028 0.5494463 0.40291336 0.28025708 0.05751257 0.041153044 0.527579 -0.61398214 -0.752599 -0.2480911 0.2006357 -0.15075536 -0.1349346 -0.15443581 -0.3841041 -0.025051268 -0.26809886 -0.1132158 0.23432049 0.06484195 0.6262831 -0.081229635 -0.47708777 -0.0070272926 0.8637984 0.39917606 0.23878047 0.0038879248 -1.0046192 -0.037916526 0.20547615 -0.019351814 -0.4723921 -0.4029412 -0.5523354 0.33609596 -0.5461823 0.13042548 -0.7203783 -0.39153904 0.331795 -0.38460368 0.109924555
年 0.15291551 0.5583006 -0.12602885 0.70431346 0.27996218 -0.25887316 -0.6761908 -0.519065 0.561715 -0.34480768 0.41291386 0.20889033 0.113060184 0.11562082 -0.24543774 -0.51556087 -0.5603813 0.02349065 -0.23863097 -0.14293073 0.12521513 0.27107188 -0.0044438834 -0.64460427 0.09433469 -0.24530712 0.086541645 0.008887584 -0.120621696 -0.3085095 0.25267044 0.110676825 -0.102424026 -0.374657 -0.28693664 0.22338319 -0.14727107 -0.33226848 -0.09306106 -0.18347967 0.13086428 0.4532291 -0.2781575 -0.30340055 0.15679164 0.122168474 -0.3386432 0.22971465 0.7235434 0.44126698
告 -0.10853897 0.5461907 0.7788577 0.6402872 0.48372087 -0.013284944 -0.4560787 0.3457355 -0.49313393 0.12527311 -0.31155598 -0.090130776 0.45184588 0.3489755 -0.7111579 -0.122984484 -0.6795359 0.8824399 -0.1675163 0.21095753 0.05649371 0.1581605 1.0490642 -0.16111803 0.29223257 -0.13304882 0.2714419 -0.07633343 0.2833444 -0.41683608 0.29415753 0.020999346 0.121303104 0.17558302 0.17493154 0.6476224 0.73052126 0.23138992 0.2989016 0.29201648 0.127307 -0.12555324 -0.14495987 0.47984284 0.19148238 -0.12904581 0.13378789 -0.14729527 0.3093066 0.0020241102
十 -0.22770172 0.50685257 -0.4948322 0.56047624 0.21602058 0.3443777 -0.45236665 1.0496415 0.20280902 -0.061597444 0.06339894 -0.26018354 -0.38406396 -0.12630884 0.057242297 -0.3160094 -0.31196263 0.21275197 0.653436 0.12313506 0.10218389 -0.2351265 -0.3858239 -0.3836443 0.27818042 -0.08534913 0.044580087 0.3256927 -0.19687937 0.100317724 0.17638151 -0.26181155 -0.052910954 0.10676691 0.68062246 0.35726142 0.08686486 0.036122642 0.9228807 0.040225055 0.6243009 0.41547126 -0.19312592 -0.0112015465 0.044396516 0.12744515 -0.7951871 -0.17809175 0.063930616 0.34837076
怨 -0.27353084 0.50065243 -0.014413241 0.32677254 0.46506664 0.022986092 0.31755787 0.22622743 -0.1690287 0.35403427 -0.25363588 -0.077925146 -0.09876355 -0.09544959 -0.19465008 -0.059739936 -0.14924702 -0.14346132 -0.22063604 -0.009573195 -0.44746307 -0.12862852 0.082074724 -0.46947908 -0.1619536 0.045421556 -0.2569896 0.22623907 -0.832276 -0.42802328 -0.3914426 0.19584852 -0.031128272 0.053291265 -0.7185207 0.45628995 -0.25144678 -0.012184126 0.752895 0.48312917 0.1386765 -0.51121247 0.049564864 0.32528132 0.21974115 -0.57585895 -0.31984213 -0.31891662 -0.285562 -0.47474828
达 0.41716883 0.28012168 -0.3876804 0.5249256 -0.47858143 -0.013096785 -0.38261282 -0.28268954 0.19465822 -0.08945531 0.09899609 0.028517647 0.34157968 0.3257153 -0.29595217 -0.07329851 -0.5082836 0.19128421 0.34703678 -0.30505115 0.05527803 -0.40643018 0.15590148 -0.28681841 -0.04027995 0.09378784 0.18944813 0.13428153 -0.30703828 -0.31804478 -0.03488116 -0.4113881 -0.4362226 0.10885419 0.64636046 0.27872053 0.44268844 0.81477374 -0.19506714 -0.10286075 0.15598954 -0.20034379 -0.24814956 -0.071346186 0.7435583 -0.58766836 0.008355128 -0.25760463 0.36023355 -0.48541868
孝 0.5873118 -0.28892443 0.30532923 0.48469466 -0.002693965 0.24220034 0.59557813 -0.20878318 -0.22110465 -0.17519622 -0.61238575 0.09249306 -0.045819733 -0.12327518 -0.32414433 -0.10702919 0.03634655 -0.05945132 0.21733052 0.44883788 0.06102311 -0.0937586 0.029394241 -0.61379635 0.584712 0.2677511 -0.28625485 0.57179475 0.7686605 0.52777505 -0.17201369 0.25962272 -0.13189869 0.48699644 0.29722276 -0.026501201 -0.026882287 -0.14472857 0.0996477 -0.121413544 0.3298187 -0.26154882 -0.16461052 0.05428283 0.11650585 -0.6192808 0.03046072 0.4500318 0.25665036 0.26030228
弟 0.76037866 0.14526111 0.041846763 0.34387276 -0.12916937 0.1586686 0.34155366 -0.44398296 0.13155504 0.089684114 0.12109868 0.81601435 0.32038292 -0.12055791 -0.5076094 0.18884678 0.0036525214 0.1355699 -0.0011145566 0.17337808 0.4353984 -0.25551158 -0.7037355 -0.09206609 0.51189727 0.10494121 -0.34462973 0.33985534 0.07688088 -0.19804555 -0.5332029 0.31014723 0.07325437 -0.19537714 -0.5826942 0.3218344 0.674259 0.09223923 0.61085844 -0.32565886 0.15398216 -0.2466974 0.40225828 -0.49653712 0.07780612 -0.13916792 -0.18268482 -0.20863482 0.24309972 0.18488398
至 0.45046768 0.046526078 0.7579581 0.47170246 0.21101205 0.26617125 -0.30477235 0.17638952 -0.6772201 -0.3626157 -0.23177324 0.2565917 0.40076727 0.2680391 0.2402765 0.08659567 0.06227138 -0.011414586 0.5179667 0.19518988 0.015336076 0.056581724 -0.03003041 0.28275278 0.32616237 0.2721322 0.59101325 0.4514771 0.17937832 -0.546518 0.19717395 0.39828 0.032502554 0.003256129 0.17592223 0.055605628 0.06262627 0.09916732 -0.15200186 0.26146212 0.24924776 -0.16158298 0.17046875 -0.26687157 0.12825213 -0.9004083 -0.10965872 0.51607597 -0.6223264 -0.33119413
先 -0.34252405 0.17911431 -0.44168466 0.6499323 0.2432889 -0.1336021 0.54965836 -0.16043381 -0.20896274 -0.450511 -0.53213173 -0.27049232 0.027890462 -0.54466736 -0.60214406 -0.11535023 -0.084427334 -0.15956868 -0.7333503 -0.3553585 -0.19096152 -0.0323296 -0.07606721 -0.43941355 -0.24949618 -0.24499382 0.48702702 1.0802677 0.07629081 0.3868719 0.7644352 0.47665387 0.6294853 -0.37398306 0.43582648 0.062192522 0.30404946 -0.012441452 0.36753622 -0.006009179 0.11245211 -0.10935329 -0.25706404 -0.05538978 0.3778033 0.283533 0.491406 -0.28384292 0.7441811 -0.029985834
师 0.3327327 0.09698682 0.718052 0.799621 0.6308804 -0.24936882 -0.0059293592 -0.7270922 0.15837663 0.29171544 -0.17790481 -0.21366079 0.3591831 0.6023484 -0.34295645 0.11256732 -0.45983925 -0.12952429 0.14267859 -0.31100243 0.3809495 0.08258927 -0.2326648 -0.021815104 -0.4474734 0.051675726 0.16984679 0.14809877 -0.22757319 0.6008763 -0.29101977 -0.07280037 0.0014681332 -0.16781852 0.3565601 0.084811114 0.12990716 0.35614836 -0.54028255 0.29857495 -0.06455278 0.112694345 0.24900134 0.13916503 -0.11376726 -0.2681095 -0.38827115 0.2532125 0.043909684 0.17441593
女 0.14719215 0.3364629 -0.6873323 0.7499715 -0.24462926 0.1016868 0.011911795 -0.18164279 -0.65470916 0.35113323 0.39333904 0.033249535 -0.0016329936 -0.3970227 -0.8442546 0.11218542 0.14735438 -0.14321642 -0.20749179 -0.32065699 -0.63093567 0.11429504 -0.3280999 0.10455401 0.12473206 -0.36170685 -0.13491522 -0.3688619 0.098274134 0.38699636 -0.38301176 -0.008241473 -0.09769515 -0.18047634 0.331722 -0.19071837 -0.33626118 -0.39662442 0.26975793 -0.5040499 0.08440395 -0.26150194 0.3916276 -0.16208999 -0.67788875 -0.1141929 0.028754499 0.11124217 -0.057798706 0.49977213
多 0.14713427 0.16284758 -0.62519145 0.5128439 -0.5431529 -0.42780983 -0.25125375 -0.2665135 0.20472969 -0.34719068 -0.32521152 0.11433777 -0.10198652 -0.41465244 -0.4447844 0.5605667 -0.2321189 0.19758116 -0.07638949 -0.57027197 0.59686834 0.970529 -0.25060698 0.55991447 -0.14087453 -0.015788374 0.1676634 0.7024954 0.5406254 -0.064818054 0.012516383 0.19233848 0.42117068 0.66241044 -0.33754793 0.4268403 -0.24185124 0.018415434 0.32929367 0.13475028 0.3163536 0.19938938 0.39474338 0.36670405 -0.47481757 -0.049950607 -0.3937228 -0.19777994 0.17512901 0.18772647
忠 -0.3217483 0.33991292 0.53779787 0.25588706 -0.07781732 -0.49607852 0.41054055 0.6274177 -0.17074224 0.115914755 0.15696149 -0.57358 -0.17238005 0.09297798 -0.69507647 0.10492682 -0.26320735 0.24283205 -0.59180564 -0.042735368 -0.6850368 -0.6589296 0.6338667 0.2221705 0.27400148 -0.086518206 -0.5039517 0.3718534 -0.37938887 0.20772934 0.38941687 0.31903645 0.008007003 -0.28184447 -0.3800893 0.3143941 -0.3198724 -0.15588568 0.8905784 1.2161915 0.48904416 -0.26507083 -0.39732113 0.056972064 -0.16252373 -0.41341892 0.23889776 -0.044493757 0.4949218 -0.18516083
四 0.20687887 0.47043273 -0.40627688 0.38563517 0.10414828 0.4364992 -0.6910129 0.32563955 -0.105409734 0.1347098 -0.21074082 -0.18145417 0.4051626 0.6616236 -0.10957521 -0.17775634 0.050952833 -0.14401856 -0.0149213765 0.17075658 0.043095727 -0.101185456 -0.52016157 -0.035639297 -0.7057514 -0.13692734 0.30220512 0.6584588 -0.83150196 -0.0036721958 0.28532645 0.45381024 -0.3881333 -0.25651845 0.045846548 0.61035967 0.43924978 -0.14154144 0.06147543 0.31791157 0.041854322 -0.17840561 -0.32610437 0.4749915 -0.05805881 -0.2186236 -0.49461165 -0.69385725 -0.16528305 -0.81995744
疾 -0.22737187 0.3963851 0.56754804 0.7156378 0.0013518818 0.18884376 0.996638 -0.15721707 0.58261824 -0.19367772 -0.21547353 0.3310652 0.66726387 -0.16533314 -0.578831 0.290286 -0.26866147 0.3449386 0.35557932 0.0026463903 0.37220633 0.58714885 -4.8226677e-05 -0.09146748 0.17508355 0.056483496 -0.014449957 -0.4151888 -0.24660212 -0.20244972 0.44997075 0.3737633 -0.39778307 0.012867002 -0.13688987 -0.59504 -0.36848244 0.09800577 0.50952065 0.7499097 -0.049440935 0.012021193 -0.5456985 -0.7956689 0.07913841 0.08642201 0.36553118 0.048835784 0.34381145 -0.295371
服 -0.6863136 0.71279687 0.435352 0.68852025 0.2506918 -0.102177404 -0.071632855 -0.020191113 -0.44198787 0.11117802 -0.6535072 -0.044196386 0.0554703 0.9178586 0.17075066 0.24092573 0.7588199 0.45718628 -0.59263986 0.4065548 -0.034306154 -0.024047026 0.10283293 -0.22706555 0.05642004 -0.07500673 -0.60237443 0.56232023 -0.3146345 0.104013875 0.036229063 -0.4385953 -0.016250905 0.12479904 0.88589734 0.50107175 1.1299198 0.09194734 -0.30935603 0.15824124 0.26824325 -0.4728989 0.22665484 -0.01645634 -0.18532187 -0.43427885 0.20268548 -0.10941175 0.65599257 -0.27656093
氏 0.11037697 0.09944198 -0.31384996 0.7032266 -0.3059037 0.32621887 -0.91127527 -0.03040105 -0.12053195 0.19606729 0.32070124 0.59673595 0.78840315 0.9340152 -0.19320159 -0.11210361 0.071266495 0.4911202 -0.41191924 0.15920785 0.41817084 0.11573702 0.01250362 -0.945883 -0.30268842 -0.43076903 0.54186696 0.2851276 1.097525 0.16662794 0.27006128 0.10154167 -0.23582098 0.15030365 -0.09332381 -0.5233614 0.11012629 -0.53497744 -0.23310667 0.3425207 0.114160426 0.30443323 -0.21813445 -0.18803531 -0.27428427 -0.019103296 -0.52494395 0.06973796 0.14975268 0.5630446
冉 0.393856 -0.65404695 -0.37588695 0.9431508 0.30194503 0.33329985 -0.33910218 -0.11705991 0.37137794 0.14761986 -0.066833355 0.61484057 0.04611795 0.7768729 -0.55267453 0.22087325 -0.6141656 -0.8992342 0.062111378 -0.27828076 -0.59623605 0.136059 0.089232214 0.05399596 -0.15955599 -0.028452795 -0.15875185 0.2073303 -0.53894085 0.19680254 -0.2240292 0.61832213 -0.37710634 0.21801765 0.35831192 -0.43872085 0.9145079 0.4903115 0.65474707 0.31332278 -0.24352181 -0.5431799 -0.45074457 -0.22025356 -0.82745713 -0.08623888 -0.32927746 0.3214411 -0.37989265 0.13433802
将 0.58392 0.27757534 -0.06361064 0.5105713 0.07059127 0.87751395 0.18583909 -0.49996278 0.505396 0.3100141 0.30011544 0.052474756 0.80927694 0.06951555 -0.003984141 -0.1747425 -0.001768393 -0.36592147 -0.06708472 0.11753215 0.081296995 -0.17623678 -0.15196618 -0.50835687 -0.31194165 0.048271716 0.29418913 0.5172743 0.7968728 0.720532 -0.014089086 0.40558386 -0.022060707 0.18435024 -0.27946955 0.018464364 -0.12510474 0.2654861 0.1988021 0.10873171 -0.45085064 -0.41814214 -0.019148422 -0.43053252 -0.51818246 0.25633022 0.10742101 0.479998 -0.13179156 -0.38510275
士 0.06512767 0.4114215 -0.24877307 0.30698505 0.058876142 0.49177784 0.5320766 -0.16186444 0.3203296 0.67992496 0.041688234 0.4038965 -0.27246958 0.41079217 -0.38149652 -0.7608396 -0.076872535 -0.21679057 0.101201005 0.10864396 0.03351726 0.15815175 -0.25464752 -0.14892963 0.3972083 -0.09174755 -0.32324895 0.20331927 -0.24344061 0.68318135 -0.32906997 0.082909085 -0.14143379 -0.28573817 0.12665123 0.16798954 0.15572146 -0.285334 -0.49672487 0.07534379 -0.08178408 0.2719502 -0.4172801 0.4181254 -0.16879354 -0.58644205 -0.07275262 -0.109819636 0.0074368473 -0.5325316
丘 0.5190019 0.71412313 0.019340219 0.74699837 -0.51655567 0.5195741 0.62359273 -0.5543571 -0.38104847 -0.7301194 -0.62100583 -0.7020117 0.13207327 0.03486569 -0.92057693 -0.58238155 -0.036993504 0.09601648 -0.58291477 0.27839538 -0.23577845 0.50696015 0.3973512 -0.0066477973 -0.56572235 0.12200298 0.19057898 0.008735762 0.2073749 0.09850898 0.04175602 0.1014566 -0.183971 -0.28895205 -0.011987801 -0.74689204 -0.12924287 -0.104005605 0.11821316 0.3581188 0.055306993 0.07844798 -0.258101 0.18475102 0.24963446 -0.11456897 0.113350056 -0.40033913 -0.51885295 0.012057586
身 -0.08770353 0.71866745 0.16674425 0.22323546 -0.016514335 -0.710933 0.39799047 0.022647157 0.09986559 0.28854212 -0.22949158 0.18422416 -0.2873937 0.18331997 0.27490538 -0.1674198 0.06972678 0.22412497 -0.22135063 -0.38703865 -0.04914891 0.070129536 -0.3302435 0.42455313 0.7973398 -0.42569575 -0.07476212 0.3653044 -0.16377895 0.17327796 0.59943724 0.6244595 0.027292732 -0.089952394 -0.31224307 -0.0046494002 -0.14522977 -0.23797613 -0.4104289 -0.4994209 -0.16429135 0.21041933 -0.3096883 0.29607147 -0.5205766 -0.5956378 -0.17539603 0.48638287 0.21818466 -0.20146282
入 0.07828136 0.59738666 -0.019965425 0.35815868 0.2211615 0.066283256 -0.12890515 0.90939695 -0.6559763 0.033797923 -0.26204273 0.9970949 0.40356252 0.15810327 -0.49786732 -0.025400268 0.06109856 0.048094023 0.19788411 0.25409278 0.6383348 -0.39482716 -0.4816869 -0.28823963 0.6815149 -0.12191248 0.6415393 0.51415384 0.15690789 0.15229294 -0.18519045 -0.58037007 0.03312322 -0.19623996 -0.27631247 0.58697534 -0.43851888 -0.53268945 0.27661237 0.0013604322 -0.22320655 -0.25168285 0.41514084 -0.36579424 0.3921488 -0.0291217 0.016232617 -0.11927303 -0.014762113 -0.51626587
志 0.4093407 0.69628257 -0.0130352285 0.36099276 -0.101216935 -0.7717729 -0.034200847 0.6471271 0.11242433 -0.2736454 -0.12175145 -0.7514098 0.37062022 0.705193 -0.5507811 0.050414883 -0.015402828 0.06514218 -0.39388826 -0.38423282 0.46968836 0.46537605 -0.0029614707 0.15569517 0.17653683 0.37289485 -0.14486703 -0.2789109 -0.87871116 0.14658268 0.66056055 0.86323553 -0.37360978 -0.48357454 0.08401082 0.096175514 0.056788813 0.34602642 0.42548493 -0.032680318 0.020533498 0.049788143 0.016993083 0.33097848 -0.01296028 -0.5632686 0.22822638 0.11265074 -0.067599125 0.037317034
耻 0.6654026 0.81551486 -0.9008494 0.52994674 0.41816407 0.21993297 0.35565275 0.41493663 -0.3854634 -0.87495846 -1.2665912 -0.26212436 0.18117301 -0.19049247 -0.09750536 -0.008972087 -0.47427332 0.5725628 -0.1908931 -0.5190103 0.5024024 0.3354356 -0.31506065 -0.035936654 -0.016075859 -0.669054 0.25359908 0.45936424 0.27602232 -0.25017804 -0.6542833 0.11362564 0.21866217 0.04659648 -0.0020487364 0.24248993 0.05869448 0.6937457 -0.021032497 0.7214972 0.27742693 0.37643018 0.10988045 -0.1754615 0.21117719 -0.15355162 -0.59883565 0.34593636 -1.0557543 -0.43514135
失 -0.5100479 0.6997585 0.5921966 0.31607863 0.32869068 -0.47832566 0.86319476 -0.058689807 -0.11532395 0.092339925 0.29066017 -0.15997086 0.37763613 0.26447284 -0.19171953 -0.13628885 0.18807814 0.43862316 -0.17414731 0.45814636 0.32883605 0.119036764 -0.10726075 -0.06982602 -0.023632051 -0.013780614 -0.83949697 0.6506218 0.095557 0.1573626 0.4712507 -0.36255318 0.07465931 -0.19493014 0.037427686 0.59698236 -0.070976175 -0.1931105 -0.54510313 -0.35994738 -0.08541158 -0.12493567 -0.013265673 -0.31404784 0.09227009 -0.55043226 0.061248053 -0.20241548 -0.20758747 -0.20353508
安 0.5738254 0.7285146 0.041061874 0.35519674 -0.16109575 0.16418369 0.6203532 -0.18666406 -0.43101302 -0.0035784324 0.2198908 0.34367415 -0.35531706 0.18050481 -0.6225431 0.41702238 0.640322 0.17242251 0.40658936 -0.55943745 -0.295941 -0.3229738 -0.5529515 1.0036736 -0.54302126 -0.46131343 -0.037593104 0.3882364 -0.43977863 -0.090470836 0.11384671 -0.26448235 -0.7064287 -0.17310952 1.107238 0.12069898 -0.21239284 -0.40705308 -0.10441456 -0.24079116 0.7913074 0.26930857 0.33263773 0.14281581 -0.93856555 -0.60746676 -0.26557675 0.3323714 -0.31587923 0.7108774
富 -0.13234034 0.15758492 -0.62969536 0.31855923 0.53449726 -0.21441527 0.5070461 0.71077013 -0.56454337 0.5497858 0.17152865 -0.020004187 0.27985325 -0.36435106 -0.38987 -0.55854666 -0.15584347 -0.078382045 0.118541434 0.025063591 0.03413639 -0.34450868 -0.054188758 -0.123266205 -0.39508706 -0.20190325 -0.78946304 0.16577527 0.33210802 -0.06714099 0.092884354 0.16935867 -0.4440427 -0.11667756 -0.65384346 -0.14765063 -0.13841736 -0.8654125 0.2056298 0.15493034 0.29110664 0.13167867 -0.276557 -0.27469087 -0.1599202 -0.36142403 -0.3025685 0.23727962 -0.06810179 -0.4216567
赐 -0.16345128 -0.015799355 0.6437405 0.19073384 -0.24723761 0.6749204 -0.7106879 0.61291593 0.1282714 -0.539369 0.19886367 0.08640474 0.13536796 0.39310914 -0.9186693 -0.072222374 -0.37596175 -0.082412444 0.22531062 -0.1426631 0.42998594 0.39964527 -0.02176658 -0.602173 -0.028297085 -0.52472687 0.3240667 0.21918425 -0.82820696 0.42496678 0.80900115 0.14489762 0.051188312 0.26051494 0.25907704 -0.5924251 -0.14641024 0.00990211 -0.3123455 0.048504066 0.24471493 0.70799863 0.051571406 -0.34522897 0.30297744 -0.49215788 -0.0068745287 -0.09424729 0.0021870849 -0.5953006
患 -0.061450787 0.37031725 0.046326872 0.6358376 -0.23433131 -0.3439299 0.37324405 -0.564668 -0.46355507 0.4357561 -0.46297514 0.15152209 0.17483175 -0.6964484 -0.35038766 0.012025891 0.065053314 0.56232727 0.055391103 0.34692323 0.83151114 -0.27602878 0.36896518 0.4373213 0.014220858 -0.02973647 -0.65802675 0.81901586 -0.05004727 -0.3245059 -0.35060596 -0.2001287 1.0066085 0.069952324 0.20453207 0.8025183 -0.36210206 0.034400534 -0.059329342 -0.6962924 0.34682497 -0.38038734 -0.25288007 0.05868054 -0.35400158 -0.29656988 -0.023881277 0.53689677 -0.40464985 0.544053
百 0.7140055 0.59692967 0.40551996 0.6460594 -0.05761696 -0.07292058 0.3142983 0.49627957 -0.06359143 -0.054213133 0.8431673 0.5808658 -0.1088194 0.62610215 -0.19735608 -0.35949475 -0.15838408 0.049157612 0.05964699 0.036197867 -1.2246463 0.15201946 0.06929767 -0.042866793 0.16464093 -1.0324805 -0.45203406 0.23756498 1.0275675 0.2512274 0.36237672 -0.114667706 -0.233671 -0.2542463 0.46602258 0.38020286 -0.32813168 0.4656013 0.10471149 -0.6931054 0.26448792 0.38564625 -0.7923152 0.51614976 -0.15430987 0.0590851 -0.045924917 0.51248276 0.11388532 -0.030431224
回 -0.3969919 0.4537387 0.3257278 0.46333373 -0.65620965 -0.023033213 -0.114101455 -0.19818187 -0.73662925 -0.03661166 -0.16059844 0.52155495 -0.21815811 -0.41324094 -1.0768026 -0.19063514 -0.4093898 -0.43351868 0.11676126 -0.58022356 -0.38925824 0.055247575 -0.61493915 0.044132687 -0.7562536 -0.31285205 0.63919103 -0.29242757 0.04335435 0.39089113 0.45860833 0.4290609 0.47630996 0.6092165 0.33681604 -0.15960419 0.05085111 0.20683213 -0.09711596 0.14402668 0.10005872 0.21297862 -0.073300175 -0.28841788 0.23201041 -0.35960028 -0.06483915 0.15626214 0.27973157 0.6339838
宰 0.6523129 0.3282008 -0.5384255 0.32899785 -0.06027724 0.38100526 -1.2580128 -0.068333715 0.15902914 0.20375898 -0.4576046 0.06028414 -0.60598624 0.047409434 -1.3745862 -0.14615881 -0.26695746 0.25322437 0.37283522 0.13746205 -0.37892374 0.11586405 -0.013918517 0.009969198 -0.012826299 -0.19116841 0.5580651 0.7673431 0.3368301 0.46824053 -0.18013526 0.18610679 0.4877433 -0.24088259 -0.61573935 -0.3654838 -0.4311452 -0.15543313 0.17085892 -0.8097481 0.02361486 -0.23481187 -0.18202986 0.40233755 -0.087436914 0.35251665 -0.17721964 0.4629894 0.35771552 0.38200337
朝 0.76868457 -0.09366689 0.562366 0.51576513 0.560735 -0.17624941 -0.11564146 0.21156484 0.3219441 -0.5443207 -0.20834197 0.31166387 0.39968896 0.22390705 -0.47189182 -0.23872755 -0.73535967 0.49709445 -0.5097942 0.39963645 0.0057343077 0.045363132 0.21978797 0.22241478 0.39813742 -0.11421277 -0.020441141 0.6451855 -0.2454865 0.33740693 -0.5531047 0.058776204 0.11749316 -0.06966631 0.23614223 0.2649736 0.5128681 0.17429172 -0.19958945 0.48371243 -0.022463277 0.7093098 -0.11134706 0.5006077 0.24112867 -0.37612692 -0.43192166 0.35438436 0.7194996 0.40859902
莫 -0.08855521 0.5935543 0.37098476 0.6244824 0.015147136 -0.34468132 -1.2528644 0.46120813 0.039522745 0.31952652 -0.22667746 -0.58498985 0.82038397 -0.980215 -0.4989923 -0.4077376 0.058049504 -0.74401283 0.27496588 0.39194638 0.10119795 -0.3240295 1.1701796 0.0060114115 -0.63985175 -0.1863861 0.3346422 0.30911222 0.028780703 -0.8638966 0.66432494 -0.49785772 -0.68746156 0.035184342 0.07182455 -0.12671761 0.26021093 -0.2470079 -0.097482994 -0.26454675 -0.53348047 -0.21859653 0.52676773 -0.24340157 -0.09227931 -0.15350854 -0.201581 0.08763102 0.34255123 1.3538322
若 -0.16424367 0.486463 -0.13051337 0.8745986 -0.07760395 0.20826048 -0.13483533 -0.5062822 0.14943857 0.12002379 -0.80380577 0.5745755 -0.33673593 -0.1821455 -0.8934225 -0.36944863 -0.04678011 -0.08207159 -0.051000413 0.040449187 0.003030103 0.3624075 -0.5591446 0.5035587 -0.64478505 0.033968136 -0.0037075635 -0.19130045 -0.32329673 0.2263175 0.46761385 -0.041907396 -0.4380513 0.054643 -0.24131674 0.05333666 -0.24907385 -0.24219787 -0.35027042 0.16241671 -0.37159288 -0.31299382 0.55853516 -0.28031564 -0.37272343 -0.10767776 0.020073913 0.2980072 -0.11937322 -0.2886532
云 -0.39868718 0.13081329 -0.064330295 1.132615 0.70484066 0.49916157 -0.7209224 0.14755093 0.08067613 0.41942298 -0.05210478 0.114440165 0.5293259 -0.17769457 -0.35926706 -0.18414561 -0.25715595 -0.3303874 -0.21257466 1.105756 -0.014039988 -0.48604563 -0.25565666 -0.0684112 -0.24697042 0.3489641 -0.4311078 -0.44819632 0.9967019 -0.51814914 -0.2853733 0.62416416 0.12174004 -0.5440491 -0.89436597 -0.34641996 -0.0758156 -0.20145534 0.4154284 -0.09538462 1.0159792 -0.56675774 0.56470084 0.81013477 0.13044985 -0.3849425 -0.51720977 0.45354265 0.27842438 -0.14311688
孙 0.4210597 0.08466572 0.15242155 0.5151565 -0.16464935 0.009925423 0.14628407 -0.14724474 -0.5837132 0.6570921 -0.44178894 0.20274879 -0.5803643 0.54552317 -0.077957645 -0.10664123 0.2503047 -0.29483634 -0.17868656 0.090222694 0.033403244 0.28291845 0.27383596 -0.39285114 0.43952268 0.24833901 -0.40233746 0.35503438 -0.2385369 0.18927671 0.10840582 0.36757836 0.5778614 0.5787862 -0.52866083 0.2780405 -0.10115445 0.17052665 -0.33673936 0.69225866 1.1060352 -0.7680987 -0.07490704 0.09006193 -0.6336057 -0.2644691 -0.18067391 0.26967084 0.37869054 0.67043203
