1352 50
， 0.30043638 -0.15222645 -0.015953688 0.2920762 -0.23240279 -0.23369417 -0.070169315 0.016281132 0.27125192 -0.5349431 0.12683325 0.13495836 -0.2679395 0.37343654 0.20605484 0.17396063 -0.2647558 0.20855497 0.119402334 0.010346105 -0.26055938 -0.13553147 -0.12871736 0.40326422 0.2246359 -0.25577426 -0.31029955 0.29212847 -0.07331485 -0.3057303 -0.0646481 0.22326535 -0.17919296 -0.18748784 -0.049760394 0.04552903 -0.34148586 0.13376492 -0.028406374 -0.09056047 -0.09926087 0.06953853 -0.53893 -0.29018715 -0.243165 -0.4839408 0.10545761 0.10957692 0.0686358 -0.100667536
子 0.18857968 0.034504835 0.21325067 0.03645806 0.44539097 0.097626075 0.28644428 0.29063392 0.08942507 0.025908392 -0.045250617 -0.10315723 0.14524493 0.12778504 0.4406756 0.23914088 -0.18611363 -0.11138868 0.19193289 -0.15377028 -0.25851405 -0.13272494 -0.07352828 0.18316513 0.11207303 -0.18877146 -0.24285994 0.02350816 -0.12755801 0.036324717 -0.11307952 0.24892448 -0.068681054 0.118685335 0.026228122 -0.043129556 -0.033326384 -0.20055474 0.22578616 0.07641946 0.10271114 0.30699039 0.12854907 0.24641603 -0.009815069 0.09351736 -0.06108068 -0.09963231 -0.8646073 0.13355696
。 -0.02039516 0.02856068 -0.305517 -0.003182982 0.17039204 -0.047845293 0.02920357 0.06512723 -0.14087148 0.015247371 0.22258972 0.007341667 0.09214254 0.314588 -0.21384068 0.3704002 -0.21619973 -0.052153748 0.11750139 -0.2512366 -0.30275542 -0.051102147 0.07028223 0.30957967 0.089555435 0.0693107 -0.056557015 0.23961616 0.21651812 -0.13021427 -0.22525641 0.09392099 0.30869016 0.24652614 0.22223178 -0.026558073 -0.11531772 0.04971837 -0.37464008 0.08201683 -0.23432232 -0.07972998 -0.35467064 -0.061028965 -0.40622568 0.45518228 -0.018651996 -0.13486505 -0.7323384 -0.22449197
： -0.2214181 0.071216404 -0.2228184 -0.1357518 0.1472621 0.15581422 0.05743003 0.07795727 0.12370418 0.045984413 0.1363923 0.037088104 -0.22634298 0.021499429 0.23175731 -0.003335266 -0.31518003 -0.16383857 -0.064337105 -0.21944462 -0.19089757 -0.113758735 0.042700164 0.29901898 -0.051376294 -0.21163604 -0.14973542 0.15898196 -0.034122344 -0.11796132 0.11064792 0.19819355 0.23137763 -0.012924433 -0.0029481875 0.14619274 -0.045161694 0.32002816 0.50624424 0.017233333 0.12462012 -0.020353945 0.30485278 0.08490822 0.18485565 0.35564345 0.17650977 0.050375834 -0.7404593 -0.0015012278
曰 -0.001358342 0.051038466 -0.16910556 -0.08807454 0.34656623 0.006711095 0.16153353 0.03147233 -0.056808725 0.007984377 -0.0006859917 0.018787304 -0.2633686 -0.026035981 0.40480718 0.20469038 -0.42868957 -0.20722587 -0.063393846 -0.3025338 -0.1363918 -0.013332903 -0.0014063383 0.2007879 0.00045475832 -0.22988872 -0.09202065 -0.1104111 -0.0047958503 -0.055100862 0.13263199 0.30506015 -0.098100156 -0.007845188 -0.021575306 0.13573004 -0.095345445 0.014505343 0.41596407 0.3091003 0.21106899 0.0148814125 0.3398181 0.21216023 0.23130302 0.48523545 -0.088515654 0.09642206 -0.9240764 0.0020187893
之 -0.039973356 0.03528608 -0.0322331 0.5751374 0.09917476 -0.32104355 -0.2527767 0.18788306 0.0068172924 0.26568732 -0.029079711 -0.09955752 -0.25272644 0.3017248 0.45605266 0.033832185 -0.10047956 -0.11926088 0.007886968 -0.00432118 0.008558826 -0.034218937 -0.11623297 0.26946935 -0.20132653 -0.41384792 0.01377524 0.015175718 -0.09313515 -0.12643488 -0.0811285 -0.22968483 -0.23221606 0.07187589 0.10003356 -0.023796257 0.030153485 0.110414855 -0.057408385 0.1716635 0.3954129 0.18895297 -0.2786181 0.0025668447 -0.28272292 -0.18932313 0.32057327 -0.087520614 -0.015867684 -0.19624375
不 0.026299354 0.38867742 0.030992528 -0.14228904 -0.15088928 0.23567331 -0.03313108 0.017655162 0.4185448 0.059697825 0.29596514 -0.041671164 -0.0015286438 -0.054451577 0.86387545 0.21622388 -0.21289629 0.14148317 -0.038871188 -0.13037962 0.040712487 -0.0965666 0.036530424 0.09296882 -0.016036732 -0.10729215 -0.07405442 0.15906051 0.2572081 -0.11401582 -0.04897586 0.2568337 0.010890245 -0.037083086 -0.048929878 0.31685916 0.20455213 0.08270354 0.19021505 0.14996235 -0.18781658 0.016076038 -0.48986757 -0.21786615 -0.30321184 0.026196362 0.18624409 0.11910183 0.19108143 -0.07710929
也 0.4006616 0.06849059 -0.122119844 0.26611626 0.08020344 -0.24858326 0.15837197 -0.16375265 0.09330065 -0.088270515 0.19103333 0.09893643 0.11701183 0.5709126 0.20732883 0.2711292 -0.25187153 -0.1171557 -0.14486101 0.08486227 -0.24584526 -0.04282739 0.051952142 0.0750377 -0.058668878 -0.16104433 -0.1541893 -0.15375766 0.19003716 -0.36041805 -0.2808657 -0.19645032 -0.28836286 0.07334685 0.24287736 -0.04009528 0.081073925 0.2230598 0.027174255 0.17085326 -0.04383803 0.28638524 -0.0995799 0.11970688 -0.28327134 0.07752775 0.37185192 0.07719829 -0.262008 0.029333802
而 0.006571114 0.36339083 0.39930043 0.1815908 -0.23141015 -0.10918538 0.15882559 0.21061657 0.23762007 0.27526653 0.056556053 0.31910276 -0.16493587 0.21740206 0.29611737 -0.21806268 -0.19394761 0.03399232 0.06463379 -0.28737324 -0.14460295 -0.15544567 -0.3072202 -0.16393945 0.18230177 -0.44512278 0.011806651 -0.26347965 0.16776049 -0.07925548 0.062511854 0.11962436 -0.0403535 -0.021212632 0.19531997 0.19547735 0.009392818 -0.33035445 0.07505984 0.15191287 -0.097807534 0.06250022 -0.167008 0.30825636 -0.40635845 0.07643687 -0.10067518 0.34246835 0.0069548734 -0.3260297
？ 0.17946531 0.40950164 -0.16355039 -0.073845714 0.11594529 0.19370393 -0.105560504 0.2044761 0.020008437 0.030036187 0.034656234 -0.02968859 -0.10548598 0.21193099 -0.014806907 -0.007945894 0.03648425 -0.15229955 0.39017448 -0.23033868 0.20719981 -0.20647494 0.23447879 0.2868434 0.012376092 0.23212354 -0.19465373 -0.029198905 -0.32615235 -0.33108753 0.40393275 0.43478465 0.073087096 -0.029949298 -0.007841892 0.14895803 -0.241077 0.20692566 0.37445703 -0.2417535 -0.10084686 0.12132272 -0.00844911 0.25418532 -0.24317272 -0.042434424 0.10068489 0.22419626 -0.5125947 -0.57731134
其 0.3452831 0.13957065 0.14430791 0.35020322 0.012656958 -0.18703358 0.2672905 -0.33620977 -0.2121248 -0.026157584 -0.13701549 0.1052317 -0.09026204 -0.26288733 0.3678128 -0.14101939 -0.13638838 0.044566445 -0.12454646 0.013668841 -0.1916071 0.11356028 0.025504002 -0.1130156 -0.13395241 -0.014447933 -0.067640424 0.05257897 0.26649684 -0.33618245 -0.36847433 -0.08138857 -0.3605549 -0.21892956 -0.049312007 0.02058878 0.13067591 0.20932244 -0.20244685 -0.14633879 0.2558828 -0.039737944 -0.2988568 0.132831 -0.35508883 0.028519684 0.2801068 0.35431397 0.025334178 -0.28045622
人 0.28772527 -0.087241285 -0.18085815 0.08073667 0.25669116 -0.16156031 0.029414086 -0.2941481 -0.29375178 -0.15940359 0.284062 -0.031394154 -0.09299398 0.0070046587 0.38442805 0.13737373 -0.20757446 0.13825183 -0.10880543 -0.27265537 -0.021640517 0.11945937 0.028251037 0.090577856 0.3153867 -0.21200253 -0.231832 0.009287623 0.07226711 -0.2887424 0.2683125 -0.024894184 -0.050598763 -0.14127441 0.10253579 -0.047201496 -0.02824926 -0.24586712 0.4283368 -0.09022591 0.033134826 0.46397647 -0.49519184 0.1009882 -0.19116126 0.10834576 0.034166664 -0.3175501 -0.19922683 0.24533723
者 0.3653331 -0.020911664 0.38993213 -0.08369296 0.042607725 -0.24432515 0.21198855 0.42405242 -0.05189245 -0.11624144 0.33676234 0.10739226 -0.19128989 -0.1313898 0.13020565 -0.072566815 0.5374893 -0.031139694 0.06431512 -0.06561282 0.06333812 0.040045604 -0.1624845 0.0041561075 -0.3048315 0.0009124408 0.1337496 -0.077412985 -0.2429682 -0.3372867 0.38219243 0.24368553 -0.24352536 0.26032865 0.31972882 -0.2576933 -0.30867854 -0.21166146 0.34220982 0.22132124 0.06579542 -0.27993426 -0.44091257 0.34285688 -0.08555078 0.2694975 0.22635856 -0.31252745 0.055800173 0.08067323
以 0.3013621 0.14983512 -0.24138637 -0.022168742 0.11397359 0.16250932 0.26998562 0.2505224 -0.3349332 -0.21178426 -0.102812976 0.5005146 0.42802888 0.050581828 0.6135768 0.08780457 -0.008778667 -0.39945075 -0.13156962 0.10797186 0.29757103 -0.27525643 -0.11478609 0.023650708 0.13783449 -0.01142582 0.26766965 0.025618419 -0.11199483 0.099728204 -0.2634412 0.15543127 0.003091725 0.2751215 -0.25590935 -0.10195633 -0.43827724 -0.30704606 0.19010548 -0.25013968 -0.07241833 0.16166782 -0.48412645 0.015204117 0.11079574 0.5642803 -0.19542216 -0.077229336 -0.17862609 -0.15305163
有 0.33323637 -0.14924411 -0.1762088 0.082974926 0.0670781 0.13842893 -0.22819671 0.27501264 0.051283304 -0.37317565 0.28875723 -0.14471613 -0.33785024 -0.17794773 0.07192029 0.117888056 -0.20430371 0.2074416 -0.28854662 -0.4829294 0.29936883 0.44134635 0.17973627 0.011901966 -0.16771059 -0.0025329133 0.118012324 0.05141567 -0.2635962 0.3023203 0.058165256 0.087585896 -0.5321835 0.1977033 0.3576994 -0.1001765 -0.18981141 -0.21772963 0.0495462 -0.03843337 0.08110996 -0.37796652 0.090999186 -0.058716763 0.24969116 -0.04564508 -0.05120781 -0.2190827 -0.4454052 -0.15487753
于 -0.24310322 -0.115197234 -0.015853848 0.019837383 0.017321914 -0.1246048 0.018132513 -0.1350401 0.10972733 -0.2944015 -0.1517235 0.017054744 0.09398313 0.27146336 -0.32845178 -0.041771058 -0.32783762 -0.304814 -0.45271954 -0.24452652 -0.07315652 -0.28922907 -0.21017449 -0.42165333 -0.019412957 -0.160216 -0.25838912 0.062026057 -0.42051536 0.5395257 0.22987434 0.05852365 -0.04713963 0.12846433 -0.095224515 -0.1404235 0.048284143 -0.2647066 0.052320443 -0.33980379 0.40385333 0.10263726 -0.17353204 0.37844613 -0.36173987 -0.050648052 0.03557201 -0.008611101 -0.3942841 0.16455382
矣 -0.31817412 0.25225794 0.27653337 0.52646476 0.46130204 -0.110339366 0.25327778 -0.52905154 -0.037570614 -0.15966257 -0.11879426 0.075415 0.17947865 0.20401618 -0.009909179 0.16963004 -0.08065452 0.17984886 0.073317744 0.23451053 -0.16698879 -0.28718707 -0.13305132 -0.10909783 0.36747983 -0.13220952 0.16379133 0.26812065 0.018442506 -0.32415938 -0.21000297 0.17190875 -0.22097781 0.28459606 -0.036360852 0.038639974 -0.41285935 -0.07601639 0.18015143 0.13419558 -0.13867338 -0.8193852 0.1227485 -0.23802473 -0.13163534 0.064956315 -0.2789485 -0.21451744 0.024775416 0.13423872
为 -0.14038959 -0.027103074 0.08177707 0.06381875 0.12426076 0.086543836 -0.056749642 0.10715926 0.061229806 -0.23261161 0.4538656 0.48145074 0.34660247 0.017189106 0.12068465 0.2555367 0.23572187 -0.12979406 0.18445967 -0.111468546 -0.017259099 0.32526794 0.47808307 0.07376891 -0.13681819 -0.33640102 0.052011777 -0.1079123 0.48483333 0.20123413 0.13208042 -0.021112265 -0.14361885 0.15723434 0.017657494 -0.41899595 -0.117365226 0.09499182 0.6707598 -0.0064639393 -0.14795527 -0.19915509 0.003128245 0.19065312 -0.07317201 0.21808968 -0.0704992 -0.12019923 -0.17531435 -0.10596812
君 -0.02846312 -0.14631358 0.040682226 -0.14493813 0.24764086 0.22087964 0.141688 -0.034522843 0.36293846 0.09022751 -0.113075465 0.0091042975 0.5510139 -0.028810892 0.4604293 -0.08299997 -0.13621059 0.2571593 -0.036233857 0.085826956 -0.078756645 0.2651596 -0.41852883 0.29293925 -0.14720829 -0.4523455 -0.47895053 0.0388387 0.23874326 0.24794193 -0.10309946 0.35697466 0.18903184 -0.64151186 0.062079918 -0.21215293 0.19189775 -0.25970486 0.1344214 -0.10933217 -0.32505587 -0.26650706 -0.32067013 0.12011179 0.25611103 0.25307947 0.114782535 -0.15809892 -0.4329715 0.27030233
乎 0.50035334 -0.16646433 -0.13602418 -0.128389 0.2190079 0.01993654 0.35440564 -0.24019936 0.18509996 0.03053085 0.06485254 0.14366032 0.20982122 -0.32589954 -0.14321378 -0.08993323 -0.124867804 -0.05481117 0.12547278 -0.07729099 0.23933113 -0.17850077 -0.09074677 -0.39532554 0.10016436 -0.21752569 -0.0023861844 0.22917697 -0.5608159 -0.07692155 0.06812717 -0.006240777 0.097019024 0.057149492 -0.17372295 0.074523844 0.1471107 0.25869107 1.0098022 0.37449032 -0.00089711393 -0.20034544 -0.524014 -0.12916738 -0.43446502 0.106314264 -0.06123412 0.32603452 -0.44058016 -0.09364669
可 0.047995526 0.32568023 -0.21894135 0.25523016 -0.13113403 0.007852129 0.38182038 -0.41799018 0.43020743 -0.08282356 0.16715212 0.38481143 -0.06175337 -0.21859676 0.42716634 -0.11895103 0.12356437 -0.30868313 0.3363324 0.026814884 0.32725343 -0.08280758 -0.1484721 0.3394667 -0.056809954 -0.13691434 0.5476043 -0.11776758 0.09996708 0.013678793 0.21457304 -0.14289944 -0.24739818 0.064712904 -0.41069987 0.26663947 -0.29402405 0.21782401 -0.43630496 0.37661025 -0.2872248 -0.052388117 -0.40862057 0.40490845 -0.4769839 0.101599865 -0.2212029 -0.18091342 -0.04292591 -0.083262414
如 0.1889195 0.445756 -0.011783113 0.14432372 0.45055875 0.24563962 -0.18541192 -0.23220602 -0.16201925 0.436691 0.113974005 0.8275572 -0.3150228 0.160383 0.4210594 0.0029019883 -0.032629568 0.061928406 0.14869288 0.35914811 0.292452 0.14759763 0.08573614 -0.08258804 -0.34228155 -0.26722786 0.12937962 0.2798894 -0.053013332 -0.32043993 -0.35734695 0.39650628 -0.012155226 -0.21495727 0.20388985 0.32676113 -0.22762342 0.18886855 0.22301468 -0.056507163 0.25839794 -0.10086086 -0.062240183 0.32973596 0.43017295 -0.49022216 -0.0009286902 0.30463764 -0.08135809 0.32737052
与 0.01264718 0.10920703 -0.31860194 0.26329085 -0.34479204 -0.5257138 0.019044269 -0.043445118 0.6638362 -0.27237388 -0.10628398 0.61259574 0.21837912 -0.225597 -0.1316155 -0.10951025 -0.008679623 -0.24387556 0.01635092 -0.1421473 -0.21329826 0.06678637 0.1826976 -0.15516774 -0.31937087 0.076045215 0.54804105 -0.34061432 0.29285586 -0.25018305 -0.20322303 -0.05420042 -0.37598792 0.027286878 0.19932315 0.29053798 0.017970677 -0.32825217 0.57384825 -0.26402253 0.24205156 -0.08421762 -0.17832613 -0.0872145 0.103023246 -0.14480726 0.22655277 -0.009365789 -0.48826337 -0.029196424
； 0.4005133 0.020342901 -0.040600173 -0.06600937 -0.040161386 -0.06869449 0.13159926 -0.14114341 0.07391278 -0.26243058 0.36807945 0.40717113 -0.18843623 0.074752994 0.41268286 -0.12772866 -0.31169257 -0.38651338 -0.06289813 0.010627844 -0.073998734 0.36076686 -0.11471841 -0.012381415 0.6722519 -0.13468623 -0.3580045 -0.38230464 0.23985824 -0.24867482 0.36621124 -0.0437154 0.56355643 -0.114829324 0.22809403 0.24776958 -0.19026819 0.0733365 -0.7439842 0.17281573 0.012279227 -0.47708318 -0.39197597 -0.11016314 -0.115263976 -0.064879574 0.776146 -0.16070883 -0.016523648 -0.28256276
言 -0.120289154 0.10939545 -0.41108304 -0.110574454 -0.6724299 0.016738648 -0.27209133 -0.4679883 -0.20597315 0.02909328 0.005679928 0.44596282 0.03452961 -0.10500981 -0.3558846 0.43238276 0.2751105 0.27750245 -0.03011597 -0.35318908 0.23873337 -0.07669006 -0.2083297 0.5639382 -0.037780102 -0.21524431 -0.12746154 -0.28779042 0.12612776 -0.12695868 -0.4934354 -0.1357785 -0.29601586 -0.10919569 0.2984988 0.53056735 -0.114626445 -0.14530522 0.22921196 0.27827382 0.17336664 -0.17826137 -0.39581656 -0.15038186 0.2646802 0.28691366 0.085589506 0.07644426 -0.3565758 0.06166344
无 -0.111645274 0.14794467 0.4545059 -0.04861531 0.097972095 0.11952883 -0.09820428 -0.34309545 -0.0709275 -0.38850787 -0.13691393 0.31610316 -0.09356799 -0.16846539 0.38523155 0.61883765 0.19047913 0.43661097 -0.33201528 -0.059313595 0.48129186 0.16834605 -0.09981923 -0.49632332 0.25613987 -0.31487718 -0.38831276 0.015710756 0.29203096 -0.18705621 0.25481576 0.13574836 -0.21090983 0.26103362 -0.11656803 -0.058233272 0.099344015 -0.06783864 -0.19910595 0.06760719 -0.47349828 -0.048612036 -0.17227638 -0.07762546 -0.25633553 0.009744464 -0.08523796 0.26869646 -0.031125454 -0.13814966
则 0.14610037 0.2612005 0.5009957 -0.05090898 0.05515351 0.33608338 -0.27348614 -0.12462254 0.04987224 0.048366573 0.20818277 0.7091581 0.5206691 0.15848714 0.48965394 -0.181694 -0.25953212 0.12755477 -0.14730719 0.048549775 0.024416305 -0.21143955 0.26990813 -0.38037696 0.15197411 -0.22077736 -0.16808756 -0.35793662 -0.018609282 -0.026612796 -0.10569008 -0.18941882 -0.43860662 0.24584797 -0.17133309 0.35255152 -0.06295223 0.08649545 -0.19377384 0.063040935 0.11410867 -0.08966807 0.16168515 -0.32360554 -0.23966551 -0.2134397 0.25920957 -0.47333056 -0.006642701 -0.21452482
！ 0.40866292 -0.012461051 -0.48476255 0.47736105 0.15948257 0.4420456 -0.020304902 -0.049366295 0.1348442 -0.08151695 0.1952315 0.19530125 -0.3186895 -0.12242208 -0.13404436 0.16704269 -0.17384714 0.25228113 0.19997753 0.3782495 -0.07962454 -0.14281519 0.31000203 -0.4263161 0.5652543 0.23480004 0.018516768 -0.1070334 0.07383498 0.20737539 0.18040851 0.3015436 0.08834558 -0.31419992 0.013905854 -0.13544305 0.13306135 0.3617497 0.16108766 0.2380184 0.26414353 -0.23554076 -0.2557731 -0.08603012 -0.20889986 0.2573443 0.25770327 -0.10017273 -1.0715084 0.29523274
问 -0.30897096 -0.4040623 0.35564554 0.3840454 0.35325998 0.042852018 -0.054260533 -0.5358663 -0.20980786 -0.14999166 -0.60680467 0.112269506 0.16362557 0.27307406 -0.29785186 0.0061317384 0.09400787 -0.25859427 -0.35590115 -0.27972174 -0.181332 -0.061804503 0.36656988 0.09094426 0.06326847 -0.4658853 -0.074146524 0.009820365 -0.35205492 0.20508182 -0.41625854 0.35715201 -0.026829397 0.2637219 0.052335776 -0.07729935 0.0066450695 -0.6630008 0.46897763 -0.28193468 0.26977128 -0.2979547 0.10491819 0.15013431 0.039614562 0.041429453 0.6246068 -0.07332579 -0.73794574 0.00067544635
知 0.07456149 0.29761684 0.08249594 0.70433277 -0.11695973 0.2938092 0.029966451 0.03941187 0.24425735 -0.5052914 -0.14545263 0.32188937 -0.3606436 0.36207026 0.19274591 -0.2670526 0.12946843 0.20170738 -0.22131968 0.0709878 0.23685263 -0.22810155 0.39347833 0.23213986 -0.21018128 -0.17187777 0.17237948 0.056075715 0.36116183 -0.25078118 -0.056778226 -0.02118026 0.026975887 0.15099671 0.27804136 -0.24860406 -0.09163479 0.14970799 0.15068765 0.2475448 0.12386542 0.021996055 -0.27924454 0.42855528 0.29536703 0.45609507 -0.08279239 -0.2554963 0.03806241 0.41788256
何 0.103775665 0.10825106 -0.24443011 -0.2505938 0.32649294 -0.00953684 -0.019779624 -0.0049711512 0.4823601 -0.22185542 0.12740248 0.2311922 0.1513503 0.24680398 0.05442799 -0.21281233 0.34607804 -0.08766405 0.45111248 -0.019299954 0.10572393 -0.23471096 -0.52398413 0.5546546 0.013145424 0.36326918 -0.14146972 0.025005989 -0.20707417 0.035215955 0.1333762 0.018646821 -0.43304077 0.06335092 0.045579374 -0.06824986 -0.10410354 0.31983835 0.42251694 -0.13702099 -0.30558306 0.038755566 0.07459132 -0.11790002 -0.12309484 -0.41918626 -0.06689716 0.312005 -0.25242198 0.040302236
吾 -0.1806457 0.026699625 0.2265499 -0.45987248 0.08027576 -0.04395364 0.061374195 -0.2258786 0.29461765 0.07219634 0.088374846 -0.21128388 0.31422073 0.019038452 0.11309636 0.03801332 -0.1277558 -0.026587574 -0.42017132 0.34329045 0.18157987 -0.23952633 -0.020783313 -0.028801149 0.10585213 0.2956727 0.4023256 -0.085790366 0.49070823 -0.22728777 0.35828322 0.083953895 -0.31172723 0.2777402 0.05238062 0.15336868 -0.4550013 0.4202483 0.31673104 0.34671742 0.17378573 0.081280015 -0.31691876 -0.2991243 -0.10205415 -0.089268744 -0.014762659 -0.3720206 -0.4531662 -0.046281192
仁 -0.039557055 -0.35239956 0.009841599 0.28794512 0.2778093 0.37111008 0.10277547 -0.3097921 -0.12117151 0.17666459 0.05583339 -0.0052602016 -0.043008596 0.5304917 0.29090014 -0.12732151 0.46252018 -0.10328817 -0.17403303 0.26704845 -0.26836964 -0.10081842 -0.0049498104 0.32220194 0.20983315 0.22163211 0.18477938 0.16206081 0.044403672 0.18725194 0.021844558 0.35633972 -0.20514688 0.37763208 0.20319764 -0.082538776 0.08135605 -0.040385157 0.42261416 -0.11199339 -0.056322575 -0.1528521 -0.082757734 0.12828276 -0.25578475 0.67010826 0.091495134 0.025198232 0.36849535 -0.26919854
夫 0.22461955 0.5350977 0.08779093 -0.15868203 0.22290714 -0.28627196 -0.042208053 0.48941085 0.1108547 -0.09927246 0.14748776 0.028391417 0.2068412 0.1062539 0.18498671 -0.19914268 -0.36554375 0.15942699 -0.2432423 -0.19752644 -0.28972486 -0.20720427 -0.18235455 0.3735064 0.124123365 -0.31607756 0.30295497 0.53469735 0.3179185 -0.61731166 0.37271768 -0.031963684 -0.34083483 -0.7277308 -0.2757486 -0.13286032 0.032176025 -0.30535626 0.05434124 -0.2819053 0.435491 -0.19303825 0.056188207 -0.14936201 -0.056023248 0.19275612 -0.023050241 -0.20836893 -0.6097929 0.05503395
、 -1.0592357 -0.4417776 -0.068487495 -0.23482299 0.17719993 0.16097538 0.018128695 0.6072222 -0.3561388 -0.011913143 0.2449489 0.5594905 -0.03761415 -0.2042258 0.08630994 0.01640584 -0.65645427 -0.19689809 -0.28173667 0.17886868 0.3660346 0.22166657 0.3565557 0.045530517 0.3726627 0.079030685 -0.14163454 -0.118425556 -0.22219452 -0.3778833 -0.4262326 0.09518725 0.65418524 0.075597055 0.15913707 0.0030011975 0.04731441 0.01889418 0.27182102 -0.08017294 0.640473 -0.82166106 -0.009777991 -0.503271 -0.315472 -0.33929288 0.4737443 0.06412373 -0.5318734 -0.10177807
道 0.014074596 -0.009843289 0.064526826 -0.06781758 -0.1700904 -0.3589805 -0.15513057 -0.11839448 0.68724525 -0.017828092 -0.21779378 0.16564396 0.052326515 -0.27836096 0.3689532 0.09249 0.18690613 0.1454622 0.06798826 -0.17319939 0.14708444 0.121142305 0.08077737 0.20415485 -0.10355526 -0.37973815 -0.57975477 -0.1449139 -0.10928728 0.054703187 0.04621414 -0.16680656 -0.15843493 0.48200044 0.48559672 -0.09577673 -0.43160096 -0.45772544 -0.16159403 -0.16028278 0.09808006 -0.0059934855 -0.24327151 -0.059917077 -0.011405705 0.099930495 0.42871442 0.07187478 -0.247915 0.017343137
焉 -0.40522286 -0.06421441 -0.34189633 -0.19628206 -0.24269193 -0.4132017 -0.4847945 -0.15769292 -0.1795375 0.05918102 -0.34764642 -0.14093488 -0.18077447 -0.121951506 0.87025374 0.0011595068 0.01835723 0.13864285 0.20047385 -0.01990767 0.15476191 -0.19741209 0.3165397 0.056872312 0.27188155 -0.09290313 0.26121223 0.3833923 0.24514772 0.3662513 0.1761924 0.2933633 -0.35319597 0.003989907 0.31474265 -0.11688995 0.018539036 -0.01357845 0.27980837 -0.19410451 0.15063284 -0.1325034 0.07780764 0.1961807 -0.9402069 0.05994124 -0.24890651 0.034087792 0.21496885 -0.3395359
行 0.063105464 0.20970461 0.12387953 -0.53055245 -0.36900225 0.10114888 -0.100990646 -0.5064749 -0.16774279 0.41766244 -0.1673627 0.05867652 0.4498598 0.34808132 0.45154056 0.3737043 -0.036462564 -0.044283018 -0.20492665 -0.3878872 -0.2649305 -0.02184669 -0.15327549 0.44512632 0.24698022 0.058241714 0.31587672 0.119693995 0.052478373 -0.08804061 -0.19587518 0.027354106 -0.5387928 -0.04791303 -0.12316146 -0.18548271 0.13907622 -0.17631878 -0.0076317303 0.17845778 -0.14576422 0.008815635 -0.0714095 0.03797856 0.11060463 -0.118449524 0.27567813 -0.17759731 -0.31492823 -0.08198608
谓 0.08316273 -0.011078112 0.35778046 0.41715235 0.44847333 -0.33716848 -0.06705495 -0.1553927 -0.18112274 0.3765029 0.32438898 0.27129695 -0.23991555 0.702656 0.21084556 -0.07157943 0.34287965 -0.10419866 -0.18643759 -0.44005382 0.5697679 0.4182284 0.10342559 0.21561463 -0.22311886 -0.15105172 0.28286463 0.15323739 -0.31311905 -0.00864268 -0.5250337 -0.25216603 0.2137451 0.09268292 0.06272417 0.16714633 0.32722545 0.29606298 0.3457017 0.24542628 -0.0145822745 -0.488428 0.39132616 0.23140119 -0.22077714 -0.10868096 -0.0974099 -0.16050668 -0.21175109 -0.052401014
必 0.37056896 0.4672007 -0.0070720385 -0.1689332 0.14164412 -0.09760069 0.23816627 -0.1048232 -0.6056581 0.31673366 0.28759778 0.69283015 -0.49373305 0.08949696 0.2945225 0.52632487 0.0027294944 0.22728571 -0.44465017 0.3409764 -0.5656855 0.07007001 -0.47246513 -0.1584884 0.16531989 0.06759179 0.1906935 -0.535779 -0.24419847 -0.08549582 0.020795558 -0.1441591 0.14625263 0.40927693 -0.016562913 -0.6954676 0.15222767 -0.28478682 0.06478118 -0.14461522 0.29085904 -0.6312942 -0.16632687 0.41285154 0.21642336 -0.56168735 0.07741977 0.05536865 0.113107875 -0.24191609
礼 0.037243966 -0.12825972 0.11387053 -0.1063629 0.017230019 0.35550925 0.057375804 0.084778465 0.106176436 -0.26790583 -0.21646906 0.45934325 0.6645038 0.50603044 -0.26783347 -0.27686095 -0.48474464 -0.07852635 -0.016829789 -0.42809865 0.24005008 -0.18900946 0.28839666 0.24859656 -0.6691281 -0.28666455 -0.32977268 -0.16640332 -0.047585428 0.27567422 0.7182419 0.14344656 -0.08516206 0.45454144 -0.07307927 -0.5575097 0.06629686 0.66367465 0.031465046 -0.013522638 0.23985882 -0.20227331 -0.02314682 -0.3910665 -0.3125887 0.034397203 0.06293339 -0.013442671 0.2846785 0.095814094
孔 -0.2723731 0.2538761 0.24737744 0.36657748 0.56493104 -0.14923687 -0.23499683 -0.11069273 -0.23931873 -0.19096807 -0.059283335 0.15912725 0.12878945 0.12119255 -0.1616948 -0.6087814 -0.14944115 0.35560048 0.084350795 -0.64987165 -0.8204647 -0.7274791 0.014127423 0.15150088 -0.21262534 0.18966067 0.35298026 0.16532122 0.1712314 0.24114937 -0.19340496 0.18958752 -0.09703887 0.3370872 -0.020600481 0.21408653 0.18795009 -0.14018846 0.29382753 0.56477535 0.15278499 -0.03287975 -0.06812566 0.40180507 -0.13942845 -0.44128186 -0.11956647 0.1346913 -1.0062475 -0.593361
斯 0.22478774 -0.16706713 0.048591774 0.15456113 0.31585097 -0.31147605 0.35166883 -0.21180813 0.022296151 0.6115421 -0.032739703 0.36438987 0.012521984 0.4205324 0.49745682 -0.46558195 0.49224955 -0.36981 0.18562925 0.066014074 -0.26932147 0.07331478 -0.423132 0.3395206 0.5521744 -0.080384485 0.18656595 -0.06847033 -0.21369472 0.07385295 0.19914947 -0.06062536 -0.59342533 -0.24246632 -0.017155144 -0.123769 -0.33067742 0.2519255 -0.16836293 -0.07584353 0.34204793 -0.13087782 0.034773506 -0.22814545 -0.14357099 0.07084644 0.17943211 -0.34009567 -0.20761035 -0.1922549
三 -0.2976407 0.10227463 0.38858047 0.10141023 -0.4050508 -0.2615789 -0.39595738 0.6651406 0.29415628 0.32196277 -0.011201311 0.44851696 -0.40285912 -0.051123496 -0.26821768 0.38649496 -0.5698244 0.018008063 -0.06157618 0.011847265 0.013399451 -0.382693 -0.47531828 0.33870742 -0.33177245 0.005474815 0.48154342 0.5646038 -0.11680411 0.34223774 0.08262006 0.07758312 -0.1429747 0.23918697 -0.020067427 -0.02537036 -0.12697111 0.08173814 0.030837744 -0.27416864 -0.32414448 -0.63838553 -0.5761333 0.35838363 0.30493012 0.30221093 0.0011385294 -0.3956244 -0.22395475 0.089824796
能 0.15446495 0.12963247 0.61353034 -0.24721107 -0.34451184 0.582285 0.05335944 -0.13222167 0.29389387 -0.10077679 0.16121332 0.45763302 0.27641988 0.009228894 0.44264516 -0.03445111 0.34203905 0.08571461 -0.11068678 -0.37819636 -0.492381 -0.10782981 0.010127036 -0.18210472 0.09345748 0.23027241 0.103842944 -0.078122 -0.037544407 0.10216228 0.17394276 0.28645965 -0.3145862 0.19075423 0.0640485 -0.32394382 -0.16079739 0.3722719 0.16780818 -0.32811406 -0.12650178 0.5239901 -0.0033748755 0.02691589 -0.38792586 0.12596786 0.19162036 -0.3746107 -0.1182903 -0.105139025
见 -0.21094069 0.04759492 0.023821916 0.3111559 -0.013911778 0.097227596 -0.21911415 -0.37039322 0.14902632 -0.12921424 0.21274027 -0.4558916 -0.044405945 0.13879131 0.45585042 0.32050654 -0.17319107 -0.18534648 -0.21798708 -0.5742564 -0.047518063 0.09263453 -0.68211496 -0.24696241 -0.08426143 0.70133656 -0.0757897 0.037472546 0.25633982 -0.29533094 0.6441157 0.46830264 -0.19835313 -0.0011022708 0.6030595 0.61737293 -0.1927676 -0.02827136 0.036173187 -0.27943698 0.71180856 -0.059180688 0.042132035 -0.024820253 -0.28183052 -0.050270982 0.26784167 -0.02652914 -0.044388823 0.566192
学 -0.3356656 0.74541223 -0.20419319 0.4707601 -0.56160027 0.16300826 0.54826844 -0.30279148 0.45534137 -0.018568318 -0.03720688 -0.24578834 -0.32081515 0.8736842 0.24510635 -0.21068011 0.19058767 -0.08158586 -0.6418162 -0.17870618 -0.05706196 0.08024544 -0.021870065 -0.14302646 -0.3182508 0.039697472 0.14499965 0.43949604 0.14889488 0.100600734 -0.02770587 0.010583993 -0.045653187 0.5254093 -0.05919313 -0.11135687 0.14805311 0.09523905 0.32687014 -0.19426127 -0.35022092 0.016147422 -0.18199766 -0.3934359 0.28590974 0.1741129 -0.050317403 0.19961044 -0.0046478324 -0.40325692
事 -0.34769255 0.24590354 0.11378273 -0.3538167 -0.10439842 -0.085369386 -0.5872229 -0.4376112 -0.3411273 -0.13009915 0.2026312 9.281421e-05 0.27116913 0.034491464 0.35352173 -0.29920432 0.25100833 -0.67473197 -0.35357794 0.11935553 -0.40317428 0.26356146 0.17979448 -0.12765573 -0.24895744 -0.60112536 0.28030378 -0.16301994 0.2697721 0.92889094 -0.11584328 -0.20595515 -0.30087784 -0.3044118 0.27991858 0.3634339 -0.35453972 -0.08816853 0.24917524 0.025436925 -0.25314993 -0.09402675 -0.4171219 -0.71468496 -0.130583 0.11422911 0.33503368 0.31722212 -0.16016233 -0.29326886
是 -0.3040935 0.12011839 0.10296589 0.5245734 0.27728885 -0.55170757 -0.5675835 -0.36897406 0.106046796 -0.21486317 0.23067097 0.30012816 -0.04660357 -0.01775526 0.08757878 0.61258024 0.08688132 -0.011795978 0.38948315 -0.1326555 -0.21169893 0.19631076 -0.19095469 0.18520166 -0.303754 0.5189002 0.029080674 -0.070911385 0.22791877 0.32676974 -0.15121251 0.14446779 -0.5986343 -0.12696274 0.02396308 -0.15736246 0.2999515 -0.36614183 0.2903099 -0.19697687 -0.088291235 -0.042200692 -0.29538515 -0.025737505 0.103012785 -0.06949607 0.1364891 -0.29240608 -0.37801898 0.2356817
哉 0.35048524 0.19325043 -0.41925314 0.2855257 0.23115091 -0.17961884 -0.2527252 -0.100173905 0.043172315 -0.23168704 -0.07952036 0.16567664 0.17262103 0.22784252 0.08025024 -0.4428369 0.2706861 -0.065081164 0.09520329 -0.44939232 0.15889937 0.10158282 0.023272311 -0.33422583 0.5561012 0.083080664 -0.28445208 0.08638282 0.28883794 -0.30467957 0.15377812 0.32100892 -0.49018583 0.14736357 -0.37176746 -0.47842526 0.34522283 0.13426511 0.8241213 0.059845008 -0.31966344 -0.40251538 0.20346723 -0.1377287 -0.12595657 0.22774804 0.052997593 0.44416085 -0.7844453 0.11022174
闻 -0.12859209 0.23879117 0.4451915 -0.04920427 0.107385896 0.60526896 -0.29802358 0.3597866 0.12420053 0.038654298 -0.25170428 0.26715508 0.21755546 -0.06175053 0.01685949 0.47243887 0.11224244 -0.3178668 -0.27482805 -0.01391059 -0.008851193 0.14117238 -0.42746088 0.35781586 0.20935872 0.08646347 0.37393045 0.44401264 -0.5240671 -0.03399393 -0.01061488 -0.67114735 -0.03465857 0.04124843 0.535109 0.25391343 -0.18097538 0.39084816 -0.028458107 0.026623422 -0.27908054 -0.13931179 -0.032402422 0.41128898 0.13672101 -0.010255907 0.12781155 -0.6061776 -0.28510544 -0.46558994
未 0.2740483 0.1524571 0.2407195 0.1658879 0.07548722 -0.12652247 0.19050077 -0.35432416 -0.12004943 0.17517465 -0.3442634 -0.024557298 0.1909421 0.037854142 0.4343706 -0.056568395 0.17805456 0.12357212 -0.48052862 0.33392364 -0.35921678 -0.0016091985 -0.07764683 0.4555705 -0.0728103 0.3596175 -0.31098136 0.23560259 0.12758234 0.48051125 0.23646112 -0.067674816 -0.04900126 0.06676327 0.56196773 0.21931985 -0.25030935 0.2456604 0.09223493 0.22361049 0.21568173 -0.28005907 0.17286009 0.26705617 -0.22176349 -0.2083702 0.17604649 -0.10134182 -0.07746604 -0.04957815
公 -0.07827726 -0.08813484 0.19644652 -0.69038767 0.4856247 -0.27165118 0.050849095 -0.27205718 0.2690184 0.19132623 0.10426573 0.2976458 -0.08292183 0.71031183 -0.30216467 0.043363012 -0.1954463 0.4687559 -0.5395372 0.7307332 0.5651274 -0.20768881 0.06510706 0.26935655 -0.11959672 -0.73094875 0.4840825 -0.006180319 -0.10648672 0.7889013 -0.1522509 -0.0896559 0.28043064 0.07698069 -0.44682807 -0.41196382 0.23331916 -0.56934494 -0.003542159 0.4037216 0.1113134 -0.08697751 0.17313267 0.31863105 -0.33001035 -0.38095906 0.41305685 0.61442035 -0.8314387 -0.081617355
好 0.13125604 0.25504294 0.2213533 0.13278951 -0.5163884 0.04816224 -0.19788635 -0.422568 0.6831471 0.08015523 0.29408222 0.040818255 -0.008485416 0.3112902 0.9117427 -1.0283052 0.662313 0.28537497 -0.14503254 0.079839855 -0.21466656 -0.028594546 -0.3428928 -0.4779738 -0.44978344 -0.2712201 0.020529402 0.04343307 0.16876937 -0.34231824 0.121388696 0.11767278 -0.08619328 0.50178576 0.41368622 -0.35751703 -0.42145595 0.33139265 -0.22363125 0.44253534 0.728828 -0.22335812 -0.0074905474 0.6795514 -0.19811252 -0.606395 0.3054416 0.24472943 -0.11751959 -0.004220429
我 0.20154478 0.11069483 0.29261407 -0.45982316 0.47974038 -0.20366864 -0.291121 0.4389219 0.20387124 0.27921 -0.2911621 0.6102348 0.40636286 0.5908033 -0.372769 -0.15846719 0.18629876 0.3986949 0.022908393 -0.33330756 -0.15176389 0.017196761 0.26447624 0.07175565 -0.21786152 -0.046538405 0.12341016 0.3259774 0.41662192 0.075776495 0.37437093 -0.3266957 -0.3234236 -0.102565855 -0.10934161 0.42861444 -0.007184213 -0.07719894 0.5853029 -0.009498855 0.38106638 -0.8194372 0.018675769 -0.15505591 -0.13338026 -0.016172163 0.34410897 -0.3718013 -0.22157775 0.68834704
路 -0.12408178 0.14414027 0.9755067 -0.09740739 -0.113876045 0.14269595 0.6188007 -0.4578213 0.010671519 0.19156659 0.20299421 -0.47984466 0.21872355 -0.1712877 -0.04464954 -0.13647942 0.22964856 0.1505225 0.41228253 0.016392117 -0.4101582 -0.90093577 -0.1048486 0.19715351 0.1412493 0.1629149 0.1756671 -0.008969002 -0.5091418 0.2829573 0.013646204 -0.16490644 -0.33916426 -0.38072336 0.2845937 -0.45175397 -0.015993027 -0.38169098 0.38183102 -0.19465922 0.6899505 -0.30434883 -0.51379323 0.13934842 0.056544542 0.39170125 -0.10353561 -0.0004054536 -0.94036466 -0.11232637
在 0.08399062 0.29378805 -0.07132175 -0.25904182 0.31464434 -0.45694652 -0.2636357 -0.46255636 -0.27757323 0.27932474 0.13423388 0.19554529 -0.47847554 0.07087161 0.5088984 -0.29331785 -0.044694763 -0.58230734 -0.8592189 0.27696046 -0.19177139 0.12755018 -0.3291009 0.018614944 0.010657033 0.24148951 -0.39638722 -0.25250134 -0.4382021 -0.06526708 -0.24885762 -0.41151685 -0.3681833 0.16663373 0.78268397 -0.27151507 -0.6006615 -0.5202398 -0.002715674 0.26626888 -0.09697193 0.34746754 -0.35744086 -0.47128555 0.4337627 -0.32896268 0.17590646 0.819383 -0.52521616 0.31048417
已 -0.17022282 0.5151826 0.09043602 0.082218125 -0.0517277 0.08331617 0.35895482 -0.40276796 -0.09836074 0.41649064 0.109617464 0.101581804 -0.07478887 1.1641542 0.3703468 0.29536775 -0.11016853 -0.09748602 0.24548765 -0.23384729 -0.0015976429 0.29075643 -0.34910786 -0.25186676 0.6081248 -0.2204089 0.79320014 0.13631254 -0.47183987 -0.0011558747 -0.04234126 -0.27552044 0.17773183 -0.30702582 0.044462442 0.5105515 0.15489638 0.23929702 0.517783 0.97844946 0.13180207 -0.23514615 -0.33624238 0.046657708 0.124023356 0.03174817 -0.4694692 0.61759853 -0.009366814 0.19178243
得 0.14823228 0.2857132 0.66842604 -0.22869757 -0.27344766 0.2813786 0.12430762 -0.90932834 0.45254508 -0.5031275 0.034309942 0.3322763 -0.05151071 0.1812788 0.1381364 0.06760707 -0.055968795 0.06174307 -0.4967384 0.20646203 -0.0293801 -0.1500471 -0.5334495 0.87322646 -0.43540967 0.051436923 0.29596728 0.14321586 0.22314161 -0.29560274 0.16459377 -0.14876048 0.45443407 -0.23708227 0.6631815 -0.20105965 -0.42825457 -0.007274977 0.2526079 0.17997272 -0.25925934 0.3307861 0.05333056 -0.23051982 -0.6731655 0.16864401 -0.036668994 0.18997861 0.27386838 -0.25918505
所 0.30537224 0.0040849503 0.35665923 0.15606646 -0.065027006 0.044343643 -0.618456 0.054502435 -0.21018192 -0.16577591 -0.021696536 0.45941177 -0.34217626 0.6858027 0.032651413 0.2631266 0.13906194 0.17749465 -0.1419986 -0.17054649 0.17261122 -0.15704237 -0.27594736 -0.07402356 -0.22762208 0.22787923 0.51920384 0.09121125 -0.6482434 -0.3226102 0.5215135 0.4687015 -0.25225767 0.05467144 -0.115917735 -0.30213258 0.113365956 0.3034891 -0.25855002 0.31744897 0.07608706 -0.2140146 -0.39461625 -0.44647115 0.2814571 0.3324121 -0.13299729 -0.17654334 0.03846119 0.37762213
民 -0.30832195 0.043397963 0.14709127 0.5701467 -0.32007527 0.29619563 0.05955238 0.027922366 -0.15079914 -0.35637346 0.25935036 0.25885594 0.08777678 0.33806282 0.5514792 -0.57168293 0.22810929 0.5181241 -0.017142145 -0.50677687 -0.29597977 -0.0431353 0.10960464 -0.114261575 0.33099318 0.036611263 -0.5275548 0.533882 -0.023929752 0.13885981 0.15629768 -0.08593018 -0.29552197 -0.33763808 -0.03402414 -0.41807997 -0.14998026 0.19430713 -0.11581836 0.32248354 -0.35083854 -0.298639 -0.40407628 -0.6647332 0.34026858 -0.17429803 0.20329042 -0.1605707 -0.004044254 0.37854883
小 0.10830523 0.078543715 -0.5962546 0.223991 0.22991587 -0.036100607 -0.75567263 0.22581996 0.47035137 0.24777873 0.037701454 0.35039684 0.21312542 0.21211699 0.49156222 0.117230445 0.2800026 0.3709096 -0.17738572 -0.22981766 -0.12472208 0.20097128 -0.15016639 -0.49149463 0.6371637 0.0055578267 -0.08131434 0.17476141 0.45930853 -0.25710848 0.36162522 -0.08926449 -0.13601354 -0.31482938 0.24968553 -0.5374074 -0.0717283 -0.100950025 0.28433856 -0.3022687 0.1568258 0.29265124 -0.058397755 0.16461125 -0.5450356 -0.13314474 -0.3668787 -0.029538706 -0.26454183 0.10346102
天 0.35963252 -0.53856057 -0.20681603 0.5496172 0.163272 -0.20642516 -0.16574436 -0.113486424 0.25248596 -0.42294416 0.67678416 0.3508489 -0.07644537 -0.3639049 -0.09406812 0.3017506 -0.43729252 0.012941819 -0.33689436 0.3127474 0.36851 -0.3688969 0.024359545 0.14393476 0.029917317 0.20733598 0.88565385 0.56639665 -0.1350839 0.06603937 0.26839688 0.26700726 -0.72386837 -0.0528101 0.22684872 0.19348417 0.44218826 0.030076839 0.21678996 0.17616501 0.123999566 -0.04261837 -0.33151895 -0.4218287 -0.103220925 0.08658051 -0.06497046 0.33184066 -0.52708876 -0.0673415
乐 -0.4934867 -0.11758566 0.18557955 -0.17714122 -0.31895795 0.11975338 0.34840164 0.4659278 0.12671883 -0.39946327 0.7537129 0.09889618 0.43864217 0.6203551 0.50685066 0.10013593 -0.44979182 -0.035123054 -0.42092022 -0.35019046 0.7295294 -0.42909548 -0.48664024 0.52211183 -0.4730235 0.5000653 -0.26476306 -0.41512528 0.33894974 -0.54280674 0.46526757 0.8234087 -0.38318956 0.44385955 -0.20609367 -0.050304968 0.8328253 0.19226456 -0.09984594 -0.27354324 0.118417405 -0.9993091 -0.37720546 0.026791058 -0.03869601 -0.008125087 -0.31710708 -0.17812398 0.30140734 -0.04115404
邦 -0.11233674 -0.35173947 -0.0007496707 0.014816168 0.44695845 -0.23004572 -0.90922016 0.31368944 0.29183972 0.30787626 -0.40558508 0.31760463 0.17106184 0.12293848 0.49071777 0.24139331 -0.0758039 -0.0796253 -0.45637774 0.20777796 0.12959921 0.09946506 0.0691647 -0.009744738 0.10917309 -0.22062247 -0.48876932 -0.30261612 -0.14609973 -0.4216952 0.5568736 -0.8527301 -0.47417766 -0.36945236 0.4250783 0.23540825 0.26208982 -0.4707798 -0.27211452 -0.17813033 -0.5322161 0.06532788 -0.29141843 -0.46913323 -0.33272302 -0.23297893 -0.19893344 -0.21789595 -0.5815947 0.17327176
亦 0.5987912 -0.047683053 0.3534827 0.2411618 -0.2570148 -0.9265651 -0.37506276 -0.880255 0.28130338 0.91744125 -0.1234156 0.7524603 0.4067697 -0.613997 0.20354581 0.22011763 -0.11548675 -0.51438165 0.08029656 0.40858 0.4633572 -0.26417542 -0.52719504 0.7762489 -0.27699226 -0.23163176 -0.4450918 0.03663058 0.0070465654 0.3874688 0.26597098 0.30063936 -0.039043963 0.11692544 -0.5331464 -0.54786664 0.082581446 -0.029120855 0.8571124 0.05085041 -0.17146602 -0.31872323 -0.6509114 -0.4840084 -0.14682136 0.104477465 0.17304344 -0.4140951 0.08647993 -0.11658358
使 -0.26264498 -0.20993683 0.108865425 0.84061503 -0.15080015 -0.19557968 0.25901657 0.23882717 0.36513072 -0.031016586 0.46777433 0.2670339 0.26060712 0.5846791 0.54032147 -0.5912683 0.15672573 -0.51607466 0.2860457 -0.30793527 -0.091109864 0.41215852 -0.041883495 0.014108567 -0.077157564 0.05268367 0.26471555 0.11336985 0.16822726 -0.3241547 0.14665194 -0.42553383 -0.045470722 0.046888553 -0.22028111 -0.6947413 0.54430926 -0.22188568 -0.14968735 -0.3320291 -0.10896326 -0.28390774 -0.082573764 0.22814284 -0.05958887 -0.18293402 0.33615017 0.29938075 -0.33176807 0.311158
大 -0.26093853 0.47837028 -0.38600615 0.29576033 0.26166376 -0.08601663 -0.4637091 -0.5254418 0.30518237 -0.1351761 0.3847564 0.18017444 0.5666625 -0.38788894 0.2106032 0.010663977 0.42978156 -0.17620297 -0.4350137 -0.22496063 0.006371876 0.11283335 0.08619087 0.2518118 0.23114853 -0.25263354 -0.0782275 -0.5512097 0.13635711 -0.032030802 0.16707319 0.1652828 0.31885016 0.09883223 0.14307077 0.20624085 -0.12220498 -0.19944283 -0.04801724 -0.29280794 0.66136694 -0.08393296 -0.27392372 -0.304587 -0.3433597 0.43753645 0.23538794 -0.06816666 -0.012441005 0.2869461
下 0.51066625 -0.11768465 -0.25238556 0.4230114 0.75526786 -0.27170148 0.5139102 -0.007843289 0.22583139 -0.26004732 0.2740476 0.4124478 -0.50212866 0.03745002 0.26727092 0.297169 -0.09908183 0.5043985 -0.33603138 -0.10067127 -0.66608244 -0.2203551 0.35175872 0.47220176 -0.7804514 0.30447114 0.113898896 0.3699102 -0.55214316 0.28197047 0.38795218 -0.2779382 -0.7040879 -0.2838473 0.14006217 0.12335223 -0.3511305 0.12305919 -0.10539874 -0.7631566 -0.42963946 0.006204286 -0.54619527 -0.48452258 -0.0018188024 0.22437526 0.03402099 -0.29868633 -0.27238736 0.3169619
贡 -0.6060811 0.34530044 0.40211916 -0.24510397 0.5054979 0.12779507 0.4008514 0.29914823 -0.061667938 0.42169595 0.06529241 0.47224575 -0.34944874 0.08054212 0.3441962 0.22906718 0.25072092 -0.7660795 -0.09265715 -0.3061192 -0.3724393 0.13560352 -0.18709742 0.40307075 -0.42020386 -0.16779949 0.8720905 -0.009301039 0.42632622 0.5405945 0.79159766 -0.13608359 -0.18412691 0.090830505 -0.2552512 -0.28630078 -0.18832901 -0.2149354 0.48593464 -0.17499097 -0.6481999 -0.38093662 0.4981838 0.01425215 -0.47084364 -0.018599983 -0.20267466 0.29783523 -1.5558034 0.10929993
欲 0.087122545 0.68392617 0.3726914 0.027940711 -0.029011562 -0.07994397 0.04209865 -0.472773 -1.0118974 -0.65583724 0.07525116 -0.10615661 0.35913888 -0.096552014 0.0077405404 0.58462346 -0.05448191 0.3675965 -0.15488921 -0.30653295 -0.1279687 -0.52971536 0.46358395 0.19238245 0.016808975 0.25499135 0.56005895 0.10598527 -0.35795602 -0.30795288 0.17921126 0.31721908 0.020265387 -0.12673569 0.58467346 -0.36489406 -0.09535992 -0.15290022 0.611993 -0.20042098 -0.081984155 0.23850144 -1.0055466 -0.33482265 -0.18235467 -0.28019938 0.7761329 0.85544807 -0.28217876 0.40374014
诸 0.4246393 0.25205132 0.0913633 -0.44814608 0.34374797 0.4016887 0.14160815 0.38215297 0.029585836 0.38645735 -0.3815843 0.33712167 -0.47447783 0.26952457 0.38814217 0.4775803 0.57133394 0.04350575 0.63729763 -0.6996218 -0.5923681 -0.256685 0.396995 -0.09683679 0.6463791 0.035396326 0.51831067 0.48281938 -0.3166637 -0.42479837 0.44385788 -0.36588442 -0.13046122 0.16897826 0.20643948 -1.428513 -0.38971648 -0.6357262 0.6652989 0.15543213 -0.06223297 0.62112504 -0.106714234 -0.007172061 -0.45295134 -0.62992483 0.02558867 0.054553837 -0.65243536 0.1541212
从 -0.02288882 0.28944612 0.43812996 0.4688018 0.08161992 -0.40410668 -0.0038672907 -0.19861798 0.00089231203 -0.7556647 0.022897866 0.3201742 0.822531 -0.048721243 -0.13071688 0.24300264 -0.07306585 0.39799204 0.02469136 0.13137588 -0.429783 0.8012158 0.10640386 0.22985306 0.5735219 0.5109509 -0.028835826 -0.3359855 -0.22056657 -0.1495659 0.010742451 0.48612738 -0.089550644 -0.18735681 -0.2542047 0.060787536 -0.035702106 0.056528047 0.649051 -0.040689725 0.24941403 -0.2529537 0.15095854 0.122767664 -0.21414629 -0.13628456 0.31426832 -0.17369786 0.052486558 0.39227962
文 -0.5710912 0.25591624 -0.15009575 1.2262686 1.3727148 0.055401284 -0.17697395 -0.06221412 0.2995873 0.10659862 -0.17849731 0.15868752 0.40681285 0.042110637 0.053538654 -0.47869113 -0.0014740734 0.019702513 -0.62020797 0.019028816 0.07496669 -0.043282337 -0.08665004 0.19130492 0.17937379 0.88952744 0.11917781 0.21593612 0.50361437 0.6641358 0.016256588 -0.05510198 0.10995915 -0.18833871 0.090924025 -0.5025216 0.25184533 0.32153118 -0.06913479 0.012948792 0.29599792 -0.19040142 0.009427053 -0.14711986 -0.0076648938 -0.44640848 0.3105167 -0.5019711 -0.13025394 -0.69756377
政 0.28975368 0.6748486 -0.16458365 -0.05226121 0.33057955 0.33993137 0.24675089 -0.3535339 -0.047792554 0.4197845 -0.2437588 -0.315249 0.285162 0.8466866 0.05833617 -0.02831963 0.4516535 -0.036455132 -0.080734015 -0.16943234 -0.52441275 -0.49167207 0.30528128 0.32773274 -0.013148143 0.012462574 0.02671408 -0.65383136 -0.11671989 0.39939567 -0.1504177 -0.16318195 -0.6034659 -0.17636713 -0.6133964 0.32294255 -0.11369507 -0.5277292 0.40287545 -0.34178326 -0.08952204 -0.9106514 -0.24426693 0.35453734 0.5006192 -0.32319722 -0.15746224 0.049146704 -0.12728718 -0.5450823
食 -0.3854731 -1.1552516 0.17051311 0.29058975 0.22016995 0.039332937 -0.12703846 0.02016045 -0.28354898 -0.19512013 0.3896334 0.5797637 0.0813423 -0.47810915 0.6598616 0.09803347 -0.41296205 0.4331159 0.1143425 -0.13263397 -0.30187038 -0.5122558 -1.1217155 0.10403059 0.7004669 0.2638861 -0.11939638 -0.4477161 -0.20046295 0.45223787 -0.35442403 -0.0039695865 0.0824321 -0.5182531 0.54552305 0.0016346686 -0.2577466 0.42551148 0.3073958 0.38202277 -0.047749467 0.14170232 -0.31735116 0.36925966 0.4562617 0.42237332 -0.5516947 0.66552085 -0.0026525042 -0.2220349
善 -0.16322121 -0.3745713 0.3484585 -0.40157765 -0.5176233 0.22780703 0.055493623 -0.23382233 -0.045843508 0.03357276 0.10650448 0.5893399 -0.025780043 0.17294753 0.39004403 -0.2778302 0.48360065 0.04073595 -0.30920115 -0.0034622978 -0.25379065 0.67843443 -0.106930606 -0.15131232 -0.34168166 0.5473273 -0.20763485 0.07504658 -0.23435739 -0.18966822 -0.37378493 -0.14061083 -0.11222508 -0.6307983 -0.4880488 0.10352969 0.09630399 0.11242205 0.8628813 -0.006433966 -0.23890632 0.6977288 -0.57325697 0.44402322 -0.57313615 0.1768495 0.6719288 -0.32415083 -0.32984337 0.4376174
后 0.13916971 -0.14062272 0.6894655 0.39486006 -0.11939714 0.4201914 0.14300932 -0.31925035 0.60556996 -0.050401025 0.26712954 0.3281238 0.044727225 -0.14936477 0.010321212 0.4876641 0.30634052 0.026723068 -0.32663465 0.09419784 -0.47405517 -0.11315587 -0.4622764 -0.11557838 0.25795266 -0.61702394 0.2949848 0.2030803 0.2581098 -0.016778084 -0.0047763307 -0.6109492 0.19490649 0.10491975 -0.19801563 -0.5513223 -0.7625852 0.2580315 0.19482191 -0.3537301 0.1283952 -0.16416305 0.022119977 0.5836772 0.23289004 -0.06319363 0.10507253 0.8072942 -0.067343615 -0.0028239866
德 -0.1530988 -0.05698848 -0.10772529 -0.2730383 0.4623014 -0.33683902 0.03910025 -0.8265801 0.3681054 -0.2177064 0.62820256 -0.19657 -0.3290747 0.96170014 0.5582223 -1.0879387 0.09871725 0.07630875 0.08008843 0.31155553 1.0304749 0.18148477 0.10550663 0.17477137 0.61851 0.17843765 -0.26362962 -0.056227073 0.55766606 0.22849837 -0.2743359 0.10766139 -0.5735723 0.15925236 0.28954482 0.3025985 -0.24894571 -0.023796655 0.18590017 -0.29861426 0.11170165 0.027235642 0.12449331 -0.37919918 -0.3255276 -0.6112576 -0.0931879 0.0568441 -0.35679954 0.23675154
求 -0.043446288 -0.18686335 0.18905604 -0.1277164 0.43828622 -0.2589574 0.74662334 -0.14355932 -0.4544816 -0.9445347 -0.2641391 0.4422165 -0.02112303 0.107043445 0.42341852 0.41900653 0.30694526 0.020929448 0.28573436 -0.048234593 0.042361725 0.44965136 0.46197706 0.13791364 -0.11384543 -0.18831758 0.29523444 -0.044054 -0.09769672 -0.056579288 0.46436456 -0.68221176 0.09978069 0.3395579 -0.043968994 0.5109068 -0.25682265 0.2162541 0.16443455 -0.681963 0.06334596 0.21987484 -0.11667936 0.29441467 0.02760131 -0.18781525 0.1820694 0.13947967 -0.030537691 0.035033464
对 -0.16179547 0.6917931 -0.02519509 -0.15780738 0.31356415 0.25014365 -0.17807378 -0.15033458 0.9833913 -0.15654157 -1.1366402 -0.2771802 -0.44852442 -0.136605 0.25545514 0.4747309 -0.5939137 -0.44055897 -0.45373288 -0.50885946 0.22857177 -0.1263957 -0.3933736 -0.070858136 -0.378653 0.22829323 0.19256485 -0.094165236 0.06918355 0.011788407 0.5870628 -0.04656904 -0.25593585 0.18166316 -0.33152694 0.078985766 0.37682813 0.8506954 0.791439 -0.4580469 0.15564911 -0.57268506 0.42720592 0.179397 -0.17785196 -0.23639116 0.21050557 -0.3729039 -0.73335564 -0.7531598
恶 0.36183074 -0.25945473 -0.48916876 0.14503992 0.29784867 -0.20215768 -0.17563294 0.021812169 -0.41588834 -0.18251467 0.022140626 -0.10183198 -0.10186295 0.66386455 0.54782385 -0.10182776 -0.44334358 0.2840322 0.14089079 -0.18579176 -0.2394517 0.6756115 -0.008106311 0.33756807 -0.22957444 -0.4903529 -0.024125086 0.07523896 -0.39562595 -0.37238982 0.43063608 0.6598009 -0.09882291 -0.04975959 0.521916 -0.16015403 -0.13890015 0.2604642 0.53542536 -0.68523663 -0.49164498 -0.13040282 -0.40941423 -0.17988656 0.31428182 -0.06475923 -0.39985073 0.17140843 0.31651768 0.04565003
信 -0.72700167 0.4061424 0.27884498 -0.32694733 -0.23940164 0.12451422 0.19063255 0.16575539 0.034113675 0.3433758 -0.48419282 0.49157283 0.2346847 -0.05628698 0.97911716 -0.36854157 0.595131 0.3031687 -0.31602547 -0.60413975 -0.34078217 0.02584733 0.13400097 0.119704925 0.3500377 0.6157693 0.3890715 -0.37820128 -0.2070345 0.770115 0.5893175 -0.05293781 -0.17945366 -0.5192837 0.68262476 -0.30072698 -0.66319174 0.69813657 0.14315227 -0.1008935 -0.015157982 0.10266602 -0.4684449 -0.6765691 0.3105324 0.045652084 0.52664894 -0.43824765 0.33686104 0.48814225
死 0.028807756 -0.6389855 0.6661597 1.0342948 -0.36549482 0.055649564 -0.44665158 0.004508221 0.34390947 -0.23249497 0.118696414 -0.33893695 0.20432359 0.62483764 -0.28548485 0.13324836 -0.018818684 0.077333234 -0.65336424 -0.117550746 0.20644611 -0.2784317 -0.20440058 0.22449943 -0.047624383 0.2111496 -0.36711273 -0.029423777 0.5165652 -0.13467725 0.26586813 0.019433111 -0.074510075 -0.13075621 0.07314553 0.4501791 -0.072645955 -0.03608495 0.9014392 0.24378306 -0.05549712 -0.8046554 -0.018383743 0.37415683 -0.16233394 0.5574008 0.302682 0.33146253 0.39686996 -0.28529784
然 0.28803137 0.2490387 0.36780038 0.41065237 -0.67477524 0.3166908 -0.07557712 -0.26758644 0.012316413 0.120102435 0.13608642 -0.21929134 0.9456028 0.22406997 -0.30827692 0.18170255 -0.4441843 0.040983852 -0.6693082 0.2592273 0.25611973 -0.48275012 -0.24238473 -0.14666452 0.13788056 -0.5441991 0.35262823 -0.21723865 0.8474576 0.09349719 1.1359684 -0.44810024 0.21897624 0.21525025 0.18099794 0.01578046 -0.107317284 0.40046656 0.7374999 -0.5168093 0.27061042 -0.43721217 -0.026316728 0.28935134 0.13444906 -0.64122725 -0.069200814 0.53844154 -0.49602392 0.09305904
《 -0.054526147 0.79679304 0.06392977 0.35351652 0.24380799 0.73611325 1.3431157 0.35944358 0.08813902 -0.14679164 -0.49358237 -0.014352875 -0.65192443 0.08564772 0.4630279 0.4059869 0.27948624 0.18396005 -0.71301854 -0.078305684 0.5224826 -0.33474207 -0.36274308 0.53452575 -0.34654364 -0.05519882 -0.417737 -0.09727188 -0.34738985 0.3101009 -0.8761994 -1.0120164 0.2984026 0.26870298 -0.0673816 0.2508479 0.13481317 0.6343857 0.7367309 -0.09374146 0.68019056 -0.42238286 -0.67736715 0.011220595 -0.75362575 0.11845528 -0.43815157 0.44810572 -0.33870277 -0.58466977
》 -0.98174024 0.64523613 0.6251996 -0.074598156 0.036570273 0.32846212 0.88988686 0.3054176 -0.51946455 -0.28222716 0.16398135 0.6234322 -0.015710974 -0.14729656 0.3789026 -0.18701513 0.5242433 -0.19029441 -0.5775266 -0.45243305 0.4955862 -0.13656758 -0.3521592 0.5593477 0.01426058 0.08842199 -0.4035632 0.010136381 -0.52268267 0.106580466 0.059604365 -1.0771322 -0.23841333 -0.006225806 -0.335729 0.80014163 0.22925402 0.637907 0.3146338 0.9494558 0.39706415 -0.55329305 -0.220791 -0.49680284 -0.7918398 -0.25666183 -0.3534766 0.6313829 -0.63062865 -0.14938545
由 0.43803486 0.036816463 0.26211816 -0.08832829 0.033401817 0.2509783 0.6901859 0.20355695 0.2680697 -0.4140433 -0.57082903 0.32108283 -0.28607568 0.6687555 -0.05893656 -0.24713637 -0.3335578 0.060044605 0.22986443 0.34607443 0.36763173 0.031313363 0.22239842 0.53319716 0.5468272 0.114995174 0.68394405 -0.65050364 0.4175992 -0.5643632 -0.057696264 0.06560052 -0.28024542 0.20414816 0.44880506 0.12301931 0.549441 0.14406854 0.43418023 -0.0071428125 0.2125657 -0.045872677 0.016771534 1.1004685 -0.5836649 -0.2492823 -0.3725386 0.003410733 -0.45855248 0.35211238
仲 -0.5641913 -0.29959974 -0.22649342 -0.10156083 0.09737658 0.23053695 -0.2547156 0.17440708 -0.3025477 -0.57936466 -0.081753425 0.18823005 -0.08752201 0.53256345 0.45526466 -0.3619685 0.49548173 0.1912117 -0.5799521 0.10099093 -0.10289383 -0.6567082 -0.13931511 0.5087797 0.0045339693 -0.20149128 0.26574907 -0.3836112 0.52021706 -0.12668584 0.19754502 -0.22875768 0.33489123 0.7623324 -0.27127132 -0.29201227 0.3485275 0.3470122 0.3609349 -0.27135462 -0.44644704 -0.21533895 0.35730162 -0.0084484285 -0.89162505 0.06000057 0.33145306 0.37107754 -0.7481978 0.46783924
非 0.6642517 0.071371645 0.666071 0.0019290673 -0.40791947 0.16720566 0.1737986 0.0728452 0.24033317 -0.21574974 -0.566703 1.0776378 -0.78795356 -0.24982162 0.25845823 0.1393876 0.54390925 -0.35541996 -0.3892122 -0.18564542 0.6849364 -0.25614473 0.2785532 0.08314142 -0.59791195 -0.042824026 0.1549676 -0.32736465 0.31597936 -0.41434294 -0.2865865 -0.08883727 0.16833147 -0.3353616 1.3105652 -0.36446664 0.09411786 0.31297183 0.7314518 -1.6563854 -0.18765053 0.53052026 -0.21793173 0.07862404 -0.10100126 -0.37655154 0.0896985 -0.27071068 -0.4896615 -0.63742137
出 -0.10303278 0.0024004455 0.27878755 -0.29488975 -0.109313495 0.115919374 -0.13205391 0.23111291 0.19292824 -0.7605409 -0.06960582 0.4140011 -0.07332431 -0.18596643 -0.17763942 -0.18953651 -0.27371243 0.36759293 0.32216159 0.09538608 -0.5532882 -0.47702602 0.06252931 0.43867555 0.07822024 -0.21936983 0.010492733 0.54496646 -0.06613385 -0.48006618 -0.9324551 -0.15816812 -0.6659358 -0.003395482 0.29476824 -0.6356257 -0.4261566 -0.6598241 0.23722047 -0.28016588 0.61223733 -0.44838974 0.40972382 -0.14293738 -0.5502102 0.15481675 -0.0137835555 0.09164731 -0.48640892 0.22834286
过 -0.33730337 0.14338358 0.10973751 -0.22957551 -0.028400531 -0.044819035 -0.21614629 -0.24161842 0.45474812 0.7251503 0.35706162 0.43061978 -0.7068154 0.38254353 -0.17500252 0.31312442 -0.86592317 -0.029981505 0.7822313 -1.0106095 0.22817233 0.3034186 -0.043845054 -0.24760191 0.4195709 -0.22570741 0.64031994 -0.43620634 0.73771214 -0.75353587 0.3776836 -0.46302643 -0.7131985 0.12039674 -0.38761657 -0.079255566 -0.08436214 -0.1804775 0.38926873 0.091093615 0.7563133 0.13846001 0.016937215 0.009303458 0.38747114 0.1936362 0.33782253 -0.055125937 -0.63966495 0.7159532
一 0.12620315 -0.5745821 0.16441791 -0.18869232 0.24639457 -0.2514106 0.6077839 -0.102023795 0.3473386 -0.11037575 -0.75017345 0.5138827 -0.9140942 -0.42953065 0.0434584 0.18050759 -0.039368697 0.28899297 -0.4734404 0.059913106 0.14071316 -0.28050643 0.38044834 0.14435038 1.2621238 0.41825575 0.06344583 -0.8334072 -0.16762431 0.39225698 0.27434084 -0.34360993 -0.5651337 0.8939518 0.15149397 -0.28350994 -0.06500495 0.67564094 -0.090653986 -0.0953459 -0.227707 -0.03444451 -0.56487226 5.5809505e-06 -0.07641217 0.1892174 -0.3176906 -0.51005757 -0.23127033 -0.5217241
虽 -0.017211098 -0.093151264 -0.42970654 -0.82922256 -0.20369242 -0.5285264 0.14972241 -1.0631576 0.36971015 -0.09102587 0.53705424 -0.0053392313 0.5762926 -0.27975577 0.6666252 0.44027403 -0.098766595 0.14417692 -1.209925 -0.57812446 -0.012126755 0.30084795 -0.7024489 0.084074125 0.34351546 0.61793256 -0.10361365 0.010654 0.108423546 0.35771352 -0.2916179 0.13895918 -0.24621621 0.11202582 0.14167346 -0.27518344 -1.0150597 0.22318117 -0.2512958 -0.42650887 0.4182482 0.13052289 -0.07303013 -0.01895339 1.0449253 -0.21220261 -0.103594445 0.2915748 -0.19045977 -0.9837937
足 0.14756855 -0.53550744 -0.29816025 0.30005553 0.34756446 -0.08413605 0.6865693 -0.26477116 0.21203558 0.42658228 -0.6629557 0.36548263 0.56658804 0.60625297 1.4237725 0.5361616 -0.42127702 -0.14074314 0.68773234 -0.2677975 0.27616045 0.7358387 -0.24858 0.58800733 -0.33049485 0.6193394 -0.41522995 0.16387959 0.47706413 0.01219808 -0.12107182 -0.0038134337 -0.24561092 0.1261198 0.18179114 0.45432845 -0.2883 1.412936 0.5035048 -0.3368284 0.7664537 0.09637009 -0.26962528 -0.8813666 0.29813838 0.05956209 -0.66054046 0.32101914 0.058226336 1.0068293
居 -0.47796822 -0.7528138 -0.2610826 0.08782035 0.44915658 -0.23617567 -0.45185083 -0.28105146 -0.65261483 0.33576646 -0.21167354 0.57906526 0.04777557 -0.07282343 1.0229182 -0.33474174 -0.3760131 0.6363101 0.1506924 -0.15418325 -0.258444 0.07813561 -0.4231261 0.16864894 0.11370213 -0.13756074 0.21975923 -0.38632798 -0.058107663 0.12312147 0.532458 0.22260566 -0.06541081 1.0441345 -0.15489267 0.021332046 -0.6290828 0.57499206 -0.106828436 -0.26105064 -0.37205756 0.88322514 -0.37695676 0.026476655 -0.15327328 0.15029094 -0.19876759 0.31636044 -0.11962692 0.032282226
尔 0.43478394 0.38965362 -0.280427 -0.035298217 0.6743346 -0.7099713 -0.38945508 -0.70345193 0.5153474 0.089303166 -0.45207945 0.05931213 -0.82349557 0.3452986 0.3180965 0.18306068 0.28979108 0.60250837 -0.52889407 -0.20250712 0.13670197 -0.3568935 0.5988085 -0.1103072 0.372458 0.13648911 0.26665106 -0.3946834 -0.3887214 -0.3893733 0.22178465 -0.1600286 -0.6766816 -0.022377258 -0.5887571 1.0508723 0.22617762 0.29781651 0.37488642 0.19419898 -0.10457353 -0.08877235 -0.3546005 -0.29215062 0.48838413 0.31359705 0.04267697 0.037489887 -0.25117016 0.42561758
夏 -0.05020562 0.45351738 0.5138682 -0.15330954 0.6105965 -0.4299343 -0.015860314 0.14435185 -0.003589748 -0.391003 0.94184166 -0.53349644 0.66069573 0.23481217 0.5246465 0.19521748 -0.32359788 0.021005018 -0.4849773 0.47571826 0.26981592 0.34484574 0.61525625 -0.041023996 0.25155246 0.122574694 0.01960484 -0.15217522 0.2446972 0.581052 0.40474543 -0.24343248 -0.092395924 -0.051510993 -0.24639288 0.12240925 -0.18435095 0.5124305 0.8778524 0.68599707 0.388793 0.16600896 -0.3387317 0.09455759 0.39229015 -0.35937947 -0.59788615 -0.4696418 -1.129191 -0.023292927
父 0.47366643 -0.14995806 0.506441 -0.29759634 -0.23802383 0.54344916 -1.2659417 0.08623896 -0.18681902 1.0784782 0.48977047 -0.68540233 -0.22814222 0.06686521 0.39544094 -0.19332713 -0.1707068 -0.13204081 -0.9147065 0.57377183 -0.3684028 0.41845936 -0.54328966 0.4457511 -0.21978034 0.15724413 0.23871545 -0.26909345 0.3072612 0.3129464 0.09840492 -0.44619313 0.04515236 0.0037969705 -0.6556724 0.42788664 -0.24847013 0.22309393 0.009603175 0.23944846 0.26329997 -0.13927472 -1.159279 0.005653128 -0.12789565 -0.6273725 0.28645784 0.6207409 -1.114673 0.18739167
及 0.2902543 -0.004011077 0.54122365 0.14411093 -0.119266346 -0.040325567 -0.20714347 -0.26003537 0.13411897 -0.51341015 -0.07554769 0.63541 -0.12711225 0.035981532 0.7906007 0.15031926 -0.12917724 0.17416957 -0.114644356 -0.27863866 -0.31697387 0.26437765 -0.21093038 -0.008472132 -0.91427505 -0.26485646 -0.3240963 -0.044052243 0.9609784 -0.48873958 0.00138381 -0.02331735 -0.09937153 0.5420078 0.31866884 0.13780975 0.19923367 0.37893033 -0.14949086 0.99183655 0.28711444 -0.18635136 -0.61027265 -0.21565193 0.45195085 -1.0731249 -0.18523471 -0.8296653 -0.50896883 0.267598
己 -0.2793539 -0.42935145 0.045225225 -0.13441007 -0.49531552 -0.15671672 0.44687536 0.6253511 -0.3137714 -0.28409487 -0.6393201 0.79384995 0.79729325 -0.06008793 0.46547353 0.042426374 -0.36068434 0.32689527 0.1696603 -0.47252783 0.12320313 -0.49485812 0.81590694 0.07902903 0.3637095 -0.327954 0.5477211 0.27219 0.22408463 -0.5567074 0.67753714 0.5139502 -0.6301009 -0.6802629 0.3660117 -0.3619019 -0.03852346 0.36320934 0.23815107 -0.19280499 0.17293623 -0.45512283 -0.4913454 0.4346454 -0.0786366 -0.13911593 0.26078424 -0.145216 0.20252267 -0.14094499
予 0.20556386 -0.39183015 0.19700344 0.4423461 0.10367756 -0.46342805 -0.36207253 0.097470745 0.48099276 0.14540964 0.14357777 0.5485288 -0.009824399 -0.27353233 -0.07697746 0.8373493 0.23369864 0.12286778 0.17233326 -0.43329248 0.18911809 0.40166822 -0.4525534 -0.10696703 -0.008091822 0.78420913 -0.45216203 -0.4333993 0.68972224 0.25981852 0.57055604 -0.87798953 -0.16580164 -0.44672033 -0.07153025 0.287679 0.053214062 0.5224193 1.0668082 0.7830664 -0.12121005 -0.43189463 0.077127986 0.26600102 0.7031539 -0.27422714 -0.4847867 0.74826497 -0.034573752 -0.51051545
色 -0.9105959 0.27172908 0.8987107 0.041696843 0.11788653 -0.17604452 1.0050251 -0.12429522 0.48831204 0.42655393 -0.3542542 0.7016097 -1.0514203 0.15500997 0.2824373 -0.3099912 -0.18882333 0.0791397 0.24062817 -0.5334298 0.03431864 0.73487896 -0.49933392 -0.07760849 0.26453382 0.070243746 -0.07915464 -1.0306473 -0.5143366 0.49418208 -0.714845 1.4408212 -0.8481529 -0.5526722 0.38701344 -0.2654667 -0.0650729 0.58677495 -0.5101196 -0.66915625 -0.20437923 -0.57813823 -0.35205618 0.71792454 0.108972386 0.11657822 0.28361544 0.017239137 0.045594435 0.24962677
友 -0.34100568 0.74300253 0.9087945 -0.6459669 0.71052957 -0.42904747 0.18536066 0.097218096 0.04757339 -0.27396095 0.16469295 0.64386845 -0.26448163 0.18807521 -0.10714165 -0.071838066 0.5118964 -0.29683834 -0.23978752 0.78399384 0.22977723 0.0072641894 -0.3646197 0.421398 -0.6540378 0.5385792 0.556031 -0.05399271 -0.4879095 -0.29143476 -0.57714874 -0.008593543 0.46211997 0.2579809 -0.16235758 -0.31111446 0.18275385 -0.78598464 0.9716527 0.016778847 -0.45631173 -0.4667005 -1.3149476 -0.95313704 -0.6634511 0.542153 0.25223482 -0.27491572 0.19314604 0.093848184
成 0.124293424 -0.16820417 0.59395164 -0.12182671 -0.25345704 0.57251185 -0.057072494 -0.074371226 0.1952663 -0.47267646 0.49062997 -0.12844223 0.99402153 -0.032060493 0.39757457 -0.51927 -0.27783749 0.2888731 -0.3726699 -0.37112585 -0.044181436 0.56298876 0.19553265 0.17334016 -0.6446524 -0.54114556 0.22919881 0.20222947 -0.6042499 0.059620544 -0.3052065 -0.62423325 0.12934414 -0.40982527 -0.3102353 -0.5811484 -0.7118826 0.11874949 -0.03613511 -0.048994206 -0.7576672 -1.1042653 -0.4204661 0.014583878 -0.001197825 -0.39130926 0.48516345 0.17906359 0.030574912 0.60148484
远 0.44484934 -0.40034714 -0.044337153 0.40059254 -0.19114894 0.52889055 0.05100949 -0.522605 -0.23897254 0.14647369 0.70412856 -0.26198596 0.15456182 0.9396792 1.0992982 -0.09611057 -0.07697391 -0.5832851 0.25791463 0.09881888 -0.50422287 -0.162468 0.05975442 0.54568166 -0.23088461 -0.7595308 -0.21951829 0.094169565 -0.74933743 0.46380943 0.27632767 0.050164945 -0.7686095 -0.14497791 0.744439 0.21349935 0.3129021 -0.76983225 -0.15932974 0.62228096 -0.31394255 -0.8714275 0.41588697 -1.0259113 -0.03702343 0.17401917 0.0118919965 -0.53919923 -0.04280439 0.046196282
上 -0.2351406 0.22834638 -0.28052488 0.2651516 -0.32949463 -0.2779788 -0.15499038 -0.83802885 -0.5053157 -0.2823524 -0.027192466 0.18086338 -0.1161916 0.059233718 0.736454 -0.42124444 -0.09822248 -0.21501856 0.43002802 0.71820456 -0.6344578 0.017690804 -0.12675908 0.12624305 -0.35272032 -0.8238252 -0.15689278 -0.51388675 0.029487375 0.24101396 0.17738657 0.25519013 -0.38883004 -0.55193806 -0.11074673 0.08163259 -0.23288909 1.0234395 0.14400476 0.119726546 0.55020523 0.039944533 -0.6499236 -0.69540477 -0.016858965 -0.57082117 -0.77549624 -0.8988426 -0.3093093 0.61080873
立 0.25067022 0.16527869 0.028298166 -0.7000205 0.33302376 0.15169759 -0.4877816 -0.27982768 0.67660135 0.2554822 -0.67004424 0.61511594 0.46360934 0.58590055 -0.21841632 0.096886985 -0.28598076 0.25607055 0.090164855 -0.33790675 0.06910696 -0.23799895 0.6015872 0.2652396 0.24854738 0.28517675 0.20884782 -0.14002526 0.13370854 -0.18095903 -0.9601193 0.2651245 -0.12778686 -0.37878203 -0.011510681 0.6968948 0.4024337 0.07766574 -0.05915782 0.44788972 0.85279983 -0.6981164 -0.94842935 0.025623001 -1.3143338 0.14055756 -0.3534944 -0.35673472 0.567859 0.059470754
今 0.7021887 0.44525352 0.019643335 0.36512503 0.0581247 -0.38176748 0.100122176 0.37763914 0.28867903 -0.33807492 -0.06949708 0.112884976 0.74670404 0.571225 0.02915957 -0.6330332 -0.19886203 0.3946225 -0.08345746 0.14317594 -0.13277026 0.12951918 -0.7357367 -0.040707994 0.45697764 -0.39068565 0.4738219 -0.85402524 -0.10981377 0.3989127 -0.090446346 -0.25452092 -0.15111104 0.057853173 0.22813389 -1.0813773 -0.19485456 -0.15686792 -0.0176784 0.3369313 0.19830403 0.7888887 -0.5313833 0.12096156 -0.2302529 0.1569644 0.09720652 0.037644837 -0.8353312 -0.18855426
张 -0.44845158 0.7698794 0.47503158 -0.012936899 0.40664235 -0.28165427 0.5705422 -0.07620371 -0.18642789 -0.51952475 0.07053125 0.33918518 0.94969326 0.2502328 -0.5398451 -0.41515517 -0.07166817 0.17646444 -0.12804016 0.47770804 -0.168806 0.21769853 0.7973912 0.1977573 0.7772314 0.16839777 0.31345034 0.13343073 -0.7469169 0.4250816 0.030123854 0.5201369 -0.13448772 -0.6696975 0.5871999 -0.37229946 -0.48249748 0.0768213 0.8236741 -0.35084528 -0.36212882 -0.12628767 -0.092977434 -0.3345025 -0.36282244 -0.17889197 -0.5468534 0.4164798 -0.9481928 0.6032449
中 0.88016784 -0.35011357 -0.32130697 0.6240863 0.06278629 0.96276474 0.24357599 -1.0502247 0.14380802 0.45983502 -0.76290435 -0.12042406 -0.41400972 -0.027873114 0.3188241 -0.22570819 -0.39512205 -0.58268243 -0.6177243 -0.33397734 -0.2204319 -0.09458396 0.3341844 0.80525047 -0.30783492 -0.18009701 -0.15951224 -0.58424425 0.33305588 -0.40503135 -0.41977978 0.41829005 -0.13997108 0.012799341 0.82801515 -0.10283319 -0.6505149 -0.5255871 -0.406012 -0.48879927 0.5235127 0.103982866 -0.4193996 -0.677741 -0.7172409 0.22001441 -0.45841292 0.48283207 -0.3598333 -0.54210913
季 0.012400495 -0.6226346 0.26114044 0.061646644 -0.1668463 0.4054738 -0.45157585 -0.037401326 0.30406442 -0.29431432 0.5004054 -0.49350607 0.4962509 0.75724286 0.77246726 -0.0108621335 -0.006751011 0.6154625 -0.11382972 0.2190466 -0.34037647 -1.0754092 0.24236217 0.5323941 0.005268438 0.2805271 -0.11385054 -0.9490966 -0.1088521 0.30720925 0.042124406 -0.19698732 -0.025438314 0.17616366 -0.37797785 -0.55856895 0.47887215 -0.13610888 -0.28315905 -0.025675261 0.36621705 -0.8283761 0.55548805 0.5087758 -0.20322639 -0.45174134 0.43411633 -0.18197227 -0.79859334 -0.06397495
臣 0.05382406 -0.06473625 -0.11955606 0.27882868 0.182584 0.3338216 -0.31956953 -0.7725387 0.90945995 -0.5576093 1.1033498 0.23113719 -0.096499704 -0.3933283 0.032906614 -0.22112599 0.09530141 0.47724402 0.32823518 0.84244895 -0.45956713 0.89880043 0.22492474 0.28753087 -0.019761562 -0.5107252 0.15486617 -0.3475317 -0.32627806 -0.2906827 -0.4844629 0.016213996 -0.30810598 0.39699873 -0.3166582 -0.8123192 0.099615544 0.47907385 0.29639637 -0.043634035 0.18337823 0.025132028 -0.555603 -0.7538307 0.38551593 0.39297035 0.043524414 0.46346113 -0.51837623 0.26672393
贤 0.17186995 -0.028137058 0.43054152 0.426642 0.29121843 -0.123456724 -0.16375248 -0.12452074 -0.2570414 0.39899057 0.08767302 0.017273895 -0.47187957 0.1545058 0.46095738 -0.7038728 -0.14815012 -0.0067328336 -0.7692252 -0.09534225 -0.32780027 0.20257734 -0.724007 -0.059414778 -0.21622239 -0.32057774 -0.15952106 -0.11147937 -0.1582637 -0.71835184 0.11987192 0.15154052 0.4069583 0.28149867 -0.639408 0.68290126 0.4202302 0.0012899593 0.70054984 -0.602544 0.08810458 -0.07255229 -0.17670768 0.43605244 -0.11764423 0.33723083 0.31711772 -0.37271303 -0.26498955 0.1811055
思 -0.51239485 -0.5745644 0.47846463 0.30410388 -0.20583338 0.45641917 0.039812338 0.5795866 -0.16628335 -0.5439254 -0.8080704 0.7500101 0.047420166 0.53522795 0.14433366 -0.4632264 -0.75438523 -0.02059357 -0.17525622 -0.45504493 -0.49612683 -0.5420317 -0.58444273 0.049853813 -0.2103325 -0.14434657 -0.15590207 -0.1022773 -0.06908258 0.57962304 0.44273466 0.24190384 -0.48411977 -0.08853021 -0.28515977 0.69153845 -0.82661605 -0.16645561 0.371534 -0.07182739 0.7589804 0.41716433 0.2506346 -0.14654323 0.3705157 -0.48218402 -0.4902621 0.41019288 -0.1505016 -0.09758718
齐 -0.18172963 0.33420348 0.10722598 -1.6480112 1.1259488 -0.06946886 -0.03396852 -0.14995588 0.036768794 -0.08835061 0.596459 0.2366621 -0.13160087 -0.62778866 0.54466736 0.045360055 -0.32136092 0.026881333 -0.52068794 0.18148278 -0.59830385 0.406274 0.37728873 0.78616923 -0.122806326 0.3218525 0.44177932 -0.83196974 -0.10581861 -0.41538668 -0.046805356 -0.28245082 -0.032399524 -0.2108634 0.17044638 -0.53227377 0.3252313 -0.5520729 -0.48114136 -0.38686097 -0.065376 -0.96058947 -0.24881762 0.291794 -0.14359893 -0.61910456 -0.26784375 0.26722836 -0.38442075 0.18585083
义 -0.56584847 0.6254617 0.15937255 -0.2783317 -0.41931054 -0.62688875 0.4490972 -0.78228194 0.2709046 0.083619416 -0.6372718 0.47482875 0.3976174 -0.16684541 0.43801513 -1.1370057 0.053522397 0.40335193 -0.20324764 -0.1323196 -0.2068463 0.20848201 0.10268414 -0.26370215 -0.19169393 -0.73851126 0.25527215 -0.14638066 0.40948698 -0.1201516 0.18631992 0.62828875 -0.13866304 0.6007232 -0.06140497 0.041397322 0.9742876 -0.2488609 -0.47887155 -0.5871692 -0.18195873 0.08057239 -0.6602552 -0.26594287 0.14788218 -0.22931226 0.54096854 0.23806548 -0.3083762 -0.4455098
正 -0.20009361 -0.4437579 -0.22691771 -0.6301189 -0.29285815 0.61138004 -0.081507236 -0.09262128 -0.11940543 -0.28125435 -0.39896894 0.06701824 -0.10355832 0.2850414 0.2345533 0.4651125 -0.085146606 -0.8400825 -0.21155986 -0.7369479 0.4339621 0.37342316 -0.41667548 0.17678595 0.7431224 0.1564976 0.8378231 0.35800582 0.5966715 -0.44433853 -0.8341759 -0.4089957 -0.33800066 -0.101826325 0.3748117 -0.72755665 -0.14373288 0.43656412 0.77664566 0.26845607 -0.18464348 -1.0279727 -0.4852311 0.3636624 -0.40684268 -0.17570491 -0.20987271 0.5866994 0.21782203 0.40222487
命 0.023381552 0.28292122 -0.66655225 0.2784153 0.16665043 -0.017510697 -0.23798777 -0.23165998 0.27251557 -0.36946994 0.31006375 -0.23355258 -0.2701354 -0.019613199 0.34600556 -0.34938675 -0.13903862 0.08076389 -0.25314292 0.62096506 0.13132973 0.56879795 0.10570411 0.722337 -0.41661176 -0.38300496 0.69932926 0.0037815727 0.6493138 0.66866523 -0.17487966 0.10514944 0.14924797 -0.72671026 0.3823844 0.54921687 -0.36440492 -0.7004663 0.17807552 1.0224875 0.17770845 -0.7326692 -0.8523384 0.4591216 -0.5206466 0.3658732 -0.101849854 0.09212167 0.22408567 0.24607849
曾 -0.13035987 -0.93221265 0.25752613 -0.02265644 0.10469118 0.07776512 0.8504862 0.3637909 -0.23993795 -0.14333029 0.81135774 0.21790677 0.2688701 0.04603851 0.40525857 0.3842969 0.23150712 0.75991184 0.29562083 -0.036157157 -1.015461 -0.22678058 -0.3900647 0.5919876 0.54173374 0.40122566 0.8928086 -0.49027243 -0.3621569 0.7808935 -0.302345 0.049293596 -0.3594031 0.1202352 0.53101605 0.5198931 -0.48081604 0.5125334 0.43816817 -0.5262156 -0.059641942 -0.1178981 0.37228987 1.328873 -0.058993127 0.23828986 0.31284696 -0.28804624 -1.3975345 0.2744578
伯 -0.27570882 -0.29585797 -0.18995845 -0.69838446 -0.13942432 0.21037611 -0.18618998 -1.0479167 -0.18114172 -0.020106317 0.74083394 -0.09242055 -0.2535445 0.054051377 0.44794422 -0.5673072 -0.19467019 -0.49779382 -0.5577943 -0.16522335 -0.7311897 0.0068908897 -0.14500996 0.49171618 -0.13751672 -0.3409611 0.29751718 0.5973151 -0.39936936 0.6268631 0.21008778 -0.5389753 -0.3385128 0.51723963 -0.1388344 -0.345065 0.44219753 -0.2695703 0.0956051 0.13491899 -0.5061759 -0.21788952 -0.444053 0.59732187 -0.1849596 -0.75460136 -0.005306271 -0.90363556 -1.2671293 1.3403283
门 -0.40284926 -0.46254563 1.0731378 0.47344545 -0.46616587 -0.21689379 -0.7233366 -0.6207218 0.19372042 -0.5866599 0.8402444 -0.62870723 0.3930355 0.03515584 0.5985484 -0.05451774 0.6420859 -0.37544337 -0.081848994 0.3992295 -0.43199563 -0.6412638 0.0035924918 -0.23703465 -0.0390894 0.28284365 -0.52766514 -0.34927776 -0.10369507 -0.2227198 -0.5785936 0.008917319 0.07421682 -0.4401504 0.1778604 -0.49757287 0.039030313 -0.47627422 0.81421864 0.32975718 0.3986429 0.37999457 -0.5064549 0.1382479 0.32189453 -0.46696657 0.58355564 0.100762814 -0.7651714 -0.15785871
敢 0.16989419 0.19964574 0.4206458 0.22530314 -0.5517388 -0.20825256 -0.19301431 0.15153737 -0.124330044 -0.779454 -0.0027674325 0.7924055 0.22346142 0.35191816 0.35312963 -0.15919429 0.11249586 -0.17532882 -0.3858381 0.29146716 -0.565873 -0.9477797 -0.23429054 -0.18079957 0.14008929 0.25828665 -0.27256948 -0.078376636 0.288218 0.12283403 -0.28791848 0.16057499 0.24134968 -0.12019152 0.849646 -0.5330579 -0.16016588 0.1436058 0.7029811 -0.1766637 -0.67205507 -0.54401946 0.19719133 -0.68549937 0.29499057 -0.59234774 0.084829085 0.46289375 0.03922658 0.40821382
犹 1.3812281 -0.20828006 0.030505098 0.38032165 -0.19825606 0.12269522 0.3020483 0.60007656 -0.044400364 0.76012945 0.75847137 0.76881456 0.41678888 0.68472004 0.4989743 -0.17127037 -0.08339001 0.6673386 0.068924814 0.3050437 -0.46126932 -0.65748554 0.045196738 0.37478867 -0.07184592 0.006153897 0.57538086 -0.39955148 0.6823257 -0.0930283 0.2937457 -1.1216849 -0.08210661 0.40761495 -0.015646538 0.075442985 0.26904652 1.372017 0.5743449 -0.5757484 0.05699081 0.19635473 -0.30563232 -1.2699264 0.10674347 1.1855487 0.20662126 0.18960819 -0.72153413 0.27905646
生 0.29174116 -0.031987622 0.3042117 0.8269187 -0.30018416 -0.2513615 -0.414956 0.38013762 0.3954624 -0.76538706 -0.60102624 0.014012011 0.024516152 -0.12707634 -0.021871548 0.18583965 -0.07490774 -0.6427065 -0.11334365 -0.8936384 0.570775 0.3579144 0.118029565 1.1592894 0.015737202 -0.2826519 1.1572918 -0.20344165 0.29450536 0.32037616 0.10170668 -0.18377344 0.14303029 -0.23590574 0.34309402 0.42503396 -0.34656295 -0.17157824 0.22545367 0.26780644 0.012548192 -0.59744865 0.04103735 0.29055503 -0.24896748 0.043053895 0.57449794 0.75514704 -0.007974934 -0.593937
日 0.6043607 -0.65775436 -0.014679222 -0.68827224 0.16319019 0.36544228 -0.07775501 -0.29506648 0.32710642 -0.44625682 0.664774 0.49472657 0.3677539 0.4430331 0.15343653 1.0748489 -0.23257872 0.21227291 -0.42933774 -0.14619394 0.26074773 -0.28726938 0.27072927 0.7134383 0.71176195 0.66419715 0.79428405 -0.48329827 0.0084731635 0.46639794 0.21572684 0.45867458 0.24675594 0.75218564 -0.76755077 -0.14634305 0.12643424 0.813717 -0.26984242 0.48722446 -0.4344357 -0.36980855 -0.0013951706 -0.05419278 -0.20548771 -0.06053447 -0.23246211 -0.018931128 0.030597629 0.22831212
敬 -0.933831 -0.32889685 0.43580568 0.5224317 -0.3579599 0.6200401 -0.35807252 -0.07911385 -0.503706 -0.2172828 -1.2941476 -0.041395452 0.05045796 0.13503514 0.49342456 -1.3016306 -0.38530296 0.07763273 -0.29358903 -0.33950025 -0.10893991 0.31840163 0.37397632 0.2683517 0.1433316 -0.34681 0.437674 -0.53661346 -0.3895816 0.10510016 -0.08972421 -0.10648997 -0.38073388 0.029997734 -0.80269206 0.053642016 -0.6672458 0.018488636 -0.06938762 0.13691849 -0.19934474 0.6911935 -1.059906 -0.55492926 0.20619847 0.15847005 0.37211677 0.82014143 -0.18459614 0.29987618
难 0.3555445 -0.18884207 0.6509892 0.7918416 0.122368015 -0.36985588 0.23085687 -0.8832226 -0.47015232 0.4724769 0.10011435 0.36090782 0.56946594 0.034077384 -0.29168126 -0.88762766 -0.29943225 0.12290099 -0.35520202 -0.025113285 -0.0060545956 0.45309052 -0.12000535 0.31917116 0.16547906 -0.39535207 0.22424568 -0.16408998 1.2450029 -0.37430316 -0.5348114 0.35445362 -0.66760176 0.2693832 0.3818935 -0.2610268 -0.3020556 0.8933075 0.26678124 -0.76465917 -0.14143926 0.47805262 -0.42012155 -1.1883229 -0.41822445 -0.030768853 -0.123394445 0.24671027 -0.7476498 -0.30990613
直 -0.586028 1.0456477 0.096070774 0.38925785 -0.021896148 1.0617136 0.29330468 0.40747204 -0.034968983 0.44672483 0.1555884 0.26987243 0.62950253 0.027966112 0.07102714 0.2794726 -0.89684063 0.58582723 0.43728462 0.42374116 -0.30344805 0.652111 0.53744817 -0.1607946 0.6784071 0.18203546 -0.22220361 -0.0038099382 -0.34591848 0.22591136 -0.5991274 0.15499865 -0.9561118 -0.05155752 0.87485373 -0.9815872 0.8150748 0.01998856 0.5435131 -0.6711942 -0.54293126 -0.45129824 -0.5605361 0.03604561 0.9029986 -0.757364 -0.2950373 -0.1471394 -0.40103757 0.25817615
丧 -0.042808633 -0.5486371 0.10046416 -0.108408496 0.36369672 0.34079278 0.10995208 -0.7307181 0.88418615 -0.046648566 -0.1615038 0.557189 -0.85330135 -0.26241755 0.009022525 0.08171774 0.051832024 -0.06312437 -0.5332045 0.55979097 0.24848473 0.18438588 -0.5149933 -0.18383637 -0.25956485 -0.06263677 0.015745912 -0.87985575 -0.72427577 0.6520448 0.19463728 0.48244435 -0.13849896 -0.16168027 -0.04971451 0.5038697 -0.18921632 -0.19188805 0.13749716 0.46257886 0.37203744 -0.4430821 0.48039362 0.16386957 0.5089573 0.054279797 0.55442154 0.5594643 -0.08949386 -0.007419447
说 0.5119612 0.40371487 0.5635746 0.025163269 0.07870546 -0.31000167 0.01376324 -0.82944256 0.4919442 0.3469406 -0.10500323 -0.4172032 -0.16387862 1.0164899 0.45795727 0.1895455 -0.13798116 -0.45374757 -0.095945686 -0.3481982 0.35210288 0.6957716 0.6490362 1.0563898 -0.030837376 -0.25517192 0.036772348 -0.3270222 0.06755909 0.99712765 0.0014799014 0.71007085 0.38729486 0.25637302 0.27004078 -0.17381608 -0.30829048 -0.49974984 0.30561677 -0.33887497 -0.80957407 0.097968645 -0.67416173 0.32685092 0.6683743 0.76495415 -0.104492135 -0.23013923 -0.086601704 0.08521815
自 1.0295391 -0.045408346 0.16022123 -0.2658589 0.594705 -0.058050495 0.24746703 -0.07039958 -0.26821178 0.43766946 0.5947734 -0.72921145 -1.1149871 0.22340551 0.08084359 0.016701197 -0.9851977 0.14108984 -0.38235748 0.043770537 0.014495829 -0.5330197 0.054375175 -0.28282228 -0.55105656 0.51797944 0.04993524 -0.45428282 0.2462761 0.15966727 0.44752222 -0.7475468 0.08860889 0.6826168 -0.18005525 -0.021256477 -0.4879039 -0.5811302 1.0454565 -0.57834166 -0.13038856 -0.31302032 -0.6406526 0.047860235 -0.29542762 0.97955006 0.24740459 0.04866451 -0.31038466 -0.35000986
用 -0.19589272 -0.03680183 0.038627833 0.12362193 -0.2695169 0.24995972 -0.7757234 0.1454403 -0.17243998 0.0116409045 -0.57751644 0.2602097 0.111358926 0.19255069 0.4724531 0.110110275 0.780424 0.006505914 -0.35049468 -0.20997162 0.00016924474 -0.54043573 0.073415 -0.08884428 0.39125243 0.18091123 -0.13438533 0.37826985 -0.15319654 0.1531437 0.21096551 -0.16767153 -0.43066972 -0.5538784 0.3867138 -0.69608027 -0.4581298 -0.08277044 0.3523894 0.5080625 0.010303232 -0.17415364 0.40068343 0.0056124395 -0.3353306 -0.23366414 0.49552 0.02061658 -0.16033968 -0.3148074
周 -1.0968038 -0.2718977 -0.074247636 -0.36128494 0.6476705 0.29949626 -0.2779783 -0.5875148 0.1159093 -0.45771283 0.07888731 -0.22248071 -0.09147525 -0.66696477 -0.213951 -1.0902616 -1.049719 0.117303506 -0.41747764 -0.13647127 -0.06531452 0.28396875 0.16750625 0.18133797 0.23762108 -0.31674558 -0.60078514 -0.53947836 -0.2229131 -1.0409633 0.4882796 -0.19234657 -0.14891255 0.762693 -0.5302047 -0.3133737 0.045154803 -0.18414569 0.24709147 0.44551876 0.19856942 -0.5143882 -0.77689534 1.0865138 -0.09450045 -0.07518759 -0.7796262 -0.4202746 -0.12021319 -0.025031513
颜 -0.45937395 -0.023391291 0.62561005 0.39646167 -0.1371266 0.75792223 -0.1148608 -0.3728309 -0.05240646 0.49132624 0.30902588 -0.1466742 -0.13498145 0.3611 -0.49971077 -0.19933629 0.7645334 0.4145341 -0.40600792 0.36321884 0.22465828 -0.010303619 -0.3849252 -0.46834713 0.50922114 0.568658 0.23818435 -0.51827574 0.027433533 0.11245854 0.053608507 0.32882223 -1.2639254 -0.01517224 0.72604495 0.24154185 -0.524552 0.102533236 0.61602145 -0.88473076 0.600809 -0.8754651 0.74553037 0.6898061 -0.9943956 0.35030234 0.25541756 0.34429407 -0.54395264 0.034029517
年 -0.0076389005 -0.31882355 0.78460276 1.3431164 0.8385827 0.3337481 -0.599825 0.13827516 0.049987365 0.099861674 -0.42149636 0.53215575 0.34661552 -0.91011983 -0.29440385 -0.3874643 -0.20039333 0.815182 -0.555848 -0.47626102 -0.0046462603 -0.8455198 -0.37796277 0.69244283 0.09773752 -0.3273148 -0.5976411 0.3788691 0.38092625 0.58082086 0.5089403 -0.14761494 0.23845749 0.035309196 0.25069535 0.50201225 0.7964849 0.14843139 -0.4295925 -0.20340501 -0.12227517 -0.021631649 -1.061138 0.2058149 0.528941 -0.038650043 0.13936645 0.19417296 -0.755748 -0.7075109
告 0.30175728 0.48156664 -0.23139012 -0.4532563 0.40527785 -0.3848618 0.33133084 -0.61267924 -0.12295485 -0.12125438 0.30975884 -0.62241477 0.19499415 0.5053499 0.1393562 0.35661379 0.39638177 0.60722214 0.10427133 -0.26243153 0.609372 0.07219954 -0.14962548 -0.24569014 0.7646699 -0.5432738 0.21327417 -0.03226411 -0.766161 0.65501976 0.045596443 0.35560834 -0.124700844 0.015671697 -0.42891598 -0.49936706 -0.23442027 -0.18711737 0.4603029 1.1522695 0.046855982 -0.33373627 -0.7631564 0.32988816 0.7580983 -0.76349825 0.37388593 0.030431576 -0.40104467 -0.5235862
十 0.20890394 -0.095765956 -0.8601589 -0.7212466 0.55612296 -0.2940892 1.0977488 -0.686314 0.5757528 -0.5596405 0.49388954 0.35115266 -0.8396322 -0.009493823 -0.10424404 0.1544024 0.113930374 -0.17718965 -0.053418063 -0.8291303 -0.28348505 -0.121358044 0.0069586746 -0.3379958 -0.12010982 -0.45703658 0.21918741 0.028336778 -0.19570422 0.22223897 0.2507059 0.8138861 -0.013469185 -0.42896563 1.2431775 0.09360489 0.83685356 -0.66765714 -0.20934607 0.55043626 -0.13541682 -0.65338016 -0.6221737 -0.28271323 0.11243658 -0.4535832 -0.24649543 -0.1835583 -0.42256784 -0.33603054
怨 -0.3718628 -0.35655642 -0.43076736 0.39342642 0.8516773 0.87657124 -0.11296293 0.036581576 0.1972875 0.08306694 0.15054172 0.087846965 0.38726544 0.4037772 -0.05909751 0.33357373 -0.17596667 0.6019938 0.16784558 -0.30341542 -0.040375523 0.41812333 -0.38471925 0.72363836 0.041145876 -0.24258861 -0.16071029 -0.77715486 0.10896963 -0.12695839 -0.29207015 0.13059396 -0.30222282 -0.23736933 0.029234841 -0.5194885 0.08054392 -0.6199206 0.50372994 0.465849 -0.6770346 -0.56897324 0.025714742 -0.77420795 -1.288602 -0.2873831 -0.1846318 -0.24692819 0.06858603 -1.4630846
达 -0.2661056 -0.1209741 0.4114413 -0.10709558 0.23415191 0.0508396 0.53216887 -0.6811548 0.15115613 0.1329031 -0.18521775 -0.2147886 0.029332371 0.2207191 0.6051725 -0.33043906 0.79081124 -0.13389522 -0.037439644 0.04307916 -0.6263187 0.13162622 0.20862843 -0.1826873 0.024927288 -0.07532167 0.52660114 -0.043632492 0.23982958 -0.31189558 0.6577708 0.04418132 -0.034687214 0.159704 1.0042678 0.048450414 -0.012191404 -0.33490953 -0.2786596 0.23178183 -0.21959342 -0.15493403 -0.39512622 -0.07651025 0.053542133 -0.8029498 0.009303957 -0.5004719 -0.36366376 0.0049745897
孝 0.5039727 0.5149629 0.7192485 -0.016921487 -0.18751666 0.28084332 -0.53081626 0.4770203 -0.4588132 -0.7881768 -0.43744367 -0.783629 0.03172726 0.51681596 0.46767634 0.7527187 -0.3251427 0.027018659 -1.0748197 0.3765517 -0.3841048 0.6179865 -0.033835076 0.30576476 0.5366939 -0.7098211 -0.27813014 0.5626902 -0.19504641 0.12050467 -0.18572825 -0.7366175 0.07972185 -0.68495107 -0.4000455 0.08505824 0.39390576 -0.13941787 0.19057903 -0.21846779 -0.22500636 -0.50343513 -0.33419144 -0.69225365 -0.23946017 0.63551736 -0.5587759 -0.540672 -0.9595948 0.4045093
弟 0.5741666 0.73184854 1.1900015 -0.017373549 0.15786515 0.38323426 -1.07139 0.11674718 0.18305661 -0.084852435 -0.2404633 -0.32071924 -0.5788008 -0.21982227 -0.0068932856 -0.6282441 -0.0010678878 -0.032536767 -0.5314515 -0.28998297 -0.38623968 0.012881795 0.12330227 -0.6092124 -0.24324934 0.028600894 -0.013054138 -1.0786974 0.57172346 0.17897205 -0.46680257 -0.028831908 -0.28281584 0.13676132 -0.20817555 -0.4117178 -0.07691387 -0.07310793 0.20741259 -0.38104668 -0.96450794 -0.36622477 -0.49134517 0.22944646 -1.4432896 -0.24402735 -0.043820877 -0.40442792 -1.1964945 0.59590125
至 -0.12621763 -0.3156411 0.08967663 0.9189897 1.3037369 0.38602188 0.28051513 -1.2133689 0.65887904 0.030788492 -0.0023389936 0.4828864 1.1592466 1.2946458 -0.52930516 0.017792055 -0.5799984 -0.45459324 -0.06582414 -0.46644175 0.6134494 -0.005587671 -0.8539264 -0.3618839 0.54641986 0.6329794 -0.18756741 0.91603243 -0.4463626 0.99423546 0.3593854 -0.7188724 -0.7174882 0.44981366 0.34768173 0.84335107 -0.1841709 -0.29930082 -0.052026365 0.8341595 -0.48441416 0.6138366 -0.23629487 1.2512804 -0.015782963 0.71632063 0.5319338 0.31826195 0.15498212 -0.17210929
先 0.3580454 -0.074467465 0.39176744 0.52506316 -0.72862196 0.6569076 -0.31479707 0.5857306 0.39678198 -0.024984902 -0.39731786 0.25437218 -0.060097303 -0.27406123 0.013732131 0.13504294 0.16930547 -0.46681285 -0.4687403 0.6599618 -0.4406507 -0.005199309 -1.3314106 0.5232999 0.12641633 0.6752297 0.4488385 0.047847237 0.014906047 1.1319705 0.35721222 -0.102167696 -0.60179585 -0.58280885 0.7158306 -0.24925311 -0.047776658 0.019763105 0.4269008 0.077089034 0.2585627 -0.29166543 0.20723441 0.3622971 -0.5835198 -0.1366669 -0.35535046 0.29179627 -0.40600452 0.12915891
师 -0.18992911 0.58986396 -0.21229061 0.24898869 0.67915964 0.21284261 -0.10695238 0.3812611 -0.20653972 0.802786 0.21719125 0.7151974 -0.16967279 0.26405573 -0.033010446 0.8255008 -0.032110512 0.21973085 -0.39703673 -0.025335792 -0.15931785 -0.6204142 -0.28155723 0.98932046 -0.106809996 0.86949617 -0.6532415 0.29430264 0.22156186 0.16179171 0.33852214 -0.8384955 -0.5680483 -0.0026232162 -0.26740572 0.4361223 -0.33954328 -0.43739814 0.5388502 -0.5004049 -0.036364846 -0.14367723 -0.12881936 0.5908227 -1.016042 0.2169397 0.025019106 -0.17337178 -0.18505368 0.76676774
女 0.21820311 0.06438606 0.2916125 0.32047197 0.21090667 0.06999777 0.06348321 0.20699556 -0.17448308 -1.708436 -0.36271524 -0.24744415 0.22831415 -0.26528946 0.4166223 0.87760466 0.28196105 -0.21829842 -0.03682194 0.10128541 -0.083934516 0.8089174 0.1999622 0.32380515 0.30825493 0.3484075 -0.28986636 -0.5738876 0.36117294 0.17448118 0.4279672 0.3367805 -0.32218862 1.0285467 0.30200186 0.4903897 0.27174392 0.06820086 0.42020774 0.29727477 -0.30138022 -0.40442255 0.12856978 0.77585965 0.0060211425 0.19787066 -0.19087225 -0.1736675 -0.5756363 0.08279683
多 -0.26084507 0.5838898 0.97381854 0.6884734 0.67322654 0.94387555 -0.20698547 -0.32687262 -1.4577821 -0.3785754 -0.45504412 -0.122743264 0.606705 -0.82447344 0.15103604 0.3790799 -0.24380466 -0.44565746 -0.00038486347 -0.5811809 -0.20906141 -0.24629012 -0.53939855 0.35687324 0.065819055 0.020681964 -1.2379419 -0.7732116 0.42720282 -0.18532729 0.55179626 0.15507412 -0.9168087 -0.8188473 0.8502272 -0.3012452 0.73626035 0.026592627 0.01371119 -0.9379311 0.4238313 0.003406031 -0.66632926 0.98329306 0.72460467 0.2806114 -0.06620164 0.68542784 -0.1383003 0.033390883
忠 -0.7633527 0.70363396 0.5884692 0.0036579561 -0.46488485 0.6845973 -0.4083898 -0.038043562 0.23789304 0.52171665 -0.5752337 0.40227604 0.11523997 0.1576241 0.9359653 -0.8352611 0.16670947 1.5744679 0.009245464 0.42773917 0.63382214 0.37410447 -1.1284417 0.9059309 0.38814607 -0.16029757 -0.100477844 -0.15596896 -0.13734007 0.025889443 -0.29655576 -0.3976662 -0.78691113 -0.9404474 -0.40819764 0.076220505 -0.21990995 -0.46242708 0.11806327 -0.4648854 -0.14731468 0.5140498 -0.32063392 -0.38991496 0.6795564 0.022586653 0.40979868 0.7806203 -0.5029895 -0.53172374
四 0.34198752 0.3401498 0.11509888 0.45129627 0.5126889 -0.0345918 0.5829798 0.30001202 -0.08477724 -0.7474547 -0.20065506 1.1824529 0.26802924 0.29048124 0.23638365 -0.029741349 0.012956097 0.65257865 0.012353144 -0.72554976 -0.22864851 -0.023411784 -0.604436 0.40941477 0.47322768 -0.5963881 -0.14140044 0.5720766 -0.044668797 0.1544376 -0.5246782 -0.3676403 0.63454294 -0.047431435 -0.52084225 0.66041106 0.5267854 0.03856651 -0.10127519 0.5815442 -0.4675581 -0.22215638 -0.08636934 -0.62091047 -0.75018305 -0.7740934 -0.41733417 -0.64943826 -0.22910555 -0.006193872
疾 -0.20390552 -0.5998989 1.254451 0.32196882 0.30469704 -0.6622139 -0.2922873 -0.16848044 0.3425221 -0.2388598 -0.74384904 1.0017469 0.015551191 -0.21563114 0.88560903 0.11222243 -1.0248021 -0.10368611 1.3679185 0.121226445 -1.4017053 0.27213356 -1.1128452 -0.06318648 0.2720102 -0.24863136 -0.1752195 0.7731341 0.40071887 0.07850713 -0.050261833 -0.8492912 -0.028007854 -0.31893027 -0.46200922 -0.40206987 0.32551435 -0.10734536 0.010311948 -0.2150831 0.298196 -1.4579555 0.78409815 0.4693808 0.6734634 -0.07966672 0.1996604 -0.45001435 -0.047613736 -0.5113683
服 -1.5371282 -0.5997249 -0.47055563 -0.33504236 0.97458094 -0.0059590135 0.5576966 -0.003582634 0.42520684 0.37785307 0.94821775 -0.6041148 0.05813575 0.24949048 1.2358876 0.07575029 0.5406743 0.11215952 -0.506251 -0.7251848 -0.24620652 -0.2914826 0.90901 -0.26846558 -0.016832616 -0.46556294 -0.10222916 -0.3801166 -1.3312345 0.06173512 -0.7421664 -1.4155099 -0.47911364 0.7717162 0.030973896 -0.77325076 -0.5854624 -0.04811281 0.11246078 -0.64001447 0.002116576 -0.5168194 -0.96220934 -0.6127309 -0.109053604 -0.054087333 0.6748586 -0.22717257 0.43540424 -0.20180641
氏 0.17959861 -0.60730577 -0.8456422 0.3186918 -0.3225276 0.54075134 -0.65338326 -0.7379657 0.17904356 -0.46727255 0.3114502 0.50518066 -0.7599689 -0.36740822 4.1184947e-05 0.074452534 -0.06889829 0.34184277 -0.3688383 -0.50736374 -0.10000454 -0.40244204 0.17105496 1.0420332 0.0854033 -0.5759597 -0.38013795 -0.91215926 0.6926135 0.35234404 0.26589546 -0.48261437 -0.2330525 -0.03137656 0.18547285 -0.476553 0.5329818 -0.10989775 -0.25195733 0.13504225 0.7780171 0.25401 0.4551641 1.1557302 -0.34209067 -0.22840491 -0.05311995 -0.8440356 -1.1485822 -0.1819664
冉 -0.09052277 -0.5845266 -0.41838467 0.55110073 0.68352664 0.4540341 -0.37533754 0.48650122 -0.34761673 -0.2607676 -0.15290456 0.3086033 -0.5700893 -0.16148336 0.22970054 -0.6806758 0.6702818 0.045207493 0.3541031 0.7120812 -0.33382174 -0.14236484 -0.75626975 0.18001671 0.4745926 0.39018354 -0.27789682 -0.7753857 -0.37924615 -0.11142811 -0.63710165 -0.48220295 -0.4686883 0.84107566 0.9203152 -0.12553018 0.07222897 -0.9706034 0.6506674 -0.3530901 0.46526098 -0.04280437 0.07109415 1.2983478 -0.5983488 -0.92856616 -0.4000522 -0.08521245 -1.4399353 0.343058
将 1.0361589 0.48287 -0.15510976 0.4094006 0.5806102 -0.9139453 -0.8270341 0.06930691 0.39702848 -0.758814 -0.047849175 0.49609938 0.7071122 -0.012724515 0.21873972 -0.20614249 -1.0320642 -0.7706857 0.09783611 0.3177235 -0.33392206 0.013523042 -0.46752173 0.73780096 0.16809344 0.5901388 0.42456818 0.39735243 0.4356686 0.9866213 0.5923612 -0.3328977 -0.5623805 0.08258251 0.8389162 -0.8659793 -0.25355884 -0.4529985 -0.11785911 0.57705814 0.71408933 0.61446434 0.19413146 0.550517 -0.46765292 0.22213997 -0.15908223 -0.6608493 -0.37483558 -0.22472894
士 -0.40650162 -0.5356175 -0.418669 0.2862619 0.14177272 -0.81613636 0.7296871 0.33019784 0.6858693 -1.0573926 0.15000483 0.078374185 -0.42542154 -0.006529648 0.5642069 -0.25877544 0.10022271 0.14580813 -0.9826423 0.27412573 -0.29347757 -0.26584017 0.33611038 0.6040643 0.42616558 -0.0540062 -0.45210215 0.19170007 -0.09301037 -0.37436742 -0.34432426 -0.24819484 -0.7264789 -0.92208505 0.5167719 0.7195872 -0.07668646 0.16722067 0.8115454 -0.46004984 -1.0330939 -1.0367701 -0.21329708 0.570646 -0.03106625 0.2798366 0.013350802 -0.18300769 0.13118218 0.8094513
丘 0.5214658 -0.043857675 0.33206686 -0.25918552 -0.409024 -0.75450563 0.46211532 -0.058764137 -0.40913787 0.23002116 -0.17814045 -0.17685156 -0.07915637 0.5755972 1.0334253 -0.30916515 0.13603075 -0.31291106 -0.24718101 0.0008416739 0.3475005 0.5974827 0.7187781 0.70281214 -0.6412458 1.0321165 -0.3829982 0.13290016 0.78354585 -0.07898576 0.0057193656 0.30578893 -0.911397 -0.10484451 -0.6054458 0.9275073 -0.86359835 -0.65654105 0.74066573 -0.14063722 0.89915705 -0.51255614 -0.27054012 0.41608217 1.1934605 -0.40527794 -0.40333652 0.14097485 -0.8853472 0.14446028
身 0.85689193 -1.3662522 -0.7170636 0.13971117 -0.19485973 0.48851767 0.6635387 0.19945145 -0.4527703 0.048731558 -0.32780826 -0.23171256 1.3833004 0.30889824 0.106689215 -0.40437013 0.6281411 1.0829967 -0.40773028 -0.6287496 0.23220769 0.5950224 -0.46656865 -0.060542963 0.090769134 -0.4644612 0.040441476 -0.73809016 0.37978864 -1.2180524 -0.37153468 -0.07284993 -0.121273056 0.21866965 0.32567263 -0.14968511 0.048407227 0.05068702 0.3957164 -0.5641681 -0.6074157 -1.1885735 -0.49748167 -0.4175944 0.018157894 0.6176826 1.3149337 -0.34118629 -0.089419305 -0.81137294
入 -0.518749 -0.5315257 0.38615564 -0.24549966 0.46719107 0.6823831 -0.49063653 -0.54557997 0.3002989 -1.0360701 -0.32217786 0.062263228 0.42910627 -0.32633385 0.7273533 -0.07258082 -0.7197734 -0.64888763 -0.5806591 -0.53477615 -0.165872 -0.13310514 0.22189379 0.43413454 0.08238558 -0.31854385 -0.24131589 -0.20734753 -0.3269363 0.97540843 0.4229292 -0.69622725 0.32682982 -0.21378238 0.6548889 -0.29373646 -0.09386048 -0.25411075 0.27994356 1.1872028 -0.10141012 0.19167238 -0.1144434 0.41520405 -1.0384166 -0.91882545 0.05046022 -0.022414653 0.113018766 0.6783564
志 -0.47315523 -0.7130456 0.46396303 -0.037657045 -0.12651989 -0.5386113 0.77921027 -0.99688786 1.1185032 0.36599538 -1.0537745 0.007084262 -0.9829951 -0.103816785 0.2405391 -0.29697865 -0.22597197 -0.17305723 0.26425454 -0.41686502 -0.9292827 -0.7299607 -0.21102443 0.08557094 0.14724723 -0.6350653 0.70314246 0.58818376 0.500217 0.045022063 -0.20099346 -0.38165984 -0.116514236 0.026166711 0.68437093 0.47017163 -0.049398985 -0.31042314 0.17987773 0.31200713 -0.47714475 -0.12585531 -0.22356059 -0.44420767 -0.6204316 0.18435702 0.087303735 0.023839973 -0.2782909 -0.10435429
耻 0.31842482 -0.45440036 1.0510392 -0.010441538 0.009905314 -0.07644013 -0.12647307 0.016357848 0.13842773 -0.50686777 -0.34519482 0.59226614 -0.37036452 0.49366972 0.27157375 0.38489604 -0.26875734 1.1331227 -0.025471192 -0.5965406 -0.35217524 -0.9780309 0.4970227 -0.8380089 -0.106535 0.47187385 0.42342827 0.601533 -0.90704435 1.4874933 0.037530463 0.3163092 -0.7754764 -0.8505897 0.07367286 -0.93871754 0.5905673 -0.17037095 -0.89319754 -0.43393084 -0.57271403 -0.14566122 -1.570125 1.8116064 1.1880124 0.5564057 0.66519815 0.42591438 0.3190199 -0.25571293
失 0.41114658 0.18890263 -0.16156231 -0.11164976 -0.95698065 0.5633656 -0.4943814 -0.5974237 0.1151102 0.4160012 -0.022931304 0.029359663 0.36958763 0.9108269 0.29647428 -0.21725944 0.047145355 0.104403764 -0.6410495 -0.6841932 -0.07108696 0.34003985 -0.3420905 0.452034 0.35276863 -1.2373271 0.76900166 -0.66886806 0.50708383 -0.59121346 0.016765349 0.81268865 -0.044880796 -0.5701851 -0.48098105 -0.22222672 -0.120248176 -0.067020044 -0.23990834 0.5397792 0.44927695 -0.86951476 -0.65544367 -0.49307165 -0.117194384 0.6167317 -0.6692075 -0.39713147 0.0022762152 0.050648957
安 -1.0572412 -0.11604174 -0.35734075 0.007279185 0.3776688 -0.21865577 0.350272 0.3791117 0.13364652 0.38765198 0.19661374 0.8056435 0.14829288 0.49614865 0.7321667 0.9395098 -0.6440289 0.6513747 -0.7686704 -0.51728153 -0.13779925 0.06753239 0.27370518 0.47523212 -0.24730958 0.83340406 0.009259472 0.11368408 0.28807312 -0.50047094 1.0777549 0.8134895 -0.45463374 0.87410694 0.053757798 0.51083416 -0.37767553 -0.14555287 0.66701704 0.5444383 -0.43458474 0.27521053 -0.24768716 0.38838837 0.25521538 0.36180863 -0.85081047 -0.62445825 0.3321982 0.11696522
富 -0.6665403 -0.12942559 -0.013948147 0.86181045 -0.48974243 0.42994404 -0.17374834 -0.7887538 -0.23615707 -0.11257844 0.79923135 0.3130578 -0.36359382 0.12603281 0.3085807 0.3442098 0.085869 -0.09937375 -0.8142983 -0.21315485 0.20294099 0.06589685 -0.41983816 0.43948755 0.090204656 -0.74530107 -0.42263064 0.42870528 0.24190336 -0.15015008 0.6996842 0.85307384 0.10387045 -0.122355 0.08526189 -0.42823103 0.5107694 -0.23972984 0.43110448 0.5744792 -0.16888389 0.08549668 0.0040889955 0.50667614 0.2974367 0.54259735 0.34456125 0.12982063 0.023860466 -0.8358429
赐 0.40999496 0.7427448 0.38200006 0.672125 0.51174474 -0.18172248 0.47068357 -0.35055202 0.33113113 -0.104738384 0.017675828 0.6236089 -0.5792752 -0.27195126 0.3532809 -0.2383567 -0.3523832 -1.399669 0.027061474 -0.5903821 0.7987274 -0.20069475 0.24022484 0.32815754 -0.30434486 -1.1403561 -0.2255787 0.05240584 -0.16817671 0.14526735 0.36660662 -0.38791734 0.030827548 -0.672301 1.0249112 -0.25815788 0.5258976 0.45590302 1.2627014 -0.14098537 -0.39801422 -0.2596325 -0.2060739 1.1854098 0.9553048 -0.4603199 -0.29498863 0.7281044 0.050252695 0.2766293
患 -0.33386624 -0.3686177 0.2604451 0.057870034 0.12369859 -0.40355638 -0.4922364 1.1144332 -0.26260996 0.76920396 -1.0432018 -0.4188209 -0.45801973 0.5025275 0.8834844 0.14966413 -0.16025895 -0.27336305 -0.49243027 -0.082264446 0.26268527 -0.36939213 0.51247025 -0.040759113 0.52800894 -0.3196068 -0.010471663 -1.1218578 0.5289035 0.03947868 0.2716223 0.11657572 -0.6510777 -0.44127735 0.16782366 -0.075693674 0.34923518 -0.8507051 0.7824429 1.1323264 0.71435547 -0.041553102 -1.7435737 -0.25809565 -0.31369603 0.46711716 0.069432124 -0.07170626 -0.45839036 0.16080211
百 -0.5377631 0.005345079 -0.8435395 0.27249938 0.05676947 0.31656036 1.2097332 -0.05500736 0.20357724 0.49206087 0.12649758 1.5077517 -0.6043765 -0.3740183 0.2697861 0.269129 0.5249405 0.86254466 -0.45812795 -0.7710264 0.15917523 0.27626887 -0.5925904 1.0556861 0.9872534 0.078702725 -0.1945808 0.5737822 0.18675618 0.22105664 -0.039285984 0.18291207 0.8432337 -0.784112 -0.4080821 -0.59304065 -0.56509054 -0.6263779 0.18627243 -0.058355484 0.9323809 -0.012511438 0.2283674 0.2823107 0.19704968 -0.04094384 -0.05437556 -0.33359846 -0.13508274 -0.61400497
回 0.64781934 0.64403814 -0.68296933 -0.45127305 -0.25721776 -0.05895624 0.21402696 -0.28236195 -0.30398118 -0.059925217 -0.29521638 -0.43237203 -0.7723377 -0.17974038 0.27867183 -0.92540926 -0.5023869 0.4741413 0.048624523 0.73068476 -0.19428217 -0.5178839 -0.043777093 0.5113326 0.5833627 0.4309984 0.2506382 -0.4908923 0.47173178 -0.049206622 0.4137028 -0.465874 0.107658274 1.048201 1.1401179 -0.28722027 -0.1371175 1.6228812 1.5393283 -0.14438179 0.13796504 -1.0301379 -0.37628126 0.47760546 0.83497304 -0.4374783 0.09536409 0.017039288 -0.26701486 0.034931906
宰 0.3016376 0.38876832 -0.2530019 0.60134876 0.24184772 0.7068214 -0.39194217 -0.191216 -0.2539147 0.72899616 -0.8609081 0.14727509 0.066016465 0.249852 0.27561438 1.1593733 0.760341 -0.07666891 -0.15989386 0.65657437 -0.27535722 -0.54598916 0.8640218 0.933822 -0.04100691 0.31462762 -0.19845971 -0.0647563 0.1839251 1.1509775 1.08974 0.2729089 -0.033608135 -0.034133203 -1.5401963 -0.23520982 0.23783992 -0.16021448 0.81505144 -0.31117237 1.1616818 0.7523329 -0.6303569 0.3177403 0.3194445 -1.0278163 -0.035439704 -0.10936009 -1.3129973 0.83491737
朝 -0.29789203 -0.43491465 -0.20819567 -0.31786022 0.48789144 0.6730054 0.9280238 -0.18264146 -0.010012266 0.29286918 -0.17649566 0.3732663 -0.3321146 0.17444287 0.48165974 0.1671015 0.25073943 -0.39125273 -0.07168874 -0.80563325 -0.698292 -1.1179309 0.626039 0.2780587 -0.49921256 -0.8906078 0.38521916 1.1771562 0.04768347 0.034132175 0.085680224 -0.79843706 -0.23261966 -0.013093897 -0.19021523 0.3041761 0.19481641 -0.400722 0.42710668 -0.18332207 0.55944973 0.26745737 -0.7803341 -0.39747378 0.30153918 -0.83178353 -0.69459647 -0.37137932 -0.8533266 -1.5132138
莫 0.039027166 0.63374436 -0.12188266 -0.44835103 -0.03937315 0.3865474 -0.4859341 0.33176497 0.3234513 -0.50274616 -1.1054478 0.49502286 0.06801915 0.5384963 0.82795817 0.3400534 0.24836932 -0.46363562 0.62115335 -0.2745397 0.23078363 0.1252315 -0.18365383 -0.75883424 -0.6063061 -0.8585563 -0.0020666467 0.18793015 0.06572953 -1.0806818 0.5229184 -0.10225473 -1.0479405 0.47585252 -0.3986356 -0.83701086 0.8682698 0.7819509 0.20179424 0.34426492 -0.60929686 0.24923387 -0.8221035 -0.94475776 -0.20448716 0.14982429 0.25693458 -0.068636045 -0.68303525 0.27823257
若 -0.027361859 -0.39643395 -0.26253343 -0.11498844 0.1913463 -0.41345775 -0.9263531 -0.16381072 -0.13987337 -0.96108526 0.33807477 0.058844827 0.68507725 -0.08119721 0.5863434 -0.17302771 0.08520089 -0.25372764 -0.48898774 -0.3082809 -0.03257001 -0.06941317 -0.37396613 0.03635799 -0.082132965 -0.006244896 -0.6978292 -0.25626943 0.607021 0.36540532 -0.39685208 0.022952454 -0.29266322 0.3533056 0.12582894 1.057273 0.74931514 -0.6692679 0.80945706 0.26209623 -0.6848465 -1.0369817 -3.7789927e-05 0.27909324 0.120924175 0.31019512 0.35156095 -0.502847 -0.20508577 -0.23993525
云 0.070344225 0.9608456 0.69981915 -0.039309226 -0.3643128 0.14278375 -0.5759266 0.0077263224 -0.24809095 -0.5841104 0.33713967 -0.23635584 -0.19460022 0.782197 0.28603366 -0.056900144 0.10696454 -0.17963517 -0.11656957 -0.18674076 1.1343936 0.111773096 -0.38623112 0.008115123 -0.73101497 0.5666658 -0.94761413 1.2791619 -1.8160256 -0.32273886 0.13366373 -0.7987636 -0.46911332 0.21069217 -0.14272234 0.42425177 0.33663648 0.50837636 1.1122477 1.0156764 0.3546831 -1.034011 -0.4022964 -0.419751 -0.036465727 -0.33569977 -0.7344157 -0.8464469 -1.0957032 0.111155145
孙 -0.72418517 0.12887396 0.15241952 -0.37327623 0.21604425 -0.046103377 -0.6700201 0.9635524 0.6641356 0.15972364 -0.33391908 -0.33696145 0.49077195 0.0035124123 0.27128762 0.3226014 -0.24901381 0.15454814 0.48190802 -0.7159095 -0.6656681 0.19588411 -0.18477854 0.49202535 -0.66277224 0.7791797 0.47004813 -1.1637136 -0.29520905 0.960773 -0.5478123 -0.6605961 -0.16805217 0.89249396 -0.52595073 0.27560014 -0.2295779 0.12689905 0.13261805 -0.2554697 -0.4636949 -0.44816172 -0.24481334 0.49038014 -1.0074792 -0.41320208 0.164388 -0.44169062 -0.8067874 -0.15063106
或 -0.33580792 0.6020335 0.41757262 0.24109562 0.17388354 0.038989183 -1.3087134 -0.50134623 -0.121456146 -0.054735772 0.5943159 -0.13046423 0.5209602 0.9330103 -0.32702303 -0.57042646 0.38096857 -0.76770335 -0.97905356 -0.63940203 1.1086944 0.7261909 0.95317125 0.19559728 0.50908506 0.7167378 0.35058033 0.20234017 0.37911698 0.26267326 0.025804024 0.32589212 -0.71337634 0.22619113 0.070019126 -0.42192408 -0.045223482 0.18999213 0.44437426 0.054118015 0.21135314 -0.5600439 0.08146508 1.7133352 0.71206045 -0.3271886 0.07703888 0.05414046 -0.72204775 0.6449897
勇 -0.260943 0.7624541 0.10092438 0.030449757 0.061188024 0.31837815 -0.4150008 0.8683895 0.2030259 -0.10607221 0.30299023 0.35504422 -0.12939729 -0.045445435 0.7648361 -0.081788294 0.46833047 -0.48899984 1.0244954 -0.9382244 -0.15395428 0.24600004 -0.1388144 -0.13970089 -0.57699084 -0.8383359 -0.08721684 -1.1460114 -0.36827588 -0.020796718 0.22033058 0.18524674 -0.4765642 1.0666255 0.76154035 -0.14004867 0.44814897 -0.4610438 0.08580564 -0.1121881 0.19278973 -0.32297355 -0.3971344 0.29860437 -0.27622142 0.24914496 0.1924765 0.18719402 -0.16366012 -0.43622267
