1352 50
， 0.22669157 -0.07475771 -0.30342206 -0.44165188 0.04709633 0.40331066 0.03900949 0.4132967 -0.09054919 -1.4866935 -0.11278235 0.096860036 0.7144325 0.28501913 -0.27628034 -0.1823439 -0.8244794 0.70929426 -0.18978342 0.18687089 0.3661397 -0.075098336 -0.09175793 0.04416719 -0.4309082 -0.14170726 0.2520204 -0.13359854 0.3007145 -0.41873893 0.118259296 0.011435786 0.07355184 -0.08931146 0.15470427 0.5682586 0.28292963 -0.16749187 0.3348556 -1.1283149 0.32524377 -0.2988741 -0.15902522 0.22389719 0.5341511 -0.10724347 0.22422355 -0.54851824 0.0758203 -0.0152650345
子 0.013085541 -0.06525882 -0.75758195 -0.08098374 0.56873286 0.7701599 -0.665484 0.5114194 -0.3725103 0.10953114 0.6678383 0.5261268 0.34365532 0.014125821 -0.86024547 0.36135277 -0.14607419 0.80351776 -0.33056724 0.5444963 0.9477371 -0.6371774 0.5355539 -0.33020505 -0.3577858 -0.558758 0.6443963 -0.40878972 0.29419765 -0.165114 0.3332648 -0.29654664 0.30673507 -0.8993674 0.4448671 0.21874799 -0.33806896 -0.07774179 0.6451455 -1.428962 0.36757538 -0.32394898 -1.604095 -0.38851002 -0.29336163 -0.3493421 0.050411575 -0.3696121 -0.7150927 -0.534392
。 1.2568134 0.7567494 -0.052154403 -0.5619955 0.05799601 0.5956654 -0.8530229 1.0222291 0.73475283 2.5204327 1.0167145 -1.8081676 1.4286792 -1.4888602 -0.6591732 -0.8316577 -0.21558638 2.5607405 -1.3718758 0.16175395 1.1359459 0.09906943 0.7414103 -1.1909978 -1.47304 -0.8317107 1.1631781 -0.44366795 0.8220369 -0.5377748 0.32485744 -0.68481135 1.8403789 -1.0890285 1.0849677 1.3729264 -1.2546642 -0.32312298 0.53333753 -1.4411854 0.802704 -1.2075884 2.2447972 -1.0299196 0.32070976 -0.42213705 0.88219064 -0.92579913 2.2341506 0.1342576
： -0.004697948 0.7564858 -0.1703198 -0.18287967 0.53005624 -0.064445555 -0.90748876 -0.73604786 0.43254644 -0.34521675 0.5907719 -1.1342132 0.79227084 0.49662152 -0.037088033 -0.616399 -0.50547385 -2.4182434 -0.780981 1.1238713 0.8549 -0.72521585 1.0343753 -0.6516628 -0.5271678 -0.41885275 1.1267972 -0.4595339 0.56349826 -1.070053 0.021776086 -0.9722588 -0.8330292 -0.9502541 0.92811036 0.7105753 -0.45788792 -0.57208765 0.51281315 -0.387066 0.82896554 -0.7570147 -2.1731007 -0.53301775 0.7205591 -1.0459026 0.8604771 -1.4049991 -0.60218644 -1.0798955
曰 0.60005206 0.8801291 -1.0786332 -1.0061498 1.0382951 -0.950447 -0.5167567 0.24775709 0.3647363 -1.2364838 0.98597133 2.1275916 0.9914966 -0.5730004 -1.3214409 -0.6559665 -0.53653175 -0.71857953 -0.9222634 0.95681345 0.9337812 -0.85399276 0.7011684 -0.46440315 0.6134243 -0.8769562 0.7982815 -0.42252147 0.24199887 -1.1330906 0.98834723 -0.8306599 -1.0026482 -1.0185182 0.9892142 0.6104232 -0.4106692 -0.98157316 0.40937233 0.9876709 0.5274307 -1.0699074 -1.1175017 -0.77755255 -0.45730007 -1.1155664 0.09204864 -1.1292707 -0.10210188 -1.0581665
之 0.01465811 -0.0017762374 -0.011895513 -0.019098809 0.00241127 -0.013678958 0.01593454 0.009292633 -0.0119022345 -0.015266078 -0.005707598 -0.019862961 0.016002152 -0.013954973 -0.018957496 -0.0027665757 -0.0121408915 -0.01923942 -0.0196528 0.018782072 0.008733668 0.016907137 0.013218626 0.011707795 0.007948117 0.013610661 -0.011189475 -0.013770168 0.013255474 -0.012181146 -0.00937911 -0.008333459 -0.0012349057 0.0005249953 0.014264624 0.014341066 -0.016278377 -0.015483274 0.0019921064 -0.008553348 -0.00788825 -0.0028648423 0.0057170964 0.009269733 0.006483924 0.010980802 0.017490327 0.007591889 0.009141349 -0.010923809
不 0.37499383 0.0031967363 -0.4971081 -0.57118165 0.54115194 0.44444817 0.20245984 0.32047895 0.13910581 -1.2885816 0.31373703 0.7021364 0.121269055 -0.28428194 -0.6981774 -0.15335698 -0.28394875 0.71542585 -0.06066324 0.5147577 0.5611337 -0.12440115 0.38793394 -0.15806668 -0.32166246 -0.42850012 0.115752466 -0.25595465 0.28233927 -0.28699282 0.52958447 -0.39242625 0.33029333 -0.70132554 0.19729973 0.15107629 -0.19313696 -0.51441836 0.47854373 -0.5063428 0.4273422 -0.45527533 -0.8668685 -0.31457287 0.06814246 -0.6912309 0.21704105 -0.26166707 -1.1218599 -0.7035462
也 0.20211285 0.2662742 -0.68360376 0.09283366 0.5610371 1.2156687 -0.5291793 -0.079853244 0.13613065 -0.050313763 0.21528511 -0.195879 -0.08827691 -0.014965281 -0.60469145 -0.19916259 -0.3730885 0.7654935 -0.20309027 0.728973 0.65317327 -0.7820379 0.74770665 -0.33123 -0.16678222 -0.5675168 0.5805723 -0.36101496 0.36920682 -0.3448704 0.39918572 -0.50085044 0.27000967 -0.75964284 0.30387363 0.21657118 -0.42840332 -0.30040443 0.69952744 -1.0067331 0.45500284 -0.2582216 0.6113015 -0.46115822 0.4483111 -0.5951482 0.10192927 -0.30805603 0.011490087 -0.8050987
而 -0.0123351235 0.0145155 -0.0032679914 -0.0032227922 0.0034511564 -0.014006578 0.01433139 0.013562336 0.010000801 -0.0016344452 -0.006681509 -0.009434318 -0.007120089 -0.016620016 0.0072251484 0.010172303 0.013909583 0.001369543 0.015526035 0.012922602 -0.015097761 -0.01002605 -0.0077786753 0.008134715 -0.000107457636 -0.0049287793 0.018187756 0.012133719 0.019567842 0.00047205447 -0.0067323158 -0.0057606483 -0.0076493975 -0.011811175 -0.01945258 0.00947026 -0.009065272 -0.004904735 0.01650692 -0.0014207172 0.007109153 -0.0116948625 0.0034508347 0.011662092 0.006482241 -0.011693044 0.018132962 0.004142325 0.0027131867 -0.0027286552
？ -0.009678289 0.01868513 -0.011514029 -0.019845204 -0.009547491 0.013920526 0.0054111434 0.016393881 0.0056089065 0.019043729 -0.009549019 -0.009354903 0.00293792 0.008568246 -0.001702187 0.0036238406 -0.019006722 0.011795497 -0.016104907 0.011638408 -0.014835167 -0.0073854923 -0.009641197 -0.015178652 0.004386747 0.0053699133 0.015677419 0.013583419 -0.0035708211 0.011278961 -0.0018303895 0.014052426 0.008422008 -0.0022868274 0.011276536 0.010917925 0.014636416 -0.017288322 0.0148878805 0.007043633 -0.011827733 0.009225147 0.01810099 0.019246137 0.017895984 -0.011741874 0.0062676645 -0.0155135915 0.0112042185 0.00510699
其 0.0063558314 0.004405935 -0.014582736 -0.0094695855 -0.01873857 0.013734145 -0.011936259 -0.014712627 -0.009548762 0.012329037 -0.011952937 -0.00023413419 0.005284419 -0.017821535 0.0025193952 0.0063985656 -0.009890642 0.0016410088 -0.00258281 0.005046787 0.0050944826 -0.01034343 -0.017547049 0.011235118 0.005434556 -0.007971241 -0.009503603 0.009000494 -0.015388255 0.012034265 0.004875443 0.018593077 -0.01626641 0.0016380381 -0.0054909037 0.01363177 0.015805213 0.015616064 -0.008865017 0.01249196 0.012032704 -0.008121154 0.012895107 0.0039511034 -0.010982523 0.0064718435 0.01457314 -0.018625697 0.019712683 0.019480094
人 0.9631525 0.615129 -1.155088 -1.1216389 0.43631563 0.17367439 -1.0300525 0.29007828 0.6686819 1.3202487 0.6423238 -0.7932761 1.1792203 -0.8099421 -1.1943277 -1.1420395 -0.5845705 -0.054421417 -1.1406724 0.3168095 0.91841525 -1.0982871 0.94008917 -0.76698345 0.2960709 -0.958737 1.2955403 -0.7806323 0.82365346 -1.1279352 0.77264977 -0.81996435 0.40539515 -1.2228838 0.81771195 1.0845721 -0.8326687 -0.6587717 0.93440974 -0.5609242 1.194322 -0.9557897 2.6834352 -0.8157751 0.6887271 -0.78746146 0.8032852 -1.03024 2.2351391 -0.731075
者 -0.0012717461 -0.014150664 -0.009712345 0.017521942 -0.014792199 -0.008808956 0.01256213 0.008921146 -0.0050703427 -0.0017920303 0.0030178046 0.0059038806 -0.0059589744 -0.0014726209 -0.011652742 0.017530823 -0.019453837 0.008022516 0.01555962 -0.0065559624 -0.0101355435 -0.007124522 -0.01904749 -0.018735442 0.014471872 0.0004873657 -0.013643514 0.016237408 0.0030102395 -0.004035592 0.0032235717 0.01069788 -0.0021708368 -0.007169435 -0.011253197 -8.6865424e-05 0.013491061 -0.01316335 -0.019002028 0.012439069 0.013165653 -0.008668947 0.0031144333 -0.0011966681 -0.019146774 0.007439158 0.015141715 -0.014870801 -0.010446391 -0.0031550217
以 0.3242945 0.35027885 -1.0200192 -0.5144112 0.8024093 1.0749292 -0.30823728 0.75530463 0.28699172 0.52532864 0.6369507 0.43270418 0.34313414 -0.21536179 -0.9835194 -0.045214184 -0.80643016 0.8253597 -0.30449513 0.66610914 0.7226332 -0.6231175 0.37715814 -0.33031553 -0.40720415 -0.59193313 0.36960885 -0.45884812 0.42668024 -0.3925748 0.90369606 -0.3957937 0.697169 -0.55952364 0.33374554 0.32857043 -0.2943297 -0.53236187 0.7100116 -1.4727738 0.17156397 -0.5469659 -1.0063409 -0.6133046 0.070335984 -0.6569084 0.0104738595 -0.1739137 -0.09485371 -0.72034824
有 -0.01652893 0.0023647402 0.019289507 0.011465275 0.0049508857 -0.0095832795 0.0076321075 -0.004750206 0.0040261075 -0.013318736 0.0034089112 0.010666861 0.0033936023 0.013916478 -0.0045566484 0.008898511 0.0036406135 -0.011386323 0.016511716 0.017816698 -0.0037765908 0.011775231 0.0012997246 -0.0007907271 -0.00391927 -0.0077220583 -0.0125792 -0.016642766 -0.0153461695 -0.019995496 0.0058412477 -0.002548065 0.019586487 -0.011385693 0.0038466072 -0.018721377 0.015553979 0.014129798 0.008776521 -0.013070866 -0.005278537 0.004507618 0.019374985 0.008938682 -0.006232316 0.0040764688 0.000172081 -0.012791857 0.015122837 0.00019031286
于 0.0028886104 -0.016401762 -0.012981806 -0.01084872 -0.009156611 -0.0075667854 0.008357391 0.0026651549 -0.018911662 0.01848495 0.0054317783 0.016995179 0.006459377 0.008692639 0.018581338 0.01995449 0.0105909705 -0.012197916 -0.0141099375 -0.0016799306 -0.0026032138 -0.009024429 -0.008134773 0.009145398 0.006652968 0.01505275 -0.0055539273 0.01981697 0.012028138 -0.0066526053 0.0037063407 -0.0055028033 0.0032112335 0.008949191 -0.019714396 -0.003118956 -0.007039168 0.004950871 -0.016092464 0.012450263 -0.004705312 0.016702306 0.00023555756 -0.0014379477 0.018782305 0.01561429 0.018086804 0.013219075 0.007107918 0.0042690895
矣 0.0114066005 0.0081022885 -0.01345541 -0.010417376 -0.0072979783 -0.009949734 0.017433167 0.009905274 0.007137084 0.0057474016 -0.019669 -0.0054557654 0.008363285 0.015518005 -0.003789501 0.008344719 0.01712272 -0.0023471473 0.012878241 0.019844659 -0.016287683 0.018546073 -0.014020686 0.004630773 0.0063947104 0.015510706 0.009967026 -0.016533308 0.018384635 0.0016071558 0.0074730515 0.0032851314 -0.013937163 -0.018572252 0.012175267 -0.0026049374 0.011932881 -0.012269838 0.008845863 0.019426843 -0.0019976378 -0.017272672 -0.00023049116 0.0155389905 -0.0011463832 -0.0077739856 0.01400654 -0.012977912 -0.015943514 -0.0050117206
为 0.16733164 0.2812596 -0.9334887 -0.9010131 0.8360099 0.32527736 -0.010269337 0.3071212 0.31388247 -0.65314513 0.05375679 1.5481715 -0.058511514 0.5967862 -0.27948698 -0.7137228 -0.79311186 0.6216169 -0.08591823 0.71246076 0.2993768 -0.74556607 0.4056277 -0.08844365 0.082246825 -0.5367923 0.36775076 -0.5573121 0.4051977 -0.67730767 0.71076506 -0.5666733 -0.112471685 -0.44104436 0.19890831 0.16485846 0.24757896 -0.75386745 0.7968201 -1.7171967 0.64410245 -0.066323906 -0.93077147 0.0044781636 0.3781607 -0.78183264 0.32690373 -0.38693646 0.4676974 -0.8944851
君 0.6194021 0.41058847 -0.539765 -0.45704955 0.49541208 0.407991 -0.11929269 0.054559864 0.75071317 -0.63338864 0.042548552 -0.016921772 0.112865575 -0.36997518 0.11038823 -0.8861431 -0.539993 0.9633895 -0.35714245 0.5440179 -0.003796143 -0.36443058 0.45674875 -0.3141313 0.34956312 -0.5058654 0.37084582 -0.32412818 0.3340774 -0.59989035 0.4233691 -0.5505902 0.70967484 -0.24803336 0.3987223 0.24309424 -0.53269315 -0.7396448 0.33445343 -1.3534794 0.24006194 -0.29724082 0.4537587 -0.444673 0.3834017 -0.43498397 0.4861297 -0.1911094 -1.2464998 -0.3723243
乎 0.0014123057 0.011349909 0.019867765 -0.014694381 -0.009596994 0.002993667 0.013320613 0.0061410284 -0.009304053 -0.00088868855 0.0092275925 -0.014798452 0.008615181 -0.008205623 -0.0040847943 -0.007717638 -0.018068999 -0.016318537 0.005378387 -0.0018824291 0.007272715 0.0039930865 0.007872707 -0.0124099655 -0.006678357 -0.005104804 0.00934494 -0.00616693 0.0127930045 -0.010012696 0.011786718 0.0062044356 -0.005551534 0.013358989 -0.010653629 0.0033317637 -0.01629387 -0.016529424 -0.007163994 -0.016328406 0.01881028 0.008381477 -0.009951755 0.00044924972 0.016914267 0.006465709 0.0034964345 0.012288604 0.016936893 -0.015394124
可 0.007766597 0.0014940118 -0.006773002 -0.00918895 0.014973266 -0.0067408034 0.017508566 0.009569781 0.017909834 0.0132245915 0.0103995865 -0.00085274933 0.01245748 -0.005194473 0.013203332 0.005796349 0.008454003 0.010761289 0.012127621 0.012916817 -0.010659151 0.0066223475 0.0076315044 0.006619675 0.0052914354 -0.002031567 0.0056111002 -0.01928197 -0.0016226578 0.005864255 0.01446038 0.0032296514 -0.0071248435 0.018522888 -0.018977348 -0.009677412 0.00024142026 0.01933081 -0.015792748 0.0110893175 -0.008821917 -0.009446123 -0.008742728 0.0034753655 -0.009989974 -0.0039106417 -0.0031110526 -0.009822385 0.011452067 9.099245e-05
如 -0.005409567 0.0009992742 -0.00013804197 -0.0009890699 0.0132291 -0.0024772119 -0.009586568 -0.010851194 -0.0006506729 0.005459442 0.0012608314 0.01641348 0.010386851 -0.01293251 0.010799241 -0.0032321475 0.012736654 -0.0041381787 0.014636645 -0.013315696 0.010094687 0.0045249984 0.012859876 -0.019040955 -0.008475993 -0.009742813 -0.011341286 -0.005516779 -0.0151900975 0.000532124 -0.0008433485 0.010186627 0.008946614 -0.0068756863 0.0034846687 0.0019253778 0.012794478 0.0012644362 0.00511209 0.017002406 -0.014190824 0.0015202045 0.010506074 -0.012009763 -0.019311061 -0.019433897 -0.007378666 0.0022033262 0.010650236 0.0066525815
与 0.013616316 0.016394172 0.012906677 -0.0010509872 0.016772477 -0.013257479 0.018999677 0.0050580357 -0.0031811928 0.011955008 0.00174047 0.006113126 -0.0021060251 -4.627943e-05 0.008936887 -0.0048428914 0.006840579 0.013411777 -0.0053129504 0.003091588 -0.012139565 -0.009984651 0.0008682179 -0.01925369 -0.009412148 -0.016555956 -0.019575886 -0.0035199046 -0.002535038 -0.017071439 -0.015160246 0.01650147 0.0014122295 -0.010416362 0.002499621 -0.011960899 -0.013244378 -0.017001927 -0.016904185 0.0023053526 -0.005347297 -0.008989756 -0.010892465 -0.013371782 0.011079361 0.010894641 0.014612877 0.006496892 -0.019466298 -0.018530976
； 0.3569516 0.11399195 -0.35163578 -0.07859136 0.22450295 0.40933582 -0.44309443 0.19676255 0.38819075 1.0451511 0.25352815 -0.19214235 0.38015044 -0.08414625 0.04477772 -0.50955135 -0.55382025 0.812089 -0.32386184 0.6036519 0.38297746 -0.4142668 0.48180774 -0.25094524 -0.2547868 -0.34335554 0.56935334 -0.07021646 0.37735626 -0.4294943 0.21573912 -0.47576872 0.11565958 -0.38679546 0.44630212 0.46519288 -0.24615446 -0.5409943 0.25865144 -1.3055688 0.35433027 -0.07618109 -1.1116682 -0.020624558 0.37989625 -0.3133229 0.44565797 -0.54456556 0.15297924 -0.339964
言 0.5981889 0.67587435 -0.5145216 -0.52613825 0.72065485 0.18378867 -0.7295253 0.6978058 0.74669755 1.162066 0.7327173 -0.92393655 0.46674183 -0.77252084 -0.47926635 -0.74884665 -0.40271991 -0.23658186 -0.72285897 0.529309 0.38867664 -0.6432817 0.64697564 -0.7065083 -0.76305276 -0.6245447 0.54358125 -0.7602973 0.6735254 -0.5444348 0.59425986 -0.6722113 0.89319974 -0.44926748 0.73180103 0.59683806 -0.7659179 -0.67450213 0.51355404 -0.13307044 0.6564006 -0.4573159 0.09284429 -0.6634166 0.62350845 -0.42555147 0.8524628 -0.55863154 -0.18121658 -0.5273992
无 0.4747284 0.2737892 -0.9073305 -0.34150013 0.57122827 1.7010123 -0.12967964 0.4392133 0.68582004 -1.2356981 0.3934642 -0.22518656 0.31344497 -0.6139151 -0.8473347 -0.51813966 -1.0517168 -0.7906599 -0.24157642 0.68340254 0.31442595 -0.3281054 0.20265545 -0.10497464 -0.27375972 -0.50565004 -0.13169374 -0.30238524 0.5466408 -0.61752874 0.738895 -0.28958791 0.8035007 -0.08128706 0.39829722 0.45843905 -0.16530176 -0.6229203 0.49708733 -1.4120438 -0.01575124 -0.57638043 -1.0137641 -0.52462935 0.6866693 -0.3845012 0.21289869 -0.23191896 0.16516311 -0.19311817
则 -0.014193766 0.01667571 0.0023820256 0.010952196 0.011838047 -0.009125392 -0.007383685 -0.008354013 0.00015420197 0.005052769 -0.0098650735 0.010621719 -0.007920463 0.0046889326 -0.008669202 -0.014109054 0.013132594 -0.017564718 0.017342985 -0.003975954 -0.014971299 -0.01643374 -0.015397141 0.017343938 -0.013654241 0.00909662 -0.010446278 -0.008078381 0.018364394 -4.9340724e-05 -0.017134823 0.017682368 0.013949434 -0.01249434 -0.016421277 -0.015129599 -0.016660476 0.01692555 -0.003504498 0.00336478 -0.017250877 -0.016125944 0.0020524524 -0.002636373 -0.014024822 -0.009103603 0.018401051 0.019921806 -0.0016276645 0.0141911125
！ -0.009959762 -0.004455254 0.0056231236 -0.008525243 -0.011375394 -0.006838357 0.016460437 -0.014009008 0.0020301247 0.018752344 0.017910434 -0.015010357 0.010505223 -0.0024314737 0.0027867625 0.011400799 -0.0026869965 0.0011349225 -0.017886452 -0.006086235 -0.01609334 0.010089914 0.017742068 0.010996382 -0.0036607645 -0.009959297 0.01089294 -0.018884806 0.016743204 -0.003636496 0.011408658 -0.014039695 -0.007465987 0.015176837 -0.016164303 0.005137007 0.0010241937 0.00043235777 -0.01496269 -0.009566612 -0.006806085 0.0038447618 0.014817137 0.0019522762 0.0042139743 -0.0072067166 0.0041336105 -0.004165623 0.0010606289 -0.0037828921
问 0.019774862 -0.0075101014 -0.012093391 0.0026180171 0.0036658214 -0.008264422 0.004190681 0.01803174 -0.0140121095 -0.015287418 0.00090610265 -0.014661123 -0.011283514 0.0010710454 -0.015801096 -0.0076729464 -0.015760932 0.005850601 0.0015132022 -0.0037447475 0.018707676 -0.004585154 0.0021643757 0.01804267 0.0043749358 -0.015998986 0.008643455 0.012950034 0.0041249753 -0.01384886 -0.008704025 -0.007837038 -0.0019259023 0.0053455136 0.0025749397 -0.0020072889 -0.004415512 0.010437476 0.018058142 -0.013881652 0.0110142585 -0.013541303 -0.013980782 -0.018901084 0.00017003297 0.00089188333 -0.0052600265 0.008042147 -0.00618612 0.004217236
知 0.25918818 0.08299579 -0.16267319 -0.45675832 0.18205595 1.0995575 -0.4088642 0.43444586 0.1701657 0.7428247 0.39138064 -0.29350394 0.5193582 -0.32039148 -0.50711256 0.01865288 -0.34961075 1.1147513 -0.07347713 0.7207548 0.7983861 -0.1937568 0.5796595 -0.19590464 -0.60698855 -0.21935697 0.52717495 -0.1679806 0.34255514 -0.1842629 0.25877494 -0.4464329 -0.078581005 -0.80421716 0.25148678 0.31990272 -0.18897425 -0.31621388 0.49643245 0.7449626 0.541667 -0.4280888 -1.6486288 -0.1671736 0.18656538 -0.6087658 0.34918624 -0.610834 0.43844908 -0.58602774
何 0.0066505694 -0.0062470124 0.007855368 0.0010979747 0.008369939 -0.0022223187 -0.019197434 0.019325776 0.0049333 0.009088134 0.014749885 -0.00024895906 -0.012533252 -0.015690064 0.008757555 -0.003558178 0.0006711125 0.011114397 -0.01968985 0.014084281 0.0021202755 -0.009885516 0.010097895 -0.0010651421 -0.0158823 -0.003914821 0.018488765 0.007261274 0.013118651 -0.001685276 0.017195703 -0.018303663 -0.00029306888 -0.013490813 -0.0012780594 -0.01913779 0.017263941 0.013723566 -0.018306322 0.0036725139 0.0096404 -0.004039478 -0.004321699 0.016727379 -0.014888947 0.0070817303 0.002922864 0.0019418645 0.00011721134 -0.0009796524
吾 -0.009295826 -0.019582095 0.0010826206 0.0015781402 -0.010114748 0.0011474442 -0.006909592 -0.017357923 -0.005906994 0.016013555 0.01500863 -0.007514188 0.010076156 0.018290324 -0.013273696 -0.0160833 0.014093425 -0.01016591 -0.017847775 -0.0047160196 0.01834217 0.019868707 0.015863726 0.013713412 -0.0060649607 0.014477568 -0.010281086 -0.009905224 0.012461592 0.0073403213 -0.003787856 -0.013448052 -0.017139714 0.01540055 -0.0043644668 0.0122909 -0.012233676 0.01787492 -6.0083865e-05 -0.017064596 -0.0050366474 -0.01699619 0.010497332 -0.018926086 0.019750943 -0.0022762965 0.009081609 -5.0106046e-05 0.010875222 -0.003871896
仁 0.0101879835 0.016923312 0.015418105 0.011448159 -0.004201176 0.012079763 -0.006309423 0.0031146598 -0.015879802 0.0021748352 0.011347737 -0.008230748 -0.005904083 0.012565937 -0.0106718205 -0.00026124239 -0.011692309 0.0067730714 -0.007785361 0.015359471 0.014760365 -0.015857993 -0.013883533 0.001827824 -0.012784567 0.0042366553 0.008351233 -0.013409373 -0.014609899 -0.004128573 0.0063722134 0.01703829 0.00736696 0.0042756773 0.013847859 0.01484858 0.019313322 0.008749051 0.012827015 -0.016219772 0.019305373 0.008280308 0.013312237 -0.0032120561 -0.0047857594 -0.007450771 -0.0015600609 -0.012136948 0.0013709401 -0.015931431
夫 0.0026743698 0.0025174355 -0.0119489785 0.01280848 0.019238958 -0.011005547 -0.0121719 0.0007293892 -0.01654169 -0.008578183 -0.0005061674 -0.001507783 -0.01603623 -0.008878118 -0.0076855537 -0.0059768674 -0.0101135345 -0.008562169 0.013877754 -0.019915137 0.009366875 0.004984748 0.016110782 0.013829823 0.006660168 0.00591809 0.006058762 0.014287798 0.0020557188 0.009944882 0.0017124438 0.014421701 -0.015046751 0.010330477 0.015268656 -0.007770002 0.003155818 0.015140989 0.0051965616 -0.0045733713 -0.015516445 0.015974594 -0.0109974835 -0.018379146 0.011889968 -0.002053883 -0.005636201 0.004818108 -0.0019083667 0.0062987753
、 0.0021449947 0.004592991 0.019017471 -0.012185652 -0.01376265 0.005551772 -0.00025893448 -0.01688145 0.003728323 0.0154867815 -0.015619304 -0.011198888 0.015646141 -0.012482862 0.0012878871 0.0065876385 -0.008588169 -0.009754708 -0.011764629 -0.019742986 -0.005362582 0.0076952362 -0.005077219 -0.015501186 -0.0028815935 -0.0034738134 0.016864516 -0.003727634 0.011554863 -0.005076024 -0.015067377 -0.014867265 -0.018521992 -0.00913176 0.015785193 -0.019474626 0.011932862 -0.017503709 0.011354022 -0.005594861 0.0015709423 0.003087771 -0.00025102854 -0.013058078 0.009685192 0.014414594 0.019636955 0.014621639 0.015222198 -0.01822689
道 -0.01452266 0.018725457 0.0046675727 0.0049104234 -0.0035653806 -0.0052928613 -0.014660317 0.010697677 -0.009132857 0.0034791278 -0.0019755028 0.0015522861 -0.007880523 -0.01080193 -0.019312011 0.011415457 0.014336499 -0.0034798859 0.0057884143 0.016359448 0.008794731 0.018586487 0.016232017 -0.005535605 0.0093568135 -0.00065685983 -0.0157538 -0.009894938 -0.005106585 0.006339824 0.0063454937 -0.0060097906 -0.014616444 0.013608138 -0.006318674 0.016330414 0.01109122 0.018177003 -0.01093807 0.01493642 -0.0053601908 0.003324101 0.015802955 0.0065517495 0.010768166 1.4543533e-05 -0.0088745905 0.0032901382 0.014289934 -0.0055796886
焉 0.003994455 0.01867188 0.0067509147 -0.0035698724 0.009065721 0.012867506 -0.014512484 0.008460707 0.009557585 0.012288465 0.010617015 0.009170718 -0.017385332 -0.019549033 0.012560096 0.019348215 -0.013269982 -0.004505727 0.011869588 0.00708657 -0.011752708 0.008551957 0.0076225637 0.011164882 0.0066793035 0.015984425 -0.015093929 -0.012715537 0.0029434108 0.010525031 0.007977626 -0.0127759 0.0053004837 -0.00040614366 0.0067744064 0.014250876 0.019158833 0.008118636 -0.018205302 0.009592454 0.013328705 -0.0072867796 -0.009365756 -0.016345536 -0.005304177 -0.0030901192 0.0069751046 -0.0015320039 -0.016532488 -0.014346366
行 -0.014223863 0.01665343 -0.0029883194 0.004096417 -0.007968097 0.011007752 0.00018588781 0.0036792373 -0.01124387 -0.008300523 0.013424661 0.007880857 0.0068131634 0.0025391674 0.009002187 -0.008985712 0.016733715 -0.00032824517 0.0019536733 0.018757837 -0.010210852 -0.0065219114 0.011765463 -0.017948478 0.014175843 -0.015499959 0.0058329464 -0.012897615 -0.014139189 0.01571095 0.012672982 -0.002613666 -0.0057280827 0.005020089 0.015939025 0.017976943 -0.009548712 -0.017436046 0.006867852 -0.008690894 -0.016125219 0.0107514765 0.01850875 0.0037891744 -0.016428538 0.007668452 -0.0125291655 0.01669813 -0.0018642329 0.011290483
谓 -0.014243796 -0.008833847 0.0006549668 -0.004109063 0.014266169 -0.0099556325 -0.019049 0.008033592 -0.004086163 -0.015742412 -0.016408348 -0.0026095796 0.0065297578 0.0029156755 -0.009241674 -0.0062863873 -0.0054530594 -0.0010802674 -0.019808955 -0.0016257929 -0.012817511 0.0045265625 -0.019042227 -0.019930413 -0.0154503845 -0.013230035 -0.007511959 0.006028433 -0.010707259 0.007948711 0.011958456 0.018528938 0.012269408 -0.008175413 0.01970374 -6.681442e-05 0.019465165 0.011910839 0.019249186 0.00083563087 0.008305602 -0.007240109 -0.018173458 0.0053370474 -0.018209226 -0.010831249 0.01176872 -0.017653065 0.01561392 -0.014433352
必 0.014808774 0.008128261 0.008946338 0.009145818 0.018680021 -0.005892329 -0.017120251 0.0075680064 -0.017786702 -0.0073290607 0.0044163824 0.018165309 -0.016409006 -0.015035519 -0.0075941705 0.013578832 0.00096876855 -0.0025865436 -0.010124917 0.00094664097 -0.00017486811 -0.014550156 -0.006278946 0.015394003 -0.017553082 0.00528816 -0.01172178 -0.009189296 0.019599568 0.0066435407 -0.0148994895 0.012615568 -0.012541246 -0.00020495652 -0.017626153 0.018677382 -0.0050751446 -0.018710267 0.013724983 -0.019529395 -0.0022510171 -0.01757455 0.007977452 -0.014216217 0.0034832954 0.005773425 0.009702096 0.010128579 -0.007276511 -0.0018135619
礼 0.063936025 0.06187928 -0.048439704 -0.091367856 0.07642881 0.037406545 -0.10883011 0.10480229 0.06853803 -0.08829069 0.09917618 -0.096858084 0.078360446 -0.06367818 -0.10538979 -0.090095565 -0.08182451 0.08033189 -0.111201294 0.086165376 0.11255678 -0.07050854 0.06794768 -0.07328166 -0.102373056 -0.097713634 0.105554745 -0.05627806 0.11099888 -0.05836785 0.0892448 -0.100578874 0.049203843 -0.10911584 0.1106875 0.11264628 -0.080395445 -0.10336975 0.10776163 -0.11952139 0.11146452 -0.0948294 -0.1217161 -0.050018817 0.06217713 -0.055720296 0.11638671 -0.09028792 -0.15064849 -0.08740771
孔 0.29948318 0.6173509 -0.7517385 1.0752101 -0.5533852 0.78773355 -0.49544862 -0.8981429 0.6510686 0.70823264 0.6794541 -0.36680812 0.6786223 -0.6450139 -0.86022204 -0.59378314 -0.65328956 -0.9792851 -0.6126089 0.67590797 0.7196524 -0.33937502 0.63726896 -0.117427304 1.2799807 -0.63494927 0.60976243 0.92461175 0.10181105 -0.783383 0.6613753 -0.5865322 -0.95854455 -0.6879273 0.6139515 0.67584944 -0.5109669 -0.619615 -1.0087465 0.8907695 -1.1131265 -0.7650222 1.0419357 -0.68080235 0.5697799 -0.70768756 -1.1723653 -0.71095043 -1.2846681 0.010821755
斯 0.016500577 -0.013417918 0.006861794 0.017881613 -0.0151957935 0.006979756 -0.0009278869 0.00709871 -0.019106857 0.0049218703 -0.017332187 0.018999876 -0.0013102412 0.011712519 -0.002714982 -0.008546851 -0.0036781072 -0.009400065 0.010871748 0.009114835 0.016554257 -0.013624198 -0.009810779 -0.0038382816 0.0011225796 -0.012342155 -0.013321357 0.0077361534 -0.0074563785 6.974935e-05 0.00323704 -0.0031568478 0.015996128 0.019466268 -0.012347741 0.0076733613 0.0039818455 0.006818981 0.00913445 0.017906558 -0.008764255 -0.011649785 -0.0022242547 -0.0029887247 -0.010723252 0.0109396195 0.0127260685 -0.0058940765 -0.018533688 -0.010441913
三 -0.009679238 -0.005377843 -0.0154655855 -0.0038940094 0.00010068655 -0.012775585 0.0013928842 0.00604012 -0.00078573223 -0.015113267 -0.018957064 -0.019664869 -0.013447418 0.015294286 0.013282809 0.013429627 -0.00952069 0.018246235 -0.00036811113 0.0034280561 0.0029577874 0.007290926 0.017035196 -0.009258191 0.012154674 0.0018635964 -0.015512516 0.01737329 0.011899955 0.010571105 0.016664559 0.013452563 -0.015936203 -0.0029139733 -0.005678103 0.008947415 0.014407982 -0.002737472 -0.0067419074 0.010184893 -0.0045882417 -0.015730856 -0.019280631 -0.0071698353 -0.006022882 0.018508073 -0.012793951 -0.008893168 -0.01420047 -0.011209273
能 -0.0010638189 -0.0071483254 0.018001646 -0.0053912303 0.01046979 -0.01918734 -0.013800141 0.013031895 -0.006014962 0.008396399 0.0018497895 0.0005466008 0.0075897835 -0.015011572 0.008958373 0.009544093 -0.017466472 -0.017545495 0.0010891628 0.016491348 0.019093787 0.0015641904 -0.017276203 -0.010893619 -0.0026406837 -0.005859227 0.0010647416 0.017783135 -0.019451503 0.019486643 0.016936304 0.0076248622 -0.01455832 -0.0028209828 -0.009781689 -0.0074597 0.01904022 -0.01884694 -0.0009552359 0.0019466161 0.015570792 -0.013611655 0.0048767063 -0.018957619 -0.0196826 0.0031188512 -0.013110384 -0.012693011 -0.0076656793 -0.00019042492
见 0.015139002 -0.013869278 0.0067353654 0.0001744771 0.016780434 -0.0147772785 -0.0011341763 0.007031009 -0.014199514 0.019530784 -0.011009655 -0.013054273 -0.0010576176 -0.012053821 -0.003918259 0.003114886 0.007936904 0.008030207 0.009093072 0.0014634561 -0.014024217 0.016305337 -0.017463265 0.00978177 -0.0059598065 0.013986046 -0.00067719456 -0.0032018279 -0.016862461 0.013408146 0.011789842 0.010494402 -0.012908668 -0.0059263012 0.000116360185 -0.005361898 -0.0023001432 0.009000942 0.018033236 0.0021778964 0.014125714 -0.015733432 0.0038110232 0.016450744 0.015291624 0.0031890844 -0.01858666 -0.00933829 0.009713439 0.008264947
学 0.0059911227 -0.0022253871 -0.0073069045 0.0090218205 0.008143816 -0.0028299617 -0.004359882 -0.013911333 0.009301965 0.013801133 0.0036860942 -0.0043633506 0.012193739 -0.0085230945 0.011172535 -0.0007720971 -0.009293139 -0.0024725245 0.014861833 0.009109759 -0.011538408 -0.008986933 0.011222396 -0.011453881 0.0058801626 0.0077051255 0.01873376 -0.019232042 -0.011664705 -0.018165981 -0.016001007 0.018039018 0.0032646083 0.005898187 -0.014142845 0.0034394525 -0.014228008 -0.0030242251 0.012918245 0.00943223 0.009048479 0.016669566 0.008555152 -0.006242759 -0.018772313 0.008435607 -0.018593527 0.006620188 0.018784951 0.0032682894
事 -0.014740307 0.0058215186 0.01631695 0.015164463 -0.017160065 0.0041980813 -0.008432791 -0.010126352 -0.019825565 -0.0042108535 0.0008962464 -0.0006605291 -2.9125213e-05 -0.012975835 -0.003951149 -0.011116182 0.009610822 0.018515248 -0.00076867815 0.0155570265 -0.0067691277 -0.008974754 -0.015035233 -0.019525021 0.019788034 0.019599233 0.007977597 0.011480145 0.005228715 0.0005681634 0.010466458 0.015031266 -0.0032430983 -0.00019063235 0.002326474 0.009293954 0.0040552807 0.012107765 -0.008403175 0.0046462463 0.019105922 0.0070879813 -0.012265036 -0.017761583 -0.002702582 -3.283739e-05 -0.019327026 0.008032186 0.01985529 0.0037564754
是 0.008881471 -0.005015523 -0.0024951792 0.0065673827 -0.0062006805 0.005787754 0.012000833 0.015779592 0.014019148 -0.012996938 0.008871782 -0.015866775 -0.015735926 0.009877238 -0.012914667 0.005598562 -0.014639752 -0.01710805 -0.0030644464 -0.0009935474 0.0040660477 0.011820648 -0.011219694 0.007061071 0.011498153 -0.0067639085 -0.013759005 0.009756963 0.01144248 -0.010368314 -0.0018842578 0.0028457951 0.005790064 -0.013396856 -0.01274446 0.009093346 -0.0147541 0.005697291 0.019781575 0.0028427409 0.0040140674 0.019882942 0.013131551 0.006846697 0.0010240197 0.009484565 0.0131865665 -0.013384978 0.0063839173 0.008986394
哉 -0.005382161 0.0024722195 0.015037734 -0.019297766 -0.008104334 0.013345339 0.0107060475 0.011594838 -0.0008786511 0.0062035797 -0.0035599421 -0.0075061154 -0.012298427 -0.012256474 -0.002521155 -0.0039189626 -0.018883126 0.01692665 0.0005853224 0.012296195 -0.007855183 0.0023352646 0.010992355 -0.003016052 -0.007224364 0.0020541404 -0.019295258 -0.006534302 -0.019366192 0.005831613 0.015017142 -0.00943546 -0.0026697994 -0.0016390634 0.0044416594 0.006051581 -0.015202558 0.010399473 0.012164228 -0.0044384524 -0.0094386935 -0.015694318 -0.0012902761 0.0035659599 -0.013888173 -0.019055605 -0.017352052 -0.010493643 -0.008697629 -0.013027225
闻 -0.006020398 0.0051169824 0.019409122 0.019297013 -0.019453304 -0.008118703 -0.0012544226 0.009041412 0.001411562 0.0073275827 0.013569843 -0.0011273145 0.010407381 0.0024914527 0.010279691 -0.016615009 0.011839945 -0.006094115 -0.017519102 -0.010849426 -0.0116700195 -0.0071112323 0.0007643914 -0.005591612 0.010652895 -0.0040889666 0.012054755 -0.015095598 0.012782261 -0.014551382 0.011528032 0.01299268 -0.0035665345 0.016177688 -0.011193702 -0.009780919 0.018700298 0.009680609 0.0054044244 -0.019180862 0.015906554 0.008351002 0.011267514 -0.0024263333 0.008573928 0.00549165 0.015899546 -0.016991384 -0.010301569 -0.017249051
未 -0.0075782514 0.0004015088 0.005755832 -0.0088418415 0.013012435 -0.0062683937 -0.010475223 -0.013213407 0.004706249 0.010987708 -0.019028503 0.011114798 0.011403942 -0.018165698 0.0025525999 0.012293098 0.018280236 0.011924426 -0.016852913 -0.00035374163 -0.016850982 -0.006503932 -0.014207792 -0.0016474151 -0.00988034 -0.011769964 -0.0016865467 0.018975828 -0.016399164 0.0017774105 -0.011777704 0.019426525 0.0007098746 0.010302984 -0.014939804 0.0034601258 -0.003848045 0.0019643784 0.014470973 0.013649611 0.01743769 0.014574398 -0.014129359 0.005855026 -0.018196288 0.0068532894 -0.012679421 -0.018971752 -0.008223812 0.005199971
公 0.019672856 0.0034407163 -0.010544708 -0.017846959 -0.01788476 0.016565595 -0.018409891 -0.008107161 -0.008748693 0.011831093 -0.011788358 0.009631299 0.0101544475 0.017956175 0.017306883 0.018311797 -0.004051132 1.835823e-07 -0.01974422 0.01505022 0.0053628013 -0.010194423 -0.008862729 0.00098207 -0.0064559816 -0.012985864 -0.008495421 0.007599165 -0.015399108 -0.0027956867 0.010461089 0.019289192 0.015588414 -0.008444126 0.012223435 0.0024119972 0.016492685 0.012512855 0.019633166 0.0064716265 0.017626299 -0.012247558 -0.010177114 -0.004994883 -0.01147278 -0.018109005 0.009741508 -0.014984827 0.010308764 -0.018713119
好 -0.01652061 0.01677063 -0.00035627364 0.016638882 0.012603321 0.017996596 -0.014591081 -0.012208819 -0.0038343 -0.0024355387 -0.0033042144 0.006548161 0.007885756 0.019124223 0.012417376 0.016016494 0.0014396786 0.019781461 -0.004561839 0.0041097593 0.011995134 -0.0190124 -0.017512262 0.0071534347 0.010336785 -0.016686944 0.01889204 -0.003430979 -0.01983022 -0.0040814257 -0.012445375 -0.0078223515 0.006358845 -0.010685305 0.0064311097 0.012252256 0.01981225 -0.0024704265 0.014782035 -0.0040147924 0.017885048 -0.01834679 -0.00064920663 -0.015979394 -0.008264911 -0.0059286547 0.007619228 0.012975983 0.00394382 0.0013499045
我 0.0065267086 0.003939464 0.015601275 -0.008712096 -0.0044347215 0.009263997 -0.0016392993 0.0034058117 -0.010300037 -0.010049679 -0.012241148 0.014611773 -0.012336311 0.015968025 0.017422587 0.0075031947 -0.00660892 0.016173946 0.013438124 -0.009833868 -0.010473444 0.017698199 -0.0054694056 -0.014285218 0.012719216 -0.002074368 0.015062961 -0.007124586 0.016767018 0.009441507 -0.014758408 0.010380337 -0.019073755 0.006193864 0.016774165 0.0044819475 -0.005314629 -0.0026790882 -0.009917891 0.015082598 0.018908074 -0.006494138 -0.0017646599 -0.018141303 0.0006436586 0.004631698 1.3582706e-05 0.013102188 0.01022129 -0.014334564
路 0.01037184 -0.009143519 -0.001972208 -0.019067759 0.0020780705 0.0141053125 0.005955789 0.008824041 -0.019207394 0.0020488573 -0.0022117542 -0.0077405404 -0.0039304304 0.016791342 0.014224448 0.003645923 -0.0152392695 -0.007528202 -0.009712696 0.0054906677 -0.017324936 -0.0074370336 0.019851685 0.015460806 -0.009455187 0.0016489791 -0.0091608595 0.011580126 0.0040597795 0.017294513 -0.0019161844 -0.013261437 0.005055897 -0.0017035651 0.006104464 0.017937941 -0.017032703 -0.01235038 -0.0060784793 0.015263417 0.0060385657 -0.010686431 0.016539121 -0.00017951489 0.013461728 0.019396603 0.01778066 0.001100583 0.012434182 -0.016304037
在 0.00038061617 -0.013620913 0.00040516377 0.005738735 0.018168986 0.015205044 0.00019143343 -0.017023955 -0.017162802 -0.0074269557 0.009399423 0.013090572 -0.019421253 0.017558374 0.013082974 0.014424803 -0.00085711 0.00982243 0.005749309 -0.009042008 -0.0040403605 -0.006649873 -0.013316526 -0.018646004 0.014036722 0.019514682 -0.015098233 0.0016629505 0.010611369 0.0076939533 -0.0052721426 0.0004814887 0.009734449 -0.0068050143 -0.013566904 -0.0076303147 -0.005455048 0.0137484 -0.0013165164 -0.015456526 0.015865669 0.00040011405 0.016458608 -0.015657024 0.005687158 0.014991901 -0.017409878 0.014373991 -0.0153072355 -0.014077485
已 0.01735144 -0.0061020777 0.01501596 0.017530726 -0.014924595 -0.0036394666 -0.0028987764 0.0023559546 -0.012414951 0.0054311133 0.016083643 -0.013506894 -0.0005945039 -0.012157793 -0.0078094313 -0.010276091 -0.0067120143 -0.014555146 -0.008821616 -0.0192826 0.0065062665 0.011426787 -0.019388769 -0.010452581 0.019966215 -0.005052552 -0.0041055107 -0.01101098 0.018494792 0.0034292578 -0.015364664 0.013919401 -0.0079416325 0.01583819 0.012114086 -0.0029082512 -0.006420381 0.0027511476 -0.01910529 -0.011497287 0.0017443704 -0.013158157 0.000651381 0.0035156107 0.007322192 0.017846577 -0.015501072 -0.013727121 0.0041447994 0.019980347
得 0.019762328 0.009287307 -0.007101357 -0.017040065 -0.008277919 0.014022827 0.008458871 -0.008204567 -0.013802385 -0.008210463 0.004570918 -0.0003272915 -0.004425733 -0.01991224 0.0023994755 0.0013201546 0.003827176 0.002441845 -0.019779148 -0.0038165497 0.0052086664 0.015141794 -0.0073249456 -0.017429123 0.01840922 -0.0067997333 0.017724635 0.010381972 0.018831357 0.010506396 -0.002426057 6.340742e-05 -0.004842348 -0.0172064 0.011990671 0.0042514205 -0.015101178 0.017709484 -0.009616563 -0.008434961 0.012557377 0.011103387 0.012373283 0.013474428 -0.010588328 -0.0033327816 -0.016503464 0.009534216 0.0028809118 0.0007288313
所 0.006372542 -0.0006577301 0.017318862 0.0122521585 0.0044854186 -0.017613677 -0.01224065 -0.010654855 0.019763796 0.0039026784 0.014203098 0.002061939 0.004569943 0.0097698355 0.007875297 0.016714387 0.008013791 -0.00768301 -0.0026950596 0.0013618874 -0.017135425 -0.014427454 0.011237157 -0.006732986 -0.0036136291 -0.00042001245 -0.0061903 0.008069512 0.009810388 0.011161506 0.0119018005 0.014971024 0.010410974 -0.0014428544 0.000118739605 -0.0040662955 0.013748209 0.014556553 0.016548991 -0.019709067 -0.008669126 0.006586151 0.009200356 -0.005942416 0.0036268544 0.017745582 -0.016598439 -0.0015480471 0.0027832508 0.017070092
民 0.0060064625 -0.00374377 -0.0010367298 0.012087087 0.010378957 -0.011309955 -0.00852154 -0.015801877 0.011667333 -0.012714799 -0.009868405 -0.0047958945 -0.009902334 0.00068320986 -0.0025339103 0.0053317617 0.0003313899 -0.012044094 0.0020461297 0.0059176157 0.010436871 0.010171559 -0.004759927 -0.014934816 0.018191613 -0.0143320365 0.00761584 0.0016242694 0.012882158 -0.009860196 -0.007622635 -0.0034942983 -0.011038339 0.0199052 0.012953257 0.0022713898 -0.015999358 0.0149526 0.018273227 0.013228197 0.019840226 0.018908577 0.009472408 -0.008655012 -0.0073060393 0.009898415 -0.008771572 -0.016710732 0.0025355602 0.012738933
小 -0.0016014576 -0.009304991 -0.0012547683 0.0023222684 0.019698381 -0.018598184 -0.013271832 -0.008848722 -0.0011707449 -0.006988575 -0.013716828 -0.0060331393 0.0052760122 0.00056694984 0.0024340677 0.0065850806 -0.019141052 -0.014817371 -0.008798191 0.010780863 0.013801922 0.0024654125 -0.015224948 -0.010605604 0.011471295 -0.0144479675 0.011562662 -0.013428385 0.0035980653 0.012743831 -0.0030744362 0.00995712 0.018659713 -0.014234752 0.008343839 0.017681692 -0.0081328675 0.015387702 0.0038089394 -0.016231941 -0.019927565 -0.00459594 0.018362232 -0.013139746 -0.019339437 0.0051241945 0.0123138325 0.017873265 -0.00038117883 -0.0066509293
天 0.017421324 -0.019808408 -0.014759354 -0.0023358464 -0.01493772 0.00278558 0.013277013 0.012465413 -0.014685321 0.0055456683 0.012359328 -0.010058911 -0.0120462775 -0.008422308 0.0009884118 -0.004524033 0.012434008 0.0140743535 -0.015594904 0.012252412 -0.013506317 -0.019949412 0.019665916 0.0002584672 0.008739212 0.0034627293 0.0010768699 -0.0029450655 -0.004191806 0.017793454 0.012983515 0.018829618 -0.01326431 -0.005418057 0.017838676 0.013689084 0.0047410773 -0.016718762 -0.0037681079 0.018089287 0.0045789313 0.017858429 0.016134288 -0.0030345106 0.009232206 -0.0039559747 0.0019223522 -0.0037341665 0.0034427284 0.009008515
乐 -0.012248602 0.004184706 0.019428857 -0.012951243 0.0072293114 -0.006652219 0.010900612 -0.013424585 -0.0136475535 -0.008102662 -0.0035526417 -0.016372679 -0.0087305 0.011401719 0.0051033734 -0.01945175 -0.018980093 -0.0089492155 -0.011254196 -0.011607034 -0.007939978 -0.0012553477 0.0065923 0.007833302 0.014836252 0.0052363826 0.010384302 -0.01380089 0.01381175 0.0013281751 -0.0045805047 0.008552122 0.00908925 0.012671592 0.010219912 -0.0036853002 0.00699923 -0.0082851555 0.019707136 -0.010812416 0.01584121 -0.01987527 -0.0037418318 -0.005605335 -0.007817554 -0.003243358 0.0008491039 0.0057938024 0.013389051 0.0062319445
邦 -0.018786354 -0.001650989 -0.009628747 -0.00608314 0.0163473 -0.019932007 0.009008446 -0.0072608492 0.019029971 0.016590802 0.014253416 -0.006457915 -0.0040732767 -0.018460141 0.007907514 0.014716141 0.019781018 0.017341368 0.018222706 -0.0025168394 -0.015637308 -0.018610615 0.01703092 0.019445557 -0.015852632 -0.0025124883 0.01939914 0.014951582 0.005801282 0.008957832 -0.0055436585 0.00821109 0.0036720776 -0.00832437 -0.011520314 2.4557113e-07 -0.013445361 0.016631491 -0.010360015 -0.0065737986 0.013656151 0.0047847293 -0.0059748837 0.008973837 0.018459816 -0.0031761383 -0.019670717 0.012831726 -0.0028849577 0.017958676
亦 -0.0016594243 -0.008778138 0.010948236 -0.016546989 0.012938633 -0.0017702794 -0.01200895 0.014324164 0.014669218 0.01800041 -0.019729437 -0.015813429 -0.012097742 -0.015033228 0.0038179324 0.0017810869 0.009875855 0.008072471 -0.018683875 0.008725784 -0.006629457 0.009111676 0.014092554 -0.017181609 0.008585257 0.012215476 -0.0047577787 0.0061310935 0.003286531 0.012583849 0.018527655 0.0072428607 0.007089605 0.012876083 0.0027886962 0.018995473 0.015518054 -0.011556477 -0.011339952 0.009750547 0.018696133 -0.0026520777 -0.007948374 0.00036971807 -0.014544689 0.007155106 -0.0018048882 0.010856037 -0.011728672 0.008494
使 -0.010688731 -0.016950795 0.011634735 -0.011932959 0.014968311 0.002195537 -0.0057267714 -0.016745115 0.0048778793 -0.009413314 0.0057408046 0.019537553 0.009423687 -0.012631387 -0.00968502 -0.01785183 0.0117002465 -0.0051239966 -0.0061790845 -0.017955238 -0.011986222 -0.0067108604 -0.0028194094 -0.0054128957 0.00037024496 -0.01033787 0.01602432 -0.015988171 0.012115216 -0.019884799 -0.011632094 -0.01721604 0.0007804179 -0.017003886 0.0013957238 0.005337765 -0.014300093 -0.01820704 0.012805576 -0.008961244 0.007688515 -0.018267784 -0.0005835414 0.016513996 -0.0060011693 -0.0059986636 -0.00962383 0.0034446716 0.017439773 0.009451032
大 0.0061402726 0.0004937196 -0.00068616867 -0.0015827941 -0.011965668 0.0035629224 -0.006449063 0.005397465 -0.006917136 0.0013816905 -0.016084766 -0.015410645 -0.014503822 -0.010852126 -0.010417819 -0.008897481 -0.0077665946 -0.016718948 -0.017252345 -0.013636548 -0.015315482 0.015998768 -0.0014586449 -0.004142659 -0.015735824 -0.018760135 -0.00018157005 -0.0062691546 -0.019734139 -0.0046188617 -0.009809103 0.012948654 -0.0024883365 -0.019106125 3.1721593e-05 0.01211631 -0.017691186 0.0042494177 -0.011918166 -0.008809187 0.015543103 0.0012635803 -0.008739581 -0.0014153433 0.0056919595 -0.010808894 -0.009067175 0.00033552406 -0.009462928 -0.011658875
下 -0.014246864 -0.019472985 -0.01157648 0.0074405335 -0.0100910785 0.00414767 -0.013615089 0.015366206 0.007741203 -0.0016692113 -0.019076824 -0.018196514 -0.011855219 -0.015465507 -0.0021132708 -0.015091187 -0.017040623 0.010418085 -0.011096041 -0.014213457 0.010290427 -0.01942509 -0.017997233 0.0038095617 -0.010990741 -0.006335642 0.013493437 -0.0026686192 0.014976448 -0.01438852 -0.009837901 -0.01782552 -0.012265245 0.008365721 0.0077215503 -0.0068382216 -0.013128409 0.0010688471 -0.008098063 -0.005444462 -0.0052617523 -0.013291676 0.006709118 -0.016164593 -0.008307726 -0.01398148 0.01847486 -0.012006135 0.0121726915 0.013003609
贡 0.019347556 -0.011139526 -0.006107876 0.019292697 -0.003929548 -0.014065566 -0.0022040391 0.002615366 -0.016304946 0.007880816 0.0077631543 -0.018108776 -0.014772172 -0.0072706863 0.0071605085 0.009874491 -0.016995518 0.013816378 -0.0012095976 -0.0096065905 -0.014929799 -0.014637322 0.0007889199 -0.011317131 0.018834697 -0.004868152 0.00029911278 -0.016640829 -0.012239088 0.003424902 -0.0007789087 -0.0009191108 0.01866647 0.019102093 -0.005601909 -0.0034880328 -0.0074952124 0.0010101509 0.0025562095 -0.01831244 -0.015785202 -0.00035878897 0.0130325435 -0.0005134964 0.012517018 -0.010892691 -0.017922122 -0.019036284 0.009404225 -0.0039534164
欲 0.019877844 -0.010063159 0.010430431 0.009451472 -0.017437233 -0.015481503 0.0143592525 -0.0016124868 -0.016542317 0.00957252 -0.0028806757 0.0034279488 -0.001183443 0.009859299 0.014546275 0.010488467 -0.01871716 0.001828618 0.009423423 0.017447978 -0.00047427654 0.015549285 0.004696331 -0.0074611544 -0.012866487 0.019595636 0.014595444 0.01512129 -0.013378744 0.00053709984 0.0028132487 -0.007891762 0.0035080337 -0.015702367 -0.009060385 -0.013658156 0.01774754 0.007863879 -8.103132e-05 -0.0042032027 0.0048125386 -0.0042300676 -0.006716573 0.0053859353 0.001096177 0.007720294 -0.018514039 -0.017983241 -0.006530421 -0.001286559
诸 0.018189754 0.00874573 0.0010276198 -0.01991441 -0.014702253 0.013367364 0.0077309916 0.00020432711 -0.009012852 0.00348181 0.010465248 -0.016877625 0.013022928 0.0023408555 0.0023008967 -0.016254062 -0.013295271 0.012670917 0.0072367787 -0.0034078455 -0.007026064 -0.009250447 0.014773302 0.0032841158 -0.006760981 0.0154186655 0.008235607 -0.01218591 0.018238347 0.0037873148 -0.008474402 -0.018910427 -0.007967222 -0.010416416 -0.0114938235 -0.006661322 -0.0028566788 0.0017353701 -0.00882287 -0.004551277 -0.0043526385 -0.010660853 0.012947109 0.0012124777 0.016866589 -0.0055220174 0.0023289204 -0.014289453 -0.0059463144 -0.010685215
从 0.015858304 0.015891893 0.00462445 -0.0023265004 0.0009713411 0.0006286168 0.0073565934 0.018577855 -0.009360662 -0.015818205 0.0030312394 -0.0059048748 0.0023773764 0.011766934 0.0022025655 0.007961649 -0.0034262133 0.0035849833 0.014580716 -0.018262696 -0.01598055 -0.007916493 0.009786878 -0.013105664 -0.0038337922 0.00945297 0.0063935686 0.0064918376 -0.01954105 -0.014055819 0.018953148 0.016506582 -0.015693113 -0.00046542406 0.012704856 0.00858092 -0.006233907 -0.0066266633 -0.019747838 -0.014491794 0.006573641 -0.008923526 0.019272944 -0.0023151801 0.008005485 0.016771574 -0.013098573 0.0087375045 0.009577785 0.0012803983
文 0.0034290098 -0.0025659322 -0.013826091 -0.0006652522 0.0021308707 0.0012854671 0.019933965 -0.00032804965 -0.006958244 0.0063434597 0.010356547 0.0071451566 -0.013446264 0.012495157 0.0017849898 0.017635267 -0.017395686 0.014048791 0.007453146 -0.011107995 -0.0057475735 0.018455377 0.0117128985 -0.0003988528 0.0021605347 0.013594544 0.009864387 0.0114692515 0.011520698 0.019713439 -0.004801142 0.017772796 -0.003933802 0.007217674 -0.011268902 0.016087204 0.01639891 -0.0021162534 0.01226032 0.0033352757 0.01874627 0.016319415 -0.015677622 -0.009425268 -0.0073758885 -0.0053513907 -0.009807212 -0.005201695 -0.007830543 -0.01667355
政 0.0018665266 -0.0022326158 -0.0034120893 -8.280277e-06 -0.005536308 -0.019239098 -0.011207966 0.0055836868 0.01572231 0.0065475963 -0.0013268613 0.013647184 -0.0047607445 0.015169987 0.017725505 0.0017275953 0.004961252 0.0068811034 0.013488548 -0.009914438 -0.0055901143 0.015903084 0.019854333 0.0023472523 0.016197126 -1.017332e-05 -0.010450687 -0.010135314 0.011337473 -0.008270383 -0.013669211 -0.0033157063 -0.019763332 0.008209826 0.012948226 0.009041073 -0.0051036905 -0.002290101 0.014348385 -0.008159158 0.00029987574 0.012341058 0.0069033834 -0.004794254 -0.0035033154 -0.0037354182 0.00077032566 0.015041604 0.010710685 -0.0054766154
食 -0.0006849551 -0.01342952 0.0014960361 -0.012474982 0.009943256 0.014965887 -0.011868848 0.006820264 0.011628513 0.009660425 0.015711589 0.012974923 0.010529098 -0.017984333 0.017217653 -0.0076336265 0.017941419 -0.011028049 0.016857676 0.015239825 -0.006952474 0.01799781 -0.015066404 0.0017681431 -0.01678197 0.017838761 -0.00032004595 -0.0067812824 0.003683877 0.018495891 -0.0059202835 -0.0052828714 0.005649507 -0.014126396 -0.010976312 0.019068848 -0.013958476 -1.4059543e-05 -0.018721035 -0.0014144754 -0.0071232007 0.009733238 0.0068762684 0.0154845 0.012643261 0.013654477 0.007040393 0.00094240665 -0.0035034132 -0.01707585
善 0.0155655 -0.0054962155 -0.004411216 0.005820539 0.011043546 -0.009639406 0.007130062 -0.00024736405 -0.001430223 -0.016406292 0.009971892 0.0079625035 -0.013627476 -0.017207846 0.0027558755 0.019632678 -0.016571058 -0.010114419 0.015846372 0.0022684932 -0.008004529 -0.0032490992 -8.9447494e-05 -0.010216501 -0.012137375 0.005193751 0.0053530214 -0.01509977 -0.015764765 -0.01820301 -0.014856901 -0.010395622 0.016311426 -0.017288245 0.008972798 0.01048551 0.0029665683 -0.007848825 0.01926449 0.007998629 -0.0018121052 -0.0031090474 -0.005508296 -0.014011351 0.006247103 -0.014100883 0.019403784 -0.008939642 -0.009518518 -0.013564512
后 0.009960039 0.016827261 0.010648723 0.012953982 -0.007797637 0.018837959 0.008273837 -0.01820081 -0.0025888633 0.009684022 0.01556054 0.013399939 -0.015614154 -0.019018697 -0.0020687962 0.014126952 0.00558589 0.010042984 0.011630876 -0.018327406 -0.018290859 0.01849251 0.0133826705 0.01871936 -0.0042252326 -0.01263395 0.013762696 0.011841693 -0.014482252 0.0076084016 0.0052386904 -0.018893186 0.012011421 -0.012947697 0.015123751 0.0015975428 0.00041253804 0.0119097065 -0.005008571 0.013029327 -0.010731196 -0.01212043 0.013463766 0.0031168675 0.0040488527 0.010086066 0.01190135 -0.0006663871 -0.019996326 -0.01962076
德 0.0100195315 0.0011113381 -0.018408393 -0.013482759 0.019813657 -0.00342144 -0.015746944 0.0026017784 0.0017550015 0.0044625546 -0.0044672154 0.010372304 0.013182037 -0.0010271478 0.014512762 -0.0017483687 0.00821917 0.007893018 -0.008781998 0.01156127 0.007605011 0.0089284945 0.014428171 -0.017353429 -0.00036598204 -0.018599117 -0.008418991 -0.018193955 0.0055438518 0.012085132 -0.01840836 0.008377926 -0.004187765 -0.003890984 0.0020347165 0.012633569 0.01642013 0.01804419 -0.0121785235 0.0021953655 0.0037112997 -0.0134775825 -0.017472837 0.010597989 -0.018638179 -0.0013182425 0.018910166 -0.010932123 0.010470209 0.013332972
求 -0.013561012 0.0017711353 0.007916319 -0.0079494715 0.0055852267 0.017370872 -0.002026441 0.00425112 0.005118618 0.017443238 0.0034486984 -0.011373618 -0.003751733 0.0019435692 0.005837371 0.0032024526 -0.0060872934 0.00853327 0.019909488 0.005409648 0.004796133 -0.016936932 0.0048134183 0.010523613 -0.015573215 -0.01818767 0.011769843 -0.018326456 0.004186542 0.018050998 0.014761372 -0.003992579 -0.01819719 0.014076826 0.00368587 -0.006264832 0.018053208 -0.0058248756 0.0009809255 -0.0023748993 0.00268723 -0.010376091 0.009467814 -0.010922608 0.005299089 -0.0024718975 0.0054179714 0.0059464094 0.010287635 0.010735204
对 -0.0038301228 -0.006469209 0.017127989 -0.005859985 -0.00979564 -0.016312156 0.008427105 0.004048538 0.0143612595 0.009464588 0.012744007 -0.007550297 -0.017337495 -0.01609948 0.013191006 0.0043984605 0.003578484 0.0078911735 -0.007907826 0.0150336 -0.017743088 -0.007978349 -0.0013871288 0.005480509 -0.0004321909 -0.0027837919 0.01608865 0.01183602 0.0038775038 0.015060584 -0.017045612 0.00924251 0.0083897635 0.0026144576 -0.01727493 -0.008375442 -0.00041145564 -0.0007613134 0.016291345 0.008473282 0.0065537333 -0.010303955 -0.0035006332 0.0043538734 -0.002446661 -0.016560504 0.017705757 -0.0133725805 -0.016454432 -0.007839205
恶 -0.0004528737 -0.0011566257 0.004787116 -0.015676327 0.0021986007 0.011236029 -0.010172002 0.018440573 -0.004074087 -0.00617336 0.008121471 0.0035422945 -0.009201241 -0.006012864 0.016102636 -0.003702631 -0.015107853 -0.0012061095 0.009077332 0.0153896855 0.018705549 -0.018712128 -0.0055745146 0.01477881 0.0059821988 0.012227309 -0.019440902 -0.015040719 -0.0141921155 0.008597617 0.0013305855 -0.019886574 0.011820106 0.0034949253 -0.0054635713 -0.0139486 0.0073908065 0.009729473 0.003132777 0.01298666 -0.012076809 0.0134252235 -0.009269049 0.0008574152 0.0027967428 0.001962924 -0.0040930463 -0.019566199 -0.004476218 -0.019819703
信 -0.0114852665 0.006743185 -0.0022174788 0.01462389 -0.017191451 0.014231329 0.012535844 0.015379967 -0.00415344 0.013381736 -0.008128828 -0.013727026 0.0040361523 0.0038173865 0.007826042 0.0012833213 0.00025812627 -0.015577926 -0.018065037 -0.019763835 0.009613638 0.017295301 0.016844617 0.015609717 -0.015956486 -0.0017359423 -0.000110807414 -0.015613102 0.0010147834 -0.0035393452 -0.009125575 0.011653187 -0.0138952965 0.017049203 -0.014884732 -0.008964944 -0.0055672238 0.0074540256 0.018935708 0.015473994 -0.013924579 0.0098100705 -0.0009617328 0.0006580186 -0.0155308265 -0.0024221991 -0.007110569 -0.0008487201 -0.0015743994 0.015722267
死 -0.009868049 -0.01940218 -0.0019160175 -0.0018658757 0.00022543907 0.016105134 -0.009466329 -0.009072668 -0.01909435 -0.009261868 -0.008460846 -0.0048763943 -0.0016303849 -0.00031368493 -0.0021295643 -0.015652472 -0.0032083748 -0.011189808 0.0030044436 -0.009205665 -0.002503767 0.018759567 0.0048631476 -0.012819507 0.01079334 -0.0057672095 -0.013242196 -0.01797515 -0.015239922 0.013449507 -0.017686795 -0.013862014 -0.013016226 0.01556493 -0.0036906265 0.014914472 0.0075866864 -0.006033101 -0.018998193 -0.0044128085 0.012785074 -0.012614836 0.009963157 -0.017062485 0.00017916918 -0.007574079 0.0008089661 -0.0036709309 0.015090981 0.017218744
然 0.0067062257 0.012743163 -0.008535211 0.010702705 0.0040009283 -0.006573162 0.01857388 0.014583387 -0.018233193 0.008471804 -0.015552871 0.0025865936 -0.0026569914 0.0024514054 -0.0072343946 0.0071827555 -0.007825389 -0.015204086 -0.019164655 -0.01679493 0.0074568796 -0.017030623 0.0073507642 -0.015203297 0.005950811 0.0038193488 0.0010252976 -0.006633248 1.4960766e-05 0.007883968 0.0042807483 0.0062466906 -0.0067893146 0.00042396307 -0.0044727945 -0.0063144444 0.013520496 0.0036817908 -0.00919805 -0.012628245 -0.011390312 0.015488501 0.0025783563 -0.007367873 0.007927268 0.004849765 0.017032538 -0.006725254 -0.013538365 -0.0078934785
《 0.016528087 0.0013031816 -0.013266742 0.0028666973 0.004821594 -0.012601027 0.017867336 -0.017419372 0.004570875 -0.016927855 0.0029366016 -0.018347424 0.018596489 -0.0009042096 -0.012879698 -0.01613725 0.011156454 0.0141535755 0.0044883415 0.00573143 -0.011227651 -0.017065763 -0.006966624 -0.0049529052 0.005921664 0.006321444 -0.014444189 0.010871887 0.017739946 0.014191183 0.001418991 -0.01992844 0.010279293 0.0009449649 -0.005793593 -0.016614594 0.01994898 0.014169753 0.0030020403 -0.0031197832 0.007184553 -0.0016225433 -0.01414422 0.014464812 -0.0043031573 0.015208642 -0.0111336205 0.0017017411 0.010366921 -0.0039537665
》 -0.009969273 -0.0032634782 -0.008147626 0.013988232 -0.0130759375 -0.016163314 0.008472507 -0.01503447 0.001965661 0.0008637309 0.018069202 -0.016399879 -0.008505861 -0.008314333 0.015879959 0.010828104 -0.0021585012 0.009381311 -0.019409675 0.0123753045 -0.016138129 -0.008320844 0.013994576 -0.01205935 -0.015042669 0.019981517 0.0045473096 -0.00047267435 -0.016072195 -0.008157796 -0.015921772 -0.017276598 0.018348772 0.0063934396 -0.013405273 0.00047897815 -0.006019752 -0.018810038 -0.0036673115 -0.017741315 -0.01276905 0.009411678 0.016171178 -0.0020543456 0.014665761 -0.00433603 0.007667417 0.0071087144 -0.011465518 -0.013384623
由 -0.01690414 0.0021149085 0.016878579 0.0015120959 -0.00818548 0.016053405 0.015696894 0.002248137 -0.0034914755 -0.0048786784 0.0018460416 0.008209681 -0.011688139 0.0013609409 -0.008477463 0.017416123 0.019329295 -0.014060898 0.01254585 0.017431993 0.00089124916 -0.019162413 -0.014370327 -0.010593138 0.014719526 0.008353608 -0.0032829903 -0.0022351693 0.00066195487 -0.0062245866 -0.013375661 -0.013776967 0.014331009 0.01619403 -0.016902087 0.016238041 0.0035786103 -0.014340066 -0.01134098 -0.016279304 -0.010163185 0.00428386 -0.017243048 -0.0006921387 0.016810594 0.015404124 -0.0010069465 -0.01447046 0.016160486 0.0017208719
仲 -0.010634126 -0.0016295528 0.01207256 0.011858968 -0.01298057 -0.017382039 0.016160367 0.01896048 0.010970416 -0.008214827 0.015942993 0.009219608 0.0034227204 0.00078744174 0.016031777 0.002387545 -0.002083454 0.0076330923 -0.015173599 -0.0011470341 0.0018560027 0.0064949295 -0.008957846 -0.003437929 0.0039858124 -0.012108717 0.013088696 0.00083266734 -0.008715651 -0.0072736335 -0.015318689 -0.019372093 -0.014772088 -0.018503394 0.009404525 -0.017422408 -0.0037363505 0.007734625 -0.008805037 0.0005060887 0.013260493 -0.00023007393 0.015162601 0.007841904 0.011921574 -0.0118558835 0.012042264 0.0074949167 -0.0066345357 0.019167794
非 -0.0025503705 0.008633881 0.015643958 0.0068122386 -0.013159144 0.002663288 -0.015381372 -0.014295788 0.002618377 -0.016243368 -0.00456537 -0.0063271807 0.00037197827 -0.0016889524 -0.018705718 0.008032012 -0.011117373 0.017971765 0.012013924 0.009452381 0.00032869814 0.002154486 -0.01014554 0.004179661 0.017964555 -0.01162512 -0.007554228 -0.0030358243 0.008451376 0.00557256 0.0037143158 0.01360136 -0.010640988 -0.016408045 0.0028837465 -0.00765934 -0.016933963 -0.010255189 -0.011978595 0.0050132824 -0.014184909 -0.0013267255 0.011316735 0.017482374 -0.016054574 -0.016037604 0.01949617 -0.015695183 -0.0001501131 -0.009292939
出 -0.012047913 -0.0045981193 -0.011650958 -0.012383375 0.0011512828 -0.01903012 -0.005715227 -0.00085912464 -0.007401564 0.013168161 -0.014487597 0.0011328149 -0.0014271236 -0.0020019244 -0.013852329 0.0120835155 -0.011604314 0.0067466255 0.010956792 0.0047014547 -0.016213683 -0.0073728487 0.018097967 -0.008203583 -0.0061636185 0.0017597985 0.0006294799 -0.010946023 -0.013988475 0.0066095325 -0.019187702 -0.0138929505 0.011529982 -0.007244351 0.017543301 -0.0103410985 -0.011049547 -0.010318437 0.009010391 -0.0016972875 0.009332923 0.0009970164 -0.0036142538 -0.019081328 0.015930288 0.015921928 0.018602097 -0.0069563887 0.009388766 0.01772542
过 -0.013051712 0.014868596 0.019193223 0.0013917589 -0.013514227 -0.017304944 -0.01807558 0.012881603 -0.016067376 0.00042678355 -0.014119353 0.0016556167 -0.003157537 0.0024554967 0.01972493 -0.0068430374 -0.010521522 -0.002032268 -0.018247962 0.0064174174 0.015077371 -0.01199939 0.015220766 0.00089207885 0.008436102 0.016679706 0.0062256693 0.009142756 0.0021821521 0.011357141 -0.0123806875 -0.012549572 0.014868977 -0.016241431 0.010663754 -0.00099761 0.019603474 0.002592039 -0.011765367 0.013093106 0.017398046 -0.0043056295 0.019758875 0.017063443 0.0010815763 0.006338949 0.017119111 -0.009268632 0.004765632 0.018288553
一 -0.0112100905 -0.01694371 -0.01810992 -0.008614004 -0.013820896 -0.0012855983 0.013483216 0.004334469 0.015440125 0.006677909 0.018926876 0.002240796 -0.017866652 0.0017116903 0.01093127 0.0019014763 0.0048974655 0.0026506567 -0.001558845 0.009385404 -0.016440803 -0.0054172943 0.01747437 -0.019637244 -0.014516528 0.0073680445 -0.0042812275 -0.0077071544 -0.019189723 0.0048644827 -0.00030017376 0.0029866982 0.006306038 0.004174509 0.009259811 -0.013308467 -0.018529031 0.0041214535 0.0053448603 -0.001338377 0.006529851 0.0062889215 0.012540769 0.0094349645 0.0060141203 0.0064037773 -0.017535055 -0.01479197 0.010794563 0.00046251295
虽 0.0028314064 -0.0046545123 -0.017706819 -0.00869769 -0.00790633 -0.005681038 0.011974711 0.0018414735 -0.0052405307 -0.010011105 0.0014220809 0.0080255885 -0.007865314 -0.011026525 0.018382184 0.008535394 0.0103731295 0.013305461 -0.0058934498 0.006804757 -0.007504692 0.009218363 -0.01181813 -0.0048166653 0.015700774 -0.018279467 0.006912093 0.01983098 -0.008787284 0.0030640292 0.017522832 0.0009890986 0.013092313 -0.0010546255 0.008632541 -0.016212232 -0.013614748 -0.0052756188 0.007582755 0.00017264366 -0.011492173 0.0064022755 -0.01603841 -0.00011111021 -0.014340737 0.01583217 -4.255533e-05 -0.0009557557 0.007075608 -0.006273372
足 0.013100302 -0.017537532 -0.014072973 -0.0044058394 -0.010679843 0.007765074 0.00019076586 0.012990524 0.012324364 0.0049449704 -0.013150584 0.0065536904 -0.011014819 -0.0075267195 -0.01932592 0.011270656 0.002946763 -0.010351598 -0.016365709 -0.0018420243 -0.009749656 -0.0044803596 0.019871058 -0.016462406 0.00024573563 0.0036660812 0.018843789 0.019982014 0.013895041 -0.018173859 -0.015064606 0.008471474 -0.015270135 0.013921778 4.305124e-05 -0.008678913 -0.0055078245 -0.007373891 0.0051281643 -0.005294261 0.0027427243 0.00316195 0.008567226 -0.015401389 -0.0013602995 -0.00057794095 -0.018550592 0.015496688 0.012096159 0.000673213
居 -0.0035893535 -0.007694709 0.00029762028 -0.014868464 -0.012823946 -0.0044503687 -0.008621066 0.018546756 0.019607313 -0.011160445 0.010110524 0.018854095 -0.0017970109 -0.01153063 0.012125558 -0.0007758498 0.009232571 0.0092433905 0.001657474 -0.017974019 0.016096046 0.012423863 -0.014830038 -0.006339595 -0.0039786003 -0.010266611 0.006218946 -0.0043287133 -0.008076193 0.009100022 0.018574884 0.0070902323 0.018532412 -0.006477492 0.014577305 -0.006189494 -0.015009098 -0.015124881 0.019474318 0.014467495 -0.015933566 0.012346175 0.017311325 -0.0046346425 -0.0035946034 -0.011237354 0.016437039 -0.0074662063 -0.0065006064 -0.012211621
尔 0.014216769 -0.006002974 0.0078707 0.012497639 0.017929448 0.008579514 -0.012157816 -0.011948192 -0.00876591 -0.0017010259 0.00018265008 -0.00089920516 0.002053952 -0.014786241 0.008012724 -0.003709607 0.0063227913 0.006431484 -0.012484481 0.008219163 -0.015981292 0.017283782 -0.010886717 0.007020063 -0.0024961042 0.011950783 0.008834069 0.013615448 -0.010648804 0.007785387 -0.003378477 -0.0074013826 0.000107641215 -0.010906579 0.017902756 -0.01934806 -0.0063883755 0.0069889855 -0.0060755014 -0.015792497 -0.0014067006 -0.0041936804 -0.013018431 -0.0032419253 -0.009459908 -0.017279493 0.0012231374 0.003924775 -0.019556627 -0.018629592
夏 -0.0045623444 -0.015207729 0.010766618 0.01291305 -0.0125583885 0.011290376 -0.013541388 -0.017414002 -0.009117655 0.004077518 -0.015826568 0.015389719 0.0032833552 -0.013027553 0.014142506 -0.009225409 -0.019399434 0.016924305 0.010845282 -0.009110656 -0.01791743 -0.01870136 -0.0106626935 0.01617855 0.014189227 0.0056839893 -0.005684333 -0.0071505737 -0.009718561 0.014818343 0.007105641 -0.0040452504 0.0041390634 0.007758696 -0.00223181 0.0012888097 -0.012430387 0.00677469 -0.018676948 0.0045825434 -0.017921261 -0.014233091 0.014802765 -0.005900516 0.014083213 0.0070023583 0.0037290882 0.018469268 -0.0046857 -0.016029222
父 -0.014621275 -0.017749416 -0.008445269 -0.010445532 0.009707913 -0.012092719 0.008039453 -0.0010855794 0.010731685 0.011791074 -0.0011606883 -0.012456929 -0.0027294206 -0.015445654 -0.009319848 0.008854348 0.011085463 -0.018323038 0.00976892 -0.00011847734 0.0071360203 0.002266953 -0.010159192 0.019108303 -0.0088955825 -0.010009176 -0.017841816 0.012491593 0.0018614267 0.0031801818 0.015251884 0.01962593 -0.013585636 -0.008654225 0.019671774 -0.008968277 -0.007871981 -0.017731199 -0.00057846546 -0.0066170357 0.009083522 0.0077938056 -0.018420866 0.0053864885 0.01484272 -0.0052839112 0.005527837 0.013822947 0.0124885775 0.011465533
及 -0.019741219 0.015020403 0.018701822 0.00745605 0.016343163 -0.011671319 0.011206636 0.010662446 0.008749378 0.016134517 -0.011650729 0.0078061577 0.0075862072 0.006583371 0.012792523 -0.0071486235 -0.0063051153 -0.0058660363 -0.015248317 0.010241277 -0.0034648895 0.018497536 -0.0042413305 -0.0022066236 -0.004056113 0.01374223 0.017402746 -0.0111032175 -0.0038363242 0.0036896586 -0.011938717 0.014271943 -0.013021564 0.008157401 -0.0048496677 -0.012531362 0.0012865734 -0.006429932 0.019402148 0.002762103 -0.01921322 -0.0024318146 -0.0071853325 0.011323309 0.0029127193 0.0017047381 -0.009272268 0.013558123 -0.01796493 -0.018020222
己 0.007192838 -0.016224464 -0.014870998 0.01827928 0.010568283 0.019106975 0.010215509 0.0027167583 -0.0020793246 -0.0076011345 0.010972709 -0.0006681013 0.017865822 -0.013100712 -0.017400352 -0.008359661 0.0009513521 0.015335247 0.01914699 0.0004921913 0.012457716 0.016208895 0.013450331 0.0027031803 0.010507619 0.0074822805 0.00014921426 0.01449727 -0.0077832267 0.011774907 0.005064418 0.018547254 -0.009986451 -0.008599908 -0.016679766 -0.018999765 0.0007318592 0.003965454 -0.004085903 -0.019576544 -0.01175765 -0.019774374 0.011693175 0.007426307 0.015077865 0.013734469 -0.0013572788 0.01376491 -0.0077929376 -0.0062249824
予 0.0064490554 -0.008554673 -0.00060351135 0.015340285 0.0045762584 0.009530392 -0.015452663 -0.0026549862 -0.005623982 -0.0040782783 0.011934964 0.018396325 -0.0052146455 0.016102372 -0.0025561713 -0.012138221 0.012742388 0.002450645 -0.017511409 0.008877661 -0.0011815643 -0.0161531 0.0015754604 -0.007171647 0.0143870255 0.018318815 0.0043042204 0.011556432 -0.006358843 0.009787995 0.014546175 -0.018666258 0.004111705 0.005869446 0.004199145 -0.002924633 0.0156296 0.017423157 -0.0015331721 -0.0095281815 -0.003150277 -0.003693602 0.016837422 -0.012915268 0.01511043 -0.018655177 0.018536298 -0.007324419 0.017414369 -0.016754517
色 0.01807584 -0.0150618935 -0.0050857947 0.0023033142 -0.015823316 0.014730289 -0.014096768 -0.01605011 0.0042430423 -0.019034388 -0.012339392 -0.0074716685 -0.011244852 0.011050371 -0.0034304308 -0.0024008441 0.015582826 0.008992212 -0.0028093385 -0.01103106 0.017675841 0.010547861 -0.005228712 -0.0068879244 -0.009190165 0.0066398787 0.0016736411 0.008998313 -0.01445122 0.009064264 -0.0016715932 -0.0046624467 0.0048942016 0.0022565245 -0.0146072265 0.01597771 0.015203065 -0.00957307 0.019555442 -0.011193728 -0.010680854 0.0019068718 -0.0127709815 0.0018101406 -0.004346256 -0.011652829 -0.017275639 0.0012169885 -0.010764501 -0.013107013
友 0.00086187123 -0.0053071687 0.012200736 0.010899153 -0.010620787 -0.014861209 0.013757753 -0.009536517 -0.014768138 -0.001227858 -0.0018687438 0.019067062 -0.017668152 0.01637593 0.0046600364 0.004053476 -0.01971769 0.0065959715 -0.004076688 -5.93853e-05 0.019633692 0.0042180275 0.006468103 0.0064543174 0.014069242 -0.0022764443 0.0011451768 -0.017072944 -0.0022942852 -0.014614067 -0.0053617763 0.012815213 -0.0145000545 -0.011471004 -0.008284433 -0.0033837294 0.00035919427 -0.006750133 0.010558712 5.468607e-05 0.009286618 -0.009726992 0.011223764 0.0017157602 -0.010742435 -0.004933262 0.0031451415 0.014602889 -0.0058527994 0.012417712
成 -0.016670486 -0.009960728 0.009132945 0.00537369 0.019185802 -0.004141595 0.0028972721 -0.013631148 0.009314389 0.00466959 -0.0006324196 0.0017352009 0.009333093 -0.007312877 0.018347954 0.018745476 0.017735664 0.0017027712 0.017342571 0.0178847 0.0076179504 0.014273514 -0.01872685 0.013069538 -0.002351482 -0.005646121 -0.0086535 0.0018708754 0.0033976291 -0.010909125 0.015972435 -0.0020567751 -0.011177406 -0.01707521 -0.006224115 -0.002647035 0.00820632 -0.0017178917 -0.0016213988 0.00077206135 0.006623504 -0.0134984655 0.018170828 -0.005688708 -0.008621132 0.009530434 0.015430341 0.0060918448 0.008581867 -0.012461696
远 -0.004046259 0.0045900485 -0.016130783 -0.010755215 0.004447026 0.010963003 -0.0006498194 0.011621809 -0.010598621 -0.01890814 -0.014354012 0.01040868 -0.017163198 -0.008778092 -0.010990395 -0.019033877 0.019142065 -0.007861838 0.010183005 0.0048408792 -0.007864005 0.005111511 -0.019767517 -0.0019578885 -0.0056211734 0.011305384 -0.01542618 -0.0001288104 0.0028749323 -0.010200209 0.00309731 -0.010133876 0.00021733998 -0.018718494 -0.013803467 -0.01835767 0.0030228756 -0.0026737833 0.009230623 -0.0051719663 0.01759394 -0.019774802 -0.007519603 -0.014337775 0.011420753 -0.01617389 0.0022342491 -0.005828061 -0.0055668545 -0.005847189
上 0.010822775 -0.013450346 -0.0030593204 -0.0032096338 -0.0038549232 -0.003429544 0.00076981063 0.013212754 0.017515067 0.016258419 -0.009264667 0.0014725137 0.0029245971 -0.0034146428 -0.0039386298 0.010604148 -0.010766208 0.0069001648 -0.005062711 -0.0025149274 -0.016531823 0.013325881 0.006748588 -0.013791132 0.016406657 0.009184909 0.002614207 -0.019692866 0.017353639 0.0026979137 -0.0067576147 0.0022961188 -0.01160608 -0.0029089975 -0.018050266 0.0020592094 -0.007808988 -0.006481702 -0.00028315306 -0.010286481 0.002958939 -0.005994384 -0.013218825 -0.019599583 0.00849947 0.0072083827 -0.00027390957 0.0029768134 -0.00299206 -0.01742678
立 0.30681324 0.28790602 -0.17686269 -0.29376253 0.3114592 0.24179535 -0.30243182 0.37588704 0.2694533 -0.57872933 0.2931535 -0.30098277 0.20668657 -0.28293443 -0.20173144 -0.21807572 -0.22728987 0.48060885 -0.29052192 0.18969731 0.16843419 -0.25849894 0.2550935 -0.32303458 -0.38568038 -0.2457708 0.2593416 -0.32762858 0.27905205 -0.16534188 0.26331133 -0.23707458 0.43167672 -0.18771574 0.27327323 0.28152147 -0.33128294 -0.2712885 0.28770438 -0.26486936 0.29404986 -0.15687482 -0.17416322 -0.26526156 0.30086538 -0.20627248 0.33394197 -0.16434231 -0.67567694 -0.26057252
今 -0.00033288478 0.01916435 -0.016972609 -0.015674684 0.017194621 0.0036391735 -0.008636374 0.013040251 -0.0070123863 -0.006497481 -0.009465398 -0.008410255 -0.01143358 -0.012472631 0.016964547 -0.00012875079 0.012005162 -0.017086904 0.0008311057 0.0035192035 0.016337678 -0.016717955 0.008768072 0.0031842685 0.014141366 0.012729468 0.0020276404 -0.007751033 0.0007064819 0.016598986 0.00090798375 -0.015569909 0.0058090854 0.016191483 0.008788087 0.010746488 0.004773314 -0.012185378 0.0096753165 -0.008386941 0.018100519 -0.0033036326 -0.0074279737 -0.010629413 0.008061221 0.009095351 0.015088589 0.019667769 -0.01641324 -0.010058892
张 -0.018074472 0.00933489 -0.010148697 0.0032685732 -0.0076177856 -0.008355093 -0.006913154 0.0058647394 0.004911225 -0.01984247 0.00054191827 -0.005433824 -0.007914745 -0.0023557234 0.0025443195 -0.008702283 -0.016800584 0.012874672 0.019793395 -0.016384942 0.0011745428 0.014908812 0.008153617 0.0035199833 0.016362164 0.008515458 0.004499981 0.015157151 0.014311762 0.0015509748 -0.0035882257 0.0148870135 0.0072507784 -0.011189927 0.0018677783 0.008117867 -0.007939727 -0.012286322 0.008150563 -0.00052913424 -0.008792266 0.015407726 0.010205135 -0.014808957 -0.015872309 -0.0036225033 -0.008632536 0.012564754 0.007756309 0.004760756
中 0.017950403 0.012828009 0.013747622 0.01935181 0.0049530244 -0.01462033 0.016766254 0.01764461 -0.004396181 -0.0007328605 -0.0029746222 -0.009077818 0.019604491 0.007722876 -0.0032230138 0.017100198 0.0076261805 0.010511351 -0.0076204585 0.004988067 -0.008038049 -0.018786058 -0.005667276 0.0061590336 -0.008485856 -0.013804052 0.010456299 -0.010095002 0.012748663 0.019372262 -0.004185786 0.019782128 -0.013528161 -0.0075907228 0.015683698 -0.005949132 -0.007926323 0.011258719 -0.00020719289 0.013234839 -0.016643502 0.0018468761 -0.0039398763 0.005924308 -0.016282208 0.012078161 -0.019655602 0.01715578 -0.004525852 0.019006219
季 -0.0015986514 0.005170593 -0.009025655 0.017126875 0.008768739 -0.00054765464 -0.013937466 0.011573078 -0.010251744 0.015964359 -0.010833204 1.47294995e-05 -0.0069445777 -0.00806149 0.01630758 -0.018947823 0.01105987 -0.018524587 -0.00048125265 -0.01219234 0.0003920412 0.0034088825 -0.015768522 0.014390041 -0.019404182 0.008197439 0.014881914 0.012887819 -0.0074062943 0.017658107 0.00085242745 -0.016355006 -0.0074900505 0.012816243 -0.006922593 -0.017564539 0.01483294 0.0066759563 0.004979904 0.0014764237 0.019821372 0.008781386 0.010399857 -0.0136788795 -0.007249403 -0.019185057 0.01867338 -0.0033448671 0.00082392927 0.0019324493
臣 -0.012667863 -0.0053481148 0.0068497467 -0.010139019 0.01412543 0.00834631 0.012349688 0.009811034 0.012872786 0.00802213 -0.0014439606 -0.01748224 0.017132703 0.015780626 -0.014123168 0.004039185 -0.019303322 0.0032931494 0.005993762 0.005811231 -0.007119956 0.018859906 0.0019497299 -0.0155794 -0.017497802 -0.0071961354 -0.013169362 -0.0065584537 0.0090812445 0.006148307 -0.01621057 0.014195707 -0.009936907 0.0060131643 0.011504664 -0.017493343 -0.002153363 -0.011209199 0.0089403195 -0.014395396 0.017218394 -0.017464273 -0.014494352 -0.008554749 -0.01689768 0.004680464 -0.0047202846 0.01437547 0.007696466 0.013474376
贤 0.008386104 -0.0010328579 -0.0179282 0.0017452597 -0.004429474 -0.00897064 -0.01126157 -0.002273817 0.004208791 -0.004663048 0.019123964 0.0014717722 0.003707192 -0.015498664 -0.009188168 -0.012360697 0.005058863 0.014756209 -0.0029352377 -0.007206454 0.010678327 -0.0018200158 -0.0047391676 0.006943326 -0.006878805 -0.0061593386 0.003188703 0.015495583 -0.018313985 0.008269224 0.00022192478 -0.008460724 0.0061254883 -0.013914399 -0.013389239 0.009515032 -0.0026666687 -0.0032716298 0.015868621 0.009902505 -0.014209997 0.0014587116 0.013862152 0.015423753 -0.00921022 0.010769731 0.0013618874 0.0034454034 0.0018430041 0.0070736576
思 0.017621636 -0.0058414554 0.0132748 0.0008655047 0.007468326 -0.018317996 -0.007004938 -0.0070486995 0.00035260437 0.006217725 0.0153414225 0.008538237 -0.00583189 0.019053435 -0.0187377 0.01770359 -0.014950058 -0.007933197 0.018628247 0.010913012 -0.018809918 0.0035575365 -0.0154320495 -0.010777483 -0.017031766 -0.0153332185 -0.010216241 -0.010615459 0.0031483793 0.008945105 0.007263994 0.0012747789 0.01502974 0.019359447 0.005373945 -0.006266973 0.014866061 0.0079054665 0.019940559 0.011818242 0.010941241 0.019288072 0.013739407 -0.009281096 -0.006825201 -0.006895442 0.017640995 -0.008299875 0.01067704 0.011372082
齐 0.015929626 -0.010841465 0.00014266252 -0.019844942 -0.013956079 -0.0004154849 0.0022101067 -0.0048972797 -0.0006336832 -0.008312588 0.0077861 -0.010928125 -0.009217221 0.008008222 -0.007426295 -0.007916694 -0.0006116795 0.0038504861 -0.012116308 0.010186879 0.0056096218 0.01736586 -0.017920101 0.004978864 -0.015788497 -0.0055925227 0.002751138 0.015603151 -0.01586214 -0.008769402 -0.016287258 0.017060082 -0.009762451 0.00027998924 0.002217574 -0.006985662 -0.012127602 -0.011374853 -0.0046043727 0.01768802 -0.013461379 0.015740642 0.017323392 0.0062939855 0.0067218062 0.0079054255 0.00735054 -0.011831181 -0.0039138673 0.005081036
义 0.017573748 0.014015817 0.00048167704 -0.0100635 -0.002813716 0.016850762 -0.0044879983 0.010662391 -0.003391087 -0.0148346685 0.010363097 -0.0149080055 -0.0006256032 0.005673203 0.0004609251 0.01858725 0.01374602 -0.019727604 -0.01881368 0.0043291566 -0.015283181 0.012367062 0.017483063 -0.011608558 0.010803993 -0.004839654 -0.0029396534 -0.019076504 0.01575575 -0.0029369544 -0.018296339 -0.017361205 0.0054590465 0.0014896607 -0.0144375535 -0.015297928 0.009007699 -0.000748713 -0.017243853 -0.012419837 -0.01538743 -0.0039060425 0.0059360336 0.011693716 -0.007214489 -0.016088659 0.00974631 0.0149878785 0.007729399 0.009925882
正 -0.0029994105 0.014605799 0.008349121 0.010989229 0.002706778 -0.0020226405 -0.010183368 0.012287504 0.007399604 -0.01436337 -0.013990071 0.019376824 -0.01692587 -0.01478579 -0.0077423714 0.0076655694 0.002736864 -0.0006934118 -0.004183297 0.0028183293 -0.017830595 0.015621016 -0.004464321 0.010581749 -0.012714918 -0.01756689 0.0016604972 -0.005139823 0.008121116 -0.019568503 0.0017773437 0.0067126676 0.004243727 -0.0011782742 -0.01176598 -0.018026505 0.018068543 -0.004218316 -0.01422811 -0.012049396 -0.0168884 0.011443944 -0.012512554 0.017155087 -0.008412259 -0.0105331065 -0.010738298 -0.014303021 0.007670901 -0.008579523
命 0.4605291 0.6720337 -0.6797004 -0.6001606 0.5876762 0.2951948 -0.48063385 -1.3040878 0.34499294 -0.57371867 0.34616804 -0.95960104 0.47955647 -0.17604809 -0.84981847 -0.47896326 -0.7755301 0.17058364 -0.5428248 0.6677062 0.38466844 -0.8810077 0.3413186 -0.10574405 1.7982942 -0.35306293 0.5864772 -0.076187275 0.19551387 -0.84616107 0.57821894 -0.4422525 -0.37189242 -0.42948455 0.6016724 0.38699526 -0.41368052 -0.5882013 0.33769202 -0.86314595 0.1505717 -0.688933 -0.64275235 -0.6123772 0.45365116 -0.62327856 0.17719664 -0.6587061 0.16850448 -0.59407884
曾 -0.012693512 -0.014696719 -0.012227557 0.017869068 -0.0031745434 0.00068918464 -0.015134756 -0.00690469 0.014096569 -0.010723484 0.0153757855 -0.005146279 -0.01403949 -0.019011926 -0.0074338433 -0.0005408049 -0.012420366 -0.014337589 -0.011769714 0.015682492 -0.0067603346 0.017406432 -0.010906658 -0.015971523 -0.007090797 0.0043218685 -0.009983523 0.010896099 0.010172019 0.008663275 -0.017985653 0.007582369 -0.008094883 -0.0024484706 0.018843604 0.017841484 -0.016049335 -0.0116128065 0.008464052 0.011677851 -0.018355705 0.019606542 -0.016126763 -0.003960209 -0.010452897 -0.018691735 0.006174028 -0.016123634 0.007220788 0.008020887
伯 -0.0017699099 -0.013692228 0.010202405 -0.0055497168 0.00263983 0.017636701 0.0005933523 0.000676887 0.0159035 0.010239384 0.013968527 -0.0040891385 0.0018638325 -0.015239846 0.009465814 0.00908463 -0.01562555 -0.00995837 -0.008700883 0.008274314 0.002961037 -0.0007790732 -0.010657025 -0.011100218 0.014836521 -0.0039236355 -0.004984908 -0.01853538 0.0021827603 -0.0139210075 -0.012169885 -0.0064541744 0.00575161 0.019064732 -0.0036695264 0.011926555 -0.0008307195 0.007593739 0.00053381204 0.001823976 0.0024814296 -0.01601658 0.006859629 0.005710089 0.008931353 -0.016295187 0.006724925 0.011727286 -0.0075513767 -0.010524716
门 -0.0027429056 -0.018875115 0.015056416 0.0027033042 -0.010417454 0.010030157 0.008602168 0.013980479 -0.0024638176 0.0061560366 -0.000863173 0.013464231 -0.018802153 0.012782306 0.009552824 -0.0067378473 -0.008904535 -0.009167566 -0.018348858 -0.003667593 -0.009102099 -0.0024135495 0.006200099 0.014092348 -0.0010771226 -0.0037201284 -0.013862645 -0.01805483 -0.01833255 -0.010512912 0.019244283 -0.017680524 -0.0024752854 -0.0089053055 0.008527663 0.0010139942 0.013963275 0.0196393 0.012359884 0.008149862 -0.009948592 -0.009332669 0.0059938026 0.009919128 0.011123853 0.013989617 0.015479395 0.003937094 0.010875919 0.017922029
敢 -0.004244151 -0.019590277 -0.0093738455 0.016785802 -0.011577315 0.005012925 0.01949835 -0.0010651755 -0.007790036 -0.008601553 0.00445652 0.0012467694 -0.0072649 -0.0030479073 -0.0135415 -0.0043228576 0.008753974 -0.010748949 -0.014118464 -0.005123348 0.004808309 -0.0134141445 -0.0031123303 -0.007972762 -0.007869065 0.0065606306 0.0077747703 -0.00459661 0.016867368 0.012758436 -0.01611216 -0.010501594 0.014637058 0.014137146 -0.014711401 -0.00010351896 0.013663928 -0.016349955 0.010576348 0.0063335607 0.006386955 -0.0053065154 0.0032294653 -0.017905883 -0.008898694 0.010903492 -0.009199855 -0.00461128 -0.01135942 0.014914806
犹 0.009772212 0.0037790702 -0.0073807784 0.017649263 0.0045220233 0.007845652 -0.0116124535 0.018585138 0.0067563984 -0.008753648 0.014405536 0.0078500435 0.012150592 0.005542555 -0.012854838 -0.018566264 -0.017858397 -0.008599882 -0.0054615447 0.008458712 0.0188401 0.0055066324 -0.0032505894 -0.00961117 -0.0134290075 -0.018438656 -0.010858311 0.006783347 -0.008010146 0.015726326 -0.0034377598 -0.0012000394 0.0019590736 0.016965993 -0.007776518 0.012271874 0.009995734 -0.014145605 0.008178627 -0.01938197 0.01265734 -0.018385317 0.0054744957 0.007451875 0.015099501 -0.013494186 0.011914942 0.013002107 -0.0024019717 -0.005625362
生 -0.018941164 -0.010519023 0.004052584 -0.009106367 0.015069566 0.016391814 0.0067814756 -0.00427989 -0.01457773 0.008147182 -0.012950902 0.00037885903 0.01760212 -0.009043565 -0.010547719 0.011748175 -0.0003138995 -0.01217755 0.012365348 0.018374387 -0.016722081 -0.0007521653 0.0019123602 0.013909702 0.002842598 0.0089889 -0.015632715 -0.016094659 -0.008776612 0.0069989776 -0.018942177 0.006246979 -0.019872589 0.014867203 0.0051757907 0.017675648 0.018175162 -0.018769018 0.017017223 -0.015924452 -0.011359389 -0.014244272 0.0075455904 -0.0011786866 0.0076259375 -0.0066273543 -0.011765301 0.0137245245 0.008312254 -0.0012977624
日 -0.012722873 -0.017575035 -0.0029678273 -0.005162158 -0.0031363128 0.01577759 -0.008483884 -0.0059328247 0.010350573 -0.008985996 -0.018950373 -0.019501196 -0.0053971983 0.004513607 -0.015949799 -0.012834138 0.008393847 0.01631211 -0.010079422 -0.017956886 -0.016073478 0.014703343 0.0015557837 0.009849093 0.008165071 -0.017078198 0.01660743 0.010613711 -0.01842718 -0.014148588 0.0031602192 0.011239681 0.017320821 0.0038221097 -0.011936512 0.00162606 0.019149508 0.009600511 -0.0025525212 -0.0015548229 0.0049875854 0.017548127 -0.013629181 0.012801409 -0.014551293 0.0088229915 -0.019597048 0.016285924 0.015999312 0.000549798
敬 0.01008142 0.01732093 0.005315139 0.0032019257 -0.01861464 0.014790637 0.012716903 0.011289649 0.017928323 0.010921478 -0.009778957 -0.01516505 -0.016882772 -0.013520383 0.017740041 -0.005986042 0.0075537916 0.007400658 -0.016192159 -0.014019913 0.006983123 0.016638516 0.008255036 -0.005257709 0.017748715 0.018453108 0.013783214 0.0042093946 0.018580819 -0.009941616 0.017354285 0.01722652 0.0010366035 -0.009327881 0.009961454 -0.010275428 -0.011210081 -0.016486717 0.016917096 -0.017538123 -0.011075072 0.014468827 0.005831449 0.003983555 -0.018525373 0.013816077 -0.012944231 0.016274055 -0.0157569 0.010798769
难 -0.0040558814 -0.008680539 0.0015260744 0.0065223454 -0.0024127506 -0.0072607803 -0.0021537184 0.018608565 -0.010986228 -0.019710634 -0.019018697 -0.015661161 0.0010499645 0.009131641 0.0070443293 0.000586307 0.017413609 -0.00010933399 -0.012602806 0.0052499245 0.013005676 -0.0055375886 0.019789346 0.013705978 -0.017173486 0.013765676 0.019368928 0.0011579274 0.014910097 -0.016176542 -0.00658345 0.008888125 -0.003537154 0.00052241323 0.0074474975 -0.017160492 -0.017734403 -0.0192875 -0.016117007 0.01485398 -0.005555303 -0.014243727 -0.015750784 0.0070862337 0.0073509524 0.0042220615 0.016622704 0.0020154975 0.0001273346 0.013369507
直 0.006170256 -0.0021288227 -0.008224964 -0.017914936 -0.016410917 0.00025895596 -0.01144535 0.0024524496 0.012098267 -0.0010633945 -0.0008718538 0.0061463043 -0.017862177 0.013039048 -0.009915144 -0.011812777 0.0006987786 -0.011442022 0.017486632 0.0014457225 0.017732682 0.010543386 -0.0011595106 -0.014043505 0.0119122695 -0.008418453 0.019112997 0.007227349 0.012643756 0.0023206687 0.010954554 0.013974676 0.01874375 0.007958758 -0.0029685043 -0.012558066 0.0011948108 0.0033077025 -0.01908813 0.0196202 -0.015742423 -0.0012886215 -0.008590321 0.0072394917 0.015356483 0.013216991 0.00935997 -0.011243761 0.0073770424 0.010014398
丧 -0.011110098 -0.0015645599 0.01042716 -0.014985368 0.010155573 0.013838253 0.002474985 -0.0011565017 0.013128917 -0.0033910607 -0.0032736182 -0.012735304 0.0016424989 0.0098156715 -0.007381029 -0.016276145 0.00064888236 -0.0148466965 0.0040096305 -0.0025516748 -0.0027985715 -0.00084558723 -0.0054348684 0.011302724 -0.0070342207 -0.01265233 -0.011140318 0.018851819 -0.009911172 0.010079839 0.012223763 0.006888165 -0.01243134 0.004917631 0.01805781 0.010810392 -0.012207503 -0.012269719 0.01440397 0.0069156406 -0.016910305 -0.002146902 0.011996994 -0.013883621 0.004730203 -0.019156497 0.002087822 0.016008597 0.0067983936 0.01873525
说 -0.017828781 0.005199842 0.014251527 0.016614696 0.013030922 0.008360371 0.015099642 -0.0011784983 0.00314641 -0.01965528 -0.008468689 -0.009405086 -0.019462496 0.008717696 0.017515697 0.012281799 -0.0074692653 0.009844083 -0.0056564496 -0.01070801 0.0001424861 -0.0069979024 -0.012811076 0.008299531 -0.0009666943 0.0087593505 0.0011044383 0.0141479345 -0.0115199825 -0.002881224 -0.016053226 -0.018427894 -0.0035904478 -0.009960534 -0.006162739 -0.0054659196 -0.0051575853 0.01307112 -0.007651226 -0.0126477955 0.0020675897 0.0052778507 0.0142526245 0.0119744325 0.019268487 0.0041693593 0.008388521 0.019205507 -0.017936962 -0.018572366
自 -0.0007884359 0.002436962 -0.014463506 0.014571938 0.019729942 -0.0020860885 0.0041415547 -0.013304765 0.0033424497 0.016047606 0.0062148953 0.00936965 -0.0050378107 0.01643108 -0.0066882754 -0.0060626077 -0.019173775 -0.013981006 -0.008168523 -0.010959613 0.01571126 0.0048478413 -0.004602592 -0.011846489 0.010996394 0.011245486 -0.004116678 0.00359797 0.009638209 0.0015824365 -0.00048306226 0.0070240544 0.0010133743 0.008537456 -0.00079497095 -0.009804306 -0.0146159595 -0.01121753 -0.018549895 -0.019027976 0.016297143 0.001891861 -0.016560854 -0.014895071 0.002419622 0.017279228 -0.015604956 0.013920784 -0.019764397 -0.014979352
用 -0.008918762 0.0034385228 -0.013649938 0.013536453 -0.0039134333 0.009488754 -0.015302192 -0.0071946024 0.016838593 0.0046392963 0.0013240313 -0.0036824297 -0.008462999 -0.0151936505 0.007828292 0.015342648 -0.003992965 -0.018757867 0.0012233877 -0.0147097325 0.0025508855 0.012561726 -0.0036183523 0.007796643 0.003098526 -0.014809878 -0.01668334 -0.008673029 0.009817645 -0.006835353 0.0058353804 0.014474398 -0.0012811661 0.008831188 -0.0016712021 -0.0071143913 -0.012091293 -0.012941034 -0.0019550514 0.010139487 -0.0053432724 -0.013021142 0.007068145 -0.00019437313 0.012882752 -0.018232185 0.0008560824 0.017969562 -0.008633241 -0.014143264
周 -0.012090582 0.017550183 0.0098577235 -0.009918167 -0.009701578 0.0057411026 -0.015724543 -0.015065348 -0.0073656794 -0.0040001106 -0.005503449 -0.01136939 0.0107110115 -0.009060068 -0.014704327 0.00067558046 -0.015883833 0.0060883067 0.0025337052 0.0068463036 0.007959401 0.016198007 0.017093807 -0.016854143 0.014398899 -0.011604595 0.0013192415 0.00083937164 0.005964014 -0.007486393 -0.0010456418 0.01871247 0.00243093 0.003917017 0.008413388 -0.004491479 0.002814176 0.018828426 -0.009451082 -0.002801199 0.009155085 0.016863475 -0.0060271476 -0.009093652 -0.010202353 0.00956208 0.0035710144 -0.0013751673 -0.013043387 -0.0004278612
颜 0.01424735 0.013104691 -0.008004742 -0.0003978324 0.017763166 -0.012631048 0.010682144 0.008793862 0.011219013 -0.0024188184 -0.0154873105 -0.016977698 0.0032452631 0.016875193 -0.0055370424 0.011247375 -0.019567465 -0.015885022 0.0080393525 -0.014208378 -0.018337823 0.00897141 0.011803438 0.019516429 -0.011656234 0.0060441685 0.012657957 -0.008368775 0.019999275 0.01057619 0.0062567783 0.013008773 -0.015093033 -0.0002925396 0.004225304 0.0071826363 -0.01608786 -0.004828863 -0.011751664 0.012754245 0.012155888 -0.018137652 0.008174135 -0.015452089 0.015498571 0.011865885 -0.0033895397 0.0019267654 0.019327708 -0.013925728
年 -0.0012943554 0.005840144 0.012007224 -0.019155476 -0.019335568 -0.00403358 0.013979411 -0.0007382321 -0.0031781197 0.012763595 -0.0034115838 -0.005099859 0.0151918335 0.005093181 -0.005801718 -0.017192222 -0.009365291 0.0063327667 0.017351884 0.01791502 -0.0052997777 0.009075009 -2.799034e-06 -0.0065366314 -0.0062977457 -0.019181844 -0.010433738 0.008811572 -0.005586026 -0.019545507 -0.012465217 0.0016550946 0.004341428 0.0030594515 0.0051344587 -0.015063262 -0.014020871 0.0035708926 -0.0013654089 -0.011235077 -0.0143874185 0.013370366 -0.018245077 0.014480359 0.014273772 -0.01760707 -0.000875504 0.0146920085 0.009620323 -0.0018246245
告 0.01229917 0.002400329 -0.0047188974 0.01575825 -0.019115511 -0.005158138 0.008878231 -0.014194562 0.009608449 0.01294934 -0.0064417385 -0.0117952395 0.014105007 -0.0050022337 -0.012139933 0.0026372457 0.010433595 0.01203181 -0.0083074095 0.0065726372 -0.010801896 0.006130688 -0.019026453 -0.019028112 0.018135406 0.0059670852 -0.014224059 0.010507681 -0.014066941 -0.011519238 -0.008730373 -0.00850832 0.013482611 -0.012495205 0.00052874564 -0.012933149 0.012783809 0.003803575 0.0082461545 0.0067079854 0.0046644425 -0.006937599 -0.015596158 0.0013870811 -0.018484473 0.018961396 -0.012466984 0.010286541 -0.016263844 -0.014524731
十 0.0069891354 -0.009856247 0.0033428739 -0.008480198 -0.016112532 0.0064158416 0.0124649 0.015205302 0.003960686 -0.013246899 0.018131325 -0.0034914636 0.008463444 -0.0023352313 0.016488804 -0.00807642 -0.008920488 -0.0065301443 0.011875848 -0.0075132153 0.010861793 -0.011709685 -0.0058123637 -0.0021892404 0.008867449 0.018802976 0.003918991 -0.010697348 0.0009846305 0.010074677 0.0017008925 0.008265519 -0.01716623 0.00235296 0.00016667842 -0.006340625 -0.0048814034 0.0025906062 0.010418687 -0.005477352 -0.018090319 0.01834361 0.01605224 0.0023552536 -0.01814522 0.017245866 -0.014845275 0.0070485016 -0.008332248 0.016723359
怨 0.015623953 -0.016081437 0.008384931 -0.0067993617 -0.004786229 -0.009747288 0.013462703 -0.0074577066 -0.019600835 0.01022542 -0.003879261 -0.017500887 0.017855398 -0.019503962 -0.0018144822 0.015688641 -0.01891087 0.0072237705 0.007790575 0.00651036 0.010143137 0.007898814 -0.012008371 -0.011500067 0.019515812 -0.010243055 -0.018486567 0.010269663 -0.0150697725 0.0072707054 -0.018395962 0.0032605957 0.012247779 0.010137932 -0.008209591 -0.0031389785 0.0017218089 -0.009267992 0.017343342 0.0062020896 0.010205593 0.009212427 -0.018432736 -0.0008745694 -0.006035111 0.012660458 -0.0027606844 -0.016314391 -0.016751807 0.0073995185
达 -0.004043307 -0.0008427405 0.009859292 0.009575887 0.00468456 0.010646305 0.005998938 -0.018308697 0.009114036 -0.018563304 -0.009440375 -0.013319719 0.009112036 0.003335738 0.006821806 0.0060323835 0.019730076 0.014982056 -0.0045848726 -0.004327433 -0.008629551 0.008242245 -0.01118603 0.013271451 0.0020654248 -0.016452909 -0.0011299753 -0.019284975 -0.012013015 -0.0064598676 -0.016110113 0.00777833 0.011334317 -0.00019730568 0.007846534 0.010125205 0.011266698 -0.012512805 -0.0095348405 -0.0074263406 -0.019591497 -0.011034999 -0.018281847 -0.013325021 0.0070208977 -0.008696718 -0.012261631 -0.01701076 -0.008420603 0.019359881
孝 0.01577594 0.017111816 -0.014004628 0.006485758 -0.0019164038 -0.009879732 -0.00033946036 0.017811673 -0.0151366545 0.018180288 -0.015485863 0.01825281 0.019913998 -0.0035779094 0.0019427013 -0.0006967187 0.014323551 -0.018856512 0.015935749 -0.0065809106 -0.008529524 -0.01923212 0.007989735 -0.018766737 0.0037594913 -0.005044889 0.01082365 -0.013347549 0.00020472049 -0.003396468 -0.0025856446 -0.01181971 0.009673634 -0.017796278 0.0054036546 0.015484192 0.000811944 0.0047522997 -0.0034556435 -0.012566869 0.010232956 0.005368011 0.009883158 0.01820343 -0.010467066 -0.0059438753 -0.00779408 0.0007072115 -0.008922866 -0.011731846
弟 -0.0069988584 0.0026886223 0.01535953 0.013826739 0.011188423 -0.010519083 -0.0072433683 -0.004360075 0.0060926843 -0.017913712 -0.019260295 -0.0060089994 -0.019447101 0.0037163806 -0.017402517 -0.017699353 0.013558883 -0.0014565492 0.003290591 -0.015109599 0.011862228 0.009868136 0.017866543 0.0015849542 -0.0031038355 0.017865274 0.005818384 -0.008473236 0.019679027 0.0005607629 0.007734325 0.008386149 0.0023496056 -0.010688383 0.014946518 -0.002857828 0.019115953 0.010918741 0.000162189 0.014350395 -0.0046578143 -0.0010082722 0.017627299 -0.0056872964 -0.00053465844 0.014994149 -0.011603281 -0.011831379 -0.009407759 -0.014603259
至 -0.019767368 0.0035875915 -0.0011205435 0.013803091 0.010260594 -0.0011862993 0.013795014 0.00525167 0.0013996005 0.0108850645 0.019219512 0.011664917 -0.013506057 0.015361616 0.0065843007 0.010078475 -0.019477649 -0.0029400587 0.0008362722 0.011494496 -0.0058080126 0.008243069 -0.008754277 0.009645095 -0.005226302 -0.005089364 0.018260565 -0.019649645 -0.019583328 -0.0052495957 -0.008079092 -0.018835299 -0.013876652 -0.0033754944 -0.0045726276 0.0012552213 -0.00090069766 0.006002145 -0.012013504 -0.019519381 0.006426637 0.0049144053 -0.004613521 0.005117068 -0.007069833 -0.003149383 -0.008345609 0.010754981 0.016820686 0.00045410392
先 -0.008373215 -0.007999394 -0.01382004 -0.000402565 0.00093770504 -0.0045758816 -0.012948975 -0.0079053305 -0.014878333 -0.016601717 -0.011297342 0.010167215 -7.797957e-05 0.01587161 -0.008694706 0.016871963 0.0074827145 0.011082973 -0.013465669 0.0118444245 -0.015183899 -0.014847702 -0.014925334 -0.0037465906 0.004438894 -6.1037535e-05 0.012722413 -0.01846147 0.00088783976 -0.0075432155 0.013055441 0.016369121 -0.008407507 -0.0016436052 0.0039681364 -0.0059669376 -0.005805521 0.009588485 -0.019979717 0.009833489 0.007905578 0.011906855 -2.613306e-05 -0.010405493 -0.009000118 -0.0013858533 -0.018788291 -0.0045568347 0.0004542756 0.00807884
师 0.019698178 0.010327634 -0.0047519132 0.00042064904 0.016250465 -0.0003072095 0.005930135 -0.005557928 0.0063433526 -0.010173323 -0.0016046906 0.00085512875 -0.005381441 -0.008889551 -0.019750483 -0.019487543 0.0062538143 -0.0019136595 -0.000936408 0.0013923192 0.005449259 0.011858661 -0.0021005129 -0.010216751 -0.00906568 0.006288781 -0.0128579615 0.004924092 0.019145437 -0.0115646785 0.008214297 -0.016882602 0.004317405 0.0015127491 0.008543174 0.015243418 -0.011871202 0.010735411 -0.0145769045 0.012338502 -0.006199038 0.003574164 -0.010149453 -0.0087341955 -0.011197984 -0.013107424 0.007909665 0.0047187135 0.016965218 0.0019435214
女 0.01765323 0.010059626 0.010036264 -0.01596061 -0.0065850616 -0.016941547 -0.00029378413 0.0034671878 0.0075491928 0.00087764737 -0.0061136247 -0.015385139 -0.018665232 0.014023199 -0.005873921 0.0014283418 -0.017536728 -0.0027104376 -0.0128342435 -0.010587222 0.006108551 0.010635497 -0.00036408423 0.0027866054 -0.00033878803 0.010751445 0.018968772 0.006955075 -0.0066891024 -0.017972559 -0.0074737454 0.00923563 0.0028601717 0.015291526 -0.005019116 0.015695395 -0.010117669 -0.004199362 0.01641373 -0.007271752 -0.0021949483 0.016298557 -0.018508144 -0.002885096 0.009182875 -0.008324749 -0.013632128 0.017579235 -0.01298038 0.002527759
多 -0.017004756 -0.01976686 -0.018873736 0.0036090564 0.019895632 0.0020664025 0.008298218 0.0003437209 -0.0125758145 0.0053475904 -0.005056386 0.018144947 0.0050249696 0.019974258 0.0017282986 0.00032857418 -0.01785004 -0.0032547067 0.000275681 -0.017914606 0.019357046 -0.008825788 -0.0069663404 0.0050736973 -0.013914425 -0.012771656 -0.003664453 -0.009651288 -0.014780645 0.005767834 -0.0024879097 -0.003407073 -0.010853023 0.019948673 -0.010675495 -0.013454885 0.019050552 -0.01417232 0.012998757 -0.0073974463 -0.0015907024 0.015663685 0.0053914473 0.0023656248 0.0063602566 -0.016730815 0.0135506075 0.018685428 0.014496608 -0.017021582
忠 -0.0001235342 -0.009954428 -0.017916815 0.0067475745 -0.013312845 0.0021781467 0.008925924 -0.005067372 -0.015571286 0.0018919682 -0.0053200433 0.0038150332 0.0023018313 -0.002113409 0.013287878 -0.0050255037 -0.0041347933 -0.005654352 0.009533889 -0.01719824 -0.017038738 0.0102015305 0.008777997 0.013276605 0.018540325 0.008050758 0.01868782 -0.010699818 -0.011502607 -0.0044725942 -0.005606377 -0.0015401029 -0.018340623 -0.010504691 -0.019836705 -0.0061223744 -0.014650969 0.00792953 -0.013359189 0.01029758 -0.014977617 0.013273944 -0.015271644 0.016852092 -0.017450914 -0.016765049 0.004114718 0.018030168 -0.0025809144 -0.008632874
四 -0.0033483314 0.0057084225 0.0112115545 0.01362678 -0.015549781 0.0115080755 -0.0094569065 0.0032829356 0.012150586 -0.0031067966 -0.013487806 -0.002185943 -0.0075881407 0.002455423 0.0066490746 0.012684948 0.010088488 0.016029404 -0.0041154027 0.017794212 0.019180808 0.010042539 -0.003700013 0.018444184 0.008980815 -0.002941835 -0.006803982 -0.006607878 -0.012155116 -0.0026492167 -0.01907086 -0.005116391 -0.009362779 -0.007510867 0.0043420717 0.008115301 -0.01926918 -0.018590529 0.01976654 0.013986372 0.0062310216 0.010941191 0.0051658223 -0.004582801 0.0029944014 -0.011198432 0.019460894 -0.009490528 -0.018593574 -0.00026119946
疾 0.01897731 0.015497348 0.009976768 0.012885549 0.01854928 -0.014789688 -0.0066855145 0.013454132 0.012887697 0.007342305 -0.004992375 -0.0015682101 -0.006918778 -0.014943328 0.014368042 0.011586692 -0.0073177624 0.01948773 -0.004276929 0.0025640153 -0.010406062 0.008260612 -0.008926456 0.0035810422 -0.008544173 0.016172376 -0.016735043 -0.0040382477 -0.018167006 -0.016977498 -0.015378284 0.014001865 -0.0077850767 -0.01180952 0.00028680562 -0.0150570385 0.0036393737 -0.01242518 -0.006849358 0.00949589 -0.010367016 -0.0070173596 0.01803955 0.008101401 -0.011462297 -0.011433071 -0.009910796 0.014789025 0.018093372 -0.008433032
服 4.0309427e-05 -0.016397893 -0.004487157 -0.018560633 0.008479667 -0.0064274883 -0.0034428213 0.017456245 -0.011744988 0.016336687 -0.0029896284 -0.0019845366 -0.0126336785 0.0073560188 -0.013508227 0.011994252 -0.0070689893 -0.0035693264 -0.009791467 -0.015662532 0.011197726 -0.015876751 -0.0078326985 0.012411265 -0.01564639 0.001194706 -0.015287465 -0.0029604791 0.019129638 0.0039791036 0.019133681 -0.018930871 -0.007302198 0.0035168193 -0.0039295363 -0.0018503284 -0.013563425 -0.012803674 -0.016034061 0.017869057 0.010950295 0.01619347 0.012909312 0.01956852 0.01445578 -0.018502431 0.019151006 0.019951215 -0.0008246636 0.0033240842
氏 0.0116496775 -0.018520575 -0.0038976169 0.014270119 -0.011067933 0.010924405 0.010384566 0.006950483 0.0025267315 -0.008301284 0.0037054894 -0.010067093 -0.008816981 -0.012992312 -0.016639056 0.017656129 -0.0030075572 0.010864362 0.0008541751 0.015781397 -0.0133832805 -0.00823075 0.014761931 0.00841834 0.0066177463 0.009576669 0.015206079 -0.015601999 0.005578439 0.015277264 0.01566287 0.0020380092 -0.0107632065 -0.016176892 -0.015229742 -0.018394988 0.009808006 0.018497903 0.010281057 0.015169978 -0.017721526 0.019801028 0.004551213 -0.01974216 -0.013937883 -0.017981667 0.006335931 -0.008277733 -0.014109561 0.0046608807
冉 -0.01063034 -0.0040192176 0.013963372 -0.015511395 0.013001797 0.0013385295 -0.01943872 -0.0065535973 0.0174648 -0.015018132 -0.007556116 -0.0035348749 0.002302594 0.017716853 -0.017380236 -0.0032668589 -0.011996321 -0.004007156 -0.013762982 -0.007500975 0.007894392 -0.014937062 -0.009981799 0.015785167 -0.008188052 -0.0059109903 0.01510693 -0.016884107 -0.018471424 0.009793283 0.00059526204 0.0017753576 -0.005557451 -0.0072664213 -0.0024895095 -0.0054834867 -0.010573823 0.0017529726 0.01255721 -0.008864677 -0.019264063 0.004323387 -0.019049473 -0.0072244215 0.018846966 -0.007057533 -0.00083691836 -0.002267208 0.005863328 -0.0151164485
将 -0.01104587 -0.016930837 -0.0040655467 -0.0054746172 0.0015347218 0.009683683 -0.017373135 -0.0074212644 -0.01848007 -0.0067195343 0.00067210913 -0.010008385 -0.00093547103 0.0123396795 0.0005864739 -0.005640185 -0.012320149 0.0021520543 0.018001184 -0.01767398 -0.0030262757 0.01111746 0.019528517 -0.010982284 -0.0041570687 0.009156236 -0.018910531 0.005638821 0.004439561 -0.008640468 0.011733777 0.009113335 -0.009474209 -0.010287721 0.013502843 0.006787443 -0.010632913 -0.010994968 0.0083386535 -0.01663781 -0.0010516905 0.010490515 0.017881354 -0.015509054 0.012941353 -0.0045429515 -0.009905827 0.01557621 -0.010029013 0.016739694
士 0.0028679632 -0.015075838 0.0072313305 -0.01890371 -0.00293797 0.0024526785 -0.015740018 -0.013628332 0.008997827 0.018231038 -0.00069862127 -0.01513829 0.006091785 -0.002187414 0.01990655 0.0021049571 0.005856502 -0.0046827006 -0.017220391 0.004404838 -0.01855634 -0.013074703 0.008000793 -0.0022757126 -0.018257797 0.011060564 0.015275926 0.019720685 -0.0123176 -0.0074947905 0.0064774225 0.016002573 0.010394618 -0.0017213606 0.016630951 -0.0005376172 -0.01601083 0.016279625 -0.0072761155 -0.008647205 0.0038235139 0.00122787 -0.0014840174 -0.0068760226 0.0131461425 0.004741821 -0.00014171838 0.019706292 -0.01756215 0.0036785458
丘 0.010146537 -0.017754406 -0.0069323014 0.0027025342 -0.011945407 0.0007711887 0.00705976 0.019140372 -0.005267944 0.000882647 0.008372336 0.0084005995 -0.019412136 -0.0007608318 0.013622176 0.00300308 0.011777856 0.018788124 -0.019215506 0.013881497 0.014033248 0.0013521432 -0.0045952126 0.011596009 -0.0021511363 0.00972501 -0.0073446464 0.017688239 0.0034407019 -0.0045855283 0.00055099727 0.015258092 0.0067259455 0.006907921 0.009132926 0.019971099 -0.011337643 -0.0047294353 -0.0036120198 0.00019146204 -0.0021206306 -0.0038764023 -0.008041139 -0.005188682 -0.015162055 0.005076818 -0.0049553085 0.01222124 0.015751433 0.011362226
身 -0.01734581 -0.019849513 -0.017949373 0.0028280234 -0.004381368 0.013200054 0.0052231313 0.012049441 -0.00341413 -0.0022448015 -0.00020787715 0.014582183 0.00906312 0.012980928 0.011230056 -0.0021346854 0.002439537 0.008544428 0.008798396 0.014511804 -0.018078312 0.016582951 0.0019791555 -0.0021638751 -0.012913808 0.016938323 -0.004573469 0.014354029 0.014717478 -0.008638954 -0.008013887 0.007702982 0.003365438 -0.010260975 -0.007984912 0.0041436316 -0.012410166 0.009439821 0.012854459 0.004164967 -0.009627333 0.00085105654 0.016838212 0.018476311 0.0068326425 -0.011334548 -0.011526167 -0.0035124253 -0.0018146634 0.0075193024
入 0.00066312787 0.0068296143 0.009874682 -0.00668524 -0.0029855226 -0.003323841 -0.017920107 0.006925206 0.01186301 0.011734283 0.014353604 0.0048711156 -0.01924574 -0.019090705 0.013544106 -0.00052749395 -0.013132887 -0.0040957616 -0.002269516 -0.019997887 -0.0060835076 -0.0044755433 -0.001230545 -0.003574984 -0.019220361 0.0035067415 -0.012938535 -0.016409323 -0.017380096 -0.0071192263 0.0021755004 0.01483624 -0.00076673983 -0.0049579693 -0.010917112 0.00033895968 0.014100268 0.0077628824 0.015398228 0.01936011 0.00031217336 -0.0045798374 -0.016233018 -0.008336561 -0.016314292 -0.015936647 -0.011743128 -0.0015107774 -0.0057290196 -0.0069856783
