1352 50
， -0.29394504 0.18876927 0.19586521 -0.2684603 -0.022598322 -0.18514727 -0.017682496 0.09915201 0.3102112 -0.039864942 -0.21838851 -0.070122056 0.25430983 -0.09324046 -0.21197002 0.033080198 -0.33253986 -0.1502345 0.14902903 0.24783534 0.20863922 -0.08920502 -0.06902521 0.116505414 0.012642807 -0.105503164 0.2639676 0.021426555 0.24121475 0.072464354 0.08930524 0.29935783 0.030893832 0.0074363314 0.12930846 -0.2833172 -0.109157294 -0.17691448 0.353394 0.42972863 0.277597 -0.069663316 0.030017331 -0.18610093 -0.14864789 0.17680317 -0.2503745 -0.118608944 -0.33555079 -0.13010792
子 -0.083523005 -0.123383984 -0.28603548 -0.38113606 -0.3452776 -0.16679874 -0.07357335 -0.19004051 0.08205328 0.08516261 -0.029478595 -0.02244081 -0.0044796504 -0.17953964 -0.45414728 0.53674066 -0.5454496 0.1958658 0.5122226 -0.02850322 0.053883195 0.0040933015 -0.09200013 0.14726473 0.05779053 0.12553795 -0.29577845 0.0780079 0.1423843 -0.27346566 -0.29665774 0.16505101 0.5624825 0.12715322 0.22206095 -0.1819142 -0.2439231 0.002009941 0.21560356 0.45640874 0.2586275 0.07395508 -0.029591594 0.22660941 -0.025559885 -0.12007156 -0.1248222 -0.29318044 -0.041307315 -0.094882876
。 -0.20764174 0.04284298 -0.10757954 -0.19770247 -0.22233269 -0.0988135 0.0252734 0.04631344 0.33553055 0.34824458 0.055573586 0.4926909 0.24960725 -0.027035514 0.08270235 0.21109734 -0.09462443 -0.15765549 0.19021885 0.13188703 -0.019249108 -0.11837346 -0.3251854 0.11580617 0.012626197 -0.0761497 -0.40035102 0.06356929 0.107132316 -0.08804464 0.18511315 0.091642655 0.21810637 -0.2426035 0.17284273 -0.23733415 -0.17877863 -0.16759183 0.3718891 0.18080126 0.26035276 -0.12423824 0.14988314 0.042642564 -0.27738166 0.029119391 -0.2834039 -0.33495772 -0.3665068 -0.23634356
： -0.09683746 -0.023487769 -0.25432813 -0.03504385 -0.2251334 -0.15210727 -0.19881059 0.042856768 0.31187263 0.07424927 -0.14550208 0.39127353 0.16621184 -0.133782 -0.22715923 0.1130207 -0.1494882 -0.17238379 0.24082847 0.04918406 0.2458501 -0.0347729 0.027716484 0.10494068 0.2722484 0.13562413 -0.23562422 0.20295428 0.20228882 -0.28531387 -0.17508711 0.18919386 0.3599999 -0.45463175 0.09674553 -0.017864283 -0.11095218 -0.35852695 0.32699057 0.14903887 0.27104008 0.004402023 -0.00871559 0.12826791 -0.28183037 0.2104647 -0.27736244 0.0037266985 -0.30457187 -0.17909738
曰 -0.021907322 0.076391615 -0.1355272 -0.17074093 -0.34436792 0.16827385 -0.06351694 0.28666148 0.30149776 -0.027433228 0.05011658 0.18080367 0.26727784 -0.2113317 0.079760544 0.059595924 0.10549237 0.023113184 0.32530692 -0.047635723 0.34705016 -0.27129444 -0.22963569 0.26430643 0.11933333 0.1464803 -0.27342144 0.30777422 0.046999995 -0.041550122 -0.17168473 0.1867065 0.32135105 -0.1780398 0.1776485 -0.16145308 -0.2610104 -0.038917612 0.47765222 0.32655567 0.22302136 -0.0756013 0.010623366 0.21579579 -0.12428977 0.010408154 -0.024937464 -0.12294716 -0.031259667 -0.1886958
之 -0.09664999 -0.009129636 -0.15371802 -0.2131299 -0.24110511 -0.2347267 -0.18667321 0.042517617 0.12032101 0.062214397 -0.14823005 0.32261074 0.15914512 -0.21349692 -0.11414526 0.04570025 -0.35549352 -0.29598475 0.12512922 0.101955906 0.16645248 0.06341967 -0.24926774 0.090701394 0.11714908 0.20117067 -0.60188115 0.22797215 0.08570877 -0.36772045 0.094157174 0.20607857 0.37771213 -0.18012469 0.21339038 0.045835286 -0.038217332 -0.04893008 0.24968597 0.27975923 0.30417946 -0.018458614 0.025349317 0.26575264 -0.2460803 0.39455977 -0.28033745 -0.095913045 -0.080415845 -0.32431012
不 0.023063993 -0.14512196 -0.26124874 -0.13777705 -0.3156177 0.066702835 -0.2514922 0.3739713 0.1514371 0.1603789 -0.13710512 0.34003657 0.14011875 -0.27327406 0.015889507 0.24586225 0.057733655 -0.00959401 0.35040158 -0.043704517 0.45913523 0.050195932 -0.31757644 0.46354383 0.23446059 0.17655285 -0.0785335 0.5714527 0.05575458 -0.053812988 -0.14429867 0.33246657 0.49594593 -0.12355217 -0.029600557 0.22707823 -0.07960613 -0.374836 0.48790044 0.2529086 0.29324174 0.079097755 0.09330508 0.4895475 -0.034346342 0.28175396 -0.0780868 -0.054270733 -0.31162384 -0.2951102
也 -0.092253104 0.22763224 -0.29904455 -0.121258736 -0.37797633 -0.08888158 -0.19376574 -0.124639526 0.19832167 -0.0053449683 -0.07740927 0.28131855 0.32037202 -0.020444784 -0.09985163 0.12013726 -0.17443222 -0.4732536 0.30543616 -0.13873993 0.48010972 0.07336554 -0.18958208 0.29073817 -0.028516462 0.08103066 -0.41464415 0.4379986 0.2283792 -0.51945317 0.19515756 0.25856012 0.32604468 -0.24732596 0.0015905453 0.033329397 0.040997885 -0.51400465 0.36820975 0.38752434 0.31329957 -0.10463588 0.040497012 0.36098486 -0.13492225 0.28489333 -0.2837084 -0.05927843 -0.10068607 -0.2666803
而 0.41016388 0.17511244 -0.5139515 -0.24011359 -0.26619413 -0.12269073 0.0071018217 0.010041634 0.13767236 0.1759908 0.035996683 0.3257582 0.025666937 -0.081483066 -0.030922646 0.40227947 0.016253695 0.08521734 0.2999096 0.047859542 0.5130934 -0.026060672 -0.25832063 0.47931853 0.034174547 0.32607925 -0.53444064 0.41752446 0.092909284 -0.24237292 -0.3189899 0.14956264 0.31075364 -0.24342735 -0.08082865 0.39127636 -0.2021545 -0.10704729 0.29090068 0.2755503 -0.06874517 -0.10223226 0.017201561 0.21753761 0.066158265 0.6396189 0.018678121 -0.17468515 -0.237827 -0.20712434
？ 0.053176336 0.2812282 -0.7695084 -0.42709276 -0.17076269 -0.18525313 0.20096064 0.31990537 0.38498518 0.12493481 -0.27748603 0.6376536 0.18577668 -0.16803412 -0.11582384 0.47074682 -0.25153047 -0.4993559 -0.011646225 -0.03405294 0.59537387 0.1051975 -0.45040137 0.69161177 0.012748101 0.6880539 -0.66958433 0.37919605 0.011831176 0.20530814 -0.060166735 0.2357585 0.13811019 -0.61091626 0.40571183 0.46582186 -0.20082298 -0.7305216 0.9791638 0.27090523 0.10243682 0.22906682 -0.082834385 0.32337168 -0.10839534 0.53405213 -0.2051692 0.26764947 -0.21059677 -0.07232464
其 0.33153936 0.1854879 -0.47575396 -0.09965473 -0.039655924 -0.17848058 -0.17078191 0.01502255 0.3112852 -0.00048873574 -0.06323336 0.335249 0.29279327 0.0065756254 0.19953062 -0.2960131 -0.13089193 -0.16985178 -0.06312261 -0.13798292 0.16444713 -0.15091816 -0.17769718 0.3345257 0.25078017 0.0631536 -0.18462685 0.20851827 0.3518301 -0.3640448 0.21397674 0.11053148 -0.012809727 -0.14279443 -0.04095596 0.35491097 -0.11537823 -0.31203437 0.3819111 0.11297047 0.045168146 -0.15044433 0.017898021 0.097057395 -0.17245193 0.12470538 -0.20406727 -0.053310093 -0.060289174 -0.21302128
人 0.39121833 0.30080956 -0.51183987 -0.17118993 -0.12296426 -0.21582983 -0.056756787 -0.08636896 -0.07424327 0.010278504 -0.24678989 -0.0009612264 0.25957665 -0.4604402 -0.3930134 -0.14506222 0.010189997 -0.06209305 0.17595159 -0.25778133 0.50639725 0.21240717 -0.16269091 0.31683078 0.2658559 0.2648167 -0.4869293 0.34244233 0.28806567 -0.34848997 0.1569044 0.18927117 0.011410629 -0.22866099 0.017046725 0.24954213 -0.1527129 -0.29233176 0.46237296 0.283453 0.182839 -0.1309072 -0.14878015 -0.080861606 -0.3061414 0.15424871 -0.058128573 -0.111021906 -0.22251672 -0.276205
者 0.37218797 0.15808661 -0.4501485 -0.1852158 -0.21239144 -0.15869279 0.012415266 0.2271146 -0.043519545 0.13081974 -0.26814422 0.10276965 0.120002 -0.2714318 0.20354006 -0.3042271 -0.017257147 -0.15630642 -0.60788536 -0.09050497 0.35811278 0.10560214 -0.3560401 0.28511134 0.080685705 0.21069491 -0.34968343 0.027222522 0.16208333 -0.036559634 0.5095174 -0.124837495 -0.22470783 -0.13243175 -0.16895784 0.5469163 -0.05617551 -0.38369948 0.4276775 -0.26029262 0.06640621 -0.24006827 0.086506486 0.2804524 -0.12844823 0.08027924 -0.17945679 0.14645214 -0.24792027 -0.12676448
以 -0.01852601 0.1905419 -0.27920386 -0.05416271 -0.1707517 -0.08265994 0.01757637 0.14619893 0.12938085 0.16973695 -0.15105493 0.13402864 0.11222449 -0.11880374 -0.11153135 -0.39263842 -0.20344357 -0.37505242 -0.48703444 0.027318431 0.22004059 -0.09729625 -0.28443086 0.1531457 0.007849515 0.11612267 -0.22405137 0.23223993 0.16458462 -0.30483213 0.26241452 0.076992355 0.25381523 -0.47759587 0.20174955 0.33927917 -0.11952935 -0.41943684 0.21101949 0.1577994 0.118975304 -0.26708984 -0.05784685 0.12396021 -0.003328947 0.26763755 -0.32970276 -0.02749679 0.0941605 -0.25086826
有 -0.031495333 0.19323172 -0.3749893 0.0021278781 0.13166668 -0.09753 -0.29883665 -0.13130605 -0.20662439 -0.08693736 -0.2954172 -0.06330592 0.35005718 -0.10313697 -0.24020423 -0.4691371 0.12760188 -0.22590049 -0.34178954 -0.3743634 0.41571042 0.028202029 -0.2659676 0.5559146 0.27093577 0.06684137 -0.06885808 0.2555814 0.2081854 -0.5436141 0.34739947 0.02409562 0.26780424 -0.28146118 0.1283103 0.27798015 0.30245534 -0.74415886 0.61680675 0.42999586 -0.054194886 -0.32115263 -0.28361824 0.30098593 -0.17581777 0.24458449 -0.17108569 -0.10378061 -0.14198332 -0.39799604
于 0.18731368 0.27555242 -0.4950722 -0.013859136 0.22820227 -0.40928322 -0.16614994 -0.10550273 -0.09337329 -0.22577798 -0.28224158 -0.17180732 -0.21120904 -0.31795973 -0.12287596 -0.096444204 0.1371359 0.25685167 -0.4727981 -0.029943412 0.22612077 -0.10840574 -0.062524624 0.1653508 0.10920078 0.2791516 -0.296991 0.34805453 0.3056165 -0.21419287 0.17686433 -0.29712573 0.12536253 0.009120449 -0.039430305 0.5592141 -0.062278092 0.015633853 0.26686046 -0.16568308 -0.090168275 -0.2689161 -0.09476778 0.10249809 -0.14280266 0.3476381 -0.027335078 -0.114217214 -0.3115624 -0.3735833
矣 0.09594093 0.24860035 -0.26124758 -0.16501841 0.4241382 -0.27569753 -0.0331101 0.022426609 -0.08262129 0.15296955 -0.28769118 -0.34931844 -0.046080854 -0.24897742 0.30762675 -0.3127442 -0.3183315 0.13578545 -0.35923448 -0.016994849 0.30720648 0.041597903 0.33326676 0.35175717 -0.013827807 0.30444852 0.18498471 0.034247097 0.10047981 -0.26976275 0.08791849 -0.15063958 0.08262015 0.03059804 0.09145473 0.48581773 -0.25901723 -0.061034903 0.15730852 0.04251066 0.054890983 -0.34761888 -0.20953259 0.039767478 0.02851662 -0.19552936 -0.27387482 -0.18555358 0.14256333 -0.12222719
为 0.17176938 0.16482952 -0.34531212 -0.7140581 -0.11611672 -0.35090047 -0.18603855 -0.33018738 -0.14190237 0.23616184 -0.37784874 0.2032932 0.067086376 -0.14695239 -0.33872315 -0.36363617 -0.3349901 -0.5195122 -0.69714624 -0.08299489 0.5012005 0.00025744212 -0.077978306 0.29999742 0.34127223 0.30919296 -0.8320716 0.092953525 0.59123725 -0.10332402 0.50805616 -0.135093 0.22448696 -0.46858495 0.362654 0.5277359 -0.2063501 -0.6729938 0.24714178 0.36714506 -0.043495014 -0.3424127 -0.46087873 -0.14993581 -0.14921367 0.28944197 -0.30931103 -0.22731516 0.014201755 -0.22288339
君 0.15286824 0.13073055 -0.34261954 -0.3991561 -0.135951 -0.35574263 -0.08700423 -0.40911382 -0.4006665 0.1613653 -0.33795366 -0.1917004 -0.004248908 -0.41247323 0.30273163 -0.24827407 -0.33016583 0.24998215 -0.41671383 -0.000941742 0.12846042 0.12408662 -0.13174604 -0.036841914 0.2542155 0.24776001 -0.5186784 -0.32457057 0.31922755 -0.075448975 0.061388776 -0.2386552 -0.14012592 0.2012969 0.32608527 0.31677654 -0.24114756 -0.12074442 0.34765148 0.15316556 0.16588354 -0.3053877 -0.31722584 0.037149087 -0.18024398 -0.2688074 -0.12449125 -0.15724464 0.018534543 -0.23045899
乎 -0.35729894 0.14349423 -0.1467753 -0.50969267 -0.057260096 -0.32987127 -0.20496415 -0.426515 0.015897509 0.21307555 -0.2030172 0.28009933 0.13679092 -0.3394799 -0.41063446 -0.5534816 -0.6247902 -0.7994907 -0.8251176 0.4570458 0.6390177 -0.049497794 -0.12443238 0.22894195 0.45716175 0.2168026 -0.85274506 0.04836125 0.31286535 -0.60608965 0.6225984 -0.19522958 0.097715154 -0.7593139 0.45462212 0.4756719 -0.29418045 -0.40503854 0.5011162 0.1782876 0.47875404 -0.24184623 -0.21670526 0.052453175 -0.35970414 0.67635494 -0.56632465 -0.3161146 -0.64966047 -0.05655155
可 -0.26906827 0.14523838 -0.16858444 -0.25815547 0.18271501 -0.0291907 -0.27165624 -0.59241885 -0.030746073 -0.19668677 -0.3266802 -0.3920866 -0.03791583 -0.42974222 -0.063546 -0.0708976 -0.567213 0.07424107 -0.40571415 0.19743529 0.16477853 0.17216931 0.35208857 0.4020796 0.044584345 0.0132555235 -0.096913375 -0.1565081 0.42898554 -0.43876392 0.43226108 -0.053580754 0.09661818 -0.112048745 0.4760781 0.46387038 -0.0017846997 0.25579387 0.29141748 0.30052677 0.28604478 -0.41090173 -0.37246147 -0.058432847 -0.2651902 -0.22435424 -0.35646892 -0.11668386 -0.25900453 -0.35868132
如 -0.15453258 0.104729325 -0.17539513 -0.29400337 0.12534216 -0.21016158 -0.039604876 -0.32458082 -0.21252683 0.22783294 -0.20433317 -0.16227503 0.039721347 -0.17376778 0.5045364 0.016281664 -0.28550255 0.16758996 -0.5366557 0.44511375 -0.09351579 -0.12721062 0.19986436 0.18828276 0.32179618 0.30084988 -0.42462674 -0.61389613 0.21039315 -0.068591185 -0.14553443 -0.2696388 0.13935721 0.32887974 0.30521238 0.42620462 -0.2496023 -0.016819587 -0.0033458075 -0.15786304 0.21726708 -0.25581792 -0.20883663 0.28555056 -0.07476386 -0.11443936 -0.16738638 -0.23212674 -0.30559865 0.0478144
与 -0.48363763 -0.006409378 -0.01987077 -0.09210292 0.07967288 0.09635015 -0.31345716 -0.59670156 -0.25909328 -0.049473435 -0.18306334 -0.24599369 0.25270104 -0.40241057 0.008963499 -0.27740055 -0.3787283 0.041746914 -0.40579423 0.54668134 0.0638989 -0.17936638 0.011494445 0.1764633 0.4980123 0.0030070334 -0.37459236 -0.24501678 0.3037865 -0.4105541 0.15009454 -0.31477174 0.14963686 -0.35912955 0.4379536 0.37706533 -0.3469182 -0.425013 0.1659684 0.14970663 0.33915597 0.0032824827 -0.25871962 0.10259424 -0.29916987 0.18837172 -0.14811806 -0.38258532 -0.42796943 -0.09224183
； -0.19294068 0.28293142 -0.006182657 -0.28038046 -0.010129098 -0.07702069 -0.20829783 -0.28980196 -0.14276186 -0.050003745 -0.051694293 -0.112401426 -0.11683683 -0.47370866 -0.075406 0.29009745 0.110215224 0.21608652 -0.17434317 0.40451142 -0.31382257 -0.15202609 -0.16934507 0.3685302 0.4581824 0.28178445 -0.17485757 -0.18445426 0.29798537 -0.2936723 -0.16548736 -0.21532656 -0.02444183 0.13551456 0.3106724 0.39333674 -0.1387254 0.14980146 0.28746966 0.3431725 0.15450999 0.035049465 -0.10129172 0.17323062 -0.21671464 0.12654544 -0.19518833 -0.06155773 -0.4403319 -0.2404817
言 -0.22413488 0.17911474 -0.15612897 -0.20073839 0.12071684 -0.085699946 -0.16321301 -0.23554707 -0.10150104 0.17963126 -0.1293353 -0.46402076 0.0070709903 -0.36903605 0.281059 0.19992597 0.10618548 0.45280105 -0.46757823 0.44452852 -0.09045812 -0.22246592 0.27050066 0.36376736 0.41446766 0.26753536 -0.23166549 -0.3512308 0.36591232 -0.25802803 -0.28598237 -0.19452523 -0.12515436 0.1930989 0.36957407 0.40535876 -0.1616234 0.3871099 -0.1882557 0.23210758 0.07662408 -0.041068822 -0.1515177 0.1614008 -0.19003804 -0.10558586 -0.07478026 -0.07393515 -0.218047 0.14583349
无 -0.534899 0.21754625 -0.11251915 -0.1650124 -0.30098766 -0.30334198 -0.31532332 -0.82112414 0.08455453 0.39037162 -0.053077403 0.30714658 0.30268237 -0.2706552 -0.1563553 -0.15072793 -0.4910537 -0.52770966 -0.4757777 0.7161308 0.13148326 -0.07867523 -0.25623822 0.6049903 0.56413054 0.18697019 -0.6445093 -0.397157 0.40004942 -0.52120626 0.06996739 -0.08363966 0.25925454 -0.4476054 0.6306115 0.14272253 -0.09765638 -0.34102786 0.38422433 0.40871257 0.759593 0.029277856 -0.12705828 0.16563383 -0.450775 0.74624467 -0.4662841 -0.24380252 -0.433752 0.31337744
则 -0.5347087 0.35335827 0.17067449 -0.22079049 -0.3275073 -0.29734966 -0.28965423 -0.4861153 -0.14211442 0.15167761 -0.16755751 -0.15563709 -0.17063017 -0.27101627 0.626877 0.42907712 0.09234186 0.23390448 -0.43833598 0.5813901 -0.07129762 -0.035011824 0.0063917683 0.33324492 0.37140793 0.3956898 -0.1461288 -0.4467234 0.21186358 -0.0535397 -0.042138305 0.023981199 -0.073479384 0.025588602 0.441168 0.33709472 -0.2224669 0.26998267 0.055997904 0.17800778 0.12755796 0.050956342 -0.24527329 0.026000326 -0.12561294 0.2794117 0.13335262 -0.05541261 -0.3165839 -0.069954515
！ -0.26633403 0.252621 0.08369739 -0.14771199 -0.24572246 -0.22392489 -0.27109835 -0.342566 0.09998155 0.19405888 -0.06527936 0.25712752 0.21261698 -0.12948285 0.19640468 -0.016936205 -0.059247553 -0.29431066 -0.2906341 0.36925533 0.07922589 -0.093485564 -0.11840267 0.2385434 0.19189225 0.1446548 -0.24197046 -0.14060292 0.21728814 -0.2090742 0.2035073 0.13195343 0.29459518 -0.3539918 0.35644534 0.2251509 0.05490295 -0.088314615 0.076385945 0.29785287 0.15635493 0.037511323 -0.13474803 -0.03390733 -0.23860846 0.47647828 -0.017630357 -0.04845722 -0.3084265 0.04013781
问 -0.54894507 0.46431416 0.14987133 -0.10094848 -0.33525872 -0.21227698 -0.06890434 -0.535896 0.24557404 0.15355138 -0.26569846 0.1353466 0.22151679 -0.20505649 -0.06155989 0.09410441 0.3348182 0.3754795 -0.3654177 0.5718943 0.1362202 -0.15129831 0.0006971457 0.47029647 0.2654775 0.21626922 0.05534531 -0.017128084 0.24548057 -0.43767214 -0.119371414 0.15620607 0.021600619 0.21520366 0.24868107 0.39176205 -0.22535817 0.24278347 -0.0431407 0.44466588 0.17307538 0.18168701 -0.21827573 0.0904172 -0.23098962 0.48873535 0.06640465 -0.1819352 -0.32717276 -0.15689358
知 -0.27531835 0.40523133 -0.009310251 -0.17618269 -0.3121885 -0.22988296 0.00776562 -0.16402212 0.17420818 0.2960821 -0.17467168 0.02893919 0.08161503 -0.35899067 0.14787543 0.12270465 0.08454557 0.5468526 -0.4962077 0.5220256 -0.2862437 -0.08312925 0.20825759 0.3915392 0.33653095 0.27240887 0.35889623 -0.37661698 0.35779622 0.2426768 -0.40235627 0.045020767 0.18062346 0.38518345 0.39973006 0.41028008 -0.25741363 -0.07712372 -0.266748 0.16459988 0.21422577 0.19580169 -0.054514512 -0.0858482 -0.23299158 0.36026123 0.3002035 -0.3131569 -0.40291625 -0.022407915
何 -0.8499865 0.35874453 -0.028270656 -0.06502414 -0.4879893 -0.33389732 -0.105302826 -0.30357838 0.28821918 0.2981215 -0.08743248 0.4461945 0.39887458 -0.27358398 -0.1331096 -0.63815457 -0.049526423 -0.50626534 -0.7015827 0.44093817 0.19445144 -0.12859674 -0.2928129 0.26232162 0.452321 0.110690214 -0.5530736 0.1459406 0.24767175 -0.7151316 0.32833618 0.27017486 0.35282516 -0.808625 0.58349794 0.17900893 -0.19389416 -0.48441464 0.36183447 0.5001351 0.21237864 0.25920132 -0.27860317 -0.14480808 -0.28003737 0.8295581 0.3683174 -0.36129004 -0.63279444 -0.10747547
吾 -0.2649241 0.3096881 -0.12332108 9.357743e-05 -0.3006415 -0.23699425 -0.15835047 -0.22171547 0.16123152 0.23933302 -0.13848276 -0.014394917 0.15282854 -0.35125613 0.06947791 -0.11855455 0.42204434 0.53810173 -0.53223723 0.42012364 -0.40358353 -0.11412895 -0.08279509 0.45434132 0.31363162 0.10956448 0.36663124 -0.043192603 0.4470223 -0.28239864 -0.36251864 0.12541309 0.14961953 0.292209 0.37833518 0.35769567 -0.27724874 0.06284654 0.117282756 0.29176828 -0.07962148 0.18058118 -0.18069682 0.15281306 -0.3499406 0.68755406 0.4041225 -0.33793896 -0.49056137 -0.11271743
仁 -0.2023008 0.41870174 -0.14191069 -0.20023644 -0.2217091 -0.31419322 -0.118346296 -0.09815624 0.16177848 0.30676806 -0.42139784 0.080144376 0.08275492 -0.32772538 0.08446819 -0.0139733115 0.13062221 0.46885723 -0.14090317 0.37929106 -0.28356943 -0.11933646 0.07239406 0.27400917 0.37829834 0.36315733 0.3739917 -0.19180143 0.21120636 0.0069107413 -0.36070544 0.31275544 -0.032336354 0.064642206 0.38970754 0.3498588 -0.26948062 -0.28645045 -0.10598379 0.3113102 -0.07042128 0.24230497 -0.21278615 0.14838302 -0.23530622 0.53928614 0.6659337 -0.3163598 -0.2217855 -0.02068139
夫 -0.4679131 0.26792577 -0.11496943 -0.2757368 -0.25116983 -0.40484843 -0.1812643 -0.2115468 0.22861247 0.18876797 -0.34759614 0.34151572 0.23405215 -0.3958595 -0.12810439 -0.44964033 0.056977544 -0.31833753 -0.26088008 0.46075916 0.26303303 0.00019865204 -0.2927635 0.2867666 0.27729043 0.35390937 -0.20533925 0.061993603 0.26149234 -0.5413384 0.30637836 0.36554477 0.3333795 -0.41891983 0.42668355 0.34412718 -0.07831296 -0.4001517 0.24935493 0.20354542 0.05998443 0.33226216 -0.30955 0.006273454 -0.23359594 0.64231664 0.24559644 -0.22633997 -0.24808879 -0.17839172
、 -0.46818933 0.18409273 0.101291746 -0.28427532 -0.46473926 -0.30467498 0.15015344 -0.1983572 0.3465159 0.15432468 -0.341545 0.20209457 0.12491376 -0.54527426 -0.28917268 0.27037933 0.28240263 0.23307785 -0.37326536 0.4172243 -0.3945601 0.029110836 -0.21494192 0.41062275 0.25033012 0.41841963 -0.16136698 -0.28801143 0.22481997 -0.39612648 -0.23934238 0.47715333 0.34485552 -0.10134632 0.17500855 0.30465275 -0.10907782 -0.007413795 0.07083909 0.067370296 0.102002345 0.46350983 -0.47392634 0.23881172 -0.3003494 0.15440607 0.52276015 -0.30824053 -0.36435354 -0.34453282
道 -0.4023528 0.17939892 0.10099912 -0.10490248 -0.4063209 -0.24098964 -0.058268026 -0.3418347 0.26224026 0.23455232 -0.30832598 0.31069532 0.24785848 -0.25016454 -0.29080182 -0.51004285 -0.14837582 -0.15637104 -0.39143032 0.3252551 0.24791497 -0.018615335 -0.23280302 0.21115725 0.19382983 0.24638481 -0.04438444 0.18347539 0.12131947 -0.40359685 0.16558401 0.27128282 0.26707172 -0.5573117 0.26158443 0.32813734 -0.015573159 -0.43172342 0.22155151 0.28643557 -0.056989048 0.3108352 -0.27646124 0.021524364 -0.13537551 0.40761772 0.36035708 -0.302791 -0.4492448 -0.31960025
焉 -0.21512002 0.06967098 0.032349512 -0.25906843 -0.21875514 -0.26880357 -0.14434549 -0.059153523 0.17258123 0.44623902 -0.41773936 -0.029339615 0.46174437 -0.55168235 0.062924884 -0.37379888 0.15137191 0.28761885 -0.081344925 0.5556843 0.021361623 0.032516584 -0.41504967 0.1329313 0.07434452 0.1875109 -0.08494269 0.31554383 -0.008904511 -0.50986874 0.16536848 0.4423066 0.35790426 -0.2926618 -0.06627074 0.29028797 -0.021519192 -0.33692423 0.27031392 0.29101497 0.17239802 0.34895828 -0.35835484 -0.06585778 -0.25599578 -0.028451009 0.56213856 -0.3429164 -0.7038933 -0.27894112
行 -0.33930472 0.22917496 0.073895395 -0.0036256723 -0.2874348 -0.23480435 0.04686582 -0.16487592 0.20114501 0.40609768 -0.22890475 0.29838833 0.32262507 -0.51779723 -0.41235015 -0.1066011 0.2639169 0.35874063 -0.071691364 0.5810565 -0.15881234 0.16891776 -0.24662973 0.46089822 0.2162739 0.16892508 0.10579511 -0.1256646 0.16514237 -0.34117115 -0.33442947 0.5364479 0.118606605 -0.031168927 0.32122037 0.4283996 -0.14519164 -0.43081856 0.16625784 -0.03640154 0.11498593 0.43000636 -0.4149785 -0.18246673 -0.36814627 0.20672321 0.67802274 -0.2751848 -0.33334324 -0.5253326
谓 -0.26308298 0.19602285 0.14808248 -0.30217442 -0.2647258 -0.008272857 0.22668959 0.11241743 -0.08674414 0.23892146 -0.37769344 0.29964826 -0.011602014 -0.6522379 0.32719517 -0.2521487 -0.16540663 0.7912243 0.19321162 0.59515357 0.027670536 -0.12649728 -0.3446291 0.22244278 0.2654567 0.38045537 -0.20951726 0.24408177 0.050178513 0.014876536 -0.507395 0.5308715 0.38682473 -0.20155571 0.23538502 0.2796894 -0.09981781 -0.58556557 0.30994284 -0.1426484 0.3317408 0.36143285 -0.3140645 0.082372494 -0.36284664 -0.0050583407 0.524857 -0.39512467 -0.7132552 -0.023055179
必 -0.28574294 0.13583256 0.33997113 -0.3278909 -0.34230292 -0.31294093 -0.029382918 -0.07535884 0.19768025 0.10226664 -0.23025939 0.2853766 0.18065278 -0.3469072 -0.20557226 -0.53910875 -0.12638104 -0.12675934 -0.045078274 0.41342193 0.23215114 0.094687246 -0.44677144 0.2856811 0.18315399 0.2963265 -0.31926286 0.23990346 0.14964579 -0.5296644 0.08847569 0.39450708 0.27659222 -0.3776483 0.3011288 0.32781076 -0.08178896 -0.44796398 0.10667128 0.050691295 0.084279805 0.2981888 -0.4022893 0.087398134 -0.23291299 0.3043968 0.3961047 -0.36071005 -0.10628523 -0.40632212
礼 0.010724315 0.052506633 0.33336616 -0.4280748 0.048281968 -0.14570998 0.0116358455 -0.2828338 0.21455042 0.28078353 -0.44457307 0.28784892 0.3780726 -0.44579384 0.035201326 -0.30174688 -0.26117828 0.40295887 0.18316878 0.5059812 -0.024219327 0.1542664 -0.55826885 0.2267077 0.24130984 0.2428251 0.016128559 0.41084164 -0.094305664 -0.3388364 -0.079310045 0.526843 0.1473017 -0.31940985 0.062968135 0.34248832 -0.114559315 -0.4172244 0.27589896 -0.15343228 0.15741147 0.14131887 -0.42197755 0.12784263 -0.1806077 0.3366768 0.16115701 -0.11723463 -0.36891842 -0.51826346
孔 0.33064973 -0.06663498 0.49356082 -0.4030561 -0.19584936 -0.19695166 0.021975875 0.24425146 -0.3007797 0.29005828 -0.40918344 -0.2440382 0.123947166 -0.6898391 0.21961476 0.5996664 -0.6146728 0.50793254 -0.083915256 0.52433604 -0.14172311 0.33597696 -0.8352557 0.1820445 0.13522486 0.6271895 0.32257387 0.54761946 0.17843154 -0.15268143 -0.33654815 0.55578864 0.33426803 -0.34577316 0.047903206 0.53150773 0.056028582 -0.229648 -0.27076793 0.214658 -0.25509152 0.089067 -0.50517994 0.7233823 -0.09725118 0.14146382 0.22708136 -0.16104586 -0.20787726 -0.6473973
斯 -0.23051481 -0.015083646 0.32599705 -0.3801032 -0.14881632 -0.043161284 0.055510208 -0.37048128 0.10781734 0.40542617 -0.26305234 0.34044358 0.20316961 -0.43008804 -0.09744661 -0.31837624 -0.28300354 -0.19426885 -0.270711 0.4262118 0.18728228 -0.013857687 -0.5552395 -0.0074738995 0.032559294 0.24971503 -0.32537168 0.43481064 0.065261774 -0.23533969 0.27318078 0.3528087 0.37137827 -0.42937803 0.084312215 0.38178104 0.08838217 -0.50959724 -0.022130439 -0.0047664735 -0.05938855 0.13899034 -0.27855557 0.28817832 -0.15465981 0.09811413 0.05337099 -0.30681396 -0.39064643 -0.41818848
三 -0.26475748 0.22114053 0.61397135 -0.3586753 0.33435395 -0.068929724 0.030484704 -0.455179 0.23695932 0.52125025 -0.45727253 0.11721751 0.32345563 -0.51442856 -0.19508597 -0.039102655 -0.10930309 0.64230186 0.024591329 0.3660225 -0.10346124 0.089054935 -0.35735705 0.041976336 0.1562117 0.24350892 -0.06163036 0.6153341 0.48971036 0.060128994 -0.12383684 0.17389755 0.34072813 -0.18120049 0.16408041 0.5681491 -0.17357197 0.0062485076 -0.27748188 0.099843785 0.19451217 0.27006665 -0.48883152 0.34111965 -0.33244267 0.017973308 0.008157424 -0.19111729 -0.2646883 -0.520215
能 0.08568465 0.20555188 0.5067369 -0.35785273 0.089157656 0.14326403 0.111170836 -0.7441025 0.26020694 0.29197174 -0.24774681 -0.038985565 0.5159618 -0.5975859 0.09087255 0.28846246 0.019730069 0.9049067 -0.1047151 0.32920521 -0.11617539 -0.08404856 -0.660934 -0.07692887 0.07426888 0.23723404 -0.53120154 0.42538822 0.22340731 0.25406814 0.16536158 0.53323555 0.29205334 -0.08329058 -0.49489594 0.36369473 0.03573718 0.010211695 -0.21140918 -0.13845982 -0.16832659 -0.08112791 -0.59028786 0.2543924 -0.42511213 -0.5095993 0.013168768 0.006543742 -0.13783903 -0.40564844
见 -0.356378 0.124301925 0.35907677 0.044779696 0.2506398 -0.07087788 -0.08435224 -0.44501793 0.38313556 0.20567627 -0.07536117 0.37076634 0.34575126 -0.34941095 -0.123169415 -0.4296703 -0.19013895 0.020136401 -0.2199814 0.30932322 0.29373336 0.015354353 -0.504383 0.2428013 0.043252535 0.138366 -0.30605596 0.46497717 0.023595372 -0.3408431 0.24166504 0.31739846 0.29326782 -0.5385821 0.038524386 0.2478283 0.11019247 -0.30774057 0.07560321 -0.071672164 0.14170249 0.050647587 -0.46704152 0.2703579 -0.3189712 0.32482323 -0.1747196 -0.14859669 -0.33122835 -0.25885394
学 -0.23540045 0.17440483 0.22863942 0.17701852 0.46391472 -0.06159562 -0.07736262 -0.114419706 -0.012150958 0.5423031 -0.20020153 -0.041918505 0.437 -0.12445899 0.012261383 0.64277524 0.6144998 0.6839598 0.13888496 0.38936475 -0.34176546 -0.088428095 -0.6103432 0.35003796 0.017984 0.21512593 -0.34488747 0.42363545 0.081249736 0.1741468 -0.10811347 0.29438514 -0.07559282 0.20819724 0.299141 0.5705821 0.24038984 -0.06842877 -0.1981054 0.13945389 -0.239353 -0.16035408 -0.48475486 0.022903338 -0.41313252 -0.29100513 0.0029576807 -0.2954204 -0.08650225 -0.3252846
事 0.09970057 0.08615508 0.48107925 0.0026193187 0.33744445 -0.078910336 -0.06925148 -0.28292093 0.24905197 0.29753572 -0.2141809 -0.16903879 0.15294945 -0.3245424 0.0043967366 0.3989303 -0.18980502 0.63340145 0.16893841 0.3462059 -0.015535627 -0.0014147293 -0.31704655 0.40953892 0.04153907 0.088776976 -0.2929711 0.3497331 0.32151377 0.1364797 -0.30933672 0.116074815 -0.031703215 0.024312342 -0.08253565 0.38229787 -0.19381137 0.19379978 -0.17308071 0.01451647 -0.3190022 -0.2104126 -0.42527732 0.44810477 -0.25686848 -0.110973604 0.06800991 -0.19070056 -0.03758108 -0.55733085
是 -0.38362017 0.04336273 0.30719545 -0.22675742 0.13723782 -0.12870225 0.0063021043 -0.5246984 0.11052997 0.3593426 -0.28104514 0.023130607 0.11324383 -0.24109018 0.16074356 0.12612323 -0.27469787 0.014225079 -0.05353047 0.2422372 0.046051413 -0.020575896 -0.3519382 0.38487116 -0.17818722 0.044745106 -0.20726593 0.6108601 0.23113184 0.007718078 0.20752579 0.43300396 0.028288798 -0.2482466 0.18954846 0.13884374 -0.069313824 0.019150352 -0.103763916 -0.010989698 -0.16560625 -0.17666209 -0.4443498 0.24625815 -0.23414725 0.15294774 -0.24679983 -0.2854836 0.11847044 -0.34383598
哉 -0.33080375 -0.032090347 0.29114112 -0.49559677 0.57870185 -0.046645775 0.06255213 -0.34269845 0.48699126 0.6541541 -0.14998548 -0.046327952 -0.02953401 -0.42357406 0.18756612 -0.21467781 -0.21826978 0.87851447 0.15632333 0.5872506 -0.098405 -0.0566195 0.01806816 0.5472221 0.2704131 0.3378004 -0.3884663 0.22839369 0.3303903 0.26243526 -0.15660976 0.28217232 0.46148124 -0.08391252 -0.1086511 0.4479769 -0.19214366 0.4163573 -0.34588304 -0.114055395 0.05962317 -0.04477187 -0.39084756 0.25603145 -0.24556562 -0.008853049 0.0838562 -0.11134887 0.13179134 -0.49239784
闻 -0.21315324 0.17791158 0.1705915 0.118920214 0.2196338 -0.13716511 0.07785818 -0.5186172 0.45315033 0.48403668 -0.054266233 0.2935579 0.21355252 -0.28425694 -0.13606194 -0.10435738 -0.38786203 0.4243036 -0.095807984 0.09991452 0.10930752 -0.17080885 -0.08151 0.44578868 0.11662404 0.18001336 -0.32598847 0.29608932 0.31188804 -0.014216244 0.0799562 0.32949936 0.15044105 0.03148276 -0.012919104 0.36064783 0.087974176 -0.21097963 -0.36023897 0.017595496 0.07776285 -0.0121776955 -0.37164253 -0.014644488 0.047401328 -0.19142652 -0.3066586 -0.2509638 0.27657735 -0.26945332
未 -0.5286783 0.26334193 0.08121797 0.082083024 0.06639332 -0.11375937 -0.15497138 -0.80497855 0.65928024 0.6583485 -0.2354737 0.47266093 0.32522064 -0.17936091 -0.43086448 -0.6549656 -0.7304625 -0.12091642 -0.5160353 0.103182 0.46042347 -0.36344242 -0.20293769 0.40777844 0.085188165 0.37867007 -0.66171366 0.48399073 0.44503307 -0.24263783 0.70196617 0.45473766 0.31408045 -0.5796134 -0.11014585 0.48312303 -0.15511003 -0.12678505 -0.28659692 0.014098538 0.13395524 -0.25370356 -0.42677712 0.14970748 -0.20473766 -0.06720187 -0.14863728 -0.26660657 -0.05091831 -0.55560017
公 -0.31083637 0.3640574 -0.26074448 0.12829219 0.30801484 -0.2789359 -0.058907144 -0.4599513 0.49671024 0.64944386 -0.2124357 0.12369444 0.0012959408 -0.12518454 0.01233964 0.14917511 0.29071033 0.65969783 0.23295674 -0.11005361 -0.12213599 -0.27939007 -0.3767884 0.38919124 -0.04177594 0.39699078 -0.40414172 0.24732071 0.35082063 0.2182599 0.14440502 0.15635021 0.2003497 0.08942644 -0.43277052 0.36719763 -0.16695239 0.5623322 -0.39357823 0.14122362 0.12252384 -0.2883369 -0.031064028 -0.013245153 -0.15951817 -0.53435624 -0.13475092 -0.45628652 0.31770164 -0.17684112
好 -0.23037165 0.30294222 -0.16646893 0.34195024 0.15741697 -0.29898858 -0.07474053 -0.47181413 0.2766515 0.4786237 -0.07910629 0.32160413 0.08480979 -0.22491665 0.12183496 0.08622166 0.06479652 0.38247088 0.15341063 0.04875869 0.012694673 -0.18964258 -0.069743775 0.3018325 0.054972332 -0.024387497 -0.15452616 0.12276022 0.18415077 -0.04554522 -0.038787343 0.19233967 -0.087703176 -0.077213496 -0.17227344 0.29966468 -0.1972318 0.09018804 -0.2711739 0.15822658 0.07711168 -0.16736773 -0.14177084 0.14445677 -0.28094348 -0.38944596 0.084258474 -0.27294338 0.0075849444 -0.29439706
我 -0.5859889 0.2610274 -0.10031026 0.056840375 0.034777563 -0.21522309 -0.0899754 -0.5467563 0.51167375 0.23956348 -0.2004199 0.5512143 0.15007594 -0.24113971 -0.14429624 -0.26052856 -0.13453814 -0.26934043 -0.13923012 0.031027956 0.3603498 -0.1503433 -0.1469731 0.49011335 -0.09968623 0.22949664 -0.33073816 0.08570591 0.28192884 -0.31091627 0.5031905 0.40148744 -0.013431879 -0.4912564 -0.1313753 0.14054485 -0.18485144 0.2813054 0.15030953 0.4293414 0.16788433 -0.28936464 -0.075937435 -0.25412318 0.07501116 -0.15468277 0.08730591 -0.51468307 -0.08816921 -0.18280365
路 -0.4603471 0.25243178 -0.45980483 -0.07559555 0.3280825 -0.37572956 -0.13458505 -0.5812914 0.16993757 0.61886835 -0.33988342 0.35417777 0.19802193 -0.22100697 -0.08631286 0.16205677 -0.1550684 0.14949666 -0.04320547 0.015736582 0.27664348 -0.48012006 -0.15356438 0.60195625 0.020200849 0.27427495 0.25708327 -0.13511097 0.34590644 -0.038264405 -0.09675756 0.293879 -0.103815995 -0.041973278 -0.22134212 0.30183297 -0.37737548 0.38823366 -0.3244447 -0.11795801 0.21208659 -0.3045657 -0.2644042 -0.0387099 0.22789465 -0.35930148 0.4772625 -0.36217564 0.036606815 -0.22106966
在 -0.3996121 0.407577 -0.37154028 -0.017880967 0.1563958 -0.24239422 0.21023162 -0.49923897 0.24957608 0.65193224 -0.08173366 0.07609263 -0.16859114 -0.028193926 -0.04596198 0.14629145 -0.25498888 0.22326167 0.13771574 0.21484491 -0.08407567 -0.4359954 0.18451837 0.49175626 0.29648554 0.17825602 0.026360756 0.005964683 0.19607459 -0.06972037 -0.015744675 0.2600472 -0.27248135 0.24964838 -0.010074308 0.2300803 -0.46370754 0.39562082 -0.1562543 0.18408531 0.21175715 -0.27082562 0.0458276 0.030643238 0.19412953 -0.24687603 0.06497256 -0.35320768 0.15735899 -0.34112734
已 -0.4032348 0.45410144 -0.08416155 -0.44354987 -0.32354382 -0.35380578 0.09643811 -0.53657323 0.1941884 0.77593625 -0.18474768 0.18813263 0.24845412 -0.36030695 0.13321511 -0.1938744 -0.5233305 0.27185208 -0.22506933 -0.31753016 0.24878627 -0.48468184 0.22789273 0.2668899 0.25490507 0.32198304 0.20229252 -0.38868573 0.13959932 0.0018132301 0.22232041 0.348686 -0.21729809 -0.25647175 0.069984965 0.5238537 -0.6079033 0.33284906 -0.46510553 -0.19212618 0.13915634 -0.6024864 -0.21658243 0.1709028 -0.16533242 -0.43156698 -0.15276593 -0.1591403 0.0676366 -0.31629983
得 -0.33611575 0.43377516 -0.4242298 0.05003344 -0.12028177 -0.15663522 0.008315683 -0.5164952 0.30104625 0.59134483 -0.24446076 0.1591565 0.09401446 0.043225758 0.15433343 0.20186257 -0.060400344 0.18537042 0.27863917 -0.17835297 -0.15057805 -0.40999734 -0.21051583 0.2808876 0.19210298 0.3180269 0.23055759 -0.41495946 0.14577052 -0.081251666 0.04060478 0.25198343 -0.059281863 0.25645828 -0.2941509 0.37199613 -0.40658012 0.36280668 -0.35712305 0.11901908 0.08718146 -0.3467163 -0.095164694 0.13690917 0.09300242 -0.3456619 0.09080487 -0.21125342 0.06898288 -0.028876381
所 -0.30292422 0.27485758 -0.30586687 -0.21617337 -0.22434418 -0.18225613 0.17832062 -0.5294374 0.24334945 0.5975171 -0.05337253 0.08895823 0.08460728 -0.028665261 0.013290244 -0.093841955 -0.14167 0.34477973 -0.16772406 -0.15233688 0.15393573 -0.4391331 -0.16037707 0.2818032 0.3503886 0.12079725 -0.021030532 -0.19035518 0.28366795 -0.054375883 0.12609418 0.28974548 0.037347957 -0.222364 0.15441954 0.17020938 -0.24843194 0.009688338 -0.07846637 0.08748989 0.13543075 -0.1102784 -0.22859882 0.11906662 -0.007062397 -0.037062597 0.31293285 -0.15399761 0.061789785 -0.07203197
民 -0.7520386 0.44826713 -0.20727494 -0.40570936 -0.37682512 -0.18621814 -0.09368881 -0.58143026 0.47776586 0.6400159 -0.3285413 0.21433115 -0.04312928 -0.3351987 0.3169984 -0.10181146 0.1960364 0.73247004 -0.32783857 0.04948047 0.13492861 -0.4537 -0.17381787 0.5637224 0.45183027 0.3994674 0.6464924 -0.499016 0.32329777 0.019968221 0.29662198 0.3469448 -0.22434987 -0.25845298 0.21334992 0.49337023 -0.54457885 0.64508075 -0.557478 -0.063415386 -0.100036636 -0.3287435 -0.24368621 -0.07708624 -0.15954368 -0.34541175 0.6132069 -0.17782156 -0.17200448 -0.034848027
小 -0.42292598 0.46759436 -0.32103834 -0.22293882 -0.11335047 -0.029830996 0.015186526 -0.48235708 0.39678547 0.6162401 -0.3855331 0.025815502 0.20958292 -0.10619236 0.18070883 0.24314022 0.3071518 0.5692974 0.21662693 -0.30088168 -0.09649172 -0.53193265 -0.30987915 0.3523188 0.13024253 0.35388488 0.53787905 -0.29017577 0.4844342 0.10207771 0.0913099 0.3007134 -0.4274449 0.25390333 -0.18399712 0.241056 -0.38422558 0.14635068 0.038446918 -0.23357247 0.3125643 -0.32483676 -0.23024437 0.13688496 -0.0688106 -0.40490285 0.57289857 -0.26734403 -0.16593802 0.106930815
天 -0.81654674 0.5271334 -0.4254389 -0.14595114 -0.36329636 0.03884883 -0.07454206 -0.88121873 0.64391035 0.6213341 -0.19524574 0.60298115 0.28957763 -0.1270436 -0.26324078 -0.31341797 -0.090410866 -0.02810613 -0.362639 0.06189075 0.27246135 -0.45554525 -0.4256777 0.5983616 0.42456037 0.47481856 0.8879583 0.21061651 0.49646044 -0.35779357 0.6347427 0.029747352 -0.4441991 -0.70004356 0.32457528 0.22866242 -0.27170908 -0.029028174 0.089322045 -0.18151043 0.22640099 -0.2817283 -0.051802877 0.14006707 0.017433092 0.6345187 0.43896836 -0.16627085 -0.3088162 -0.12537074
乐 -0.74961054 0.39176583 -0.1604311 -0.31439936 -0.3709051 -0.33286643 -0.079915814 -0.43214238 0.2936674 0.492314 -0.29895768 0.15774758 0.02805645 -0.32375193 -0.11129686 0.7489995 0.15009566 0.58327556 0.08271586 0.035274707 -0.07261058 -0.21653147 -0.31689543 0.37035176 0.4151104 0.49309435 1.015057 -0.010231186 0.42284894 0.014412925 0.16826628 0.3017951 -0.0020113434 0.13250339 0.23185737 0.3413195 -0.52880234 0.5665693 0.057749268 -0.15323485 0.31017122 -0.16904822 -0.30141172 0.24580655 -0.23379837 0.1839169 0.54681504 -0.2603663 0.25096515 -0.18971428
邦 -0.30590948 0.12295456 -0.4744184 -0.13672765 -0.06512543 0.046392962 -0.026343647 -0.479384 0.48317125 0.43610537 -0.26782838 -0.547178 0.0053472538 -0.17240061 0.13612467 0.39098623 -0.062348433 0.66837126 0.24369189 0.06677159 -0.25514215 -0.41281426 0.0018853128 0.15043667 0.3341449 0.3273537 0.7660338 0.10115259 0.41238713 0.062358037 0.14768852 0.31013492 -0.5200558 0.25533062 0.35307252 0.12519155 -0.4812049 0.4821152 0.23001213 -0.42914748 -0.2936586 -0.28648898 -0.15438648 0.35552737 -0.32930446 -0.01028287 0.41145536 -0.086739704 0.037165735 0.006456974
亦 -0.7050778 0.2223699 -0.39978036 -0.36657313 -0.383635 -0.16989192 -0.23905763 -0.66924834 0.30695274 0.3426765 -0.1704633 0.0036749295 0.15777086 -0.1390813 -0.086471304 -0.18724063 0.12571794 0.6471285 -0.24014744 0.28795233 0.24668388 -0.4270738 -0.21699858 0.14301333 0.37793735 0.33023638 0.2830093 0.33253062 0.39408514 -0.1243465 0.38633993 0.30038464 -0.17380807 -0.45317155 0.5495323 0.23288688 -0.3441442 -0.24056262 0.1259996 -0.15075755 0.07453307 -0.045543227 -0.40317634 0.3046906 -0.40318978 0.40148598 0.43510735 -0.16223708 -0.17339095 -0.1566943
使 -0.64577234 0.2858109 -0.4323479 -0.4303359 -0.24103603 0.0021616123 -0.2965882 -0.36506563 0.2399937 0.56123334 -0.1727636 -0.29376012 0.33040673 -0.17362349 0.2719701 0.08681315 0.14023358 0.6718436 0.3717655 0.18029249 0.00021758676 -0.6048366 -0.21399154 0.20829135 0.39417335 0.44382086 0.52184296 0.09375474 0.3969337 -0.42751232 0.17127398 0.3848843 -0.24915738 -0.055230018 0.190845 -0.03357709 -0.5313725 -0.22410643 0.23076674 -0.5310459 0.09182743 -0.093811244 -0.3441886 0.25430405 -0.46134868 0.49380094 0.6022828 -0.1045848 0.015288513 0.15731992
大 -0.600385 0.033414964 -0.24447438 -0.3558413 -0.4494891 -0.15878928 -0.29686037 -0.56928813 0.3332419 0.41732246 -0.21698421 0.36536628 0.3270572 -0.13215773 -0.20620951 -0.2892034 -0.30754524 0.27323073 -0.14714377 0.14660944 0.21725905 -0.37199253 -0.3018952 0.10770863 0.34203503 0.20815216 0.7219602 0.26819754 0.23552844 -0.24821146 0.46679568 0.27116358 0.13303113 -0.5520307 0.36577052 0.23030245 -0.1954367 -0.30592847 0.21904705 -0.19678998 -0.042808615 -0.046849746 -0.26963213 0.17697658 -0.29033044 0.41235432 0.6248147 -0.2019892 -0.0998158 -0.19183414
下 -0.46717185 -0.02636708 -0.24290892 -0.57657194 -0.330855 -0.20187521 -0.25925756 -0.8383248 0.082384385 0.739318 -0.12226849 0.12844552 0.53543705 -0.45252353 -0.24420951 0.15649661 -0.056575835 0.68696105 0.16152644 0.44077185 -0.13392217 -0.5215026 -0.69686335 -0.06847973 0.32948518 0.34267342 0.7428956 0.33867517 0.199801 -0.31765607 0.13382144 0.34351894 -0.044674583 -0.103652716 0.42835367 0.2957574 -0.30657804 0.2608385 0.34047163 -0.4525851 0.36464894 -0.032755442 -0.24949844 0.23755473 -0.32585466 0.5207856 0.6405933 -0.1203806 -0.11149034 -0.23461002
贡 -0.285955 -0.12507308 -0.33023912 -0.2616618 -0.39849058 -0.46207073 -0.0073947646 -0.55233264 0.23164998 0.6870999 -0.1955823 0.04655012 0.20094635 -0.46225223 -0.36229897 -0.028717564 -0.3364161 0.83368194 0.345583 0.38600856 -0.1954368 -0.31172496 -0.5888241 -0.32828218 0.41125536 0.3194287 0.5348469 0.19352877 0.52958435 -0.4173856 0.14341828 0.45905662 0.066562 -0.03932085 0.11456377 0.43271735 -0.35666832 0.2662287 0.4429504 -0.26730844 0.40022454 -0.18052866 0.090242736 0.21119398 -0.29270557 0.42795682 0.54998696 -0.27468577 -0.046438754 -0.0005088607
欲 -0.27316684 -0.25222558 -0.59106463 -0.19070448 -0.12223454 -0.033328194 -0.07916483 -0.085255325 0.5131666 0.5549529 -0.3237921 -0.06300725 0.27799547 -0.4162198 0.08954201 -0.15680936 -0.06621097 0.80094343 0.5426444 0.19183065 -0.18946384 -0.29787892 -0.63705933 -0.41248646 0.41346502 0.2309075 0.5450875 0.22881322 0.42875817 -0.1697615 0.3430352 0.6598277 0.056952063 -0.2690722 0.2562864 0.24010225 -0.35318047 -0.23667623 0.53322697 -0.17030677 0.12774776 -0.3097892 -0.40357986 0.33820722 -0.38188258 -0.02076665 0.51792014 -0.36816612 0.3635111 -0.018336782
诸 -0.40177837 -0.25869974 -0.45327693 -0.27061632 -0.34767294 -0.24213353 -0.33466005 -0.40217844 0.36633795 0.5757666 -0.12176109 0.37046808 0.29400048 -0.096074656 -0.21698375 -0.523101 -0.3452174 0.21969068 -0.157299 0.10857284 0.028552452 -0.24846824 -0.47161222 -0.16353208 0.31638736 0.059545223 0.8499169 0.40415207 0.2697302 -0.49862763 0.47120106 0.26869825 0.076407745 -0.697415 0.25294325 0.16475283 -0.20022483 -0.24872434 0.31791812 -0.14970426 0.25127417 -0.21192476 -0.175537 0.3941953 -0.4449567 0.13011715 0.42194542 -0.015240831 0.23230982 -0.0009914052
从 -0.56972015 -0.08782168 -0.4290304 -0.20568925 -0.15130742 -0.39073876 -0.36366323 -0.29152718 0.21069054 0.42467093 0.010600624 0.023089256 0.44216904 -0.20100029 0.040579 -0.17400102 -0.028759284 0.3925284 0.36917537 0.21006656 -0.1909559 -0.30622232 -0.55967486 -0.010679275 0.33503 0.112796694 0.24507898 0.60045165 0.1915399 -0.6444726 0.28944406 0.3468264 0.19169992 -0.1535246 0.29514894 0.12392456 -0.45936462 -0.2811484 0.53041923 -0.18309993 -0.12200745 -0.079329036 -0.467133 0.46431488 -0.46155208 0.3307247 0.20285834 -0.14315848 0.013739621 0.100810096
文 -0.20417668 -0.49697658 -0.7966703 -0.16000876 -0.41602433 -0.30291995 -0.1776143 -0.4754282 0.022720404 0.40732852 -0.4406626 -0.099881396 0.0012743056 -0.41409668 0.50279135 -0.14775173 0.05160312 0.89724624 -0.20118925 0.37441766 -0.31311777 -0.30560106 -0.809946 -0.09687909 0.3755006 0.13307902 0.6850594 0.33844537 -0.022996604 -0.46997574 -0.02688742 0.16197138 0.08500345 0.033201464 0.38856623 0.118095264 -0.34655422 0.15210915 0.59028953 -0.42334205 0.4937584 -0.4981311 -0.25993282 0.5449738 -0.5564042 -0.09389715 0.10657373 0.42902243 -0.17583367 -0.0037204607
政 -0.41637287 -0.34209618 -0.49916312 -0.34971118 -0.19540647 -0.25228262 -0.4502762 -0.3266713 0.2081863 0.36463144 -0.06832679 0.29122955 0.31801844 -0.25113815 0.06917209 -0.56584525 -0.098466404 -0.04641942 0.05973685 -0.0036095735 -0.2695086 -0.32060125 -0.45163563 -0.25003123 0.2873451 0.059118785 0.36716646 0.42431155 -0.00053263246 -0.46054068 0.38265362 0.18456197 0.09198259 -0.41980106 0.36458448 0.23635416 -0.16309479 -0.22966143 0.5214405 0.19050725 0.31680703 -0.17283094 -0.30313247 0.42142108 -0.49748504 0.0061591994 0.3353754 0.14352758 0.02936122 0.08913836
食 -0.36184427 -0.4245218 -0.48589882 -0.2888949 -0.30193225 -0.3912532 -0.20329028 -0.40935737 0.25983852 0.59890705 -0.11302703 0.42783102 0.5084202 -0.2805167 0.2971199 -0.06316564 -0.08492528 0.46463636 0.101146705 0.48001167 -0.3473131 -0.32192096 -0.74106354 0.013648909 0.37938112 -0.025463324 0.65381175 0.09404342 0.08935384 -0.27621904 0.2765789 0.06465866 -0.054795273 -0.15526609 0.004271196 0.3220608 -0.28976125 -0.08280163 0.4328687 0.28969553 0.43368644 -0.13891089 -0.13317579 0.46567205 -0.28823078 0.08134582 0.2300464 -0.1294216 -0.118412025 -0.016203916
善 0.46804303 -0.36145696 -0.38892987 -0.01296567 -0.10772056 0.03362376 -0.15333104 -0.14141816 -0.012713665 0.69185793 -0.090262935 0.021840718 0.4890742 -0.51556855 0.23100653 0.07721579 0.29735437 0.6676881 0.57758105 0.23156632 -0.7696804 -0.6601422 -0.6639072 0.03270127 0.18890028 0.10043002 0.2534555 0.43339652 0.44672963 -0.26862368 0.03193155 0.26484603 0.1870742 0.19579566 -0.27033564 0.44885635 -0.34769088 0.25168136 0.49840719 0.28615284 0.26103646 -0.18382898 -0.2669443 0.2035545 -0.6341887 -0.2276873 -0.03573401 -0.08948486 0.2109795 0.1545485
后 -0.21994546 -0.34479034 -0.6018335 -0.18139029 -0.20956148 -0.18063039 -0.3801922 -0.066811584 0.19643177 0.5080771 -0.046976395 0.41937694 0.54248625 -0.20625976 -0.14016841 -0.5716049 -0.4676974 -0.1331076 -0.032885756 0.35154742 -0.08556655 -0.42859784 -0.7524638 -0.013480386 0.23831484 -0.07198289 0.3845 0.20624976 -0.028716575 -0.49403855 0.5321217 0.08848895 0.13348277 -0.5057939 0.20803462 0.17441393 -0.21356705 -0.33607864 0.4894604 0.37752804 0.47158483 -0.28428087 -0.136319 0.30456206 -0.45865506 0.14740637 0.08235122 0.05778967 0.020626986 0.00758777
德 0.13706413 -0.30744284 -0.63563555 -0.12226539 0.039725594 -0.36877352 -0.26761368 0.06620336 0.10132363 0.4556234 -0.15722705 0.059118275 0.5983032 -0.5245481 0.20342493 -0.17939381 0.26716912 0.69171715 0.36437595 0.2797573 -0.4535726 -0.39973518 -0.8535667 0.1776174 0.16181809 0.0046962546 0.24940868 0.006162811 0.07949782 -0.38598332 -0.1955977 -0.022574613 0.17453584 0.07474132 -0.08713707 0.39866647 -0.23007245 0.0947179 0.3961005 0.45615917 0.19371755 -0.09552762 -0.12961413 0.36300567 -0.6488077 -0.41392604 0.20373666 0.18501368 -0.31961888 -0.1469177
求 -0.10058974 -0.12898567 -0.5274719 -0.22933364 -0.041103438 -0.27892855 -0.40192872 0.06943112 0.036769383 0.20694123 -0.05440609 0.16892566 0.12621078 -0.4405879 0.24567537 -0.15941927 -0.18455698 0.4729582 -0.09737168 0.041655373 -0.34597984 -0.3026084 -0.44189385 0.2506163 0.09381976 0.010317549 0.3164511 -0.08345466 0.0007379445 -0.19310924 0.07337614 -0.12443336 0.16263148 0.04462124 -0.38142833 0.00014938228 -0.13662097 -0.08779486 0.2969917 0.21806842 0.3274601 -0.31153905 -0.34892687 0.51502585 -0.33316523 -0.5158294 0.0012269893 -0.036525376 -0.07302369 -0.06835633
对 -0.12076799 -0.20142855 -0.42726004 -0.26226372 -0.025198309 -0.23453511 -0.48632905 0.0821237 0.2865834 0.1417703 -0.08677442 0.21674135 0.5044796 -0.35838416 0.2906438 -0.19352739 -0.23439904 -0.082549654 0.23837799 0.2620968 -0.3033058 -0.509238 -0.38402843 0.38756347 0.19812965 -0.059204012 0.479456 0.0035363976 -0.092337675 0.017408293 0.43101087 -0.042176586 0.2265433 -0.07896861 0.007816156 0.24249236 -0.16677828 -0.008174371 -0.006471177 0.21804957 0.4661021 -0.15655552 -0.2679097 0.5455332 -0.54660445 -0.118824564 0.014292335 0.37507263 0.06644499 0.038524732
恶 0.08949791 -0.25537926 -0.809621 -0.19449612 0.0022949632 -0.043398667 -0.5387521 0.10237184 0.17195761 0.40562335 -0.27198362 -0.2154384 0.6560962 -0.25236806 0.561604 0.08226254 -0.2811476 0.6358586 -0.026802693 0.5402991 -0.3153398 -0.23736759 -0.50116515 0.65617675 0.14702146 0.13829736 0.34934646 0.0032663785 -0.11751972 -0.09584512 0.15236014 -0.26351187 0.14952657 0.39777383 -0.06443395 0.3147176 -0.3333926 0.25334242 0.062327128 0.4327952 0.20375638 -0.0162943 -0.2810204 0.37476894 -0.15884991 -0.1551207 -0.08743073 0.11588483 -0.19192843 -0.17868787
信 -0.04826836 -0.06986047 -0.48745245 -0.24947557 -0.08151356 -0.051090356 -0.28321105 -0.122582965 0.37545267 0.012712005 0.0022353153 0.11180111 0.17757869 -0.33316436 0.1872941 0.116104 -0.06511087 0.16570611 -0.012333503 0.5389174 -0.06841249 -0.23645444 -0.47251526 0.46886864 0.42974803 0.024656551 0.36074317 0.052053463 -0.017284134 -0.12555252 0.41200274 -0.1778376 0.15716751 0.2042192 -0.11294009 0.21417549 -0.34017676 0.11569172 -0.014546908 0.43747061 0.41221908 -0.095507465 -0.1312639 0.2660927 -0.13170455 0.21883063 -0.06461815 0.06304426 -0.009124138 0.008164244
死 0.029401056 -0.5152755 -0.74561983 -0.38627458 -0.033957634 0.0393406 -0.6034297 -0.13337654 0.22950055 0.23900044 -0.20821092 0.22656895 0.6676883 -0.40489542 0.23503344 -0.59435576 -0.36358672 0.19301443 0.034669403 0.62924665 0.079937875 -0.47275683 -0.5140759 0.49922693 0.5417968 -0.032452334 0.6146651 0.1860819 -0.11202544 -0.2482687 0.7908695 0.18395318 0.19157626 -0.1707716 0.13988139 0.18578902 -0.48249933 -0.312394 0.36182994 0.72957766 0.28878987 -0.26610535 -0.1576397 0.30492634 -0.338403 0.0979203 0.13124707 0.21321183 -0.14661112 0.030978048
然 0.360076 0.048888862 -0.13588314 -0.39330864 -0.03485359 0.035348665 -0.18042791 0.23505229 0.073459685 0.29505372 -0.32600588 -0.3226921 0.54445803 -0.6942445 0.6236628 -0.10245348 -0.3886104 0.51375556 0.057951078 0.71400005 -0.09738618 -0.56215733 -0.45742857 0.39624506 0.33293054 -0.11095265 0.5672977 -0.27954006 0.10634931 0.1931975 0.13410027 -0.021309221 0.17597984 0.09009789 0.096404396 0.2558576 -0.46666014 -0.25048646 0.13512464 0.6330441 0.31048188 -0.31013274 -0.18115288 0.23278266 -0.21161069 -0.5285294 0.0048672687 0.30597463 -0.2078404 -0.018645674
《 -0.047616627 -0.08102923 -0.2524851 -0.2403411 0.06422239 -0.0029105707 -0.28877306 -0.08932232 0.1958026 0.03278202 -0.08756994 0.19158559 0.34733963 -0.07760834 0.37838885 -0.0633821 -0.30255577 0.3869426 -0.10214482 0.464667 0.0039879875 -0.26805872 -0.44084314 0.33362648 0.28229338 -0.12649003 0.37878665 0.15966052 -0.20614222 0.09001359 0.45189175 -0.03613049 0.12142655 0.038960103 -0.025938388 0.13930462 -0.3738712 -0.07676355 0.21069968 0.38758644 0.11952504 -0.18933669 -0.17291081 0.2246951 0.03698486 -0.07397131 0.16197355 0.07825564 -0.09348199 -0.17481393
》 -0.38189116 0.019251032 -0.23123413 -0.25022757 0.06523949 -0.11581323 -0.69292825 -0.25009632 0.31290108 -0.025731439 0.10877448 0.25772256 0.5326706 -0.25388333 0.44039097 -0.34792423 -0.28469807 0.588973 -0.0012371484 0.74575037 0.03523765 -0.63592476 -0.5668063 0.30607373 0.5096627 0.21243186 0.63773215 -0.19167982 0.053129673 0.11090453 0.74456114 0.077160835 0.27808672 -0.1587757 0.067466415 0.17281696 -0.33284712 -0.23088479 0.08821653 0.5274251 0.043176062 -0.30236527 -0.26811388 0.49839738 -0.090915896 -0.2130114 -0.05349856 -0.2070579 0.3817893 -0.3241248
由 0.22739711 0.074745536 -0.43835074 -0.40112716 -0.09334111 0.09190255 -0.26868725 0.055967238 0.32461637 -0.09855657 -0.23847929 -0.060714133 0.36890334 -0.2567746 0.60927135 0.36447632 -0.06475381 0.8071859 0.009028462 0.81338525 0.105188146 -0.48608267 -0.2630235 0.40446138 0.3995385 0.18391925 0.66839474 0.12741326 -0.034514003 0.16970842 0.23183148 0.10635282 0.09191249 0.51698923 0.25546378 0.24996123 -0.3871231 0.22801422 0.17384909 0.59210294 -0.13510883 0.079074465 -0.1901607 0.3252626 -0.051271226 -0.4716245 -0.13416614 -0.01675106 0.13291374 -0.29861942
仲 -0.2181935 0.29417956 -0.3294004 -0.1948384 0.08851049 0.035462137 -0.47575304 0.043908335 0.12276185 -0.015037699 0.05229007 -0.1790665 0.17276368 -0.25781512 0.2637255 0.12725694 -0.067830965 0.5607818 0.052916005 0.40267497 0.09001662 -0.21683666 -0.22668926 0.22944924 0.36818936 0.058496196 0.33225578 -0.067600586 0.18291193 0.09366237 0.21040104 0.051561337 0.21432015 0.11913152 0.20727058 0.28543738 -0.35099208 0.0051541394 -0.13502814 0.40479785 -0.024772292 -0.25027832 -0.3861956 0.12875639 0.13555789 0.054187477 -0.177067 -0.024615198 0.22635823 -0.24235377
非 -0.6873992 -0.0343604 -0.8858763 -0.5507883 -0.43301648 0.033614986 -0.59896797 0.23401435 0.56546056 0.38879102 0.41743246 -0.024705179 -0.015102668 -0.33361995 0.655434 -0.63034964 -0.40141448 0.9701077 -0.32284415 0.8562896 0.55148816 -0.31689772 -0.07185079 0.47974038 0.4846826 0.36608267 0.9819125 0.46211642 0.21096492 0.3863823 0.744566 0.33306137 0.23933455 0.018988768 0.7941176 0.28399688 -0.52494127 0.1866025 0.078856386 0.8500461 -0.17441401 -0.2710188 0.03821106 0.55010265 -0.0722985 -0.18709339 -0.17997183 -0.019894335 0.066768795 -0.11743346
出 -0.07552205 0.22527929 -0.46547455 -0.41136846 -0.18527542 0.06324063 -0.2397143 0.090923764 0.16367382 0.051155828 -0.09120789 -0.20576786 -0.030624159 -0.34627363 0.29004705 0.07356943 0.08432767 0.60020167 -0.24390453 0.41100916 0.24439687 -0.173685 0.18629147 0.19034696 0.4311004 0.11375057 0.5225774 0.3230395 0.25615394 0.21055098 0.34808096 0.11926128 0.38469282 0.17601724 0.45491725 0.24741197 -0.33008596 -0.06600839 0.07969939 0.317759 -0.15413238 -0.3494064 -0.3345128 0.09498425 -0.05417286 -0.025566898 0.1630926 -0.046705764 0.27723736 -0.12707603
过 -0.04927825 0.119268194 -0.61578906 -0.27690342 -0.19278166 -0.04108468 -0.6046888 0.25858355 0.21516182 0.37310272 -0.06545001 0.20977527 0.330938 -0.34835348 0.4390161 -0.35144135 0.13124682 0.67077136 -0.31794298 0.6284239 0.41277242 -0.18136822 -0.19711366 0.18540403 0.19952366 0.1403649 0.68518865 0.2525252 0.17335553 -0.12095155 0.3429132 0.36605853 0.11644645 0.23751037 0.4576507 0.40860844 -0.57388705 0.06304181 0.4078323 0.7242915 -0.20385134 -0.45729464 -0.2101787 0.22465223 0.1507729 0.21471536 0.06972466 0.059010193 0.06752645 -0.11061042
一 -0.09640549 0.49472758 -0.5324308 -0.003116602 0.10709917 -0.27097628 -0.7404556 0.063929714 0.14801961 0.3744464 -0.33925983 0.36673668 0.10208141 -0.24819139 0.19212182 0.0781659 0.95007217 0.70133054 -0.19067405 0.69390535 -0.050346628 -0.5925219 -0.232104 0.31783018 0.5188783 0.19071813 0.78900707 0.29461262 0.5490166 0.23540679 0.7402171 0.34031513 0.15004416 0.3122319 0.7416301 0.22034939 -0.63665134 0.10692027 0.27021387 0.48591274 0.21692528 -0.47163343 -0.04415804 0.34248477 -0.21073236 0.027130684 0.39198086 0.11352525 0.33905745 -0.01160353
虽 0.14200006 0.5483226 -0.33407304 0.021761948 0.07359294 -0.18049252 -0.37119943 0.34548572 0.075762115 0.26360777 -0.2465381 0.17828599 0.07657631 -0.33669668 0.09141491 0.044134207 0.33786333 0.5896857 -0.07592215 0.64003336 0.3059509 -0.35601974 -0.013095846 0.20046432 0.27833548 0.37706092 0.62489116 0.17670608 0.2822407 0.4539709 0.3062476 0.16331309 -0.05797659 0.37215394 0.43270695 0.34621486 -0.24814123 0.08415968 0.010585092 0.09074213 -0.207342 -0.33925176 -0.17060636 0.44218904 0.06564623 0.2112179 -0.02034524 -0.16680999 0.26864326 -0.14165121
足 -0.6761987 0.5940627 -0.43546364 -0.23844387 -0.097587965 -0.32328263 -0.52075815 -0.045871533 0.17473125 0.25419062 -0.16397536 0.36404112 0.36000592 -0.42584342 -0.18656506 -0.5358666 0.078863606 0.7307813 -0.3621725 0.65908813 0.5836589 -0.33781514 -0.19720922 0.2054826 0.4581614 0.22199202 0.97884655 0.4821142 0.58937013 0.4741767 0.65557104 0.33545884 0.26816005 0.16717161 0.77204216 0.7328666 -0.57807493 -0.31502706 -0.38474953 0.45944583 -0.105806895 -0.39942804 -0.568652 0.49299848 0.22251698 0.053916156 0.2501954 -0.47598296 0.48987576 -0.4610993
居 -0.5276564 0.48491403 -0.4952527 -0.11562356 -0.11231047 -0.32014573 -0.38349807 -0.13062143 0.23964025 0.25172883 -0.18306278 0.4569298 0.12876177 -0.22075492 -0.18413576 0.08125317 -0.085165605 0.6485384 -0.43754408 0.65521336 0.42477 -0.26052707 0.24602604 0.28697973 0.43955946 0.2255882 0.84461373 0.1343836 0.21204855 0.37338808 0.0024488675 0.3639234 0.16347371 0.51999855 0.3576077 0.37020543 -0.43880558 -0.080901295 0.0018268715 0.4550167 0.016100086 -0.15336451 -0.3513362 0.3897323 -0.2466935 0.6503404 0.31897327 -0.18598261 0.40277502 -0.31393072
尔 -0.08188156 0.5947475 -0.17511691 -0.120565034 0.011998219 -0.3203924 -0.23672625 0.40094358 0.14204906 0.09303981 -0.14879224 0.27347606 -0.016823055 -0.45214823 -0.110757545 -0.24170008 0.09980395 0.54543555 0.042585183 0.67743367 0.39418313 -0.24432105 0.107310094 0.058264438 0.4809472 0.42828956 0.5100278 0.15776226 0.4231801 0.35121447 0.0006971611 0.3277952 0.22128528 0.21347041 0.40763044 0.16912368 -0.44970024 -0.12026198 -0.066984415 0.09619361 0.044060882 -0.22727963 -0.17595035 0.35162637 -0.1174877 0.06350955 0.010062545 -0.2291371 0.48964348 -0.21541643
夏 -0.5952994 0.5909657 -0.16345152 -0.5239462 -0.24602449 -0.22037408 -0.21115685 0.3377134 0.30376714 0.38210103 -0.52731776 0.20616725 0.21280397 -0.6839744 -0.22932756 -0.37950084 0.09433788 0.09180225 -0.54237187 0.6829659 0.36387134 -0.3157476 0.30994546 0.10206905 0.47778648 0.3709879 1.0027026 0.3023378 0.5237086 0.58404917 0.3364297 0.57811236 0.23345235 0.069721095 0.44929075 0.34341425 -0.34908494 -0.35248065 -0.10346192 0.4071012 0.044111334 -0.5338999 -0.47380027 0.36336678 -0.35975635 0.62770104 -0.2804987 -0.49074543 0.18410978 -0.064190134
父 -0.26862308 0.3895802 -0.2802888 0.026515925 0.1273152 -0.2053295 -0.13976309 0.49354985 0.0089398045 -0.046075866 -0.49084973 0.3787229 0.111722775 -0.4090412 -0.25544617 0.023809923 0.30458635 0.6046851 -0.46182427 0.6641636 0.47130898 -0.26795462 0.24619812 0.14336118 0.4536858 0.39096394 0.6667547 0.30442882 0.5745134 0.43022284 -0.36477932 0.6016691 0.020560995 0.368804 -0.015047342 0.28252077 -0.5209401 -0.18663393 0.11090574 0.6483871 0.21734774 -0.17764115 -0.46835786 0.2871791 -0.041921157 0.5062451 -0.098195225 -0.24869831 0.30721876 0.059292424
及 -0.43685526 0.42058733 -0.35540998 -0.09772127 -0.251534 -0.3471028 -0.32784578 -0.00022840314 0.3389045 0.21743982 -0.3270196 0.66062325 0.09241337 -0.32391733 -0.50817156 -0.33141196 -0.009394193 -0.16880706 -0.4614826 0.42393038 0.4109826 -0.33514798 0.13557352 0.18589497 0.28783575 0.32705683 0.8513422 0.4336851 0.3848812 0.38709655 0.36257386 0.39063963 0.39669415 -0.1683005 0.254498 0.33398417 -0.2637476 -0.27387926 0.11511949 0.3763521 0.078368194 -0.2388616 -0.32838985 0.25192472 -0.15288055 0.40076137 -0.07410626 -0.27685997 0.15946369 -0.12916414
己 -0.32786047 0.2547779 -0.16400355 -0.019272944 -0.08159301 -0.38226956 -0.24191512 0.18123047 0.34593946 0.3016501 -0.4498142 0.82193357 0.22576408 -0.44400856 -0.24158719 -0.33262572 0.27369732 0.38606396 -0.4084874 0.6285072 0.42323646 -0.30552307 0.18303807 0.08116584 0.2364523 0.39213216 1.0287879 0.47827756 0.4407905 0.47804406 0.15526615 0.5372292 0.34537485 0.08195377 0.2171026 0.36592603 -0.42844918 0.039625965 -0.10216769 0.4141402 0.29576176 -0.25723737 -0.4456747 0.20452379 -0.2471705 0.20082024 0.059203453 -0.31686315 0.17489241 0.11072956
予 -0.40309522 0.66623455 -0.389968 -0.27039233 0.025052644 -0.15246259 -0.42315474 -0.01978245 0.19399919 -0.014478798 -0.5581 0.5724281 -0.085921 -0.32266876 -0.5575483 -0.34186515 0.2352701 0.17982517 -0.07799916 0.81151867 0.18556237 -0.6125441 0.47603232 0.10903142 0.51517165 0.18955973 0.5669116 0.33649457 0.06883393 0.6398756 -0.1293405 0.51343644 0.5175828 0.16674785 0.10325823 0.59336466 -0.5795143 0.41860798 -0.005220224 0.11375151 0.16613145 -0.16107889 -0.38463175 -0.019923385 -0.31084597 0.4992041 -0.0637394 -0.39835468 0.051193565 0.03436742
色 -0.22740428 0.53935397 -0.46225834 -0.22059643 0.111891545 -0.23239143 0.021664767 -0.31483233 -0.022854941 0.04136996 -0.37476218 0.6872162 0.17956443 -0.31836042 -0.062093064 0.09392646 -0.6931364 0.60955524 0.043810517 0.6556555 0.28578842 -0.30150762 0.40044278 0.16593361 0.3679038 0.3874689 0.8921055 0.77731085 0.13939571 0.46796334 -0.035925582 0.5237593 -0.024290757 -0.08030144 0.09052717 0.39336905 -0.40673262 -0.17271063 0.072936006 -0.18947682 0.5587118 -0.42047945 -0.13384424 -0.07536157 -0.2840834 -0.18295595 0.059483707 -0.4544765 -0.040311903 0.0991041
友 -0.38252613 0.39079273 -0.3449748 -0.15723956 -0.14145324 -0.23081976 -0.15604576 -0.08364076 0.13491857 0.10086813 -0.30304977 0.72611266 0.17110872 -0.26228562 -0.20959882 -0.17435132 -0.4212321 -0.5424821 -0.24565096 0.5065197 0.47080514 -0.36359814 0.32350338 0.034267023 0.16887128 0.43433 0.6653881 0.66517854 0.32182506 0.4911718 0.24322344 0.45798334 0.22194164 -0.33560184 0.061132442 0.3203142 -0.21711479 -0.108176544 0.0598575 0.305086 0.45479956 -0.21300478 -0.28681067 0.06850734 -0.23323864 0.11888389 -0.19694506 -0.41209295 -0.13648705 0.039157115
成 -0.08025546 0.43095 -0.37079948 -0.17219216 0.23584642 -0.42174014 0.17081878 0.10883111 0.3513035 -0.28169984 -0.098304376 0.77797097 -0.13042593 -0.09055413 0.009987298 -0.33818462 -0.45236218 -0.4078547 0.0031912494 0.7253154 0.18926705 -0.46692884 0.3054334 0.105610445 0.23152515 0.4316461 0.5965181 0.49665132 0.22175278 0.4960092 0.031820565 0.6892214 0.26273125 0.03319235 0.023760539 0.46882686 -0.25698087 0.41509032 -0.25906357 0.079932965 0.31715152 -0.12772001 -0.29538694 -0.116384126 -0.06636575 0.042081334 0.0948377 -0.43967336 -0.3267145 0.21518368
远 -0.0677885 0.4133356 -0.28827372 0.07215231 0.051443662 -0.44650233 -0.13115665 0.05858502 0.20149116 -0.1829063 -0.36044416 0.82609206 -0.24166973 -0.16033883 -0.20588264 -0.19492567 -0.17381002 -0.45616794 -0.003286912 0.6370817 0.2507942 -0.3740179 0.43484426 0.18499927 0.0358073 0.46113458 0.38688847 0.5572152 0.20113347 0.506009 0.019689197 0.6135696 0.4218287 -0.12627056 0.0064637973 0.31150457 -0.11450729 0.17248926 0.14782904 0.14833847 0.2327324 -0.23867388 -0.20286804 0.31194153 0.00549886 0.04875982 -0.058320172 -0.53768003 -0.51252043 0.16367222
上 -0.16456188 0.37151936 -0.3208544 0.003434359 -0.057918172 -0.20178795 -0.119857304 0.008199144 0.4170755 -0.034257717 -0.29598826 0.8780676 0.11918953 -0.26769817 -0.06834786 -0.22365431 -0.17403062 -0.54006463 -0.45351458 0.52051574 0.5082615 -0.36584416 0.15268597 0.24159954 0.096663386 0.42269686 0.57618713 0.53368104 0.19170268 0.32805017 0.114186175 0.6313057 0.4114229 -0.41198564 -0.06775294 0.43295908 -0.08318751 0.034767307 0.011697082 0.09626608 0.5694887 -0.21863282 -0.20434469 0.2420004 -0.084064156 -0.038349617 -0.19365378 -0.5713154 -0.2962099 0.17226039
立 0.15972409 0.21420044 0.14540717 0.026978059 -0.10734537 -0.35375595 -0.3821669 0.25250223 0.31042352 -0.04739719 -0.63025165 0.7007515 0.09848518 -0.086636975 -0.50186193 -0.29546526 0.22456267 -0.60494053 0.27845696 0.56283724 0.48104092 -0.50625 -0.26171193 0.2865279 0.46410713 0.76223564 0.397316 0.6150572 0.505533 0.20476544 -0.20968436 0.7384923 0.38770851 0.07303236 -0.27689853 0.70230997 -0.34389353 0.98114645 -0.022299353 -0.077105746 0.359026 -0.10480814 -0.15181154 0.14152065 -0.25364652 0.090575494 -0.21757185 -0.5000493 -0.8633493 -0.35831156
今 -0.13672338 0.4158874 -0.1386475 -0.06716276 -0.28460786 -0.047445696 -0.27684945 -0.1544118 0.13464054 -0.24468178 -0.272321 0.2990867 -0.006257464 -0.2160368 0.15039119 0.25105017 0.24855463 0.09163882 -0.0018376667 0.5319226 0.38072821 -0.62390083 -0.015280135 0.075002044 0.37118852 0.785438 0.04388419 0.5666106 0.20307273 0.8559511 -0.46504655 0.6059395 0.4927483 -0.05432284 -0.07777078 0.7206018 -0.39107528 0.50283945 -0.2939469 -0.45259187 0.69447565 -0.3105171 0.32382002 0.22761616 -0.36617932 -0.45357051 -0.29888213 -0.20863026 -0.78622013 -0.33597124
张 -0.41878134 0.48586354 -0.1971975 -0.15169 -0.05188435 -0.087352134 -0.28953868 -0.14544962 0.11454587 -0.31227702 -0.026286822 0.74342495 0.04015244 -0.15156354 -0.31781018 -0.3388376 -0.18513803 -0.5150193 -0.078386806 0.37696356 0.41236654 -0.36355597 0.035776503 -0.07557808 0.23985241 0.42682225 0.12789531 0.7270161 0.12518539 0.13094653 0.2616281 0.42413136 0.17918406 -0.5590618 -0.09909804 0.3623836 -0.20554484 0.120562345 0.0013449918 -0.08136446 0.7472732 -0.20287737 -0.11122587 0.13530056 -0.16626933 0.06649232 -0.15604925 -0.39898965 -0.6090513 -0.33789098
中 0.07124531 0.42822585 -0.29126424 -0.049113244 0.20677261 0.0015048101 -0.114244185 -0.17977045 0.16026565 -0.14605536 -0.10749669 0.052958407 0.003817523 -0.07950068 0.22664121 0.054567963 0.108698785 0.20679991 0.082643844 0.087132044 0.12234132 -0.59379244 -0.30481187 -0.38905758 0.4631925 0.68027407 0.106590964 0.44365352 0.31378895 0.62201846 -0.53350145 0.3408487 0.13325103 -0.01405752 -0.11890547 0.45421055 -0.16206467 0.41630077 -0.013349548 -0.1346712 0.8538001 0.061785907 0.085171774 -0.020949412 -0.36802727 -0.057860143 -0.22823046 -0.1635311 -0.49455887 -0.4707571
季 0.08728115 0.46030682 -0.29565609 -0.19577079 -0.106407925 -0.17332985 -0.22546227 -0.37409282 -0.13312602 -0.034627013 -0.18898724 0.12710115 -0.0048639625 -0.17964865 -0.20810403 -0.18102397 -0.10350252 -0.48487487 0.11915005 0.26332328 -0.026233707 -0.4969685 -0.2356571 0.057748687 0.44199434 0.40436968 -0.040102683 0.26796275 0.039381716 0.2659725 -0.09505185 0.32657546 0.09513184 -0.24754101 -0.016524883 0.29925916 -0.1157658 0.17320278 -0.09039366 0.017116468 0.477975 -0.23018679 0.08400814 0.25940287 -0.23114556 0.030810945 -0.26272672 -0.20144017 -0.26086152 -0.40427446
臣 -0.37916416 0.30788064 0.03240497 -0.103534564 -0.083684206 -0.26459387 -0.27460113 0.076075904 0.09296671 -0.27491853 -0.13476744 0.4811001 0.124060854 -0.16973919 -0.3162127 -0.3199605 -0.043525945 -0.72917795 -0.06352809 0.19642673 0.3529438 -0.39459038 -0.43856603 0.09003699 0.24159762 0.32473364 -0.033606183 0.18995899 0.10117684 0.316695 0.27433485 0.3683479 0.11204258 -0.5051316 -0.18110052 0.17005435 -0.018531932 0.12277074 -0.12423916 0.13131578 0.5753859 -0.18060532 -0.047065165 0.26725984 -0.25743097 -0.005720523 -0.5243221 -0.39868435 -0.47979617 -0.621411
贤 -0.2307524 0.51011133 0.07085136 0.3056942 0.092864886 -0.06982255 -0.33158734 0.04304818 0.07002101 -0.31063238 -0.43215325 0.21720603 0.08531949 -0.40564448 0.395961 0.21796325 0.62619305 0.030373784 0.004980562 0.36687127 0.22268288 -0.43275896 -0.4325537 0.08050333 0.13525258 0.40723747 0.14063115 -0.21537709 0.11791466 0.26930597 0.047850598 0.36556873 0.11266921 0.37582245 -0.24685398 0.28587264 -0.06473409 0.46130475 -0.16541268 0.16731365 0.4047954 -0.19553329 -0.15689677 0.31011045 -0.15422022 -0.63225013 -0.07627389 -0.32472715 -0.60698843 -0.65908766
思 -0.5211315 0.24793302 0.05328782 0.090514995 0.08132833 -0.1295948 -0.21441615 -0.05958022 0.05917351 -0.20872936 -0.17181373 0.47417834 0.0057243966 -0.052785207 -0.069912486 -0.13974506 0.1229945 -0.49695703 -0.12224721 0.29931572 0.27501407 -0.37073043 -0.6502994 0.01653524 0.33300495 0.3039719 0.360964 0.19484586 -0.0025762832 0.10989441 0.04737107 0.24827969 0.34459323 -0.1899824 0.06502063 0.14324911 -0.15788369 0.22374146 -0.2731365 0.17047206 0.3420093 -0.11459944 0.07281666 0.2621073 -0.22487886 -0.04111645 -0.4259451 -0.26220888 -0.41166386 -0.5287457
齐 -0.5659493 0.35436168 -0.18247956 0.03651607 -0.16862133 -0.17359029 -0.3820075 0.38613713 0.09627506 -0.5685923 -0.33076578 0.3829856 0.3024497 -0.46928552 0.08159898 0.083451405 0.7481159 -0.2450895 0.034487944 0.1823728 -0.17346507 -0.59356153 -0.9143704 0.669612 0.5039622 0.5422358 0.33431906 0.323454 -0.32909617 0.6791029 0.21812527 0.27533635 0.39454296 -0.4071867 0.1106288 0.30479863 -0.35786262 0.16668665 -0.46953353 0.024470387 0.5440107 0.016284827 -0.1378886 0.57207775 -0.24489667 0.1418813 -0.42551848 -0.38987976 -0.66877407 -0.9946959
义 -0.5044473 0.31533754 -0.14080526 -0.3385338 -0.06821271 -0.0886821 -0.5605392 0.41311935 0.07647464 -0.1880776 -0.1437773 0.0419299 0.01513355 -0.1301604 0.25328243 -0.18786561 0.5714413 0.18598677 -0.070104584 0.15991567 -0.014308917 -0.30399445 -0.78945065 0.15172094 0.64011115 0.47438258 0.41555083 0.13760367 -0.15457118 0.55716705 -0.3005661 0.18438827 0.20208763 -0.120651625 0.3416936 0.1124435 -0.3550308 0.27348992 -0.3384335 0.15638067 0.4897405 -0.34644675 -0.01140555 0.49675393 -0.32842484 -0.16182855 -0.30312613 -0.23172493 -0.24772444 -0.8628852
正 -0.2252109 0.40695918 -0.15650798 0.010994963 -0.05757153 -0.17866729 -0.307762 0.19773413 -0.12567867 -0.071766146 -0.10639695 0.09336313 -0.03149759 -0.2933319 0.10076357 0.020165242 0.006430809 -0.283587 0.044789534 0.25255919 0.051320203 -0.15359688 -0.43096676 0.13238566 0.36060497 0.097779565 0.5231715 -0.026586782 -0.015729783 0.21211389 0.056298528 0.392969 0.33732638 0.017639939 0.22387952 0.06940327 -0.23301798 -0.1916529 -0.31357205 0.31462535 0.3385884 -0.2928987 0.0490024 0.3765814 -0.12416113 -0.17328534 -0.28642127 -0.16627753 -0.25400883 -0.51652807
命 -0.3779474 0.49094462 -0.39093652 -0.062206104 -0.013090951 -0.06867293 -0.53238034 0.35580662 -0.056549348 -0.2027552 -0.39685974 0.19730972 0.035325844 -0.34828112 0.025089076 0.05966385 0.46237284 0.04477177 -0.47751415 0.526595 -0.51038814 -0.6159522 -0.8698072 0.23412922 0.51011455 0.38319883 0.096722536 0.22557145 0.06935541 0.4132631 0.13489081 0.44508994 -0.14368166 -0.009900942 0.1886966 0.110353924 -0.29828924 -0.5481361 -0.5331839 0.3258346 0.8090869 -0.2423534 0.043684665 0.87669283 -0.22373953 -0.3476063 -0.48424643 -0.49511188 -0.36417848 -0.9423755
曾 0.058986105 0.5253017 -0.061923858 -0.38691273 -0.32987896 -0.15207873 -0.39101273 0.49881062 -0.25423557 -0.020298492 -0.46302918 -0.36613372 0.09497194 -0.32119256 0.019328352 0.07699176 0.61351895 0.40939257 0.21493088 0.42641926 -0.5734429 -0.2058979 -0.83137274 0.19108991 0.38486943 0.18952788 0.3489473 0.2093619 -0.045681335 0.30549622 0.03816963 0.16613546 -0.1274292 0.28054005 -0.14857136 0.06601233 -0.34248537 0.04406925 -0.31310582 0.17618325 0.43301198 -0.36813444 0.05015719 0.72305 -0.021962723 -0.68775135 -0.37090945 -0.3860661 -0.17700395 -0.7752803
伯 0.09550045 0.25159407 -0.16374812 -0.030566888 -0.14374112 -0.07402747 -0.26874703 0.1651894 0.02398372 0.1147227 -0.29795268 -0.1505829 0.14704826 -0.1437945 -0.01240981 -0.05862015 -0.009622241 -0.094533324 -0.020832965 0.38006273 -0.16818441 -0.11813173 -0.41947597 0.41953552 0.38401565 0.22270803 0.4652171 -0.13549843 -0.009917549 0.28080183 0.042220935 0.27653468 0.1995152 0.49762255 0.23853053 0.13912207 -0.23311694 -0.15707982 -0.3089328 0.13850787 0.1646161 -0.32595295 -0.096739225 0.47192144 -0.002193769 -0.10621946 -0.2950988 -0.24696553 -0.35176894 -0.41543484
门 -0.5848762 0.35582906 -0.17462991 -0.2907313 -0.15474491 -0.45743322 -0.68752074 0.02796318 -0.19400181 0.12621209 -0.43369457 -0.05372865 0.13033259 -0.6435285 -0.38134006 -0.07004361 0.5797893 0.20788868 -0.4974039 0.75429046 -0.31452554 -0.5731727 -0.71464795 0.49609828 0.3354417 0.25444588 0.50907254 0.056874797 0.0014101211 0.6644326 0.4952494 0.24973068 0.08526013 0.22783013 0.54827166 0.3800692 -0.6384666 -0.29324692 -0.50269216 0.28531015 0.44401485 -0.039012082 -0.14151008 0.7866034 -0.34965184 -0.80990535 -0.7087066 0.08617625 -0.3073375 -0.818175
敢 0.116268724 0.33963785 -0.33586684 -0.071128175 -0.294347 -0.20290706 -0.44448262 0.16422553 -0.16467047 0.24036263 -0.32390112 -0.19142395 -0.13263308 -0.41035205 -0.15145491 0.14847761 0.41911605 -0.017350549 -0.080094025 0.381964 -0.23452075 0.0714548 -0.5432832 0.24729906 0.41655406 0.052377786 0.45637083 0.15645288 0.013955123 0.46910092 -0.086824015 0.33858094 0.27029967 0.55116785 0.19167702 0.076591626 -0.35868996 0.073886216 -0.19478863 0.082238406 -0.014972291 -0.29537526 -0.21784192 0.6551841 -0.36199754 -0.20162472 -0.3321049 -0.1740659 -0.57440066 -0.48376185
犹 -0.10882232 0.4999322 -0.33617032 -0.11576356 -0.18525694 0.010632015 -0.20825341 0.27257136 -0.23036845 0.2887963 0.0062713795 0.078080006 -0.0742989 -0.48903114 -0.07920764 -0.16263305 0.2376133 0.14659424 -0.24002746 0.551348 -0.25634295 -0.2441848 -0.3471263 0.40847358 0.5898745 0.0038268454 0.41746145 0.00179052 0.3319586 0.45161933 -0.019421473 0.13185629 0.19171764 0.38492632 0.45093656 0.27693525 -0.44766012 -0.40255338 -0.19557403 0.19462392 -0.053323194 -0.47216898 -0.030506905 0.50626385 -0.23224573 0.016332706 -0.35207254 -0.18526822 -0.5223715 -0.40885326
生 0.03618332 0.591276 -0.695014 -0.38011724 -0.51194525 -0.50427043 -0.6395676 0.27876326 -0.14340411 0.47604534 0.10716667 0.46132037 0.08302923 -0.20166291 -0.5063735 -0.431992 -0.00017167078 -0.17178763 -0.3985606 0.38470834 -0.23872003 -0.52577 -0.40667006 0.59766454 0.63094974 0.06595638 0.4116912 0.67738444 0.16633028 0.9514076 0.34731582 0.6630072 0.045995686 0.4374736 0.5714681 0.3808769 -0.55694556 -0.6211904 -0.2361287 0.20873706 0.4028059 -0.45903143 -0.46670762 0.9388032 -0.15399608 -0.49384683 -0.4134622 -0.6168442 -0.6119296 -0.7018083
日 -0.0041513788 0.18773101 -0.37899143 -0.17882814 -0.013248806 -0.21699682 -0.33779636 0.14809845 -0.013297512 0.14589724 -0.11941741 -0.3354599 0.017529815 -0.30515376 0.09071508 -0.03696574 0.25487623 0.45256013 0.24897425 0.36736664 -0.33455503 -0.3187494 -0.13896541 0.24275173 0.39849126 0.07937365 0.42953587 0.013810914 0.21577348 0.43520308 0.26199296 0.4021676 -0.16483007 0.46998012 0.38621572 0.36462113 -0.43208995 -0.39038882 -0.33182487 0.08899461 0.07613554 -0.4252213 -0.040801357 0.57452977 0.015761247 -0.4638709 -0.340898 -0.19522063 -0.18718657 -0.34563348
敬 -0.4873359 0.3953485 -0.6398938 -0.55072814 -0.41031694 -0.274086 -0.3677684 -0.17383336 -0.39429322 0.55027497 -0.4101407 -0.40927917 -0.06430072 -0.63836306 -0.5615449 -0.015597627 0.5590833 -0.15401214 -0.0053276164 0.30729568 -0.035875462 -0.45070398 0.038113307 0.5292882 0.7410033 0.2785336 0.7713796 0.39163288 0.3958763 0.8839998 0.39176553 0.51759017 0.25907615 0.7097013 1.0339981 0.46960104 -0.3166381 -0.9495464 0.0064260806 -0.2361149 -0.20941192 -0.52316606 -0.15869963 0.7731335 -0.064118765 0.09143952 -0.67239034 -0.41270447 -0.18323998 -0.78795034
难 -0.2643355 0.49605253 -0.60125977 -0.4611917 0.043876976 -0.29220402 -0.47002128 -0.040820688 -0.18056846 0.73660964 -0.16646568 -0.009507024 -0.11773862 -0.34935692 -0.64430076 -0.3957155 0.8420538 0.4338321 0.23879084 0.2894583 -0.47782442 -0.33957842 -0.07832366 0.16039173 0.5091641 0.1832363 0.57914793 0.40746814 0.23879057 0.5609784 0.622696 0.29791597 -0.31343645 0.57427526 0.69840425 0.61600924 -0.26698232 -0.6141736 -0.15761665 0.044754446 -0.11966527 -0.52537847 -0.24680313 0.86927366 -0.24202865 -0.23633935 -0.44880375 -0.14247823 -0.60456467 -0.57393754
直 -0.046532255 0.49889812 -0.5046608 -0.44109538 -0.12724954 -0.09098504 0.11911646 -0.20685291 -0.2452502 0.5730043 -0.24528909 0.12406556 0.0051834458 -0.5157951 -0.49554175 -0.06128032 0.3287618 0.30782697 0.24581419 0.3870594 -0.46087658 -0.24774078 0.057761393 0.10704292 0.3215908 0.35143992 0.32454568 0.44646335 0.21521594 0.5133172 0.28191075 0.40971988 -0.07616423 0.6451945 0.5261102 0.5218946 -0.3216071 -0.3687641 -0.2203331 -0.0077785878 -0.16676494 -0.48627245 -0.3260625 0.69294983 -0.07355283 -0.34929952 -0.35409373 -0.19403306 -0.47784734 -0.5839823
丧 -0.40009853 0.66598845 -0.53019166 -0.36134404 -0.3183346 -0.26402736 -0.35398984 -0.31955984 -0.06766869 0.53915185 -0.22911628 0.068806656 0.12361181 -0.42198738 -1.0053233 -0.53232306 0.52245086 0.2433069 0.32432756 0.36497268 -0.41878954 -0.37636924 0.102134824 0.20948942 0.20319755 0.22270821 0.46417838 0.60877526 0.09948356 1.139395 0.30911073 0.59774137 0.10144828 1.1878576 0.5414804 0.7320224 -0.31084454 -0.45329443 0.18986912 0.48096192 -0.14822796 -0.8328588 -0.49308047 0.63722986 -0.22569926 -0.55236757 -0.4901055 -0.10882298 -0.75551146 -0.72937745
说 -0.19731212 0.5737292 -0.65235996 -0.20783237 -0.29498234 -0.47600642 -0.38744152 -0.31691715 -0.104121305 0.513964 -0.33959797 -0.31946376 0.002762612 -0.31896013 -0.35152993 0.14199929 0.447346 0.22983928 0.3134567 0.21074302 -0.17259601 -0.31764984 0.17421946 0.07815965 0.21683466 0.24849471 0.2672549 0.5112715 0.14752395 0.51563203 0.3628965 0.5116138 -0.2751452 0.6953888 0.5230715 0.51667297 -0.35400087 -0.23784345 0.56132466 -0.07317464 -0.35853255 -0.6531351 -0.33869523 0.41468793 0.00317425 -0.40118688 -0.50902224 -0.36010808 -0.22714452 -0.54900354
自 -0.3342432 0.40517402 -0.35745662 -0.25338998 -0.23740812 -0.32243502 -0.33980623 -0.21002239 0.13058524 0.41239205 -0.32094365 0.12764272 0.3404346 -0.290595 -0.5034793 -0.40263772 0.42690542 -0.4449925 -0.07405141 0.2981097 0.057401042 -0.25248468 -0.027158706 0.24558552 0.1615933 0.17405546 0.5046244 0.51184046 0.2762731 0.66461337 0.5326068 0.3938166 0.06116586 0.66072583 0.39355907 0.2911687 -0.22672 -0.3735577 0.37612098 0.23675132 -0.14847627 -0.44182208 -0.39059246 0.39608306 -0.15755868 -0.13314766 -0.41811898 -0.24695046 -0.44260043 -0.39100447
用 -0.39869487 0.4914322 -0.38987136 -0.39362505 -0.33573195 -0.35739934 -0.20331375 -0.04368754 0.27918658 0.5149878 -0.3081987 0.12701525 0.18471164 -0.33935454 -0.19083636 0.17808412 0.5911519 -0.0055305837 0.10232534 0.18996768 0.0074852835 -0.3949198 0.23471609 0.28221124 0.25448027 0.3264801 0.3291952 0.11587796 0.09441955 0.5573221 0.4829311 0.49446246 0.020220095 0.9159635 0.40405583 0.566982 -0.2608863 -0.24715167 0.57811356 0.16553983 -0.3172327 -0.54036665 -0.3555387 0.2798005 0.016901532 -0.50398767 -0.37141392 -0.5007014 -0.5454922 -0.53576857
周 -0.4006607 0.3199972 -0.54038155 -0.18609142 -0.47286323 -0.52678156 -0.2726576 -0.48581514 -0.41040114 0.40893322 -0.39918554 0.086172245 0.38790277 -0.32227704 -0.38179928 0.3387125 0.5184924 0.44445774 -0.38536608 0.009494388 -0.11219886 -0.22119984 -0.065040335 -0.115778014 -0.087313846 0.26977515 0.35897237 0.6803372 0.17502898 0.32242578 0.038995013 0.47934672 -0.17652407 0.695729 0.6736328 0.4540784 -0.33214316 -0.62501264 0.45620155 0.38399115 -0.2559377 -0.4766883 -0.030434038 0.32242596 0.15486565 -0.5119791 -0.6070995 -0.4645102 -0.115159124 -0.57073265
颜 -0.4308077 0.4751816 -0.39385152 -0.10023201 -0.27952456 -0.2881501 -0.4562662 -0.83167124 0.381738 0.6293352 -0.6160709 -0.22291152 0.28778195 -0.26579067 -0.45280257 0.03669044 0.69444835 -0.13857345 0.044775274 0.23024808 0.16031894 -0.040933106 -0.12148893 -0.07714337 -0.035520326 0.35288298 0.12433623 0.37189278 0.21689643 0.2848419 0.28345922 0.2846032 0.10636689 1.0488985 0.7432495 0.24715045 -0.16039316 -0.046190113 0.40329608 0.14797242 -0.094044074 -0.64491844 -0.5319412 0.22407106 -0.014650828 -0.6940472 -0.7940078 -0.59461474 -0.2738152 -0.18085845
年 -0.2922924 0.54599005 -0.43011838 -0.19175312 -0.3427075 -0.2732742 -0.419185 -0.35688743 0.12862016 0.50324476 -0.35338154 0.15128873 0.33382478 -0.11271866 -0.47119522 -0.14225031 0.35790735 -0.2536876 -0.14942847 0.13372836 0.2936266 -0.14991182 0.0022801226 0.27429065 -0.00035833157 0.18193726 0.31301898 0.47604275 0.040892284 0.5331048 0.36439422 0.29880556 -0.08453474 0.6064482 0.4659972 0.47788933 -0.06394924 -0.16602014 0.46401876 0.36049393 -0.28917003 -0.59435225 -0.2910132 0.23718786 0.015501212 -0.10235839 -0.84827006 -0.37617388 -0.3387716 -0.31228057
告 -0.12973541 0.6482645 -0.56851745 -0.39299172 -0.55309844 -0.4348563 -0.15835992 -0.45187792 0.33910674 0.5607609 -0.592795 -0.03315321 0.29468274 -0.023845319 -0.20608841 0.25429243 0.4894691 -0.07785566 0.042768393 0.14185262 0.40773264 -0.0046000164 -0.22278751 0.19136275 0.13607654 0.40950763 0.1834103 0.7108086 -0.16607425 0.45155698 -0.11084712 0.41570538 -0.18750058 0.614151 0.3387188 0.36663726 0.02611912 0.29415497 0.5419122 0.4122791 -0.26500452 -0.49607748 -0.26534635 0.091270424 0.21217896 -0.38142535 -0.599112 -0.60280716 -0.4402619 0.13557868
十 -0.29264814 0.6726496 -0.6464133 -0.20126754 -0.23113248 -0.2938485 -0.702101 -0.61223876 0.17780226 0.44966683 -0.4636788 0.037376326 0.46641988 0.015150974 -0.23992838 0.0013902253 0.32770562 0.0019467217 0.027143758 0.056757443 0.42274958 -0.17698592 -0.15294258 0.2291183 0.016549908 0.08052075 -0.31292874 0.56459665 0.020184666 0.36161804 0.08816257 0.2481017 -0.044850525 0.5875053 0.4888026 0.18478923 0.055739243 0.08680512 0.41717774 0.39260134 -0.43204966 -0.54786146 -0.1757519 -0.059319656 0.21901333 -0.25391185 -0.75962204 -0.3386092 -0.18410844 0.017154675
怨 -0.34708205 0.68292034 -0.5173571 -0.04752236 -0.24443452 -0.20754406 -0.66734654 -0.41997918 0.33286968 0.2689769 -0.38779336 0.037816644 0.42944002 -0.016771104 -0.42863664 0.15489447 0.26049578 -0.3752682 0.27232552 -0.19921595 0.35478646 0.006027771 -0.0506289 0.32909742 -0.20048328 0.1918294 -0.25348383 0.46658254 -0.1370068 0.1621063 0.106448784 0.43231907 -0.05317295 0.3632057 0.5071291 -0.009146187 0.12699291 0.103647895 0.6121429 0.3352879 -0.26879013 -0.4105588 -0.52981246 -0.14623676 0.050208133 -0.21492918 -0.91680497 -0.52098745 -0.6218721 -0.21481273
达 -0.011832379 0.6993333 -0.51751024 -0.23380901 -0.34331 -0.010438587 -0.63768893 -0.45689157 -0.052870877 0.16426891 -0.5849929 -0.24342269 0.4423036 -0.26188472 -0.0074082077 0.37803972 0.6680366 0.68540007 0.28685436 -0.14013632 0.3804202 -0.11345787 -0.16273215 0.3998846 0.267999 0.12570113 -0.35974604 0.30836257 -0.10324119 0.68454313 -0.015347151 0.33452374 -0.002907493 0.5955843 0.30834654 0.24302101 -0.10361295 0.042785317 0.4252246 -0.088230535 -0.29466158 -0.4298125 -0.38387483 0.08308783 0.04262913 0.4229245 -0.7137242 -0.35758734 -0.100298755 -0.3498808
孝 0.1441331 0.7491364 -0.4173645 -0.46547115 -0.09820301 0.07290594 -0.5794419 -0.55033886 0.5919463 0.28032967 -0.5505107 -0.10673519 0.20285998 -0.31202728 0.012224236 0.77697444 0.7157272 0.49626324 0.7380271 0.23762222 0.16846725 -0.08642979 0.14058124 0.0932509 -0.14828196 0.41946533 -0.3093023 0.5479124 0.22414061 0.03714221 -0.3514822 0.34154722 0.059812758 0.81936634 0.6078348 0.26049772 0.11912091 0.6205268 0.20773278 0.2128696 -0.19544356 -0.2225307 -0.55509114 0.14627628 0.49191225 -0.0460383 -0.7229662 -0.39364767 0.10277604 0.09688382
弟 -0.3219564 0.5637762 -0.6395372 -0.4619054 -0.30204076 -0.0067923907 -0.6242616 -0.5704105 0.41038528 0.31756002 -0.17696957 0.27439544 0.4342006 -0.13933183 -0.41104248 -0.050357174 0.023367863 -0.5433128 0.00911551 -0.13746934 0.4278124 -0.10186186 -0.08379245 0.18442579 -0.12853701 0.12612268 -0.50642794 0.35368285 -0.117678076 -0.009612603 0.058842935 0.25911033 -0.13944203 0.08222756 0.64322144 0.10268092 0.03679401 0.12362534 0.51551735 0.21270509 -0.06086763 -0.47921985 -0.36269724 -0.064092316 0.08172026 0.30195355 -0.86500174 -0.5037087 -0.21504104 -0.12839678
至 -0.07931717 0.4786542 -0.5989111 -0.600454 -0.2504264 -0.17845547 -0.35519606 -0.6063018 0.6433577 0.22458492 -0.6031275 0.108686104 0.31702095 -0.43212256 0.13172711 0.3623655 0.004316074 -0.05326283 0.16214624 -0.08418163 0.21443751 -0.1428754 -0.1862927 0.14782679 -0.009214055 0.14306386 0.1623013 0.21103041 0.10401484 -0.03275582 -0.37680963 0.2862047 -0.28320473 0.55811584 0.13608377 0.16278015 0.086027004 0.44194484 0.31004885 -0.13708262 -0.27865198 -0.46895728 -0.19612674 -0.10597574 -0.18125443 -0.11221494 -0.41100895 -0.5435905 -0.16451684 -0.2749508
先 0.17882672 0.34294423 -0.4916271 -0.7928915 -0.13834623 0.0270577 -0.4883166 -0.35945946 0.15767908 0.25720188 -0.2510717 -0.049398173 0.36591673 -0.2284046 -0.44932312 0.3242814 -0.26173073 -0.14462334 0.021417024 0.12516205 0.26882744 -0.18685311 -0.38308942 0.030622892 0.15313055 0.11707495 -0.19979316 0.25531712 0.023744576 0.06133274 -0.4596268 0.034743 -0.16323137 0.00095406605 0.27327165 0.15244865 -0.15166248 0.17166369 0.3015297 0.015276389 0.03040329 -0.3547767 -0.15149277 0.067170426 -0.2068872 0.13283561 -0.571973 -0.28993514 -0.071528725 -0.0954081
师 -0.31985372 0.3557345 -0.50778365 -0.62527514 -0.1584695 0.07241973 -0.7303341 -0.70183676 0.24672653 0.33884445 -0.24720141 0.20694962 0.45395938 -0.1143063 -0.3658346 0.06227232 -0.31575873 -0.30627367 -0.19739762 -0.065823436 0.27605698 -0.23442706 -0.27584952 0.21028411 -0.054692917 -0.04288658 -0.36461014 0.0567195 0.14289005 0.15319607 -0.3365018 0.13164307 -0.16850574 -0.111064546 0.56568146 -0.19129993 0.1253057 0.27692193 0.41607028 0.37121263 -0.24774124 -0.41779828 -0.30215195 -0.07732243 -0.171362 0.37356237 -0.80081785 -0.40045378 0.055797637 -0.119207196
女 -0.05891202 0.4615808 -0.46942246 -0.83312553 -0.00573455 0.04298413 -0.68862164 -0.58145183 0.22199497 0.1867445 -0.39394623 0.07470022 0.5999154 -0.43559137 0.14176217 0.35040957 -0.09818144 0.18695544 0.27724674 0.15746121 0.07129205 -0.52454525 -0.1170077 0.25103626 0.05889338 0.11704893 0.3438873 0.075814016 0.040563434 0.06137001 -0.7179782 -0.094854236 -0.10106285 0.635075 0.15047361 0.085124254 -0.03479472 0.04262131 0.33481288 0.115079746 8.981279e-05 -0.41172552 -0.220507 -0.11680555 -0.39939284 0.29449946 -0.45308158 -0.09775029 0.22175294 -0.5135405
多 -0.15261221 0.23160902 -0.17637421 -0.6618093 -0.17295839 0.21871468 -0.56871945 -0.6847668 0.43571198 0.1748223 -0.30688462 0.36168003 0.4998301 -0.14510413 -0.5504803 -0.00063234684 -0.21551824 -0.48414385 0.079781726 -0.11632733 0.09182226 -0.34287572 -0.19077748 -0.03888172 0.20771176 0.040753607 -0.10889515 -0.035917196 0.07476609 0.06904335 -0.31260598 0.022140166 -0.11208387 0.106850974 0.53204286 -0.038844235 0.018256256 0.0071721664 0.4539755 0.059908815 0.17832722 -0.12707752 -0.1965164 0.047638476 -0.07619405 0.64029694 -0.6243186 -0.13721766 0.07394499 -0.29768765
忠 -0.19844893 0.2809125 -0.51002115 -0.6569906 0.23849018 0.71588916 -0.74380183 -0.82010674 0.7469799 0.17553535 -0.6338245 0.3732792 0.82415074 -0.2856901 -0.4062834 0.5101623 -0.14100952 -0.37347034 -0.07807012 -0.3469632 0.19782956 -0.8390334 -0.38918418 0.2387751 0.3448592 0.49184445 -0.086005524 -0.26114175 -0.0009621955 0.21870627 -0.79937816 0.25885352 -0.023991138 0.54919106 0.50193083 0.022649273 0.014564265 0.050455302 0.15788817 -0.22947614 0.14926462 -0.06669355 -0.47427994 0.25564095 -0.22970384 0.40754974 -0.5589213 -0.34931988 0.4702081 -0.46383408
四 -0.17014505 0.5416648 -0.2850391 -0.5355408 0.14941879 0.16066411 -0.305402 -0.36902422 0.61492217 -0.10708153 -0.43934536 -0.047417123 0.3295971 -0.33507037 -0.08169755 -0.044542495 -0.044481304 -0.16594341 0.3064737 -0.23571485 0.012687339 -0.55491084 -0.22346757 0.15468526 0.22833548 0.20580354 0.27451944 -0.52185816 0.2903562 0.10440495 -0.21276197 0.20088927 -0.08410817 0.5260672 0.13087167 0.2335643 -0.25204375 0.29375616 0.032351658 0.012361575 0.06357984 -0.48806965 -0.24842262 0.22094528 -0.33052447 0.6060468 -0.4714601 -0.121426016 0.2861221 -0.5331707
疾 -0.2539854 0.1086969 -0.31452355 -0.5893004 -0.15180805 0.23293984 -0.51982206 -0.44688973 0.52454543 0.010211509 -0.18901378 0.43593982 0.26333562 0.044290002 -0.4369298 0.12038759 -0.21517624 -0.3254985 -0.06719395 -0.30532205 -0.04853771 -0.3995923 -0.16201773 0.10128341 0.27055287 -0.02042291 0.18303668 -0.1726803 0.108165056 0.15525877 -0.10533841 -0.08741239 -0.11805128 0.15307339 0.41992053 0.11440455 -0.009814797 0.018873435 0.1097028 -0.026354343 0.16530728 -0.034429535 -0.3504801 0.12389662 -0.28563175 0.46459398 -0.2800415 -0.22553523 0.14008874 -0.1937282
服 -0.027017199 0.28569525 -0.42915824 -1.0170425 -0.034375142 0.119680025 -0.5567773 -0.50793815 0.75318754 0.50586194 -0.4917866 0.45232326 0.49673662 -0.06832409 -0.58024174 -0.14417529 -0.058039136 -0.68940246 -0.5228146 -0.24358147 0.041864954 -0.92553294 -0.27673137 0.1946175 0.5763156 0.045644764 0.36249098 -0.41780707 0.19527188 0.3482365 -0.38400632 -0.10588726 -0.38556394 0.23704694 0.63451266 0.22793363 -0.3492413 -0.036904816 0.046855927 -0.20345569 0.7034461 -0.274542 -0.18044125 0.4839777 -0.6437523 0.21938464 -0.7388047 -0.45257747 0.54979664 -0.45672956
氏 0.12684575 0.40110818 -0.11110668 -0.9599473 -0.004700451 0.44515377 -0.4646023 -0.5634247 0.25723198 0.14396963 -0.21863614 -0.14030321 0.4874382 0.007920512 0.33223382 0.015488778 -0.1598513 0.47218826 0.23367988 -0.31488314 -0.086110905 -0.76758325 0.30235937 0.46741304 0.21827935 0.17630632 -0.008193577 -0.5401671 0.34884375 0.5100104 -0.45774245 0.11218302 -0.14353178 0.6985713 0.14762321 0.22437978 -0.17058045 -0.059775103 0.04521414 -0.019803943 0.35062304 -0.4411578 -0.52041477 0.11735786 -0.7563987 -0.2070815 -0.38027033 -0.45858428 0.19406192 -0.33633977
冉 0.09732894 0.29226598 -0.13716777 -0.6410412 -0.26428595 -0.054696575 -0.37502715 -0.39812544 0.11903029 0.37501532 -0.23131031 -0.05922304 0.08900576 -0.28494132 -0.35582078 0.081047595 0.0033547818 0.34646904 -0.10293552 -0.08440548 0.13957366 -0.35888508 0.103276104 0.17370398 0.35266185 0.18049452 0.39261776 -0.2499575 0.0709922 0.38550076 -0.23225899 -0.059632365 -0.10708982 0.25431776 0.09168467 0.22969082 -0.39070415 -0.2124087 0.32125738 -0.03614177 0.36945772 -0.1580297 -0.3042863 0.2507205 -0.6581772 0.18230875 -0.2801956 -0.3907931 0.16880727 -0.4436671
将 0.07262036 -0.15747365 -0.04901853 -1.0537161 -0.49578816 -0.068495326 -0.663628 -0.558383 0.27065158 0.7173128 -0.21050243 0.26973718 0.6676512 0.12333611 -0.8912018 0.27967805 0.18750042 0.6262096 -0.887073 -0.19392851 -0.04854182 -0.7788205 -0.40475893 0.68312335 0.6849088 0.29489425 0.31382623 -0.5787699 0.4068157 0.4409515 -0.122533254 0.22492318 -0.21863902 0.023172027 0.28129798 0.37120643 -0.489639 0.020261634 0.38919273 -0.23870543 0.68732643 -0.25134468 -0.9433189 0.5288711 -0.6764435 0.47058263 -0.6377047 -0.6229297 0.109409355 -0.63191015
士 -0.32793096 0.1938911 -0.0006222433 -0.60088027 -0.23342969 -0.04469106 -0.34871784 -0.29100284 0.2244643 0.07250102 -0.14896171 0.09940125 0.29749057 -0.028436815 -0.20261641 0.054164007 0.37101644 0.3432738 -0.4323151 -0.03260296 -0.16847365 -0.4232974 -0.3195181 0.28669313 0.27390173 0.21474141 0.27458444 -0.34092334 0.057840656 0.37819943 0.055059474 0.16591449 0.20316368 0.49541074 -0.11143711 0.14416008 -0.3291079 -0.25988474 0.07795453 -0.05918681 0.26283994 -0.16560154 -0.4548707 0.19605584 -0.4660931 -0.06341487 -0.5290995 -0.36036742 0.00890376 -0.3609118
丘 -0.62976617 0.26052225 0.033123806 -0.8470468 -0.16197062 0.1093618 -0.42826393 -0.61467177 0.50325817 0.07635102 -0.12182678 0.5778096 0.3461244 -0.14224593 -0.7739884 -0.32808456 0.15157366 0.07008143 -0.5581132 -0.114713766 -0.04484083 -0.63689435 -0.39639696 0.3019763 0.37788758 0.05822282 -0.15613616 -0.2519895 -0.00609498 0.32508472 0.31872585 0.23912975 0.466253 -0.017072415 0.096792884 0.46015373 -0.18512292 -0.4054679 0.3281414 0.0058888267 0.5852287 -0.22407715 -0.7990858 0.47674614 -0.6614412 0.5244378 -0.68836284 -0.48533094 -0.21239336 -0.3750859
身 0.13240965 0.48981634 -0.22621247 -0.771378 -0.21226151 0.117143475 -0.61655337 -0.67069083 0.60409725 0.32675996 -0.15710643 0.34465617 0.48025984 -0.23593405 -0.73068064 0.18924297 0.93375164 0.79985905 -0.53273815 -0.020499712 0.1450493 -0.5343811 -0.2032273 0.45671412 0.5313805 0.39228737 -0.53980505 -0.324371 -0.09130377 0.77761894 -0.24454235 0.2895099 0.12846337 0.2742631 0.16678223 0.7004679 -0.2898106 -0.04957232 0.37986055 -0.19090594 0.516536 -0.23750946 -0.72290903 0.18283173 -0.7559986 0.40907365 -0.4429791 -0.61628145 0.0048057023 -0.45183337
入 -0.14911368 0.30471998 0.028255196 -0.75169337 0.044208284 0.050681494 -0.30639753 -0.77341235 0.49798578 -0.245456 -0.26784515 -0.2750563 0.08932177 -0.3025293 -0.4931223 0.5372011 0.4288007 0.8132067 -0.17794335 0.11647526 0.09724299 -0.28250477 -0.30485412 0.2087069 0.3351609 -0.09903144 0.07327855 -0.37496465 -0.13399276 0.2664181 -0.195051 0.3972459 0.3250172 0.56115735 -0.113535665 0.5198761 -0.52926767 -0.1070531 0.27472803 -0.22320421 0.58642113 -0.18286146 -0.60126376 0.23213369 -0.59896386 -0.15767051 -0.4895561 -0.51277167 0.25002608 -0.22040828
志 -0.06626159 0.43633404 -0.238366 -1.1209282 0.0048441696 0.15240492 -0.5472886 -0.8840264 0.27403426 -0.089678146 -0.30342096 0.13098471 0.106873445 -0.19356897 -0.9257372 0.74901676 0.68043786 -0.022391671 -0.8404359 0.3070043 0.018901948 -0.2536379 -0.25747046 0.2680805 -0.036081932 -0.17787758 -0.633316 -0.08352024 -0.03348528 0.7673025 -0.11267988 0.5200439 0.5553303 0.30310395 -0.13921256 0.3036854 -0.46480158 -0.65286314 0.21698608 -0.5535043 0.64477855 0.041048683 -0.72598845 0.42107713 -1.0014905 0.068265714 -0.891248 -0.7568598 -0.18156296 -0.26042712
耻 -0.00052621996 0.18665043 0.0870678 -0.9500309 -0.4377295 -0.0771613 -0.22348833 -0.5876227 0.3562064 0.22480644 -0.33880624 -0.014232237 -0.062211066 -0.48367274 -0.6458072 0.79771703 0.499931 1.1225647 -0.288301 0.51710874 -0.088449195 -0.18570629 -0.5705273 0.4670544 0.41224912 0.04332295 -0.11398265 0.18623412 0.26367286 0.7696207 0.17386381 0.13763522 0.46511778 0.39755517 0.0329365 0.110274635 -0.5403013 -0.5656557 0.4057298 0.20159477 0.6411953 -0.18523036 -0.61753434 0.38135624 -0.49857923 -0.25073132 -0.7786584 -0.5092331 -0.28308403 -0.33012903
失 0.028260466 0.18902302 -0.13036951 -0.9164534 -0.11379692 -0.15214539 -0.36741704 -0.61653477 -0.009617241 0.48709166 -0.3581341 -0.35556158 0.0975321 -0.5327539 -0.37609902 0.63252753 0.5812312 0.8687272 -0.51564837 0.3564602 -0.24525861 0.102848716 -0.4324128 0.31411162 0.09676839 0.2317985 -0.17222202 -0.061175637 0.19367099 0.4147944 -0.024057265 0.11359294 0.5813329 0.54165643 0.20090461 0.3677172 -0.528864 -0.10412308 0.36131 -0.09047538 0.6402296 0.02153414 -0.3790611 0.19997467 -0.70343816 -0.40694833 -0.2573755 -0.62352985 0.030481953 -0.004260918
安 -0.19293024 0.32513216 -0.20598714 -0.83129036 -0.0071223304 -0.43672517 -0.2924057 -0.30897 -0.16620952 0.28000686 -0.43322486 0.021455947 0.46596518 -0.59660995 -0.633644 0.19411696 0.6301768 1.0396506 -0.8443509 0.3183507 -0.13182905 -0.24685895 -0.08158808 0.302396 0.2681569 0.32039917 -0.3383898 -0.01892275 6.946921e-05 0.9843969 -0.10810872 0.4288903 0.43326414 0.030530578 0.1505226 0.38498482 -0.35490194 -0.36763722 0.51307565 -0.24869017 0.4159736 -0.3067065 -0.6686916 0.5704347 -0.6392317 -0.66184103 -0.5692443 -0.6084591 -0.318844 0.016927376
富 0.3037966 0.42072797 -0.06698286 -0.45065668 0.25715822 -0.27669156 -0.20882176 -0.42379615 -0.005428084 0.31293347 -0.39049888 0.08962999 0.053054586 -0.43393418 -0.47317907 0.23547742 0.5856894 0.60935056 -0.7029894 0.34054488 -0.10419577 -0.22027698 -0.32231247 0.47571373 0.19070984 0.3631791 0.2118544 -0.30925938 0.16246368 0.54558223 -0.30809146 0.5667233 0.5214559 0.5334102 0.14281602 0.28980768 -0.4854145 -0.27439022 0.043697424 -0.14159364 0.2093962 -0.33776507 -0.5866711 0.525312 -0.4404848 0.13382898 -0.11343614 -0.20499696 -0.19308783 0.25812784
赐 -0.12082968 0.22553268 -0.06964485 -0.52230984 -0.02207002 -0.036538895 -0.28061572 -0.46328127 0.11749192 0.31874353 -0.29185125 0.40338925 0.15481459 -0.3500848 -0.6044356 -0.11642727 0.4757159 0.54913586 -0.679326 0.33983707 0.14207469 -0.23072399 -0.24045606 0.3175403 0.07524085 0.13516377 0.064877905 0.11760287 0.04386636 0.6660601 -0.13052192 0.39105025 0.46893424 0.4028255 0.07898372 0.43636256 -0.34734356 -0.47969055 0.28911424 -0.17686851 0.39528605 -0.08856028 -0.4332904 0.45970514 -0.3736068 -0.16936162 -0.38624159 -0.26702288 -0.30044442 0.019400783
患 0.17726117 0.22263403 -0.4633271 -0.42879665 0.1708221 -0.37462884 -0.077909306 -0.5124496 -0.06071575 0.41975218 -0.57079047 -0.040060975 0.0056248466 -0.3831211 -0.68130356 -0.0664824 0.2803866 0.76320374 -0.71626663 0.50827974 -0.09201875 -0.2782595 0.016813744 0.15793811 0.2061869 0.19848895 0.016213283 0.06798404 0.22559546 0.9236288 -0.35291818 0.18338358 0.35440183 0.50259775 0.3554543 0.45085776 -0.35888705 -0.5603511 0.31955996 -0.4884022 0.30528674 0.05037731 -0.32397366 0.45840368 -0.6099095 -0.19401172 -0.09843251 -0.48223582 -0.5662486 0.06413914
百 0.3569608 0.35554725 -0.3502896 0.12271455 0.17366743 -0.14207865 -0.24121289 -0.3119847 0.0476979 0.37248126 -0.52878463 0.2420695 -0.20242202 -0.47375813 -0.8454799 0.48080873 0.20231271 0.3775834 -0.67902976 0.4654814 -0.077425584 -0.33497727 -0.20792714 0.37827563 0.09333007 0.49877107 -0.021068523 -0.04661196 0.29663098 0.49803218 -0.47595125 0.05931142 0.6825452 0.33534354 0.21612637 0.484085 -0.5049328 -0.5689452 0.08062076 -0.44725055 0.22700466 0.17334287 -0.46846566 0.74001926 -0.58566135 -0.21215102 0.07961164 -0.42614454 -0.2352891 -0.16087903
回 0.52000666 0.16122188 -0.4560202 -0.12810536 0.06182026 -0.07869581 -0.17784394 -0.6436838 0.079725996 0.61653864 -0.6144957 -0.29204774 -0.07570123 -0.46242416 -0.9329123 0.27684945 0.88764775 -0.038051765 -0.4969059 0.55254585 -0.5770601 -0.36778983 -0.07042871 0.26663736 0.19592762 0.42798397 -0.13658588 0.2911704 0.32954922 0.7090492 -0.14892313 0.2602302 0.47373894 0.843727 0.5556615 0.34153017 -0.17704925 -0.66264045 0.011201253 -0.6694994 0.2794219 0.102745764 -0.39923117 0.6459324 -0.57498044 -0.2663912 0.026900932 -0.52873415 -0.45445094 0.25090104
宰 0.04134804 0.14144978 -0.44661456 -0.116836816 -0.10302561 -0.31085578 -0.21343213 -0.65572864 -0.14701821 0.51396626 -0.4376036 0.18069337 0.21939419 -0.27701622 -0.69316745 0.52534604 0.41351727 -0.2436141 -0.8072319 0.40138948 -0.17528763 -0.12784213 -0.005936629 0.16103429 0.03459626 0.3082929 0.07743036 0.33666742 0.22516227 0.517966 -0.13522556 0.23129408 0.34026113 -0.14225997 0.45023793 0.3599565 -0.2503348 -0.48235604 0.21709396 -0.45748204 0.43452138 -0.097400755 -0.45838895 0.5876715 -0.42110372 -0.22771598 -0.16477011 -0.39765546 -0.52425873 0.012209373
朝 0.11429658 -0.032474387 -0.74259543 0.0682321 -0.03301781 -0.46989873 -0.61294603 -0.8130273 -0.37353384 0.5429557 -0.66928285 -0.30093548 -0.05640194 -0.29821056 -0.8461553 0.48893076 0.2599845 -0.24446957 -0.6170523 0.087549746 -0.4766809 0.123557866 0.12602909 0.4367395 0.01459189 0.48950294 0.2341411 0.09303246 0.4335686 0.46408874 -0.53574 0.22305273 0.19538379 0.06435847 0.5846008 0.2199645 -0.3374272 -0.32902965 0.27895913 -0.24433844 0.30639428 -0.01864985 -0.2664889 0.73127323 -0.2338225 -0.12799945 0.25100195 -0.29111475 -0.62895286 0.0024874946
莫 0.3565472 0.27223954 -0.7292837 0.107421316 0.14581342 -0.49647322 -0.17868434 -0.41479266 -0.17706765 0.726532 -0.9196226 0.112424925 0.5324818 -0.28101453 -0.7140631 0.05862211 -0.18151061 0.030306624 -0.8515325 -0.10213155 -0.044110566 -0.45466298 -0.35022548 0.61035734 0.020707874 0.6542172 -0.09865395 -0.24493363 0.39786854 0.39888927 -0.65108454 0.30458453 -0.22550052 -0.021629559 0.73123217 0.3204987 -0.45852682 -0.512272 0.21986844 -0.635784 0.034285635 -0.45198137 -0.25696096 0.3200231 -0.22038475 0.19364418 0.04174616 -0.44484034 0.08951558 0.19698393
若 0.13880792 0.0860903 -0.6499654 0.29821864 -0.02737414 -0.45777217 -0.47243643 -0.6537062 -0.18698524 0.6846123 -0.5076457 0.1682302 0.24783753 -0.16489597 -0.8476057 0.14071666 0.10601943 -0.5486008 -0.8946255 0.21139088 -0.18704508 -0.2388932 0.12578303 0.15357727 0.013662003 0.24678785 -0.2692752 0.12280028 0.22871727 0.33858502 -0.16296317 0.1083242 0.2589725 -0.10198981 0.6027586 0.4153004 -0.20926009 -0.8092093 -0.0002328991 -0.41453993 0.08212332 -0.212826 -0.5786098 0.5701974 -0.38770327 0.31428507 -0.047576107 -0.09622597 -0.43291527 0.059053995
云 0.3481348 0.38769078 -0.6720034 0.22429258 0.09258981 -0.2934565 -0.2794948 -0.250327 0.044539504 0.6150188 -0.45237568 0.13782692 0.07921458 -0.34346265 -0.54680777 0.19387166 -0.22598489 -0.35158485 -0.636743 0.36627418 0.1253466 -0.38109338 0.20953698 0.34290403 0.20139198 0.3854861 0.3079869 0.24650964 0.34037793 0.6174986 -0.1562491 0.2469165 0.15535119 0.24934854 0.52592885 0.3625883 -0.21697783 -0.45431927 -0.087673135 -0.031430405 -0.03207705 -0.25724706 -0.43183178 0.50560635 -0.22930302 0.056115333 -0.21836537 -0.08504389 -0.5979083 -0.2230563
孙 0.7228233 0.2803783 -0.71619207 0.4148991 0.2591396 -0.13961282 -0.5601034 -0.24647544 0.15274444 0.66137576 -0.6166421 -0.5599088 0.36925352 -0.42786425 -0.42912254 0.35050574 0.09861198 0.08301875 0.09529251 0.5743263 0.004301848 -0.2835335 0.051878978 0.6216238 0.27616423 0.49651733 0.024061885 0.41182286 0.16005836 -0.013005372 -0.14383431 -0.04366564 0.19564423 0.26723427 0.50118124 0.4366836 -0.21583132 -0.2577707 -0.3993066 -0.102721535 -0.14406402 -0.1729337 -0.3315134 0.69032764 -0.123352095 -0.09771993 0.15179984 0.32754928 -0.30431065 -0.18474163
或 0.40081325 0.36073795 -0.4840328 0.34473163 0.053486682 -0.19024804 -0.41728023 -0.17627743 0.15316515 0.5599908 -0.46922955 -0.15504141 0.37901956 -0.07421268 -0.8149578 0.04565142 -0.116460234 -0.88483065 -0.7896497 0.46869987 -0.117131144 -0.28151098 0.26768893 0.4305286 -0.024150565 0.54620314 -0.022860615 0.58845854 0.073949106 -0.29503 0.11956294 0.10133382 0.44535556 -0.2790743 0.42802477 0.3289608 -0.03648907 -0.6279593 -0.1557421 -0.24594623 0.038131416 -0.13416621 -0.5585764 0.42754626 -0.42565542 0.12635307 -0.27193004 -0.0023281788 -0.4248971 -0.2853731
勇 0.26304373 0.02421492 -0.689329 0.531518 0.085585006 -0.30628353 -0.33338794 -0.2575895 0.22292255 0.36044466 -0.523608 -0.33977732 0.24307814 -0.42278528 -0.26600116 0.3159435 -0.15455328 0.060581025 0.102342 0.4878586 -0.44013226 0.017425831 0.3056217 0.5115351 -0.1764273 0.54213566 0.25580588 0.4359878 0.47542143 -0.12707669 -0.42212865 0.22792073 0.13632375 -0.10050721 0.015799906 0.10372396 0.0015126755 0.11728416 -0.50077534 -0.14872283 0.0368244 -0.20563793 -0.6472708 0.6018526 -0.44233596 -0.23661295 -0.25183794 -0.19606957 -0.26555067 -0.32539687
